04d3ad10aceb69fcfb3a55d102ba7cff__27.55_36.02 0.0521502793 -0.0607919991 0.3423067033 0.1376314163 0.2772750258 0.0504758172 0.4875943065 -0.0057854755 0.0071753403 0.2316046208 0.0091945101 0.0009021116 0.1863584220 0.2853895426 -0.0674483106 -0.1557206511 0.2766655684 -0.0742080063 -0.0854322165 -0.1807469577 0.3727985024 0.0084814318 -0.1456003040 -0.0235353541 -0.1027735919 0.0641895458 0.1556449831 0.1246420965 0.5219128132 0.3033410311 0.5623487830 0.0308165960 0.0650607646 -0.1340991706 -0.2170377523 0.2988177240 0.6531432867 0.1786831915 0.1079513431 0.0933384895 0.1198259369 0.0482620820 0.0073041818 0.0640518740 0.5113245845 0.1703300327 0.4128041863 0.0886842757 -0.2067401409 -0.2092533559 -0.1500735730 0.0786341801 0.0635893643 0.3769485652 0.3748487830 0.2316786349 0.8056538701 0.1861210763 -0.0444216654 -0.0922926813 0.1074109823 -0.1012319475 0.0123907318 0.4943304360 0.1766689420 0.7235572934 -0.0616547093 0.0592154190 0.0228589624 0.1531176865 -0.1501634419 -0.1399013847 -0.1626100689 0.1409255117 -0.0978239104 -0.2176804394 0.3766804636 -0.2202753723 0.5734811425 -0.0201867707 0.1899938136 0.0310568623 0.4064502716 0.2780201137 0.0410860144 0.1815603971 0.0656399876 -0.1459332705 0.3217509091 -0.1934831440 -0.1907590926 0.7047568560 0.0447987653 -0.0967008919 -0.0945345089 0.4994568825 -0.1788045764 -0.0834729597 -0.1542728543 0.0462796763 -0.0868603215 -0.0035369052 0.3532042503 -0.1448020041 -0.0053258389 0.0260732230 0.0974801853 -0.0999949798 -0.0811312646 -0.0083304290 -0.1638025194 -0.2530486584 -0.0066073555 0.5564092994 0.5700743794 0.1899906993 -0.0578090139 0.2471771687 0.1694962829 0.1200800464 0.1183859110 -0.0350404680 0.1764524281 0.1113477722 0.3789543509 0.3334141672 -0.1286352724 0.0334769674 -0.1082542315 -0.0110200467 0.3138493598 0.0036846215 0.2391654700 -0.1043123975 -0.0696278885 0.3000635207 -0.2339067459 0.3234258890 0.1759252995 0.2766351998 0.1460262537 0.0420078449 -0.1396898329 0.0797590613 -0.0390680693 0.2030317187 0.0311508756 -0.1063110903 0.1262592673 -0.0407361910 0.1269960403 0.3330246806 -0.1400595158 -0.0026363027 0.0924768299 -0.1486624181 0.0331224129 0.1789415777 -0.0561729707 0.0007215356 0.0593433939 0.5517901182 0.4001982808 0.6936802268 0.3577199876 0.0800487921 -0.0554291867 0.1660911888 0.0030297763 0.2679571807 0.0750936493 0.0478588268 0.2385986000 -0.1624670029 0.2344398201 0.7421107888 0.4651330709 -0.1151077598 -0.2030131668 -0.0347326919 0.2248972356 0.1033919975 0.0182906557 0.4884608388 0.2778258920 0.2449588776 -0.0682303235 0.4844331741 -0.0117563196 -0.0173369795 0.0264185593 0.0511618853 0.6637145281 0.0168824084 -0.1707674712 0.3264404833 0.0885586217 -0.1127570197 0.0931549668 0.0271459389 -0.1211990789 0.0998287946 0.0454597175 0.3050255477 -0.0279310197 0.1142565012 0.4669655263 0.2745984197 -0.1008882672 0.1012169719 -0.1025750935 -0.0779476762 0.0614753738 0.0567754954 -0.0290132016 -0.1147709861 0.2813320458 0.0284852535 0.0480087698 -0.0085947495 -0.0003102645 0.0708369017 0.0966077223 0.1883791983 0.4329168200 -0.1767366081 -0.0363635160 0.3555892110 0.4729161263 0.4223881364 0.1848563999 0.0874525607 -0.1365927607 0.0355107039 0.4219551682 -0.0563337766 -0.1177302375 0.3607760072 0.1982551217 -0.0796007663 -0.2619697750 0.1355539262 0.3004721403 0.3317525089 0.0749521106 -0.0210557655 0.2512652874 0.1293068528 0.0363284573 0.7194302082 0.2176883668 0.3212021291 0.4056510925 0.5129829049 0.0605687127 0.1569355130 0.3640514314 0.3189927340 -0.0777289867 0.3582199812 -0.1469377577 -0.0455310233 0.1871409267 -0.0912396684 0.0264577921 0.0102876015 0.1623927951 -0.0252793189 0.6819705963 0.3650473356 0.2503226101 0.0875244439 -0.1251047701 0.0714923143 0.1081160083 -0.0522524193 -0.1813621521 0.2547133863 -0.0135628330 0.5359020233 0.0142839281 0.1886119992 0.5229613781 0.0648514554 -0.0515924916 0.0640824810 0.0995595902 -0.0122831659 0.2430077195 -0.0468096137 0.2215329409 -0.1834905893 0.4477493763 0.5490492582 0.0065423944 -0.0319162533 0.4345386326 -0.0101304380 0.0926792696 0.0133261662 0.0090607796 0.0144415274 0.2217949182 0.1814676672 0.0910341889 0.1943896562 0.2089873850 -0.1308587939 -0.0669907480 0.0262209307 0.0531671494 0.5533101559 0.1852736324 -0.0059527676 0.4656186402 -0.0222721603 -0.0095949136 0.0150793195 0.0920156315 0.3127428293 -0.0202403516 0.3203291893 -0.0679611266 -0.0544616655 0.1861025393 -0.0726231337 -0.0932055712 0.4278193414 0.0313503221 0.4602949619 0.4370909929 -0.0040658023 -0.1430274695 0.0788340867 0.2714357376 -0.0790920779 -0.0768527687 0.6653496623 0.3340638876 -0.0470276624 0.5464513302 0.4160529077 -0.0671229288 -0.0625504255 0.3883332014 0.0744674355 0.4914199412 0.3333379328 0.0906728506 0.4439015090 0.4229968190 0.2899317443 0.4442483783 -0.0505375117 0.2457258701 0.1914951950 0.4270689785 0.2838686407 -0.1244092733 0.2702125311 0.0990262702 -0.0483997427 -0.0097952066 0.3511937857 -0.1748991311 0.4438197613 -0.2371495515 0.2292250544 -0.1979439855 0.4885828495 0.3641991317 0.2262071967 -0.0854245871 0.2466153502 -0.0543310717 0.2875126302 -0.2708550692 0.0340733454 -0.1269788891 0.0861089826 0.0833892897 -0.0373908803 0.4079194367 -0.0146284606 -0.0376945399 -0.0336962268 0.4170963764 0.5572088957 -0.0480910130 0.1435017735 -0.2033640295 -0.0425499566 0.0266852528 -0.3488680124 -0.1121280491 0.4918589592 -0.1403420568 0.3680673242 0.1578637064 -0.1010047793 0.7467718720 0.2731599808 0.4328778982 -0.0724470615 0.7154893875 0.2432835549 0.3151613176 0.6121947765 -0.1108209789 -0.0522129461 0.1571203619 0.2802721560 0.0674014986 -0.0360238552 0.2598403096 0.1335285753 -0.0245972555 0.2269337475 0.4511444569 0.3568594456 0.2937214375 -0.1847535521 0.2120236605 -0.1673956960 -0.1030067578 0.0914835259 0.1434345096 0.0183063298 -0.0703504682 -0.0469685532 0.3777337670 0.2631029785 0.1649997681 -0.0947906971 0.1705158502 -0.0618340857 0.5655310750 -0.1925166696 0.4262638092 0.0809530392 0.4188591540 -0.0995554551 -0.1833645254 -0.1365652978 0.1928094774 0.0752424225 -0.1112337187 0.1078400537 -0.0416422859 0.2476933897 -0.0344360285 -0.0340073965 0.2055779696 0.3353691697 -0.1076507270 -0.0849635974 0.0982778445 0.1485468447 0.4966876507 0.2390165627 0.0991043821 -0.2366625071 0.1391010284 0.1163637564 0.3871870041 0.0867414027 0.1270275414 -0.0628068000 0.0003519119 0.2241144478 0.1936588287 0.3757556677 -0.0441136099 -0.1624038070 -0.2603254318 -0.1259459108 0.2687537968 0.0219783988 -0.2603763044 0.4311662316 0.3295640349 -0.0174775608 -0.0658645034 -0.0726716071 0.4057548046 0.1110087037 0.0937196612 0.2658519745 0.7934322953 -0.2035500109 -0.0267135762 -0.0724362433 -0.0173737817 0.0461290404 0.6730338931 -0.1745965034 -0.1125198305 0.3023104370 0.1255966127 0.1915038973 0.0086925961 0.1473483145 0.1775873899 0.2287782729 0.1981562227 0.2629994750 0.3713844121 0.2235401720 0.3066782653 0.0253676772 0.1445746869 -0.1037014425 0.3786000907 -0.0085827932 -0.1635109186 0.3995612860 -0.1204751432 0.0444539189 0.5406711698 0.1363842785 -0.1210065782 0.0353168696 0.6130211949 0.0738990009 0.0942797661 0.1000802964 0.5532707572 0.2616878152 -0.1046900004 0.1721769422 0.2177848816 0.1815619469 -0.0679377392 -0.0684052855 0.3594296277 0.2605819702 0.0552643277 -0.1674827635 0.1131167114 0.0240983181 0.0713745356 0.0377943739 0.7749261856 0.3964531124 0.0930848569 0.1675304919 0.4919777513 0.3858562708 0.5000438690 0.1560122520 0.2742663622 -0.0128150657 0.5731779337 0.3459846377 0.1367716342 -0.1114746258 -0.2026088387 0.3413279355 0.1031744406 0.6118067503 0.2654437125 -0.1394064426 0.1059456840 0.2378015518 -0.2932445705 -0.1137228012 0.1344434023 0.2482881695 -0.0776041448 -0.0571748763 0.2719917893 -0.1974583715 0.0997283310 0.4095724821 0.3264799416 -0.1666775495 0.4908076227 0.0560255088 0.5756690502 0.0667403042 -0.0507993512 -0.2257671207 0.0289381668 -0.0991807655 -0.0073577352 0.0476729795 0.0145802032 0.4375955760 -0.1363415867 0.4542274177 -0.0607296675 -0.1172294915 0.0786730796 0.0650673732 0.0401917771 -0.1189851463 -0.1217491403 -0.0812369585 0.0882875025 -0.1202669740
0501982b07698c64b559f0d25b5b0c8b__31.88_53.81 0.0523374155 -0.0247205477 0.3574571908 0.0326021388 0.2869580984 0.0006785467 0.5940632224 0.0395162851 0.0058171572 0.2055166811 0.0021936353 0.0038405415 0.1776466966 0.3133588433 -0.0549463779 -0.1728413105 0.3638034165 -0.0217999704 -0.0588662960 -0.1802301556 0.4513803422 0.0574398041 -0.1268052310 -0.0377681628 -0.1013684943 -0.0005260878 0.1566380709 -0.0007120818 0.5097669959 0.2235448658 0.7634301186 0.0361364111 0.0492302217 -0.1241053194 -0.2235660404 0.4384444654 0.7810111046 0.1157607362 0.0214114934 0.1190296263 0.0666678250 0.0373584852 0.0396339931 0.2001730949 0.5103384852 0.2107073218 0.3705237508 0.0780060217 -0.2019405067 -0.2030514926 -0.1496463120 0.0287496187 0.0682947859 0.3588605225 0.3856915534 0.2348980457 0.9725862145 0.1280913502 -0.0189977251 -0.0892117396 0.1653709859 -0.1148326546 -0.0039336225 0.4364750683 0.1626597941 0.7248814106 -0.0548818335 -0.0029250253 0.0419431701 0.1553111076 -0.1488345265 -0.1609539241 -0.1607590169 0.0071503129 -0.0797034130 -0.2404302806 0.3660949171 -0.2130814940 0.6324877739 -0.0282289572 0.1871823967 0.0088244919 0.4599121213 0.2680077553 -0.0580134802 0.1389904171 0.0549260005 -0.1521495879 0.3602461815 -0.1927041858 -0.1906721294 0.7102912068 0.1841464341 -0.0920601413 -0.0815127715 0.5925939083 -0.1904560477 -0.0671974719 -0.1460320354 0.0333698988 -0.0822702050 -0.0456059352 0.3765690625 -0.1528579444 -0.0748561174 0.0078239990 0.1424213350 -0.1083669439 -0.0527137034 -0.0400485285 -0.1501351148 -0.2590639889 -0.0797486007 0.6868125796 0.6032499671 0.2627105713 -0.1744056940 0.2583036423 0.0390611961 0.1309351921 0.1582705677 -0.0141558116 0.2272359133 0.1523924023 0.4465589821 0.3173734546 -0.2953168452 0.0222963057 -0.1117697433 0.0365936086 0.4287015796 -0.0192235000 0.3164890110 -0.1271735579 -0.1486486793 0.3437973857 -0.2063702941 0.3415829241 0.1379552633 0.3671576977 0.1237138286 0.0651879013 -0.1319501847 0.0611847341 -0.0089007225 0.1693744361 0.1282702237 -0.1992883980 0.0358828455 0.0158861186 0.1534750909 0.3271889091 -0.1330947429 -0.0030927169 0.0771162510 -0.1307213306 0.0130238216 0.1885115951 -0.0351148434 0.0669560358 0.0745503902 0.5484406948 0.4143975377 0.7688956261 0.3195907176 0.1045695692 -0.0526662543 0.1230670363 0.0003341673 0.2802130282 0.1083986089 0.1150495857 0.2610239089 -0.1558210701 0.1775377840 0.7981457114 0.4905887544 -0.1118485555 -0.2094599009 -0.0424116887 0.1882081926 -0.0443615317 -0.0163549166 0.5095514655 0.1582023203 0.1982294917 -0.0483899415 0.5426236391 -0.0137585551 -0.0076047857 0.1084472910 0.0469655879 0.6957644224 0.0411353484 -0.1731217504 0.3632877767 -0.0939755961 -0.1258715838 -0.0846563131 0.0054408275 -0.1407352835 0.0455584824 0.0478633866 0.3445160389 -0.0459784679 0.0042463653 0.5483611226 0.2523460984 -0.1070514992 0.0996153653 -0.1050121784 -0.0802299455 0.0803646743 0.0425531678 -0.0476771481 -0.1249600053 0.1804808676 -0.0407439396 0.0316773728 -0.0615195557 0.0109348278 -0.0302112512 0.0350995474 0.3109914958 0.5391101241 -0.1619874090 -0.0596318841 0.4539340734 0.4505337179 0.4749947190 0.1789947152 0.0359876864 -0.1234187409 0.0209362302 0.4934073687 -0.0473247394 -0.1042847559 0.3485755920 0.2363746762 -0.0890971199 -0.2442296296 0.1468675286 0.3525147438 0.4251863956 0.0824620053 -0.0886454582 0.2016135007 0.1636377275 -0.0215994287 0.8490391970 0.2609183192 0.3589884043 0.3831925690 0.5307120085 -0.0050014108 0.0905504376 0.3569848537 0.2677032948 -0.0667886138 0.3933754861 -0.1513178647 -0.0500135198 0.3329730630 -0.0655379295 0.0144465063 -0.0511893742 0.2423028350 -0.0407925323 0.6723464131 0.3739669621 0.2712530196 -0.0619550906 -0.1441487372 0.0785932541 -0.0717228651 -0.0360700488 -0.1770879328 0.4031297863 -0.0050450945 0.4422258437 -0.0177455135 0.0997837037 0.6701554060 0.0487077497 -0.0253377147 -0.0124927815 0.0616600141 -0.0164927002 0.3428207636 -0.1044467762 0.1274762452 -0.1707973182 0.4653159976 0.5841263533 0.0101165697 -0.0110655744 0.3789300025 -0.0498339534 0.0287515745 -0.0243075285 0.0532578900 -0.0085506961 0.3189950585 0.1862818748 0.1176571250 0.0512310341 0.2310839146 -0.1611550897 -0.0627598614 -0.0184111148 -0.0012104614 0.4809103310 0.2546060979 0.0022199177 0.4734267294 0.0566478595 -0.0092080273 0.0151670463 0.0890362412 0.3622117341 0.0070149479 0.2846484780 -0.0628249124 -0.0496647209 0.0128465965 -0.0915183946 -0.2043801099 0.4435826838 0.0297786556 0.4968486428 0.4059420526 -0.0139580052 -0.1237363294 0.1381533593 0.3277249932 -0.0742488280 -0.0546521619 0.7574619055 0.3287535310 -0.0583487973 0.5415048599 0.3704212308 -0.0684504732 -0.0491297059 0.3798039854 0.1059463471 0.4314808249 0.3156845868 0.1267501414 0.4605316818 0.4312918186 0.3477411866 0.3607933223 -0.0171621256 0.2213569880 0.1385150701 0.4229160249 0.4283680320 -0.1314551979 0.3064661324 0.0917177200 0.0289392434 0.0103927096 0.3447625041 -0.1837949306 0.4824501872 -0.2523037791 0.2616634667 -0.2143356204 0.4163497090 0.3794879615 0.3047962785 -0.0794196650 0.2873741388 0.0345022455 0.3272816837 -0.2906630635 0.0363248102 -0.1449972540 -0.0764341205 0.0552182198 -0.0297081470 0.4898794591 0.0060169250 -0.0306721702 -0.0264425538 0.3040153980 0.6418311000 -0.0368715711 0.1717075706 -0.1908972710 -0.0512467921 0.0153796785 -0.3723419309 -0.1056225002 0.4879198968 -0.1562143415 0.4489709735 0.1494419128 -0.0905771405 0.8999676108 0.2851909697 0.4211330712 -0.0234193392 0.8400037289 0.1728522629 0.3070304692 0.5483956337 -0.1295155883 -0.0744289979 0.0644414499 0.2848131955 -0.1263318062 -0.0287075415 0.3269579709 0.0206202641 -0.0235151630 0.2115375400 0.4900200963 0.4104871750 0.2650219500 -0.1819899231 0.2494526505 -0.1618559808 -0.1630745828 0.0349808335 0.1836515665 0.0505301133 -0.0882812887 -0.0619666874 0.4029920399 0.2339623421 0.1339004040 -0.0961318016 0.1105427444 -0.0528875999 0.6544294357 -0.1814785600 0.5832100511 0.1272867173 0.5000378489 -0.0750824437 -0.2014406323 -0.1548740119 0.2402148843 -0.0102406051 -0.1132794321 0.1960910708 -0.0423608683 0.2486421466 -0.0474755615 -0.0133989435 0.2924436033 0.4255995750 -0.1036567613 -0.0787960663 0.1252603382 0.1306107491 0.4525994062 0.3115762770 0.0521304160 -0.2483306527 0.1405249387 0.1346489489 0.1692517698 0.1167157367 0.1241385490 -0.0599363111 -0.0034258342 0.1791649163 0.2299943566 0.3266674876 -0.0297845062 -0.1415817887 -0.2266546637 -0.1244704872 0.3806715906 -0.0006887466 -0.2658422589 0.3756241500 0.3331486285 -0.0162810981 -0.0637508705 -0.0595559478 0.3723047078 0.1123311743 0.1470852494 0.3117779791 0.8104485273 -0.2082855254 -0.0162999444 -0.0836911723 0.1270630211 -0.0629543141 0.6547676325 -0.1864258200 -0.1476821452 0.2764161527 0.0487022959 0.0886956304 -0.0270463340 0.0474507175 0.0236406010 0.2086846381 0.2016011775 0.3455801308 0.3623873591 0.2525265813 0.2199670225 0.0235789418 0.0190503784 -0.1021424085 0.5249944925 0.0225191154 -0.1550177485 0.3665708899 -0.1299195141 0.0622415468 0.4932566285 0.1677927971 -0.1416376382 0.0526235737 0.5593747497 0.0658333972 -0.0556654036 0.0299215615 0.7192503810 0.2320882976 -0.1025035828 0.0376414880 0.2667403519 0.2065855861 -0.0704510659 -0.0725652128 0.4183345139 0.3829537630 0.0502809435 -0.1384546757 0.1039612442 0.0023331465 -0.0175674930 0.0197545923 0.6705619693 0.4430028796 0.1648311317 0.0514664911 0.4887005687 0.4539483786 0.4978236556 0.2447612137 0.3046136498 -0.0128306951 0.6218999028 0.2017933279 0.0315482989 -0.1178252473 -0.1927302182 0.3395662010 -0.0392462835 0.6329024434 0.2450494021 -0.2031136155 0.1377747506 0.1928667426 -0.2904663980 -0.1088067293 0.1369263977 0.2209302038 -0.0786260217 -0.0667881370 0.2220202982 -0.2133861184 0.0265716705 0.4077342749 0.2493490577 -0.1802078784 0.5434387326 0.0760777891 0.6535941958 0.0001782663 -0.0580728874 -0.2199616581 0.0181319937 -0.1025803015 -0.0454057679 0.0037456518 -0.0167127363 0.4856145978 -0.1372362822 0.5383234620 -0.0551431328 -0.1174365282 0.0587612838 0.0459062085 0.0660237074 -0.1481815428 -0.1323647797 -0.0917748511 0.0989759341 -0.1259737611
052d51961c0fe9196b3431943afeb8f5__644.80_715.45 0.0760382116 -0.0035073496 0.2315048277 0.2516963780 0.2190606743 0.0706819296 0.4832555056 0.1216905117 0.0701063722 -0.0407232195 -0.0123236012 -0.0088342410 0.2159554362 0.4199032485 -0.0536437705 -0.1205445603 0.2979335189 0.1285321862 -0.0611588322 -0.2122500390 0.3725722432 -0.0829274133 -0.1691614091 0.0133154858 -0.1375325173 0.0719501376 0.2380851656 0.2713339627 0.4984732866 0.6903626323 0.7245352268 0.0346622281 0.2005159557 -0.0925393403 -0.2034679055 0.2250509262 0.6367050409 0.3638185859 0.2407403737 0.1202732995 -0.0256621782 0.0198298283 -0.0379909538 0.0816481262 0.3399086595 0.2156909555 0.2490905821 0.0989855379 -0.2288389355 -0.2465005666 -0.1463596374 0.2472279072 0.2238163054 0.3524929583 0.5094448328 0.1585742086 0.7037233710 0.3096027374 0.0625606328 -0.0417429619 0.1443342268 -0.0784977898 0.0025085332 0.4020952284 0.3479948640 0.4860003889 -0.0774512962 -0.0080731753 0.0853066742 -0.0025990792 -0.1725323200 -0.1323996186 -0.2042381018 0.0415160209 -0.0895175189 -0.2417418212 0.4963291287 -0.2447990924 0.6492669582 -0.0298020206 0.1654053479 0.0106039140 0.4042517245 0.1475600302 0.1145492643 -0.0702249408 0.1932105273 -0.1849853843 0.0773317367 -0.1994376034 -0.1902532727 0.5018779635 -0.0356599353 -0.1149209961 -0.0915192813 0.5345913172 0.0304573644 -0.0708571970 -0.1067152023 0.2787971497 -0.1116289571 0.0232593194 0.3368149102 -0.1599622071 -0.0292254686 0.0430955850 0.3612854779 -0.1070967019 -0.0725238174 -0.0238609146 -0.1584835202 -0.2303119898 -0.0176222641 0.7396141291 0.6952263713 0.3721589446 0.0507997833 0.2427210361 0.1582161188 0.1165036559 0.1266113222 0.3323156238 0.0674781129 0.0227096900 0.3502935469 0.6538153291 -0.0702908263 -0.0350937508 -0.0878353417 0.0770892650 0.2053946257 0.0139325354 0.2240013927 -0.1191953719 -0.0344654322 0.3949168921 -0.2386021316 0.3399158418 0.0614106879 0.4459355175 0.0426105261 0.0381370671 -0.1066205278 0.0063986364 -0.0007380153 0.1776829213 0.2370295823 -0.0658218861 0.1302483529 0.0526114404 0.2472736388 0.3864794672 -0.1733148247 0.0217314400 0.0644361377 -0.1188733578 -0.0083240364 0.4045015275 0.1485435516 0.0180659667 0.1076371223 0.5174312592 0.4422270656 0.3886653781 0.2236472219 0.0896669254 -0.0615301058 0.0255711004 -0.0123513825 0.3655892909 0.1219767109 0.0455418229 0.1418313831 -0.1684644520 0.1628610790 0.6174989939 0.3852455914 -0.1365156621 -0.2208788395 0.0311591309 0.2541313469 0.0073166378 -0.0139948186 0.5441088676 0.1046217605 -0.0089278519 -0.0728803873 0.4720132351 0.0071421750 -0.0564470664 0.0508007929 0.0091182403 0.5257910490 0.0125476131 -0.1766254306 0.2636906207 0.3852176666 -0.1054879427 0.1660727859 0.0202796739 -0.1375223547 -0.0168396533 -0.0344723538 0.4223862588 -0.0509405397 0.0119923912 0.5812748075 0.2738004625 -0.1188265681 0.1039396524 -0.1225793734 -0.0093473475 0.2107174546 0.0124996174 -0.0289884787 -0.0676662773 0.4889184833 -0.2558365762 0.0119560789 -0.0033912249 -0.0336523503 -0.0726015270 0.2849442065 0.2093364447 0.3978767991 -0.2081258595 0.0633535162 0.1208906025 0.4801385701 0.3194537163 0.3927170932 0.1774445176 -0.1574569494 -0.0115653500 0.4329858124 -0.0700827911 -0.1446560621 0.3154771030 0.0043044379 -0.0263534077 -0.2459562719 0.2617835999 0.3624765575 0.2363615781 0.0653056577 -0.0189431105 0.1429047734 0.1045052409 0.0139085539 0.7981003523 0.3068543077 0.3780309558 0.4500938058 0.2814493477 0.0744210407 0.2940992713 0.4019054174 0.3537974954 -0.0754634365 0.2375461012 -0.1371857375 -0.0646173880 0.2805056572 -0.0916522965 0.2196398377 0.1798200160 0.0721580312 -0.0088399472 0.5630495548 0.4807852209 0.3162353337 0.0366422273 -0.1577451527 0.0427262001 0.0916161910 0.0595625117 -0.1690899730 0.5112781525 0.0954726636 0.2769812346 0.0006055767 0.0384128168 0.3229637146 0.0533923022 -0.0137327248 -0.0379009917 0.0587546676 -0.0417734310 0.2730966806 -0.0320549905 0.2959558368 -0.1636608392 0.3746796250 0.3471076488 0.0162218399 -0.0276865531 0.6245322824 -0.0060283719 0.0270445403 0.0466148555 0.0748407394 0.3350909948 0.1266423762 0.1669079512 0.0088213123 0.1210870296 0.1634165645 -0.1449830383 -0.1023183465 0.0876298174 0.0730909109 0.4488688409 0.2730594873 0.0006937520 0.3063444793 0.1943504959 -0.0153930597 -0.0013764838 0.0764449313 0.2097435743 -0.0222875960 0.2786563337 -0.0671428666 -0.0808484629 0.2844472229 -0.1441195607 0.0571436509 0.2631582022 0.0711520091 0.3833199739 0.3648905158 -0.0254231039 -0.1389969587 0.0781316310 0.3173062205 -0.0780791715 -0.1010852680 0.4606223702 0.0997845456 -0.0750687793 0.5378335714 0.4763147831 -0.0260384232 -0.0741042569 0.4615686238 -0.0181451757 0.5694717169 0.2857445776 0.0995812342 0.3050815761 0.5770477057 0.0817977041 0.4503508508 -0.0866323858 0.0305849221 0.0434967689 0.2516227961 0.3914577663 -0.1130084842 0.1598943770 0.0406032391 0.0794081390 -0.0166083463 0.5517052412 -0.1597942561 0.3809196949 -0.2783109546 0.2553053498 -0.1399535984 0.2461448312 0.2329560071 0.3268469870 -0.0966259986 0.0374048874 -0.1138894036 0.1364199817 -0.3013722301 0.0243503116 -0.0657702908 0.0162808467 0.0717472211 -0.0234001558 0.4712063968 0.1122820526 -0.0547292121 0.0146238441 0.4983142912 0.5913782120 -0.0657355413 0.1429747194 -0.2084220797 -0.0688365921 0.1545457691 -0.3508867621 -0.0806335062 0.6274200082 -0.1255766153 0.3661043048 0.0490111709 -0.0867953598 0.8454235196 0.3332603276 0.4983503819 0.1263417900 0.6548274755 0.2570726275 0.2218380421 0.7253825665 -0.0746867359 0.0238198917 -0.0758884549 0.2672584951 0.1547740698 -0.0418613516 0.4161131084 -0.0537714809 -0.0460214168 -0.0292190332 0.6710705757 0.3194611967 0.1397710890 -0.2478598356 0.2472361624 -0.1661352664 0.1013330221 0.0399766676 0.0001334911 0.2026537657 -0.0464441851 -0.0262738355 0.0802950785 0.0770981088 -0.0336419344 -0.1010533124 0.0972980484 0.1258011013 0.7461554408 -0.2198412269 0.3481394053 0.1147190556 0.3049480915 -0.1163088903 -0.2341210097 -0.1264349967 0.3307475746 0.2674288452 -0.1174238771 0.2063549012 -0.0228142962 0.3960036337 -0.0600827262 0.0119585004 0.2992271781 0.3451984525 -0.1190622374 -0.1054273546 0.0361723974 0.1024028733 0.6022768617 0.3675857484 0.0679470152 -0.2389070690 0.2394282073 0.1740799248 0.1365069449 0.0596099086 0.2998945117 -0.0659027621 -0.0255346112 0.1687581092 0.0597006902 0.2971391082 -0.0479230545 -0.1632241756 -0.2482073903 -0.0870969892 0.4696523845 -0.0181000922 -0.2609221637 0.4115276635 0.4473286867 0.0006421227 0.0453506112 -0.0588403679 0.4625580013 0.0234669186 -0.0102049112 0.5025756359 0.8226547241 -0.2495127320 -0.0658170506 -0.0930471495 0.2280135155 0.1057006493 0.7782389522 -0.1726336926 0.0125779379 0.2457973063 0.0310724955 0.3394950926 0.2298236638 0.0128384707 0.2829879820 0.0572294258 -0.0153966825 -0.0184015632 0.3843218386 0.4894408882 0.1216046363 0.0181754902 0.0387730859 -0.1373118758 0.5016478896 0.2900886238 -0.1977056712 0.2497566044 -0.0962301716 -0.0551655814 0.5335263610 0.2229593098 -0.1415386498 -0.0004996294 0.3837761581 0.2194718122 -0.0725461841 0.0375332907 0.5221149325 0.4029718637 -0.1041948050 0.1055216938 0.1950162500 0.1137879789 -0.0903260410 -0.1446284503 0.3686712980 0.3022505641 0.0473556258 -0.1784982681 0.1604159176 -0.1181980669 0.2999729812 0.0493783243 0.5887776613 0.1471065134 0.1026249602 -0.0718111768 0.8181768060 0.2089776099 0.2987219989 0.1048925444 0.3844079971 0.0483116768 0.3710916936 0.4685265422 0.0468541086 -0.1430083960 -0.2056848556 0.3370646536 -0.0293188039 0.6000516415 0.0340326950 0.0401533991 0.1258794367 0.1572815776 -0.2701804340 -0.0932937637 0.1666751206 0.2620106339 -0.0713070557 -0.0480661765 0.2086025476 -0.2108556926 0.1138763800 0.4213630855 0.4857961833 -0.1307416856 0.5490311384 0.0547660515 0.4146564305 0.0528294705 -0.0442806184 -0.2610353827 0.0505006015 -0.0881477967 -0.0592124648 -0.0378473029 0.0641519055 0.6536324024 -0.1754017919 0.3410398364 -0.0669278279 -0.1145925298 -0.0170533508 0.0301698390 0.1948424578 -0.1375254840 -0.1250386983 -0.0837461799 0.0787695944 -0.0863251090
0568a687dd49d0e523746b00249ac073__59.38_75.95 0.0524721667 -0.0153455939 0.3088859320 0.0923458338 0.2422438860 0.0305893980 0.5448197722 0.0662233531 0.0223976690 0.1227704883 -0.0035982598 -0.0066721262 0.1878671646 0.3207437992 -0.0537270159 -0.1468348205 0.3230363429 0.0298567470 -0.0566559173 -0.1799286157 0.4032176137 0.0233880002 -0.1325025707 -0.0177764129 -0.1071820110 0.0155537743 0.1748360842 0.0807427689 0.4670973718 0.3549864292 0.7091099024 0.0309354123 0.0967604965 -0.1148926914 -0.2007093579 0.3561586440 0.7082001567 0.1811272204 0.0912287682 0.1113883480 0.0319916829 0.0335086919 0.0210971776 0.1742329895 0.4371140003 0.2133695185 0.3171920478 0.0899718553 -0.2026633620 -0.2082002908 -0.1310892254 0.0894749761 0.0972901881 0.3361656666 0.3974795938 0.1948671341 0.8451091051 0.1682107449 0.0151690403 -0.0724946633 0.1553778797 -0.0994097367 -0.0058841268 0.3982436359 0.2093628198 0.6145369411 -0.0560471416 0.0040143672 0.0655925944 0.1009039283 -0.1514960378 -0.1413498074 -0.1698119789 0.0196479931 -0.0828667581 -0.2231571078 0.3768467307 -0.2151141316 0.6016546488 -0.0262490436 0.1625659466 0.0129186902 0.4312661588 0.2185841352 -0.0040360889 0.0858897194 0.0949873850 -0.1537877917 0.2645048797 -0.1820603013 -0.1749868840 0.6122996211 0.1255269200 -0.0921588764 -0.0822473913 0.5437843800 -0.1128826588 -0.0615123175 -0.1345423311 0.1004730836 -0.0932446197 -0.0265123732 0.3400975764 -0.1533947736 -0.0515782461 0.0072792345 0.2107888907 -0.1028365120 -0.0599781610 -0.0298942793 -0.1404816508 -0.2350549251 -0.0579458252 0.6667664647 0.5920221210 0.2829178572 -0.1021300554 0.2391251177 0.0643670559 0.1114240736 0.1410556585 0.0965002775 0.1696189195 0.1123437062 0.4044980407 0.3932317495 -0.2190314531 0.0016432379 -0.0918301567 0.0589637756 0.3432053030 -0.0051586758 0.2751524746 -0.1153464839 -0.1139086112 0.3372860253 -0.1997736096 0.3236587048 0.1118832231 0.3756201565 0.0945844650 0.0577926375 -0.1187386736 0.0488883257 -0.0151038636 0.1597711146 0.1591062844 -0.1552084982 0.0490146801 0.0285217166 0.1728506535 0.3262550831 -0.1376310140 0.0019585579 0.0743242353 -0.1219050735 0.0157784391 0.2465205789 0.0296244770 0.0553011261 0.0886846781 0.5065289736 0.3942330480 0.6215280294 0.2683823705 0.0980118588 -0.0514425524 0.0956002995 -0.0010454977 0.2893304825 0.1035151780 0.0847921520 0.2124733031 -0.1457806677 0.1536572576 0.7040480375 0.4242535532 -0.1154447868 -0.2010704875 -0.0126101673 0.1998979747 -0.0277580488 -0.0138557535 0.4936585724 0.1268240511 0.1335633993 -0.0615128465 0.4905551076 -0.0038765594 -0.0261614658 0.1027673781 0.0423938632 0.6101354957 0.0349392295 -0.1649377942 0.3083560467 0.0494457148 -0.1150144488 -0.0115320049 0.0050489400 -0.1231484562 0.0289369281 0.0234287623 0.3386431634 -0.0384481214 0.0049756691 0.5293642879 0.2370663732 -0.1025797203 0.0977800637 -0.1043523476 -0.0611949153 0.1023645997 0.0311048552 -0.0372587070 -0.1034567133 0.2558939159 -0.1037050709 0.0187597629 -0.0384986103 0.0020210315 -0.0418109857 0.1057186127 0.2681933641 0.4809941053 -0.1691683084 -0.0195712298 0.3357328475 0.4321065247 0.4024020433 0.2352174371 0.0681606457 -0.1252218932 0.0048353262 0.4624191225 -0.0549598299 -0.1095638424 0.3205769956 0.1659011543 -0.0714874417 -0.2267839462 0.1657715589 0.3362188041 0.3486340642 0.0745398253 -0.0610615350 0.1704825759 0.1438026130 -0.0151017923 0.7846403122 0.2601087093 0.3488579392 0.3683570325 0.4247761667 0.0303592514 0.1453322619 0.3545013368 0.2726556063 -0.0740343928 0.3256293237 -0.1375919580 -0.0546200313 0.3003576398 -0.0719388872 0.0751043260 0.0230697356 0.1944491416 -0.0311602727 0.6139755249 0.3853568435 0.2762416601 -0.0292169936 -0.1369801909 0.0589115508 -0.0255260915 -0.0003813151 -0.1647102684 0.4171818495 0.0145979440 0.3689562976 -0.0157227963 0.0811833218 0.5385239720 0.0428170152 -0.0234100781 -0.0145648699 0.0594910011 -0.0257560350 0.2997620106 -0.0877503157 0.1781870425 -0.1661561280 0.4163037241 0.4808100760 0.0127963349 -0.0192773882 0.4195551872 -0.0332344063 0.0344862007 0.0016234647 0.0551648140 0.1029229909 0.2434175313 0.1753455698 0.0889421105 0.0702018142 0.1925575286 -0.1506211609 -0.0699732304 0.0151390061 0.0205373839 0.4522325695 0.2482743561 0.0042830487 0.3952595890 0.1066915914 -0.0122095235 0.0049542375 0.0865395516 0.2961624861 0.0080244718 0.2585080266 -0.0646649823 -0.0521433949 0.0906836689 -0.0954349041 -0.1259978712 0.3725114167 0.0392927714 0.4319813550 0.3705166578 -0.0121858567 -0.1175784841 0.1130388454 0.3030190766 -0.0716408640 -0.0709846094 0.6366412640 0.2494595647 -0.0594583340 0.5128706694 0.3786152601 -0.0498841777 -0.0552012101 0.3774812520 0.0704097897 0.4409076869 0.2953253984 0.1243155152 0.3865004778 0.4389717281 0.2594174743 0.3611366451 -0.0410990007 0.1553596258 0.1045209616 0.3464401066 0.4045089185 -0.1167756170 0.2472890019 0.0656508654 0.0457880609 0.0025599897 0.3918789625 -0.1691417694 0.4275745749 -0.2376083881 0.2385027558 -0.1774051785 0.3433419466 0.3179280758 0.2929454446 -0.0746793747 0.2062408328 0.0066113509 0.2610712051 -0.2806452215 0.0344612151 -0.1139510125 -0.0450479500 0.0540751480 -0.0276182666 0.4649435580 0.0365250930 -0.0364339203 -0.0164345689 0.3356135786 0.5905884504 -0.0488938838 0.1546042413 -0.1828376800 -0.0505126752 0.0654689670 -0.3521456122 -0.0944671184 0.4924304187 -0.1354349703 0.4011521041 0.1070390567 -0.0850686431 0.8395373225 0.2846505046 0.4313984811 0.0290093124 0.7381014824 0.1945838034 0.2657648325 0.5649101734 -0.1096068472 -0.0386670418 0.0248603318 0.2629386187 -0.0460516214 -0.0304473657 0.3310133219 0.0033015311 -0.0243736114 0.1428825408 0.5174003243 0.3661997914 0.2155052274 -0.1969498992 0.2326310873 -0.1534193605 -0.0757707953 0.0432043783 0.1320949793 0.0946772099 -0.0769706666 -0.0579820648 0.3010324240 0.1695116311 0.0818402246 -0.0953727067 0.1024794057 0.0071195802 0.6389084458 -0.1815680712 0.4924090803 0.1224429831 0.4237984121 -0.0888629779 -0.1974455267 -0.1350360215 0.2622830868 0.0699692965 -0.1103725359 0.1950578690 -0.0327875763 0.2746575773 -0.0545232929 0.0017273421 0.2794009745 0.3760282993 -0.1022094265 -0.0725891143 0.0996629745 0.1069631353 0.4525485337 0.3141974211 0.0586039573 -0.2389894426 0.1637875885 0.1359010935 0.1475315839 0.1027717590 0.1711036712 -0.0666915998 0.0079721287 0.1697316170 0.1733209938 0.2990456223 -0.0328159928 -0.1372392327 -0.2251395881 -0.1099225208 0.3874300718 -0.0030639414 -0.2465168089 0.3614200056 0.3433757126 -0.0001684055 -0.0163161829 -0.0521794334 0.3666435480 0.0860297903 0.1051866114 0.3509098887 0.7580280900 -0.2101100087 -0.0353352912 -0.0735877380 0.1592539251 -0.0014284477 0.6461707950 -0.1746258289 -0.0935564041 0.2560066879 0.0391947404 0.1503560543 0.0492223501 0.0364264064 0.0875262544 0.1497045308 0.1323063076 0.2385254651 0.3508449197 0.3122306764 0.1788937002 0.0192460828 0.0306638479 -0.1061525568 0.4961717129 0.0931300819 -0.1597290188 0.3066265285 -0.1151855513 0.0354113057 0.4741230607 0.1691092700 -0.1385588497 0.0341130383 0.4695221484 0.1023581922 -0.0495840572 0.0320768431 0.6230320930 0.2606015205 -0.1017763093 0.0546260960 0.2387269288 0.1651480645 -0.0694750324 -0.0848841667 0.3706149161 0.3489801884 0.0483898669 -0.1508059055 0.1138847694 -0.0281697251 0.0786086470 0.0290075317 0.5957275033 0.3470217884 0.1429331154 0.0143147456 0.5500875711 0.3678845465 0.4149824679 0.1862115711 0.3125844598 0.0116046052 0.5182753205 0.2582153380 0.0397899635 -0.1235832497 -0.1842648536 0.3203605115 -0.0387067273 0.5864807367 0.1739154458 -0.1269484609 0.1335982084 0.1685601920 -0.2676864564 -0.0928738490 0.1325572133 0.2131049186 -0.0739307255 -0.0582622215 0.1985363364 -0.2016866505 0.0649163127 0.3853048682 0.2947722375 -0.1509979516 0.5125464201 0.0655350611 0.5503078103 0.0192490481 -0.0544897392 -0.2161794454 0.0205058232 -0.1003533751 -0.0349665247 -0.0026726080 -0.0024755453 0.5015971661 -0.1458393931 0.4628858268 -0.0479109474 -0.1080709323 0.0371028408 0.0493409187 0.1056479439 -0.1378507167 -0.1293317080 -0.0834217221 0.0866597295 -0.1055196300
0568a687dd49d0e523746b00249ac073__99.49_118.57 0.0409870893 0.0246746950 0.4463677108 -0.0389680788 0.2659478188 0.0693261176 0.7757450342 -0.0311784931 -0.0301602352 0.3339806199 0.0273143183 -0.0119600715 0.1763116121 0.2558550537 -0.0575527847 -0.1797972023 0.3930646181 0.0024368837 -0.0971640646 -0.1722835153 0.4200198650 0.1448088586 -0.0995399430 -0.0037657935 -0.0822887421 0.0064713075 0.0952908248 -0.0411796197 0.5008753538 0.0586158186 0.7202236056 0.0735586435 0.1621646434 -0.1319110394 -0.2437956035 0.4573404491 0.7427932024 0.0238440502 -0.0364233740 0.1614558399 0.1811300665 0.1067809984 0.0691816807 0.3668172061 0.5286263824 0.3739185631 0.3673734069 0.2076609582 -0.1829510629 -0.1897720993 -0.1432558298 -0.0338872857 0.0250155125 0.3649769425 0.2470215112 0.2348519713 0.9545152783 0.0528806448 -0.0133728096 -0.1112953350 0.1822073609 -0.1464704871 -0.0159796923 0.4525898695 0.0750589073 0.7286621928 -0.0573697090 0.0284280386 0.1850738227 0.2658460736 -0.1169922575 -0.1597280949 -0.1406404227 -0.0201143306 -0.0680418164 -0.2392113060 0.2383806705 -0.2013089359 0.4880560338 -0.0462779924 0.1288324594 0.1006451026 0.3699901402 0.2855570614 -0.0462202542 0.2945579886 0.0929680765 -0.1636987180 0.4987054467 -0.1884552687 -0.2234632969 0.6957644820 0.2833094001 -0.0592053905 -0.0903061181 0.4754957557 -0.1510927975 -0.0788616985 -0.1489195228 -0.0163701922 -0.0738401711 -0.0216797739 0.2773466110 -0.1585998088 0.0298793986 -0.0424602851 0.0835885331 -0.1135013402 -0.0443224385 -0.0480873100 -0.1514676064 -0.2425091416 -0.1261167824 0.7240988016 0.4823350012 0.1923329085 -0.3342629671 0.2271684557 0.0487242080 0.0821093023 0.1527833343 -0.0741759688 0.2811986208 0.2905285656 0.5643315315 0.1580356359 -0.4510024190 0.0383377112 -0.1255239695 0.1371456534 0.4895730019 0.0065108510 0.3115845621 -0.1390319914 -0.2154643387 0.3032268584 -0.2064234018 0.2700217664 0.2221434116 0.2652867436 0.1899349242 0.0854975581 -0.1329411268 0.0833385661 -0.0342138559 0.1533320546 0.1405143589 -0.2600930333 -0.0847597420 0.0322024636 0.1024807468 0.3433274329 -0.1384552270 0.0206142906 0.1704607755 -0.1465424150 0.0286893416 0.1205836609 -0.0740022883 0.0886513293 0.0546174012 0.5852364302 0.3045938909 0.8808532953 0.4505815506 0.1006228998 -0.0492262132 0.1891584098 -0.0192848537 0.1656425893 0.0720453486 0.1365619153 0.2941570282 -0.1440965086 0.1521802992 0.9457089901 0.4115513265 -0.0983056948 -0.1853058189 -0.0528828800 0.1632245779 -0.0794689134 0.0354353860 0.5432113409 0.1521597803 0.3321031928 -0.0393897146 0.5852219462 -0.0285482928 0.0166784450 0.0972342193 0.0953565240 0.7251583338 0.0414837301 -0.1472267956 0.3203397393 -0.2245068550 -0.1409889758 -0.0484078564 -0.0458859541 -0.1284279525 0.1535656750 0.0957937911 0.2930938005 -0.0492968149 0.0211489219 0.5124335885 0.2386992872 -0.1101688668 0.1635985225 -0.1053889021 -0.0678111911 0.0773818195 0.1093891189 -0.0727576837 -0.1702268124 0.0818717927 0.0965493843 0.0835406631 -0.1053295583 0.0483211353 0.0307103433 -0.0568393245 0.3217732906 0.6757595539 -0.1345675439 -0.0430773050 0.5632531047 0.4105650187 0.4552651346 0.1106932461 -0.0146863107 -0.1231052577 0.0634726360 0.6030420065 -0.0654086545 -0.0769104064 0.2987626791 0.3404328227 -0.1125844941 -0.2260194421 0.1220320091 0.2564644516 0.4891763628 0.0384069681 -0.1532171518 0.2086768448 0.1665748358 -0.0428646728 0.8493137360 0.2273077518 0.2852567732 0.3972716331 0.5914284587 -0.0595057681 -0.0157343131 0.2720555067 0.1537286192 -0.0853263885 0.4091468751 -0.1454083174 -0.0600168817 0.4125408530 -0.0654868558 0.0662154108 -0.0511864088 0.3923376203 -0.0563159063 0.6138291955 0.2950673103 0.1885555983 0.0119577758 -0.1385396570 0.0554063283 -0.1858334839 -0.0261243638 -0.1810664684 0.3654167056 0.0168006904 0.4485522807 -0.0353418328 0.1316581219 0.7189585567 0.0382021181 0.0104812384 0.0346282348 0.1010291576 -0.0102637382 0.3687269092 -0.1389479488 0.0087923678 -0.1727986187 0.5970263481 0.6397845745 0.0169464108 0.0063659227 0.2202317417 -0.0126583138 0.0699218512 0.0538218245 0.0744367838 -0.0872166455 0.4084604979 0.1872662455 0.1649002880 -0.0100532081 0.2090136707 -0.1915294230 -0.0530605838 -0.0383449942 -0.0608536191 0.4131072760 0.2160018682 -0.0306065660 0.4886112809 0.0982164890 0.0024455558 0.0191624351 0.0725475922 0.3864056766 0.0288503245 0.2961134315 -0.0812747180 -0.0672932938 -0.0174611099 -0.0821373910 -0.3408023417 0.5473628044 0.0824097767 0.4375510216 0.3615796268 -0.0403121226 -0.1081951112 0.1647439450 0.2913371921 -0.0747564584 -0.0522408411 0.9085285664 0.4762258530 -0.0481411889 0.4343710840 0.2093416303 0.0287075900 -0.0432275906 0.2764655650 0.1521472782 0.2621265650 0.3980815709 0.3210158050 0.4583567679 0.3714086711 0.4789051712 0.2887259722 -0.0221587960 0.3325716257 0.2045793235 0.4440116286 0.3936710656 -0.1410237253 0.3522073925 0.1135528237 0.0644263551 0.0599732585 0.1661846042 -0.2014537454 0.5546643734 -0.2492314130 0.2847351730 -0.2206494957 0.4527747333 0.4052847922 0.2710932791 -0.0734252855 0.4160547554 0.1979089081 0.3924414814 -0.3001476228 0.1057569683 -0.1895098686 -0.0017285012 0.0741666853 -0.0355567895 0.6095060706 -0.0193876512 -0.0336111784 -0.0132611087 0.1967813969 0.5726400614 -0.0310537610 0.2263641655 -0.1736607403 -0.0719758868 0.0799810737 -0.3618615568 -0.1167642921 0.3686064482 -0.1587491333 0.4640424252 0.1722345501 -0.1048962474 0.8728481531 0.2077555656 0.2925581634 -0.0244385824 0.8191453815 0.0739183277 0.2900021374 0.3284825087 -0.1424483657 -0.0435455665 0.2338446528 0.2909250259 -0.1330937743 -0.0193371326 0.2670541704 0.0607355498 -0.0165365525 0.3434460461 0.3259788156 0.3525787294 0.4196050167 -0.1539782733 0.2598221898 -0.1608674377 -0.1722482890 0.0829529390 0.2621281743 0.0561128445 -0.1186166629 -0.1025169790 0.5782068372 0.3165778220 0.2514867783 -0.1112507284 0.2120063752 -0.0129885180 0.5450038314 -0.1647551060 0.7784821391 0.1559106857 0.5659345984 -0.0460626110 -0.2055903673 -0.1829475760 0.3091078699 -0.0737399384 -0.1309740394 0.2771396041 -0.0516444147 0.1839749217 -0.0450491607 0.0188431125 0.3263783455 0.3925880790 -0.0640223920 -0.0731436908 0.1373617798 0.1486702263 0.2846183181 0.3994179070 0.0942013115 -0.2329562902 0.0993136838 0.1437714398 0.1571222693 0.1376438886 0.0780983195 -0.0888590217 0.0507096536 0.1528351158 0.3354887366 0.3283174634 -0.0362780839 -0.1657800674 -0.2285176069 -0.1637992859 0.3591739833 0.0785426423 -0.2910439968 0.3227829933 0.2612910271 0.0925294086 0.0004569981 -0.0509482659 0.2309242636 0.1793169677 0.2353877127 0.2451412082 0.6572971344 -0.2062257230 -0.0192673393 -0.0777495727 0.1607258916 -0.0281386748 0.4604951441 -0.1973457783 -0.0869949609 0.2946237028 0.0486906283 -0.0143844970 -0.0091320071 0.0785180330 -0.0030464251 0.3176740408 0.3558695018 0.5691626072 0.3679042459 0.1709466428 0.2401793450 0.0114496434 0.0133387465 -0.0867384821 0.5426954031 0.0166732352 -0.1472857296 0.4801074862 -0.1515619308 0.1320211291 0.3314399421 0.1891236156 -0.1431944519 0.0826884434 0.5356515646 0.0602479689 0.0246700384 0.0298870150 0.7090854049 0.1205435693 -0.0918202177 0.0405468270 0.2577148974 0.2313937396 -0.0772465542 -0.0431445278 0.3806445301 0.3725741506 0.0264824666 -0.1056195870 0.1695385724 0.0980168954 -0.0357294641 0.0363996811 0.7073575854 0.6013280749 0.2253971845 0.1417054534 0.3191047609 0.5229700804 0.6082134843 0.2570533156 0.3762903214 0.0009694574 0.7082815766 -0.0409069806 0.0701346099 -0.1164796576 -0.1774354428 0.2687181532 -0.0219856407 0.7418619394 0.3686067462 -0.1978613883 0.2240394950 0.1627335101 -0.2865791023 -0.1203492358 0.1119563282 0.1155326590 -0.1133486629 -0.0801357478 0.1571991444 -0.1941349655 0.1253389269 0.3202139735 0.0885994509 -0.2394868582 0.5030143261 0.0583122186 0.7531068325 0.0137108732 -0.0753237754 -0.2047272772 -0.0145584531 -0.0769336075 -0.0104013570 0.0910714269 -0.0557120107 0.3191882670 -0.1285437495 0.5877844095 -0.0425413586 -0.1153953671 0.1375605464 0.1339133084 0.1473468095 -0.1607078314 -0.1393063515 -0.1098344550 0.0915989205 -0.1113361865
065631d00f18a4152ef4b0a61d0b333b__782.30_794.44 0.0476729050 0.0157618616 0.2839904428 0.0998729765 0.1954414994 0.0670988709 0.5155677199 0.0811523944 0.0478325896 0.1471360922 0.0349670202 -0.0089293029 0.1433792114 0.2762115002 -0.0623902380 -0.1308198124 0.2907650769 0.0537893884 -0.0683868453 -0.1654226482 0.3416825831 0.0524983294 -0.1214516461 0.0191772953 -0.0899697915 0.0222869068 0.1634126306 0.1088115498 0.4123068154 0.3356703520 0.6087440252 0.0483279303 0.1312717497 -0.1023782641 -0.1846829206 0.3095377982 0.5878555179 0.1582663059 0.0815855861 0.1038833186 0.0600254163 0.0367641822 0.0425202139 0.1904635727 0.3885909319 0.2489379644 0.2976883948 0.1174535304 -0.1860731393 -0.1979065835 -0.1274200827 0.1010659188 0.0805298463 0.2852150202 0.3404883444 0.1918958127 0.7125793695 0.1487030983 0.0377903879 -0.0663335994 0.1439097673 -0.0938554779 -0.0022255974 0.3648296297 0.2149123400 0.5133767724 -0.0546479672 0.0662911534 0.1011875644 0.1300012767 -0.1384884268 -0.1220194027 -0.1571160853 0.0786343589 -0.0695342645 -0.2068212926 0.3246227503 -0.1937439144 0.5250036120 -0.0213956162 0.1372732818 0.0321965963 0.3690002561 0.2012751251 0.0230983682 0.1294627041 0.1130982563 -0.1413998455 0.2716156840 -0.1722797453 -0.1723126322 0.5400289297 0.1223952472 -0.0822165534 -0.0805269703 0.4795957208 -0.0956112668 -0.0611701682 -0.1198917553 0.1059923396 -0.0734726861 -0.0053249029 0.2576670051 -0.1438269466 -0.0026721284 -0.0069108917 0.2047002167 -0.0998844504 -0.0607199967 -0.0279808473 -0.1400538236 -0.2205533832 -0.0365258306 0.5808754563 0.4948226511 0.2675713003 -0.0849466175 0.1973716766 0.1058148593 0.0949838907 0.1228802055 0.1123496369 0.1598166823 0.1342242360 0.3714723885 0.3802861571 -0.1647479981 0.0047858255 -0.0979146659 0.0915967375 0.2953074872 0.0333772898 0.2331671417 -0.1066859886 -0.0888480917 0.2874174416 -0.1949993670 0.2871150672 0.1112823710 0.3481734991 0.1008126289 0.0594488420 -0.1124812365 0.0697505325 -0.0198215432 0.1539144516 0.1433095485 -0.1125640348 0.0560135357 0.0313855484 0.1488637030 0.2821744680 -0.1234745011 -0.0000709300 0.0685751662 -0.1134305373 0.0417593941 0.2251354009 0.0487209521 0.0361791588 0.0805649459 0.4331396818 0.3365085721 0.5431604981 0.2604594529 0.0801264718 -0.0603190176 0.1295507699 -0.0151216770 0.2572677433 0.1107798889 0.0826270878 0.1834129989 -0.1405935585 0.1483265758 0.6443709135 0.3316034079 -0.0965335965 -0.1893374324 -0.0168112759 0.1669625044 0.0255246572 -0.0003411749 0.4326798320 0.1506747901 0.1541941017 -0.0595059879 0.4280230403 0.0041929111 -0.0168239027 0.0789545923 0.0574953817 0.5291249156 0.0253213905 -0.1573373824 0.2457089722 0.0870667994 -0.1092808917 0.0688907206 0.0033434050 -0.1146515235 0.0746356770 0.0429261476 0.2818755507 -0.0404078998 0.0678790361 0.4522368908 0.2092154771 -0.0961031318 0.0979009569 -0.0939738676 -0.0493356772 0.1054355651 0.0604997948 -0.0449402481 -0.0984521732 0.2378996164 -0.0551037304 0.0319338515 -0.0340512618 0.0277161822 0.0089508006 0.1114677787 0.2340223342 0.4330425858 -0.1437882483 -0.0168684311 0.3203050196 0.3750741780 0.3213473260 0.2101392895 0.0867055953 -0.1193947196 0.0097237248 0.4202157259 -0.0489514805 -0.1013783440 0.2702444494 0.1871421933 -0.0686056912 -0.2096204609 0.1489972472 0.3191590309 0.3115370870 0.0499966443 -0.0528986268 0.1646914035 0.1482655406 0.0171569958 0.6714656353 0.2158219367 0.2882410288 0.3363635838 0.3654272556 0.0829618871 0.1483904868 0.3065723479 0.2347758859 -0.0666669682 0.2970098853 -0.1255712360 -0.0479416959 0.2887862325 -0.0833183229 0.1060735211 0.0555722974 0.1903357953 -0.0284273196 0.5665338635 0.3407712877 0.2532950044 0.0391045436 -0.1309957653 0.0433217622 0.0131015107 0.0116756018 -0.1566258073 0.3657704592 0.0140346298 0.3430913389 -0.0099366019 0.1321004331 0.4753471315 0.0402114689 -0.0152165648 0.0136177605 0.0714726523 -0.0211066902 0.2770367861 -0.0526252948 0.1961724609 -0.1404368728 0.3969445527 0.4246380627 0.0108130202 -0.0188407321 0.3760818243 -0.0129808066 0.0756193325 0.0581235066 0.0570890084 0.1274679154 0.2318904698 0.1491682678 0.0948203206 0.1155204102 0.1555597484 -0.1422186345 -0.0642679706 0.0184119977 0.0487104245 0.4311453998 0.2145539671 -0.0083752889 0.3501568735 0.1081973910 -0.0063438755 0.0109283812 0.0661752075 0.2592480779 0.0103450296 0.2311290652 -0.0580947958 -0.0621043555 0.1473207474 -0.0872650072 -0.0905368552 0.3514236510 0.0532401241 0.3318392634 0.3438780010 -0.0279199276 -0.1110277101 0.1044959128 0.2568750978 -0.0656231791 -0.0576689690 0.5796290636 0.2596577406 -0.0586981252 0.4287460148 0.3222306073 -0.0319141001 -0.0542284362 0.3243269920 0.0717745498 0.3839551508 0.2697473466 0.1738296747 0.3502409458 0.3562427163 0.2507926226 0.3189182580 -0.0450821631 0.1614628136 0.1265835762 0.3016090393 0.3536391258 -0.1106698662 0.2193316221 0.0666801035 0.0559791140 0.0170117263 0.3734229803 -0.1508641243 0.3714553714 -0.2182058245 0.2124258578 -0.1700884700 0.3112789690 0.2829402685 0.2472560257 -0.0742629990 0.2167125940 0.0840844214 0.2332666665 -0.2487355918 0.0719821155 -0.1049614549 0.0245690048 0.0680937991 -0.0165937543 0.4333459735 0.0523738414 -0.0476252995 -0.0085760774 0.2961557806 0.5013945103 -0.0383761786 0.1442209482 -0.1750818789 -0.0516069904 0.0825922489 -0.3058937192 -0.0935550854 0.4294617176 -0.1171989888 0.3539921939 0.0963225514 -0.0901644081 0.7164628506 0.2333524227 0.3791154325 0.0454956889 0.6242932081 0.2110733390 0.2487574369 0.4873359203 -0.1039686501 -0.0262664575 0.0668675229 0.2179774046 0.0146743264 -0.0283260290 0.2860496342 0.0371627398 -0.0318393372 0.1836905926 0.4494267106 0.2885381281 0.2233471572 -0.1804810464 0.2000380158 -0.1405344903 -0.0534907430 0.0644443482 0.1543064862 0.0953086168 -0.0700817332 -0.0642179698 0.3065671623 0.1655193269 0.0918390974 -0.0938173681 0.1167138219 0.0592535697 0.5371971726 -0.1711822748 0.4645848572 0.1110850647 0.3795946240 -0.0747025087 -0.1758908331 -0.1196807250 0.2529363036 0.0998358652 -0.1067538708 0.1996029466 -0.0298569389 0.2203817368 -0.0509381220 0.0112277102 0.2502257526 0.3088770509 -0.0897747204 -0.0788641945 0.1024865434 0.1120591834 0.3764954805 0.3038982153 0.0929726213 -0.2031833380 0.1328243762 0.1157155186 0.1958820075 0.0828598365 0.1568353623 -0.0596473105 0.0409163833 0.1550104916 0.1724643558 0.2707234621 -0.0496824719 -0.1417525411 -0.2179427594 -0.1174607947 0.3377158940 0.0156658310 -0.2323187590 0.3076908290 0.2884413004 0.0338115543 0.0429037809 -0.0579282045 0.3097896576 0.0958133042 0.1086034626 0.2867666781 0.6362199783 -0.1972672641 -0.0294119008 -0.0710446462 0.1633400023 0.0197411552 0.5631789565 -0.1507620811 -0.0744437724 0.2226565182 0.0590226389 0.1476633102 0.0798392445 0.0793910325 0.1131741926 0.1589565426 0.1558658928 0.2699569464 0.3048987091 0.2833700180 0.1837054640 0.0229905248 0.0566698276 -0.1011660695 0.4294396937 0.0938526541 -0.1522235125 0.3065220714 -0.1076163948 0.0707813799 0.3972261548 0.1632617265 -0.1163702905 0.0329309367 0.4064765573 0.0866475105 0.0096917329 0.0616331622 0.5157563090 0.2475254089 -0.0980346873 0.1198308170 0.2011052072 0.1494214982 -0.0732967407 -0.0789709538 0.3146176338 0.2891684771 0.0336165503 -0.1371915638 0.1336600780 -0.0109345457 0.1125893593 0.0405511372 0.5509743094 0.3428937793 0.1493037194 0.0522183403 0.4875770211 0.3319045901 0.3834494352 0.1609082669 0.3053466678 0.0008095326 0.4608954787 0.2308910787 0.0914425999 -0.0994297192 -0.1682032794 0.2844891548 0.0152974278 0.5336619616 0.1787100285 -0.0931156203 0.1452317536 0.1534257680 -0.2546529174 -0.1015385091 0.1086067036 0.1813040227 -0.0723015592 -0.0592802688 0.1868046522 -0.1713724434 0.1308076233 0.3276015222 0.2613957524 -0.1496343613 0.4383198023 0.0566681176 0.4973145425 0.0610654205 -0.0528755374 -0.2020916939 0.0284246430 -0.0880266577 -0.0309559982 0.0210866481 -0.0024155141 0.4479800761 -0.1388488561 0.3962879181 -0.0567496158 -0.0988114923 0.0668776259 0.0830428451 0.1232341006 -0.1306596100 -0.1133291945 -0.0761523321 0.0753678977 -0.0888869464
07dc1cd140aeba37977b33971f1040cd__60.38_67.74 0.0393220633 -0.0608394966 0.2562524676 0.1446645707 0.2518287599 0.0136797987 0.3648987710 0.1690221876 0.0966697931 0.0906357765 0.0319300108 0.0179365110 0.1493820548 0.2965237498 -0.0626976117 -0.1361221671 0.2794203162 -0.0078388639 -0.0462387837 -0.1721511185 0.4074437320 0.0197587311 -0.1613465548 -0.0036650021 -0.1146312505 0.0313512012 0.2290322930 0.1436132789 0.4610566795 0.4464394450 0.6819582582 0.0048510004 -0.0234116875 -0.1240181178 -0.1850815117 0.3582531512 0.7082567215 0.1845853627 0.1224231124 0.0581597313 -0.0450549200 -0.0373881459 0.0372043364 0.0498658642 0.4667784274 0.0747819319 0.4088177979 -0.0466860794 -0.2257026136 -0.2100152820 -0.1583141536 0.1503542364 0.0585529730 0.2869031727 0.5214313865 0.2448617816 0.8387116194 0.1771116555 0.0121575883 -0.0693364516 0.1450758129 -0.0911826864 0.0336419716 0.3863239288 0.3128453195 0.6298585534 -0.0756219104 0.1190437078 -0.0681790784 0.0795235187 -0.1851985902 -0.1374778301 -0.2000482380 0.1894753575 -0.0986682326 -0.2188804895 0.4515953958 -0.2323799878 0.7250986695 -0.0319647975 0.2095785439 -0.0707997084 0.5195333362 0.2367181927 -0.0329438150 0.0771055818 0.0295153633 -0.1261396259 0.2177897096 -0.2031134963 -0.1598555148 0.6917703748 0.0862330720 -0.1173176095 -0.0781552494 0.6718875170 -0.2245797217 -0.0644493699 -0.1522504389 0.0877160728 -0.0983303487 -0.0380225480 0.3697523177 -0.1430731714 -0.1204087213 0.0636605993 0.2521358728 -0.0878539383 -0.0844918191 -0.0155223999 -0.1594308019 -0.2714618742 0.0177744199 0.5286906362 0.6436885595 0.3620079458 0.0658771172 0.2618804872 0.0940377191 0.1391645819 0.1371406317 0.1141625345 0.1517427564 0.0269735269 0.2758053839 0.5252562165 -0.0036793323 -0.0010689597 -0.1167986542 -0.0367022119 0.3196844161 0.0167288631 0.2637034953 -0.1028233767 -0.0179563146 0.3177536726 -0.2294642478 0.4027641714 0.0477120504 0.4801310599 0.0506773628 0.0638550669 -0.1307317168 0.1063510180 -0.0203954168 0.2106101662 0.0872835442 -0.0426120535 0.1897508055 -0.0062312209 0.1877161711 0.2670245767 -0.1407042891 -0.0488225371 -0.0263682008 -0.1181960478 0.0763501376 0.2623975277 0.0466775112 0.0582924224 0.1080104113 0.4194386899 0.4557830095 0.5593921542 0.1592894197 0.0782690421 -0.0563777685 0.1428698152 0.0144981751 0.3980804980 0.1432049274 0.0691681355 0.2028038800 -0.1570506692 0.2168154866 0.5517895222 0.4502539039 -0.1198607907 -0.2215700448 -0.0245374907 0.2069365978 0.1076906174 -0.0424316525 0.3864442110 0.2121721804 0.0773687810 -0.0824980065 0.4108792543 0.0123021789 -0.0351588614 0.1204436272 0.0089744199 0.5717716217 0.0270446576 -0.1990108490 0.3268723190 0.1736909151 -0.1037266031 0.0164400823 0.0710786059 -0.1283549219 -0.0035828352 0.0116256624 0.3217101693 -0.0393057726 0.1009905338 0.4891108871 0.2244098186 -0.1013284400 0.0405082032 -0.0986105204 -0.1102717221 0.0886123627 0.0057568937 -0.0363043323 -0.0928869024 0.2828215361 -0.1329844892 -0.0033001415 0.0265988279 0.0039960183 -0.0121224597 0.1444458514 0.2492937148 0.3431766033 -0.1948680580 -0.0782985464 0.3154149950 0.4420396388 0.3990852833 0.2645976245 0.1348282248 -0.1312503964 -0.0398391187 0.3208298981 -0.0472288467 -0.1357657015 0.3774087131 0.1602284908 -0.0576638915 -0.2589219511 0.1498371363 0.4617982209 0.3005346656 0.0951437652 0.0302890185 0.2015902698 0.2054401934 0.0400172435 0.6897754669 0.2326336801 0.3780264556 0.3000016212 0.3975581229 0.1943375915 0.2558802068 0.4299968779 0.3920267224 -0.0629201680 0.3720340729 -0.1451604217 -0.0389181077 0.2068229169 -0.0886495933 -0.0128838606 0.0279017650 0.1038060635 -0.0067588249 0.7598105073 0.4415940940 0.3914556205 -0.0247195475 -0.1329098642 0.0706912726 0.1958795488 -0.0147467125 -0.1831110567 0.3716442287 -0.0579545610 0.4438287020 0.0318668820 0.1641461551 0.5283567309 0.0651676804 -0.0717695877 0.0012186645 0.0255347081 -0.0179156922 0.2645676732 -0.0174215026 0.3741556406 -0.1673614830 0.2959648371 0.4436119795 -0.0037548891 -0.0224314574 0.5343582630 -0.0464204997 0.0830987096 -0.0176354889 0.0224575717 0.1653272808 0.2030708343 0.1623239368 0.0794457048 0.2335882336 0.2077684551 -0.1148448214 -0.0676745847 0.0246225074 0.1319251060 0.6059551835 0.2686094642 0.0204467010 0.4272722006 0.0170338247 -0.0187358782 0.0075725913 0.0930988193 0.2880462706 -0.0033501135 0.2400795072 -0.0661854520 -0.0423673876 0.1916204095 -0.0942269564 0.0206621923 0.3053949475 -0.0190150477 0.4460655451 0.4762072861 -0.0020115580 -0.1360088736 0.0751318336 0.3052211106 -0.0741204992 -0.0751603767 0.5297387838 0.1783234477 -0.0621034242 0.5945378542 0.5135753751 -0.1694912314 -0.0718751475 0.4499701262 0.0719968528 0.5971696377 0.2023656666 -0.0300767422 0.4330176413 0.3868643045 0.2077657282 0.4151457548 -0.0486441404 0.1137173399 0.1320133209 0.3643980324 0.4038540125 -0.1077425778 0.2043803632 0.0679242536 -0.0217933431 -0.0190835632 0.5796251893 -0.1584975421 0.3392119110 -0.2312768251 0.1991619468 -0.1823543757 0.3722901642 0.3346239030 0.2873082161 -0.0882011428 0.1756670773 -0.0354786366 0.2443004251 -0.2708263397 0.0089481547 -0.0916639939 -0.0373707898 0.0709849969 -0.0268223435 0.3218769729 0.0600278862 -0.0536867864 -0.0635721758 0.4141041040 0.6005261540 -0.0528084822 0.1035072654 -0.2146654725 -0.0239246693 -0.0078690052 -0.3537596166 -0.1001534238 0.5687735081 -0.1431976259 0.3601729274 0.1035150886 -0.0972699672 0.7734121680 0.3369716406 0.5571811795 0.0116230994 0.7238415480 0.3736845851 0.3280280530 0.7610081434 -0.0994504392 -0.1159696281 -0.0502409786 0.2254491448 0.0072022974 -0.0375982337 0.3276715875 0.0647288784 -0.0337353423 0.1459380537 0.6345039606 0.3918244839 0.1095589101 -0.2060572654 0.1906784922 -0.1645933539 -0.1228433475 0.0489356741 0.1675044149 0.0468375087 -0.0555443875 -0.0387648717 0.2502168715 0.1266266257 0.0299309157 -0.0966117159 0.0031793118 -0.0380113162 0.6435634494 -0.1987758130 0.3357128799 0.0852467492 0.3751663566 -0.1113652885 -0.1841831058 -0.1117981225 0.1470341831 0.1533355415 -0.0966152996 0.0997364074 -0.0220626108 0.2462255359 -0.0494337082 -0.0218896493 0.2016557604 0.3728615642 -0.1371948570 -0.0864547715 0.1319778115 0.0920756534 0.5551967621 0.1933428943 0.0645298958 -0.2479767501 0.1450846791 0.1007803380 0.3137195408 0.0866772830 0.1601716131 -0.0440440737 0.0399289802 0.2092684358 0.1280295998 0.3088770807 -0.0369816013 -0.1193510219 -0.2418955564 -0.0872672722 0.3260724843 -0.0507745221 -0.2304105759 0.3991027176 0.3356874883 -0.0586361438 -0.0221252255 -0.0815110058 0.4855256081 0.0570202358 0.0896587819 0.3133847415 0.8645141125 -0.2090361267 -0.0353678875 -0.0650343597 0.0939635336 -0.0509797111 0.8164423704 -0.1622711271 -0.1895692497 0.2294733524 0.0982829928 0.2481218129 0.0041608773 0.1252634823 0.1178655103 0.1068692952 0.0727530494 0.1539570540 0.2969548702 0.3179364204 0.2570625842 0.0299679227 0.1418438256 -0.1243278906 0.4311750829 -0.0060148989 -0.1709981412 0.2312452793 -0.1088419259 0.0672252998 0.6370853782 0.1187157258 -0.1242717505 0.0046173064 0.5401833057 0.0561249480 -0.0196439065 0.1220764145 0.6123753786 0.3602262735 -0.1142853126 0.1784077287 0.2305820286 0.1652255356 -0.0574856885 -0.1043564826 0.3658143878 0.3282236159 0.0526317768 -0.1797139794 0.0449176244 -0.0720460489 0.0802648813 0.0256734341 0.5982239246 0.2857640684 0.0766009986 0.0338293687 0.6280521154 0.3713262081 0.3352552354 0.1808771044 0.2010582089 -0.0303781442 0.4709712267 0.4902462065 0.1119173616 -0.1205428764 -0.2043706328 0.4069597423 0.0665366724 0.4482432902 0.1306879371 -0.1971392632 0.0441549271 0.2214692831 -0.2850356996 -0.1107193008 0.1250418723 0.3071029782 -0.0525001436 -0.0534534603 0.2988495529 -0.1904539466 0.0520421416 0.4777902663 0.4261410534 -0.1066909358 0.5052927732 0.0829433054 0.4781346321 0.0696694255 -0.0446438044 -0.2280299366 0.0692680031 -0.1072013304 -0.0408389047 -0.0630839020 0.0512067564 0.6466989517 -0.1473492831 0.4350397289 -0.0667229369 -0.1103653386 0.0144477114 0.0010398868 -0.0096013360 -0.1204511374 -0.1272575259 -0.0872203484 0.0874961615 -0.1224744245
09110e21df96a538b017e9226efce9f7__117.99_130.47 0.0598710254 -0.0329044536 0.3171034753 0.1023012772 0.2966047227 0.0030501597 0.5192518234 0.0172691103 -0.0138549497 0.1121096760 -0.0294267703 0.0022048270 0.2102192044 0.3739745617 -0.0542757288 -0.1351872683 0.3376489580 -0.0141251087 -0.0641520470 -0.1960192919 0.4392125607 -0.0327256843 -0.1364716589 -0.0525256991 -0.1123486608 0.0155449752 0.1833356470 0.0650749952 0.5387026072 0.3732387424 0.7474985719 0.0171378683 0.0721424520 -0.1291229725 -0.2069842815 0.3390781879 0.7618918419 0.1971318424 0.1076392233 0.1054390147 0.0283053312 0.0388854630 -0.0229217988 0.0947037786 0.4649898708 0.1700736582 0.3166306317 0.0762721747 -0.2001440227 -0.2182789445 -0.1439705491 0.0857556239 0.1273018122 0.3854519427 0.4233736396 0.2083058655 0.9023525119 0.1904635280 -0.0346899405 -0.0740310922 0.1505978853 -0.1049806550 0.0012903520 0.4454509616 0.1863808185 0.6949809790 -0.0575428121 -0.0705259070 0.0116711967 0.0685601607 -0.1546442956 -0.1439457685 -0.1840670258 -0.0239344705 -0.0911020637 -0.2248447090 0.4219067991 -0.2144987285 0.6434043050 -0.0239648893 0.1960300952 0.0080122240 0.4248521328 0.2428720146 0.0159561820 0.0097591132 0.0826958865 -0.1570658982 0.2129387707 -0.1776741892 -0.1821165085 0.6464617848 0.0577359609 -0.0939879790 -0.0788758025 0.5595926046 -0.0960117802 -0.0747977719 -0.1368795186 0.1034986675 -0.0956946686 -0.0229051039 0.4008724689 -0.1519193351 -0.0777730420 0.0139629645 0.1744992733 -0.1058667451 -0.0470257066 -0.0192664843 -0.1421212405 -0.2455868870 -0.0529068708 0.7132784724 0.6607628465 0.2615518272 -0.1005424932 0.2691193223 0.0696640834 0.1388659179 0.1500798613 0.0455611125 0.1584664434 0.0829116181 0.3949126899 0.3902641535 -0.2292834371 -0.0013207968 -0.0875823796 0.0201895088 0.3411387503 -0.0431938283 0.2887674272 -0.0986184701 -0.1137496755 0.3744224012 -0.2148163319 0.3391831815 0.1185772493 0.3553881347 0.1040531322 0.0580324046 -0.1239584759 0.0183181744 -0.0196050629 0.1574902087 0.1439943910 -0.1618170440 0.0626970977 -0.0040077963 0.1771563590 0.3847587109 -0.1440761536 0.0109576862 0.0771448612 -0.1115432009 -0.0245449077 0.2507727444 -0.0161740556 0.0391143858 0.0768425763 0.5641972423 0.4313923717 0.6465604305 0.2971019149 0.1036456004 -0.0453654863 0.0350413993 0.0153258266 0.3000269532 0.0891855508 0.0856681019 0.2215528935 -0.1590783745 0.1781528592 0.7562337518 0.4974541366 -0.1268008053 -0.2108614892 -0.0146351233 0.2313452065 -0.0512448251 -0.0262402389 0.5435063839 0.1358939111 0.1340578347 -0.0589926951 0.5400475860 -0.0030820258 -0.0270834826 0.0639541820 0.0226422977 0.6648656130 0.0308733359 -0.1743788868 0.3543202281 0.0345378593 -0.1094819903 -0.0350257382 0.0021932104 -0.1134961843 -0.0147080757 0.0131854769 0.3896992505 -0.0323477015 -0.0181888081 0.5877441764 0.2904831469 -0.1074017510 0.0929060727 -0.1035960987 -0.0540910065 0.0934011564 0.0176501721 -0.0423515774 -0.0989888459 0.2971169055 -0.1333385110 0.0316957012 -0.0473002866 -0.0238103382 -0.0628789961 0.1144846901 0.2605625391 0.4744883776 -0.1804091483 0.0019715903 0.2890257537 0.5049226880 0.4563378096 0.2369994670 0.0603460148 -0.1306793690 -0.0134407561 0.4668295085 -0.0539292507 -0.1256769747 0.3525624871 0.1194535196 -0.0706048086 -0.2438926548 0.1983632296 0.3206581771 0.3486616910 0.0811297297 -0.0611207671 0.1973726004 0.1050819457 -0.0088428650 0.8481974602 0.2785558403 0.3717794120 0.4317164421 0.4748328924 -0.0401324853 0.1579402536 0.3830759227 0.3182619214 -0.0773162171 0.3309123516 -0.1423492879 -0.0541771129 0.2642274797 -0.0637116134 0.0756537765 -0.0016541928 0.1438555568 -0.0387500636 0.6213715076 0.4221144915 0.2534683645 -0.0579009540 -0.1368169487 0.0674974620 -0.0328280218 -0.0343744084 -0.1638393402 0.4182630479 0.0501626022 0.4056617320 -0.0070993910 0.0239931867 0.5313498974 0.0521183610 -0.0244756099 -0.0339374579 0.0575511046 -0.0127690481 0.3091036081 -0.0889489427 0.1412331313 -0.1822286099 0.4350767732 0.5293321609 0.0151442867 -0.0283668619 0.4799038768 -0.0631887615 -0.0152134709 -0.0464399755 0.0521244556 0.0621680059 0.2294883877 0.1819646806 0.0678673685 0.0504908115 0.2401046306 -0.1472652853 -0.0810405910 0.0030892678 -0.0027579255 0.4715913236 0.2552540302 0.0230494831 0.4340724945 0.0805986524 -0.0311291181 0.0072834641 0.1080452725 0.3079101145 -0.0086268606 0.2891935706 -0.0612397045 -0.0466125160 0.0536226146 -0.0937746316 -0.1309924275 0.3829367459 0.0297049396 0.5204898715 0.3818708658 -0.0022223592 -0.1326560676 0.1093002483 0.3305717409 -0.0741547793 -0.0669763684 0.6532624960 0.2358609289 -0.0597503930 0.5704772472 0.4117818773 -0.0454653129 -0.0654093474 0.4245129526 0.0265768319 0.4953463972 0.3089255095 0.0491960682 0.3992764056 0.5236246586 0.2225968242 0.4188449383 -0.0354440250 0.1511300802 0.0890890062 0.3743060529 0.3916620910 -0.1185610592 0.2505398095 0.0675468221 0.0169557706 -0.0306011252 0.3792428970 -0.1769714803 0.4650442004 -0.2429363430 0.2452828586 -0.1793518662 0.3802400529 0.3243881166 0.3077752590 -0.0767590627 0.1604328454 -0.1197666451 0.2482770532 -0.2897361517 0.0030892715 -0.0997876376 -0.0757645518 0.0443753302 -0.0275153629 0.4636705816 0.0122941155 -0.0277630575 -0.0287659429 0.3902004659 0.6535900831 -0.0519846454 0.1492042542 -0.1942651272 -0.0388378166 0.0361246504 -0.3528246880 -0.0878604278 0.5594760776 -0.1382505298 0.4333982170 0.1359115690 -0.0863335431 0.9049814343 0.2998040617 0.4423212409 -0.0171288848 0.7904648185 0.1615895182 0.2759879529 0.6323621273 -0.1022799164 -0.0360097326 0.0169810951 0.3011016250 -0.0447995886 -0.0375381857 0.3552620411 -0.0186799318 -0.0274976492 0.0900151804 0.5302239656 0.4146483839 0.2332091630 -0.1996563375 0.2580115795 -0.1521916389 -0.0742452741 0.0248696208 0.0699544176 0.0808527023 -0.0538349114 -0.0378539898 0.2545253634 0.1865892559 0.0755625963 -0.0943937898 0.1204181314 -0.0455231331 0.7032886147 -0.1808636189 0.4586680233 0.1213500798 0.4325349331 -0.0956307277 -0.2159553617 -0.1318004429 0.2490031719 0.0439072028 -0.1113925204 0.1581621915 -0.0267925188 0.3302733898 -0.0505444854 -0.0213143639 0.2759021521 0.4012424946 -0.1000986844 -0.0865622312 0.0587594584 0.1165969521 0.5313523412 0.3091426194 0.0201573316 -0.2488076687 0.1933884472 0.1398023516 0.1418539882 0.1024932489 0.1796591580 -0.0594416149 -0.0540732257 0.1941177845 0.1403629035 0.3274968863 -0.0262909830 -0.1456560344 -0.2508465946 -0.1075170785 0.4098303914 -0.0262883212 -0.2489549220 0.4067479670 0.4044305086 -0.0550936759 -0.1131270528 -0.0593979061 0.4320051372 0.0770154595 0.0606668107 0.3842171729 0.8836560845 -0.2023198158 -0.0364455096 -0.0677952692 0.1099514067 0.0033049416 0.7067677379 -0.1896932125 -0.0920973495 0.2807587087 0.0361385755 0.1770560592 0.0272520669 0.0164266080 0.1172789335 0.1439327300 0.0942388922 0.1681154668 0.4002818167 0.3353988230 0.1849322021 0.0235604309 0.0010192962 -0.1113240272 0.5086238384 0.1128523946 -0.1626279056 0.3386398554 -0.1072811335 -0.0259174835 0.5418365002 0.1723026037 -0.1339495182 0.0442343466 0.5266017318 0.1359762400 -0.0713883415 0.0091999676 0.6500455737 0.2780361176 -0.0992899984 0.0186713003 0.2384980172 0.1699992269 -0.0610196628 -0.0785139129 0.3988791108 0.3432264924 0.0672579408 -0.1583223790 0.1170007512 -0.0419322774 0.0713036805 0.0170994513 0.6600955129 0.3187770247 0.1199716777 -0.0061390689 0.5994296074 0.3497648835 0.4315667152 0.1792672426 0.3208987713 0.0162565447 0.5486427546 0.3075232506 -0.0048315972 -0.1295162141 -0.2048182636 0.3342859149 -0.0657355189 0.6474300623 0.1630356312 -0.1305449009 0.1116235107 0.2007939368 -0.2775099874 -0.0920942873 0.1485285610 0.2552779615 -0.0788040981 -0.0476452783 0.2274393141 -0.2059203535 -0.0097105596 0.4247421324 0.3486063182 -0.1646760553 0.5882083178 0.0662717447 0.5711897612 -0.0264853127 -0.0624426119 -0.2312543243 0.0284078158 -0.0856152624 -0.0401860662 -0.0047397604 -0.0040710182 0.5231049061 -0.1467889547 0.4717307389 -0.0474518016 -0.1069473326 0.0081480592 -0.0057987664 0.0781570971 -0.1384312361 -0.1299527735 -0.0858084112 0.0940267965 -0.1098707914
09110e21df96a538b017e9226efce9f7__93.00_103.05 0.0748068243 0.0013286937 0.3852685392 0.1312358528 0.2955344021 0.0619174205 0.6836559176 -0.0232762359 -0.0198004115 0.1541625112 -0.0301509779 -0.0155910105 0.2510355413 0.4219610989 -0.0536021404 -0.1512176394 0.3784671426 0.0441205688 -0.0770079121 -0.2336013913 0.4564692676 -0.0227745026 -0.1523334086 -0.0278946999 -0.1148434952 0.0476488918 0.1829514652 0.1234423220 0.6042223573 0.4240912199 0.8122741580 0.0542855561 0.2042817324 -0.1369051188 -0.2471585125 0.3265205920 0.7917200327 0.2426341176 0.1435273439 0.1658301800 0.1188226864 0.1052975208 -0.0317662321 0.1765088886 0.4842292666 0.3068313599 0.3187366128 0.1973503679 -0.2236797214 -0.2555645108 -0.1621052027 0.1082464606 0.1630982459 0.4509410858 0.4106279612 0.2041534185 0.9252517819 0.2318070382 -0.0096699679 -0.0838224962 0.1673646569 -0.1160085201 -0.0186877344 0.5023627877 0.1981743872 0.7172115445 -0.0609017313 -0.0714167207 0.1317420006 0.1072997153 -0.1660317928 -0.1594032347 -0.2004217058 -0.0482383743 -0.0850672349 -0.2565743029 0.4340052903 -0.2445633709 0.6210054755 -0.0259820968 0.1741027981 0.0848931894 0.3963542581 0.2520089447 0.0946939215 0.0559595414 0.1685328037 -0.1966508180 0.2597291768 -0.2039216757 -0.2216349840 0.6568947434 0.0628480092 -0.0989214331 -0.0990562439 0.5243426561 -0.0079968311 -0.0954812616 -0.1398853958 0.1656945944 -0.1075420380 0.0119555825 0.3895078301 -0.1907225549 -0.0116564110 -0.0057291924 0.2094209641 -0.1445943117 -0.0616565049 -0.0344453715 -0.1772634834 -0.2646206021 -0.0854865909 0.8391370177 0.6963039041 0.2721219063 -0.1658522934 0.2718935311 0.1145413369 0.1336977333 0.1436489671 0.1106052399 0.1714475602 0.1414339393 0.5253645182 0.4228924215 -0.3029547036 0.0002998498 -0.1000103429 0.1116749346 0.3492247164 -0.0088364063 0.2922920287 -0.1239379346 -0.1487270147 0.4209395945 -0.2352636307 0.3275014758 0.1697032899 0.3407591879 0.1380415261 0.0606621988 -0.1387081444 0.0049202847 -0.0316833779 0.1716011465 0.2021080703 -0.1909551919 0.0185914524 0.0187847316 0.1845370531 0.4733499885 -0.1726552546 0.0480346680 0.1369040161 -0.1321254075 -0.0418180898 0.2968534231 0.0098935468 0.0419211090 0.0695381612 0.6598154306 0.4286748469 0.7085991502 0.4094709158 0.1076070815 -0.0705784708 0.0520645119 -0.0044689388 0.2819107771 0.0817187130 0.0940345600 0.2439719439 -0.1887151301 0.1798282415 0.9177491665 0.4854095578 -0.1359979659 -0.2293574661 -0.0132691748 0.2527017295 -0.0644633397 -0.0000289732 0.6692237854 0.1411099285 0.1843714565 -0.0629640892 0.6207038760 -0.0089535378 -0.0268451981 0.0469647162 0.0330952778 0.7192584276 0.0265237950 -0.1827128381 0.3267569244 0.0974625722 -0.1261518598 0.0645600110 -0.0168106779 -0.1476449519 0.0374412872 0.0141537581 0.4248183370 -0.0406542197 -0.0101761259 0.6500982046 0.3185465038 -0.1212496981 0.1476449966 -0.1193321422 -0.0210254099 0.1550635844 0.0483152457 -0.0518776849 -0.1255652159 0.3736138344 -0.1100840047 0.0544561595 -0.0678917915 -0.0164195634 -0.0457991920 0.1382409632 0.2683475018 0.5901858807 -0.1997799575 0.0492106006 0.3050096631 0.5467945337 0.4641811550 0.2720498741 0.0781653300 -0.1590245813 0.0198664721 0.5977147222 -0.0622432567 -0.1363360882 0.3473908305 0.1322736144 -0.0790100768 -0.2587272227 0.2411871552 0.2802959085 0.3949531019 0.0717248470 -0.1034233570 0.2091696709 0.0865324736 -0.0179949924 0.9565823078 0.3152406216 0.3740954101 0.5379965901 0.5020011663 -0.0717524365 0.1552231908 0.3727302849 0.2975989580 -0.0977808163 0.3274332881 -0.1533637941 -0.0778852627 0.3352034688 -0.0787666142 0.1927276254 0.0617599264 0.1994250566 -0.0301623195 0.6160871983 0.4459543228 0.2397729009 0.0195513032 -0.1664738953 0.0572894104 -0.0896968544 0.0032046475 -0.2025414705 0.4768389463 0.1118146032 0.4107746184 -0.0189804509 0.0376442298 0.5421543121 0.0567382202 0.0061536450 -0.0154261049 0.0884393826 -0.0351293534 0.3524170220 -0.1071235910 0.1054136977 -0.2042609155 0.5565632582 0.5776345730 0.0213447623 -0.0324976854 0.5034448504 -0.0175711960 -0.0035309214 0.0154384123 0.0813261345 0.1054563969 0.2729976475 0.2130391449 0.0776371509 0.0265232250 0.2383143008 -0.1868952215 -0.0945749432 0.0206211898 -0.0352091156 0.4634031355 0.2541758120 -0.0020317449 0.4510596395 0.1565466523 -0.0237655789 0.0157122090 0.1010240242 0.3252140880 -0.0105769774 0.3349404335 -0.0669825524 -0.0810130090 0.1129098907 -0.1123175398 -0.1802358180 0.4499152303 0.0907597840 0.5217686892 0.3845819831 -0.0186457764 -0.1469015330 0.1310615391 0.3581555486 -0.0888418928 -0.0851727128 0.7616548538 0.2993639112 -0.0645942390 0.5646901131 0.3849492073 0.0338515416 -0.0672461689 0.4261633456 0.0304589476 0.4715349376 0.4087790847 0.1792449057 0.4061776102 0.6098022461 0.2579602003 0.4551925063 -0.0462372825 0.1881729662 0.1085127294 0.3920244277 0.4036768675 -0.1447235793 0.2659620047 0.0795172453 0.0629298687 -0.0054746186 0.3449500799 -0.2025386691 0.5487289429 -0.2883389890 0.3065796793 -0.1961541325 0.4094979167 0.3342707455 0.3373706043 -0.0844349340 0.2085263431 -0.0746617690 0.2750007212 -0.3237874508 0.0475832298 -0.1303719133 -0.0093984492 0.0632652864 -0.0279027633 0.6145899296 0.0267080553 -0.0335769430 -0.0007351479 0.4259423912 0.6778210998 -0.0652861223 0.2007813305 -0.2190105617 -0.0716869086 0.1158014014 -0.3950041831 -0.0958790183 0.5932418108 -0.1559099555 0.4783741832 0.1488069445 -0.1039068699 0.9891668558 0.2986560166 0.4265702367 0.0269811489 0.8281060457 0.1203355193 0.2782692313 0.5954862833 -0.1149444133 0.0104443710 0.0848457664 0.3429087102 0.0393794067 -0.0449527279 0.3928495049 -0.0205361918 -0.0458290130 0.1153171137 0.5408219695 0.3964977264 0.3325105906 -0.2263966352 0.2996107936 -0.1723586321 0.0047769006 0.0551083498 0.0662115887 0.1431204230 -0.0678919330 -0.0653558299 0.3194928169 0.2347548604 0.1112099215 -0.1246503294 0.2054841667 0.0366385467 0.7555962205 -0.2162021697 0.5912121534 0.1486716717 0.4726256132 -0.0969399139 -0.2483243793 -0.1603138894 0.3645538092 0.0766119584 -0.1363021135 0.2484862059 -0.0293937735 0.3763984740 -0.0624955855 0.0133903287 0.3591920137 0.4106202722 -0.0905047804 -0.1097553447 0.0537655950 0.1346329898 0.5381549597 0.4322580993 0.0572546050 -0.2751021087 0.2284992188 0.1837981939 0.1338801682 0.1099514440 0.2207640111 -0.0817979500 -0.0464410223 0.1926451176 0.1796339750 0.3572005928 -0.0492668860 -0.1924114078 -0.2792202532 -0.1345511079 0.4751201272 0.0297908653 -0.3019490242 0.4393997192 0.4540779293 0.0110804886 -0.0537389219 -0.0531986058 0.4141224027 0.1011847481 0.0775969177 0.4560776353 0.8828366995 -0.2449387610 -0.0508108214 -0.0888764709 0.1776043475 0.0825317055 0.6893888116 -0.2092764527 -0.0151520446 0.3345705569 0.0311044808 0.1903000623 0.1355463564 0.0189006999 0.1925709844 0.1908826977 0.1392028183 0.2221421003 0.4544818401 0.3778328896 0.1921385974 0.0097003644 -0.0131204519 -0.1125450209 0.5732896328 0.2182911932 -0.1866003126 0.4372744858 -0.1266862750 -0.0223153029 0.5020765066 0.2352119982 -0.1444522440 0.0518433377 0.5358194709 0.1959499568 -0.0466697700 0.0040860735 0.6707904339 0.2891211510 -0.1059151143 0.0208572075 0.2379479110 0.1741930097 -0.0850804448 -0.0943068117 0.4314088821 0.3533691764 0.0499755181 -0.1694834083 0.2032064646 -0.0164589956 0.1604415625 0.0428582132 0.7549275756 0.3802205324 0.1619291008 0.0133276666 0.6608751416 0.3602588475 0.5215935707 0.1773229688 0.4506438971 0.0452878214 0.6091239452 0.2576602399 0.0055309795 -0.1401168108 -0.2032047957 0.3298105896 -0.0639821962 0.8074145317 0.2065289617 -0.0403716713 0.1904652119 0.1900413483 -0.3121776283 -0.1105892360 0.1706454158 0.2169871032 -0.0931328163 -0.0652351305 0.2023286521 -0.2331705242 0.0785588995 0.4201654792 0.3443570733 -0.2054562420 0.6436470151 0.0532702655 0.6390852332 -0.0032201558 -0.0756372660 -0.2659129202 0.0053915489 -0.0833622590 -0.0294923205 0.0372586250 -0.0138543732 0.5190566778 -0.1728127897 0.5105913281 -0.0616407916 -0.1202578470 0.0437871665 0.0370798633 0.2003379166 -0.1684827954 -0.1485902369 -0.0943731368 0.1008234024 -0.1127186865
0a38b6c09acf9a223cd9f466dd65dc04__1067.35_1072.38 0.0763125122 0.0524335653 0.3339870274 0.0392369479 0.2478680164 0.0402536169 0.7331253886 0.0054002358 -0.0348852202 0.0474109910 -0.0655495077 -0.0203191377 0.2297347784 0.4245254099 -0.0262758601 -0.1344729662 0.4037477076 0.1441740096 -0.0470669717 -0.2124607265 0.4560472667 -0.0281220078 -0.1051027477 -0.0418604873 -0.1096475050 -0.0092018228 0.1669746488 0.0297183916 0.5168210268 0.3812496662 0.8984615207 0.0512041077 0.2544199824 -0.0940607190 -0.2202253789 0.3700137436 0.7698591352 0.2091034353 0.0836926475 0.1750042140 0.0288074613 0.0925261304 -0.0567646660 0.2908613980 0.3519692123 0.3748567700 0.1714574993 0.1980788261 -0.1858384162 -0.2060776949 -0.1254359782 0.0846028998 0.1992052794 0.3927779198 0.3412812650 0.1343120933 0.9021161199 0.1938001812 0.0435447916 -0.0640516952 0.2066024691 -0.1196350232 -0.0595911592 0.3874041438 0.1474674940 0.5597522259 -0.0548049174 -0.1820314825 0.1873351336 0.0466149859 -0.1249619946 -0.1392375231 -0.1538722813 -0.2396142781 -0.0647350922 -0.2355489880 0.3672460318 -0.1998845637 0.5625702143 -0.0261625089 0.1361277848 0.0867333263 0.3377716243 0.1792182922 0.0416353606 -0.0675610751 0.1940616518 -0.1837586910 0.1875169575 -0.1576833427 -0.1915726513 0.4891755879 0.1480143219 -0.0789151937 -0.0793973655 0.4633416235 0.0820875242 -0.0632609129 -0.1187007278 0.1827845275 -0.0941836983 -0.0113533465 0.3354040980 -0.1696380377 -0.0381164476 -0.0414735451 0.2619650364 -0.1246510893 -0.0143246846 -0.0370742492 -0.1284919530 -0.1970987767 -0.1514307112 0.9169968963 0.6501247287 0.2963480055 -0.2786709666 0.2389354259 -0.0116850445 0.1063325554 0.1628755629 0.1925350279 0.1539176106 0.1561409533 0.5350416899 0.3702279031 -0.4807049632 -0.0285563804 -0.0847905278 0.1827202141 0.3791026771 -0.0522553585 0.3206356168 -0.1088175699 -0.2129317522 0.4278258979 -0.1700334847 0.2632119358 0.1167042404 0.3426408768 0.0831839219 0.0708144084 -0.0984815657 -0.0555330887 0.0079747057 0.0838486105 0.3274108469 -0.2544087172 -0.1203221083 0.0982590318 0.2016394436 0.4589525759 -0.1520038992 0.0624110997 0.1510981768 -0.0844388232 -0.0862793997 0.3128302395 0.0379279293 0.0696033016 0.0863069147 0.6060320735 0.3550429344 0.5839212537 0.3343361616 0.1081258878 -0.0232037660 -0.0611490645 -0.0208258405 0.2213667333 0.0965540260 0.1412293762 0.2069309056 -0.1303366721 0.0688143075 0.8559383154 0.4019056261 -0.1273009628 -0.1853677332 0.0020120349 0.1975770593 -0.2487397641 -0.0147493873 0.6549388766 -0.0443605483 0.0860170946 -0.0362797342 0.6022535563 -0.0211521927 -0.0090906182 0.0986837447 0.0415918604 0.6236401796 0.0459661223 -0.1570380032 0.3095696568 -0.0422615558 -0.1250334680 -0.0790005624 -0.0742968023 -0.1269612014 -0.0271555632 -0.0026074052 0.4334093332 -0.0454885401 -0.1716831326 0.6784891486 0.2878243923 -0.1259800196 0.1598894298 -0.1162170246 0.0087151099 0.1686274260 0.0171790905 -0.0686360821 -0.1086819693 0.2834760845 -0.2232347578 0.0445016101 -0.1165863648 -0.0166616943 -0.1610105485 0.1148353592 0.3306728899 0.6206106544 -0.1573736966 0.0848226696 0.2703990042 0.4493869245 0.4101572037 0.2825899124 0.0226614811 -0.1103945002 0.0236258246 0.6097673774 -0.0646307543 -0.1106053218 0.2669203281 0.0800064206 -0.0549838208 -0.2032905072 0.2598437965 0.2421662807 0.4041364193 0.0452172086 -0.1629502624 0.1016299501 0.0565031469 -0.0989955291 0.9828333855 0.3379761577 0.3663633466 0.4927237332 0.3836540580 -0.1817810386 0.0675709769 0.3042469323 0.1719209552 -0.0751983747 0.2685908079 -0.1299790442 -0.0870035291 0.4512015581 -0.0467375815 0.2135214210 0.0494930483 0.2509592175 -0.0539351702 0.4354291558 0.4038901925 0.1866174787 -0.1090748012 -0.1546235532 0.0395443700 -0.3191339374 0.0344554111 -0.1613425612 0.6004747748 0.1565206200 0.2010094672 -0.0804914758 -0.1255531311 0.5210037231 0.0158676468 0.0616139695 -0.1030600220 0.0541510694 -0.0409614183 0.3710108101 -0.1621084362 -0.0422937050 -0.1556894034 0.5295633078 0.4878768325 0.0223888271 -0.0027016387 0.4059927166 -0.0359584540 -0.1075197980 -0.0019072760 0.1342568994 0.1343955547 0.2941092253 0.1717267483 0.0579599477 -0.1625278890 0.1930144578 -0.2083616704 -0.0815214813 0.0076305941 -0.1088021845 0.2488893569 0.2672205567 -0.0069517172 0.3386959136 0.2791786194 -0.0209882818 0.0006896069 0.0888949111 0.2938223779 0.0063126758 0.2853037417 -0.0455066264 -0.0546852276 -0.0620033592 -0.1216186881 -0.2649854720 0.3848867714 0.1040294766 0.4625580013 0.2365551293 -0.0333637856 -0.1058927849 0.1686089635 0.3597949147 -0.0867377073 -0.0652645454 0.7070878148 0.2292802930 -0.0608428493 0.4577586055 0.2499730140 0.0906650499 -0.0478433222 0.3602961302 0.0230589490 0.3247383535 0.3652093112 0.2369367480 0.2986180186 0.5811171532 0.2203709483 0.3036053181 -0.0180787966 0.1061685383 0.0154726421 0.2599148154 0.4815467596 -0.1363413483 0.2478944212 0.0354366638 0.1710288227 0.0187506527 0.2657339871 -0.1771540791 0.5237145424 -0.2683596611 0.3081943393 -0.1545507908 0.2244738638 0.2595908046 0.3592038453 -0.0680229291 0.1466363072 -0.0281708166 0.2376502007 -0.3206360936 0.0510380603 -0.1028048173 -0.1472646147 0.0392087847 -0.0209595617 0.6441234350 0.0529401079 -0.0135127222 0.0365837067 0.2715708613 0.6553623080 -0.0484016873 0.2119112313 -0.1540945023 -0.0805338994 0.1626542360 -0.3463725448 -0.0882666558 0.5165785551 -0.1196545660 0.4883401692 0.0787193850 -0.0999993235 1.0116231441 0.2628076375 0.3292083144 0.1082248539 0.7866946459 -0.0164595731 0.1792069674 0.4292090237 -0.1050241143 0.0540766194 -0.0079919305 0.3226691186 -0.1304731071 -0.0209965557 0.4139620066 -0.1622729152 -0.0174789969 0.0251953993 0.5018842816 0.3650656044 0.2744208574 -0.1844087988 0.3244590163 -0.1287013739 0.0352403708 -0.0149070108 0.0328510366 0.2263558805 -0.0802041218 -0.0608190037 0.2333762944 0.1311479360 0.0488821939 -0.1181891784 0.1710754186 0.0870103240 0.7517334819 -0.1652093381 0.6518576741 0.1955477446 0.4590394199 -0.0671126768 -0.2322786599 -0.1528774053 0.4201703370 0.0170801114 -0.1334899813 0.3383662105 -0.0278191529 0.3907852471 -0.0592939556 0.0315984935 0.4192828238 0.4298853278 -0.0573795661 -0.0924798846 0.0253373571 0.1190980896 0.4043980241 0.5019303560 0.0055240635 -0.2378781736 0.2301442176 0.2057843506 -0.1784936488 0.1194606051 0.2373813540 -0.0866942853 -0.0607906543 0.1081087664 0.1435581148 0.2506836057 -0.0074386187 -0.1562536359 -0.2075361907 -0.1077944264 0.5635547638 0.0167231690 -0.2414237708 0.3160044253 0.4199815392 0.0353323594 -0.0180469006 -0.0184768029 0.3113353550 0.0800217465 0.0910866857 0.4964635968 0.7667982578 -0.2169919014 -0.0508855060 -0.0739216879 0.3253266811 0.0238397084 0.5672899485 -0.1882652491 0.0419933945 0.2550870776 -0.0757036805 0.1004325002 0.1477904320 -0.1394933462 0.0901182070 0.1355492473 0.0905960798 0.2130005658 0.4146840870 0.4068111479 0.0205329042 0.0042012474 -0.1938501596 -0.1077792645 0.6651090980 0.3210125864 -0.1504452378 0.3419428170 -0.1188232452 -0.0475762859 0.3425701559 0.2712723315 -0.1459360868 0.0540308952 0.3195361495 0.2215705663 -0.2115536630 -0.0958644822 0.6909473538 0.2222152203 -0.0956114531 -0.1273116916 0.2363414913 0.1547459662 -0.0825622752 -0.0822569951 0.3982579708 0.4133268297 0.0393986925 -0.1320727170 0.1899728626 -0.0518492498 0.1390607059 0.0082357563 0.5142579079 0.3202725649 0.2142441869 -0.1511521935 0.6214528680 0.3077962995 0.4167250693 0.2015856653 0.4716685414 0.0691259429 0.5319387913 0.0696970224 -0.1330946684 -0.1306615770 -0.1668791026 0.2481849641 -0.2462382466 0.7596805692 0.1214554310 -0.0323906466 0.2082761228 0.1017916724 -0.2565931380 -0.0661802962 0.1672275811 0.1422016174 -0.0963846296 -0.0720900297 0.1088204905 -0.2074099630 -0.0063188914 0.3390947878 0.2256622314 -0.1987508833 0.6183217764 0.0459116027 0.5937152505 -0.0876601487 -0.0759086311 -0.2280739099 -0.0141481385 -0.0809087008 -0.0683673322 0.0080376193 -0.0607277155 0.4647240341 -0.1359605044 0.4875790179 -0.0493180230 -0.1250967085 -0.0087389424 0.0321712419 0.2726168931 -0.1597290337 -0.1342138648 -0.0848781019 0.0947171152 -0.1040353626
0a38b6c09acf9a223cd9f466dd65dc04__143.74_151.10 0.0418285951 -0.0536268204 0.2843763530 0.0996850953 0.2654394209 -0.0035215057 0.4360195398 0.1324775517 0.0659039170 0.0981048867 0.0161803532 0.0140665639 0.1645918787 0.3138770461 -0.0565686449 -0.1425407529 0.3110740781 -0.0088382550 -0.0453241728 -0.1784117669 0.4357847869 0.0193341542 -0.1494996846 -0.0223906208 -0.1068032235 0.0116028842 0.2168974578 0.0903192461 0.4820563197 0.3942832351 0.7391711473 0.0063413121 -0.0146115310 -0.1328838021 -0.1928328723 0.3921073079 0.7569631934 0.1644214690 0.0945170745 0.0722624063 -0.0335004702 -0.0215982143 0.0286045838 0.0890351161 0.4734935462 0.1070218310 0.3857901692 -0.0256812014 -0.2180778384 -0.2049967200 -0.1534643769 0.1156449914 0.0668316931 0.3066135049 0.4957826436 0.2441502661 0.8973640800 0.1639582366 0.0026021386 -0.0729217306 0.1648219973 -0.0971204266 0.0215098020 0.3932010829 0.2707053423 0.6590095162 -0.0698068962 0.0602829382 -0.0566672310 0.0837296247 -0.1789859980 -0.1392953545 -0.1933620721 0.1050794646 -0.0964609534 -0.2216160744 0.4366814494 -0.2273764461 0.7144117951 -0.0291107260 0.2108200788 -0.0552305430 0.5081690550 0.2467500865 -0.0476200953 0.0610910133 0.0326879732 -0.1378407180 0.2397600114 -0.1964391768 -0.1611022949 0.6991800666 0.1152186096 -0.1086971834 -0.0773254782 0.6639214754 -0.2063707411 -0.0648973584 -0.1512844265 0.0810209066 -0.0958422720 -0.0481974483 0.3859493434 -0.1465531588 -0.1250430942 0.0483640209 0.2335639149 -0.0946790278 -0.0710910782 -0.0220548939 -0.1532044709 -0.2701673210 -0.0175799523 0.5986199975 0.6530842185 0.3422072530 -0.0096504334 0.2705082595 0.0547679439 0.1424252242 0.1490918845 0.0829104334 0.1694349498 0.0514311045 0.3298983574 0.4709331393 -0.1039985716 0.0023129929 -0.1136535630 -0.0174403265 0.3574734330 -0.0083276499 0.2844322324 -0.0998615623 -0.0638303012 0.3340625465 -0.2189726084 0.3923906386 0.0583021939 0.4596266150 0.0604073741 0.0709983334 -0.1282574385 0.0784919262 -0.0216677785 0.1880918741 0.1102681383 -0.0916101933 0.1342615187 0.0021051946 0.1810932606 0.3001566529 -0.1345342845 -0.0352467299 -0.0019740281 -0.1140012592 0.0452948213 0.2525691688 0.0226040967 0.0689575300 0.1053193212 0.4597606957 0.4487984478 0.6135258079 0.1925411671 0.0915731564 -0.0579725765 0.1156977415 0.0147028072 0.3702552319 0.1338967979 0.0832186267 0.2168395221 -0.1534222066 0.1967070699 0.6238653064 0.4765771329 -0.1178156361 -0.2185527533 -0.0255029406 0.2039560080 0.0408006907 -0.0485930629 0.4294244349 0.1726085544 0.0979173109 -0.0737264603 0.4577960968 0.0014418140 -0.0273773633 0.1227811947 0.0057041105 0.6153569818 0.0329508707 -0.1961599141 0.3477001190 0.0854519978 -0.1123023182 -0.0393736847 0.0527178757 -0.1249185875 -0.0117943548 0.0142787006 0.3429689109 -0.0393824540 0.0488205440 0.5264036059 0.2343906462 -0.1043283641 0.0548231639 -0.1018818915 -0.1005985290 0.0830498189 0.0038347258 -0.0401033312 -0.1016952693 0.2523060143 -0.1375236809 0.0006855708 -0.0008009057 0.0016816612 -0.0413706861 0.1129277349 0.2810829878 0.4101001620 -0.1878504157 -0.0675549880 0.3443135619 0.4548083842 0.4336194098 0.2500661910 0.0981572196 -0.1250183135 -0.0334245414 0.3793644607 -0.0443247184 -0.1319686472 0.3725625873 0.1671642363 -0.0629390627 -0.2506864965 0.1564214379 0.4365451634 0.3403165936 0.0887982249 -0.0068150256 0.1944633275 0.1914036423 0.0088378359 0.7596914768 0.2515553534 0.3876973689 0.3283869028 0.4296080172 0.1157431081 0.2123833597 0.4193967581 0.3650069237 -0.0687131658 0.3767592013 -0.1440059245 -0.0422036424 0.2513296008 -0.0765841305 -0.0044171736 -0.0033503063 0.1363341808 -0.0164818075 0.7312150002 0.4385444522 0.3624426126 -0.0706668496 -0.1397403628 0.0740686283 0.0953064859 -0.0265795086 -0.1812077463 0.4013520181 -0.0362550430 0.4267286062 0.0169812255 0.1137824953 0.5763378143 0.0575354993 -0.0565815195 -0.0198402591 0.0240048021 -0.0168997608 0.3000257313 -0.0498444960 0.2919621170 -0.1701459885 0.3396583796 0.4845476151 -0.0004852484 -0.0212941635 0.5019958615 -0.0591127723 0.0438573323 -0.0392327532 0.0378867760 0.1225254089 0.2377866209 0.1757398546 0.0870249271 0.1615913510 0.2253338099 -0.1253642291 -0.0650028959 0.0051280074 0.0833196193 0.5601555705 0.2776624560 0.0195902381 0.4377636611 0.0360739976 -0.0236961581 0.0073998868 0.1027033180 0.3097366095 0.0011020983 0.2475450933 -0.0670913532 -0.0425773263 0.1044600829 -0.0909685940 -0.0502035543 0.3374828994 -0.0088396864 0.4780493975 0.4518818259 -0.0045965835 -0.1283527017 0.0937621891 0.3199966550 -0.0746629834 -0.0671199411 0.5986874104 0.2021131516 -0.0600833483 0.5935658216 0.4768262506 -0.1438880265 -0.0695628673 0.4375396967 0.0690300539 0.5610967875 0.2323951870 -0.0063500926 0.4291213453 0.4214884937 0.2309147418 0.3953676820 -0.0387288593 0.1240066662 0.1173416525 0.3782227039 0.4295489192 -0.1102566347 0.2300466746 0.0668987632 -0.0022139307 -0.0120276650 0.5199156404 -0.1685926318 0.3825246096 -0.2344759554 0.2237455696 -0.1844206750 0.3747049570 0.3422188461 0.3052063584 -0.0849529654 0.1879928112 -0.0344275907 0.2607485056 -0.2798510492 0.0065057687 -0.1018884629 -0.0815113038 0.0614350215 -0.0276041683 0.3785127997 0.0493840799 -0.0466093458 -0.0578304641 0.3793863654 0.6353432536 -0.0473080352 0.1256869435 -0.2083147168 -0.0295834653 -0.0083054844 -0.3610202670 -0.0984636322 0.5637072921 -0.1482030004 0.3962697983 0.1109967828 -0.0919428915 0.8430880308 0.3299793303 0.5278952718 0.0039379811 0.7736321092 0.3053612411 0.3190042377 0.7125056982 -0.1024339795 -0.1052001044 -0.0436608568 0.2472533733 -0.0581399351 -0.0365405865 0.3466375172 0.0236444287 -0.0312508233 0.1410054117 0.6077238321 0.4130929708 0.1447722167 -0.2009288371 0.2138454020 -0.1587611586 -0.1381484270 0.0352711156 0.1605642289 0.0604633801 -0.0615446568 -0.0423995033 0.2710503340 0.1422607750 0.0430090651 -0.0906510279 0.0246185046 -0.0502534769 0.6755189300 -0.1934696287 0.4049900174 0.1003336236 0.4166222215 -0.1002008319 -0.1943839639 -0.1217758805 0.1756360829 0.0947505683 -0.1039082259 0.1319980025 -0.0242588259 0.2599001825 -0.0513208695 -0.0218031481 0.2352765650 0.4028837681 -0.1277399063 -0.0840408653 0.1197911650 0.0955065265 0.5346948504 0.2312320024 0.0418494195 -0.2517026067 0.1512332410 0.1145819277 0.2360177040 0.1037540361 0.1601283252 -0.0469632484 0.0240975730 0.1972055435 0.1489616185 0.3054326773 -0.0338233709 -0.1177385598 -0.2365270257 -0.0921396688 0.3607822359 -0.0532388911 -0.2367778271 0.3875654638 0.3496488929 -0.0598368719 -0.0530927777 -0.0723314211 0.4699082375 0.0659377351 0.1071604639 0.3310023546 0.8770515919 -0.2071427554 -0.0330382027 -0.0634075254 0.1201381311 -0.0625930801 0.7845975757 -0.1704456657 -0.1838444173 0.2425384969 0.0654024184 0.2013716847 -0.0076650418 0.0793003291 0.0774305314 0.1215487868 0.0916106179 0.1900763810 0.3172340095 0.3146726787 0.2270412594 0.0274671167 0.0806547031 -0.1144692600 0.4826718569 0.0125470553 -0.1647488326 0.2587650120 -0.1110856980 0.0532557294 0.6065883040 0.1353421509 -0.1291771233 0.0185042582 0.5382937789 0.0697921067 -0.0567419082 0.0791032687 0.6680063009 0.3284606934 -0.1069798619 0.1123484969 0.2471219301 0.1739239246 -0.0542115755 -0.0963197500 0.3898850977 0.3573820293 0.0528613739 -0.1646987051 0.0549042635 -0.0654154122 0.0510108285 0.0159498639 0.5964083076 0.3210535944 0.1007131413 0.0108997105 0.6074297428 0.3923174441 0.3661327958 0.2024345398 0.2338298559 -0.0217261985 0.5177154541 0.4073910415 0.0612606965 -0.1229289845 -0.1995495558 0.3866156638 0.0087459106 0.5053210855 0.1469165832 -0.2044335753 0.0609989390 0.2109173387 -0.2838435173 -0.1037126333 0.1281417310 0.2873070538 -0.0543311611 -0.0520431772 0.2677014470 -0.2016343027 0.0154568907 0.4646839797 0.3797066808 -0.1218955815 0.5385636091 0.0862241685 0.5291827917 0.0318082683 -0.0473180637 -0.2223324329 0.0560622662 -0.1066911295 -0.0442633294 -0.0483053923 0.0325681381 0.6136139035 -0.1444771141 0.4752197862 -0.0611719266 -0.1112339124 0.0131653100 -0.0045362096 0.0092145670 -0.1277232915 -0.1289418340 -0.0897135362 0.0917151123 -0.1230429858
0a38b6c09acf9a223cd9f466dd65dc04__2385.71_2426.50 0.0694412217 0.0074537117 0.3401643038 0.2255494744 0.2415571660 0.1171938032 0.6146604419 -0.0752158985 -0.0527956598 0.1729317456 -0.0277980771 -0.0218886770 0.2363364398 0.3827368617 -0.0654159784 -0.1433004290 0.2672561705 0.0336577818 -0.0939921141 -0.2095260918 0.3326528370 -0.0687671453 -0.1477987617 -0.0184572022 -0.1077694818 0.1197652519 0.1422311068 0.2223615348 0.5698769689 0.4707322121 0.5718851686 0.0697924569 0.2748591900 -0.1173628420 -0.2276530117 0.1653964967 0.5890770555 0.3152791560 0.1962002069 0.1453633010 0.1968062520 0.1173877791 -0.0658975616 0.1075826213 0.4111447334 0.3224600255 0.2998285592 0.2579754889 -0.2122824788 -0.2507592142 -0.1438871026 0.1381593347 0.1864863187 0.4527476430 0.3227706254 0.1466485560 0.6877219677 0.2873572409 -0.0119545152 -0.0731504485 0.0775520876 -0.0965146720 -0.0217486918 0.5351778865 0.1683636308 0.6048363447 -0.0722098127 -0.0651657656 0.1923287511 0.1124338508 -0.1372738928 -0.1461494118 -0.1544210762 0.0351631567 -0.0763887763 -0.2247926295 0.3967761099 -0.2366475463 0.4745364189 -0.0165933706 0.1349826157 0.1361892968 0.2869511545 0.2417592853 0.1904034615 0.0918856263 0.2139258236 -0.1872973889 0.2275218666 -0.1894706935 -0.1986654997 0.5727482438 -0.0792805180 -0.0917425454 -0.1042185277 0.3410925865 0.0550766885 -0.0874277055 -0.1233002841 0.2033445239 -0.0933965072 0.0754872113 0.3047356308 -0.1660929918 0.1158731803 -0.0103152590 0.1525296420 -0.1231533661 -0.0771639198 -0.0126665179 -0.1766888946 -0.2284279019 -0.0418714508 0.7209132314 0.5982314944 0.1678121388 -0.1058412269 0.2137175798 0.2614441812 0.0971764773 0.0875036418 0.1099814028 0.1076288074 0.1221469790 0.4602566361 0.3919436932 -0.1886720955 0.0077864239 -0.0860965103 0.1169423833 0.2217939496 0.0291931182 0.1996336877 -0.1106737182 -0.0943523794 0.3507948518 -0.2377508879 0.2413494289 0.2225191742 0.1857290268 0.1669218987 0.0292269364 -0.1255002916 0.0111507829 -0.0199037250 0.1628481150 0.1373723149 -0.1304080635 0.0628380328 -0.0078848135 0.1583609432 0.4546467364 -0.1539760679 0.0701628923 0.1801443845 -0.1494886577 -0.0349719673 0.2726824284 0.0053049782 -0.0448240228 0.0372329839 0.6573230028 0.3645657897 0.5774139166 0.4580236077 0.0907403305 -0.0620124005 0.0840107352 -0.0128488718 0.2084346116 0.0509694144 0.0212944411 0.1886604726 -0.1744952351 0.2107855380 0.8564063907 0.4129479229 -0.1243163794 -0.2088878453 -0.0063718893 0.2659670115 0.0273276418 0.0603108257 0.6479668617 0.2157862484 0.2339863777 -0.0656333342 0.5447883606 -0.0190579891 -0.0246066935 -0.0500750132 0.0695835650 0.6301478148 0.0249172468 -0.1371694356 0.2568812966 0.2412703931 -0.1224798113 0.2598580420 -0.0208530407 -0.1485766023 0.1210855991 0.0103489552 0.3914021254 -0.0267692376 0.0521125905 0.5368739367 0.3255626559 -0.1049457639 0.1697300524 -0.1063128337 0.0119443927 0.1541241556 0.0781517923 -0.0420969948 -0.1018438712 0.4528093040 -0.0185505617 0.0780253410 -0.0367211476 -0.0377806760 0.0619861521 0.1967085749 0.1306162775 0.4986273348 -0.1696727574 0.0901080593 0.2029154748 0.5241636634 0.3643085957 0.2624674141 0.1125992090 -0.1609893739 0.0536834896 0.5252541304 -0.0691890866 -0.1320618391 0.3031186759 0.0912932754 -0.0655470341 -0.2552036643 0.2342152745 0.1641571224 0.2871739268 0.0476274192 -0.0698478669 0.2228230536 0.0096014272 0.0428069308 0.7927079201 0.2579548657 0.2922218740 0.5507453680 0.4449793398 -0.0571967438 0.1636908948 0.3224279284 0.2576639652 -0.0889918357 0.2459615469 -0.1356991976 -0.0644941851 0.2373413891 -0.0880683064 0.2346445173 0.1298002601 0.1314790845 -0.0273965951 0.5060385466 0.3609431088 0.1414244175 0.1795769185 -0.1338856518 0.0416230150 0.0031352555 0.0013987776 -0.1626039296 0.3389751911 0.1363517046 0.4404824972 -0.0217230245 0.1063951403 0.3548689783 0.0525192060 0.0043662209 0.0469630137 0.1473760903 -0.0420514718 0.2420278788 -0.0615649708 0.1190637499 -0.1809632033 0.5398867130 0.4953945875 0.0424929373 -0.0468940698 0.4897047877 0.0497144759 0.0320692882 0.0849507377 0.0572968125 0.1116937399 0.1707916260 0.1857478768 0.0411963873 0.1019952893 0.1709951311 -0.1744650006 -0.0916375071 0.0740666017 -0.0101833493 0.4310643375 0.1707410216 -0.0209434424 0.3870936036 0.1265297830 0.0049561518 0.0221614353 0.0739882514 0.2584778070 -0.0335398652 0.3707460463 -0.0599556714 -0.0885422379 0.2687558234 -0.1057592258 -0.0884193778 0.4276255071 0.1107194424 0.4118142128 0.3358622193 -0.0165381506 -0.1585772336 0.0856938958 0.2733370066 -0.0769794211 -0.0935288817 0.6456254125 0.3197620809 -0.0629570037 0.4678591192 0.3484470546 0.0725889057 -0.0595510229 0.3902208507 0.0025270665 0.4171741605 0.4248205125 0.2192113698 0.3528127372 0.5625423789 0.1839666963 0.4819475114 -0.0636723787 0.2144122720 0.1439807117 0.3504565358 0.2336367369 -0.1254458129 0.2313434631 0.0757368132 0.0242758431 -0.0187950619 0.2682325542 -0.1774284244 0.4894370139 -0.2742886841 0.2769993544 -0.1787095964 0.4081197381 0.2760705352 0.2436696887 -0.0963208824 0.1549715698 -0.1079616323 0.2070479691 -0.2941828668 0.0657401085 -0.1034832075 0.1569818407 0.0702043027 -0.0271006487 0.5572775006 0.0192464348 -0.0244024675 0.0259490274 0.4759602249 0.5397167206 -0.0641436055 0.1806724519 -0.2093335688 -0.0747716427 0.1664160490 -0.3423018754 -0.1082027704 0.5188450217 -0.1260300130 0.3646556735 0.1255115271 -0.1054251343 0.7861083150 0.2462839633 0.3513691425 0.0062336782 0.6439207792 0.1176644117 0.2317523211 0.5410091281 -0.0906863958 0.0769809410 0.2016099095 0.3178001940 0.2155742347 -0.0419064872 0.3173237443 0.0585435927 -0.0495980084 0.1297671795 0.4346680343 0.2958130538 0.3663663864 -0.2160620838 0.2712997198 -0.1707261056 0.0959027708 0.0918552652 0.0003828621 0.1290092021 -0.0652037263 -0.0518234260 0.2942458093 0.2580076754 0.1519255340 -0.1232352629 0.2873386443 0.0739210322 0.6107559204 -0.2222461700 0.4638026357 0.1046417281 0.3604156077 -0.1057191789 -0.2225487828 -0.1475018114 0.3511478603 0.1436084211 -0.1365022361 0.1871449202 -0.0284919702 0.3682858646 -0.0546121411 -0.0026402627 0.2894588411 0.2983463407 -0.0723096803 -0.1105225682 0.0080150776 0.1635699719 0.5035939813 0.4051140249 0.1283778250 -0.2335425168 0.2156622559 0.1747333854 0.2651391923 0.0599626154 0.2393386811 -0.0638273358 -0.0670799538 0.1966029257 0.1441985965 0.3893254101 -0.0506609343 -0.2093230486 -0.2649691999 -0.1384694725 0.3854621053 0.0920646489 -0.2785596848 0.4601319134 0.4259354174 0.0436064079 -0.0277210176 -0.0466780439 0.3700605631 0.1084230989 0.0087524448 0.4026352465 0.7419380546 -0.2355411649 -0.0417260565 -0.0884895548 0.0652791634 0.1953517795 0.6086624861 -0.1916763037 0.0851088315 0.3389181495 0.0847003609 0.2506612539 0.1948941648 0.0797401518 0.3190471828 0.2283318490 0.1595281214 0.1544810832 0.4751967490 0.3306802213 0.2116788775 0.0067515392 0.0787945837 -0.1097900420 0.4165861011 0.2330673337 -0.1886897236 0.4652099907 -0.1163079292 -0.0420921445 0.4413878918 0.2246105522 -0.1253666133 0.0356818438 0.5011882782 0.2145346552 0.0852822661 0.0278852005 0.4506851137 0.2583784163 -0.1169104427 0.1338693798 0.1776330471 0.1431820542 -0.0978953987 -0.0849220157 0.3586139381 0.2085333169 0.0522658117 -0.1806353629 0.2330757529 0.0150203789 0.2512697577 0.0774782822 0.8111248016 0.3146563172 0.1071866602 0.1161593571 0.6131533384 0.2554109693 0.5234743953 0.0868194178 0.4594298601 0.0464352965 0.5236852765 0.2952963710 0.0849826559 -0.1197847798 -0.1974259466 0.2746750712 0.0370138437 0.7811791897 0.2119795531 0.0768573061 0.2121234834 0.1806509495 -0.2882872522 -0.0991909057 0.1716392636 0.1790611446 -0.0887245908 -0.0497370288 0.2135879397 -0.2055735886 0.1681852937 0.3486064672 0.3506772816 -0.1861608028 0.5251536965 0.0311428495 0.5381209850 0.0513836220 -0.0589540824 -0.2475647181 0.0010908726 -0.0814364180 -0.0117127430 0.1039995030 0.0188424662 0.3966082036 -0.1678095460 0.3842274547 -0.0601236038 -0.1106445864 0.0830287784 0.1070935950 0.2165421247 -0.1520286053 -0.1245414242 -0.0751166344 0.0794700682 -0.0981845260
