02999562ee82f4b5bed9fbf4a51503c1__83.09_118.40 0.0869864821 0.2452678233 0.2551531792 0.2747896314 -0.0514203310 0.3799677491 0.8184562325 0.1144943833 0.1138628200 0.0635419339 0.1013543755 -0.0690188929 0.1558413506 0.3045398593 -0.0538112819 -0.1012246087 0.2620279491 0.4603980780 -0.1078245640 -0.1965739727 0.1330612451 0.0966907144 -0.1047221124 0.1977600604 -0.1014111266 0.1651246548 0.1530950516 0.4462357163 0.2779128253 0.6845197082 0.5020018220 0.1579702646 0.7034161091 -0.0056926110 -0.2043569535 0.0252006315 0.2136604786 0.3488397598 0.2625955045 0.2484136373 0.2435147911 0.2235324234 0.0417582095 0.4961645901 0.0709867179 0.7485526800 0.0609804727 0.5243293643 -0.1685424894 -0.2566174567 -0.1116682962 0.3190737963 0.2588459253 0.2832987309 0.1803006679 0.0282074660 0.2102887630 0.2643018663 0.2590717375 -0.0383846201 0.1478453279 -0.0867187083 -0.0788123533 0.2737020850 0.3208378553 -0.0263942834 -0.0866307914 0.1641294211 0.6285564899 0.1660251468 -0.1176678911 -0.0860166848 -0.1539019644 0.0743232742 0.0048136697 -0.2217200547 0.1908735931 -0.2142162025 0.1717010885 -0.0408876576 -0.0835660771 0.2641205788 0.0665133968 0.0216861162 0.3439578116 0.1990314573 0.4858292043 -0.1964815110 0.1672558933 -0.1567155421 -0.1859014779 0.0876062661 0.0872744247 -0.0906535834 -0.1228641272 0.1027732417 0.3954706192 -0.0959088951 -0.0721511245 0.4267866015 -0.1047718003 0.1594392508 -0.0692211688 -0.1915487349 0.3355629742 -0.0835178643 0.4755698442 -0.1458903551 -0.0624011569 -0.0494388677 -0.1639486402 -0.1431160718 -0.0646497756 0.7402648330 0.3228641450 0.3307646215 -0.1459472477 0.0368700810 0.3111900687 -0.0555170998 0.0600887127 0.6274138689 0.0515438914 0.3207787573 0.5448222160 0.5797936916 -0.1909927428 -0.0272800047 -0.0691843107 0.5141536593 0.0928485543 0.2063931823 0.0822218210 -0.1819531322 -0.0617326908 0.2780907154 -0.2033566833 0.0866904855 0.1904055327 0.2862014771 0.1058826149 0.0213049464 -0.0850574896 0.0427804627 -0.0297326464 0.0884353071 0.4627793729 -0.0640903637 -0.0766117424 0.1945013851 0.2000008821 0.4012646973 -0.1854600608 0.1373649240 0.2568843961 -0.1330012381 0.0426748022 0.4196876884 0.3591222167 0.0195099525 0.0638135821 0.3922351599 0.0939032435 0.1672561318 0.4004941583 0.0174365081 -0.0893393829 0.1437213570 -0.0954033136 0.1338663101 0.0956758931 0.0766280070 0.0503924601 -0.1505607069 0.0258683637 0.7070499659 -0.0895687789 -0.0726190135 -0.1661387086 0.0562956296 0.1394356340 -0.0081798062 0.1136297062 0.5721079707 0.0352004319 0.1158157289 -0.0542414375 0.4090957046 -0.0027130321 -0.0213400051 0.0273618549 0.1521915942 0.2307467014 0.0294806771 -0.1161776409 -0.1066330820 0.5802142024 -0.0982630476 0.5987894535 -0.1116337553 -0.1633441001 0.2653650939 0.0306643248 0.2503739893 -0.0528219230 0.1092932820 0.4129886329 0.1792777777 -0.1296982020 0.2684768736 -0.0912129432 0.1459480524 0.3804582655 0.1813147515 -0.0717001185 -0.1223399714 0.5103512406 -0.1105832681 0.1133163348 -0.0597989932 0.0600949749 0.0688056499 0.3142670691 0.1129422039 0.5413485169 -0.1313957572 0.2242975980 0.0992320180 0.2353866100 -0.0519325472 0.3709408641 0.2055059224 -0.1683267504 0.0645608306 0.5867623687 -0.1038672179 -0.1141091660 0.0324925035 0.1097472534 -0.0555656776 -0.1491260082 0.2757487595 0.1260260046 0.1922142357 -0.0656685010 -0.1122308969 0.0319467559 0.0441475883 0.0330765992 0.5604869127 0.2269991785 0.1260452718 0.4469030797 0.0421489440 0.1285254806 0.1950926483 0.0995839164 -0.0226236731 -0.1227193326 0.0547956787 -0.0708261281 -0.1131994799 0.4824193716 -0.1218067855 0.6180043817 0.4473349750 0.2857680619 -0.0218433477 0.1669722795 0.2576797903 0.1326070577 0.3996206820 -0.1559646130 -0.0705855489 -0.0765046701 0.2662246227 -0.1504982263 0.5487742424 0.2460288405 0.0042175110 -0.0597598217 0.1696001291 0.0805197135 0.0121975495 0.1067811996 0.0721793771 0.1693618298 -0.0619369000 0.2547579408 -0.0423343368 0.1471368670 -0.1330456436 0.5469014645 0.1436928362 0.0475030616 -0.0249009151 0.3350762427 0.1573897004 0.2048355043 0.4566957355 0.1651374698 0.5783175826 0.1807698160 0.0894561708 0.0509256124 0.0318766311 -0.0587547347 -0.2179363519 -0.0994976759 0.1249057651 0.0348065682 0.1425019205 0.1520684063 -0.0865502134 0.0243503340 0.5101413727 0.0392650850 0.0141196810 -0.0357628576 0.0727999881 0.0325413942 0.2287762612 -0.0668675825 -0.1559086591 0.5437362790 -0.1359938830 -0.0280970186 0.2927027345 0.2437044978 -0.0892937183 0.1084110364 -0.0925620198 -0.1162434444 0.1013975590 0.1688890457 -0.0747646019 -0.1248083413 0.4275267720 0.2391363233 -0.0859209076 0.0678934529 0.0368571952 0.3080281913 -0.0514307693 0.1786053926 0.0355345830 0.1226527542 0.4087241292 0.6941060424 0.0697933957 0.4047524333 0.1380074322 0.2191967517 -0.1124186888 0.1017007604 0.0812151581 0.0343325473 0.3057419658 -0.1017804071 0.0604037680 0.0156213772 0.3249343634 0.1140322685 0.2973430753 -0.1409913749 0.3638995886 -0.2780143321 0.2530873120 -0.0968110859 0.0169713739 0.0438580960 0.2219964266 -0.1048883572 0.1545732319 0.3949047327 0.0681644678 -0.2515617609 0.2601408362 -0.0838264301 0.3443420827 0.1183788925 -0.0175198764 0.7022644877 0.2167296708 -0.0574229173 0.1229594052 0.2744711936 0.2096041739 -0.0722818077 0.2484851778 -0.1765811294 -0.1381482631 0.4824062288 -0.2696503997 -0.1069189534 0.2952280641 -0.0577542335 0.2519071102 -0.0160756018 -0.0971496552 0.5399869084 0.1146394834 0.1434085667 0.3942767382 0.2136976570 0.0814910457 0.0386259295 0.1227554902 -0.0703033358 0.2489756793 0.1771565080 0.1801324338 0.4559502602 -0.0415213369 0.3032239974 0.0051497333 -0.0688592046 0.1364206970 0.3584536314 -0.0493269041 0.3614757359 -0.2403075099 0.2124835253 -0.1400373727 0.3932521939 0.1706782132 0.0500589646 0.3965382576 -0.0768762678 -0.1004449949 0.2292230427 0.0928819403 0.0537426621 -0.1406468749 0.3391682506 0.5674505830 0.4207427502 -0.2031952143 0.6470950842 0.1791274697 0.2019487917 -0.0719531104 -0.2263617367 -0.1290216446 0.6659296751 0.4189701080 -0.1464665085 0.5101369023 -0.0319677964 0.3034261763 -0.0940032229 0.1675883234 0.4023831189 0.1006150842 -0.0087024262 -0.1281981468 0.0168802980 0.1086759940 0.1574873179 0.6937568784 0.2474514395 -0.1626285613 0.2068982273 0.1941326559 0.0224072728 0.0304233283 0.3283988237 -0.1072865352 0.1392805725 0.0347584486 0.1546233892 0.1809854805 -0.1147779822 -0.2424239367 -0.2541253269 -0.1436973959 0.4724790752 0.2375118732 -0.2585534155 0.1775190830 0.2758826315 0.3889213502 0.5209835172 -0.0481813699 0.0096957237 0.1113392338 0.0697060227 0.4725744724 0.1651602685 -0.2766329050 -0.0928125158 -0.0963540822 0.5352054238 0.3454354703 0.2252723277 -0.1322916746 0.3426718116 0.1910973340 0.0095572621 0.2583312690 0.6082035899 0.0445927493 0.4150038958 0.1682810038 0.1865599751 0.2687355280 0.2959322333 0.4643340409 0.0315574408 -0.0413954407 0.0174948424 -0.1100294888 0.4547509253 0.5698156357 -0.1934970021 0.3268564045 -0.1141624376 0.1018217728 -0.0213065203 0.3202507496 -0.1078790128 -0.0053030038 -0.0330198184 0.2981281281 0.1329540461 0.0427539647 0.1528770924 0.2300147861 -0.0919550732 0.2206472605 0.0465582423 0.0296437517 -0.1648995727 -0.1327134818 0.1699985117 0.1807864159 -0.0252981167 -0.1432763338 0.4415044785 -0.0079755364 0.6080975533 0.1649022847 0.4203569591 0.2475027889 0.2715784013 -0.0021789921 0.6065570116 0.0693674684 0.3124807477 0.0198048092 0.6678791642 0.1059101000 0.1863827407 -0.0005522082 0.2104332447 -0.0844039470 -0.1078212559 0.0744917020 0.0476279184 0.7118592262 0.1021050438 0.3828974366 0.4282157421 -0.0424689911 -0.2288649380 -0.0922187418 0.1215957776 -0.0682086647 -0.0930056423 -0.0887139291 0.0093666296 -0.1232519224 0.5722425580 0.0618790574 0.2029775977 -0.1749427468 0.2886262834 -0.0098978998 0.3330150843 0.2330615073 -0.0849116147 -0.2340958267 -0.0598071665 -0.0152069973 0.0137978252 0.1637161821 0.0165959448 0.3377809227 -0.2098657042 0.1724019647 -0.0741015300 -0.0702709332 0.1625249535 0.2968201339 0.6035440564 -0.1713356078 -0.1271324903 -0.0704912990 0.0419097804 -0.0023714784
06a7bcfec00ea6661a7c0f7b5dcb713e__1314.38_1326.25 0.0980683193 0.2610065043 0.1405695379 0.3548513651 -0.1099415869 0.3961237073 0.6716306806 0.2718260586 0.2163987905 -0.0909010023 0.1285784692 -0.0649460778 0.1376366615 0.3240911961 -0.0534480214 -0.0710640103 0.2418524623 0.5519634485 -0.0817045942 -0.2008296400 0.1163835227 0.0690264106 -0.1239500791 0.2545909882 -0.1223858371 0.1750690639 0.2317064553 0.5626617670 0.1989824474 0.9242905974 0.5275247097 0.1483849883 0.6900250912 0.0243166685 -0.1798462570 -0.0215987749 0.1505377293 0.4254134595 0.3465264142 0.2309003770 0.1023030356 0.1692312211 0.0578280650 0.4538969398 -0.0187979266 0.6949255466 0.0238638185 0.4454516470 -0.1852139980 -0.2687849700 -0.1171017438 0.4477434456 0.2929080129 0.2101574242 0.3024753928 0.0206990093 0.1018815860 0.3116031587 0.3340405226 -0.0000353283 0.1597836465 -0.0660263225 -0.0628787354 0.1723299623 0.4821342230 -0.1936429143 -0.0876069292 0.2370012552 0.6046318412 0.0643984377 -0.1480064243 -0.0643476322 -0.1881219745 0.1539321542 0.0069890288 -0.2309195548 0.2671660185 -0.2312656343 0.2637179792 -0.0443152599 -0.0927671641 0.1850098222 0.1115169153 -0.0514016822 0.3622381687 0.1134892404 0.5037024021 -0.1964949816 0.0157263149 -0.1672782600 -0.1614907384 -0.0180503707 0.0548093803 -0.1179614216 -0.1142129898 0.1878474504 0.4305175245 -0.0953265578 -0.0598132052 0.5210906267 -0.1181168929 0.1688209772 -0.0813865736 -0.1930336654 0.2855679691 -0.0461302772 0.6438387036 -0.1367060393 -0.0722733736 -0.0405252762 -0.1710439771 -0.1438921839 -0.0070518050 0.6935639381 0.3656851947 0.4792583585 0.0242336243 0.0290438533 0.3103260994 -0.0448657349 0.0581222065 0.8536620140 -0.0133640952 0.2363865525 0.4273070991 0.8218148351 -0.0088230921 -0.0692175552 -0.0619226173 0.5230088234 0.0021587266 0.2432707399 0.0591006577 -0.1853234917 0.0247656610 0.2789069116 -0.2155453265 0.1319652051 0.0873662904 0.4507545233 0.0175304599 0.0229414478 -0.0707121342 0.0591526516 -0.0304215085 0.1099379659 0.5286574960 0.0346283503 0.0105275232 0.2274564952 0.2604412436 0.3488352597 -0.1924391240 0.1015463173 0.1686151177 -0.1128930524 0.0844608992 0.5305379629 0.4947931468 0.0298253261 0.1057552397 0.2575374246 0.1191694587 -0.0659916997 0.2360831797 -0.0150969205 -0.0891337320 0.1249003857 -0.0984650403 0.2411676645 0.1481066048 0.0704502314 -0.0263371877 -0.1578124166 0.0075490410 0.4898418784 -0.1828162819 -0.0787841380 -0.1818464249 0.0797612444 0.1241378188 0.0483145341 0.0789566785 0.4922806919 -0.0141830891 -0.0545169637 -0.0643002465 0.3069307208 0.0296708159 -0.0507673994 0.0825985372 0.1146346033 0.0816079825 0.0197576135 -0.1325190514 -0.1733795106 0.8193413019 -0.0780780017 0.6610174179 -0.0683795512 -0.1657161862 0.1962849349 -0.0031820131 0.2428856939 -0.0494946390 0.1359644681 0.4019044638 0.1461382359 -0.1265392601 0.2259146720 -0.0925571248 0.1554461867 0.4463281631 0.1495843083 -0.0636292547 -0.0917675719 0.6060495377 -0.2694842517 0.0684560686 -0.0190256275 0.0696139783 0.0117180422 0.4328209460 0.1028370783 0.4158142507 -0.1624418646 0.2406326532 -0.0287765730 0.2046523243 -0.1570284963 0.4841465652 0.3036140203 -0.1915522367 0.0042415750 0.4781288803 -0.1018243060 -0.1354273856 0.0083987173 0.0293350928 -0.0289443880 -0.1367772371 0.3146858811 0.2302886695 0.1024084315 -0.0650780126 -0.0366709344 -0.0259967875 0.0798355788 0.0630542114 0.4786938727 0.2455001622 0.1605361849 0.3751689792 -0.1312668622 0.2837029099 0.3262832165 0.1483547539 0.0286263302 -0.1170321926 0.0038187457 -0.0726056397 -0.1259575188 0.4628014863 -0.1347288042 0.6676413417 0.5482768416 0.1958455443 -0.0013441585 0.1748661101 0.3265912235 0.2548708618 0.3811838031 -0.1576980054 -0.0742452592 0.0642568767 0.3331055641 -0.1482656896 0.6345509887 0.2417826653 -0.1196286753 -0.0319322348 0.1844304502 -0.0385238007 0.0084807314 0.0881471932 0.0420333482 0.1142896488 -0.0700321272 0.2439226359 0.0112419473 0.3284388781 -0.1095561087 0.4124831557 -0.0151618049 0.0375794284 -0.0324665047 0.4495240152 0.1497890800 0.2342189550 0.4760291576 0.1748356968 0.8030877113 0.0909626111 0.0549226105 0.0052529536 0.1114958972 -0.0928581730 -0.2002758533 -0.1204470247 0.1600923836 0.1303452104 0.1652119011 0.1964342594 -0.0711858794 -0.0713252202 0.5678728223 0.0299638547 0.0001038627 -0.0567880794 -0.0036287997 0.0271335170 0.1569387019 -0.0619354546 -0.1467648745 0.6844347119 -0.1643727124 0.1468202174 0.1369059384 0.2282147706 -0.1606273204 0.1228864938 -0.0976664945 -0.1168181375 0.0813523680 0.1819373071 -0.0746872053 -0.1443205625 0.2146074921 0.0661963597 -0.1029492840 0.0740906373 0.1240142286 0.2547744513 -0.0556019098 0.2291598916 0.0082149031 0.2249140590 0.2958423197 0.6210414171 0.0064972183 0.3896091282 0.0104376711 0.2155488282 -0.1424889714 -0.0409686938 0.0306928568 -0.0777304173 0.3606387973 -0.0831049681 -0.0452209786 -0.0123408884 0.3609596789 0.1032022238 0.5079424977 -0.1124426126 0.2449192107 -0.2685248554 0.2129499167 -0.0582562275 -0.1184272990 -0.0366451293 0.2498624027 -0.1117490083 0.0375493020 0.3859220147 -0.0185961537 -0.2427008301 0.2438357770 -0.0394244902 0.3279947937 0.1322502196 -0.0022409207 0.6183643341 0.3145578206 -0.0735050291 0.1202760190 0.3173043132 0.1778790206 -0.0968372971 0.2078164518 -0.1860603839 -0.1404605806 0.5090383291 -0.2643482685 -0.0896083936 0.3594326079 -0.0434568673 0.2062031031 -0.0873463079 -0.0872856826 0.4925965071 0.1618735790 0.2322324514 0.5076834559 0.1132506281 0.2221187055 0.0134011284 0.2455815077 -0.0468892418 0.2415451407 0.0047125053 0.1243613437 0.5419812202 -0.0421985686 0.3584443629 -0.0407013521 -0.0809695348 0.0274018794 0.5160717964 -0.0875274613 0.2038412690 -0.2694470882 0.1791771799 -0.1383409649 0.4848096073 0.1520625055 0.0231327228 0.4639797509 -0.0416325517 -0.0819120258 0.0528354496 -0.0444127135 -0.0966833457 -0.1475763023 0.2248415649 0.6617708802 0.4629954398 -0.2138520628 0.4839334190 0.1756088734 0.1059942245 -0.0893015414 -0.2187661529 -0.0966341347 0.6533247828 0.5801310539 -0.1317224503 0.5002713203 -0.0182430707 0.3278147876 -0.1077251956 0.1837545782 0.3843525648 0.0669887513 -0.0430476591 -0.1413329840 0.0326661691 0.0624533929 0.2305643708 0.6654960513 0.2460675687 -0.1636744291 0.2269901633 0.1915142834 0.0018057395 -0.0026606885 0.3916600943 -0.1010479927 0.1688640416 0.0278445147 0.0617713779 0.1178353950 -0.1222928017 -0.2235631794 -0.2550857961 -0.1196250021 0.5087921023 0.1848237514 -0.2355864197 0.1495115161 0.2929668427 0.3905171752 0.6195422411 -0.0601822771 0.0461279787 0.0410557538 0.0134693552 0.5386335254 0.1684196293 -0.2949542701 -0.1110029742 -0.0949586257 0.6430292726 0.3357566595 0.3254178166 -0.1153264642 0.3312531710 0.1331875026 0.0102148252 0.3817805350 0.7004431486 0.0435835011 0.4745351672 0.0422831364 0.0333633646 0.1071492508 0.2233969718 0.5873507857 -0.0296475347 -0.0406179167 0.0305452738 -0.1320430040 0.4509242177 0.6541936994 -0.2162769586 0.1628111154 -0.0958425477 0.1074001864 0.0360377207 0.3157434165 -0.0965622365 -0.0322428271 -0.1577332616 0.3154095113 0.0855652243 0.0829980224 0.0924724117 0.3416255116 -0.1039294451 0.2718645334 0.0230963491 -0.0298517011 -0.1668315828 -0.1748331934 0.1440352052 0.1907313615 -0.0345506892 -0.1594877988 0.4191218615 -0.0919307321 0.7214405537 0.1643130779 0.2607554197 0.0876648277 0.2497543842 -0.1166005954 0.7792482376 -0.0218268614 0.1387022436 -0.0047961166 0.6386882067 0.1065387577 0.0052800495 0.1822005212 0.2457824647 -0.0841628537 -0.1053889319 0.1057501212 0.0691458881 0.5624340773 -0.0461338162 0.4345978200 0.3888517022 -0.0676724389 -0.2272543013 -0.1011719927 0.1185851395 -0.0270342939 -0.0620154813 -0.0801888928 0.0171821658 -0.1119997203 0.6023342609 0.0853226408 0.3342748582 -0.1231844947 0.2620583773 0.0018234281 0.1684855223 0.2836232483 -0.0872314423 -0.2374261320 -0.0384540111 -0.0133521557 -0.0104339030 0.0848918259 0.0623453744 0.5155259371 -0.2247928977 0.0635641515 -0.0728334114 -0.0629461780 0.1079319119 0.2660587132 0.6224536300 -0.1636422127 -0.1281993389 -0.0659538358 0.0344534852 0.0165357776
08b29be21e59b8b4921e3bcebe779b7c__37.35_50.50 0.1172416508 0.3401619792 0.2316241860 0.3257125318 -0.1277805418 0.4602999687 0.9694253206 0.1665744483 0.1460236609 -0.0615033507 0.1020195484 -0.0994520560 0.1877970994 0.3926916420 -0.0436250120 -0.0813905522 0.3083705008 0.6524888873 -0.1002599001 -0.2194903642 0.1267877370 0.0771045238 -0.1098519489 0.2484208494 -0.1105793789 0.1908111274 0.1863889545 0.5495815873 0.2613629997 0.9108983874 0.6379101872 0.1871418208 0.9176909924 0.0247918796 -0.2101085633 -0.0380135104 0.1797265261 0.4603911638 0.3478673100 0.3033011854 0.2250101566 0.2816441357 0.0198248215 0.6174026132 -0.0696093813 0.9402245879 -0.0801204443 0.6515371799 -0.1745304167 -0.2823670506 -0.1081402972 0.4242850840 0.3695782721 0.2904175222 0.1795454770 -0.0325018689 0.1214187816 0.3254641294 0.3545378447 -0.0181250572 0.1761215180 -0.0905839801 -0.1098033264 0.2251038700 0.3986562490 -0.2314464301 -0.0921545252 0.1264794916 0.7940863371 0.1029047668 -0.1181721538 -0.0750465170 -0.1785494238 -0.0276390444 0.0175489783 -0.2477649301 0.1977802813 -0.2244805247 0.1427571326 -0.0538048483 -0.1416941434 0.3184165359 -0.0003189091 -0.0707419887 0.4553478360 0.1005788296 0.6234395504 -0.2365977466 0.0528274924 -0.1596502662 -0.1951785386 -0.0930691585 0.0914477035 -0.1006432027 -0.1286897510 0.0416150875 0.6245803237 -0.1033471599 -0.0481997654 0.6007271409 -0.1234797463 0.2107017189 -0.1248025820 -0.2195092738 0.3915489614 -0.1123102233 0.6616531014 -0.1760614663 -0.0525788516 -0.0671131387 -0.1795206368 -0.1228810176 -0.1035114229 0.9314709306 0.3603146970 0.4308196604 -0.1793358475 0.0066153752 0.3058400452 -0.0835960805 0.0596618056 0.8988258243 -0.0029620640 0.3553936183 0.6221331358 0.7409875393 -0.2610979080 -0.0646635666 -0.0500620753 0.6874590516 0.0457669869 0.2346799821 0.0722548515 -0.2013202608 -0.0744517967 0.3426008523 -0.2098638415 0.0624729767 0.1646330506 0.3439354300 0.0664743260 0.0315567143 -0.0632586852 -0.0213893279 -0.0252780858 0.0465153530 0.6700401902 -0.0766986609 -0.1510430872 0.2803859413 0.2685428262 0.4977327287 -0.2197893858 0.1969861090 0.3013499081 -0.1243473664 0.0091047678 0.5662200451 0.5011714101 0.0384896062 0.0706841201 0.4033669531 0.0524375625 -0.0016902853 0.4075780213 -0.0036172913 -0.1006810889 0.0610994063 -0.1192844361 0.1322440505 0.1164880097 0.1018442065 -0.0094924718 -0.1626140326 -0.0513417721 0.7385758758 -0.2076700479 -0.0752908960 -0.1673516184 0.0928079486 0.1280896515 -0.1064882576 0.1121525392 0.6851586103 -0.0976843908 0.0162034612 -0.0475186594 0.4495790005 -0.0041625462 -0.0424839631 0.0504220463 0.1550412029 0.1288060248 0.0364662483 -0.1247350201 -0.2106523663 0.7384775281 -0.1000121534 0.7132171988 -0.1587223858 -0.1790540218 0.2532600760 0.0028559142 0.3056019247 -0.0652142763 0.0298890285 0.5004255176 0.1854318678 -0.1458701789 0.3197913170 -0.1046418548 0.2348424047 0.5170710087 0.1931740344 -0.0877927020 -0.1262812018 0.6410093307 -0.2677837312 0.1284969300 -0.1006999612 0.0578580424 -0.0116829127 0.4193160236 0.1330258548 0.6282772422 -0.1465463787 0.3468198478 -0.0250039119 0.2216308862 -0.1516985148 0.4859624207 0.2490721345 -0.1859033406 0.0520508364 0.6967424750 -0.1180709824 -0.1294913888 -0.0409057140 0.0185779184 -0.0403463133 -0.1214628741 0.3806149662 0.0977542698 0.1751863062 -0.1035585999 -0.1638476104 -0.0521855280 -0.0011291392 0.0125154965 0.6396886110 0.3028112948 0.1268869936 0.5170660019 -0.1062724441 0.0938327536 0.2272569984 0.0781227872 -0.0944895148 -0.1453542858 -0.0403796658 -0.0660385042 -0.1546568722 0.6278615594 -0.1254082024 0.8407019973 0.5862985253 0.3069613576 -0.0244778357 0.0214624256 0.3085450232 0.1445660740 0.4208269119 -0.1862525195 -0.1072899252 -0.1920310557 0.3753880262 -0.1615056247 0.7419615388 0.3731426001 -0.2062257826 -0.0941810235 0.0758227780 -0.0444323868 -0.0083624190 0.1718449444 0.0149472505 0.1705048978 -0.0818029866 0.3128194809 -0.0767920837 0.1049746871 -0.1275318712 0.6066199541 0.0323183462 0.0604313388 -0.0246689748 0.3829154074 0.1810859591 0.1839374304 0.5502187014 0.2440829426 0.8023554087 0.1695349813 0.0838279724 0.0153724179 -0.0825338438 -0.1191832572 -0.2550528049 -0.1216578186 0.1544511914 -0.0005247071 0.0057602152 0.1938301176 -0.1014095917 -0.1043753698 0.7188049555 0.0427283980 0.0164632611 -0.0533536673 0.0091563482 0.0301018395 0.2051303536 -0.0559731647 -0.1823589951 0.6048631072 -0.1768753529 -0.0184610933 0.2418652624 0.3224241138 -0.1767907292 0.0120580923 -0.1164070293 -0.1163775027 0.1089805290 0.2064323574 -0.0845833644 -0.1449342668 0.3679662347 0.1505111754 -0.1061875671 -0.0197541825 -0.0373176858 0.4236948490 -0.0565086156 0.1777158380 -0.0052982429 0.0752431303 0.4477973282 0.8550379872 -0.0597388521 0.5152142048 0.0471531376 0.1845914423 -0.1320242882 0.0164353177 0.0017099008 -0.0972789973 0.3925213516 -0.1104319617 -0.0107528968 -0.0227579344 0.4759177268 0.1428022981 0.3243257105 -0.1406822950 0.3791315258 -0.3156251907 0.2985637486 -0.0654797703 -0.1621174067 -0.0568810925 0.2788476348 -0.1191343516 0.0720501691 0.4604743719 -0.0027720034 -0.2832232714 0.3045021594 -0.0606777035 0.3534479737 0.1188532859 -0.0253638048 0.8543407917 0.3117841184 -0.0662162751 0.1807341278 0.2670767307 0.1943668872 -0.0937093943 0.2959243059 -0.1810953915 -0.1822600812 0.6360212564 -0.2706901431 -0.1139335334 0.3333618343 -0.0332043171 0.2778132260 -0.0758639351 -0.0997273028 0.6198746562 0.1053986847 0.0977325141 0.5732047558 0.1433105916 0.0060448460 -0.0524399020 0.0490900576 -0.0556570627 0.3582632244 0.1025239378 0.1887550205 0.5566330552 -0.0334118195 0.3993827403 -0.1140608191 -0.0896918401 0.0156167187 0.4322278202 -0.1317457110 0.3608721197 -0.2792257071 0.2631709874 -0.1374565214 0.5817599297 0.1561915874 -0.0251453705 0.5706615448 -0.0685767382 -0.1126717329 0.1078545377 0.0031317796 -0.0417051651 -0.1576314420 0.3753396571 0.7736833692 0.5137808323 -0.2189375311 0.7323638797 0.2422254086 0.1635115743 -0.0763374940 -0.2679338157 -0.1376501769 0.8560228944 0.5389220715 -0.1648234725 0.6689699292 -0.0310072638 0.4076802433 -0.1109963357 0.2294407934 0.5315504670 0.0868701637 0.0088049965 -0.1547529250 -0.0282520521 0.0903371871 0.1382932216 0.8878105879 0.2564080358 -0.1724541783 0.2782718241 0.2506304681 -0.1962785274 0.0213018097 0.4480100572 -0.1202475727 0.1310243607 -0.0202179141 0.1105873287 0.1235346347 -0.1297982186 -0.2694915831 -0.2731057107 -0.1417570114 0.6398861408 0.2713656425 -0.2764860988 0.1275826097 0.3492720723 0.4819269180 0.6790260077 -0.0362537690 -0.0628592819 0.0826907307 0.0354525633 0.6353257298 0.0959128737 -0.3197251260 -0.1247317865 -0.1103952378 0.7836564779 0.4347862005 0.1793569177 -0.1366067231 0.5028000474 0.1694793999 -0.0758391321 0.3095903099 0.8278154135 -0.0631458163 0.4998710752 0.1135039926 0.1134440750 0.1935879588 0.3144076765 0.6315986514 -0.1082155332 -0.0636274368 -0.1094579622 -0.1217512935 0.5845480561 0.8446548581 -0.2224067748 0.2967776060 -0.1149108857 0.0717368647 -0.1392929256 0.4140401781 -0.1122850403 -0.0197081976 -0.2409124672 0.4181178808 0.0498385057 -0.0094020274 0.1227029562 0.2691349983 -0.0984889865 0.1736171991 0.0145347090 -0.0257679950 -0.1967796385 -0.1776316762 0.1628348678 0.2191220969 -0.0516686849 -0.1443061829 0.5573695898 -0.0621609278 0.8099714518 0.1888825595 0.3017294407 0.1571976393 0.3376101851 -0.1525028944 0.7786249518 -0.0523885489 0.2456033230 -0.0002553614 0.8473993540 0.1607597768 0.0835329145 -0.0717369765 0.1577830017 -0.0896926299 -0.0979122594 0.0161657631 -0.0478651375 0.8117125630 0.0035764205 0.5694231987 0.5183297992 -0.1322161406 -0.2281895876 -0.0873561502 0.1432828605 -0.1382744908 -0.0866184682 -0.0931574702 -0.0738891959 -0.1320749521 0.6618065834 -0.0049857236 0.2274914086 -0.1924952716 0.3275865912 -0.0232667513 0.2864133120 0.2388841659 -0.1182744801 -0.2529373765 -0.0922052488 0.0046487208 0.0015618561 0.1707653701 0.0163310096 0.4092355669 -0.2382030785 0.1214233637 -0.0844101310 -0.0700756162 0.1413126290 0.3246246576 0.8053295016 -0.2053587139 -0.1415498853 -0.0762796551 0.0466070734 0.0283543505
092b3e308dfb08ac19552e9ac49b0ffe__935.74_974.41 0.0676359832 0.2425275594 0.1556129456 0.3053182065 -0.1333066970 0.4160224795 0.6314687729 0.3205323219 0.2563969195 0.0314254090 0.1899040043 -0.0597591624 0.0869291723 0.2015326619 -0.0698485449 -0.0876345783 0.2141784281 0.4976665974 -0.0997628346 -0.1712325662 0.0698859543 0.1751244515 -0.1226445064 0.2882627547 -0.1118317693 0.1626998931 0.2024553567 0.5349693894 0.1220802367 0.7646772265 0.4095983803 0.1488356590 0.6180416346 0.0245496109 -0.1774975061 0.0421400666 0.0913354754 0.3240676224 0.2713255584 0.2103974223 0.1436527967 0.1421325654 0.1448849887 0.4974865615 0.0388548896 0.6649971008 0.1182286143 0.4065303206 -0.1895210445 -0.2505154908 -0.1117077097 0.3890708387 0.1850330383 0.1442539394 0.2801012099 0.0596607402 0.0788713768 0.2254767716 0.3308465779 -0.0196828116 0.1529887170 -0.0741170719 -0.0438275710 0.1579890251 0.4704898894 -0.1761686504 -0.0957548246 0.3956800401 0.5923793912 0.1637329012 -0.1408647448 -0.0728196949 -0.1688210070 0.3043167591 0.0153457336 -0.2182480991 0.1925739944 -0.2303083241 0.2185203731 -0.0504556000 -0.1011210606 0.1686418355 0.1474078149 -0.0276620444 0.2808316052 0.2968039513 0.4421041906 -0.1699954420 0.1640430987 -0.1757455319 -0.1671801507 0.0465250127 0.1593397111 -0.1082619876 -0.1103988811 0.2054861784 0.2727698386 -0.0861371979 -0.0715690553 0.4148616791 -0.1071389839 0.1536581218 -0.1376357973 -0.1809632927 0.2989750504 -0.0430915058 0.5886877179 -0.1221868694 -0.0937540457 -0.0533107631 -0.1677377075 -0.1457580477 0.0214961376 0.5261955857 0.2491411865 0.4544474483 0.0486695319 0.0108714337 0.3243075907 -0.0708588809 0.0579554327 0.7535575032 0.0505699515 0.2916322649 0.3990018964 0.7546828985 0.0615830012 -0.0404171348 -0.0831882879 0.4886344671 0.0524043106 0.2856721282 0.0488199480 -0.1939695477 0.0498501137 0.1920294911 -0.2114979923 0.1378858984 0.1060044244 0.4548849165 0.0453525893 0.0240245350 -0.0790210962 0.1551904678 -0.0381848179 0.1419498473 0.4337158203 0.0711250305 0.0429605246 0.2162816077 0.2305616438 0.2272372991 -0.1789304912 0.0659909397 0.1470607668 -0.1340471953 0.1766145080 0.4425188303 0.4731841087 0.0540366285 0.1007421315 0.1783631295 0.0905937180 0.0207185764 0.2178718299 -0.0270805284 -0.0932030603 0.2705582976 -0.1037852615 0.2327833772 0.1579411626 0.0694775581 0.0130150467 -0.1405844539 0.0378340036 0.4259207249 -0.2167792171 -0.0676762089 -0.1702173799 0.0612792745 0.0802157149 0.1536187083 0.1006063223 0.3571720123 0.0860361084 0.0338190570 -0.0659090728 0.2404449731 0.0337644964 -0.0378097855 0.1083352193 0.1584486514 0.0677757114 0.0281678196 -0.1281512231 -0.1878459901 0.7304528356 -0.0804799274 0.6671612859 -0.0545370691 -0.1734034121 0.2777841091 0.0408250280 0.1440357268 -0.0602970161 0.2541472316 0.2772111297 0.0799367428 -0.1181876659 0.2010897547 -0.0790440738 0.0884992778 0.4017589390 0.1891788989 -0.0645862520 -0.1089919657 0.4741755426 -0.1261145473 0.0673219115 0.0069539305 0.1196990013 0.1103221178 0.3558438420 0.1027080864 0.3904035687 -0.1420448869 0.1524430960 0.1145659536 0.1298679411 -0.1734341830 0.4042714536 0.2952174544 -0.1894019693 0.0296448562 0.4145267308 -0.0959351659 -0.1141449288 0.0137367416 0.1675465405 -0.0472033955 -0.1291018426 0.2152304500 0.2881266177 0.1211843789 -0.0579163656 -0.0119023062 0.0042007840 0.1718202084 0.0876075774 0.3353565037 0.1642775536 0.1164272577 0.2569438815 -0.0866941363 0.4210017920 0.2966433465 0.1104042009 0.0188318621 -0.0995925963 0.0697150677 -0.0787109286 -0.1018777415 0.4395108223 -0.1424662620 0.5529453158 0.5058890581 0.2568315268 0.0050984072 0.2585328817 0.2462597936 0.2788973153 0.4434132278 -0.1499928236 -0.0647399575 0.1711000204 0.3249699175 -0.1544334739 0.5205676556 0.1320521086 -0.0210133065 -0.0080654295 0.3339417875 0.0513747856 0.0204877704 0.0636580065 0.1175772995 0.1250979602 -0.0662130415 0.2095951438 0.0330702290 0.4102021456 -0.1080286652 0.3857859671 0.0022512227 0.0235441495 -0.0121147875 0.3467842340 0.1713521034 0.3459540308 0.5265884399 0.1343681812 0.7288565636 0.1402726173 0.0432700738 0.0709182993 0.2188746631 -0.1231079623 -0.1889278144 -0.0844661742 0.1387130618 0.1903375983 0.2419193983 0.1686759293 -0.0892225206 -0.0297147110 0.4813935161 0.0537260137 0.0016215516 -0.0713026300 0.0197792314 0.0484818406 0.1301226616 -0.0723352581 -0.1473866999 0.7256827950 -0.1448609084 0.1486900747 0.1739517003 0.1984870434 -0.2311142981 0.1800555140 -0.1007165313 -0.1040417105 0.0834451020 0.1204231083 -0.0615517013 -0.1280868202 0.2480631769 0.1533583701 -0.0957582816 0.0318089575 0.1109969094 0.1914330423 -0.0519774258 0.1655885428 0.0917838961 0.1877079159 0.2583025396 0.6569408774 0.0730423033 0.2076675594 0.1346268058 0.1671000123 -0.1421641260 0.0416207761 0.1156212240 -0.0282352902 0.3298079669 -0.0824105293 -0.0077455668 0.0200385842 0.3145128787 0.1306953579 0.5164692998 -0.1112245694 0.2031677663 -0.2549370527 0.1692033410 -0.0784402415 -0.0409128070 0.0336502939 0.1944427788 -0.1134669781 0.1726357639 0.5572054386 0.0449653938 -0.2217642069 0.2698893547 -0.0795117989 0.3897507489 0.1504105330 -0.0093367770 0.5407751799 0.2884929478 -0.0928311348 0.1008353382 0.2532109022 0.1005103439 -0.0749994591 0.1950736195 -0.1766918749 -0.1270423383 0.4579169750 -0.2581927478 -0.1068561003 0.2619284689 -0.0540578216 0.1515550762 -0.0632579252 -0.0837075114 0.3461641669 0.1434117705 0.2291106433 0.4599947929 0.0850713104 0.3137059510 0.0667767897 0.1983296573 -0.0687035918 0.1767008603 0.0815338418 0.0659224838 0.5078155398 -0.0274998564 0.2645644248 0.0780785307 -0.0728976950 0.2000035793 0.4448250532 -0.1179355010 0.1989103705 -0.2494408935 0.1212647036 -0.1417083591 0.3545533419 0.2000266165 0.1765531152 0.3778207004 -0.0658314973 -0.1114538461 0.2030795813 0.0098944185 -0.0192767419 -0.1283808947 0.1950481087 0.6280534863 0.3266087770 -0.2056705803 0.5085378885 0.1489691436 0.1222684830 -0.0754998252 -0.1858123839 -0.1073604599 0.5733996630 0.5630475283 -0.1145008802 0.4660584331 -0.0282310806 0.1897495687 -0.0895127803 0.1832208335 0.3217481077 0.0452734455 -0.0499766357 -0.1214063391 0.1081998199 0.0645714998 0.1316737682 0.5835033059 0.3009143472 -0.1406868845 0.1333904713 0.1503997892 0.1748256385 0.0073534693 0.2960924506 -0.0986820236 0.2612153292 0.0376419537 0.1443375796 0.1183119491 -0.1312343627 -0.2163726091 -0.2453199476 -0.1373097450 0.3792671263 0.2066044658 -0.2331490666 0.1222762093 0.1583312005 0.4145744145 0.6667709351 -0.0777031705 -0.0049231481 0.0802187622 0.1004401743 0.3805888295 0.0505483076 -0.2831529081 -0.0894087926 -0.1014420912 0.5758293867 0.2876982987 0.2699069381 -0.1038852707 0.2355084568 0.1099667996 0.0839641094 0.3268873394 0.6103501916 0.1531648040 0.4024555385 0.1042753458 0.1527254581 0.2860506177 0.1490928531 0.4594226182 0.0798355117 -0.0338357165 0.1534715891 -0.1237840354 0.3535231352 0.4761218131 -0.1968260109 0.1672960073 -0.1090110093 0.2204876393 0.0110621396 0.2470541298 -0.0944622308 -0.0371593386 -0.0841960311 0.1979311407 0.1839317679 0.1672161818 0.0733039156 0.2968401909 -0.1014828235 0.3756498098 0.0306759737 0.0115323421 -0.1655910164 -0.1562556028 0.1018097773 0.1630391330 -0.0395750627 -0.1515254974 0.3697245121 -0.0368146822 0.6213686466 0.1780440360 0.2757621408 0.1935460418 0.2537620664 0.0235090964 0.6044350863 0.0592466146 0.1666552722 0.0204713605 0.5403204560 0.0577486530 0.0443836153 0.1431756169 0.3634586930 -0.0752243027 -0.0948961824 0.1202669591 0.1856821775 0.4548748434 0.0451596789 0.3309438229 0.3746242225 -0.0458233282 -0.2167356163 -0.1198625416 0.0714362860 -0.0344159715 -0.0716247410 -0.0956385285 0.0479796082 -0.0953917354 0.6813181043 0.0673265606 0.2651879787 -0.1251190901 0.1528045982 0.0062976526 0.1880914569 0.3634810448 -0.0704572201 -0.2200188339 -0.0244589336 -0.0298581123 0.0147114750 0.1021751761 0.0733141303 0.4618743956 -0.2165349424 0.0881855935 -0.0796855316 -0.0616690367 0.1639612466 0.3269705176 0.5393334627 -0.1518921703 -0.1230801642 -0.0710336715 0.0225437377 0.0116437934
0b0c27a05af3d8b78b7943f499f19bf9__2725.10_2831.25 0.0885776058 0.1922440827 0.2449607849 0.3387040198 -0.0315326713 0.3695379198 0.7135165334 0.0174672324 0.0514238290 0.1000998467 0.0738310516 -0.0640153661 0.1670317948 0.2847127020 -0.0603584759 -0.0918846652 0.1692307144 0.3571729660 -0.1147051081 -0.1826390624 0.0737503618 0.0247171056 -0.1196389869 0.1654470265 -0.0935010165 0.2136793882 0.1155405268 0.4797039628 0.3137619793 0.6646930575 0.3151430786 0.1435825974 0.6766638756 -0.0075459541 -0.1932601333 -0.0884673297 0.1209928542 0.3924199045 0.2997730970 0.2206259519 0.3059407771 0.2230741233 -0.0180662926 0.3489991724 0.0818662643 0.6591153741 0.0876571909 0.5180926323 -0.1636425704 -0.2487792820 -0.1019257754 0.3035953343 0.2711043656 0.3212969303 0.1273076683 0.0074539492 0.0944947973 0.3029986322 0.1869353801 -0.0426419862 0.0610161647 -0.0624271929 -0.0729194060 0.3506884873 0.2568528056 0.0222152118 -0.0798526481 0.1222091243 0.5788317323 0.1523549706 -0.1008044705 -0.0777093768 -0.1266313642 0.1282369494 -0.0045626094 -0.1936048418 0.1979224384 -0.2070183456 0.1074335128 -0.0210920982 -0.0726882443 0.2760441303 0.0054708123 0.0520212576 0.4049807787 0.2047638148 0.4584215283 -0.1956039965 0.1495100856 -0.1534655839 -0.1804330945 0.0991944969 -0.0593041219 -0.0790437236 -0.1213374808 -0.0132718161 0.3857641816 -0.0941969380 -0.0700238496 0.4037261009 -0.0946869999 0.1921556294 -0.0600391403 -0.1687779278 0.3835474551 -0.0747621059 0.3620240092 -0.1277143210 -0.0847578570 -0.0248431917 -0.1667884737 -0.1255187243 -0.0274322424 0.6304410100 0.3020976484 0.2064934224 -0.0878514573 0.0401495360 0.4060325027 -0.0599967204 0.0126158129 0.5127202868 0.0187817588 0.2663176656 0.4879364669 0.4994905591 -0.1130779609 -0.0137803992 -0.0649370402 0.4363294840 0.0019491641 0.1893328279 0.0259280950 -0.1608380675 -0.0251181871 0.2406374216 -0.2055190355 0.0518817976 0.2388668656 0.1321958154 0.1427675635 0.0007707207 -0.0891717374 0.0323112868 -0.0205953233 0.0979943871 0.3394161761 -0.0239137728 -0.0231671892 0.1249666885 0.1582094878 0.4014410973 -0.1666068882 0.1455588043 0.2759620249 -0.1407781392 0.0256464537 0.3764293492 0.2702355981 -0.0504467152 0.0306191333 0.4405380189 0.0904373303 0.1465808600 0.4619200528 0.0222402178 -0.0773878172 0.1438100934 -0.0807408988 0.0843363851 0.0422864109 0.0030618506 0.0426732637 -0.1399793476 0.0831008404 0.6862959266 -0.0528062582 -0.0751391128 -0.1489640921 0.0515137352 0.1740724742 0.0689001158 0.1539184004 0.5776542425 0.1317594051 0.1747711897 -0.0547448993 0.3795968294 -0.0146787427 -0.0228971243 -0.0633884594 0.1509503424 0.2386454493 0.0110215731 -0.0831442401 -0.0960654318 0.6283378601 -0.0894954726 0.6782047749 -0.0881509483 -0.1532518268 0.2895532250 0.0203462429 0.2432942837 -0.0482402705 0.1496075541 0.3404551446 0.2077292353 -0.1176191568 0.2632437050 -0.0892405063 0.1430877000 0.3403938711 0.1777017564 -0.0640061498 -0.1049956232 0.5654920340 -0.0133143887 0.1262430996 -0.0310426634 0.0241563655 0.1442268491 0.3289920390 -0.0014675076 0.4538849890 -0.1240532473 0.2410115600 0.0256305467 0.2825270593 -0.0559597053 0.3322597146 0.2173928022 -0.1663116962 0.0901712477 0.5271229148 -0.0994148031 -0.1062452123 0.0418331362 0.0561920255 -0.0488534644 -0.1517096162 0.2616163790 0.0206611324 0.1215296090 -0.0625779107 -0.0833865255 0.0757130235 -0.0185180008 0.0671498775 0.4752354324 0.1809146106 0.0913423896 0.4909580350 0.0804108083 0.0911489502 0.1959187537 0.1057565957 0.0092509054 -0.1058314443 0.0182836205 -0.0686556846 -0.0914270729 0.3460101783 -0.1203690618 0.5737478733 0.4355089366 0.1898161620 -0.0127761094 0.1339113116 0.2216508538 0.0639216229 0.4831942022 -0.1312616318 -0.0661538169 0.0114169903 0.2188601643 -0.1344387382 0.3826359808 0.2524568737 0.0960497037 -0.0507782809 0.2002390921 -0.0328603052 0.0251559429 0.0989103094 0.1104719043 0.2043991834 -0.0659688488 0.1629699022 -0.0123995775 0.1377224177 -0.1311591417 0.5367810726 0.1524955332 0.0525885038 -0.0325875990 0.3433274925 0.1931461245 0.1958446503 0.4299948812 0.1255641729 0.4695000648 0.0930305868 0.0877555013 0.0145313442 0.0952154025 -0.0622481145 -0.1987424791 -0.0923995376 0.1600035131 0.0448539779 0.1672245860 0.0897528753 -0.0875995681 0.0487814546 0.4104433358 0.0435646214 0.0215581618 -0.0287084691 0.0554306731 -0.0027988451 0.2787445784 -0.0572601445 -0.1530144662 0.6012438536 -0.1200590953 0.0256073251 0.3005272150 0.2376867533 -0.0614795350 0.1148519665 -0.0785304457 -0.1262818873 0.0558472611 0.1113175377 -0.0625975803 -0.1228527650 0.3762961924 0.2558906078 -0.0680562928 0.0711948872 0.0718270987 0.2917971015 -0.0500369594 0.1850665659 -0.0003787922 0.1364241093 0.4312008321 0.6287193894 0.0786630511 0.4018810093 0.0885379985 0.2986345887 -0.1254037470 0.1356351376 0.1158510745 0.0585622154 0.1527068615 -0.0968160033 0.0606257580 0.0308803488 0.2291677892 0.0813086331 0.2140816450 -0.1231253520 0.3487182260 -0.2521422505 0.2359463125 -0.0876213163 0.0952171385 0.0337964073 0.1472554952 -0.1000938192 0.1116734520 0.2521172464 0.0466807447 -0.2335617989 0.2331296355 -0.0732016787 0.4342485368 0.1180623472 -0.0211306997 0.6211568713 0.1593787074 -0.0548475273 0.1233438849 0.3607152700 0.1662689447 -0.0758667737 0.2187167555 -0.1701638699 -0.1274883300 0.4530956447 -0.2346446216 -0.1026329473 0.2806097269 -0.0494180396 0.1824987084 0.0015763703 -0.0987057835 0.4149935246 0.0959555358 0.1209603548 0.3007895947 0.1462598294 0.0714548677 0.0426285863 0.1509196162 -0.0453890227 0.2660146654 0.2734705210 0.1942053288 0.5530189872 -0.0459723920 0.2355811000 0.0849319547 -0.0661045983 0.1319122463 0.2871205211 -0.0660192817 0.3918040693 -0.2252737582 0.1970800459 -0.1387355477 0.4091818333 0.1880635023 -0.0218556449 0.3344390392 -0.0651089475 -0.0838442221 0.2015721798 0.1465762407 0.1070471480 -0.1406892240 0.3928085268 0.4856242836 0.3488550186 -0.2051137537 0.5037999749 0.1308894604 0.1434067041 -0.0877390727 -0.2054395527 -0.1233162954 0.5873517394 0.4143382609 -0.1415074170 0.3963407278 -0.0286506228 0.3076188266 -0.0804559588 0.1321504414 0.3252222240 0.0463374704 -0.0085344482 -0.1208920330 -0.0175970960 0.1441088319 0.2012952715 0.6116095781 0.2644454241 -0.1417579949 0.2079173774 0.1780838817 0.1636901200 -0.0024838992 0.3221019208 -0.0943713635 0.0698319897 0.0684876665 0.1309980899 0.2410499752 -0.1052334905 -0.2489903867 -0.2395648360 -0.1390975863 0.3812384605 0.2506068647 -0.2468839586 0.2466758639 0.2817634940 0.3428915143 0.4258441925 -0.0456388704 0.0500445925 0.1115869433 0.0038806666 0.4243816137 0.1674025357 -0.2570762038 -0.0846978799 -0.0954598859 0.3469481468 0.4137756824 0.2266061604 -0.1230741963 0.3751048446 0.2349481881 0.0603858829 0.2987462282 0.5775159001 0.0957744941 0.5081743002 0.2104392946 0.1866593361 0.1794365495 0.3430026770 0.4051743746 0.0920089036 -0.0398074239 0.0987693295 -0.1029563546 0.3162707686 0.5209167600 -0.1926009506 0.3870402277 -0.0987906009 0.0443840548 0.0218546707 0.2837934792 -0.0996328220 -0.0092549892 0.0498386174 0.2974515557 0.2235183418 0.0662013963 0.0322007723 0.2243472040 -0.0960351825 0.2794337869 0.0216790400 0.0261252914 -0.1575041413 -0.1185629293 0.1393081993 0.0677099228 -0.0111629823 -0.1466269046 0.4260860682 0.0265650712 0.6136638522 0.1744155437 0.5419325233 0.2017095536 0.1836502403 0.1126935706 0.5596088767 0.0138262268 0.3477697968 -0.0506576635 0.6270921826 0.1077462137 0.1827041209 0.0786683634 0.2361040413 -0.0665554032 -0.1084608361 0.0681161359 0.1251114756 0.7061228156 0.1354833245 0.4233948886 0.3993830383 0.0008034976 -0.2181922495 -0.0856998935 0.1286285669 -0.0544476658 -0.0843589604 -0.0662690848 0.0516973324 -0.1161149517 0.5610109568 0.0568767302 0.2359822690 -0.1628442556 0.2540221214 -0.0274773501 0.2838016152 0.2400570661 -0.0747854635 -0.2247553319 -0.0457957834 -0.0129947523 0.0304982793 0.2034745216 0.0341697149 0.2416385859 -0.1991730779 0.1146643832 -0.0743605644 -0.0709990337 0.1699247360 0.3092895448 0.5440926552 -0.1505311430 -0.1111142933 -0.0578397773 0.0347414650 -0.0085274763
0ba0d1a1604d205db6fc0733fb40b092__21.25_34.63 0.1193839982 0.3330205083 0.1334782690 0.4255574048 -0.1702959836 0.4765337110 0.8018596768 0.2540961206 0.2082236260 -0.1897841394 0.1139473096 -0.1044652387 0.1714608073 0.4005004168 -0.0418098867 -0.0584407188 0.2499079853 0.6997198462 -0.0853647366 -0.2191627324 0.0823394135 0.0197377373 -0.1285460293 0.2738897800 -0.1212925389 0.2238985002 0.2253070027 0.6705342531 0.2179563195 1.1111320257 0.5732806325 0.1694620103 0.9023083448 0.0477273576 -0.1892497689 -0.1207124069 0.0749542937 0.5538750291 0.4443391562 0.2826213539 0.1550973952 0.2392481714 0.0073338482 0.5275368690 -0.1438982189 0.8669657707 -0.1069267020 0.6023206711 -0.1875844151 -0.2974971235 -0.1034216285 0.5235254765 0.4027682543 0.2530635595 0.2559635341 -0.0522491671 -0.0186218601 0.3927212358 0.3926509917 0.0164951868 0.1685411781 -0.0678708106 -0.0938590467 0.1640215814 0.5048631430 -0.3594827056 -0.1005800292 0.1616204530 0.7761238217 0.0064443275 -0.1420024186 -0.0533143692 -0.1872232258 0.0481850579 0.0136663169 -0.2441853732 0.2556629181 -0.2399227768 0.1705925316 -0.0492915176 -0.1579645872 0.2727030218 0.0121283550 -0.1162129566 0.5014160275 0.0201544091 0.6509132385 -0.2255658507 -0.0909904540 -0.1496043801 -0.1661328226 -0.1805223525 -0.0111240251 -0.1142798215 -0.1201230809 0.0581561439 0.6463440061 -0.1090203524 -0.0313579366 0.6742392182 -0.1250124276 0.2260373533 -0.1401828974 -0.2241785526 0.3882630765 -0.0969198793 0.7487820387 -0.1631241739 -0.0699362978 -0.0545573570 -0.1785316914 -0.1188459918 -0.0479676872 0.8295551538 0.3870518208 0.5050235987 -0.0170825645 -0.0009593864 0.3576408625 -0.0849956796 0.0408459939 1.0419203043 -0.0640588105 0.2618992329 0.4983087778 0.9138177037 -0.0732081980 -0.0935479552 -0.0442261025 0.6717541218 -0.0534740835 0.2576365769 0.0296579748 -0.2022346705 0.0103643332 0.3290357888 -0.2226321548 0.0779881030 0.1097409129 0.4148781300 0.0154753514 0.0137921041 -0.0429940522 -0.0120799318 -0.0293832179 0.0562755540 0.6736689806 0.0202397984 -0.0499616377 0.2806266248 0.2987217903 0.4426765144 -0.2217398435 0.1832240224 0.2522182167 -0.1034648046 0.0281189624 0.6405745149 0.5838735104 0.0151358945 0.1089805663 0.3169622421 0.0716086924 -0.2120016068 0.2956256568 -0.0277860090 -0.1074960828 0.0428027548 -0.1099175364 0.2072596848 0.1328809857 0.0689451993 -0.0772296041 -0.1554752886 -0.0389348865 0.5493317246 -0.2715544105 -0.0799942762 -0.1759617925 0.1284434944 0.1453338265 -0.0350402072 0.1040086970 0.6128668189 -0.0910221413 -0.1014709026 -0.0582503863 0.3513981700 0.0233043879 -0.0629916787 0.0480292179 0.1285077035 0.0064415261 0.0254748873 -0.1211677417 -0.2619367540 0.9693449736 -0.0836607441 0.8060986400 -0.1228846908 -0.1728445739 0.2156821638 -0.0282548089 0.3141659498 -0.0509727150 0.0732688308 0.4638271928 0.1753014624 -0.1437484175 0.2872939110 -0.0965461507 0.2449853122 0.5545870662 0.1705548167 -0.0765040889 -0.0960819647 0.7570036054 -0.3658122122 0.0979561433 -0.0431145802 0.0421079546 -0.0164070204 0.5281740427 0.0777508467 0.4844912887 -0.1725079715 0.3644047081 -0.1681815535 0.2079508603 -0.2366645038 0.5718282461 0.3139095604 -0.2075675875 0.0227258801 0.5859534740 -0.1204374582 -0.1374548972 -0.0575141311 -0.0807631463 -0.0117657455 -0.1193908900 0.4016454816 0.1425330043 0.0507413931 -0.0949032903 -0.0781953633 -0.0889214352 0.0015329532 0.0442850292 0.5436456203 0.2923803926 0.1433162689 0.4788116813 -0.2337906063 0.1924500763 0.3477585614 0.0962899551 -0.0376942717 -0.1352370977 -0.0964839607 -0.0612526648 -0.1593469977 0.5397788286 -0.1394290626 0.8719928265 0.6796685457 0.1867934763 -0.0057072779 0.0048926249 0.3513460159 0.2016762793 0.4592501521 -0.1865310967 -0.1039779186 -0.0451589525 0.4141282737 -0.1423149556 0.7516998053 0.3708738685 -0.2707122862 -0.0786689445 0.0931356847 -0.1938719302 -0.0034861704 0.1488606185 0.0155625120 0.1558430046 -0.0964191705 0.2484446317 -0.0133760525 0.2469733953 -0.1097856909 0.4876522422 -0.1081079096 0.0561623722 -0.0364084356 0.4953287542 0.1885032058 0.2116310894 0.5752589703 0.2267548591 0.9606581330 0.0588280559 0.0511235893 -0.0453378186 0.0040453169 -0.1512285173 -0.2346091568 -0.1428968459 0.1896103323 0.0797102153 0.0264119245 0.1791045964 -0.0998580381 -0.1973718107 0.7368980646 0.0498119481 -0.0014623443 -0.0718481466 -0.0769714341 0.0215756446 0.1737103313 -0.0585076027 -0.1747515351 0.7656828165 -0.1933695078 0.1489681602 0.1163590923 0.2978713214 -0.2419213504 0.0142007452 -0.1178494096 -0.1236314476 0.0761251524 0.1851007193 -0.0840112269 -0.1644667387 0.1771277785 0.0311872717 -0.1176775023 -0.0208964273 0.0530616641 0.3833336830 -0.0569837093 0.2079684585 -0.0590249114 0.1696357280 0.3703279197 0.7767886519 -0.1054744795 0.5127652287 -0.0876485258 0.2186347693 -0.1571751684 -0.0875397399 -0.0240029395 -0.1763310730 0.3655423522 -0.0917482004 -0.0908360630 -0.0473066755 0.4679093063 0.1141307950 0.4751569033 -0.1146049798 0.2809632421 -0.3022481501 0.2572549582 -0.0309236664 -0.2449289262 -0.1242363080 0.2691589594 -0.1169895083 -0.0484171137 0.3953323662 -0.0962983146 -0.2680509090 0.2914666235 -0.0148015497 0.3880501091 0.1339987218 -0.0133134322 0.7544400096 0.3576743305 -0.0834025517 0.1772477329 0.3495242894 0.1423169523 -0.1061052233 0.2565001547 -0.1916853040 -0.1730358601 0.6550551653 -0.2490222007 -0.0979198068 0.3826746941 -0.0184511021 0.2076245248 -0.1218099594 -0.0867389441 0.5348683596 0.1333725154 0.1695751399 0.6318108439 0.0201145448 0.1148767769 -0.0750196278 0.1610730588 -0.0240176059 0.3536368012 -0.0006850306 0.1411728859 0.6765940189 -0.0496973433 0.4193673432 -0.1125572026 -0.0905243531 -0.0744341910 0.5358744264 -0.1851959974 0.2406928688 -0.3077976406 0.2233054787 -0.1342411488 0.6715964675 0.1572036445 -0.0935869515 0.5981644988 -0.0427374244 -0.0828196853 -0.0556143299 -0.0885518193 -0.1396182030 -0.1535185426 0.3131738305 0.8226037621 0.5148611069 -0.2258025110 0.5484574437 0.2176178843 0.0569520257 -0.0958939120 -0.2498763949 -0.1108922809 0.8314401507 0.6835685372 -0.1471480429 0.6214746833 -0.0112163536 0.4364362061 -0.1151545197 0.2304206640 0.4814099669 0.0365110673 -0.0152089112 -0.1542437077 -0.0474650711 0.0659856871 0.2221069187 0.8405870795 0.2568467557 -0.1549081653 0.2995440066 0.2425982803 -0.1491360217 -0.0137089174 0.5014046431 -0.1140742600 0.1424606293 -0.0097712157 0.0169047434 0.1024828106 -0.1416306645 -0.2664618194 -0.2767353356 -0.1081305072 0.6271665692 0.2461059391 -0.2592097819 0.1432070434 0.3697700799 0.4644387364 0.7197583914 -0.0593417101 -0.0199132245 0.0298387669 -0.0286247246 0.6862021685 0.0816810355 -0.3237703145 -0.1371084452 -0.1076537743 0.7848839760 0.4809427261 0.2509973943 -0.1322621554 0.5254245400 0.1354439408 -0.0558169000 0.4266047776 0.8990638256 -0.0480387993 0.5909618735 0.0252899453 0.0036667921 0.0181256607 0.2705683112 0.7094337344 -0.1266808510 -0.0615093112 -0.0610982962 -0.1391020715 0.5205703974 0.8820214868 -0.2320435196 0.1858640909 -0.0875892267 0.0497321561 -0.0846788734 0.3925232887 -0.1097019762 -0.0565115325 -0.3207415044 0.4360819459 0.0515454561 0.0188180953 0.0135150990 0.3592722416 -0.0891775042 0.2376871854 -0.0186212733 -0.0633289814 -0.1951478124 -0.2017279267 0.1168243736 0.1583907008 -0.0340644978 -0.1774061322 0.5318346620 -0.1258675307 0.9273192883 0.1855023056 0.2270456553 -0.0054235179 0.2890982628 -0.1958335042 0.9002399445 -0.1555985510 0.1097825542 -0.0560876764 0.8163115978 0.1667954624 -0.0692643449 0.1166214198 0.2013136744 -0.0993219763 -0.1021151245 0.0423272438 -0.0062098633 0.6890506744 -0.1060429439 0.6355671287 0.4817858040 -0.1366563290 -0.2184663415 -0.0878258049 0.1400668025 -0.0934720561 -0.0616744198 -0.0886724591 -0.0488173962 -0.1209777519 0.6883645058 0.0094663333 0.3528277874 -0.1361563951 0.2744658887 -0.0305645913 0.1246775687 0.2894331813 -0.0986572877 -0.2560691535 -0.0752416030 0.0101292534 -0.0142902825 0.1248125061 0.0587233193 0.4980791807 -0.2479982078 -0.0035363575 -0.0735186636 -0.0550315231 0.1074120253 0.3161218166 0.8223783374 -0.1801397204 -0.1267799288 -0.0605543219 0.0230981410 0.0330101363
0ba0d1a1604d205db6fc0733fb40b092__34.63_41.76 0.1134489179 0.2252066284 0.2532243729 0.2453722060 0.0278257411 0.2713279128 0.8447712660 0.0181672126 0.0100257928 -0.0686676279 -0.0159461405 -0.0686510801 0.2254542410 0.4490558207 -0.0239400323 -0.0836823285 0.3224956393 0.4514853060 -0.0669443980 -0.2257033885 0.2363247722 -0.0453595519 -0.1094062477 0.0933411941 -0.0987552628 0.1419248581 0.1549799740 0.3504009843 0.3911663592 0.7312830687 0.7088339925 0.1207836121 0.6764190793 -0.0250534508 -0.1991374195 0.0321605578 0.3921207488 0.4049432278 0.2658659518 0.2470314652 0.1708339453 0.2282427549 -0.0769761354 0.4253611863 0.0400986336 0.7067514658 -0.0479737446 0.5013586879 -0.1565135866 -0.2478123456 -0.1029537320 0.2960751057 0.3658887744 0.3605701327 0.1949273497 -0.0097495755 0.3604906499 0.3068424761 0.1986094862 -0.0288556349 0.1654996276 -0.0837652236 -0.1121715680 0.2948459685 0.2357451469 0.0508380905 -0.0677168742 -0.1113303155 0.5434828401 0.0327712297 -0.1054712310 -0.0868717656 -0.1524451524 -0.1975085586 -0.0124713592 -0.2237931937 0.2702464759 -0.1888462305 0.2607844472 -0.0313234106 -0.0361005925 0.2604113221 0.0630943552 0.0110619310 0.3448169529 -0.0637207329 0.4830172956 -0.2158784717 0.0097014746 -0.1302223504 -0.1730578840 0.0794446096 0.0097446153 -0.0809943154 -0.0981073827 0.1238537133 0.5046040416 -0.0902002007 -0.0643807426 0.4688530564 -0.1070101634 0.1354135424 0.0753161609 -0.1905256361 0.2445047498 -0.0896253064 0.4620892704 -0.1539349407 -0.0127570154 -0.0472932644 -0.1408161074 -0.1281868070 -0.1362332404 0.9453424215 0.4850292802 0.3045789003 -0.2263507396 0.0982436463 0.1944722980 -0.0102262106 0.0853332430 0.6101500392 0.0115627926 0.2303240597 0.5714528561 0.5477445722 -0.3765212893 -0.0479270890 -0.0442217551 0.4833922982 0.1097325087 0.0850513577 0.1349858493 -0.1613562107 -0.1361822933 0.3946755528 -0.1844202876 0.1012406200 0.1490043253 0.2465948910 0.0676270500 0.0340260565 -0.0648363680 -0.0949080363 -0.0041348245 0.0245453864 0.5441000462 -0.1626204848 -0.1541872621 0.1959114820 0.2267310917 0.5334154963 -0.1878973693 0.1734850705 0.2724019885 -0.0828712061 -0.0959833041 0.4828515649 0.2944168448 0.0160760507 0.0608839951 0.5236422420 0.1537588984 0.1697070599 0.4066770077 0.0556168407 -0.0648869351 -0.0885213986 -0.0691464543 0.1242375895 0.0755455568 0.0961690024 0.0448473431 -0.1400725693 -0.0130141499 0.7979094386 0.0478090160 -0.0945475698 -0.1589369625 0.0765166134 0.1741161942 -0.2147361189 0.0602325834 0.7257474065 -0.1137302145 0.0248430669 -0.0428722091 0.5223748684 -0.0245577171 -0.0276476145 0.0255663805 0.0883595943 0.3126599193 0.0372571610 -0.1172290593 -0.0142792314 0.4730068147 -0.1092831567 0.4042661786 -0.1360173821 -0.1313984990 0.1102014929 -0.0266254209 0.4013089240 -0.0504625477 -0.1176525950 0.5874153376 0.2599283159 -0.1361800432 0.2554217279 -0.1010992602 0.1817822158 0.3656933010 0.1122497395 -0.0662359074 -0.0963558182 0.5574202538 -0.2811801732 0.1121278554 -0.1127844080 -0.0211164504 -0.0950190574 0.3328105509 0.1541343182 0.6019092202 -0.1334318966 0.2934366763 -0.0162712950 0.3430528343 0.0625093952 0.4125839174 0.1403713822 -0.1422470510 0.0430402458 0.6673379540 -0.1083701998 -0.1217467636 0.0643418431 -0.0607981905 -0.0215090737 -0.1430862844 0.3646541238 0.0652555451 0.2227968872 -0.0583852902 -0.1764823198 -0.0119969919 -0.0654730350 -0.0511691570 0.8006286621 0.3322359324 0.2065158784 0.5773258209 0.0716697574 -0.1314620525 0.1677878350 0.1599570960 0.0002292525 -0.1191470474 0.0108912745 -0.0687291175 -0.1219199747 0.5181636214 -0.0797400922 0.6335717440 0.3661671877 0.2219129652 -0.0395725556 0.0816683471 0.3497315645 0.0841863453 0.2062020749 -0.1608344913 -0.0584028102 -0.3072735667 0.2216647565 -0.1372599304 0.6784223914 0.3491378725 -0.0971797481 -0.0957690775 -0.0910485387 0.0805938095 -0.0060515944 0.1420673132 -0.0669701695 0.1345879436 -0.0658662021 0.3085085154 -0.1113975272 -0.0425461829 -0.1417918801 0.5693334937 0.1972154826 0.0546960160 -0.0277391989 0.4022399485 0.0889822841 0.0027485061 0.2996985912 0.2031887472 0.5306590199 0.1730626822 0.1127205715 -0.0201153420 -0.1751167774 0.0182984900 -0.2387387455 -0.1212938875 0.1075648516 -0.0996797830 0.0291523784 0.1904842108 -0.0531578735 0.0324481316 0.5688961744 0.0209535100 0.0077207834 0.0125877047 0.0905954018 0.0104154991 0.2551809251 -0.0397054479 -0.1356708109 0.3063971698 -0.1468878239 -0.1290832460 0.2777471840 0.2447341233 0.0944318473 0.0357213616 -0.0779454261 -0.1142776906 0.1120462045 0.2573726475 -0.0815854296 -0.1157269329 0.4530812204 0.1364807934 -0.0781985149 0.1594404280 0.0537655577 0.3450797796 -0.0537313074 0.2473827899 -0.0659899414 0.1539528072 0.4362668693 0.5805071592 0.0216586944 0.6236048937 0.0252242759 0.2653582990 -0.0828601196 0.0123287272 -0.0473669954 0.0245041233 0.3720251620 -0.1133491620 0.0750844479 -0.0093669146 0.3492259681 0.0772881061 0.2258199751 -0.1478528529 0.4418690801 -0.2845936418 0.3090343773 -0.0742684528 -0.0478078686 0.0075891223 0.3093612194 -0.0827523917 0.0081776325 0.1387596726 0.0315849259 -0.2812724710 0.1931684017 -0.0430159383 0.1348950565 0.0673054680 -0.0133017218 0.7725652456 0.1827473342 -0.0212834496 0.1283480078 0.2993406355 0.3704911172 -0.0798682123 0.2627648115 -0.1567226946 -0.1416613758 0.4686065614 -0.2714534998 -0.0820113346 0.4231753647 -0.0560890213 0.3502798378 -0.0189227704 -0.0932510346 0.7716599107 0.1461841613 0.1452944577 0.3846744001 0.3568798900 -0.0964716524 -0.0062245205 0.1685166657 -0.0519911312 0.2863638103 0.0501703657 0.2623207569 0.3225241899 -0.0426510610 0.4061578512 -0.1757924408 -0.0788283423 -0.0769073069 0.4188649654 0.0604867339 0.3396229446 -0.2322444022 0.2988368869 -0.1155999824 0.4328457117 0.0556313768 -0.1268126518 0.4429637194 -0.0613569096 -0.0718760118 0.0547903404 0.0457467400 -0.0163001865 -0.1385129541 0.3379662931 0.4786693454 0.6244111657 -0.1870168298 0.6469011903 0.2113389373 0.2347295582 -0.0786702707 -0.2558377683 -0.1397784650 0.7091287971 0.3103638291 -0.1618176401 0.5265727043 -0.0214020275 0.4657635689 -0.0948445871 0.1470272392 0.4909957647 0.2005384713 0.0050023720 -0.1149753481 -0.0724253505 0.1117035523 0.2694223523 0.7419161797 0.1294967383 -0.1923637986 0.3103127182 0.2322279513 -0.2746548355 0.0476144105 0.4053311944 -0.0985457525 -0.0271094330 0.0227228366 0.0709021315 0.1817550659 -0.0776131600 -0.2289074957 -0.2376296818 -0.1045760140 0.6299507022 0.1676682532 -0.2506592274 0.2099042833 0.4443076849 0.2813135982 0.3374257684 -0.0143837938 0.0975360870 0.0731973946 -0.0094137248 0.6437752843 0.3667919338 -0.2546222508 -0.1061267480 -0.0847227797 0.5686897635 0.3260308206 0.3044317663 -0.1549245268 0.3970993757 0.2170943022 -0.1173075736 0.2306386083 0.5821491480 -0.1552700847 0.3819662333 0.1084621549 0.0639817342 0.0803677738 0.3958031237 0.5615293980 -0.1108042747 -0.0360928364 -0.1871657521 -0.1059453264 0.5980911255 0.7062499523 -0.1987300515 0.3277898729 -0.0955866352 -0.0660915896 0.0257608723 0.3719033301 -0.1251085252 0.0063600382 -0.0710925236 0.4038307071 -0.0791385695 -0.1066343933 0.2905946672 0.2422273904 -0.0853894204 -0.0053593665 0.0764467642 0.0181444865 -0.1432741731 -0.1254769415 0.2442739457 0.2538948655 -0.0063788719 -0.1294566095 0.4331361055 -0.0684072524 0.5839102268 0.1141450554 0.3924299777 0.1435721517 0.2539471686 -0.1918618679 0.7545008659 0.0072503146 0.2874487042 0.0318014100 0.7315182686 0.1622217000 0.2273944765 -0.0166631006 -0.0363577828 -0.1023886278 -0.1140953824 0.0671743229 -0.1787591130 0.8226180673 0.0079896636 0.3996087909 0.4035750628 -0.0493227765 -0.2187851816 -0.0495751500 0.1819558591 -0.0427848734 -0.0902329832 -0.0663833171 -0.0248732939 -0.1601022035 0.3454540670 0.1063942611 0.2373826504 -0.1750883460 0.4603756964 -0.0038259309 0.3626953363 0.0586281940 -0.0985882133 -0.2341198921 -0.0851312503 -0.0154319173 -0.0401025489 0.1208077371 -0.0270414278 0.3597326279 -0.1960773170 0.2190309167 -0.0580428690 -0.0704992712 0.0521267839 0.1856200397 0.6188854575 -0.1752199233 -0.1137663722 -0.0608168729 0.0528694429 -0.0142975710
0bd60a1636689f28b69c2217ac944418__1331.74_1421.47 0.0817821473 0.1882806420 0.1902007610 0.3225055039 -0.0467772298 0.3436098397 0.6294671297 0.1392301023 0.1290353239 0.0291061290 0.0957483053 -0.0557710305 0.1406746209 0.2704977989 -0.0617723279 -0.0847471207 0.1893664598 0.3778522015 -0.0903382599 -0.1748484820 0.0951266810 0.0483275875 -0.1175042018 0.1838011593 -0.1004349813 0.1760120988 0.1606462598 0.4724758267 0.2511983216 0.7107347250 0.3793178499 0.1315114647 0.5979124904 -0.0008976399 -0.1758413762 -0.0237307549 0.1451226175 0.3675611019 0.2898116708 0.1967874318 0.1940384209 0.1666535288 0.0243383255 0.3492690325 0.0667697713 0.5959494114 0.0907024890 0.4219662845 -0.1666732579 -0.2387034148 -0.1056306809 0.3288500607 0.2394684851 0.2535925508 0.2138564736 0.0259840190 0.1294950247 0.2800464630 0.2275058031 -0.0324498937 0.0972509757 -0.0639768094 -0.0555510372 0.2676534653 0.3361836374 -0.0233164411 -0.0824217573 0.1810243875 0.5179336071 0.1154392138 -0.1180100664 -0.0738661364 -0.1488332450 0.1655125320 -0.0123192612 -0.1996936947 0.2289656401 -0.2085596770 0.1998943835 -0.0244559273 -0.0539986268 0.2041344941 0.0876169503 0.0244342256 0.3277913630 0.1744297147 0.4193506241 -0.1777994633 0.1143585145 -0.1581429392 -0.1604210734 0.0923572034 0.0020720745 -0.0955061093 -0.1134985760 0.1098459512 0.3192697465 -0.0828630775 -0.0698176101 0.3962504268 -0.0969057679 0.1587803960 -0.0491206199 -0.1720324159 0.2918070853 -0.0546413027 0.4428045750 -0.1214653850 -0.0851591676 -0.0294510778 -0.1558289230 -0.1296509802 -0.0053576361 0.5839718580 0.3189360201 0.3074716628 -0.0174607914 0.0476242229 0.3406051099 -0.0416363142 0.0349452347 0.5780292153 0.0198923089 0.2274314612 0.4164111614 0.5971979499 -0.0358685181 -0.0283278357 -0.0677980855 0.4076417685 0.0249313004 0.1919002086 0.0500704497 -0.1621734500 0.0065056048 0.2387028188 -0.2044970542 0.1043282524 0.1605764776 0.2686433792 0.0848745853 0.0130620310 -0.0833575279 0.0598871671 -0.0236215964 0.1093852371 0.3632646203 0.0042893714 0.0112960059 0.1489867568 0.1925344020 0.3330697715 -0.1649768353 0.1022421271 0.1959756464 -0.1231725439 0.0610130727 0.4009825885 0.3252710998 -0.0140992785 0.0657099634 0.3389357924 0.1236875951 0.0855932236 0.3260790408 0.0083509274 -0.0768761560 0.1506241411 -0.0753372759 0.1598891020 0.0884833336 0.0292360410 0.0280883908 -0.1356912255 0.0677910298 0.5496354699 -0.0743846297 -0.0756755695 -0.1590238512 0.0554416776 0.1460776329 0.0839459524 0.1101085916 0.4796941280 0.0927845016 0.0790303051 -0.0596071035 0.3236408830 0.0047044493 -0.0341793448 0.0106579028 0.1278040111 0.1851370186 0.0173308328 -0.1077922359 -0.0901029557 0.6414901614 -0.0870294943 0.6040056348 -0.0636160895 -0.1472209841 0.2379201949 0.0170064364 0.2257959396 -0.0458698459 0.1541285366 0.3397067189 0.1637817919 -0.1138477027 0.2151083797 -0.0879346803 0.1105988175 0.3402465880 0.1515087336 -0.0570310280 -0.0886152908 0.5216373205 -0.0969073921 0.0872678831 -0.0131847439 0.0478896834 0.0919054896 0.3432991803 0.0491841957 0.3940155208 -0.1390971392 0.1930651218 0.0371353067 0.2342446893 -0.0678367168 0.3664049208 0.2378331870 -0.1673753709 0.0529583171 0.4558154941 -0.0883978680 -0.1083050072 0.0534420609 0.0607522056 -0.0357412957 -0.1459563226 0.2446395159 0.1388745457 0.1145295724 -0.0483756959 -0.0459405147 0.0455286950 0.0451225415 0.0641143247 0.4374819994 0.1901101470 0.1299993694 0.3876247704 0.0167464446 0.1927549243 0.2420333177 0.1370057017 0.0417953432 -0.0966648832 0.0420896970 -0.0735242739 -0.0940320864 0.3583507538 -0.1179820821 0.5281022191 0.4303139746 0.1775624901 -0.0028233298 0.1985864937 0.2527964711 0.1603736132 0.3996112645 -0.1334328353 -0.0559633747 0.0608112141 0.2368423045 -0.1380347610 0.4467846453 0.2008208036 0.0512397513 -0.0329957716 0.2077037543 0.0060043922 0.0250803716 0.0765366107 0.0869835615 0.1541358978 -0.0638073608 0.1833126992 0.0001657652 0.2402774245 -0.1132256910 0.4384236634 0.0968446210 0.0416742414 -0.0223270878 0.3765089810 0.1575361043 0.2087690830 0.4043424129 0.1202067211 0.5475092530 0.0940743685 0.0730243102 0.0187580064 0.1306496114 -0.0668712109 -0.1830367744 -0.0939639583 0.1503987461 0.0993211269 0.2031991780 0.1322748512 -0.0723487064 0.0238728151 0.4143145382 0.0415030271 0.0135987364 -0.0318157226 0.0467757210 0.0117269484 0.2177204788 -0.0544510633 -0.1353911608 0.5956831574 -0.1311399192 0.0823280141 0.2299398780 0.2015793473 -0.0837121755 0.1470164806 -0.0799605250 -0.1181097776 0.0600715801 0.1405583769 -0.0655008182 -0.1221535057 0.2971588075 0.1740686446 -0.0762115493 0.1009817943 0.1325910836 0.2212674618 -0.0446400568 0.2072847486 0.0189223289 0.1979895234 0.3348387480 0.5609627366 0.0764041692 0.3500506580 0.0747572705 0.2622357011 -0.1166103482 0.0671135932 0.0891356021 0.0304981396 0.2340324521 -0.0880954042 0.0318398029 0.0193278510 0.2446160316 0.0765130594 0.3528759480 -0.1153768152 0.2786267698 -0.2416465580 0.2049497366 -0.0860425010 0.0327113681 0.0362627283 0.1768995076 -0.0992767513 0.0968070254 0.2903853059 0.0334132016 -0.2268729806 0.2116180807 -0.0645106956 0.3586266041 0.1161247492 -0.0176782440 0.5527898073 0.1986515075 -0.0669444427 0.1040378064 0.3312127292 0.1795608848 -0.0742893815 0.1912812144 -0.1696546525 -0.1158042401 0.4218226075 -0.2412629277 -0.0914050490 0.3005952537 -0.0501012467 0.1813599318 -0.0233428795 -0.0920584649 0.4201627970 0.1309686750 0.1953514069 0.3404935896 0.1593533903 0.1684918404 0.0568530969 0.2256439030 -0.0512953810 0.2082423270 0.1399466246 0.1502819061 0.4914926887 -0.0334290825 0.2602421045 0.0516434982 -0.0573034920 0.1093813628 0.3816019297 -0.0484721214 0.2762413025 -0.2309358567 0.1655702442 -0.1367832273 0.3714553714 0.1660045981 0.0199704841 0.3347956240 -0.0557485856 -0.0813873783 0.1480603367 0.0686165467 0.0312221050 -0.1292212605 0.2762670815 0.4942849278 0.3757506907 -0.1931657642 0.4531708658 0.1368128806 0.1357806623 -0.0816041008 -0.1930887252 -0.1056655198 0.5462787747 0.4498157203 -0.1225109547 0.3870354891 -0.0267910771 0.2807254195 -0.0811115876 0.1343746036 0.3108389080 0.0684475899 -0.0367423780 -0.1196982861 0.0202336069 0.1046247482 0.2167083472 0.5604414344 0.2443809658 -0.1434044242 0.1866927892 0.1638999432 0.1378023922 0.0038750372 0.3124381602 -0.0881344303 0.1195565686 0.0607078224 0.1022443622 0.1933421493 -0.1024316400 -0.2195697576 -0.2275898159 -0.1240154728 0.3860681653 0.1978199780 -0.2283845246 0.2100120634 0.2609904408 0.3168732226 0.4601738155 -0.0521099903 0.0714986324 0.0791182816 0.0199929625 0.4203568697 0.1890262067 -0.2578042448 -0.0835445821 -0.0876229107 0.4115075767 0.3351768255 0.2998510599 -0.1128094569 0.2961015105 0.1807307750 0.0527676232 0.3172019422 0.5454888344 0.0897456557 0.4454934299 0.1337069869 0.1276355684 0.1566049606 0.2656250596 0.4366883039 0.0705692247 -0.0298481211 0.0950864553 -0.1110318154 0.3396098912 0.4908346832 -0.1836526990 0.2723683417 -0.0943996310 0.0805717260 0.0704020783 0.2620105147 -0.0943292379 -0.0191096030 0.0094587253 0.2555874884 0.1571062654 0.0893452168 0.0848606303 0.2714244723 -0.0934697688 0.2795932293 0.0344194137 0.0175756104 -0.1482458711 -0.1361802816 0.1426495910 0.1178614870 -0.0120332548 -0.1472930759 0.3673193455 -0.0267594866 0.5838811994 0.1578786969 0.4232704341 0.1567141563 0.1895100176 0.0359037891 0.6039562225 0.0310835149 0.2457234561 -0.0194772910 0.5625319481 0.0864050016 0.1260107309 0.1571035385 0.2445396483 -0.0740126818 -0.1103806570 0.1098426208 0.1102263480 0.5778795481 0.0715584904 0.3526431024 0.3494357765 -0.0001154644 -0.2145028859 -0.0908898711 0.1121553928 -0.0135701410 -0.0746994168 -0.0738033131 0.0617569014 -0.1102441847 0.5335832834 0.0868150070 0.2712155282 -0.1321568042 0.2413301915 -0.0107496558 0.2337325215 0.2493542880 -0.0693413317 -0.2214956135 -0.0257983431 -0.0299374275 0.0125050787 0.1318512857 0.0482981093 0.3524502516 -0.1931546181 0.1137741730 -0.0746554285 -0.0696802363 0.1289521158 0.2684417963 0.4983700514 -0.1413315833 -0.1120805591 -0.0588038079 0.0295545720 -0.0065688561
0c7405f73c1855193585f67d402073f3__85.03_91.59 0.1088919044 0.2783951759 0.2049509287 0.3513187170 -0.1190593615 0.4259497523 0.8054110408 0.1149956584 0.1172297373 -0.0266401321 0.0916876420 -0.0840488970 0.1683228314 0.3403670788 -0.0572760776 -0.0680446401 0.2235075533 0.5480237007 -0.0936312303 -0.2029628158 0.0785492286 0.0370366015 -0.1103492081 0.2224317640 -0.0976844653 0.2163485736 0.1646258980 0.5582214594 0.2622667253 0.8465311527 0.4679555595 0.1622780263 0.8133883476 0.0201674439 -0.1840026975 -0.0943047628 0.1029506624 0.4577302337 0.3482950926 0.2553903162 0.2503708005 0.2473962754 0.0006090975 0.4814110100 -0.0388732404 0.8004841805 -0.0277780890 0.5736705661 -0.1651663482 -0.2665852010 -0.1039437950 0.3958319426 0.3396513164 0.2868471444 0.1606493592 -0.0193279386 0.0377691388 0.3236157298 0.2945221066 -0.0248189326 0.1233643815 -0.0690417886 -0.0924967155 0.2556667626 0.3578201532 -0.1754532307 -0.0927515104 0.1284646392 0.7003144026 0.1003739387 -0.1132376939 -0.0704562590 -0.1461342424 0.0559931695 0.0246759206 -0.2165198475 0.2030698657 -0.2154185921 0.1211663410 -0.0318180807 -0.1161044911 0.2856061161 -0.0121354703 -0.0320213884 0.4531643987 0.1278691888 0.5589789152 -0.2128854096 0.0498198792 -0.1522954255 -0.1781852245 -0.0475655794 -0.0030763773 -0.0924313441 -0.1143448278 0.0028681234 0.5390577316 -0.0986158922 -0.0425190851 0.5326837301 -0.1028216779 0.2146599442 -0.1189608499 -0.1910514235 0.3977948427 -0.0906185359 0.5589514375 -0.1618446410 -0.0737432688 -0.0452154316 -0.1732544601 -0.1125127524 -0.0508763790 0.7546432614 0.3209871650 0.3397162855 -0.0960809290 0.0179603584 0.3687684834 -0.0801180005 0.0344363302 0.7721915841 -0.0177285001 0.2936674953 0.5294005871 0.6702374816 -0.1440602988 -0.0563209578 -0.0570849665 0.5736423135 -0.0115864826 0.2261254638 0.0286282562 -0.1777245700 -0.0310343187 0.2836326361 -0.2021630704 0.0573675334 0.1892216355 0.2618190646 0.0802069157 0.0154557424 -0.0678876117 0.0062948796 -0.0249658693 0.0724974573 0.5255055428 -0.0209194310 -0.0730894208 0.2115345001 0.2197247744 0.4349691272 -0.1941119283 0.1689565778 0.2765143812 -0.1151790991 0.0258013960 0.5070012808 0.4223371148 -0.0120397611 0.0617421605 0.3788025975 0.0668310821 -0.0199228283 0.3989299834 0.0003498243 -0.0844822749 0.0875171795 -0.1032361239 0.1214297563 0.0944414213 0.0449483618 -0.0161769316 -0.1475352347 0.0041453755 0.6476879716 -0.1718534678 -0.0737975910 -0.1555814296 0.0830386654 0.1502174139 -0.0115198158 0.1236076057 0.6078994274 -0.0001606755 0.0573904626 -0.0529899783 0.3853096366 -0.0040865913 -0.0339510702 -0.0083668446 0.1411384344 0.1302148700 0.0187251270 -0.1027046964 -0.1876491606 0.7588698864 -0.0864647031 0.7236006856 -0.1207755357 -0.1669393480 0.2625567913 0.0058229412 0.2766762078 -0.0607847944 0.0940374136 0.4060093164 0.1867589206 -0.1289235801 0.2859270573 -0.1078213379 0.2051947266 0.4456177056 0.1917353421 -0.0782598630 -0.1075209677 0.6375757456 -0.1714732349 0.1252574623 -0.0550039783 0.0400073677 0.0664860010 0.4110066295 0.0554522686 0.5053676367 -0.1354137361 0.3097488284 -0.0530555993 0.2365160733 -0.1471864730 0.4310338795 0.2520309389 -0.1826889664 0.0632675141 0.5868966579 -0.1134347543 -0.1153940037 -0.0186609086 0.0121679921 -0.0369995199 -0.1236993745 0.3267365694 0.0619497485 0.1095035151 -0.0902813673 -0.1035844386 -0.0058510401 -0.0123549141 0.0406588800 0.5265432596 0.2393210679 0.1053310782 0.4888702035 -0.0710412860 0.1244530156 0.2400736511 0.0752333924 -0.0489723235 -0.1289283484 -0.0413373336 -0.0543359295 -0.1234194711 0.4841554463 -0.1244727075 0.7373811603 0.5463333726 0.2183598727 -0.0151770534 0.0432140492 0.2688735127 0.1156706512 0.4662573934 -0.1525800228 -0.0947900414 -0.0665010661 0.3168708384 -0.1301651150 0.5801782608 0.3228024244 -0.1086013019 -0.0774452239 0.1398943067 -0.0985879377 -0.0046028467 0.1330265403 0.0536017269 0.1817620099 -0.0771226138 0.2208348662 -0.0261019915 0.1480038166 -0.1223072559 0.5357122421 0.0388754755 0.0538952909 -0.0287337210 0.3838539124 0.1881373674 0.1871130466 0.5017101169 0.1937841475 0.6940291524 0.0996586382 0.0681398213 -0.0021982715 0.0186951254 -0.1108907238 -0.2151393592 -0.1162267327 0.1675174832 0.0417287275 0.0748305768 0.1434818059 -0.0948126242 -0.0695565268 0.5914621353 0.0453174226 0.0190416574 -0.0528742112 0.0040977383 0.0095701357 0.2278418839 -0.0513051525 -0.1653886288 0.6389494538 -0.1484023631 0.0476032831 0.2370799035 0.2759180069 -0.1606683582 0.0346844792 -0.1087981835 -0.1153347269 0.0810096711 0.1509394199 -0.0752152577 -0.1392358392 0.3042359948 0.1646815240 -0.0851884112 0.0104648536 0.0085724723 0.3568926156 -0.0494063050 0.1844352335 -0.0182442795 0.1105804294 0.4161669612 0.7460198998 -0.0229749233 0.4562142491 0.0213794895 0.2208037078 -0.1278156787 0.0345941409 0.0412141010 -0.0635250509 0.2746697962 -0.0897618383 -0.0022221757 -0.0135740619 0.3713814318 0.1114287004 0.3087339401 -0.1210056916 0.3352011740 -0.2803466916 0.2625950575 -0.0621432997 -0.0856885910 -0.0476989523 0.2158048302 -0.1041152179 0.0436961427 0.3508438766 -0.0157489814 -0.2456844300 0.2730817795 -0.0496781208 0.4050947130 0.1288735867 -0.0150325941 0.7206213474 0.2586110532 -0.0658378229 0.1568732858 0.3138116896 0.1527698338 -0.0897955596 0.2532116473 -0.1788169891 -0.1461048126 0.5624889731 -0.2441260070 -0.1034995168 0.3116059899 -0.0356031954 0.2050072551 -0.0585951582 -0.0968107581 0.4854342937 0.0938456506 0.1150171012 0.4712675214 0.0872307271 0.0546525680 -0.0267127529 0.1081208736 -0.0359078385 0.3212872446 0.1524757445 0.1784606725 0.5865148902 -0.0443990380 0.3314598203 -0.0278195068 -0.0799561366 0.0393559821 0.3729705215 -0.1244610101 0.3394765556 -0.2632348239 0.2147207707 -0.1357495636 0.5410674214 0.1711918712 -0.0505196527 0.4843739271 -0.0561431721 -0.0915280432 0.1082675084 0.0448876992 -0.0060130218 -0.1490597725 0.3672827184 0.6683634520 0.4248745441 -0.2066982836 0.5780170560 0.1754727066 0.1205217689 -0.0833135247 -0.2301992625 -0.1236839592 0.7361314893 0.5233854055 -0.1497623324 0.5455867052 -0.0230322890 0.3659889698 -0.0977810919 0.1936800331 0.4160848856 0.0433220044 0.0008223986 -0.1417060792 -0.0301440302 0.1115026101 0.1660550386 0.7538322806 0.2593176365 -0.1494537443 0.2464375794 0.2103172541 -0.0292636286 -0.0030906503 0.4054694772 -0.1086327657 0.1074563488 0.0058802953 0.0923532769 0.1583699882 -0.1265324801 -0.2509333193 -0.2478654683 -0.1315986067 0.5202457309 0.2571708560 -0.2520239353 0.1803568304 0.3149142563 0.4192869067 0.5878019929 -0.0411764681 -0.0032185409 0.0819182172 0.0024907906 0.5430709720 0.0999633521 -0.2874502838 -0.1048360914 -0.1001442745 0.5882951617 0.4303591549 0.2035884261 -0.1188615412 0.4570452571 0.1893792450 -0.0130313430 0.3363046944 0.7412329912 0.0047654482 0.5319595933 0.1235580891 0.1171432137 0.1363540888 0.3059201539 0.5457588434 -0.0331646502 -0.0493830070 -0.0042562899 -0.1202292144 0.4418285191 0.7157422900 -0.2064675093 0.3059086204 -0.1016312242 0.0566113144 -0.0722260848 0.3551552296 -0.0952581540 -0.0287114456 -0.1555285752 0.3771105111 0.1319063604 0.0305342115 0.0269965567 0.2718906999 -0.0935357958 0.2375191301 0.0057322728 -0.0179802179 -0.1813084930 -0.1640635431 0.1284809560 0.1287746876 -0.0423740335 -0.1528464407 0.4973438978 -0.0427863449 0.7514736056 0.1835729331 0.3706782758 0.1211015657 0.2541513741 -0.0448675156 0.7046824098 -0.0616825521 0.2439467907 -0.0440151393 0.7421855330 0.1404878795 0.0719912201 0.0241428614 0.1996119320 -0.0736908615 -0.0987171307 0.0323858410 0.0355706289 0.7209604979 0.0258915890 0.5316961408 0.4574750364 -0.0812296942 -0.2063588947 -0.0761217922 0.1390635520 -0.0984234959 -0.0786380023 -0.0805112273 -0.0206435025 -0.1118553057 0.6282964349 0.0172884203 0.2513773143 -0.1573117226 0.2682222724 -0.0195084997 0.2250259221 0.2575134039 -0.0905273929 -0.2385109514 -0.0672421753 0.0013226075 0.0040194895 0.1794123203 0.0420619473 0.3472077549 -0.2236604840 0.0761832371 -0.0790519342 -0.0681756809 0.1411218494 0.3187710345 0.6933005452 -0.1663064510 -0.1240730807 -0.0620598383 0.0321178250 0.0175354667
0d1dd8c66c8a284bfa012da952280157__152.98_170.74 0.1032934934 0.2595817149 0.0937508419 0.4622212648 -0.1383499354 0.4433946311 0.5910208225 0.2746093273 0.2380267382 -0.1116342172 0.1280228347 -0.0697615817 0.1389098167 0.3217522204 -0.0629379451 -0.0616718493 0.1636190563 0.5619311333 -0.0937261656 -0.1996658295 0.0411198139 0.0354964361 -0.1408355385 0.2742086351 -0.1300123781 0.2303833514 0.2300912142 0.6907497048 0.1903647035 1.0481764078 0.3824333251 0.1581775993 0.7494444847 0.0422587432 -0.1781140864 -0.1400299817 0.0192948300 0.5114420056 0.4272535741 0.2164213955 0.1360945255 0.1725169271 0.0277891681 0.3761057258 -0.0564724281 0.6841725707 0.0266532656 0.4798558652 -0.2024927437 -0.2778138220 -0.1142882407 0.5134631991 0.3225241899 0.2183275074 0.3118659258 -0.0103080859 -0.0610418990 0.3819115162 0.3339679539 0.0033942726 0.1112810746 -0.0460330360 -0.0469895154 0.2072938979 0.5272397995 -0.2695854008 -0.0950840190 0.2845738828 0.6390792131 0.0445477068 -0.1504317522 -0.0544395559 -0.1782765090 0.2641399503 0.0030230857 -0.2205971479 0.2931561768 -0.2497496754 0.2184128463 -0.0356558301 -0.1009389162 0.2004826814 0.0709668696 -0.0692444816 0.4481528401 0.1140067279 0.5422336459 -0.1875173151 -0.0351228416 -0.1820725352 -0.1587215066 -0.0676103011 -0.0574983172 -0.1256909072 -0.1174960881 0.1056704819 0.4610701501 -0.0964349955 -0.0532207303 0.5756865740 -0.1159135178 0.2134581208 -0.1238576993 -0.1951726973 0.3488701582 -0.0427721925 0.6642226577 -0.1263801157 -0.0872457623 -0.0353120826 -0.1847497821 -0.1274054796 0.0436007082 0.6095097661 0.3477622271 0.4597520232 0.1303397715 0.0210881680 0.4181895256 -0.0623432882 0.0222214274 0.9117650390 -0.0559047461 0.1988620162 0.3676624298 0.9022403955 0.1371456087 -0.0793072879 -0.0631970167 0.5161776543 -0.1035672799 0.2766971290 0.0020892366 -0.1852982193 0.0927051008 0.2635760009 -0.2346553653 0.1109116599 0.1124197021 0.4054276943 0.0252574496 -0.0037230933 -0.0689998344 0.0723520666 -0.0344161913 0.1312121153 0.5004990101 0.1074295789 0.0807265341 0.2160161436 0.2648291588 0.3409215212 -0.2052283436 0.1145738661 0.1858404130 -0.1301549971 0.1041758135 0.5629187822 0.5241783857 -0.0231616721 0.1019041240 0.2517527044 0.1125584394 -0.1799088269 0.2392995059 -0.0405853204 -0.0897000059 0.1485214531 -0.1022144109 0.2409491837 0.1410072744 0.0186564922 -0.0567328781 -0.1666326225 0.0492747948 0.4162002206 -0.2294201404 -0.0838572755 -0.1800910830 0.0884698033 0.1479786038 0.1465777159 0.1206903309 0.4793463945 0.0690658092 -0.0520687997 -0.0719524994 0.2549334764 0.0315053463 -0.0606084391 0.0253015868 0.1293900907 0.0173313934 0.0196946971 -0.1252464205 -0.2210735977 1.0081655979 -0.0781196132 0.8365781307 -0.0592046641 -0.1789328307 0.2445365041 -0.0143448506 0.2387897670 -0.0548375808 0.2128463238 0.3396328092 0.1463176012 -0.1187348440 0.2316128016 -0.0905690119 0.1660926193 0.4776763618 0.1609945893 -0.0640602037 -0.0763930008 0.7209907770 -0.2478096038 0.0762331933 0.0229760054 0.0574417971 0.0765811428 0.5195330977 0.0043508443 0.3253913522 -0.1714821160 0.2726717293 -0.1278894097 0.2046351582 -0.2240857035 0.5229656696 0.3613305688 -0.2159034759 0.0284119267 0.4250385463 -0.1093926132 -0.1435994357 -0.0044764224 -0.0330552235 -0.0159236938 -0.1352929175 0.3138023615 0.2020426542 0.0076207593 -0.0671429113 0.0088346750 -0.0075656776 0.0593699329 0.1113763601 0.3782246411 0.2191079557 0.1236388385 0.3921523988 -0.1925654858 0.3506157100 0.3883821368 0.1388320327 0.0640900210 -0.1147804409 -0.0401787385 -0.0643226206 -0.1233875081 0.3906778395 -0.1429415345 0.7067133188 0.6441569328 0.1183145717 0.0122899199 0.1436492503 0.3156862557 0.2425036579 0.5247828364 -0.1471568942 -0.0772812888 0.2008462101 0.3629784882 -0.1552033275 0.5738260150 0.2532626092 -0.1008413956 -0.0194755197 0.2460668683 -0.1936290711 0.0270808972 0.0927188545 0.0928680897 0.1546574384 -0.0796258375 0.1564008445 0.0608423911 0.4130432308 -0.1126364917 0.3898209631 -0.0849357992 0.0452130325 -0.0425778516 0.5151624084 0.2063282877 0.2814527750 0.5369063616 0.1431774348 0.8685545325 0.0163462311 0.0389197581 -0.0292486064 0.2099403292 -0.1458718181 -0.1985218078 -0.1264835745 0.2098449916 0.1761564910 0.1958702207 0.1511288285 -0.0924008861 -0.1168423966 0.5523718596 0.0494087450 0.0035110617 -0.0750239938 -0.0650928617 0.0125722624 0.1871652454 -0.0519734211 -0.1577590704 0.8631209135 -0.1699829251 0.2616277933 0.1042556837 0.2344356626 -0.2319439948 0.1307000369 -0.0970578939 -0.1295360923 0.0489534885 0.1391522437 -0.0715905055 -0.1482687443 0.1073990911 0.0428638384 -0.1016561612 0.0306877736 0.1711732596 0.2592751980 -0.0598146245 0.2432638407 -0.0187740270 0.2657651901 0.2952317297 0.6322363615 -0.0122683858 0.3863101304 -0.0552024916 0.2811934650 -0.1667516977 -0.0520209372 0.0568718724 -0.1121318117 0.2634272575 -0.0754574835 -0.0795633048 -0.0155182611 0.3289462030 0.0860731304 0.5518608689 -0.1004820317 0.1985857934 -0.2807720304 0.1942192018 -0.0491025783 -0.1144171879 -0.0709960684 0.2048991174 -0.1253156215 -0.0120796636 0.3463521600 -0.0744871050 -0.2458977550 0.2589609623 -0.0182513706 0.4551341832 0.1503370553 -0.0207854062 0.5713803768 0.3175367117 -0.0856911838 0.1352961361 0.4205923975 0.1014551073 -0.1067325324 0.1880563796 -0.1903124601 -0.1334331483 0.5502828956 -0.2452592254 -0.1019544452 0.3730067909 -0.0301828254 0.1264410019 -0.0979552791 -0.0941069424 0.3621716499 0.1671893299 0.2334481031 0.5163249969 -0.0011234879 0.2820717692 -0.0047057942 0.2981317937 -0.0296701230 0.2724690735 0.0468153730 0.1096131057 0.7139544487 -0.0365632586 0.3260667026 0.0230811331 -0.0826015994 0.0220793132 0.5301613212 -0.1587207764 0.1967562884 -0.2851378322 0.1594875455 -0.1479200572 0.5627079010 0.1834063828 -0.0171560049 0.4619688988 -0.0420835316 -0.0826939419 -0.0181296580 -0.0503082722 -0.0906160399 -0.1505932510 0.2584165633 0.7016406655 0.4213460684 -0.2278655022 0.3599016070 0.1501609981 0.0217988268 -0.1140838042 -0.2126589268 -0.0997284204 0.6541659236 0.7046467066 -0.1344812214 0.4544860125 -0.0132331029 0.3424291611 -0.0990276933 0.1788078994 0.3430156708 -0.0041597895 -0.0463929512 -0.1480755359 0.0048561562 0.0848164409 0.2722142935 0.6482546329 0.3075479865 -0.1458606720 0.2406411171 0.1870255023 0.1325727999 -0.0391110890 0.4317709804 -0.1045034900 0.1688413918 0.0459692553 0.0112425108 0.1517129838 -0.1259056628 -0.2501774430 -0.2669165134 -0.1185736805 0.4642504752 0.2197306454 -0.2301070392 0.1909496784 0.2946470380 0.3968575597 0.6633758545 -0.0763657391 0.0705741346 0.0278240442 -0.0452656411 0.5306536555 0.1124461219 -0.3120145798 -0.1185598373 -0.1067213193 0.5803425312 0.4416460991 0.3541123867 -0.1080406383 0.4030323625 0.1389210522 0.0658367127 0.4854928553 0.7772202492 0.0958951116 0.6067610979 0.0380253531 0.0167289320 0.0102117509 0.2360207438 0.5993288159 0.0111513231 -0.0463395230 0.1236172616 -0.1426950842 0.3431916833 0.6848922372 -0.2228898853 0.1711029261 -0.0805311576 0.0932282433 0.0525709167 0.2967622280 -0.0984372422 -0.0608245358 -0.1624607146 0.3355924487 0.1616516411 0.1316442639 -0.0497744009 0.3794816136 -0.1175277829 0.3889020979 -0.0204387717 -0.0500177704 -0.1852452904 -0.1935965717 0.0946083814 0.0889510959 -0.0324633010 -0.1901537627 0.4400011897 -0.0979542881 0.8376746178 0.1932095438 0.3205038607 -0.0055739824 0.2099965513 -0.0523980223 0.8182854652 -0.1206548214 0.1136914194 -0.0748546496 0.6420563459 0.1079327092 -0.0610646456 0.3015808463 0.3266106248 -0.0853393599 -0.1113998219 0.1109382436 0.1696915776 0.5361208916 -0.0554624908 0.5341454744 0.3906776011 -0.0484563708 -0.2182202190 -0.1077049524 0.1182464957 -0.0108562503 -0.0606373698 -0.0801207647 0.0616004430 -0.1063331664 0.6908710003 0.0760796517 0.4188964069 -0.1104926765 0.2061032206 -0.0182634480 0.0652167946 0.3470832705 -0.0709891170 -0.2508993149 -0.0243952200 -0.0119558843 -0.0042723287 0.0999123603 0.1015682667 0.5080121160 -0.2342925519 -0.0316825062 -0.0838333964 -0.0670189485 0.1189856082 0.3089085519 0.6445941329 -0.1522437036 -0.1129543632 -0.0574424304 0.0161489714 0.0223201029
10998f7d083819ae952528a6b2d218b1__1339.76_1341.44 0.0729243308 -0.1236017942 0.1345141828 0.1627209932 0.3962995708 -0.1459366977 0.2472929060 0.4060595036 0.1983045489 -0.2985922396 -0.0261885133 0.0392527655 0.2463102043 0.5734964609 -0.0052703712 -0.0881825611 0.4506084919 0.0908637792 0.0178938527 -0.2373805642 0.6860970259 -0.1299284697 -0.2076914310 -0.0384297259 -0.1661385447 -0.0736210048 0.4228610992 0.1323842257 0.5479562879 0.8920391202 1.2818318605 -0.0638633221 -0.2045112103 -0.1229295433 -0.1847157031 0.5194959641 1.1140582561 0.3156951070 0.2083743662 0.0173815433 -0.4717139304 -0.1786339134 0.0204707049 -0.0748256668 0.4734809995 -0.1178092733 0.3379301727 -0.2909547985 -0.2876559198 -0.2650371492 -0.2001542151 0.3176582456 0.1614607722 0.3072274327 0.9546149373 0.2824255228 1.2163028717 0.2749938965 0.0523906313 -0.0110607799 0.2916385233 -0.1083090976 0.1032179520 0.2916806340 0.5796626806 0.7061702013 -0.0585320666 -0.0358634219 -0.2929399908 -0.1999187469 -0.2863056362 -0.1742213964 -0.3395100832 -0.0080693457 -0.1637946665 -0.2976712883 0.7899068594 -0.2858453393 1.1916463375 -0.0603542961 0.3525687754 -0.2871608138 0.8335562944 0.1655699015 -0.1145066842 -0.3859926462 -0.0040582637 -0.1547695100 -0.1193551570 -0.2131990194 -0.1447649002 0.7414961457 0.0764407367 -0.1632904708 -0.0652311221 1.1775673628 -0.2297505587 -0.0654053241 -0.1303201616 0.2280716002 -0.1637582183 -0.1465784460 0.6385790706 -0.1835637987 -0.4533940256 0.1835077107 0.5764570236 -0.1144281849 -0.0487509780 -0.0373157300 -0.1923765987 -0.3476927876 0.0055281837 0.8329505324 1.0601778030 0.7413006425 0.2592168152 0.4259625375 -0.1611984670 0.2928924561 0.2410323322 0.4379424453 0.0721769407 -0.1907709837 0.1787820309 1.0169909000 0.0650188625 -0.0993357301 -0.1194770411 -0.1151087880 0.3498432934 -0.0838494375 0.3905756474 -0.0881704912 -0.0153017845 0.5251844525 -0.2677082717 0.6808226109 -0.1687200814 0.9334424734 -0.1548095942 0.1201215759 -0.1162260994 -0.0115376916 -0.0482913479 0.2204292715 0.3111910820 -0.0531447604 0.2684259117 0.0358753651 0.3808234632 0.3423719406 -0.2096596807 -0.1166348532 -0.1834474355 -0.0541288629 0.0575011298 0.5371857882 0.2114168704 0.1551834941 0.2099768668 0.4364703000 0.7361344099 0.4280644357 -0.1627783030 0.0810697675 -0.0530405752 -0.1012547612 0.0455724746 0.7177689672 0.2591053545 0.1479073018 0.1676316559 -0.1890428960 0.1930244416 0.4067603946 0.6604198813 -0.2364387661 -0.3051885366 0.0213377979 0.2381297946 -0.0704017580 -0.2536032200 0.4533867538 -0.0468619019 -0.3034618199 -0.1116095036 0.4976974726 0.0592849888 -0.0768275186 0.3008348644 -0.1349722296 0.6165491343 0.0442092232 -0.3153632879 0.4858552814 0.3007134497 -0.0693776235 -0.2817980647 0.1342257857 -0.1433632523 -0.3509486020 -0.1172290444 0.5563760996 -0.0291145891 -0.1078973413 0.8342919946 0.2703014910 -0.1515324265 -0.0562881939 -0.1416439861 -0.1545916647 0.1986060292 -0.1404408813 -0.0189194903 -0.0507006831 0.4289678335 -0.6759468317 -0.1069094837 0.0081333723 -0.0640134513 -0.3917786777 0.3057266772 0.4584957957 0.3251342773 -0.2878282964 -0.0638505518 0.1374960095 0.5768830776 0.5659942031 0.5224772692 0.2138702124 -0.1949359924 -0.2179704607 0.2889711559 -0.0192742907 -0.1929392815 0.5091498494 -0.0642970279 -0.0138118183 -0.3054424524 0.3093747199 0.7911193967 0.3201098442 0.1655141711 0.0921914428 0.1298516244 0.2560627162 -0.0551345199 1.0265556574 0.4436366558 0.6563376784 0.2941466570 0.2954354584 0.2297117561 0.4755848646 0.6674813628 0.6343744993 -0.0959619805 0.4307718277 -0.1960944533 -0.0634387881 0.2958927751 -0.0687042475 -0.0284062009 0.0393316299 -0.0354972035 -0.0369977318 0.9632325768 0.8161308765 0.6670309305 -0.4303429425 -0.1833105385 0.1165763736 0.1936341822 0.0137681961 -0.2162417918 0.8225293756 -0.0256477073 0.2658877671 0.0528720915 -0.1403087974 0.6206914186 0.0497082844 -0.1049707085 -0.2527237833 -0.1251896620 -0.0251488890 0.4416143894 -0.0275793560 0.5505245924 -0.1887674481 0.1182757318 0.3907418847 0.0183210559 -0.0458880588 0.9127976894 -0.2197324038 -0.1032045782 -0.2480660677 0.0825361684 0.4548265934 0.1658480763 0.1712951362 0.0021609850 0.1589921564 0.3407444358 -0.1242641360 -0.1223403066 0.0087479521 0.1581487358 0.7061650157 0.5090056658 0.1143780872 0.4324728847 0.1217197031 -0.0874394923 -0.0296551511 0.1163323373 0.3233481646 -0.0123136425 0.1677376032 -0.0577632785 0.0061119827 0.0505973361 -0.1917226017 0.1700271368 0.0942141339 -0.0974792838 0.7146270871 0.5673161745 -0.0083508771 -0.1730183810 0.1003782749 0.5352139473 -0.0833017454 -0.0686471388 0.3601588011 -0.1855718642 -0.1091241762 0.8845890760 0.8076190352 -0.2869773805 -0.1250793040 0.7207379937 -0.0226594452 0.9918776751 0.0502293110 -0.3884724379 0.4124316275 0.6986669898 0.0003194716 0.4913567305 -0.0520938151 -0.2009694278 -0.0755942762 0.2822719514 0.7507071495 -0.1246004403 0.1301841140 0.0161001123 0.0685051233 -0.1057539210 1.0380893946 -0.1864403933 0.3142976463 -0.3014085293 0.2324190438 -0.1575822681 0.1972418129 0.3358494341 0.5663071275 -0.0754646435 -0.0737841129 -0.3412018120 0.1654127687 -0.3787751794 -0.1535547972 -0.0011506034 -0.4535082281 0.0294696670 -0.0298654474 0.3099519610 0.1755637378 -0.0650903136 -0.0975321010 0.5540651083 0.9675005674 -0.0582936890 0.0484446511 -0.2551534176 -0.0272241775 -0.0867927000 -0.4648033679 -0.0952447206 0.9554713964 -0.1713081151 0.5575218201 0.0256173853 -0.0894568413 1.2540645599 0.5482848287 0.8920661807 0.1343546808 1.0359214544 0.4942848682 0.3406170309 1.2518593073 -0.1214691848 -0.2186712176 -0.5942383409 0.2552582324 -0.1772210598 -0.0329868905 0.6893886328 -0.2690328360 -0.0488113239 -0.2371020764 1.1594653130 0.6458993554 -0.2083490193 -0.2715148330 0.2520378232 -0.2135477513 -0.0960635096 -0.0973249599 0.0702113807 0.1979074329 0.0196752846 0.0176696740 -0.1457038522 -0.1804164201 -0.3289998770 -0.1263016164 -0.2756630778 -0.0752366632 1.1586055756 -0.2290888727 0.1703713685 0.1479961127 0.4159958363 -0.1628262252 -0.2650874257 -0.0950616002 0.1372282356 0.2721002102 -0.0841722488 0.1208735406 0.0151502080 0.5025853515 -0.0549497865 -0.0276587903 0.3294920027 0.6039509177 -0.2065070719 -0.0923241228 0.1011069268 -0.0079117818 0.9599328637 0.1852510571 -0.1375595182 -0.3660109341 0.2827792764 0.1502432674 -0.0439540073 0.1145000905 0.3257136941 -0.0356275253 -0.0408705734 0.2358359545 -0.0975562260 0.2621341944 -0.0090843737 -0.0793852508 -0.3117303550 0.0019071436 0.6228752732 -0.2922814190 -0.2371169925 0.4673972130 0.6123245955 -0.2569174767 -0.1149613261 -0.1035823151 0.7756300569 -0.1076589227 -0.0635284036 0.6566383839 1.3718847036 -0.2251135856 -0.1031752229 -0.0671953559 0.3566446900 -0.2400353551 1.3412907124 -0.1927963793 -0.3357566893 0.2002713531 -0.0154197365 0.4118435085 0.0319498628 -0.0791766196 0.0718605220 -0.2189055383 -0.3158046901 -0.2223145962 0.3211350441 0.6666455865 0.0695945323 0.0462955758 -0.0721301064 -0.1781513095 0.7267039418 0.2235451341 -0.2249767929 -0.0659128726 -0.0679195300 -0.0823453441 0.9908130169 0.1733292043 -0.1500749141 -0.0202590972 0.4447340965 0.1992779672 -0.4184315205 0.0411167964 0.9777224660 0.6444234252 -0.1236137301 -0.0514961071 0.3222743869 0.1194766164 -0.0495024770 -0.1945840716 0.5466158986 0.5802547336 0.0939621255 -0.2515528500 -0.0647061765 -0.2828384936 0.1202346683 -0.0552433319 0.3801933229 -0.0018019769 0.0946042240 -0.4640614688 1.1793687344 0.3407088518 0.0743803456 0.2933156490 0.1857600361 -0.0039460622 0.3979051113 0.8728193641 -0.1553612351 -0.2067275047 -0.2813669443 0.5730379820 -0.1871639341 0.3888955414 -0.2074511051 -0.2779538631 -0.0867890418 0.2782861292 -0.3254416287 -0.1235644743 0.1801761836 0.5353806615 -0.0681145415 -0.0445210636 0.3315056264 -0.2475252301 -0.2776766717 0.7441731095 0.7616134286 -0.0908220634 0.8137161136 0.1324352771 0.3827989101 -0.0709043145 -0.0525015853 -0.2978264987 0.1358134449 -0.1303467005 -0.1744098365 -0.3314765394 0.0654876903 1.2148351669 -0.1717454642 0.4745977819 -0.0543343648 -0.1470390856 -0.2316061109 -0.2712720037 -0.0496797115 -0.1648131460 -0.1447389573 -0.1152445748 0.1102714315 -0.1326104552
127244f72ad79adab65239da35d954aa__57.01_69.97 0.1016575545 0.2876799703 0.3251092732 0.3335795999 -0.0742468163 0.4776423275 0.9491023421 0.0459955893 0.0776626319 0.1241892204 0.1047708020 -0.0793461204 0.1954900324 0.3409781754 -0.0648064762 -0.1054856107 0.2662878036 0.5030748844 -0.1221795306 -0.2254108489 0.0900038034 0.0910018384 -0.1131584123 0.2174505591 -0.0954573676 0.2388297617 0.1288178563 0.5244705081 0.3334367275 0.7451723218 0.4609253705 0.1880384535 0.8607742786 -0.0111507457 -0.2367138714 -0.0648452714 0.1756154597 0.4131608605 0.3184583485 0.2978792787 0.3636265099 0.3012425601 0.0174814742 0.5442366004 0.0626618713 0.8837437034 0.0501959175 0.6689023376 -0.1744794250 -0.2929548621 -0.1246671751 0.3478977978 0.3090228140 0.3584515154 0.1080291569 0.0066733370 0.1412092745 0.3056030273 0.2589455247 -0.0518291928 0.1275223643 -0.0937495083 -0.1038972661 0.3536650538 0.2794464231 -0.0418273583 -0.0891667977 0.1537070423 0.7586629987 0.2076774091 -0.1086099818 -0.0974216312 -0.1614188850 0.0789890885 0.0136057492 -0.2360211760 0.1673446298 -0.2250561416 0.0949388146 -0.0371348523 -0.1184787527 0.3557981551 -0.0149037857 0.0350301936 0.4612815380 0.2555477619 0.5743233562 -0.2323125899 0.1927525699 -0.1786876470 -0.2080148160 0.0621183589 0.0299298428 -0.0959269851 -0.1413063854 -0.0129247867 0.5147318244 -0.1281219423 -0.0832721740 0.4911128879 -0.1089323312 0.2249706686 -0.1090334356 -0.2175239325 0.4555740058 -0.1139655709 0.4749295115 -0.1712328494 -0.0705018044 -0.0526253991 -0.1912145466 -0.1432089061 -0.0670540333 0.8168667555 0.3148832023 0.2756865025 -0.1811984330 0.0231597368 0.4098433256 -0.0781283081 0.0349313691 0.6602810621 0.0384585112 0.3878849447 0.6383883953 0.5543408990 -0.2271144092 -0.0140981721 -0.0625707880 0.6068544984 0.0566829443 0.2417865992 0.0522972941 -0.2120564729 -0.0729894191 0.2935358882 -0.2280161828 0.0333645344 0.2810433805 0.1903064698 0.1550438553 0.0136988191 -0.0945283100 0.0275490209 -0.0496855043 0.0916541517 0.4955932796 -0.0778103545 -0.1014704555 0.1992525607 0.1955991685 0.4932924211 -0.2076241821 0.1853131652 0.3295858204 -0.1455054283 0.0336466506 0.4486542046 0.3628608286 -0.0194832683 0.0275470950 0.4948301613 0.0490150079 0.1868934333 0.5434045196 0.0074698711 -0.1031714901 0.1644390970 -0.1104467437 0.0723187923 0.0704468861 0.0545835532 0.0587194562 -0.1776114404 0.0483360142 0.8432691097 -0.1249170974 -0.0749355182 -0.1676284820 0.0684169978 0.1645004451 0.0171292815 0.1550638527 0.6945777535 0.0731590763 0.1972174495 -0.0568575300 0.4774438143 -0.0111873932 -0.0173261762 -0.0357209295 0.1753747463 0.2615076303 0.0332121998 -0.1085728183 -0.1559645683 0.6910785437 -0.1083547398 0.7846230865 -0.1337999851 -0.1764565408 0.3439286649 0.0330576487 0.2661012411 -0.0536307022 0.1340906024 0.4314373732 0.2291171551 -0.1379279941 0.3361231387 -0.0968758985 0.2011433244 0.4319939911 0.2331543714 -0.0791917592 -0.1511823833 0.6076816320 -0.0493532345 0.1643618196 -0.0769092739 0.0563177392 0.1364420652 0.3506373167 0.0655940771 0.6200841069 -0.1440279037 0.2936270833 0.0699842498 0.2879935801 -0.0751719549 0.3735086918 0.2214357406 -0.1983718276 0.0965177566 0.6768656969 -0.1238621548 -0.1290293038 0.0137822181 0.1021471694 -0.0694541335 -0.1543102711 0.3261611760 0.0248957891 0.1940083802 -0.0884119496 -0.1444188803 0.0565319881 -0.0081860498 0.0493755117 0.6017767191 0.2377745360 0.0881041959 0.5568647385 0.0674020350 0.0798644945 0.1791848689 0.0685240328 -0.0663366020 -0.1379287690 0.0206044912 -0.0746615678 -0.1256585419 0.5024490356 -0.1290084571 0.7411005497 0.5192865729 0.2985809743 -0.0323550999 0.1074417010 0.2477053553 0.0755204037 0.5340750217 -0.1659644842 -0.0872470587 -0.0841282234 0.2939540446 -0.1723602712 0.5433606505 0.3282729685 0.0208354127 -0.0704599172 0.1971629560 0.0068341708 0.0144344224 0.1390355974 0.1098414660 0.2250953764 -0.0918360054 0.2610011697 -0.0472398438 0.0843452215 -0.1562637538 0.6690169573 0.1812338680 0.0617620088 -0.0401542671 0.3362369239 0.2155338675 0.2227773070 0.5448607802 0.1885130554 0.6054508686 0.1780464649 0.1053246558 0.0398192741 0.0186276305 -0.0855890289 -0.2508076727 -0.1131147444 0.1623955965 -0.0023615211 0.1152710617 0.1100243777 -0.1073931828 0.0188378431 0.5677225590 0.0497022904 0.0337633267 -0.0546487719 0.0659157112 0.0199814886 0.2941726744 -0.0720589533 -0.1730523109 0.6438269019 -0.1390683502 -0.0488042198 0.3457637429 0.3152287304 -0.1136860251 0.0812111795 -0.1037565172 -0.1465889215 0.0914433450 0.1564210951 -0.0883922353 -0.1603568494 0.4897638261 0.3082828820 -0.0898171812 0.0231418610 -0.0157193225 0.4054325819 -0.0493929684 0.1612679511 0.0269137286 0.0704451948 0.5192099214 0.8423277140 0.0549730100 0.4699304104 0.1444110572 0.2773099244 -0.1310208589 0.1620911956 0.1160777807 0.0499924012 0.2468870282 -0.1210728139 0.0710802525 0.0283034835 0.3478124738 0.1283294559 0.2047536671 -0.1513226032 0.4425451159 -0.3089960814 0.2961573899 -0.1013277695 0.0533972681 0.0280299392 0.2150976509 -0.1244475693 0.1752251387 0.4150390923 0.0623115636 -0.2680917680 0.3164986670 -0.1012352929 0.4761328995 0.1350966841 -0.0167344231 0.8161196709 0.2221640348 -0.0599068366 0.1539731175 0.3312831819 0.1800557226 -0.0849678442 0.3004935384 -0.1995899975 -0.1690448076 0.5720969439 -0.2772486806 -0.1186582744 0.2797477841 -0.0481276661 0.2562994957 0.0097488482 -0.1144754589 0.5325324535 0.0816937387 0.0825381130 0.4149519503 0.1609871089 0.0260114186 0.0179538317 0.0539483577 -0.0674680024 0.3320898712 0.2947089672 0.2122488171 0.6091639996 -0.0583709963 0.3038492799 0.0467533916 -0.0928170681 0.1641629189 0.2995442748 -0.1009791046 0.4864458144 -0.2634357512 0.2415751517 -0.1562073380 0.5063012242 0.2215052098 0.0168409403 0.4465883970 -0.0914577618 -0.1156095415 0.2861130536 0.1670449078 0.1150891855 -0.1680557877 0.4647924602 0.6559514999 0.4160545468 -0.2286138088 0.7261022925 0.1927705854 0.2033386528 -0.0757635832 -0.2488234788 -0.1494897157 0.7801949382 0.4625174999 -0.1716459394 0.5673078895 -0.0302059986 0.3474892676 -0.1127549186 0.1913089603 0.4484776258 0.0542452261 0.0162235722 -0.1539944410 -0.0169501808 0.1356161833 0.1444834918 0.7993642688 0.3039420247 -0.1634963304 0.2316699773 0.2139458060 0.0730185956 0.0217497684 0.3828417957 -0.1189213768 0.1177855805 0.0466546118 0.1836062819 0.2365065813 -0.1413623691 -0.2888424397 -0.2958622575 -0.1647539884 0.5000338554 0.3078246117 -0.3023067117 0.2339863032 0.3227508962 0.4631563723 0.5666814446 -0.0509177744 -0.0288034417 0.1411295384 0.0461002886 0.5265524983 0.1173733920 -0.3027534485 -0.1057269946 -0.1104987636 0.5442523360 0.4678092599 0.1665893048 -0.1422742903 0.4673816562 0.2486150563 0.0326366946 0.2935580313 0.7348871231 0.0705973953 0.5282979012 0.2444222420 0.2401256561 0.2967517972 0.3709747195 0.4816101789 0.0502637699 -0.0544071756 0.0558950230 -0.1160219014 0.4627989233 0.6818484068 -0.2307969183 0.4388378263 -0.1192296445 0.0899723768 -0.0789663047 0.3609498143 -0.1005212814 -0.0026742155 -0.0325814970 0.3615157008 0.2198536396 0.0419292003 0.0872633085 0.2114649117 -0.0957183242 0.2558440268 0.0170881562 0.0229393765 -0.1869626194 -0.1446148753 0.1570679396 0.1346114874 -0.0276576076 -0.1543371528 0.5499500632 0.0454551056 0.7278348207 0.2027157098 0.5392239690 0.2872808874 0.2868250906 0.0600779913 0.6423981786 0.0408117175 0.4040018618 -0.0287951194 0.7972724438 0.1372762024 0.2127395421 -0.0482831337 0.2479675710 -0.0747521967 -0.1141939238 0.0351671875 0.0938818306 0.8658523560 0.1573393047 0.5137748718 0.5123063922 -0.0515991189 -0.2476018965 -0.1104148626 0.1399912387 -0.1158060953 -0.1040201187 -0.0898750424 -0.0092805382 -0.1332738847 0.6825482845 0.0298360400 0.2019818425 -0.2068170756 0.2983098924 -0.0332741253 0.3790028095 0.2654553950 -0.1076753065 -0.2614880204 -0.0934912860 0.0082240356 0.0414686427 0.2475791276 0.0210602060 0.2785855234 -0.2255118340 0.1688984036 -0.0856767520 -0.0647400394 0.2184529752 0.3670556545 0.7142234445 -0.1991100758 -0.1383583546 -0.0717421323 0.0456598103 0.0009216261
