0169c93963970e9f91dd2debe50556ea__141.76_151.31 0.0071846638 -0.0598174930 0.0496028885 0.3143765330 0.0643592179 0.1895984262 -0.0967016146 0.5470215678 0.4315120876 0.1897546202 0.2429479212 0.0374917239 -0.0376768038 -0.0242070109 -0.1032058075 -0.1169324964 0.0656180382 0.0204466227 -0.0911115408 -0.1314033866 0.1466078311 0.2141492218 -0.1877287477 0.2338176966 -0.1310622245 0.1085830256 0.2961261272 0.4673373699 0.1162794977 0.5753715634 0.1769680679 0.0384490937 -0.1209586263 -0.0247196686 -0.1382352561 0.2274439037 0.2283881009 0.1062893793 0.1947090775 -0.0412363298 -0.1046720594 -0.1647273749 0.2708613575 -0.0056804400 0.4221239984 -0.0809629634 0.6325538158 -0.1956241578 -0.2766780555 -0.1928230524 -0.1674893796 0.3240542710 -0.1223641932 0.0087094642 0.6233235002 0.2928733528 0.3204039037 0.1193674430 0.1184048504 -0.0497266315 0.0558487885 -0.0466023162 0.1410904378 0.2149088085 0.6384072900 0.3307218254 -0.0770907030 0.7746950984 -0.0455696359 0.1961464435 -0.2181249410 -0.1247464642 -0.2147913426 0.9295491576 -0.1040341258 -0.1853619963 0.3997942507 -0.2696145177 0.6714074016 -0.0635756105 0.1355066150 -0.1971985549 0.5949057341 0.1613511443 -0.0504064895 0.4650992751 -0.0362689458 -0.0052280137 0.3142629564 -0.2605496347 -0.1433944106 0.6172440648 0.1505753994 -0.1642927229 -0.0657395199 0.7424390316 -0.5079624653 -0.0470184498 -0.1629323363 0.0274867341 -0.0913809389 0.0064866757 0.1016654894 -0.1024492681 -0.0662406236 0.1550601721 0.3908564746 -0.0160642527 -0.1784021407 -0.0074657523 -0.1974506825 -0.2693579197 0.2663339972 -0.1171933711 0.3204429448 0.5176829100 0.5317838192 0.1354619712 0.3230443597 0.0770322233 0.0641946644 0.3327747881 0.1394232064 0.0106712151 -0.0779250562 0.8273558021 0.7113691568 -0.0234625582 -0.1692898870 -0.0894633383 0.1308234185 0.2997776568 0.0894993171 -0.1210154817 0.2817393839 0.0563878044 -0.2576796710 0.4357375205 -0.0264177229 0.6915704012 -0.0063082734 0.0420578383 -0.1577440798 0.4070171118 -0.0722743198 0.3904210031 -0.0929812342 0.3212657273 0.5414224863 -0.0240394901 0.1880713254 -0.1389285773 -0.1444627196 -0.1815658808 -0.1976144463 -0.1834189296 0.4498924613 0.2351149321 0.2766985893 0.0484227575 0.1520820707 -0.0519941226 0.3736632466 0.2686969340 -0.1114490628 -0.0636656955 -0.0601072237 0.5381855369 -0.0137041630 0.5674577355 0.2454266846 0.0151389437 0.1335788667 -0.1608537138 0.3082259297 -0.0461365357 0.0919939205 -0.0920745954 -0.2003859133 -0.0511859804 0.1032645479 0.6653577685 0.0310656708 -0.1131974310 0.5122911930 0.0337978192 -0.1274016947 -0.0144283641 0.1045133919 -0.0782843307 0.2086628526 0.0816954151 0.1786970049 -0.0117399059 -0.1952473521 0.0729233772 0.6586043835 -0.0583817288 0.4159559906 0.2221809328 -0.1734491885 0.1918866038 0.0772549286 -0.0109482436 -0.0375610255 0.6285251975 0.0312744230 -0.0114604868 -0.0723577365 -0.0715969205 -0.0655566081 -0.2460903972 0.1158212945 0.0912945569 -0.0436164886 -0.0762475058 0.2438433021 0.0442940444 -0.0318767726 0.2010411918 0.1580575258 0.2651503980 0.2572655082 0.0766530484 -0.0756390542 -0.1875410527 -0.2311287224 0.3476070762 0.1733916700 0.0602982417 0.2748637497 0.3978095055 -0.1831984669 -0.0594063699 -0.1061457843 -0.0545900054 -0.1295406222 0.3057962656 0.3253263831 -0.0713727996 -0.2314980179 -0.0353085473 0.7274060249 0.0680472776 0.0828262269 0.2802036405 0.2404271811 0.4695850909 0.2613552511 0.0195102692 -0.0090406537 0.2371929735 -0.1019513756 0.1351988614 0.9516099095 0.4749428630 0.3973499835 0.4618753195 -0.0287441388 0.3900471628 -0.1561512500 0.0003673756 0.0135552278 -0.1613863707 -0.1408893615 0.2608554065 0.0491589233 0.0733786821 0.9833052754 0.3226045370 0.6292744875 0.3524059951 -0.0795242786 0.0592710301 0.9322464466 0.0942214057 -0.1926600933 0.0971963555 -0.3202517629 0.5470368862 0.1698759347 0.7361314893 0.3404883742 0.1249150410 -0.1765434146 0.2362762392 0.0164596513 0.0150057096 0.0610423014 0.2371035367 1.0295493603 -0.1211638600 -0.0246827099 0.1218883470 -0.0434680171 -0.0194012541 0.5236872435 0.0616504252 0.5302112699 0.2360612154 -0.0908229798 0.4657483399 0.0828460008 0.0314852819 0.1321781278 0.8170922399 0.0284006745 -0.0722330511 -0.0405715927 0.1027976200 0.5298645496 0.9334003925 0.2002176940 -0.0115747731 0.3352508545 -0.1467704028 0.0434983335 -0.0045984406 -0.0259271525 0.1204053536 0.0369618908 0.0742340758 -0.0704877302 -0.0689861625 0.8347657323 -0.1106751263 0.4797618985 0.0889641792 -0.0958281681 0.0460373424 0.6802947521 -0.0203886330 -0.1398769766 0.0036832020 0.1044929475 -0.0498887822 -0.0961121023 0.1344528943 0.1130269021 -0.0674965903 0.4264432788 0.6418102980 -0.3623902500 -0.0914202929 0.3722198606 0.2261591405 0.6991904378 -0.0625796542 -0.0413312986 0.5078804493 -0.1197547615 0.2632023394 0.3603498340 -0.1426996589 0.1208471581 0.3328898847 0.2570541799 0.2426136136 -0.0788557455 0.0584805124 0.1134420261 -0.1131945103 0.0221274309 0.9798185825 -0.0888323188 -0.0231293198 -0.1692342609 -0.0189995896 -0.1507192850 0.3799901307 0.3231940866 0.1138832942 -0.1197291464 0.3037311435 0.3593432307 0.2068672329 -0.2005864680 0.0953280330 -0.0929489359 0.3307484686 0.1650900692 -0.0235940255 -0.1056994796 0.1632770002 -0.1523888856 -0.1145350188 0.4394451380 0.1777250618 -0.0557448156 -0.0301063657 -0.2125444710 -0.0114281308 -0.0105681885 -0.3065842390 -0.1299464852 0.4078687131 -0.1222068816 0.0596413165 0.0469993912 -0.1173486561 0.0753950998 0.3511405885 0.6773850322 0.1105680466 0.2794501185 0.9478662014 0.3965024948 0.8733901978 -0.1101588160 -0.2568404675 -0.0235012379 -0.0316509902 0.3654141128 -0.0187861640 0.1109853759 0.4093484879 -0.0464010760 0.4231507480 0.6788588762 0.1552281678 -0.1173516214 -0.2076399773 -0.0748296455 -0.1992727071 -0.1567785293 0.2102850825 0.5004217029 -0.0806506425 -0.0391007289 -0.0648151636 0.3174735904 0.0378375761 0.0116801569 -0.1247477233 -0.1712860018 0.1189067811 0.2396565080 -0.1995866895 -0.0142846685 -0.0151612321 0.1150920987 -0.1404474080 -0.0744573250 -0.0839715824 -0.1092040241 0.5516900420 -0.0222891178 -0.0768758878 -0.0323624536 -0.0827768669 -0.0452811196 0.0180452690 -0.0800028965 0.1043351367 -0.1925724000 -0.0598950647 0.3286732733 0.0491648503 0.4547447860 -0.1114320904 0.3073843420 -0.1783082187 -0.0397743024 -0.0140139759 0.9462455511 0.0039205248 0.0556772873 -0.0484674312 0.3355208337 0.2599374950 0.1231041104 0.2619446516 -0.0747237727 -0.0981156528 -0.2596254945 -0.1094664857 -0.0425786860 -0.0154190715 -0.1768500805 0.3138089478 0.0296234526 0.0774168372 0.3826392889 -0.1735868603 0.4172992110 0.0424428061 0.1003966928 -0.0163080301 0.4759649932 -0.2185081393 -0.0335523598 -0.0789057910 -0.0040682023 -0.0475001112 0.8281949759 -0.0854007229 -0.3547195494 0.0758984983 0.4079094827 0.4353195131 0.0735245049 0.5342811942 0.2549516261 0.0394605845 0.0989081934 0.2565087676 -0.0284590423 0.1963142008 0.5299877524 0.0189969018 0.6514284611 -0.1665814221 -0.0199226551 -0.2699589431 -0.1762768477 0.0092702881 -0.1085397750 0.3940666318 0.6902050972 -0.0646099523 -0.0952551216 -0.0599170402 0.5079905987 -0.1760001332 0.3235248029 0.5166112185 0.2269741297 0.4859033823 -0.1618743092 0.7495433688 0.1253665686 0.1045750305 -0.0955680162 -0.1237918288 0.1242194474 0.1339051872 -0.0112882750 -0.2148817629 -0.0569137558 -0.0094033657 0.1827612519 0.1215163842 0.4996717572 0.2260463387 0.0248886943 0.2984505594 0.4712362289 0.3385848403 0.1215975136 0.0947626606 -0.1215908825 -0.1557891369 0.1613445580 0.8755769730 0.6305684447 -0.0898195282 -0.1917860955 0.4972442687 0.6076347232 -0.1030433103 0.1204620153 -0.2390301526 -0.0569143072 0.2602083087 -0.2798225284 -0.2068503648 0.0022977833 0.3407767415 -0.0440771952 -0.0687734112 0.4540545642 -0.0933012515 0.4650360346 0.4513660073 0.5432609320 -0.0254179277 0.0980307311 0.0707863271 0.1204889566 0.4724026620 -0.0114742555 -0.2235517949 0.1591927260 -0.1263958365 0.0166424718 -0.1204214245 0.1733569354 0.7903478146 -0.1550329179 0.1529022604 -0.0860967264 -0.1016819328 0.1404702365 0.1568382233 -0.1377356648 -0.0948010534 -0.0982615277 -0.0972119346 0.0304991603 -0.0826396495
016ab7467f7885b3690fb6cbe4081d9a__0.93_81.06 0.0248772670 -0.0152835120 -0.0804408193 0.5038391352 -0.0040614437 0.2667874396 -0.1875298619 0.6493983865 0.5081379414 -0.0450518653 0.2265069485 0.0350926444 -0.0140073337 0.0732443184 -0.0989047289 -0.0614371188 0.0211075749 0.1945980787 -0.0835109502 -0.1483534724 0.0814603418 0.1052617952 -0.2263366729 0.2928982973 -0.1591241509 0.1777584553 0.3750096560 0.7133086324 0.0731754228 0.9917913675 0.1912187785 0.0458280556 0.0470417365 0.0212073047 -0.1244709641 0.0567111671 0.0986452550 0.3110047579 0.3727142513 -0.0229331534 -0.1861413270 -0.1616100520 0.2143520862 -0.0496447235 0.2588131726 -0.0335016847 0.5099398494 -0.1626345813 -0.2929226160 -0.2226295471 -0.1722963452 0.5241293907 0.0164212547 -0.0121899359 0.7428413630 0.2161293030 0.0925787240 0.2584993243 0.2104808092 -0.0109306928 0.0566216037 -0.0197987761 0.1331431568 0.1580020785 0.8143673539 0.0635189638 -0.0917557552 0.7737892866 0.0308949351 0.0640488267 -0.2295847237 -0.1074043661 -0.2539216578 0.9570538998 -0.0964729339 -0.2065112144 0.5073736906 -0.2913672924 0.7081402540 -0.0650750399 0.1169898808 -0.2046073526 0.5534442663 0.0355804451 0.0965014026 0.2851101160 0.0990736336 -0.0298321303 0.0509496331 -0.2704690397 -0.1306578517 0.4123258293 -0.0074515073 -0.1992324591 -0.0641831681 0.7168407440 -0.3036783636 -0.0451920442 -0.1406119764 0.2577781081 -0.1133774221 0.0783041120 0.0485737883 -0.1179971769 -0.0325673223 0.1831454188 0.6198720336 -0.0191897079 -0.1830937564 -0.0062233605 -0.2116817832 -0.2491327077 0.3141431510 -0.0657261908 0.3952983022 0.6634012461 0.7018479705 0.1119416729 0.4028412104 0.0615064278 0.0382321700 0.6914941072 0.0079793949 -0.0795753598 -0.1541272849 1.1532180309 0.8882837892 -0.0767981112 -0.1608510762 -0.0026087137 -0.0625475049 0.3495607674 0.0154736498 -0.1269179434 0.3807740510 0.1050555632 -0.2844866812 0.4322245121 -0.1127393916 0.7818270922 -0.0953786373 0.0183344483 -0.1397515833 0.3586258590 -0.0486038886 0.3832582831 0.0543592758 0.4326769710 0.6133077145 0.0392098650 0.2740497589 -0.0904135406 -0.1870986223 -0.1634837091 -0.2070578188 -0.1685783267 0.4457367957 0.4376257658 0.4656934738 0.0190239102 0.1846636385 -0.1014196873 0.3786067963 -0.0809554011 -0.2069969624 -0.1022799611 -0.0610927753 0.4468592405 -0.0366786607 0.6548379660 0.2770992517 -0.0045035193 0.0260707773 -0.1766128242 0.2858633995 -0.2024886161 -0.0315339416 -0.1071563810 -0.2163694501 0.0045469943 0.1281109154 0.6762171984 0.0293946061 -0.0748157650 0.4532889128 -0.1569540948 -0.1339678913 -0.0862903148 0.1176701188 -0.1129635945 0.1889310479 0.0517952144 -0.0075473450 -0.0062300535 -0.2078191489 -0.0415458158 1.0781148672 -0.0442893207 0.6352884173 0.2241426706 -0.1775210202 0.1435294449 0.0159856770 0.0581742004 -0.0402658880 0.6214010119 0.0645237267 -0.0025381781 -0.0829953626 -0.0580926724 -0.0764277875 -0.1655468494 0.2556584775 0.0737900063 -0.0323617831 -0.0326248743 0.5087735653 -0.1693629920 -0.0503823161 0.2422269285 0.1345131844 0.2022379190 0.4775647521 0.0194882490 -0.1895871758 -0.2194721252 -0.1054521501 0.0672814623 0.1667281091 -0.0984428301 0.4706585407 0.5271889567 -0.2220725268 -0.0875830874 -0.1540554762 -0.0703456923 -0.1581788957 0.2536850274 0.1186053082 -0.0185788982 -0.2277954966 0.0800079331 0.7521398067 -0.0805348977 0.0718445927 0.3276205659 0.1684348434 0.4272688329 0.2746416628 -0.0060386360 0.0514531210 0.2493162602 -0.0556653328 -0.1016401350 1.0457342863 0.6473892927 0.4191309810 0.5068431497 -0.0419663712 0.2537045777 -0.1406119466 -0.0202421304 0.0099321539 -0.1747935116 0.0612866357 0.4811456501 -0.0883814991 0.0982963592 0.8693993688 0.4147991836 0.6825554371 0.4274699986 -0.0941810682 0.0281472020 1.0561977625 0.2059639692 -0.1941196173 0.2484379113 -0.2223079205 0.3530146778 0.1785242856 0.6865825057 0.0516542196 0.1202412248 -0.1618404239 0.1950350404 0.0097790100 -0.0124804229 0.0085826907 0.2983620167 1.1697968245 -0.1071387380 -0.1102238148 -0.0926862061 -0.0197000615 -0.0407236703 0.7267980576 0.0921598077 0.5347421765 0.3199790418 -0.0596121326 0.8112482429 -0.0680983588 -0.0035122996 0.0379573107 0.8529356718 -0.0409628488 -0.0668110922 -0.0911472365 0.1931920648 0.5931079388 0.8758817911 0.2288865447 -0.0201457385 0.1720799208 0.0182935838 0.0354255885 -0.0185171757 -0.0588826016 -0.0166972522 0.0062321229 0.0507083386 -0.0554835834 -0.0908100381 1.0928255320 -0.1588428617 0.6978250146 -0.0775872692 -0.0607490689 -0.0696446151 0.6292793751 -0.0308108404 -0.1540744603 -0.0406361967 0.1124803275 -0.0524801724 -0.1340022832 -0.1335557401 -0.1035955325 -0.0903364643 0.3846910298 0.7176222801 -0.3181911707 -0.1088200435 0.4480072558 0.1367713362 0.8011122346 -0.1000698879 -0.0237240046 0.3638395965 -0.0075754188 0.0369020738 0.3975809813 -0.1884758770 -0.0672067255 0.2399937212 0.0840387121 0.2466882467 -0.0563166253 -0.0692090839 0.0799146965 -0.0231468938 0.0058838231 1.1766049862 -0.0718998238 -0.1086410508 -0.1996138990 -0.0146595361 -0.0900685936 0.1820692718 0.1759043783 0.1487975121 -0.1410308331 0.0880300850 0.2875665724 0.0423829891 -0.2270322144 0.0994654596 -0.0165868066 0.3883163333 0.1790538281 -0.0180805121 -0.1029166430 0.2852390707 -0.1603756249 -0.0620122999 0.5733684301 0.1317078769 -0.0896925479 -0.0409796238 -0.2257696390 -0.0398486182 0.1340299249 -0.2837301195 -0.1080162153 0.5188980103 -0.0872879624 -0.0076477677 -0.0463564508 -0.1190790534 0.0333428159 0.3943710029 0.7397499084 0.2816267908 0.1160381883 1.0304358006 0.3021933138 0.9938103557 -0.0708067045 -0.1608777195 -0.1863992065 -0.0506189764 0.6097442508 -0.0195912495 0.2025218010 0.3257905245 -0.0726435408 0.2054595649 0.8698893189 0.0624700971 -0.2311680168 -0.2683669627 -0.0660808235 -0.2115319371 0.0910608619 0.2002342790 0.3444039822 0.0856879056 -0.0027660779 -0.0383116677 0.0285509527 -0.1068824157 -0.1612166464 -0.1407648921 -0.1993243247 0.3237225711 0.3299186826 -0.2298400551 -0.1961303651 -0.0129878307 -0.0516637750 -0.1711522788 -0.1101541445 -0.0503566600 0.0107001383 0.8144778013 -0.0197999738 -0.0335727483 -0.0265115499 0.0432863757 -0.0603855550 0.0559590869 -0.0402619056 0.0495934263 -0.2138044387 -0.0845208615 0.2534505725 0.0248748995 0.5597940087 -0.0226767976 0.3239839971 -0.1762349904 0.0569521263 0.0125428084 0.8653210402 -0.0514005981 0.2135488987 -0.0453503057 0.3170684278 0.2273721695 -0.0289024506 0.2112788558 -0.0819899514 -0.1278409809 -0.2851991951 -0.0786591172 0.0669879168 -0.0240796227 -0.1704607308 0.3262166083 0.1280180216 0.1201785430 0.5290532708 -0.1679591537 0.4738231301 -0.0336309597 -0.0274524204 0.1628291756 0.4549325109 -0.2621320188 -0.0758308321 -0.0881686360 0.1653649062 0.0880056024 0.9236141443 -0.0655924678 -0.2050812095 0.0406631306 0.3870235085 0.6522723436 0.3119431436 0.4858872890 0.4640933871 -0.0991252661 -0.0890811607 -0.0513953120 -0.0246012770 0.4096464515 0.4258612990 0.0142748309 0.6494467854 -0.1996160150 -0.0108891269 -0.0031886962 -0.2251611948 -0.1033939570 -0.0783388987 0.3074853718 0.6975929737 -0.0061689233 -0.0983224586 -0.1240390912 0.2997742891 -0.0388294533 0.2810532153 0.5254902244 0.0577249341 0.6200121641 -0.1672131717 0.8147628307 0.0580816083 0.0102339555 -0.1197370440 -0.1959408075 0.0883500129 0.0909284279 -0.0231902767 -0.2551395297 0.0113325864 -0.1231818646 0.4715787470 0.1527564377 0.3839353919 -0.0270407293 0.0037001772 0.1520632505 0.7787086368 0.1221159622 -0.0748567209 0.0005938157 -0.0334727317 -0.1007804573 -0.0806202218 1.0838173628 0.6367051601 -0.1049967334 -0.1936170012 0.4846881330 0.6087927222 -0.1372875571 -0.0816608071 -0.0119099859 -0.0402394161 0.2098859251 -0.2679995000 -0.1937029511 0.0334403068 0.3577783108 -0.0245541446 -0.0477428660 0.4453805685 -0.0827025250 0.5577706695 0.4510546327 0.7343647480 0.0153154368 0.0938755199 0.0454561971 -0.0919773430 0.5192654729 -0.0082994215 -0.2628366947 0.1755573303 -0.1144868433 -0.0246083457 -0.1682482660 0.2294952869 0.9643145204 -0.1944333762 -0.0286623202 -0.0965818763 -0.0942290500 0.0672732890 0.1498400569 0.0108763408 -0.0917231068 -0.0855607688 -0.0894238949 0.0168282408 -0.0393280573
01b12edd95b2e656bd452725a77dc4c1__1314.42_1389.12 0.0677270517 0.0537469611 0.0277120974 0.4746684134 0.0419601500 0.2260658741 0.1723129153 0.4012928605 0.3089838624 -0.1404532641 0.1011505947 -0.0100909192 0.1169911772 0.2925661802 -0.0780841187 -0.0711432025 0.1311601549 0.2842781544 -0.0700246543 -0.1929984391 0.1687874794 -0.0366707742 -0.1952561140 0.1860363185 -0.1574137360 0.1748768687 0.3226528168 0.6184033155 0.2554043233 1.0344041586 0.4279812276 0.0629455596 0.2870315611 -0.0083716437 -0.1574846059 0.0168979745 0.2498241216 0.4594259858 0.4095777273 0.0712598488 -0.0911153331 -0.0257222727 0.0495021865 0.0295723416 0.1822379529 0.1993204206 0.2788716555 0.0591465533 -0.2643535435 -0.2563563287 -0.1539932191 0.4800865054 0.1968677342 0.1812088490 0.6181583405 0.1266115904 0.2293279916 0.3648943007 0.2013709545 -0.0007191277 0.0792863443 -0.0417525955 0.0511828735 0.2546210289 0.6348880529 0.0890667364 -0.0920932665 0.3619976640 0.1831148267 -0.0382551104 -0.2028049976 -0.1017421708 -0.2272130698 0.4756952822 -0.0825335011 -0.2269914299 0.5182496905 -0.2725562155 0.6019237041 -0.0502844341 0.0955024436 -0.0535098761 0.3885544240 0.0286081303 0.2215632051 0.0442962646 0.2595672905 -0.1250404269 -0.0608643293 -0.2245407254 -0.1521988958 0.2968169451 -0.1135477573 -0.1659476161 -0.0922851190 0.5244315863 0.0347567871 -0.0644694418 -0.1090081483 0.3999841809 -0.1240627915 0.1046809405 0.1307085603 -0.1535497904 0.0505244322 0.0952393040 0.5914407372 -0.0780135989 -0.1276254803 -0.0124031622 -0.1895954758 -0.2136471421 0.1581358910 0.3816104829 0.5387993455 0.5548369288 0.4125412703 0.1434187889 0.3517899215 0.0655848905 0.0520663932 0.7028418183 -0.0259146579 -0.0397634432 0.0991580114 1.0279010534 0.4519486725 -0.0792077556 -0.1109464541 0.1410933137 -0.0355820805 0.2222545296 0.0726744533 -0.1276243925 0.2059117854 0.2649000287 -0.2626639009 0.3332391083 -0.0266769454 0.5963518023 -0.0502517410 0.0099159209 -0.1071232855 0.1465807855 -0.0242661424 0.2543301284 0.2421903163 0.2148681581 0.3656257987 0.0899363756 0.2879525125 0.1928442717 -0.1999838650 -0.0335644484 -0.0387728624 -0.1377545595 0.1935143620 0.5077978373 0.4030300081 -0.0109705450 0.1605257094 0.1953884065 0.3619261384 -0.0391730741 0.0194887351 -0.0296211503 -0.0698686838 0.1821323633 -0.0419767946 0.4955812097 0.2007811368 0.0034977077 0.0086524822 -0.1714016795 0.2004301995 0.1848186255 0.0649406463 -0.1269968897 -0.2172729373 0.0490325913 0.2014409006 0.3345416486 0.0300545711 0.2856068909 0.2323419750 -0.1422443688 -0.1087677702 0.1763543636 0.0674442500 -0.0930643529 0.0926240087 0.0361442119 0.1423993260 0.0045769271 -0.1896723360 0.0167819895 0.9458473921 -0.0746672451 0.5735869408 0.1007586047 -0.1753516346 0.0793531537 -0.0374921933 0.2627782822 -0.0464968719 0.3077459335 0.3399614096 0.1460103244 -0.1076449156 0.0604475066 -0.0967425331 -0.0214293282 0.3262512386 0.0585260987 -0.0306131914 -0.0322405361 0.6493042707 -0.2891200185 -0.0156213697 0.1238863915 0.0366706736 0.0569215007 0.5024635792 0.0562655516 0.0817804709 -0.2233425677 0.0711288229 -0.0498436838 0.3121859431 0.0008449429 0.5238594413 0.4087918401 -0.2148299962 -0.0499387532 0.1511669308 -0.0864047855 -0.1647080332 0.2277895659 -0.0308292732 -0.0038196510 -0.2245695591 0.2344237268 0.4961112738 -0.0017852355 0.0441938415 0.1573423743 0.1068997607 0.1982349902 0.1568740904 0.3726426363 0.2041195780 0.2860952318 0.2496868372 -0.0501041524 0.5631129146 0.5225555301 0.3800090551 0.3881409764 -0.0789042190 0.1356867701 -0.1214146316 -0.0640968978 0.1653814912 -0.1407284290 0.3106197715 0.4635444582 -0.0511740446 0.0421902947 0.5818189979 0.4473684430 0.4647707343 0.3238721788 -0.1349479109 0.0162266679 0.5624940991 0.2035815716 -0.1772183627 0.4481181502 0.0322709866 0.1932890564 0.0767911226 0.3442200720 0.0086054718 0.0674571246 -0.0616219640 0.0759536028 0.0615424775 -0.0506472737 0.1134923846 0.1469865888 0.7291131020 -0.1235088482 0.1376577169 0.0124879926 0.0122037306 -0.0526460074 0.7352789640 0.0854092836 0.2910152972 0.2691693008 0.0360817462 0.7471024990 -0.0380272120 0.0572017618 -0.0220408253 0.4768717289 0.0025907350 -0.1190898940 -0.1230539680 0.1789412051 0.3372377157 0.5749010444 0.2320674360 -0.0216858163 0.1225873306 0.2198698968 0.0209185518 -0.0045601204 -0.0214668438 0.0119008254 -0.0127538061 0.1680993885 -0.0460519865 -0.1028023064 0.8291597962 -0.1757382005 0.4471178055 0.0236899797 0.0570620671 0.0489593260 0.4129639864 -0.0403716192 -0.1569676995 0.0117356405 0.2096045315 -0.0717179850 -0.1425840706 0.0485167839 -0.0620688349 -0.1000079662 0.3807146549 0.5647979379 -0.0809868649 -0.0943315998 0.4515459239 0.0100607770 0.6614089012 0.1162103042 0.1249091253 0.2312484533 0.3551364541 -0.0488878638 0.4403169155 -0.1559398770 -0.0900009722 0.0930545628 0.0630816370 0.2947050333 -0.0728256255 -0.0274367221 0.0336928926 0.0949362963 -0.0067893406 0.8805775642 -0.0999245420 0.1101146638 -0.2476969212 0.1288216561 -0.0849081129 0.0936784297 0.1030594185 0.2309930921 -0.1234987080 -0.0379318446 0.0758764669 -0.0003279932 -0.2608901858 0.0885745883 -0.0028812988 0.2814994454 0.1302393079 -0.0195516907 0.2300125957 0.2578164339 -0.1008487344 0.0161042660 0.5796101093 0.2894628048 -0.0909167975 0.0604726151 -0.2155816406 -0.0699854270 0.2587199211 -0.3003997803 -0.0954364389 0.5894093513 -0.0840760693 0.1451702118 -0.0453326143 -0.1037504226 0.4043178558 0.3520494998 0.5765706897 0.3102056384 0.2473166585 0.6148542166 0.1849449277 0.8212418556 -0.0497365743 0.0263805483 -0.1442652941 0.1007854491 0.5459569693 -0.0372924320 0.3456915319 0.0969976783 -0.0663490817 0.0063420255 0.7936936021 0.0951038226 -0.0472508855 -0.2908042073 0.1008492112 -0.1846269518 0.2754349709 0.1250087917 0.0601463541 0.2450799495 -0.0101922546 -0.0235559978 -0.0692011788 -0.0689646825 -0.1492388099 -0.1351880729 -0.0008217599 0.3711822629 0.5427783728 -0.2336703688 0.0325467773 0.0721627921 0.0520710647 -0.1609479338 -0.1776137203 -0.0752834529 0.2810520530 0.6608920693 -0.0736843944 0.1446428746 -0.0068659964 0.2905573547 -0.0725810826 0.0710539669 0.1662816852 0.1396577209 -0.1534510255 -0.1105671376 0.0885113254 0.0642196760 0.5843167901 0.2726663947 0.2266127467 -0.1917377710 0.2062019259 0.1143537164 0.4330156744 -0.0250589401 0.3431082964 -0.0564316399 0.1365031004 0.1757793128 -0.0547178313 0.2339344025 -0.0794331729 -0.1767139137 -0.2713025510 -0.0809782818 0.3260408044 0.0198375192 -0.2079887241 0.3509842455 0.3274124563 0.1216668412 0.3973698616 -0.1139592603 0.4248004854 -0.0257056579 -0.0856786519 0.4246401787 0.5578152537 -0.2738519311 -0.0908249095 -0.0935790539 0.2940962315 0.2130691707 0.8134144545 -0.1184728593 0.0396655165 0.1370209008 0.1864839941 0.5786523819 0.4439307749 0.2140059024 0.5028629899 -0.0601988398 -0.1120959148 -0.1508144736 0.1985548288 0.5484306812 0.2001000792 -0.0050426908 0.3181999326 -0.1804512888 0.2491865605 0.3281244934 -0.2231562734 0.0478546508 -0.0739533901 0.0900275856 0.5423488617 0.1485585868 -0.1131780520 -0.0792493224 0.1880515814 0.1773955673 0.1092696935 0.2648956478 0.1615716517 0.5395118594 -0.1487895101 0.4813438952 0.0721152425 0.0037958303 -0.1306319535 -0.1932699084 0.1960793585 0.1506254971 0.0057337345 -0.2374620736 0.1705910116 -0.1640933752 0.5718668699 0.1296238899 0.4289062321 -0.0497783795 0.0625866205 -0.0170632936 0.9050476551 0.0345663279 0.0466862395 -0.0153456805 0.2919344306 0.0181817040 0.0291076694 0.8049365878 0.3478785455 -0.1258398145 -0.1900574565 0.3651785254 0.2853321135 0.2607428730 -0.0937918499 0.1939490736 0.1107676104 0.1357025206 -0.2667156160 -0.1297376603 0.1160291359 0.2715325952 -0.0455720164 -0.0485059172 0.2907468379 -0.1366139501 0.4281716347 0.3815952539 0.6563291550 -0.0552570447 0.2952416837 0.0347787589 0.0561877377 0.3173385561 -0.0304610133 -0.2697634995 0.0969307125 -0.0902102962 -0.0486643799 -0.0795196295 0.1602077484 0.8087229729 -0.2040489763 0.0408500098 -0.0835541114 -0.1019173488 0.0139764454 0.1256493479 0.2436399162 -0.1173661798 -0.1014348567 -0.0672510937 0.0329561941 -0.0387590714
022c67d1401f55637b499a15bcd9cb1f__1011.22_1035.54 0.0340294093 0.0476188436 0.1064733043 0.4463367760 -0.0234614722 0.3400232494 0.1818371117 0.2942089438 0.2820095420 0.1712089330 0.1867277473 -0.0139247030 0.0411168337 0.0789339766 -0.1051639989 -0.0903825685 0.0194484964 0.1668789387 -0.1255919784 -0.1461878568 0.0105452146 0.1202116385 -0.1825334430 0.2382165343 -0.1216323450 0.2308308184 0.2117879838 0.6193885803 0.1828227788 0.6918230057 0.0319171920 0.1004337370 0.3083334863 -0.0002378230 -0.1701646000 -0.0497794189 0.0098508392 0.3053740263 0.3129518032 0.0723259374 0.1511223614 0.0208324268 0.1189506352 0.0950958058 0.2558539808 0.2488550097 0.4249166250 0.1685328633 -0.2375096679 -0.2290639132 -0.1390970796 0.3733294606 0.0484132767 0.1479865462 0.3898592293 0.1466370970 0.0229962301 0.2470608652 0.1500261575 -0.0550645329 -0.0033408040 -0.0414924063 0.0555681996 0.3198773563 0.4950717986 0.1204251200 -0.0883934125 0.5685709715 0.2737154663 0.1984631866 -0.1641557813 -0.0973721221 -0.1680573225 0.7298495173 -0.0517061204 -0.1863963157 0.3077898324 -0.2556904852 0.3441205919 -0.0434665531 0.0238635056 0.0443417802 0.2689762414 0.0999882221 0.2474076599 0.4364103973 0.2221540809 -0.1017256230 0.2279751599 -0.2275631577 -0.1615440398 0.3499295115 -0.0518201254 -0.1355194449 -0.1013533249 0.2961629331 -0.0990701094 -0.0803358108 -0.1292470545 0.2281522453 -0.0929813012 0.1553740501 -0.0412442833 -0.1346252859 0.2287608683 0.0545042679 0.3631421030 -0.0594406500 -0.1677069962 0.0027688122 -0.1980847269 -0.1909254938 0.2009937018 0.0853911340 0.2512989640 0.3329065442 0.3564312756 0.0616744198 0.5038763285 -0.0106405634 0.0023724996 0.4522225261 0.0492278896 0.1285463125 0.1124661639 0.7248908877 0.5115743279 -0.0038875889 -0.1299320161 0.1468266994 -0.0428485684 0.3075065315 -0.0196760967 -0.1432340145 0.2217455655 0.0822878480 -0.2644064426 0.2314371169 0.1291303933 0.3672510684 0.0782081559 -0.0082058338 -0.1307583302 0.2799489498 -0.0459173992 0.2969086468 0.0389296226 0.2497111559 0.3644455969 0.0238084849 0.1535748690 0.0674623847 -0.1719096154 -0.0329461880 0.0440303162 -0.1941290647 0.3126884401 0.2986778319 0.2968123853 -0.0559377782 0.0889647007 0.1576389372 0.2176209092 0.1224802285 0.1895669997 -0.0603148192 -0.0634941682 0.4399963617 -0.0559751689 0.3368529081 0.1336289346 -0.0414690040 0.0693718940 -0.1600434482 0.2592470944 0.2208977193 -0.0422112569 -0.0813607797 -0.1746410429 -0.0037292615 0.1476401687 0.5338350534 0.1409191042 0.1652187556 0.4561778605 0.1459542513 -0.1004092842 0.0919409245 0.0522995666 -0.0550406240 0.0244197771 0.1465745717 0.1376599967 -0.0077563412 -0.1397966146 -0.0696278438 0.8465108871 -0.0733185187 0.7463712692 0.0862723216 -0.1671143472 0.3225291073 0.0647289306 0.0646362528 -0.0421376862 0.5356572866 0.0669739917 0.0787879229 -0.0836618245 0.0903867632 -0.0786919221 -0.0587695800 0.2359731197 0.1678278744 -0.0387697890 -0.0766254440 0.4893328249 0.1112311780 0.0551262051 0.1458843350 0.1082013547 0.3326135576 0.3670346141 -0.0664249510 0.0658459589 -0.1623979360 0.0020315778 0.1356052905 0.2083837539 -0.0843770728 0.3222745359 0.3820149004 -0.1923696548 0.0397481322 0.1103423536 -0.0871551335 -0.1144727170 0.1683099717 0.1822204292 -0.0533573329 -0.2047321051 0.0762974173 0.3693666160 0.0097707044 0.0092416573 0.1704125106 0.2041438967 0.2392234057 0.2296574861 0.0864788443 0.0290970393 0.1148617640 0.1730688810 0.0679314435 0.6731086373 0.4118352830 0.2425224036 0.2745024562 -0.0614630096 0.1818352193 -0.1111480072 -0.0307066124 0.0650158226 -0.1624426842 0.2124663591 0.4326927364 0.0565351769 0.0516989157 0.5870346427 0.2371799350 0.3462814689 0.5948684812 -0.0870480314 -0.0045085964 0.7021406293 0.1684003621 -0.1683683395 0.1105231345 -0.0728851929 0.3981339037 0.0939101726 0.6266446710 0.0210221410 0.0942755491 -0.0678255931 0.2622132897 0.1532909721 -0.0270986613 0.0026035588 0.1934173107 0.7358542681 -0.1241208464 0.2187823504 0.0701398626 0.0018768688 -0.0367821977 0.4794611633 0.1851698309 0.4758559167 0.4110657573 -0.0331903249 0.5239248872 0.0003074631 0.0356598683 0.0671302974 0.6303730607 -0.0732377693 -0.1131189093 -0.0741842687 0.1821610928 0.3795009255 0.6356615424 0.0887411386 -0.0708157942 0.1775808930 0.0679750815 0.0577232353 0.0071260743 -0.0516612679 0.0318917036 -0.0045753950 0.2023905367 -0.0579001345 -0.1210105121 0.9598866105 -0.1141611338 0.3946466148 0.1631589085 0.0703399256 -0.0967250466 0.4394455850 -0.0448465422 -0.1489829421 -0.0221478269 0.0437863171 -0.0514079034 -0.1207931712 0.1478479654 0.1921038181 -0.0652627498 0.2176278085 0.4145623147 -0.0619619638 -0.0732131824 0.2807260156 0.1290120482 0.4649762809 0.1728714406 0.3010662794 0.3056512177 0.0589244664 0.1504414380 0.3873849511 -0.1729405969 0.1416260600 0.2973730564 0.1571862102 0.0692199171 -0.0810734481 0.0341296606 0.0982680619 -0.0035423646 0.0436567627 0.6584494710 -0.0848764405 0.1042612940 -0.2085131556 0.0696118027 -0.1183161214 0.2937388718 0.1720389873 0.0510835685 -0.1275782883 0.2021628618 0.3145786524 0.0873386040 -0.2058530301 0.1777471155 -0.0768988654 0.5636749864 0.1742500514 -0.0268724561 0.1636659801 0.1630039513 -0.1220537201 0.0063298019 0.4996466339 0.0568913557 -0.0837223679 0.0691102892 -0.1966096461 -0.0757813901 0.2466348708 -0.2488082796 -0.1144955531 0.3258896768 -0.0722252205 0.0175512042 0.0246967766 -0.1232098937 0.0479213558 0.2255010754 0.4199898243 0.1942450702 0.0759960562 0.6433957815 0.2335504889 0.5710425973 -0.0668814033 0.0135924639 0.2036567330 0.0415125191 0.6550684571 -0.0301564224 0.0985789075 0.3875074387 -0.0535426848 0.3287323415 0.4767786860 -0.0291600134 0.1419308782 -0.2316367328 0.0133863278 -0.1864221245 0.1753988862 0.2539937198 0.2537525296 0.0941129327 -0.0518722907 -0.0729573220 0.2556720078 0.1303565353 0.0958563760 -0.1348980069 0.1319511086 0.3361850679 0.1810112596 -0.2147268951 0.1005292088 0.0090148104 0.0423834026 -0.1319065243 -0.1231941953 -0.0918117464 0.1957031786 0.6156665087 -0.0756785721 0.0769461319 -0.0417355858 0.0710310340 -0.0525798798 0.0669930875 0.0395226292 -0.0113147516 -0.1156833842 -0.0956119671 0.1685212255 0.1130682752 0.3391992450 0.1854602247 0.3695025146 -0.1397782862 0.0744132325 0.0463316292 0.7966246605 -0.0397554301 0.1865722537 -0.0679676235 0.2432066202 0.1931523085 0.1076849401 0.2847461402 -0.1040901914 -0.1967457831 -0.2710265815 -0.1358979493 0.0560550578 0.1534692645 -0.2031690627 0.3171752095 0.1083504930 0.2392015457 0.4677884877 -0.1295901090 0.2519077063 0.0890696347 0.0176997948 0.1311751157 0.2408533394 -0.2530483305 -0.0503632016 -0.0935107917 0.0687367022 0.2698323727 0.5521073937 -0.0915889442 0.0342705138 0.1634506583 0.3363015950 0.4762672186 0.3665286005 0.4381276965 0.5175381899 0.1478606611 0.1639748663 0.1690803766 0.1411948800 0.2621521652 0.4155090451 -0.0082579302 0.5466659665 -0.1553677320 -0.0124679552 0.0735700727 -0.2035400122 0.2148284763 -0.0940971002 0.2518047988 0.3857707679 0.0700590834 -0.0900650322 -0.0698454380 0.3205382526 0.0327448174 0.4320872128 0.3932211995 -0.0486294180 0.3825460076 -0.1393987387 0.7011566162 0.0378759652 0.0421668664 -0.1306779236 -0.1309887320 0.0664586797 -0.0133600868 -0.0162718985 -0.2124902904 0.1854785234 0.0304919146 0.4851642251 0.1856594831 0.6012812853 0.1719784588 0.0442828834 0.3364868164 0.5037425756 0.1290978491 0.2233008742 -0.0471082963 0.1993075162 -0.0428379923 0.1017326638 0.6226012707 0.5873780251 -0.0714277849 -0.1563449800 0.2913113236 0.5482773781 0.2255125344 0.1485132724 0.1496307850 0.1544866860 0.1575487703 -0.2505966425 -0.1565082520 0.0560760573 0.1662649363 -0.0564547740 -0.0620390959 0.3177576363 -0.0868702829 0.6497945786 0.2533747554 0.4604830146 -0.0798893645 0.0787599310 0.0096346727 0.1090627164 0.4698945582 -0.0268492028 -0.2292296439 0.0780415237 -0.0720676631 0.0353884324 0.0622086003 0.1470653117 0.5042859912 -0.1899137497 0.0413263179 -0.0890031680 -0.0852468833 0.1896671653 0.2973273993 0.1855752468 -0.0962762833 -0.0933247879 -0.0724806190 0.0080786226 -0.0359536447
0246ce85475c22715b76f8828a57e4be__91.07_102.17 -0.0024502557 -0.0743350834 0.0422016978 0.2929350734 0.0783261657 0.1969659030 -0.1327107847 0.6905168295 0.5352469087 0.2121337205 0.3047288060 0.0491269380 -0.0773688778 -0.0653173998 -0.1126255542 -0.1255642176 0.1121266186 0.0227372907 -0.0953527242 -0.1370620877 0.1979341507 0.3031782508 -0.2050532252 0.2860024273 -0.1453529149 0.0825327858 0.3484662771 0.4803992510 0.0819122568 0.5997089744 0.2760090232 0.0225439407 -0.2118512541 -0.0214375686 -0.1683557332 0.3507314026 0.3189170361 0.0467775017 0.1628921330 -0.0522765294 -0.1818458587 -0.2166975290 0.3585229516 0.0465925336 0.5003620386 -0.1225228384 0.7556574345 -0.2862129211 -0.3097203374 -0.2110217959 -0.1905250102 0.3541461825 -0.1813614368 -0.0418906771 0.7553957701 0.3691865504 0.4421779811 0.0863807797 0.1516804844 -0.0470409505 0.1162321642 -0.0651111305 0.1791480631 0.1856756210 0.7521062493 0.3830102980 -0.0851666257 0.9308072329 -0.0986092016 0.2331778556 -0.2551465333 -0.1485988796 -0.2539920509 1.0716108084 -0.1144275516 -0.2251604348 0.4372435808 -0.3096128702 0.8226459622 -0.0743995011 0.1644455045 -0.2677223086 0.7487100959 0.1770510226 -0.1380702406 0.5575321913 -0.0929044932 0.0220143180 0.3947107494 -0.2893979847 -0.1565500349 0.7240179181 0.2750662267 -0.1885855794 -0.0547018908 0.9532067776 -0.6508571506 -0.0501241200 -0.1893961728 -0.0173954219 -0.1045528576 -0.0323795974 0.1244206205 -0.1214893311 -0.1355656683 0.1852799803 0.4657879472 -0.0193948895 -0.2040295750 -0.0232075285 -0.2171342075 -0.3166907430 0.2940286994 -0.1595787704 0.3551636636 0.6492064595 0.6066188812 0.1682145596 0.2945803106 0.0958846733 0.0961887985 0.3873859644 0.1858795285 0.0196305346 -0.1032746732 0.9551939368 0.8167493343 -0.0273397397 -0.2041660696 -0.1057009697 0.2065394521 0.3384910226 0.1276250780 -0.1349788755 0.3041204214 0.0612755045 -0.2929326296 0.5331246853 -0.0756770894 0.8842424154 -0.0339191817 0.0679980963 -0.1854702532 0.4916315377 -0.0808441192 0.4520786703 -0.0946354717 0.3633244336 0.6244214177 -0.0053687473 0.2335713059 -0.2107964456 -0.1699459106 -0.2392934263 -0.2669587135 -0.1940875649 0.5434197187 0.2414042056 0.3377510905 0.1125944108 0.1905832440 -0.1277175546 0.4355171323 0.3445777297 -0.2059360445 -0.0778034851 -0.0649745539 0.6391577125 -0.0147587294 0.6867320538 0.3091982007 0.0579579063 0.1683342606 -0.1801346987 0.3560858965 -0.0992182642 0.1120414361 -0.1042485684 -0.2318927199 -0.0735430643 0.0702673942 0.7569615841 -0.0004270913 -0.1930230111 0.5613296032 0.0145595940 -0.1373495907 -0.0436392054 0.1314234585 -0.0807973668 0.3030937314 0.0804525018 0.1861707419 -0.0008486938 -0.2406123877 0.1079382822 0.6677871943 -0.0593474060 0.3811201751 0.2662746310 -0.1847993433 0.1790418476 0.0970614851 -0.0453699380 -0.0474088602 0.7097786665 0.0259251948 -0.0469964035 -0.0793203041 -0.1139897853 -0.0625580624 -0.3255253434 0.1192969084 0.1068279967 -0.0457242131 -0.0936171338 0.1875349879 0.0241150633 -0.0456480458 0.2296231836 0.2041773200 0.2599956393 0.2528661788 0.1468161047 -0.0834519267 -0.2132730931 -0.3083052337 0.4683624208 0.1524664611 0.0762100592 0.3065959513 0.4400957525 -0.2175391465 -0.0931086838 -0.1526381075 -0.0569587722 -0.1466746479 0.3555861413 0.4182220995 -0.0877448469 -0.2621649802 -0.0597168878 0.9076410532 0.1129713431 0.1014869586 0.3135299683 0.2629284263 0.5989660621 0.2956389487 0.0177634656 -0.0033304936 0.2840846777 -0.1975235641 0.1730760932 1.1507338285 0.5396653414 0.4520442188 0.5243620872 -0.0275601111 0.4970070720 -0.1767707020 0.0055799806 0.0487560406 -0.1729301959 -0.2144830674 0.2524718642 0.0956688449 0.0889236927 1.1766643524 0.3689976037 0.7762445807 0.3302636743 -0.0851655081 0.0734846443 1.0693846941 0.1055070832 -0.2273298502 0.1538075358 -0.4244145155 0.6203874350 0.2059359401 0.8507894278 0.4866678119 0.1376510859 -0.2140465081 0.2572551072 -0.0207176320 0.0379559919 0.1042015404 0.2650775313 1.2170664072 -0.1318060309 -0.0774977952 0.1306185573 -0.0531876907 -0.0058285282 0.5604000092 0.0317747891 0.6171721816 0.2390085608 -0.1160326973 0.5273841619 0.1518226415 0.0177390464 0.1758761257 0.9351130724 0.0462430641 -0.0783296674 -0.0444578156 0.0938006490 0.6197282076 1.0720585585 0.2591416538 -0.0093880873 0.3985171616 -0.1725452095 0.0417517982 -0.0196676515 -0.0237120986 0.1625966877 0.0477897637 0.0360212773 -0.0813350976 -0.0579871573 0.8973982334 -0.1194891185 0.5315805674 0.0890439376 -0.1411703080 0.0570528992 0.8024536371 -0.0293957461 -0.1490284950 0.0308490861 0.1393387616 -0.0548533127 -0.0931463540 0.1596748978 0.1099691540 -0.0647722334 0.4939629734 0.7287291288 -0.4597406685 -0.1092989668 0.4223434627 0.3042017519 0.7974429131 -0.1236151978 -0.0819256008 0.6034155488 -0.1989205480 0.3407755494 0.3560054004 -0.1415027827 0.1356373429 0.3859924972 0.3091802299 0.3407847583 -0.0889236480 0.0626070574 0.1392860860 -0.1209086925 0.0405340455 1.1741821766 -0.1113749370 -0.0483197793 -0.2016857713 -0.0362726450 -0.1788420379 0.4103227258 0.3928952515 0.1594526619 -0.1251095831 0.3871974349 0.4749637544 0.2602899075 -0.2291791439 0.1032252014 -0.1178595424 0.2870481014 0.1934688538 -0.0304501057 -0.1520867348 0.1913030744 -0.1869521290 -0.1599614024 0.4254033267 0.2273629606 -0.0602439828 -0.0428642370 -0.2393582463 0.0082495529 -0.0427559689 -0.3643741310 -0.1388516873 0.4576390982 -0.1398501992 0.0887443796 0.0570483021 -0.1340081841 0.1130128056 0.4086024463 0.7985735536 0.1393686533 0.3676651120 1.1244366169 0.4693948627 1.0036885738 -0.1445583403 -0.3485944867 -0.0944960266 -0.0682132468 0.3323772848 0.0007727607 0.1369101256 0.4518674612 -0.0447359607 0.5156095624 0.8017771840 0.1997494996 -0.1811123341 -0.2190184444 -0.0998502746 -0.2235360593 -0.2595646381 0.2161965519 0.6487088203 -0.1030537635 -0.0496779531 -0.0792210773 0.3948938847 0.0170770064 -0.0105804456 -0.1493468434 -0.2676377594 0.1212157533 0.2680501938 -0.2183878720 0.0036720280 -0.0094275856 0.1581378281 -0.1514359564 -0.0805074573 -0.0995967984 -0.1579167843 0.6006043553 -0.0085857324 -0.0757025182 -0.0352119245 -0.1422704756 -0.0524262786 0.0331941396 -0.1014602184 0.1465704590 -0.2374531776 -0.0535880551 0.4140509665 0.0239347778 0.4843727648 -0.1492216587 0.3256153762 -0.2246476412 -0.0840660334 -0.0331868380 1.0500566959 0.0261051692 0.0197030772 -0.0537824146 0.4349622726 0.2870855331 0.1509648263 0.2579706609 -0.0762341619 -0.0938713998 -0.2900766730 -0.1174210086 -0.0648399442 -0.0516375601 -0.1911956817 0.3136151731 -0.0110046128 0.0843290016 0.4528248906 -0.2047265917 0.4646019638 0.0352572352 0.1713246107 -0.0577625483 0.5433441997 -0.2449707687 -0.0361512862 -0.0925563127 0.0454264283 -0.1372697055 0.9457413554 -0.0982768983 -0.4835652411 0.0593409762 0.4555455148 0.4493320584 0.0249202028 0.6137866974 0.1941244900 0.0271239784 0.1218527555 0.3499513865 -0.0954877585 0.2017611116 0.6105809808 0.0270606689 0.7331644893 -0.1836424172 0.0126473727 -0.3756884933 -0.1863913089 -0.0434813499 -0.1248412654 0.5031425953 0.7943619490 -0.0893297195 -0.1136563197 -0.0641328692 0.5745407343 -0.2454639822 0.3222532570 0.6038422585 0.3374783695 0.5530382991 -0.1899706274 0.8431730866 0.1701087058 0.1383424103 -0.1018973440 -0.1516821384 0.1519295424 0.2088889629 -0.0318082795 -0.2398741841 -0.1120435745 -0.0138720227 0.1377203315 0.1240454912 0.4932620823 0.2969153523 0.0593425184 0.3001167774 0.5122447610 0.4461455047 0.1023411751 0.1547285467 -0.1818432510 -0.1972029209 0.1864963472 0.9845197797 0.7094573379 -0.1038447320 -0.2152086198 0.5950655937 0.6846433282 -0.1908160746 0.1328470409 -0.3672362566 -0.0909834579 0.3048479557 -0.3140068948 -0.2426712364 -0.0185070839 0.4011918306 -0.0474993065 -0.0861429051 0.5183199048 -0.1100425944 0.4990494847 0.5317459106 0.5875790119 -0.0251277797 0.1086001992 0.0966064557 0.1456950307 0.5337802768 0.0004733354 -0.2499314696 0.1889819652 -0.1547031552 0.0075451750 -0.1819647849 0.1887298822 0.9492803812 -0.1717127413 0.2031833231 -0.0962225422 -0.1180347130 0.1599458605 0.1552268714 -0.1960549355 -0.1004305482 -0.1133030802 -0.1186579987 0.0439058729 -0.0942622572
02a25a13b2d8cb4ab3789fce8026329a__1.24_33.70 0.0062372331 0.0425230749 -0.0507470146 0.5199453235 -0.0885612145 0.3850153387 -0.1166040078 0.6358417869 0.5315505266 0.0968506262 0.3012211621 0.0140435435 -0.0605605245 -0.0278480724 -0.1132107154 -0.0699710175 -0.0232112873 0.2302590460 -0.1161300540 -0.1358901858 -0.0319194719 0.2073620558 -0.2138737589 0.3668445647 -0.1527233124 0.2309684455 0.3250017166 0.7756429315 -0.0028343499 0.8936191201 -0.0000704825 0.0883648470 0.1586511731 0.0427420922 -0.1405305862 -0.0123752831 -0.0755224526 0.2656916082 0.3634515107 0.0076860678 -0.0496952906 -0.1064188331 0.2701501846 0.0644576401 0.2398770750 0.0903856978 0.5441355109 -0.0424286090 -0.2818669081 -0.2270822078 -0.1665512323 0.5219757557 -0.0333042294 -0.0364006422 0.6287152171 0.2124497592 -0.0887620896 0.2201165408 0.2372247577 -0.0252846461 0.0222483408 -0.0262887236 0.1321321428 0.1558197290 0.7891259193 -0.0342305936 -0.1020703167 0.9140434861 0.1889348030 0.1819905937 -0.2135059685 -0.1026877910 -0.2369020879 1.0956174135 -0.0648819581 -0.1979359835 0.3786936700 -0.2985952199 0.5316035748 -0.0722131431 0.0281171389 -0.1228359938 0.4461249709 0.0311013963 0.1529230326 0.5055476427 0.1534318328 -0.0339226909 0.1860712171 -0.2739472091 -0.1383923590 0.3554162979 0.0421954803 -0.1860355139 -0.0830664858 0.5636665821 -0.2903968990 -0.0644038692 -0.1454814821 0.2405382693 -0.1003137231 0.1333049983 -0.0943569541 -0.1227680668 0.1099915951 0.1494417936 0.5850118399 -0.0188154057 -0.2094745785 -0.0068188929 -0.2226657420 -0.2281742990 0.3289676309 -0.1695960760 0.2282661498 0.5934807658 0.6665914059 0.0451512896 0.5085883737 -0.0005322493 0.0123671126 0.6937212348 0.0351957791 0.0438961163 -0.1169813126 1.0781010389 0.9293578267 -0.0481152870 -0.1686062813 0.0912685096 -0.0840178132 0.4361750484 -0.0413656272 -0.1474379897 0.4004149735 0.0157585274 -0.2914597988 0.3530977964 -0.0380835906 0.6931002736 -0.0279371068 0.0090878410 -0.1532147676 0.4356884360 -0.0633658916 0.3992300332 0.0258894507 0.4626298845 0.5872603059 0.0587153845 0.2275951058 -0.1441109478 -0.1858486682 -0.1464060843 -0.1466673762 -0.1986771226 0.5242311954 0.3747810423 0.4929981232 -0.0003669346 0.1585788280 -0.1509673744 0.2608543932 -0.0777364373 -0.1101985425 -0.1353217214 -0.0697675347 0.5907657146 -0.0560679175 0.5740256906 0.2532408237 -0.0268447585 0.0214623809 -0.1782424450 0.2923267782 -0.1814903766 -0.1855583787 -0.0757831633 -0.1990968287 -0.0079383124 0.0884178355 0.7775626779 0.1079566851 -0.1139583886 0.5252678394 -0.0303248391 -0.1376269758 -0.1314423084 0.1151593179 -0.0960532501 0.1661141366 0.1253434718 -0.0770414025 -0.0092028156 -0.1899154484 -0.1642486155 1.1290781498 -0.0472410880 0.8237760663 0.2014779896 -0.1920758784 0.3020972013 0.0699844882 -0.0557715818 -0.0440932736 0.7556106448 -0.0681706592 -0.0486443229 -0.0690989494 -0.0132969394 -0.0678455606 -0.1527883708 0.2806347311 0.1564570665 -0.0393473543 -0.0641861707 0.4763823152 0.0097524989 -0.0094953366 0.2500686646 0.1891277134 0.3437325060 0.4564829767 -0.0484610759 -0.1699559093 -0.1894675344 -0.0984282941 0.1403471380 0.0806100592 -0.2167033106 0.4166691601 0.5405214429 -0.2342848331 -0.0439836457 -0.1530751735 -0.0876804963 -0.1451733857 0.1860730052 0.2352700830 -0.0491536371 -0.2075559944 0.0246739443 0.6897014380 -0.0817866847 0.0323928967 0.3323971033 0.1877489090 0.4447422326 0.3257630765 -0.1723290086 -0.0283809174 0.1408659220 -0.0962310433 -0.1177607030 1.1446416378 0.6009283066 0.3208296895 0.4000290036 -0.0561596118 0.2467008233 -0.1297392547 -0.0280502792 0.0288775265 -0.1917963028 0.1184794232 0.5454792380 -0.0011097472 0.1052987278 0.8115534782 0.2965570688 0.6210514903 0.6200644970 -0.0826180726 0.0032513957 1.1078877449 0.2513296008 -0.2004279941 0.1336251348 -0.2375186384 0.3795121014 0.1856455356 0.8557664752 0.0074253744 0.1263340563 -0.1452723891 0.3029321134 0.0613433085 -0.0126474071 -0.0270362925 0.3261949122 1.1865785122 -0.0960841179 -0.0413658321 -0.1200301647 -0.0196513571 -0.0264201146 0.6003829837 0.1642417163 0.6711763144 0.4791211784 -0.0689013824 0.8187569976 -0.0400642082 -0.0222422332 0.0773223191 0.9257640839 -0.1280438155 -0.0861569420 -0.0743992627 0.2035884857 0.6258777380 0.8634887338 0.1613784730 -0.0525952019 0.1395003349 0.0191066880 0.0684508309 -0.0129424240 -0.1002623886 -0.0380144492 0.0201695710 0.0508569479 -0.0641085729 -0.1114336550 1.2432081699 -0.1458242238 0.6947677732 -0.0350889340 -0.0170552582 -0.2268016487 0.6020886302 -0.0509469360 -0.1460053474 -0.0381707959 0.0263216421 -0.0511158928 -0.1373979598 -0.1077570915 0.0161214862 -0.0860666856 0.2372793406 0.5977151990 -0.2561728656 -0.0991017297 0.3418364823 0.2004856765 0.6559691429 -0.0705892146 0.1743552089 0.3604283631 -0.1527066231 0.1252013743 0.3453968763 -0.2111922204 0.0320846066 0.3400354087 0.0721399486 0.1505289674 -0.0642628968 -0.0802614391 0.0987249762 -0.0113212010 0.0546126589 1.0792665482 -0.0543814152 -0.1136800274 -0.1968254298 -0.0411705151 -0.1036258712 0.2105161101 0.1751952618 0.0651904419 -0.1557278931 0.2149543166 0.4938851893 0.0695709661 -0.1999335289 0.1843324155 -0.0504658259 0.5874755383 0.2141183764 -0.0210492350 -0.0830928534 0.2837806642 -0.1796977371 -0.0479920097 0.5177750587 -0.0392960422 -0.1020600572 -0.0156123945 -0.2204576135 -0.0579351708 0.2014275938 -0.2599205673 -0.1273172051 0.3788437247 -0.0779021606 -0.0804315731 -0.0371955894 -0.1336674541 -0.1683476269 0.3214080334 0.6265860796 0.3115641773 -0.0396746136 1.0415402651 0.2929174006 0.8052951694 -0.0737020969 -0.1286672056 -0.0062053185 -0.1020620540 0.7354820371 -0.0145940073 0.0923913941 0.4593932629 -0.0822067708 0.3705203235 0.7161743641 -0.0627576858 -0.1234452724 -0.2535729110 -0.1054662168 -0.2138618231 0.1187431589 0.2825275660 0.4465243816 0.0691227689 -0.0208674390 -0.0781587660 0.1781744361 -0.0271402467 -0.0576068833 -0.1565321535 -0.1056195498 0.4196463227 0.1289252192 -0.2301259935 -0.1076537073 -0.0152069936 -0.0708678812 -0.1541043371 -0.0932323039 -0.0649573952 0.0477210060 0.8602277040 -0.0323960483 -0.0002688672 -0.0438918062 -0.0558371693 -0.0614414886 0.0955700502 -0.0654078349 -0.0600461364 -0.1780408621 -0.0959052518 0.2979030907 0.0439271741 0.4024567008 0.0087909177 0.4248772860 -0.1479540765 0.0001506722 -0.0022117193 1.0098034143 -0.0635338500 0.1627890319 -0.0624693967 0.4081229568 0.2192520946 0.0557837114 0.2068658769 -0.1124411523 -0.1581088901 -0.2897816300 -0.1265501827 -0.0289825927 0.0798673779 -0.1693570465 0.2744664848 0.0080083823 0.2500677705 0.6719924808 -0.1763463616 0.3286062479 0.0223270543 0.0293551013 0.0469546020 0.2063286901 -0.2783316672 -0.0609754510 -0.0918885842 0.1501743346 0.1642736793 0.7307168841 -0.0583803803 -0.1478185356 0.0419204868 0.4599943161 0.6248102188 0.3851661980 0.5974238515 0.5169810057 -0.0044758655 0.0588030368 0.1323958337 -0.0683432072 0.3037784994 0.4960176945 -0.0033979425 0.7521768212 -0.1918979287 -0.1168328747 -0.0332265534 -0.2252736837 -0.0285340492 -0.0925522670 0.4201051593 0.5433976650 -0.0224000402 -0.0865766779 -0.1135272011 0.2710064352 -0.0800586343 0.4566413462 0.5991749167 -0.0937408060 0.5376325250 -0.1610446572 0.9529246688 0.0121723460 0.0079860035 -0.1346329749 -0.1794521809 -0.0006642714 0.0084493533 -0.0512604043 -0.2394807041 0.0727575719 -0.0347846895 0.5223463178 0.2065415978 0.4166780114 0.0744261369 0.0318129435 0.3110637963 0.6102727056 0.1364398897 -0.0007683095 -0.0316437036 -0.0009088181 -0.1149208471 -0.0937369317 0.9574790597 0.7899749279 -0.0833936855 -0.1736315191 0.4208157063 0.7512171865 -0.1280878484 0.0205996949 0.0461885631 0.0464569665 0.1692328155 -0.2662433386 -0.2111750990 0.0075921025 0.2697911263 -0.0376002081 -0.0693115070 0.4174509943 -0.0561202355 0.7612457275 0.3420709372 0.6213396192 -0.0092223315 -0.0438903570 0.0280099884 -0.0883141607 0.6333804131 -0.0210047513 -0.2500091195 0.1505319476 -0.1033650115 0.0299538430 -0.0737368390 0.2298781425 0.8194194436 -0.2050245553 -0.0625359416 -0.1025595888 -0.0805026069 0.1740160584 0.2814069390 0.0801508501 -0.0953220055 -0.0952220038 -0.0944474638 -0.0042501809 -0.0182808712
0363c7d018d5ff957280a026e13f51a5__450.11_473.05 0.0155713651 0.0084287226 0.0102973431 0.3111091256 0.0343965366 0.1952209473 -0.0000962056 0.6474756598 0.4816931188 -0.0221739709 0.2281335890 0.0260649081 -0.0097082965 0.0883576795 -0.0817464739 -0.0856153369 0.1555717736 0.2150921673 -0.0570383817 -0.1449496746 0.2024199963 0.1943651289 -0.1897033602 0.2570196986 -0.1480758190 0.0730777532 0.3595275879 0.4867047668 0.0825462416 0.7908875942 0.4498012364 0.0317653120 -0.0059948303 -0.0042421171 -0.1250853688 0.2637217343 0.3093171716 0.1805943847 0.2249905467 0.0072954823 -0.2447990477 -0.1574330777 0.2587426007 0.1196819767 0.3047433496 0.0394673645 0.4733017683 -0.1693234742 -0.2690382898 -0.2117473781 -0.1621207297 0.4198544323 -0.0294804256 -0.0179640278 0.7150194049 0.2529312074 0.3783446550 0.1515887082 0.2278801054 -0.0138779413 0.1525626332 -0.0554657765 0.1163256839 0.0942020044 0.7299837470 0.1455550045 -0.0810147673 0.6906613111 0.0246736184 0.0830955356 -0.2331401557 -0.1124565974 -0.2522465885 0.7402621508 -0.0856214538 -0.2198084742 0.4496062398 -0.2687873840 0.7534006834 -0.0746826604 0.1203212962 -0.2181623876 0.6224759221 0.0584463105 -0.0372323431 0.2788877785 0.0632146373 -0.0435461104 0.1502412260 -0.2406015098 -0.1368957162 0.4591791034 0.2032440007 -0.1704992652 -0.0551749095 0.8236730099 -0.3286074996 -0.0436874963 -0.1371897012 0.1797602475 -0.1078170761 -0.0007570153 0.1034693941 -0.1317907870 -0.1148456112 0.1491292715 0.6138556004 -0.0401429310 -0.1491149962 -0.0218236502 -0.1842402369 -0.2660092711 0.2120231688 0.1067429334 0.4116793573 0.7006635070 0.4937241375 0.1530571878 0.2139657736 0.0727997720 0.1062115580 0.6146232486 0.0925200507 -0.0003187452 -0.0181826353 1.0248625278 0.6034449339 -0.0694945231 -0.1560445875 0.0336422585 0.1304277629 0.2807356119 0.1263509095 -0.1361628920 0.2410145551 0.1465748698 -0.2572337389 0.4535736740 -0.1231048778 0.8622599840 -0.1001486480 0.0630733445 -0.1323024929 0.3290545642 -0.0549340397 0.3282030821 0.1372399479 0.2721674442 0.4551090896 0.0789314434 0.2783729434 -0.0722433999 -0.1661739796 -0.1645523012 -0.2088554800 -0.1389984488 0.4010591507 0.3953054249 0.4300522804 0.1134593338 0.2011838704 -0.0823144689 0.3872334659 0.0994743034 -0.2195816040 -0.0612039939 -0.0618319549 0.4085560441 -0.0292594992 0.6154319644 0.2909738421 0.0775638223 0.0696670339 -0.1541369855 0.2084214836 -0.0609946325 0.0334797613 -0.1025433168 -0.2159588486 -0.0081268530 0.0913663581 0.4852816164 -0.0271291677 -0.0442322977 0.2965028286 -0.1476096660 -0.1205654964 0.0222704113 0.1159307510 -0.0837589577 0.2922158539 0.0422159955 0.0978655294 0.0101711955 -0.2149910331 0.0384755395 0.7459526658 -0.0501586311 0.3520309925 0.1829423308 -0.1703636795 0.0861439854 0.0304352436 0.0741213709 -0.0437283553 0.4770352542 0.1803970635 -0.0192710571 -0.0980192646 -0.0473263003 -0.0707774162 -0.1825755686 0.2303316295 0.0629752576 -0.0437665507 -0.0640385449 0.3216255903 -0.2155742496 -0.0642351881 0.1691810638 0.1511874646 0.0842927396 0.3482671678 0.1835863590 -0.0041360464 -0.2155337781 -0.1476272494 0.2459840477 0.1481985152 0.0113469642 0.4072188437 0.4082955420 -0.1954002529 -0.1089209169 -0.0236612596 -0.0601514168 -0.1434088051 0.2643229067 0.2305774689 -0.0462620817 -0.2107692510 0.0744700655 0.7868046165 0.0809049830 0.0759814382 0.2334530205 0.1219467968 0.4631334245 0.1817079931 0.1686560661 0.1016799733 0.3002153635 -0.0827080011 -0.0174221471 0.9125782847 0.5247116685 0.4056596458 0.4252089858 -0.0467698947 0.3273889720 -0.1460677683 -0.0295650233 0.1726960838 -0.1537196189 0.0235519093 0.3354075551 0.0598327070 0.0707341433 0.8803306222 0.4283964336 0.6874174476 0.2090132833 -0.1068805531 0.0381186642 0.7685258985 0.1915424764 -0.1943816096 0.3882111907 -0.2267725021 0.2924720943 0.1359779686 0.5596023798 0.3022433817 0.0798954740 -0.1418555528 0.1066955477 -0.0391015671 -0.0002750943 0.1576651037 0.1845067292 0.9854986668 -0.1084100381 -0.0426271111 0.0237934515 -0.0234229341 -0.0087001305 0.6050466299 0.0164569020 0.4405672252 0.2477474809 -0.0079743061 0.6976711154 0.0849374011 0.0207810663 0.0969255716 0.6529196501 0.0227786712 -0.0890155062 -0.0737259388 0.1013606787 0.4881519973 0.7863304019 0.3039765358 0.0028824140 0.2180428654 0.0728687719 0.0184151419 -0.0192148387 -0.0245774128 0.0812156349 0.0471486449 0.0147548262 -0.0670496523 -0.0707463846 0.7797189355 -0.1435235292 0.4789544344 0.0065698661 -0.0660888776 0.0101738684 0.5820489526 -0.0437839031 -0.1300239563 0.0372227430 0.1887241155 -0.0561620221 -0.1072014868 0.0523661599 -0.0418790802 -0.0883165449 0.4157200754 0.6111980677 -0.3029262722 -0.0894933566 0.4054518044 0.1818320602 0.7025530338 -0.0874176398 0.0240149722 0.3791920543 0.0045606494 0.1626860797 0.2868538201 -0.1390718222 -0.0429298282 0.1893802285 0.1261989176 0.4304267466 -0.0721016973 -0.0010784222 0.0732853487 0.0553998873 0.0370790809 1.0995309353 -0.0941957310 -0.0298562329 -0.2015956640 0.0198949669 -0.1173803955 0.1477930099 0.2299878597 0.2394261062 -0.1151800603 0.1817791462 0.3826358020 0.1301318854 -0.2268713713 0.1006843001 -0.0473399647 0.1724861115 0.1513077468 -0.0182728022 0.0249461532 0.2692753971 -0.1382442415 -0.0808988363 0.3959997594 0.2571453452 -0.0690333769 0.0070835082 -0.2068289965 -0.0274452642 0.0882640108 -0.3185563684 -0.1125083789 0.4925956130 -0.1091137379 0.1285156310 -0.0363847427 -0.1106818020 0.2659603357 0.3780732751 0.6933045983 0.2827823162 0.3080171347 0.8926956058 0.3138532937 0.8657855988 -0.1049420834 -0.1970176846 -0.2366331220 -0.0286365245 0.3145262003 -0.0120413322 0.2599829733 0.2093387991 -0.0476155356 0.2357624024 0.8382386565 0.1482367367 -0.2049579769 -0.2411291301 -0.0225728899 -0.1975361556 -0.0339004621 0.1506458074 0.4092096090 0.0995576084 -0.0203620754 -0.0630709156 0.1400972605 -0.1139018759 -0.1584919840 -0.1287024319 -0.2424018830 0.2752859592 0.4098995328 -0.2092735022 0.0477555543 0.0489223152 0.1098790169 -0.1323374808 -0.1252009869 -0.0644605234 0.0537774414 0.6268928647 -0.0261581354 0.0855489224 -0.0191615876 0.0298924875 -0.0696689412 0.0730399862 0.0564822033 0.1644022763 -0.1975027919 -0.0827649757 0.2883246839 -0.0053943535 0.4652828276 0.0562139079 0.2379631549 -0.1944514215 0.0401777364 0.0283178724 0.6084657311 0.0152299590 0.1647717953 -0.0520580523 0.3352618515 0.1880779862 0.0519120172 0.1531081796 -0.0723470896 -0.0913135707 -0.2576778531 -0.0853276029 0.1700766087 -0.0586115569 -0.1788595468 0.2373835891 0.1144763082 0.1161365956 0.4832542241 -0.1554168314 0.3977636099 -0.0129596209 0.0951765776 0.1772366911 0.5086535811 -0.2396146953 -0.0622961335 -0.0811350271 0.3043971658 -0.0644666404 0.8629855514 -0.0824914873 -0.2822559476 0.0309802257 0.2687126994 0.4686963558 0.2096127421 0.3671221137 0.2331436574 -0.0747067481 -0.0342597961 0.1403672695 -0.0290695503 0.3997644782 0.3434709907 0.0188376494 0.4640858471 -0.1764015108 0.1919214278 -0.0300121084 -0.1913004816 -0.1162884608 -0.1027166843 0.3377685845 0.6251066327 0.0182617046 -0.1048728749 -0.0797723755 0.2771878242 -0.0680181682 0.1350935698 0.4198357463 0.3126494586 0.5388000607 -0.1473040581 0.6032685637 0.1335172802 0.0621189401 -0.1014592797 -0.1795639247 0.1571524739 0.2565594912 -0.0188360158 -0.2117655277 -0.0056738891 -0.1218886599 0.3046698272 0.1096090525 0.2659161687 0.1181326583 0.0926507637 0.0356633179 0.6912829280 0.2671185732 -0.0254883468 0.1240950897 0.0036142468 -0.1008245572 0.0461949483 0.8304978013 0.4921264052 -0.1029501930 -0.1845323741 0.4723462760 0.4189541638 -0.0634738058 -0.0349059813 -0.1515808702 -0.0004834756 0.1723365486 -0.2716626227 -0.1855444163 0.0211583544 0.3282742798 -0.0343819559 -0.0768635869 0.3503359556 -0.1023855656 0.4317854643 0.4410853386 0.5701423883 -0.0189116001 0.1801687181 0.0779977813 0.0698556602 0.4173967540 -0.0308654159 -0.2429514825 0.1400652677 -0.1152643636 -0.0398727544 -0.1817781031 0.1654843986 0.9422194362 -0.1753746122 0.1307940483 -0.0777078792 -0.0993006900 0.0570154190 0.1095908731 0.0106508723 -0.1095157564 -0.1150978059 -0.0911337584 0.0323577784 -0.0527847931
091bf08109f456a3bd9af897b3070309__1256.93_1274.58 0.0044962261 0.0261003803 0.0543688536 0.4474767447 -0.0616958737 0.3956381381 -0.0126462691 0.5704783201 0.4889069796 0.2557048798 0.3251392543 0.0089001693 -0.0621086508 -0.0834038779 -0.1266653240 -0.1029398665 0.0114361402 0.1496079713 -0.1365055889 -0.1327509433 -0.0029437486 0.2857049406 -0.2008745819 0.3631555438 -0.1413889080 0.2150249183 0.2845029235 0.6874799132 0.0404239148 0.6948302388 -0.0271203220 0.0992441028 0.1391925216 0.0166540220 -0.1725568771 0.0603524074 -0.0159270149 0.1751510799 0.2755003572 0.0176089834 0.0422751606 -0.0751562268 0.3032841384 0.1256181449 0.3545549214 0.1402035803 0.6377731562 0.0027876347 -0.2829756737 -0.2292473614 -0.1723921150 0.4308620393 -0.1023439318 -0.0050521609 0.5599446893 0.2594840229 0.0207496155 0.1530131102 0.2084999233 -0.0567021370 0.0323813036 -0.0489285775 0.1311940998 0.2252835333 0.6990686655 0.1209206209 -0.1022987813 0.9502665997 0.1949458420 0.2845834494 -0.2155891806 -0.1145288721 -0.2229121625 1.1138918400 -0.0671215951 -0.2002054602 0.3182130158 -0.2978025377 0.4993087053 -0.0680361539 0.0313513987 -0.0894910321 0.4532466233 0.1123412400 0.1153004542 0.6648718119 0.1182050109 -0.0322128683 0.3550933599 -0.2783833146 -0.1630286276 0.4751662910 0.1265706420 -0.1704393029 -0.0890826583 0.5543149710 -0.3740049601 -0.0842759311 -0.1685062200 0.1304803342 -0.0951938108 0.1204295158 -0.0841542110 -0.1294177175 0.1498956382 0.1278063208 0.4627818465 -0.0259835050 -0.2187183052 -0.0070835822 -0.2342689931 -0.2455176413 0.3111883700 -0.1786938012 0.1815938056 0.5086942315 0.5614786148 0.0528647676 0.5184835792 -0.0010304734 0.0303074270 0.5226946473 0.1141668409 0.1401608437 -0.0371186547 0.9134429693 0.8312261701 -0.0162057187 -0.1851427108 0.0819517672 0.0133275380 0.4318222106 -0.0102877794 -0.1603437066 0.3434168100 -0.0043614116 -0.3043071926 0.3492886722 0.0414622501 0.6239060163 0.0382367261 0.0197330303 -0.1677285880 0.4702622592 -0.0899412632 0.4184542000 -0.0384100340 0.4082247317 0.5452777743 0.0186810810 0.1808572561 -0.1411041319 -0.1757012606 -0.1430696547 -0.1051694676 -0.2226606607 0.5349109173 0.2746164203 0.3988112807 0.0124465115 0.1415738612 -0.0813128054 0.2481244206 0.1426403522 0.0042680614 -0.1203736886 -0.0603809468 0.6820371151 -0.0499698967 0.5161646008 0.2282263637 -0.0232012980 0.0921454430 -0.1855175346 0.3269138932 -0.0229669213 -0.1340318322 -0.0746670142 -0.2078399509 -0.0355026349 0.0837239847 0.8063060045 0.1313317418 -0.1001321226 0.6053599119 0.1305627376 -0.1312904805 -0.0637780204 0.1079671085 -0.0769176707 0.1597360671 0.1622331589 0.0402625278 -0.0093720295 -0.1873368621 -0.1095065251 0.9484767914 -0.0512663797 0.7984421849 0.1814796180 -0.1924752146 0.3770148158 0.1140438691 -0.0940382555 -0.0425192118 0.7946767211 -0.0859727785 -0.0364528485 -0.0724194422 0.0032865051 -0.0658430159 -0.1815352142 0.2290502936 0.1974882036 -0.0525932238 -0.0967960432 0.3720545471 0.1728464365 0.0250109266 0.2263723314 0.2069787681 0.4177946448 0.3557902873 -0.0257566124 -0.0668740720 -0.1859784871 -0.1453650892 0.3063067496 0.1010106727 -0.1416385770 0.3194316328 0.4846266210 -0.2326811552 -0.0097570717 -0.0766335726 -0.1008970365 -0.1286308467 0.2096850276 0.3761917651 -0.0892346725 -0.2243226320 -0.0274311677 0.6564009190 0.0107515976 0.0297014918 0.3030622900 0.2460702062 0.4673312008 0.3373979032 -0.1280211508 -0.0564333908 0.1204959005 -0.0744556040 0.0428718589 1.1168441772 0.5240796804 0.2995446324 0.3674306870 -0.0592888407 0.3273844123 -0.1494017690 -0.0242503192 0.0340281352 -0.1984754652 0.0567615405 0.4616066515 0.0928750411 0.0938615799 0.8804388642 0.2501878440 0.5853541493 0.6537298560 -0.0797122791 0.0121482899 1.0615032911 0.1977815032 -0.2112645209 0.0506977402 -0.2763750255 0.5282458663 0.1795951873 0.9252244234 0.1636631191 0.1272165775 -0.1617643535 0.3628892004 0.0962487459 0.0057982095 0.0042865109 0.2989613414 1.1241223812 -0.1178979576 0.0603335127 0.0213233568 -0.0309587903 -0.0183727723 0.4982361794 0.1676362753 0.7101294398 0.4795408547 -0.0913570076 0.6570606232 0.0544320792 -0.0029640133 0.1417756975 0.9310595989 -0.0953258350 -0.0996096656 -0.0512168705 0.1707849503 0.5932438374 0.9121649861 0.1342467219 -0.0613617338 0.2327729315 -0.0562446266 0.0656529292 -0.0098148286 -0.0845860168 0.0328622945 0.0402363651 0.0973419845 -0.0748898163 -0.1075963899 1.1818692684 -0.1192556918 0.5695337653 0.1009463817 -0.0169099160 -0.1831644624 0.6423671246 -0.0548774339 -0.1486507505 -0.0169700310 0.0135849677 -0.0548433438 -0.1179225147 0.0802785084 0.1801240146 -0.0824782699 0.2556302547 0.5442798734 -0.2373982072 -0.1005550995 0.2961955965 0.2695542872 0.5967920423 0.0052100457 0.2266906798 0.4507947266 -0.2003914565 0.2749404311 0.3519381583 -0.1957345456 0.1738076806 0.4201940000 0.1938357353 0.1369496882 -0.0846391320 -0.0008539716 0.1394932121 -0.0449867286 0.0676893070 0.9648797512 -0.0786093846 -0.0395805538 -0.2031689137 -0.0263824370 -0.1445058137 0.3603676260 0.2638951242 0.0330966190 -0.1523571461 0.3650348485 0.5713661909 0.1721457243 -0.1995045692 0.2124081403 -0.0911547765 0.6324474216 0.2214188129 -0.0208154470 -0.0354913883 0.2159281671 -0.1749931723 -0.0671296492 0.4722873569 -0.0220287405 -0.0881548971 0.0132079357 -0.2227242887 -0.0547181629 0.1677777618 -0.2887141109 -0.1410094947 0.3160092235 -0.0889008641 -0.0392505527 0.0257342663 -0.1473324299 -0.1373956650 0.2946103215 0.5844060779 0.2327317297 0.0369498916 1.0057529211 0.3576045036 0.7192887068 -0.1055953354 -0.1522835493 0.1487982124 -0.0806959420 0.6807255149 -0.0250000022 0.0494593084 0.5476247668 -0.0669646859 0.5334734321 0.5950149894 -0.0328135639 0.0078827124 -0.2331175208 -0.1031144857 -0.2227124274 0.0116356183 0.3256900907 0.5387023091 -0.0015289932 -0.0559628755 -0.1032103747 0.3847110868 0.0867987648 0.0757429153 -0.1576860994 -0.0399595052 0.3500815034 0.0736890882 -0.2331431955 0.0381764472 -0.0126317302 0.0313092396 -0.1414440721 -0.0912687108 -0.0919178277 0.0316380560 0.7622776031 -0.0444407538 0.0060191136 -0.0530177951 -0.1258435845 -0.0502246469 0.0787682608 -0.0695426986 -0.0432670079 -0.1701112986 -0.0853106156 0.3337007165 0.0828828439 0.3298118114 0.0139610991 0.4581201971 -0.1559390873 -0.0421609282 -0.0214116704 1.1144921780 -0.0262294002 0.0878257900 -0.0754370764 0.4373704791 0.2436188012 0.1673934013 0.2620132864 -0.1289337724 -0.1700888574 -0.3129764497 -0.1585817486 -0.0888965502 0.1200126335 -0.1926088184 0.2906996012 -0.0486821756 0.2762567401 0.6322332621 -0.1931150109 0.2885313332 0.0797305852 0.1120364666 -0.0472776443 0.2083736658 -0.2694523633 -0.0477574021 -0.0948141068 0.0750071108 0.1360507309 0.6688161492 -0.0778075010 -0.1889832169 0.0876834840 0.4893953800 0.5299932957 0.2877339721 0.6574760675 0.4480719864 0.1146164984 0.2066962421 0.3406178951 -0.0493109524 0.1956320852 0.5912896395 0.0009329347 0.7915854454 -0.1857245117 -0.1184537038 -0.1609690785 -0.2168943137 0.0882532224 -0.1127934158 0.4867745042 0.5262919068 -0.0386740342 -0.0863090977 -0.0825143978 0.4007206559 -0.1406690478 0.5464264154 0.6149348617 -0.0249615535 0.4674327374 -0.1662547290 0.9645701647 0.0438922383 0.0633736998 -0.1361294091 -0.1446446329 0.0109633580 0.0247057229 -0.0572701357 -0.2348623872 0.0761966407 0.0549289845 0.4215863943 0.2031869441 0.5526877642 0.2589787245 0.0600028634 0.4432424009 0.4472457767 0.2687831521 0.1516452432 0.0088094743 -0.0009209625 -0.1366514564 0.0644724742 0.8281944394 0.8316230774 -0.0796298161 -0.1788401306 0.4180337787 0.7950059175 -0.0459176973 0.1708185226 -0.0437821746 0.0732096583 0.2026031762 -0.2902852893 -0.2271315455 -0.0037738588 0.2492488325 -0.0608121417 -0.0853853747 0.4263551235 -0.0666410401 0.7867711186 0.3384903669 0.5164117217 -0.0542956665 -0.0413182601 0.0325666070 0.0559733026 0.6445914507 -0.0282319859 -0.2426629812 0.1255662590 -0.0941396207 0.0565554686 -0.0145858116 0.1995146275 0.7114137411 -0.1875373274 0.0428470075 -0.1086514369 -0.0946493223 0.2496540099 0.3270141780 0.0431394204 -0.0965331942 -0.1034727767 -0.0970825106 0.0078161722 -0.0432449877
0a4446efc47dd4e17084504897b1725c__1.82_214.20 0.0063030664 -0.0629416481 0.0028897580 0.4415932298 0.0293822661 0.2570842206 -0.1769193709 0.5731673241 0.4693221152 0.1643290669 0.2598331273 0.0385786518 -0.0460968390 -0.0328844488 -0.1174395904 -0.1009682342 -0.0065381345 0.0440585949 -0.1124521121 -0.1314099133 0.0678074136 0.1822151840 -0.2162895501 0.2764743865 -0.1420073658 0.1748940051 0.3154426217 0.6258401275 0.1007350534 0.7314718366 0.0494043082 0.0492829233 -0.0573116876 -0.0076959641 -0.1500088274 0.1097588390 0.0969481841 0.1935456991 0.2860921919 -0.0466520116 -0.0812665448 -0.1660413891 0.2482621968 -0.0655752495 0.3890393674 -0.0872287080 0.6547917724 -0.1756473780 -0.2888955474 -0.2064041346 -0.1740846038 0.4109634459 -0.0958376080 0.0012803334 0.6610691547 0.2703142762 0.1469435692 0.1897924989 0.1303717941 -0.0436071903 0.0119330352 -0.0304954294 0.1525189579 0.2327993810 0.7094467878 0.2487156540 -0.0872701034 0.8488590121 -0.0078027397 0.1889513880 -0.2215491682 -0.1206630021 -0.2283491045 1.0705529451 -0.1072430685 -0.1900488883 0.4345988035 -0.2915121317 0.6509243250 -0.0617387705 0.1223945692 -0.1903621256 0.5593315959 0.1352305561 0.0388699435 0.4873510599 0.0099190129 -0.0095338793 0.2561288774 -0.2776986361 -0.1432480067 0.5726164579 0.0376355834 -0.1779752970 -0.0702931508 0.6896816492 -0.4740348160 -0.0541078262 -0.1617274582 0.0940477625 -0.0938194394 0.0636725649 0.0505071133 -0.1046726331 -0.0050263777 0.1662012637 0.4359507263 -0.0083332872 -0.2097800821 0.0048452145 -0.2168612033 -0.2608811855 0.3259473145 -0.1985882223 0.3070937693 0.5291004777 0.6510794163 0.1175165474 0.4455713928 0.0628667027 0.0292931385 0.4466863871 0.0895562097 -0.0160920378 -0.1412624270 0.9450479150 0.8885388374 -0.0292203296 -0.1894855350 -0.0837174207 0.0105187846 0.3602592647 0.0170471631 -0.1233427674 0.3589347303 0.0310179219 -0.2866358459 0.4244107604 -0.0214999821 0.6740581393 -0.0119434772 0.0209482722 -0.1646061540 0.4294638336 -0.0650234818 0.4248531759 -0.1108825952 0.4123308659 0.6259332895 -0.0318972990 0.1956045032 -0.1522217244 -0.1711251587 -0.1813295931 -0.1932667047 -0.2064206600 0.4901318550 0.2855809331 0.3350835145 0.0063580181 0.1525100023 -0.0700281039 0.3612155616 0.1430656761 -0.1076449305 -0.0924318656 -0.0595612824 0.5804378986 -0.0225498285 0.5940290689 0.2467022836 -0.0263767503 0.1017244011 -0.1767695248 0.3568531275 -0.1216569096 0.0239264630 -0.0943244472 -0.2064827532 -0.0417385697 0.1204093471 0.7773531079 0.0722338706 -0.1223984063 0.5870248675 0.0202059373 -0.1292235851 -0.0799368694 0.1132759303 -0.0945223421 0.1643015891 0.0910596699 0.0962089822 -0.0123464093 -0.1929277033 0.0093903914 0.8988757133 -0.0502053872 0.6099279523 0.2418221235 -0.1833531111 0.2403885871 0.0727649033 -0.0208422802 -0.0380730964 0.7225947976 -0.0328140855 -0.0131654479 -0.0637149140 -0.0666050166 -0.0723871961 -0.2276467234 0.1632500291 0.1092966646 -0.0315998308 -0.0653174743 0.3728112578 0.0634829998 -0.0241001640 0.2475858927 0.1600307524 0.3332820833 0.3567768633 -0.0146298595 -0.1661706865 -0.1969074160 -0.1896951795 0.2475578040 0.1727978885 -0.0327987522 0.3380263448 0.4769951999 -0.2106165141 -0.0413771048 -0.1680238247 -0.0677201748 -0.1390307397 0.2912408412 0.2656540573 -0.0587950647 -0.2461750507 -0.0229375642 0.7210778594 -0.0227395669 0.0737442449 0.3341302574 0.2576555312 0.4652544856 0.3175227940 -0.0807667226 -0.0331402384 0.2082437873 -0.0864184946 0.0689745843 1.0669521093 0.5604009032 0.3983186781 0.4956123233 -0.0322623104 0.3462204039 -0.1567505449 -0.0013634688 -0.0541550741 -0.1785896868 -0.0867749453 0.3752269745 -0.0226959493 0.0979434103 0.9718630910 0.3248409927 0.6377570629 0.4933275580 -0.0712547377 0.0492480956 1.1097890139 0.1244837418 -0.2049507648 0.0465450883 -0.3074754775 0.5651958585 0.1973146349 0.8262344003 0.1851805449 0.1406895816 -0.1861284375 0.2882162333 0.0396134518 0.0083927745 -0.0155707784 0.3059955835 1.1556816101 -0.1220074892 -0.0530825183 0.0414396897 -0.0364837274 -0.0343325920 0.6114593148 0.1125003994 0.5990159512 0.3099806905 -0.1170701608 0.5790079832 0.0012460351 0.0083279563 0.0949017256 0.9339700937 -0.0249891877 -0.0635857061 -0.0548478737 0.1622346044 0.6052080393 0.9819019437 0.1750482619 -0.0275508184 0.2947324514 -0.1495932043 0.0499261990 -0.0087242909 -0.0497799255 0.0541256666 0.0071471659 0.0956900939 -0.0622292869 -0.0823841691 1.0628225803 -0.1229737103 0.6199874878 0.0389237925 -0.0781940296 -0.0254973285 0.7035329342 -0.0236944593 -0.1551204473 -0.0348056629 0.0687483177 -0.0475417003 -0.1155788749 0.0154712871 0.0687829927 -0.0696716830 0.4024808705 0.7001381516 -0.3606743813 -0.1033897921 0.3969603479 0.2106987983 0.7560142279 -0.0615370944 -0.0266213417 0.4903062880 -0.1241751164 0.1905247271 0.4177860320 -0.1760173142 0.0976391137 0.3632308543 0.2165092379 0.1528088748 -0.0698159188 0.0061713746 0.1321236193 -0.1350042522 0.0157220736 1.0528045893 -0.0792354122 -0.0694767088 -0.1799698472 -0.0343142338 -0.1366999745 0.3747139275 0.2809027731 0.0756972656 -0.1354977489 0.2503416240 0.3347195089 0.1530672461 -0.2090437710 0.1102700830 -0.0710540637 0.4670626819 0.1926082820 -0.0251619238 -0.1560754180 0.1893272400 -0.1652419120 -0.1034415960 0.5440848470 0.1013390273 -0.0786092281 -0.0443684384 -0.2250138223 -0.0259256791 0.0478989109 -0.2919111252 -0.1236272231 0.4379799962 -0.1101597548 -0.0213872921 0.0252033863 -0.1330136210 -0.0530756116 0.3672339916 0.7093724608 0.1447456479 0.1611243486 1.0484099388 0.3827348351 0.9452974200 -0.0970268101 -0.2260316908 0.0050409902 -0.0528293923 0.5673427582 -0.0188978575 0.0906580016 0.4789618850 -0.0522928983 0.4094951749 0.7181735635 0.0827146024 -0.1251704693 -0.2302655876 -0.0954596996 -0.2195471227 -0.0660332441 0.2493484467 0.4694730043 -0.0617151968 -0.0292929877 -0.0598138906 0.2518952489 0.0351553410 0.0021538744 -0.1460221410 -0.1535499096 0.1965930313 0.1907726824 -0.2203039527 -0.1388972700 -0.0421422310 0.0197247863 -0.1576365083 -0.0702603385 -0.0749126747 -0.1028391570 0.7036938071 -0.0184931755 -0.1158196181 -0.0402080491 -0.0731061175 -0.0483826622 0.0242430102 -0.1224443167 0.0348738320 -0.2071522623 -0.0709160715 0.3146455288 0.0563901663 0.4961868227 -0.1258358359 0.3665089905 -0.1733735800 -0.0199762359 -0.0210907981 1.0901767015 -0.0363286473 0.0950869545 -0.0509072728 0.3511794209 0.2764592171 0.0814004391 0.2826683819 -0.0816460103 -0.1273551732 -0.2780762613 -0.1130395308 -0.0831167251 0.0084019033 -0.1778320819 0.3562383652 0.0302263573 0.1146316454 0.4595586061 -0.1847526431 0.4506986439 0.0313560888 0.0481394976 -0.0140738580 0.4294764698 -0.2481306940 -0.0427369364 -0.0896883383 -0.0400454886 0.0506754518 0.8620357513 -0.0732107610 -0.2884308994 0.0859433487 0.4704140425 0.5626880527 0.1747389287 0.6020785570 0.4072237909 0.0294550844 0.0704718456 0.1559907049 -0.0294284262 0.2284208387 0.5768191814 0.0149770072 0.7644988298 -0.1830996871 -0.1165848896 -0.2224788964 -0.2026870549 0.0142901102 -0.0968058705 0.3977526128 0.7143913507 -0.0733648464 -0.0953070149 -0.0940545946 0.4990490377 -0.1470832229 0.4176925123 0.5888535380 0.0746518597 0.5388910174 -0.1768592447 0.8927253485 0.0889890119 0.0711686388 -0.1059988141 -0.1463588625 0.0814177543 0.0471907482 -0.0269415248 -0.2437076718 -0.0285744704 -0.0173355266 0.3200332522 0.1561920196 0.5496562123 0.1480722576 -0.0194749385 0.3542219102 0.5439651012 0.2571151853 0.0837962106 0.0181949288 -0.1211146563 -0.1475795507 0.0708954036 1.0201653242 0.7291013598 -0.0865549818 -0.1969192028 0.5020371675 0.7261376381 -0.1322157383 0.0895964503 -0.1419633925 -0.0589311719 0.2668794096 -0.2865972817 -0.2146754563 0.0139338430 0.3535138667 -0.0416999161 -0.0606927872 0.4973999560 -0.0833669975 0.5817880034 0.4557868540 0.6342621446 -0.0116449883 0.0385237858 0.0548674650 0.0160022378 0.5568171740 -0.0007148162 -0.2442019284 0.1775064766 -0.1238189563 0.0163209867 -0.1071951836 0.2139690816 0.8201412559 -0.1728352308 0.0576294325 -0.0976823792 -0.1082132235 0.1534123123 0.1984817088 -0.1046868637 -0.0779641122 -0.0910748392 -0.0991088152 0.0168671124 -0.0697213262
0c0f768021350908d887993811fd3099__116.27_133.79 -0.0040016156 -0.0580625907 0.0082643908 0.3851407468 0.0069412934 0.2715621591 -0.1964658201 0.6334587336 0.5111126900 0.2564652860 0.3119590282 0.0394710153 -0.0972351134 -0.1215211675 -0.1269665807 -0.1148331165 -0.0050470741 0.0227398127 -0.1152186245 -0.1235778332 0.0561618060 0.2769619226 -0.2011274248 0.3091062307 -0.1372735053 0.1602642834 0.3019252419 0.5823492408 0.0437243730 0.6174412966 0.0151675446 0.0496605188 -0.1273614317 -0.0017900621 -0.1481797248 0.1807330549 0.0842329785 0.0968464687 0.2256720960 -0.0562517345 -0.0722326934 -0.1783786267 0.3373663425 -0.0037886035 0.4292880595 -0.0978750661 0.7310348749 -0.2129886895 -0.2944749296 -0.1960249394 -0.1748861670 0.3801687360 -0.1717984378 -0.0456682555 0.6511908770 0.3149684370 0.1656460464 0.1124863252 0.1409560144 -0.0504084826 0.0246149618 -0.0415576063 0.1726706475 0.2058770955 0.7217488885 0.2677004635 -0.0883131325 0.9759642482 -0.0090751201 0.2585560083 -0.2245579511 -0.1284474432 -0.2260555327 1.1759414673 -0.0992513373 -0.1871313602 0.3768104017 -0.2968080640 0.6595252752 -0.0640586019 0.1066024601 -0.2090503871 0.6017603278 0.1591594219 -0.0318917893 0.6231892109 -0.0390780270 0.0220379997 0.3701939285 -0.2834613621 -0.1431219876 0.6193757653 0.1562419832 -0.1776161492 -0.0634830818 0.7469644547 -0.5905717015 -0.0531456880 -0.1755401194 0.0098655149 -0.0892528221 0.0401105583 0.0178417340 -0.1031541452 -0.0151747614 0.1711722165 0.4121974707 -0.0004672129 -0.2254996300 -0.0034546652 -0.2210697234 -0.2770513296 0.3300661445 -0.2925671935 0.2375917733 0.5396510363 0.6532741189 0.1080008596 0.4234552085 0.0503820777 0.0402921587 0.3933092356 0.1412542909 0.0319274738 -0.1570685506 0.9003391862 0.9281032681 -0.0177944694 -0.1996471882 -0.0859871507 0.0755109489 0.3955567777 0.0294115171 -0.1358169168 0.3671380877 -0.0185845662 -0.2860012352 0.4368273616 -0.0267678108 0.7212784290 0.0068747075 0.0318404250 -0.1835158467 0.5022338033 -0.0804612115 0.4534802437 -0.1480952799 0.4301490188 0.6446391344 -0.0246276837 0.1785448492 -0.2316770256 -0.1562830806 -0.2073282748 -0.2261587530 -0.2174232453 0.5562243462 0.2228371203 0.3394552469 0.0365191437 0.1608825773 -0.1538279355 0.3434989154 0.2166195363 -0.1449806988 -0.1044530645 -0.0639527217 0.6756147742 -0.0215726495 0.6046167612 0.2670209408 -0.0062919455 0.1228671744 -0.1782848239 0.3637768626 -0.1608567089 -0.0105807893 -0.0811309367 -0.2150359452 -0.0687166750 0.0749620795 0.8500992656 0.0724311993 -0.2221337110 0.6363381147 0.0678160042 -0.1349429935 -0.1210494637 0.1238572448 -0.0886328742 0.2172351032 0.1132752821 0.0832245722 -0.0092969686 -0.2036602795 0.0008845439 0.8180849552 -0.0489669740 0.5892770290 0.2619906962 -0.1882175654 0.2818640172 0.1095224321 -0.1015223861 -0.0451395139 0.7990919352 -0.1052445397 -0.0542528518 -0.0599890538 -0.0924675912 -0.0579479486 -0.2806019187 0.1367366016 0.1402897239 -0.0452490337 -0.0845017359 0.2599655688 0.1381500065 -0.0155107770 0.2515560389 0.1976222098 0.3794273436 0.2918640673 0.0050032292 -0.1678049266 -0.1854350120 -0.2566729188 0.3721404672 0.1125077233 -0.0438386872 0.2768102586 0.4697148502 -0.2097522020 -0.0558267757 -0.2153965831 -0.0667175204 -0.1324665248 0.2876723707 0.3867090344 -0.0816218108 -0.2338913828 -0.0876624063 0.7873558402 0.0095354393 0.0736526251 0.3471101522 0.2720843554 0.5359362364 0.3436698616 -0.1650403440 -0.0797459781 0.1838910580 -0.1873342246 0.1048426777 1.1768901348 0.5425146818 0.3834425509 0.4715019464 -0.0285707135 0.4082927704 -0.1655140817 0.0057442733 -0.0362286717 -0.1808838844 -0.1638251990 0.3396187723 0.0407954305 0.1002164781 1.0560303926 0.2820052207 0.6828485131 0.5050003529 -0.0703773424 0.0547067896 1.1609940529 0.1207695976 -0.2081810236 -0.0047750250 -0.3873698115 0.6207881570 0.2145279795 0.9363153577 0.2906420529 0.1542775333 -0.2061914951 0.3328227401 0.0355524085 0.0312685743 -0.0009856354 0.3154182732 1.2238954306 -0.1183387488 -0.0791102797 0.0558035225 -0.0497614257 -0.0162974838 0.5266000032 0.1042826399 0.6738300323 0.3341698050 -0.1350478381 0.5432333350 0.0584327020 -0.0022908589 0.1404369026 0.9964265227 -0.0308652520 -0.0655409917 -0.0362922475 0.1461275220 0.6485192776 1.0422809124 0.1695370823 -0.0364624076 0.3279908299 -0.1958928257 0.0612998009 -0.0101134731 -0.0557781793 0.0824463591 0.0322498567 0.0583467558 -0.0711931810 -0.0747728646 1.0691896677 -0.1080214232 0.6111341715 0.0638202056 -0.1114294082 -0.0687698722 0.7548680305 -0.0260295235 -0.1452087760 -0.0146469884 0.0467325225 -0.0437149294 -0.1019062400 0.0598959886 0.1227198690 -0.0640426502 0.3725986481 0.6754218936 -0.4029063880 -0.1037662849 0.3594485223 0.2829907835 0.7250427604 -0.1049515232 -0.0104242042 0.5447324514 -0.2538824081 0.2906797528 0.3711364567 -0.1684028804 0.1603592336 0.4268199205 0.2553624809 0.1728189588 -0.0712054595 0.0167646706 0.1472048312 -0.1427792013 0.0412600115 1.0791885853 -0.0823374167 -0.0930821672 -0.1671103239 -0.0692914575 -0.1555919051 0.4148807526 0.3278305233 0.0547573902 -0.1388713568 0.3581476212 0.4839675426 0.2072247416 -0.1926149428 0.1333174855 -0.1018198654 0.4802654982 0.2046501338 -0.0239528939 -0.2040809691 0.1847912073 -0.1890496463 -0.1339956224 0.4718299508 0.0577002093 -0.0695841610 -0.0550399199 -0.2304331213 -0.0123423506 0.0159735512 -0.3016827703 -0.1360155493 0.3728395104 -0.1143130958 -0.0213352572 0.0503823794 -0.1363868713 -0.1235282123 0.3514407575 0.7082507014 0.1326282918 0.1544019580 1.1244751215 0.4264649451 0.9034498334 -0.1098621935 -0.2863120437 0.0347500890 -0.0962587595 0.5179079771 -0.0063326005 0.0433110371 0.5444774628 -0.0526980385 0.5386805534 0.6731032729 0.0754011273 -0.1344597787 -0.2005644590 -0.1380125731 -0.2151542753 -0.1668621451 0.2687782943 0.6058801413 -0.1154734790 -0.0378448591 -0.0871369988 0.3717034757 0.0596992411 0.0416496247 -0.1483809650 -0.1882147491 0.1805486530 0.1068364233 -0.2131184489 -0.0859193057 -0.0457402915 0.0537147149 -0.1520735174 -0.0457981564 -0.0787295550 -0.1553771198 0.6799813509 -0.0091889817 -0.1182999313 -0.0447214730 -0.1767742336 -0.0446323603 0.0394378342 -0.1608230770 0.0188360363 -0.2050108314 -0.0582238324 0.3852084577 0.0520553440 0.4181155562 -0.1782601178 0.3986365795 -0.1729212254 -0.0817085356 -0.0495455787 1.1818041801 -0.0186949596 0.0205860902 -0.0517119020 0.4245109856 0.2809286416 0.1403104961 0.2713499963 -0.0904893205 -0.1157279685 -0.2801871300 -0.1277013570 -0.1552633196 0.0220310949 -0.1739880890 0.3164760172 -0.0614244267 0.1369147301 0.5031229258 -0.2011739761 0.4002738297 0.0468839034 0.1195123643 -0.1191832274 0.3620400727 -0.2447593212 -0.0298694521 -0.0941141769 -0.0493557788 -0.0126915984 0.8211595416 -0.0713875070 -0.3746113181 0.0585349351 0.5131729841 0.5057544708 0.1098730564 0.6722618937 0.3262219429 0.0597734638 0.1509515792 0.3076637089 -0.0951674879 0.1451933980 0.6431609392 0.0191415995 0.8285760880 -0.1820229590 -0.1548476070 -0.3497796953 -0.1893661171 0.0048121428 -0.1071124896 0.5043391585 0.7060364485 -0.1176127121 -0.0949837863 -0.0831104144 0.5394850373 -0.2313275784 0.4620832205 0.6511273980 0.1032366231 0.5134904385 -0.1733230501 0.9533251524 0.0966432393 0.0941854939 -0.1048031151 -0.1346882284 0.0591430068 0.0599473678 -0.0483548790 -0.2304085195 -0.0699137449 0.0296906866 0.2404962927 0.1648118496 0.5341551304 0.2420023531 0.0037626657 0.4227851331 0.4235055745 0.3416972160 0.1082441583 0.0631395131 -0.1874539405 -0.1904843450 0.1019565165 0.9825184941 0.8009181023 -0.0835538805 -0.1892515868 0.5261676311 0.7967914939 -0.2149752676 0.1510449499 -0.2408955395 -0.0644040182 0.2784842253 -0.2930544019 -0.2368637919 -0.0179241616 0.3438526094 -0.0406644382 -0.0737868100 0.5182037950 -0.0762143657 0.6291201711 0.4445278347 0.5803826451 -0.0176901296 -0.0171541851 0.0599764995 0.0417259447 0.5996441245 -0.0048711002 -0.2284881622 0.1842488647 -0.1296702027 0.0364491716 -0.1034502760 0.2104897499 0.8164275289 -0.1693958491 0.0775978640 -0.1041679159 -0.1053077355 0.1997068226 0.2345981300 -0.1601162553 -0.0853928626 -0.0933252349 -0.1073029190 0.0190234333 -0.0741587579
0c43e08be0fc49725c3e48cf9fcd98bb__73.41_96.47 0.0388694331 0.1112280190 0.0441261679 0.4137888253 -0.0888012871 0.3651158512 0.1680252552 0.4283683002 0.3539930582 0.0776101202 0.2258436531 -0.0168082453 0.0118601322 0.0686006621 -0.0929119736 -0.0762298778 0.0498718694 0.2913185358 -0.1012115777 -0.1344396919 0.0000895001 0.1660757363 -0.1718101054 0.2969599664 -0.1173341125 0.1930323392 0.2406331897 0.6311916113 0.0770879164 0.7665023208 0.1271663159 0.1020750776 0.3262798488 0.0277272370 -0.1435811669 -0.0161571093 -0.0136474203 0.2879275382 0.3006808162 0.0787525848 0.0524036437 -0.0016407098 0.1740225703 0.1910705864 0.1557811201 0.3009170294 0.3402188718 0.1542425007 -0.2221724987 -0.2228565514 -0.1284613907 0.4278163016 0.0590065196 0.0477156043 0.4249634445 0.1281767637 -0.0365447477 0.2126734704 0.2334137410 -0.0288978051 0.0519150980 -0.0381213017 0.0506014973 0.1746340096 0.5809182525 -0.0659009740 -0.0902521685 0.6222697496 0.3233079910 0.1615482718 -0.1701856703 -0.0762654021 -0.1840563416 0.7066968083 -0.0315950401 -0.1856568605 0.2805987597 -0.2445975095 0.3569365740 -0.0463563092 -0.0219604038 0.0142352674 0.2793946266 0.0325636081 0.2127067000 0.3892654479 0.2493163347 -0.0818535388 0.1650332808 -0.2091611624 -0.1431190521 0.2230461091 0.0494902171 -0.1396892965 -0.0944652632 0.3502584696 -0.0459016562 -0.0713745803 -0.1102641523 0.2790773213 -0.0856878161 0.1379287392 -0.0934994146 -0.1374584138 0.1987994611 0.0593720153 0.5118412971 -0.0546492971 -0.1585662961 -0.0132682901 -0.1913283616 -0.1718939394 0.1877279431 0.0968431681 0.2162651718 0.4606210589 0.3749179244 0.0392223448 0.4254714847 -0.0289535169 0.0238722526 0.6283778548 0.0331645422 0.1370041966 0.0856670290 0.8377528787 0.5189499855 -0.0347402021 -0.1297691464 0.2148449123 -0.0433661640 0.3394681513 -0.0218854118 -0.1493342519 0.2291360050 0.0842505172 -0.2464503944 0.2378858030 0.0336312354 0.5002596378 0.0098340511 0.0170846097 -0.1028464288 0.2796060443 -0.0499997325 0.2662774622 0.1605658084 0.2657464445 0.3314047158 0.0990786552 0.1922072172 0.0223338008 -0.1744571477 -0.0484464988 -0.0003948895 -0.1621426344 0.3419148326 0.3560212255 0.4171824157 0.0040916735 0.1197929382 0.0125786755 0.1866974831 -0.0115460549 0.0552543998 -0.0804260075 -0.0721712634 0.4155306220 -0.0623341352 0.3795408309 0.1903915703 0.0023728656 0.0158942193 -0.1587599069 0.1870852560 0.0868140012 -0.1539670378 -0.0690264627 -0.1714272350 0.0179399494 0.0897005498 0.4879163206 0.1052423492 0.0943425447 0.3358477354 0.0161882751 -0.0965215117 0.0326332636 0.0701900423 -0.0633528307 0.1137304455 0.1308152527 0.0050358362 0.0045927092 -0.1416295916 -0.1520943940 0.9023303986 -0.0580800064 0.7123342156 0.0831632391 -0.1623715311 0.2840184867 0.0627880469 0.0385982208 -0.0389972143 0.5031804442 0.0692877620 0.0174751356 -0.0791958123 0.0697083399 -0.0655138344 -0.0393155627 0.2919837534 0.1613082737 -0.0414185300 -0.0686617866 0.4571512341 -0.0192603953 0.0243364796 0.1292696595 0.1370395422 0.2481665909 0.3839766681 -0.0150568392 0.0489256307 -0.1607382894 0.0137664741 0.1066868752 0.1132537946 -0.1788144708 0.3703165352 0.4041572809 -0.1970232576 0.0011581471 0.0883678794 -0.0838005021 -0.1172049120 0.1100425273 0.1716637015 -0.0424599238 -0.1692598611 0.0919748247 0.4511409998 -0.0042916425 -0.0096518155 0.1790863425 0.1102785841 0.2840034664 0.2066843510 0.0358554758 0.0419644527 0.1183840260 0.0776862055 -0.0727785081 0.7502587438 0.4378408194 0.2225128859 0.2249479294 -0.0640889779 0.1495679319 -0.0966241062 -0.0421886705 0.1501304805 -0.1555473953 0.2709732354 0.4826471210 0.0853838548 0.0582046621 0.5320506692 0.2469610721 0.4143564403 0.5274683237 -0.0883611441 -0.0189158767 0.6608856916 0.2440791428 -0.1696384102 0.2431270182 -0.0618704893 0.2184351832 0.0903904587 0.5900956392 0.0101170680 0.0752571821 -0.0538102016 0.2194131911 0.1034720540 -0.0337784141 0.0496943742 0.1891476214 0.7747887969 -0.0917774737 0.1381567717 -0.0477086082 0.0045224247 -0.0176369250 0.4542621374 0.1580591649 0.4877332747 0.4554311633 0.0082170274 0.6801435351 0.0174779594 0.0018171435 0.0623131394 0.5917642117 -0.1065122560 -0.1155880839 -0.0793765262 0.1751758456 0.3952152729 0.5691049099 0.1328074634 -0.0549922138 0.0675700158 0.1823076904 0.0590134189 -0.0043643378 -0.0769078508 -0.0252870861 0.0238936357 0.1014669836 -0.0540242493 -0.1143612117 0.9528432488 -0.1292420626 0.4196431041 0.0705776140 0.0659965500 -0.1995860785 0.3870224059 -0.0609697886 -0.1282050610 -0.0047483556 0.0518837348 -0.0486047231 -0.1175974905 0.0415242091 0.0836942494 -0.0790905282 0.1506723017 0.3762555122 -0.0536487922 -0.0732582882 0.2481124550 0.1340637803 0.4275548756 0.0922871456 0.3396065533 0.2256265879 0.0090895817 0.1135288104 0.2802145183 -0.1655031294 0.0402331240 0.2347033620 0.0474463589 0.1777573228 -0.0683107227 -0.0357297771 0.0661364719 0.0962721854 0.0748980790 0.7538748384 -0.0709604472 0.0248089675 -0.1956603527 0.0481187589 -0.0846807584 0.1242343858 0.1004313156 0.0949912965 -0.1197387055 0.1705090106 0.4432819188 0.0532617383 -0.1920299530 0.1948165447 -0.0516287647 0.4884001315 0.1651700139 -0.0133336922 0.1592526138 0.2387672514 -0.1238488704 0.0118746711 0.4023337960 0.0200640038 -0.0825847164 0.0697386488 -0.1827054471 -0.0828054175 0.2821977437 -0.2379139513 -0.0966181159 0.3086118400 -0.0636177436 0.0077963052 -0.0334112756 -0.1077841818 0.0389546528 0.2235763520 0.4249563217 0.3188059926 0.0089051574 0.6649210453 0.1893394738 0.5093632936 -0.0677599907 0.0156040033 0.0615652055 -0.0142169110 0.6197133660 -0.0139172319 0.1395587772 0.3002334237 -0.0630989000 0.2774028480 0.5360696912 -0.0749567673 0.0406834781 -0.2352605611 -0.0094871065 -0.1611154377 0.2032838166 0.2360065877 0.2802564502 0.1748197377 -0.0371566080 -0.0813681260 0.1693799496 0.0173879024 -0.0199092627 -0.1352359951 0.0464794487 0.4517480135 0.1822838038 -0.2016894668 0.1188475639 0.0339086577 0.0045644008 -0.1084640026 -0.1172187552 -0.0685494095 0.2440805435 0.6815032959 -0.0641032606 0.1653392166 -0.0301387589 0.0513146296 -0.0657559186 0.1082381904 0.0829870552 -0.0272448920 -0.1165857539 -0.0922148973 0.1900375634 0.0627641976 0.2738046050 0.2274570465 0.3497536182 -0.1237762123 0.0630153045 0.0417951308 0.6370191574 -0.0391496941 0.2029213160 -0.0684526637 0.2937231064 0.1394374818 0.0859998465 0.1827219427 -0.1105066687 -0.1794570386 -0.2540335059 -0.1204812750 0.1162537187 0.1265326738 -0.1868350804 0.2141597569 0.0841036662 0.2897433341 0.5942589641 -0.1257545054 0.1803935915 0.0470150374 0.0458310284 0.1693711132 0.1435979009 -0.2492406964 -0.0633965954 -0.0913928524 0.2589078546 0.2269005179 0.5047505498 -0.0623634532 0.0325114019 0.0801305249 0.2822446525 0.4697496295 0.4320799112 0.3819984198 0.4564172328 0.0581086800 0.0959603712 0.1732034981 0.0477027297 0.3335673511 0.3188036978 -0.0074311616 0.4700245559 -0.1463654339 0.0436348058 0.1582024395 -0.1879215688 0.0770119950 -0.0798874050 0.2900168300 0.3099862635 0.0766999647 -0.0839308351 -0.0751031265 0.1359729916 0.0463332459 0.3413383365 0.3782300651 -0.0432756543 0.4005436897 -0.1209498346 0.6635524035 0.0194838829 0.0022113703 -0.1369347721 -0.1516834199 0.0417732261 0.0442094542 -0.0324452631 -0.2000932693 0.1937840879 -0.0260871723 0.5292361975 0.1782011539 0.3714233041 0.1179643348 0.0906559005 0.2115610689 0.5428574085 0.0873160958 0.0842310414 -0.0251449682 0.2106467783 -0.0341549255 -0.0097054783 0.5732935071 0.5584315658 -0.0693067163 -0.1335500628 0.2633020282 0.4821667373 0.1232343987 0.0514293574 0.1581708044 0.1684609056 0.0871753320 -0.2268833369 -0.1595686525 0.0414901748 0.1389312446 -0.0495131873 -0.0713077337 0.2522229850 -0.0708032921 0.6689895988 0.2133211344 0.4382793605 -0.0522355512 0.0481564179 0.0135744456 0.0277377516 0.4768506885 -0.0388426483 -0.2209414840 0.0699431673 -0.0672953129 0.0241224375 0.0083634034 0.1364931911 0.5832685232 -0.1922462136 -0.0021796953 -0.0827948079 -0.0662127063 0.1583924443 0.2863277495 0.2456736565 -0.1039530113 -0.0970715880 -0.0653244704 0.0035000937 -0.0068036388
0e9067b66822c08cdac9d49ea826f03e__1352.31_1359.22 0.0644033179 -0.0374065191 0.2475902438 0.3883077204 0.1505277306 0.2067388445 0.3340543509 -0.1320329010 -0.0606148057 0.2404598445 0.0147409718 -0.0276271347 0.1730294228 0.2200202644 -0.0852850527 -0.1082973853 0.0169477575 -0.0689307004 -0.1173868105 -0.1467999965 0.0922812819 -0.0855735168 -0.1683644950 0.0233627521 -0.0759896487 0.2429433465 0.0706510767 0.3957924247 0.4697164297 0.4521020353 0.0271268599 0.0714158416 0.2939874828 -0.0708851889 -0.1746589094 -0.1280359328 0.1810282171 0.3548688591 0.2805341482 0.0699870288 0.3352243602 0.1088138446 -0.1020268798 -0.0995678380 0.3245583475 0.2012304664 0.3500199318 0.2689241469 -0.1905495822 -0.2162670046 -0.1121170595 0.1614669114 0.1486233622 0.3838191926 0.1716527194 0.1031196713 0.1904036552 0.2925070226 -0.0667119846 -0.0804884434 -0.0890360475 -0.0367267057 0.0081851101 0.5590505004 0.1322871000 0.4581675231 -0.0631377622 0.0942343697 0.1768773496 0.1481623054 -0.0958205983 -0.0837207511 -0.1013509035 0.3414083719 -0.0746221095 -0.1487341821 0.3071312308 -0.1945901215 0.2355874777 0.0091522196 0.0878499821 0.1669773012 0.1187053621 0.2283852696 0.3260433376 0.2397906929 0.1789977700 -0.1331578195 0.2198348343 -0.1697002798 -0.1547979265 0.4605779350 -0.2888504863 -0.0701564029 -0.1084064916 0.0550626591 0.0219051410 -0.0842340365 -0.1195175797 0.1619554460 -0.0806286857 0.1600835025 0.1371282190 -0.1220541075 0.2844590843 -0.0016295662 0.0075245616 -0.0697310865 -0.1390657425 0.0363703184 -0.1822945923 -0.1679283977 0.0889958590 0.2940233052 0.3476484716 -0.0102977306 0.0921597704 0.1326066405 0.4993348718 0.0228339490 -0.0417783707 0.0193585567 0.0356924944 0.0781389400 0.2499905527 0.2900718451 0.1274142563 0.0506189503 -0.0915209278 0.0394345410 -0.0306086205 0.1008173376 0.0099822553 -0.0959362388 0.0688257292 0.1714719683 -0.2366895080 0.1473300457 0.2797125578 -0.0573577844 0.1920864135 -0.0111195492 -0.1241184026 0.0839313939 -0.0154171865 0.2000645846 -0.0870605484 0.0579108223 0.2053425610 -0.1022156700 0.0528696664 0.3056915402 -0.1407523751 0.0665493980 0.2070811540 -0.1676558554 0.0560841486 0.1741563976 -0.0498833880 -0.1585891098 -0.0051140413 0.5288573503 0.2561239600 0.3812327385 0.5086489320 0.0304753520 -0.0472837053 0.2121583223 -0.0119526004 0.1174157038 -0.0202049315 -0.1155042872 0.1171068922 -0.1485861242 0.2962127328 0.6214649081 0.2556266785 -0.0843839049 -0.1514479667 -0.0108209644 0.2431515157 0.3111094534 0.1501240879 0.4838754535 0.4316542447 0.3362496197 -0.0859592855 0.3252357841 -0.0242726989 -0.0115241753 -0.1734710038 0.1046168655 0.4283682704 -0.0222493336 -0.0857832208 0.1215577200 0.5059050918 -0.0962972268 0.5685573816 0.0041338988 -0.1172043234 0.2758523822 0.0394789651 0.2401193976 -0.0317530073 0.2888088226 0.2169018090 0.2739163935 -0.0598592125 0.1451807320 -0.0867642090 0.0146969371 0.1163286567 0.1439250857 -0.0240012743 -0.0604770184 0.5294951200 0.2195793986 0.1075283289 0.0499418601 -0.0287153572 0.3187485337 0.2492282093 -0.1282172352 0.2099921405 -0.1390586495 0.1077696979 0.0744845048 0.4390521348 0.1739647537 0.1832920015 0.1953219771 -0.1373092085 0.1057901829 0.3073155880 -0.0802056268 -0.1010660231 0.2424709797 0.0430000089 -0.0541663319 -0.2207410187 0.1338713318 0.0217191447 0.0762480348 0.0251917336 0.0368614756 0.2675180435 -0.0359393433 0.1520172358 0.3538053632 0.0918353721 0.1248061657 0.4894094765 0.3670863807 0.1017205492 0.2101712525 0.2567317784 0.2571234703 -0.0462835729 0.1394499540 -0.1114029512 0.0006554448 -0.0269910004 -0.1077004299 0.1794994175 0.2128361017 -0.0172508825 -0.0028999981 0.4281763136 0.2218229920 0.0529702157 0.4906619787 -0.0668589324 0.0042924690 0.3337294161 -0.0154448878 -0.1161355376 -0.0293321349 0.0860925987 0.5301868320 0.0241021812 0.3309064806 0.0256651193 0.0766975954 -0.0102605913 0.2048628330 0.2399900854 -0.0354513042 0.0151521023 0.0789747909 0.2466610670 -0.1452354342 0.4187440574 0.3471382260 0.0278862491 -0.0513748862 0.4180567563 0.1632713377 0.1840577126 0.1956625730 -0.0338837430 0.0706581175 -0.0044475049 0.1182689592 0.0057705753 0.3471561670 0.0585319288 -0.1107442528 -0.0735026076 0.1579682976 0.1179783940 0.4843384326 0.0024668658 -0.0445520543 0.3222586811 -0.0374250561 0.0380224027 0.0354584455 0.0187965073 0.1324813366 -0.0717725158 0.3923753798 -0.0297241602 -0.1140021831 0.5625270009 -0.0720353499 0.1128133312 0.3560538590 0.0969704837 0.2108519822 0.3092514873 -0.0181966946 -0.1641030163 -0.0539139807 0.0775308684 -0.0472310930 -0.0906020626 0.3998275697 0.3197678328 -0.0228884686 0.3210247159 0.3408522606 0.0530927107 -0.0581919923 0.3012860417 -0.0107744345 0.3708673716 0.3845526874 0.2107556164 0.3142677546 0.3374332190 0.1182597876 0.5441938043 -0.1093503311 0.2445907891 0.2537990510 0.3190660179 -0.0914254859 -0.0999007747 0.1641370356 0.1043933779 -0.1330153793 -0.0332942903 0.1815746129 -0.0936862081 0.3122833967 -0.1852147430 0.1760146916 -0.1507198513 0.4734073579 0.2037304342 0.0219660383 -0.0760575384 0.1178288683 -0.1409366429 0.1253224909 -0.2077803910 0.0928794816 -0.0749958679 0.4792719483 0.1026229039 -0.0278537534 0.2932294607 -0.0375119485 -0.0590240173 0.0309731662 0.5700113773 0.2316056639 -0.0690596402 0.1041291058 -0.1874927282 -0.0714761019 0.1701318771 -0.2277898490 -0.1084413081 0.3552349210 -0.0678579658 0.1190984994 0.1241661981 -0.1068209857 0.2897416353 0.1642134786 0.2776993513 -0.0598908179 0.2603555322 0.2261436135 0.2160635740 0.4774030149 -0.0486877151 0.1104642227 0.4004402757 0.2260239720 0.5544851422 -0.0391083844 0.0999785885 0.3166137338 -0.0318656527 0.2137763351 0.2411433756 0.1009643376 0.3896108866 -0.1931214631 0.1365183294 -0.1570010483 0.1631021053 0.1872156858 -0.0391683765 0.0168250203 -0.0503682047 -0.0454648882 0.2418888807 0.3113152087 0.2594698966 -0.1240470856 0.3521857560 0.0635432154 0.2446652949 -0.1892084628 0.1636918634 0.0058193943 0.1484336853 -0.1180763319 -0.1213659346 -0.0986356288 0.2040315866 0.2839359939 -0.1022883803 -0.0087314639 -0.0343588218 0.2401273251 -0.0337379426 -0.0283496864 0.0864277259 0.0703947917 -0.0493744388 -0.0844368786 0.0029051472 0.1993802637 0.4165796340 0.2263372689 0.2442034930 -0.1520150453 0.1654548049 0.0696500838 0.6459754705 -0.0203015152 0.1906756759 -0.0475959405 -0.0569443218 0.2184945345 0.1109806299 0.4350394607 -0.0747480839 -0.2174526602 -0.2252385765 -0.1275378913 0.1000573337 0.1536915302 -0.2324527949 0.4815799296 0.3001770377 0.0689103752 0.0249008741 -0.0765934587 0.3234186471 0.1221714914 -0.0835050195 0.2021605968 0.4638730884 -0.1939890683 -0.0302403942 -0.0766660795 -0.2262162417 0.3508766592 0.4807043672 -0.1148546115 0.1642785370 0.3289073706 0.2324151248 0.3428434432 0.2158729285 0.2672712803 0.5354763865 0.2767950594 0.2027777135 0.0611048192 0.4203981757 0.1863773465 0.3786203265 0.0057965638 0.3548352420 -0.1081487685 0.0292979367 0.1012318209 -0.1776610464 0.4945329428 -0.0698141903 -0.0112385433 0.3931756616 0.1071942672 -0.0923321992 -0.0060178982 0.4993486106 0.1527490914 0.3770850301 0.1847643405 0.0224245042 0.2465202659 -0.1182561070 0.4213141203 0.0678064898 0.0861030594 -0.1054638103 -0.0605794154 0.1788730621 -0.0862051472 0.0307414178 -0.1855887026 0.2098464072 0.1025236249 0.3620440066 0.1370559037 0.8984143734 0.2077868879 -0.0281773955 0.4007453918 0.4170956016 0.1150695235 0.4662732780 -0.0862958655 0.3172733188 0.0229512975 0.3679016531 0.4369076192 0.2980957329 -0.0755507648 -0.1725670546 0.2109361887 0.3330875635 0.5827715397 0.2741585374 0.1818793118 0.1626311839 0.2060584426 -0.2350977659 -0.0967638344 0.1289798319 0.1575316638 -0.0754631311 -0.0302786790 0.2747786939 -0.1332970858 0.3501929641 0.2431384027 0.3745757043 -0.1449306607 0.2748049200 -0.0195301622 0.3023894727 0.2177274823 -0.0393299051 -0.2268158495 0.0298000108 -0.0596270151 0.0405074507 0.1795365661 0.0617646314 0.1901291311 -0.1390239149 0.1611558348 -0.0677058920 -0.0799637362 0.1685522795 0.2136963755 0.1405720115 -0.0877280980 -0.0695485845 -0.0440849476 0.0401008241 -0.0834118873
