014970cac519140b97ba8425e122956e__74.62_86.49 0.0240514707 0.1224342436 0.3860760629 0.1855309755 0.0044616181 0.3950858712 0.7093304992 0.0570299327 0.1005087346 0.5122131705 0.2119568288 -0.0388130918 0.0672493204 0.0181672070 -0.1022718102 -0.1690637916 0.1693366319 0.1290000677 -0.1718337238 -0.1265545934 0.0488072187 0.3067918420 -0.1126685441 0.2210125178 -0.0691510960 0.1822262406 0.0493237227 0.3336090446 0.2461319268 0.1587169468 0.0940173864 0.1649671048 0.4601112902 -0.0512691289 -0.2333720177 0.1334857643 0.1317094564 0.0750055239 0.0681402832 0.1805363297 0.4279738069 0.1924866438 0.1828747690 0.4659782052 0.3653472066 0.5966109037 0.4291158319 0.4329843223 -0.1799566150 -0.2259063572 -0.1215486750 0.1160274893 -0.0352410227 0.2478074133 0.0803170204 0.1807981282 0.2659184337 0.0778685957 0.1172719896 -0.1032956690 0.0565717034 -0.1169604138 -0.0118036186 0.4072884917 0.1789760441 0.2848714888 -0.0858861580 0.4688330591 0.5164351463 0.4523300529 -0.1152652428 -0.1063821092 -0.0998269841 0.4825885296 -0.0039531779 -0.1935979575 0.0391520485 -0.2163922936 0.0969180688 -0.0462493114 -0.0670482665 0.2380819172 0.1326459199 0.2115745693 0.1964135468 0.7252936959 0.2626596391 -0.1424261928 0.6106868982 -0.1828633249 -0.2112055123 0.4314317107 0.2157538235 -0.0610531420 -0.1290026307 0.1038082615 -0.0588743836 -0.1134663969 -0.1406608969 0.0626446456 -0.0699914545 0.1409521699 -0.1144273803 -0.1501337588 0.3921763003 -0.0723016635 0.1289216280 -0.1102905869 -0.1308856010 -0.0300446358 -0.1861663908 -0.1798224300 0.0300446991 0.2936486006 0.0778121278 0.1093407720 -0.1372270435 0.0334464796 0.4268471301 -0.0637056604 0.0306974370 0.1335814148 0.2336332649 0.4581005573 0.4864214957 0.2224126458 -0.0401707627 0.0709947795 -0.1252821535 0.3244479299 0.2090148032 0.2668951154 0.0707997531 -0.1787037998 -0.0139255468 0.0574332327 -0.2415644377 0.0992602333 0.3414214253 0.1145674735 0.2634290159 0.0323626660 -0.1418634653 0.2720151842 -0.0715275928 0.2176234722 0.0580544882 -0.0059284358 0.0369741172 0.0417147204 0.0545282587 0.1771555543 -0.1351315528 0.0468322858 0.2445044070 -0.2113665938 0.2334227413 0.0857198313 0.1125038192 -0.0072018728 0.0147451721 0.3591081500 0.0486710332 0.5829318166 0.5379499197 0.0100934645 -0.0836130455 0.5353593826 -0.0841054991 0.0537529513 0.0525539331 0.0242992528 0.1903909147 -0.1460301876 0.1969929039 0.7304804325 -0.0221935324 -0.0498885848 -0.1502363384 -0.0531085879 0.1055832580 0.3272040784 0.2032592148 0.3483588398 0.4101643562 0.5059916973 -0.0638390183 0.3134482503 -0.0089893416 0.0093538230 -0.0001256056 0.2468482405 0.3768802881 0.0044122096 -0.0976669416 -0.0358360820 0.2830664814 -0.1113473698 0.6197888255 -0.0286349487 -0.1646296680 0.4995602369 0.1595093906 0.0081458716 -0.0402807891 0.4247105122 0.1159868166 0.1135981828 -0.0918666869 0.2267800272 -0.0760563761 -0.0149219390 0.1788472682 0.2795253694 -0.0727653429 -0.1859678924 0.1964267194 0.4081075191 0.1463074684 0.0100773703 0.1589822918 0.3989204466 0.0735122189 0.0498741157 0.4903572500 -0.0979723781 -0.0024751751 0.4946036339 0.1939117610 0.0281903390 0.0906811208 0.1667523086 -0.1741096526 0.1380698681 0.4512530565 -0.0861299038 -0.0759912953 0.1097043678 0.4682341814 -0.1341034025 -0.1843900084 0.0297056306 0.1377692670 0.2773465514 -0.0468622372 -0.0360301100 0.2292558253 0.1935701817 0.1494633704 0.2620617747 0.0268954206 0.0212813243 0.2845029533 0.3603914678 0.3521236181 0.0779194608 0.0685858279 -0.0050808825 -0.0880479887 0.2725866437 -0.1104333028 -0.0449753813 0.2826687098 -0.1522543132 0.2610057592 0.2542730868 0.4052849114 -0.0041721454 0.4748622477 0.0556734577 0.1224332675 0.5859824419 -0.0955423564 -0.0297380183 0.2332849801 0.1209420189 -0.1673310101 0.0731893852 -0.0202067941 0.4776225686 0.0131521625 0.5909730792 0.3375571966 0.0630724803 0.0080630705 0.3172453940 0.2337263525 -0.0244330633 0.1570795923 0.0199361779 0.2801606655 -0.1510627717 0.5721974969 0.3743497431 0.0188376196 -0.0043671080 0.0927139297 0.2148286700 0.4377328157 0.4778948128 0.0294091646 0.1512436122 0.2752202451 0.0887443796 0.1919518411 0.3582935035 -0.0425612442 -0.1794080436 -0.0325836614 0.0864712074 0.1476628035 0.4365966618 0.0314955711 -0.1141526327 0.2845413387 0.1168747246 0.0693076402 0.0338217169 -0.0410742834 0.2110230923 0.0411487147 0.2864528894 -0.0972618610 -0.1477679908 0.6254033446 -0.0627430305 -0.0695399940 0.5072284341 0.1662246436 -0.0743894279 0.3288346231 -0.0781935453 -0.1150030494 0.0822327286 0.0167629458 -0.0547211915 -0.0877593830 0.6501231194 0.5891382694 -0.0475507900 0.0791893378 0.0449986160 0.1447393894 -0.0346385464 0.0718415678 0.2358197123 0.0708759576 0.4046665132 0.6894310713 0.3422656059 0.0134323575 0.4904361367 0.2452828288 -0.1113026142 0.4396442771 0.3858837485 0.3058383465 0.0882396027 -0.1117692366 0.2166949213 0.1519981176 0.0681367069 0.1326764375 0.1576290727 -0.1488037705 0.3503000140 -0.2365143895 0.1579564065 -0.1912283152 0.4287663102 0.2819471061 0.0257130936 -0.1101423129 0.5335539579 0.6024767160 0.2879904211 -0.2007568628 0.2927855849 -0.2055115253 0.5690775514 0.1678337455 -0.0306258760 0.5041577816 0.0657670498 -0.0881713629 0.0316764526 0.2243518829 0.0823136345 -0.0494278036 0.2099818587 -0.1808893383 -0.0980699956 0.2949124575 -0.2706715763 -0.1443035752 0.0743264481 -0.0922006518 0.1603168547 0.1223477274 -0.1283360571 0.2184726894 0.0584109277 0.1227861792 0.1078015566 0.2289327830 0.2817946076 0.2301334143 0.0602055937 -0.1180097312 0.0796879157 0.5596872568 0.1222719997 0.4225188494 -0.0204662997 0.0215864368 0.4156981111 -0.0278920047 0.6328471303 0.0930490345 -0.0406161696 0.5181505084 -0.1508129090 0.0950034484 -0.1695418358 0.0281557385 0.3171422184 0.3951569796 0.0673646480 -0.1296570450 -0.1638856381 0.7259120941 0.3648924232 0.3828298450 -0.1330705732 0.3762159050 0.3074685931 0.0545129366 -0.1967667490 0.6690136790 0.0763689801 0.3075948656 -0.0490228124 -0.1424995959 -0.1520779133 0.3683879375 0.2775206268 -0.1150302365 0.2911958694 -0.0617459342 -0.0276616476 -0.0470659286 0.0936621428 0.1730396301 0.0323572904 -0.0380843431 -0.1007171944 0.1891129315 0.1713715047 0.0070393742 0.4016602635 0.3844022155 -0.1338868290 -0.0142634781 0.0808939785 0.6564070582 0.0487284437 0.0469514281 -0.0906296968 0.2761105597 0.1459863931 0.3954794407 0.3144736290 -0.1191361248 -0.2381262034 -0.2475402504 -0.2194534838 0.0766271278 0.2826234102 -0.2699851096 0.2435274869 -0.0064762188 0.3887129724 0.4430135787 -0.0956796631 -0.0365726277 0.2352647483 0.2457782477 0.0244177319 0.0487939343 -0.2431462556 -0.0296754427 -0.0985061377 0.1107115149 0.2433125377 0.1391360015 -0.1257611066 0.0901082382 0.2477646619 0.2637392879 0.1313818097 0.2766018510 0.4151261449 0.3081744015 0.4371247292 0.5367859602 0.7196855545 0.2273136377 0.0438699573 0.4267142713 -0.0089018578 0.3864868283 -0.0819967687 0.1418626010 0.0190207623 -0.1571214050 0.5208184719 -0.1567185372 0.3464936614 0.0519713610 0.1404234916 -0.0918492153 0.0213574618 0.3909719586 -0.0119269127 0.5099436045 0.2658605874 0.1131452248 0.0748447478 -0.1021112800 0.5181444287 0.0820891261 0.1632317305 -0.1455273330 -0.0454325229 0.1059694663 0.0556115992 -0.0235910993 -0.1327179521 0.3121610284 0.2267476022 0.2878414989 0.1869708747 0.7432921529 0.6130869985 0.2013349235 0.5070359707 0.1133335829 0.3806958795 0.5876868367 0.0730399787 0.3980808258 -0.0379432552 0.4361467063 -0.0355610289 0.5255177021 -0.0423320681 -0.1199995503 0.1431225389 0.4255053997 0.5778262615 0.4673495591 0.0678006411 0.3695147634 0.1065877303 -0.2622937262 -0.1669539511 0.0179502554 -0.0557567291 -0.1210661754 -0.1036953554 0.1679698229 -0.0994911566 0.6878890395 0.0840500742 0.0343925767 -0.2095569670 0.0900612772 0.0016652346 0.4947783053 0.3904842734 -0.0661490783 -0.1904842556 -0.0259447061 -0.0395323634 0.0996931195 0.2612608075 0.0214220397 0.0982833654 -0.1581647247 0.2865341008 -0.0757500902 -0.0790550634 0.3490118682 0.4290444553 0.3028998077 -0.1441367567 -0.1192104593 -0.0831160992 0.0326841846 -0.0526303463
015c24097909f22590f525063c1f75b0__232.72_248.03 0.0112928301 0.0744693726 0.4671844244 0.0455408320 0.1047922745 0.2654275000 0.7586742640 -0.0471639484 -0.0114794504 0.5834850073 0.1683865935 -0.0219683871 0.0793284923 0.0072207777 -0.0861948505 -0.1906193793 0.2200715393 -0.0060224310 -0.1601040214 -0.1144925058 0.1418596655 0.3187107146 -0.0849578977 0.1164278835 -0.0444907285 0.1209433898 -0.0108009744 0.1082962304 0.3291811347 -0.1273347139 0.1866625845 0.1364265829 0.3105704188 -0.0803066343 -0.2350618988 0.2634276748 0.3114871681 -0.0373195931 -0.0585648976 0.1568327993 0.4380424619 0.1698433608 0.1651750803 0.4488681257 0.4694608748 0.5014281869 0.4609210789 0.3759779632 -0.1489180326 -0.1867398620 -0.1150186658 -0.0534463674 -0.0758160278 0.2784647346 0.0178129785 0.2103737295 0.5025669932 0.0044099167 0.0139090503 -0.1366857290 0.0747632980 -0.1304246485 -0.0125579350 0.4554796517 0.0186276045 0.5219839811 -0.0684943050 0.3279621005 0.3932512999 0.4925909042 -0.0839243457 -0.1278259009 -0.0680788234 0.3217734396 -0.0233887397 -0.1862587631 -0.0032136161 -0.1739076227 0.1371748298 -0.0397851095 -0.0021044468 0.2193797976 0.1853635460 0.3035194576 0.0732762665 0.7051666379 0.1466927081 -0.1289409548 0.7075462937 -0.1681944132 -0.2159354240 0.5856484175 0.2860700488 -0.0380223431 -0.1125446185 0.1583913416 -0.1789519638 -0.1030279249 -0.1566340029 -0.0830419138 -0.0559531525 0.0712898821 -0.0141767124 -0.1368924826 0.3199009597 -0.0852397010 -0.0365286730 -0.0980685353 -0.1030596346 -0.0367855616 -0.1630969942 -0.1989202946 -0.0423331335 0.3506109715 0.0954275802 0.0139027666 -0.3003716469 0.0873381048 0.2896479070 -0.0319552943 0.0671890303 -0.1407375783 0.3040882349 0.4558537900 0.5405483246 -0.0204058774 -0.2522478402 0.1069740355 -0.1332939118 0.2250320166 0.3530564904 0.1709414274 0.1446501762 -0.1638266891 -0.1235807538 0.0714819953 -0.2054326534 0.1059051529 0.3634331822 0.0446695276 0.2966156006 0.0382433720 -0.1453567892 0.2321239710 -0.0592117012 0.1862651557 -0.0141558740 -0.1387108862 -0.0403268300 0.0021064910 -0.0014802718 0.1885940731 -0.1197981015 0.0300049856 0.2528440058 -0.2073941678 0.1738383919 -0.0315177515 -0.0572630428 0.0177457668 -0.0102265552 0.4440833926 0.0833999068 0.8341331482 0.5823966265 0.0419348627 -0.0668623224 0.4864926636 -0.0651014149 -0.0084605590 0.0282571502 0.0654309914 0.2767229378 -0.1307006478 0.1956563145 0.8527414203 0.1443527490 -0.0475372635 -0.1408240199 -0.0784075782 0.1073180214 0.2099010497 0.1768689603 0.3832493424 0.3897773623 0.5757888556 -0.0382658169 0.4039189219 -0.0259500146 0.0519559607 0.0078505864 0.2274259478 0.5493407249 0.0254654754 -0.0901285186 0.1075024381 -0.0730461404 -0.1344286799 0.3418399692 -0.0415348001 -0.1393602192 0.4569351971 0.1811973751 0.0466234200 -0.0461206362 0.3091712594 0.1540752053 0.1310814023 -0.0923669115 0.2140559852 -0.0730192512 -0.0549593158 0.0519000068 0.2516365945 -0.0711986274 -0.2019569576 0.0200933553 0.4617253840 0.1464075893 -0.0387550294 0.1431176215 0.3524946272 -0.0955601186 0.1198814213 0.5715431571 -0.0768532082 -0.0626658276 0.6413633227 0.2369738817 0.2082972378 -0.0259379577 0.0495393947 -0.1281661838 0.1526732147 0.5024568439 -0.0704389736 -0.0399110690 0.1689225286 0.5165612102 -0.1470626891 -0.1921562701 -0.0129361171 0.1041952744 0.3895835876 -0.0215134900 -0.0966630578 0.2604807615 0.1922819614 0.0781474262 0.4027051628 0.0320823863 0.0576897562 0.2926915288 0.5467807055 0.1630269438 -0.0635240525 0.0805724710 -0.0119435750 -0.0673152432 0.3502099514 -0.1260667741 -0.0290317293 0.2973314524 -0.1114985570 0.0950668082 0.0579893254 0.4698427022 -0.0389422290 0.5186253190 0.0387135297 0.0678699464 0.4230247438 -0.0874383152 0.0079959137 0.0553296581 0.0034527574 -0.1611435711 0.0416313782 -0.0579919443 0.5634940863 -0.0114246877 0.4856100678 0.5516226292 0.0546324849 0.0195218511 0.2594216764 0.2127994597 -0.0132981790 0.2060482651 -0.0453086644 0.1016990244 -0.1582363248 0.6148902178 0.5381209850 0.0137645341 0.0082407538 -0.0214346573 0.1517200768 0.3260622323 0.3319791257 0.0268449336 -0.1218501031 0.3692016304 0.1305517703 0.2243984789 0.2270814627 0.0506675504 -0.1764362007 -0.0084118377 0.0207161885 0.0385423973 0.4205503166 0.0342780501 -0.1072896048 0.4024322629 0.0267477427 0.0581267588 0.0393285677 -0.0038904389 0.3141777813 0.0516710654 0.3110134602 -0.0964839607 -0.1122980937 0.3190148771 -0.0259918924 -0.2738106549 0.6063467264 0.1367336363 0.0927404463 0.3376285434 -0.0598628223 -0.0997036099 0.1171043068 0.0572735332 -0.0576180182 -0.0612978004 0.8378107548 0.6728992462 -0.0254904628 0.1595012397 0.0227681603 0.0995302498 -0.0181751736 0.0692845657 0.2586233616 0.0218093749 0.4424248338 0.5993181467 0.4375442564 0.0378709994 0.5966725349 0.2215066701 -0.0644354373 0.5205753446 0.3850644231 0.4141862690 0.1130378768 -0.1256628782 0.3267650306 0.1646706164 0.0156123610 0.1180742308 0.0015997216 -0.1735580862 0.4459131360 -0.2053235322 0.1923632622 -0.2146826237 0.5412893295 0.3809731603 0.0507750399 -0.0918810815 0.5973985195 0.5313066840 0.3835602999 -0.2123127133 0.2457274944 -0.2306889147 0.4197171032 0.1407798529 -0.0443355329 0.5203530192 -0.0341137052 -0.0555547625 0.0032047192 0.1399592459 0.1983601600 -0.0207509566 0.2335344404 -0.1595161259 -0.0809995979 0.1718699783 -0.2840367258 -0.1327419132 0.0557230413 -0.1212903410 0.2436251342 0.1889932454 -0.1068085283 0.3509974480 0.0537044927 0.1029120982 -0.0370620415 0.4343990386 0.1570708007 0.2798032463 0.0241806842 -0.1347150952 0.0152232880 0.5931390524 0.1794243604 0.1638806462 -0.0130971409 0.0049127368 0.3742892742 -0.0101087950 0.6637106538 0.0076921619 0.0869931504 0.5692256689 -0.1142363921 0.1270838380 -0.1596240848 -0.1456888616 0.2612725794 0.4078425169 -0.0237740241 -0.1452431530 -0.1541477889 0.8313816786 0.4504409730 0.4526666105 -0.1082530618 0.3781710267 0.1141865551 0.0894646719 -0.1650685072 0.7682009339 0.0888492391 0.4352580309 -0.0226297937 -0.1312911510 -0.1716272384 0.2923341095 0.0315489322 -0.1147075370 0.2607197165 -0.0653404295 -0.0550432578 -0.0316456147 0.0482679941 0.1863839179 0.1295618117 -0.0327841528 -0.0657816231 0.1933985353 0.1800883561 -0.0032644062 0.3435238004 0.2936979830 -0.1374168843 -0.0480885580 0.0689028502 0.5668398738 0.0892227441 -0.0284216199 -0.0860511512 0.2124966383 0.1431248337 0.4470024705 0.3549968004 -0.0839478448 -0.1986451447 -0.2126884311 -0.2234514803 0.0662365034 0.2467437834 -0.2752179801 0.2661528885 0.0029814495 0.2898259163 0.2373245358 -0.0682331920 -0.0075266473 0.2672519088 0.3000374734 -0.0336849838 0.1677944660 -0.1977553219 -0.0020213765 -0.0868748873 0.0004649153 0.1321870089 0.1263318956 -0.1339190602 0.0011737547 0.2837188840 0.2126508504 -0.0300013348 0.0757843256 0.3430204093 0.1278831810 0.5027101040 0.5932912230 0.8188788891 0.2737412453 -0.0604538098 0.4360362291 0.0023760600 0.2955215871 -0.0495473519 0.2039913535 -0.1253578663 -0.1332216561 0.5809133649 -0.1557402313 0.3024713397 0.0793962851 0.1019269004 -0.1085571498 0.0647027269 0.5267957449 -0.0595031455 0.4156155288 0.1902910769 0.3055935204 -0.0137994215 -0.0827149600 0.3609116673 0.1458026767 0.2207548916 -0.1080524996 -0.0111871911 0.1781792492 0.1223846450 -0.0045651137 -0.1001278386 0.2483107150 0.2638468146 0.0476529598 0.1298822463 0.7965046763 0.7393870354 0.1989701390 0.5121691823 -0.0409120247 0.4961402118 0.6866928339 0.1363075674 0.3362377286 -0.0418395773 0.6121149063 -0.1799544692 0.3869597912 -0.0391124338 -0.1158476993 0.1520058662 0.3098491430 0.6353648305 0.5645123124 -0.0972123817 0.3158922195 0.1414704919 -0.2566300035 -0.1617320329 0.0313461050 -0.0353773646 -0.1235928610 -0.1003497615 0.1591340899 -0.1228271797 0.4921452105 0.1197075993 -0.0746557266 -0.2348584682 0.1717921346 0.0265295431 0.6567903757 0.2566772103 -0.0595954321 -0.1638464630 -0.0324197970 -0.0497203842 0.0829109848 0.2566775978 -0.0315887742 0.0045577679 -0.1330984980 0.4286927581 -0.0514047742 -0.0877081677 0.3366579413 0.3709158897 0.1894777417 -0.1403894126 -0.1138234884 -0.0767998248 0.0488643907 -0.0867047533
04af33e1cd6b6843c8b7e14390a846f4__2448.65_2504.29 0.0382920690 0.1040421799 0.2766231596 0.2772442997 -0.0019115133 0.3491308987 0.5263073444 0.0787310377 0.1055467799 0.3214471936 0.1555334628 -0.0342771821 0.0806525052 0.0853010193 -0.0883954093 -0.1229717582 0.1089498848 0.1502943337 -0.1373113394 -0.1335394531 0.0335949436 0.1714810878 -0.1209274009 0.1846556216 -0.0808617249 0.1916518956 0.0882257819 0.4054538608 0.2407019883 0.3718003631 0.0888670683 0.1289713681 0.4254144132 -0.0327958427 -0.1893073320 0.0184450410 0.0869213641 0.2003614604 0.1786594838 0.1398255676 0.3255284131 0.1419009715 0.0994424075 0.2960212231 0.2694902420 0.4664330781 0.3374433517 0.3536507487 -0.1742503047 -0.2184456587 -0.1093187183 0.1964619905 0.0552566275 0.2322539538 0.1467243433 0.1215343773 0.1469789892 0.1674545556 0.1169959158 -0.0757922754 0.0249675158 -0.0791793764 -0.0095395921 0.3723852336 0.2373446226 0.2036467642 -0.0800603703 0.3747640550 0.4248263538 0.3008714318 -0.1135487780 -0.0869088694 -0.1125263423 0.4446090162 -0.0188777745 -0.1725251377 0.1408881992 -0.2043718845 0.1422607899 -0.0261592306 -0.0397948921 0.1887281537 0.1257398576 0.1563750505 0.2494787127 0.4998886287 0.2715164721 -0.1304910183 0.3873080611 -0.1721136570 -0.1761006415 0.3296541572 0.0505422056 -0.0764144436 -0.1207957789 0.1001161560 0.0217479635 -0.0861778483 -0.1150161624 0.1576174796 -0.0776822567 0.1505891085 -0.0665342361 -0.1399086863 0.3342494667 -0.0387370326 0.1912103146 -0.0870576724 -0.1263424754 -0.0143273268 -0.1693057269 -0.1624819338 0.0577031970 0.2812518179 0.1622631550 0.1467590183 0.0050290427 0.0427131727 0.4266004562 -0.0403261147 0.0154244052 0.2406446785 0.1264482737 0.2989968657 0.3638899624 0.3547602594 0.0815555900 0.0408661850 -0.1062422022 0.2608255744 0.0820841044 0.2329700440 0.0294121839 -0.1514012665 0.0416378342 0.0947010145 -0.2224753499 0.1053813621 0.2658017576 0.1398946643 0.1870500445 0.0040891757 -0.1218648404 0.2059749961 -0.0485208705 0.1977445632 0.0808086023 0.0501623042 0.1114547402 0.0373420343 0.0852378830 0.1895788312 -0.1411445439 0.0475356095 0.1866069883 -0.1756973565 0.1843689382 0.1794612557 0.1571416855 -0.0397696085 0.0245580040 0.3180308640 0.1011777967 0.3570446074 0.4161596894 -0.0008285213 -0.0673776343 0.3923244476 -0.0690707192 0.1105444357 0.0514479354 -0.0052797711 0.1236896291 -0.1356084943 0.1853150129 0.5622227788 -0.0146618467 -0.0599921308 -0.1488277316 -0.0157048907 0.1347726882 0.3160682619 0.1743622720 0.3346794546 0.3566820025 0.3381921351 -0.0654312596 0.2542806864 0.0011735838 -0.0068507721 -0.0296527110 0.1856078655 0.2829414010 0.0039572753 -0.0949759856 -0.0429773852 0.4666667283 -0.0908517763 0.6292235255 -0.0082458071 -0.1488252729 0.3837252259 0.0917159691 0.0729525685 -0.0338431597 0.3742761016 0.1368348598 0.1308379620 -0.0808382705 0.1865815520 -0.0711827651 0.0056786849 0.1983177811 0.2098654062 -0.0549453683 -0.1210001931 0.3341126740 0.2441757023 0.1088517010 0.0384531841 0.1023103595 0.3240582943 0.1919032633 -0.0131889004 0.3326637745 -0.1143008545 0.0497694835 0.2736625671 0.2236060351 -0.0032630502 0.1808541417 0.2147360444 -0.1651662290 0.1029141396 0.3476317227 -0.0888836384 -0.0810849965 0.1171594784 0.2735527754 -0.0833833069 -0.1776832044 0.0851842314 0.1358579397 0.1529406607 -0.0270131957 0.0115570361 0.1873223782 0.1323110014 0.1479197443 0.2378786802 0.0480848104 0.0575322509 0.2940942347 0.2261482924 0.3316451907 0.1739806533 0.1182348728 0.0719742924 -0.0734215230 0.1810112298 -0.0980651975 -0.0438094325 0.1992160976 -0.1392844319 0.2804966271 0.3069970906 0.2332823128 0.0032757695 0.4064061046 0.1242828518 0.1312089562 0.5405594707 -0.0926243812 -0.0218455903 0.2944760025 0.1261404902 -0.1437899321 0.1142656207 0.0259768963 0.3791446090 0.0171500966 0.4774306118 0.1540639400 0.0605689511 0.0016821874 0.2467605621 0.2048192024 -0.0372979045 0.0935468450 0.0507825129 0.3356325328 -0.1327823251 0.4433025718 0.2455130666 0.0218070783 -0.0199748352 0.2320579588 0.1935175210 0.3618632257 0.4143083394 0.0217049513 0.2645022571 0.1413142681 0.0758984163 0.1108216643 0.3514751792 -0.0472561903 -0.1521422714 -0.0501191840 0.1211689115 0.1743862182 0.4130991399 0.0408161879 -0.0881435648 0.2022295296 0.1341832131 0.0578221865 0.0314539410 -0.0338466875 0.1294971555 0.0136662908 0.2710607052 -0.0697399527 -0.1256329268 0.6581901908 -0.0760130510 0.0647572353 0.3577663302 0.1457953006 -0.0576621480 0.2944796085 -0.0605640300 -0.1253370345 0.0412276238 0.0365002826 -0.0584737211 -0.0992449522 0.4403603971 0.3939965665 -0.0546379574 0.1231870353 0.1472109407 0.1175205633 -0.0392856002 0.1455868781 0.1398042738 0.1779364049 0.3371317387 0.5241200924 0.2660134435 0.1072509065 0.2870857716 0.3011685014 -0.1199745685 0.2875899673 0.2865559161 0.2134546787 0.0651896000 -0.0989802107 0.1356149465 0.1021808386 0.0548870228 0.0832992792 0.2569200397 -0.1197572351 0.2737587094 -0.2057958990 0.1429531574 -0.1374869347 0.3229946792 0.1909907758 0.0460024588 -0.0968114883 0.3187939823 0.3882195055 0.1723047197 -0.1966091245 0.2313445359 -0.1299388409 0.5222263336 0.1465267539 -0.0263015479 0.4029567242 0.0887902379 -0.0811092481 0.0401869752 0.3206315637 0.0927714929 -0.0599631555 0.1613143533 -0.1719615310 -0.0892584026 0.2867655456 -0.2318279445 -0.1173042059 0.1730069220 -0.0675407723 0.1112446412 0.0760840699 -0.1094169319 0.1918880641 0.0986160785 0.1830898076 0.1363564730 0.1631425917 0.3007873595 0.1824413687 0.2099948227 -0.0800445229 0.0974711999 0.3978178501 0.1152909547 0.4851781428 -0.0295933541 0.0695706606 0.3295058608 -0.0398763008 0.4175177515 0.2006713301 -0.0356974453 0.3801441193 -0.1807906628 0.0963204727 -0.1547390968 0.1368885338 0.2582654357 0.2255055904 0.1072522253 -0.0834631398 -0.1103978381 0.4633083940 0.2565299869 0.2442116290 -0.1229130477 0.3094480634 0.3061141372 0.1310603917 -0.1921783388 0.4358364642 0.0584507957 0.1886484176 -0.0713618770 -0.1344652772 -0.1184695885 0.3361485600 0.3554051816 -0.1007182002 0.2171124071 -0.0441604964 0.0756520405 -0.0530120805 0.0771839023 0.1496140063 0.0142505374 -0.0480611622 -0.0993871018 0.1201969534 0.1463194340 0.1367909461 0.3493638933 0.3315924406 -0.1261613369 0.0548400395 0.0886331722 0.5761980414 0.0110218041 0.1307486743 -0.0812230185 0.1962611228 0.1382955611 0.2433209270 0.2941564023 -0.1071254015 -0.2148086280 -0.2360912263 -0.1665310413 0.1190538630 0.2290923148 -0.2304533422 0.2662018538 0.0905009508 0.3063906133 0.3829301000 -0.0850176513 0.0673378482 0.1668870300 0.1189494878 0.1240719333 0.1282594949 -0.2267824560 -0.0419730656 -0.0893367305 0.0948100835 0.2832402289 0.2511986494 -0.1075188145 0.1345702708 0.2219874412 0.2291575521 0.2458989173 0.3248266578 0.3289637566 0.3926108181 0.3061936498 0.3438423872 0.4211121798 0.2317622453 0.1549162418 0.3425683975 -0.0139232771 0.3527413011 -0.0953158289 0.1069325730 0.1216237321 -0.1677937359 0.4008788466 -0.1141922027 0.2249524742 0.1407359242 0.1352918893 -0.0852866098 -0.0027012574 0.3044446111 0.0609565787 0.4131477475 0.2420993298 0.0391377509 0.1729034781 -0.0990122780 0.4791185260 0.0550584160 0.1043265164 -0.1326790899 -0.0743864849 0.0951322988 0.0148774777 -0.0088229338 -0.1488019675 0.2785393000 0.1278416365 0.3754315674 0.1671272069 0.6562030911 0.3838989139 0.1230741143 0.3717854023 0.2772156298 0.2183765024 0.4245589972 -0.0017618753 0.3664138913 -0.0031564161 0.2872928977 0.1632750183 0.4462839067 -0.0492470227 -0.1177108660 0.1552932560 0.3708550632 0.4940295815 0.3033545911 0.1586511284 0.2914310396 0.0977133438 -0.2297639698 -0.1350159198 0.0508195013 0.0080222040 -0.0893897787 -0.0776423141 0.1764272451 -0.0938424468 0.5950698256 0.1179324463 0.1851978600 -0.1533564180 0.1191335469 -0.0039821602 0.3311847448 0.3472023904 -0.0506185368 -0.1978705525 -0.0073567913 -0.0406905375 0.0699707046 0.2001459152 0.0558609851 0.1916902214 -0.1594889015 0.1705599427 -0.0747700036 -0.0697641596 0.2542288303 0.3459059298 0.2906588614 -0.1200237423 -0.1063924283 -0.0646823570 0.0227218773 -0.0400507003
05807698ac239d66706f887ef6bf3626__109.92_126.08 0.0202859361 0.1161472201 0.2991938889 0.1937112659 -0.0088412929 0.3306987584 0.5769209862 0.1065897644 0.1115010455 0.3613210917 0.1841142327 -0.0373883098 0.0651814118 0.0412657484 -0.0885298923 -0.1423568726 0.1473020315 0.1470444202 -0.1352003664 -0.1129088774 0.0528062657 0.2418777943 -0.1051642150 0.1908197999 -0.0660834685 0.1518319696 0.0692564696 0.3188163042 0.2065057606 0.2453145981 0.1430451125 0.1295878142 0.3861366212 -0.0321667902 -0.1836694032 0.1149755940 0.1291152537 0.1058945805 0.0916587412 0.1467282176 0.3189230561 0.1334716827 0.1526930183 0.3807461560 0.2899820805 0.4876379967 0.3428431749 0.3498848677 -0.1620289981 -0.1956859678 -0.1014953628 0.1387399733 0.0025709271 0.1993307024 0.1128167063 0.1443216205 0.2183714807 0.0937643275 0.1276420057 -0.0868544132 0.0520269796 -0.0892859176 -0.0112495404 0.3256701529 0.2147460282 0.2118472010 -0.0760100037 0.4064907432 0.4230947495 0.3492372036 -0.1090051904 -0.0851358846 -0.1078911126 0.4145640731 -0.0150416344 -0.1733832955 0.0774850696 -0.1879719794 0.1398940086 -0.0336400606 -0.0433586389 0.1827465892 0.1497956365 0.1673357487 0.1717815548 0.5654371381 0.2359196097 -0.1203417480 0.4683496654 -0.1655414551 -0.1741193831 0.3563137949 0.1709184051 -0.0700090677 -0.1062078252 0.1462596059 -0.0326026157 -0.0815178230 -0.1186643541 0.0973396003 -0.0649875849 0.1201022565 -0.0811488479 -0.1422737539 0.3136531413 -0.0489139967 0.1783098131 -0.0913454220 -0.1193805262 -0.0236363728 -0.1657295823 -0.1650987417 0.0292858128 0.2790451348 0.1111480445 0.1588339508 -0.0669356734 0.0388644338 0.3591038883 -0.0535535105 0.0374339856 0.1861936301 0.1745396554 0.3476766944 0.3935566247 0.2859756351 0.0008352147 0.0535308830 -0.1136513576 0.2731333375 0.1660193056 0.2298837155 0.0591911115 -0.1578021497 0.0066708177 0.0693909377 -0.2062058747 0.1203787997 0.2579422891 0.1696296781 0.1866686791 0.0292941965 -0.1168255880 0.2261537313 -0.0535215363 0.1865031421 0.0820925459 0.0106505221 0.0589979365 0.0575617068 0.0743584558 0.1480445117 -0.1296217889 0.0333861187 0.1797206551 -0.1768869162 0.2020496130 0.1313811988 0.1399526298 -0.0017762864 0.0264932252 0.2864455581 0.0894752443 0.4401973188 0.4039752781 -0.0012824088 -0.0793020055 0.4280647337 -0.0698499233 0.1008596048 0.0698131323 0.0265587345 0.1416539699 -0.1264625937 0.1528576314 0.5739890933 -0.0192756280 -0.0436199717 -0.1376721114 -0.0254748296 0.0899759606 0.2804846168 0.1554773897 0.2881508172 0.3221893907 0.3627409935 -0.0593500696 0.2585627437 0.0036065541 0.0037398927 0.0253316760 0.1996116489 0.2896056771 0.0125453919 -0.0940309614 -0.0380785763 0.3296630085 -0.0962761268 0.5271926522 -0.0181240812 -0.1430317611 0.3961972296 0.1207301840 0.0407908931 -0.0394474305 0.3577206433 0.1264711022 0.0938556194 -0.0829182714 0.1757842302 -0.0671394467 -0.0104985014 0.1731732041 0.2222016007 -0.0565812178 -0.1444007158 0.2163010538 0.2724109292 0.1088332981 0.0161659792 0.1314131618 0.3123329282 0.1082530990 0.0562580787 0.3828003407 -0.0982694551 0.0041575180 0.3828393817 0.1719258279 0.0120319705 0.1311680526 0.1693668813 -0.1552205831 0.0988082737 0.3750122488 -0.0744297728 -0.0605867505 0.1120013669 0.3587297797 -0.1011768728 -0.1631363183 0.0448197015 0.1722041070 0.2185484022 -0.0293789264 -0.0131936781 0.1724382788 0.1746646315 0.1153104454 0.2355795205 0.0416153111 0.0509760901 0.2349922210 0.2628316879 0.3302159905 0.1184719801 0.0960097834 0.0255627315 -0.0689191148 0.2226051241 -0.0918676853 -0.0348139964 0.2585194707 -0.1331369132 0.2310449630 0.2449327111 0.3136250377 0.0003468122 0.4295673072 0.0995602757 0.1494801491 0.4771018028 -0.0855386853 -0.0201138072 0.2217788100 0.1183793619 -0.1464913040 0.1303517222 -0.0076165460 0.3653406203 0.0103239221 0.4884602726 0.2741053104 0.0491864309 0.0052872766 0.2329424322 0.1921365857 -0.0266477726 0.1443539411 0.0311252028 0.2959128618 -0.1225304008 0.4464024603 0.2767682076 0.0198980216 -0.0053454884 0.1365592182 0.1754265130 0.3720419705 0.4095881283 0.0328572243 0.2167440802 0.2131177783 0.0810188726 0.1464662999 0.3096011877 -0.0395687819 -0.1449810117 -0.0366660357 0.0889540389 0.1572359502 0.3944396377 0.0567132570 -0.0901664943 0.2187879235 0.1377397627 0.0572752357 0.0323135667 -0.0331540182 0.1670282334 0.0347553045 0.2333203107 -0.0760101601 -0.1237446740 0.5556687117 -0.0670998693 -0.0079090856 0.3938536942 0.1342005730 -0.0721964985 0.2938410640 -0.0679519027 -0.1120324060 0.0594678633 0.0394701473 -0.0546578057 -0.0864371955 0.5043621659 0.4360774457 -0.0543501563 0.1021779254 0.0955309942 0.0996208340 -0.0297621842 0.1002096236 0.1821020842 0.1160543561 0.3259074092 0.5621460080 0.2779460847 0.0415213630 0.3714992404 0.2225739658 -0.1095338017 0.3130742908 0.2936245799 0.2379607111 0.1212418377 -0.0992035568 0.1650570929 0.1043547541 0.0770590901 0.1140672714 0.2346325815 -0.1229230389 0.2742014527 -0.1923393160 0.1464328766 -0.1543019265 0.3215233982 0.2158828229 0.0532178991 -0.0960197747 0.3956035376 0.5082150698 0.2215296775 -0.1885090470 0.2435051203 -0.1502856016 0.4660089314 0.1390591264 -0.0231822636 0.4168387353 0.0836096555 -0.0796809569 0.0343455710 0.2164511979 0.0963840410 -0.0383872427 0.1763714999 -0.1648951918 -0.0888208896 0.2623890638 -0.2348326445 -0.1215484142 0.1165220216 -0.0759390742 0.1349276602 0.0839634538 -0.1062321365 0.2182835639 0.0842095837 0.1624217927 0.1342822015 0.2048184425 0.2860163152 0.1985842288 0.1280071437 -0.1039160490 0.0593025647 0.3988035917 0.1017476618 0.3771749139 -0.0231881626 0.0568907373 0.3203629255 -0.0327497609 0.4795600474 0.1644652635 -0.0220613033 0.3849848211 -0.1609500498 0.0800872892 -0.1453603655 0.0511785112 0.2591696084 0.3085327148 0.0890318155 -0.1010637954 -0.1305966526 0.5475781560 0.2607116103 0.2617749572 -0.1140109822 0.2846578062 0.2870437801 0.1007500812 -0.1763711721 0.5377148390 0.0672111064 0.2444259673 -0.0548668429 -0.1263123006 -0.1228563860 0.3316627443 0.2886701226 -0.1028314680 0.2600737512 -0.0472422130 0.0052411016 -0.0511181615 0.0819978788 0.1640249491 0.0444256142 -0.0496933684 -0.0867882520 0.1577480137 0.1375080049 0.0559704825 0.3537458181 0.3193565011 -0.1173464432 0.0121972142 0.0717827380 0.5279194713 0.0280048139 0.0770940483 -0.0742260590 0.2321579754 0.1146328449 0.3035068214 0.2656580508 -0.1056877449 -0.2021909505 -0.2164378315 -0.1769552231 0.1085746437 0.2223304212 -0.2400711328 0.2100063562 0.0365487337 0.3262774944 0.4075100124 -0.0815116316 0.0067474805 0.1852275282 0.1916477680 0.0718084648 0.0846156999 -0.2078278214 -0.0264992192 -0.0906291083 0.1382913888 0.2073109150 0.1922207922 -0.1003305390 0.0751506835 0.2027978897 0.2068755329 0.1545370817 0.2642224133 0.3290389180 0.2778022587 0.3309166133 0.4009525776 0.5514007807 0.1910165846 0.1077562496 0.3430881202 -0.0047164606 0.3220950961 -0.0780019611 0.1488385350 0.0568531267 -0.1491475850 0.3894412220 -0.1240868345 0.2840125561 0.0854892805 0.1242694184 -0.0819724500 0.0111286482 0.2948787510 0.0121596390 0.3920059800 0.2320123166 0.1089048833 0.1252229214 -0.0910143480 0.4469917119 0.0767913908 0.1200295091 -0.1268080920 -0.0595972762 0.1088438034 0.0705736801 -0.0153354900 -0.1260529011 0.2605035901 0.1465576589 0.2867560983 0.1612569839 0.5927881002 0.4703913331 0.1649129242 0.3754003644 0.1856305301 0.2897774279 0.4377402067 0.0558326729 0.3479369283 -0.0181557387 0.3286212385 0.0408724323 0.4355226159 -0.0402712040 -0.1040249988 0.1467618346 0.3430985510 0.4705389142 0.3414547741 0.0736205876 0.3001854718 0.0888198912 -0.2309158295 -0.1417990327 0.0260305963 -0.0168835223 -0.0880330950 -0.0896466523 0.1482235491 -0.0916342139 0.5846980214 0.0916887000 0.0911753029 -0.1565349847 0.0952987969 0.0091647189 0.3872970939 0.3361977041 -0.0593554899 -0.1737966537 -0.0152931046 -0.0449496843 0.0708782002 0.1939660162 0.0327481441 0.1682384312 -0.1545670182 0.2355252802 -0.0716931075 -0.0654625520 0.2682607770 0.3559413850 0.2655171156 -0.1254390180 -0.1053214818 -0.0717931837 0.0306811426 -0.0420582183
05807698ac239d66706f887ef6bf3626__80.34_94.66 0.0197963733 0.1029758602 0.3465870023 0.1360258162 0.0339476168 0.3103111386 0.6467456818 0.0624758713 0.0754512399 0.4045983255 0.1712491661 -0.0278896950 0.0732203349 0.0573664270 -0.0827852562 -0.1471598148 0.1866117418 0.1244337857 -0.1399283856 -0.1230271310 0.0977057591 0.2509706616 -0.0974886939 0.1702693552 -0.0665006340 0.1293241382 0.0549665652 0.2603380978 0.2533187866 0.1652927995 0.2002234161 0.1329219788 0.3695182502 -0.0421293564 -0.2051172704 0.1615222096 0.2051541060 0.0721874610 0.0613190345 0.1613608450 0.3349630833 0.1449455321 0.1557589620 0.4105583727 0.3406455815 0.4954496324 0.3627873361 0.3541919291 -0.1655102819 -0.1970045120 -0.1094432771 0.1008031517 -0.0023893360 0.2285486460 0.1124788672 0.1653956771 0.3265003860 0.0793955252 0.1038176641 -0.0962232053 0.0762776062 -0.0994724557 -0.0101287635 0.3627133965 0.1702216268 0.3020576239 -0.0785578266 0.3695966303 0.4170969427 0.3760401011 -0.1040160730 -0.1012578532 -0.1007636711 0.3557253480 -0.0201388467 -0.1874289364 0.0726502761 -0.1919336915 0.1566208005 -0.0358628035 -0.0336061642 0.1878201663 0.1659181863 0.1926940829 0.1389439851 0.5691036582 0.2180552781 -0.1321785897 0.5243484378 -0.1726717651 -0.1917318255 0.4157384038 0.2036077976 -0.0624347553 -0.1087797135 0.1645001769 -0.0620315075 -0.0867601335 -0.1212510541 0.0664475784 -0.0695077851 0.1037219316 -0.0471880324 -0.1384776235 0.2938114703 -0.0510404594 0.1405700743 -0.0976601690 -0.1090442762 -0.0285870414 -0.1682956964 -0.1795668453 0.0020459983 0.3415877521 0.1394818425 0.1430458426 -0.1330459863 0.0603667237 0.3232492208 -0.0390279628 0.0545369275 0.1161165163 0.2069678903 0.3703719974 0.4564816058 0.2285562158 -0.0960805714 0.0598752834 -0.1117273942 0.2695788145 0.2256134897 0.2014819831 0.0961937159 -0.1649379283 -0.0379549265 0.0941115916 -0.2028179914 0.1158574298 0.2775729895 0.1613269001 0.2137836218 0.0244243741 -0.1255605966 0.2153788358 -0.0502691641 0.1797067821 0.0831695423 -0.0395696275 0.0216942877 0.0484868586 0.0613990724 0.1721313745 -0.1304046959 0.0380600095 0.1921762973 -0.1828870624 0.1868859828 0.1083439812 0.1018177494 0.0110884393 0.0197381862 0.3483032882 0.1016374156 0.5401300192 0.4462902546 0.0166787691 -0.0762845576 0.4284531474 -0.0741087049 0.0836267173 0.0563724488 0.0383002721 0.1829677522 -0.1308263093 0.1545823663 0.6659119129 0.0384635851 -0.0488223769 -0.1521435976 -0.0403679051 0.1022731364 0.2305011749 0.1487226635 0.3399749696 0.3182424605 0.3983676434 -0.0544423871 0.3134687543 -0.0089504160 0.0158279762 0.0220323466 0.1891137511 0.3782575130 0.0136964386 -0.0993592069 0.0178179909 0.2139729559 -0.1027879789 0.4588231146 -0.0285038650 -0.1520745009 0.3837735951 0.1200701967 0.0514839068 -0.0435120724 0.3215826154 0.1621861458 0.1128846705 -0.0919811502 0.1947828978 -0.0758367106 -0.0207345802 0.1520554870 0.2174813896 -0.0634402558 -0.1603304148 0.1763325781 0.2912133038 0.1180519983 -0.0091956165 0.1291118562 0.2988229990 0.0557683669 0.0929525495 0.4535345137 -0.0959824249 -0.0036464725 0.4430528581 0.2010757178 0.0780051723 0.1088120639 0.1394634396 -0.1417253315 0.1095763147 0.4274428189 -0.0752857625 -0.0599989332 0.1289034486 0.3909655511 -0.1150812209 -0.1720865518 0.0474637710 0.1612222493 0.2735537291 -0.0292328503 -0.0507460572 0.1891458333 0.1819000095 0.0965958685 0.3222843707 0.0562582649 0.0710229278 0.2620338798 0.3373186290 0.2620194256 0.0756952092 0.1002552658 0.0254299995 -0.0717229098 0.2588584423 -0.1036417261 -0.0439696945 0.2936276495 -0.1221003756 0.2088598013 0.1963597685 0.3597104251 -0.0074470593 0.4523471892 0.1084352136 0.1319463104 0.4423145652 -0.1012487262 -0.0133488616 0.1553401947 0.0970651582 -0.1559874266 0.1341303736 -0.0098779453 0.3944113553 -0.0024230080 0.4599549472 0.3587132394 0.0584388077 0.0076831020 0.2214205414 0.1898442805 -0.0244484693 0.1835712492 0.0019781413 0.2403632849 -0.1380354315 0.5063576102 0.3518899679 0.0156286675 0.0048155910 0.1081853658 0.1660778672 0.3407877088 0.3763357997 0.0414995253 0.1377885342 0.2622606754 0.1026596949 0.1623639762 0.2633133829 -0.0051554251 -0.1605174839 -0.0325383395 0.0676189288 0.1114529073 0.3954595625 0.0713108256 -0.0949304923 0.2672161758 0.1273994744 0.0528277420 0.0387489423 -0.0256383792 0.2145976424 0.0388835296 0.2526795566 -0.0914336741 -0.1198491454 0.4767031670 -0.0600204356 -0.0792454779 0.4456843436 0.1404882073 -0.0086093210 0.3087034822 -0.0716717318 -0.1017704234 0.0903776512 0.0586579256 -0.0569433235 -0.0857829005 0.6047084928 0.4826361239 -0.0491564907 0.1297495365 0.0858313218 0.1007982194 -0.0270621665 0.1043292284 0.1926316172 0.1061621606 0.3564138710 0.5608751774 0.3196041584 0.0741202831 0.4292522669 0.2264948189 -0.1051393747 0.3524063230 0.3057648540 0.2828997076 0.1441873312 -0.1108629256 0.2058747113 0.1217235774 0.0778581426 0.1135578901 0.1796506941 -0.1467841417 0.3420524895 -0.2114634216 0.1648522168 -0.1659625620 0.3626127541 0.2602124214 0.0802346095 -0.0947540402 0.4417993128 0.5010895729 0.2625343204 -0.2052654475 0.2374146730 -0.1728190333 0.4252124429 0.1393434107 -0.0295828469 0.4667266607 0.0664825737 -0.0773787647 0.0318185352 0.1940270066 0.1428162158 -0.0367022380 0.1964183897 -0.1651155800 -0.0851538032 0.2379423827 -0.2551753223 -0.1259686500 0.1212941185 -0.0942455903 0.1816943288 0.1103995368 -0.1024996936 0.3011667132 0.0872400999 0.1507620066 0.0971149355 0.2932097018 0.2455919087 0.2168700993 0.1171758324 -0.1092729121 0.0452559441 0.4214819074 0.1334850937 0.2996849418 -0.0289474428 0.0665102452 0.3053173423 -0.0334136114 0.5009486675 0.1513936669 0.0228053536 0.4228560925 -0.1458721459 0.1086036414 -0.1550657898 0.0121272663 0.2505232096 0.3283129930 0.0788891464 -0.1130252331 -0.1359473318 0.6051848531 0.3017130196 0.2912702560 -0.1122760102 0.3027067482 0.2426667511 0.1427409202 -0.1778443307 0.6090759635 0.0849620849 0.3099738359 -0.0512310825 -0.1417984515 -0.1338039339 0.3305961490 0.2150516212 -0.1070023999 0.2649374604 -0.0574945658 0.0121249817 -0.0468086228 0.0764302462 0.1882208288 0.0905961394 -0.0458076894 -0.0850963965 0.1668561846 0.1394418925 0.0586383678 0.3626343310 0.2991880774 -0.1355102807 0.0064564301 0.0821751952 0.4960914552 0.0477800928 0.0612173527 -0.0777714327 0.2254267037 0.1190523282 0.3383520544 0.2770951092 -0.0936474875 -0.2043624967 -0.2127554566 -0.1804389805 0.1274370402 0.2257675529 -0.2522790730 0.2217431366 0.0453047231 0.3088357747 0.3576531410 -0.0736976340 0.0188445449 0.1995925009 0.2219099700 0.0785674974 0.1361044049 -0.2096124440 -0.0232223924 -0.0942479819 0.1320784539 0.1841616631 0.1943673193 -0.1162154675 0.0618430711 0.2275380492 0.1988900304 0.1023383290 0.2257379293 0.3120965362 0.2350998670 0.3611198664 0.4309610724 0.6109937429 0.2209967077 0.0855590478 0.3472007811 -0.0051718066 0.2860022485 -0.0757961944 0.1997888833 0.0348962545 -0.1543444693 0.4393038154 -0.1382955611 0.2755533755 0.0938968062 0.1360253990 -0.0967213884 0.0331302285 0.3481442928 0.0113241719 0.3680279851 0.2117320448 0.1902066469 0.1027996168 -0.0843299255 0.3919631839 0.0991347730 0.1516166180 -0.1209288165 -0.0540979095 0.1436317116 0.1080865860 -0.0177883431 -0.1102689281 0.2603860497 0.1641609073 0.2275574058 0.1461144686 0.6356415749 0.5326632261 0.1831910312 0.3759352863 0.1617701054 0.3491954505 0.5084704161 0.0867996886 0.3556749225 -0.0173090603 0.4023336470 -0.0201070532 0.4004849195 -0.0465864241 -0.1155121624 0.1546542645 0.3081599176 0.5302102566 0.3838239908 0.0389599800 0.3000867367 0.0995566547 -0.2358717918 -0.1464290023 0.0374887548 -0.0183055215 -0.0957696810 -0.0925855786 0.1363559365 -0.1025401354 0.5422065854 0.1133534685 0.0618014410 -0.1856568307 0.1417552829 0.0082589928 0.4752771258 0.3013649583 -0.0565026626 -0.1804779917 -0.0188052263 -0.0419931076 0.0717097744 0.2012105584 0.0180025566 0.1546163261 -0.1533056051 0.2950233519 -0.0648189932 -0.0787666962 0.2726902068 0.3413480818 0.2620617151 -0.1326387078 -0.1082496047 -0.0790054277 0.0399782807 -0.0488954112
0698871b53808777384e1494ee28b273__2906.07_2955.27 0.0330587998 0.0658964738 0.4096839428 0.1276446283 0.0984447226 0.2556944191 0.6810641289 -0.1617036760 -0.0816949159 0.4953451455 0.1012716889 -0.0316174403 0.1117713153 0.0675819218 -0.0800097734 -0.1602314115 0.1398654729 -0.0149892569 -0.1528269947 -0.1060776114 0.0788157955 0.1892125607 -0.0887560248 0.0679901093 -0.0307676066 0.1690839827 -0.0305757560 0.1678107828 0.3587174118 -0.0163262114 0.0741126835 0.1311395913 0.3694221079 -0.0684208423 -0.2157472074 0.0953460112 0.2026994377 0.0774751976 0.0295853056 0.1466228515 0.4779395163 0.1874285787 0.0630220696 0.3147619963 0.3775278926 0.4779896438 0.3670154512 0.4199234247 -0.1297275275 -0.1753643304 -0.0916616246 -0.0252139643 0.0155966729 0.3256496191 -0.0479155593 0.1287414432 0.3278059363 0.0874143839 -0.0180355832 -0.1247189417 -0.0072809653 -0.0972749516 -0.0363761038 0.4932414889 -0.0279262364 0.4521263540 -0.0566129349 0.1832293868 0.4006245136 0.4005474448 -0.0543796942 -0.1098041832 -0.0441590287 0.2517918348 -0.0257391967 -0.1550879031 0.0285863951 -0.1576704383 0.0454036482 -0.0140997982 -0.0128374994 0.2540561259 0.0635443032 0.2738064528 0.1886574328 0.5610173345 0.1966705769 -0.1331100762 0.5556311011 -0.1419422776 -0.1887616515 0.4734066427 0.0824372768 -0.0265892427 -0.1089307144 -0.0100499615 -0.0312450044 -0.0853480548 -0.1230760813 -0.0055490807 -0.0416424945 0.1290284246 -0.0167681593 -0.1267344356 0.3742715716 -0.0957677215 -0.0836444721 -0.0886607394 -0.0977066830 -0.0147020426 -0.1538926512 -0.1543782800 -0.0339987352 0.3393251300 0.1060096920 -0.0829697251 -0.2594125569 0.0674313679 0.3732227385 -0.0343346745 0.0071921377 -0.1264716983 0.2201270908 0.3751886487 0.4893445969 -0.0454973020 -0.2231387347 0.0876448527 -0.1075445041 0.2162526399 0.2057165205 0.1401019245 0.0739554167 -0.1311089694 -0.0967107639 0.0878561214 -0.1901253164 0.0423215292 0.3830024898 -0.1172715873 0.2942947745 0.0179268084 -0.1308595985 0.1508575529 -0.0348196179 0.1438633502 -0.0389887579 -0.1164660454 -0.0241986699 -0.0273749586 -0.0147409253 0.2514247000 -0.1075504869 0.0801338404 0.2846734524 -0.1860678047 0.0899797380 -0.0031161942 -0.0870182589 -0.0579543449 -0.0414301865 0.5029310584 0.0677405298 0.6744937897 0.6272317171 0.0445273146 -0.0555952117 0.3688959777 -0.0557180494 -0.0601690486 -0.0235273577 0.0023129778 0.2108195424 -0.1145725846 0.1974786222 0.8318641782 0.1343660057 -0.0449623168 -0.1222505867 -0.0600948557 0.1417028010 0.1799996793 0.1978933364 0.4458774924 0.3701304495 0.5434992313 -0.0401958004 0.3874393702 -0.0460383929 0.0411336049 -0.0955631286 0.2074299902 0.4919372201 0.0146733224 -0.0535802990 0.0759099349 0.0503522791 -0.1241968125 0.4335464239 -0.0588198863 -0.1307106614 0.4292015731 0.1368791163 0.0925977603 -0.0373007990 0.2638821900 0.1552621126 0.1882329583 -0.0712597221 0.2235088944 -0.0635062382 -0.0007243934 0.0591959283 0.2294328064 -0.0611778200 -0.1606744677 0.1564715058 0.4372057319 0.1578028500 -0.0327384882 0.0816856325 0.3565446138 -0.0151685448 0.0068590012 0.4957715273 -0.0666752234 0.0294580683 0.4401462078 0.2807341814 0.1656223834 -0.0059849047 0.0593037233 -0.1236929819 0.1681704372 0.4797999561 -0.0772663653 -0.0338881947 0.1410281509 0.3490905166 -0.1101823449 -0.1761064678 0.0374730527 -0.0470222570 0.2805431783 -0.0231445860 -0.0935176611 0.2474548668 0.0531783812 0.0887906998 0.3660394549 0.0333689563 0.0277303606 0.3915710747 0.4840268195 0.0424792543 -0.0479067713 0.0698055550 -0.0148290470 -0.0599402599 0.2299229652 -0.0905112624 -0.0245245267 0.2060324103 -0.0963969827 0.1701063663 0.1059342921 0.3298176527 -0.0345825180 0.3615135252 0.0249170605 -0.0463882685 0.4638614655 -0.0672927871 -0.0067359363 0.0359932631 -0.0056072678 -0.1247509941 -0.0235082023 0.0375429653 0.5137425661 -0.0296557434 0.3996384442 0.3346961737 0.0453083441 0.0356466845 0.2430625260 0.2439964414 -0.0286754891 0.1243214607 -0.0347079486 0.0146668721 -0.1472830623 0.5968844891 0.4811114073 0.0364886634 -0.0047471621 0.0322907716 0.1780271083 0.2425363362 0.3093546033 0.0275205839 -0.1168928891 0.2511492372 0.1157893986 0.1467852741 0.1821590513 0.0246194918 -0.1641180217 -0.0265841093 0.0582822710 0.0049628932 0.3280501366 -0.0182760991 -0.1014307663 0.3393358886 0.0324715599 0.0551951155 0.0454486012 -0.0069405278 0.2484373599 0.0086649861 0.3566191494 -0.0613592900 -0.1122156307 0.3517024219 -0.0265815202 -0.2065974027 0.5492362976 0.1572901607 0.0968043953 0.2480977923 -0.0504576899 -0.1050170735 0.0717262179 0.0316038169 -0.0470504798 -0.0611869432 0.7134189606 0.5984634757 -0.0281651802 0.1306822747 0.0229251590 0.1628588438 -0.0150532313 0.0785883516 0.1555708349 0.0094187800 0.4683160186 0.5609048009 0.3450821042 0.1326604337 0.4342701733 0.2910984159 -0.0688211620 0.4627796412 0.3286389112 0.3567569852 -0.0096617639 -0.1123509109 0.2854654491 0.1389088631 -0.0121011259 0.0792549402 -0.0896964148 -0.1462170035 0.4223760962 -0.1905693412 0.2008297890 -0.1824785173 0.4888915122 0.2811724842 0.0013522105 -0.0765531585 0.4398311377 0.3252997696 0.2868157923 -0.1915770173 0.2196596414 -0.1870165318 0.4634001255 0.1093190536 -0.0356977843 0.4943202138 -0.0495343097 -0.0422390439 0.0394027084 0.2247317433 0.1622424126 -0.0253245328 0.2079083622 -0.1501054317 -0.0814695060 0.2091699094 -0.2279533148 -0.1135627478 0.0698526949 -0.0859677345 0.1882448196 0.1632971019 -0.1062643379 0.2864456773 0.0239337813 0.0435701273 -0.0568401478 0.3155576885 0.0682931468 0.2105812728 0.0235251710 -0.0958645642 0.0911544859 0.6056548953 0.2079950422 0.2880734801 -0.0194260813 0.0003414145 0.3398035169 -0.0097369719 0.5198951364 -0.0289700516 0.0471156538 0.5796841979 -0.1158039644 0.1425553709 -0.1404564381 -0.0101381317 0.2473940551 0.2240221351 -0.0023566484 -0.1231879294 -0.1284383535 0.6657441258 0.4321825206 0.4325899780 -0.1093466133 0.4398650825 0.1137287170 0.0796506479 -0.1559003294 0.6272876859 0.0630746037 0.3330212831 -0.0410909764 -0.1225270778 -0.1555503011 0.3075863421 0.0597619191 -0.1187737510 0.1963269264 -0.0533606037 0.0429587774 -0.0338333622 0.0320341103 0.1688012481 0.0766385347 -0.0142665058 -0.0719622523 0.0872266889 0.1993040740 0.0425256342 0.3462812304 0.2831913233 -0.1130597964 0.0246084332 0.0831883401 0.5179048181 0.0438177511 0.0344624743 -0.0721275881 0.0966822580 0.1325693727 0.3566092551 0.3705994189 -0.0675382987 -0.2139062881 -0.1838619858 -0.1960021704 0.0717784986 0.2609258890 -0.2521086335 0.3073937595 0.0754153505 0.2535482645 0.1622645259 -0.0476867817 0.0210837722 0.2438035607 0.1813624203 0.0313195549 0.1478497982 -0.1740406752 -0.0024561030 -0.0871108547 -0.0810936540 0.2467459738 0.0995057449 -0.1185895875 0.1276344955 0.3044535220 0.1893849969 0.0366149060 0.1453106105 0.2899504602 0.2629346550 0.4619576633 0.5129951239 0.6042034030 0.3439112008 -0.0260754060 0.3681681156 0.0021588830 0.2685807645 -0.0436230712 0.1279629320 -0.0034862016 -0.1243272647 0.5951650143 -0.1234969571 0.1822642535 0.0638192296 0.1298015714 -0.0923826694 0.0509371832 0.4617437422 0.0314694978 0.4199258983 0.1477981210 0.1528662592 -0.0101341419 -0.0801852494 0.3328556120 0.0984707475 0.1792722344 -0.1076865271 -0.0098331394 0.1514362246 0.0122809000 0.0061844257 -0.1114099100 0.2727688551 0.2403631955 0.1524054557 0.1433372051 0.8205996156 0.5839393139 0.1276735365 0.4818720520 0.0171925277 0.3424864411 0.6486194134 0.0446582474 0.3810909390 -0.0011288328 0.5339295864 -0.1183774024 0.3290892839 -0.0269989185 -0.1074287370 0.0998921394 0.2796801031 0.6680176258 0.4828560650 0.0540545285 0.3095757663 0.1289441437 -0.2246104628 -0.1202964187 0.0578343049 -0.0506955944 -0.1082952768 -0.0736816674 0.1512331069 -0.1099855378 0.4541168809 0.0876228809 -0.0224852711 -0.2172490209 0.1683019698 -0.0012461683 0.5507361889 0.2136347443 -0.0473910235 -0.1572176218 -0.0428365469 -0.0403555222 0.0754178241 0.2852105200 -0.0256907083 -0.0753515810 -0.1199957132 0.3202016354 -0.0514429882 -0.0750201195 0.2988343835 0.3529649675 0.2244761586 -0.1229497418 -0.0950367972 -0.0590584390 0.0421788245 -0.0755131543
0810ba7b69b4867a7d4d28160070a867__69.48_91.03 0.0210932922 0.0680974051 0.3182629645 0.2438010424 0.0401953608 0.3355605006 0.5383297205 0.1123921499 0.1265349537 0.4164353311 0.1854275316 -0.0249540396 0.0697626323 0.0525817499 -0.0957423821 -0.1566475034 0.1408661157 0.0888974220 -0.1504578292 -0.1362846643 0.0835810304 0.2321427763 -0.1336386800 0.1944284439 -0.0843505114 0.1784319431 0.0948127136 0.3727860451 0.2717690766 0.2864962816 0.1128725708 0.1377585530 0.3465948701 -0.0535750352 -0.2194027752 0.1156881005 0.1735889614 0.1380593777 0.1286821067 0.1339203119 0.3293958306 0.1256625354 0.1573022157 0.3127656877 0.3858470619 0.4344461858 0.4607065022 0.3137551844 -0.2034503222 -0.2192777246 -0.1281807572 0.1588636935 -0.0180548690 0.2382990122 0.1931851953 0.1920645684 0.2834478915 0.1290396154 0.0977138206 -0.0975501388 0.0439426601 -0.1055027023 0.0167900175 0.4130172133 0.2494479567 0.3363740146 -0.0835303441 0.4669455886 0.3809688389 0.3691367507 -0.1345849484 -0.1125965565 -0.1220072210 0.5308550000 -0.0343592353 -0.1940672547 0.1474310160 -0.2337855548 0.2181395739 -0.0421628021 -0.0115867816 0.1634427011 0.2191618383 0.2098663449 0.1816238910 0.6135420799 0.2182897925 -0.1216317266 0.5118803382 -0.2021560818 -0.1993582845 0.4802947640 0.1282758415 -0.0890526846 -0.1237050742 0.2197330743 -0.1148910820 -0.0987463593 -0.1404042095 0.0824937671 -0.0860094652 0.1223199964 -0.0335166305 -0.1474973857 0.3046889007 -0.0207182858 0.1608702093 -0.0919800848 -0.1403269470 -0.0222388152 -0.1887028664 -0.2006152868 0.0723368749 0.2545328438 0.1770172119 0.1706257761 0.0038569593 0.0670369342 0.4237359762 -0.0220043864 0.0310566686 0.1506000310 0.1875047535 0.3263081610 0.3819932938 0.3469607830 0.0994900465 0.0554230623 -0.1322076023 0.2181661725 0.1715053767 0.2524108887 0.0753309876 -0.1595221013 0.0408997424 0.0818064809 -0.2487675697 0.1642755270 0.2842196524 0.1944018006 0.2083823532 0.0213336274 -0.1442166269 0.2682532370 -0.0607039332 0.2475637197 0.0227225907 0.0498605818 0.1423186958 0.0170813184 0.0718667060 0.1583974063 -0.1456269771 0.0134806857 0.1591966599 -0.2122862041 0.2385157794 0.1296551377 0.1235479265 -0.0173608996 0.0286881141 0.3313397765 0.1448145509 0.5201335549 0.4339269102 0.0011294922 -0.0852779374 0.4935651124 -0.0643988103 0.1563750505 0.0769865587 0.0039935606 0.1777806133 -0.1571725309 0.2307865024 0.6110464931 0.0477288291 -0.0646611378 -0.1702619940 -0.0394950807 0.1354704499 0.3828405440 0.1678110808 0.3084580898 0.4337794483 0.4012775421 -0.0742112100 0.2721204162 0.0080442224 0.0039347853 0.0077033276 0.2016405016 0.3684552312 0.0020476393 -0.1171738133 0.0121917184 0.3944272995 -0.1023959890 0.5921175480 0.0154193807 -0.1663389802 0.4151166677 0.1178435758 0.0489606932 -0.0396545716 0.4353941679 0.1343423724 0.1249095649 -0.0864223465 0.1718990654 -0.0723374560 -0.0477203131 0.1622370631 0.2253469676 -0.0543909632 -0.1493870020 0.2609011829 0.3163336217 0.1102135330 0.0516965315 0.1326993704 0.3645595908 0.1353373975 0.0398874097 0.3702851236 -0.1210518256 -0.0261838771 0.4141056538 0.2351478934 0.0676436126 0.1518180072 0.2140197009 -0.1734136641 0.1044296026 0.3495281041 -0.0869734511 -0.0902690142 0.1730233431 0.3868381977 -0.1097343117 -0.2099180073 0.0394953564 0.2279503793 0.2219800949 -0.0105015468 0.0257251523 0.2438776195 0.2033940703 0.1637506187 0.2602202892 0.0391878225 0.0805161372 0.2605641186 0.3364240527 0.4073272943 0.1742302924 0.1537873894 0.1153669655 -0.0709926262 0.2752467692 -0.1231923550 -0.0353898741 0.2008859664 -0.1482409984 0.1913692355 0.2550730407 0.2957377732 0.0041751778 0.5615397096 0.1385038495 0.1919044405 0.5415816307 -0.0938300937 -0.0062109311 0.3642518818 0.0959518775 -0.1747377515 0.0801471025 -0.0498612858 0.5085773468 0.0373400562 0.5718011856 0.3120817244 0.0781534985 -0.0255130418 0.2822788358 0.2055295706 -0.0268233735 0.1220922619 0.0630545169 0.4135831892 -0.1548585892 0.4634408653 0.3390421569 0.0110855885 -0.0199899394 0.2233969569 0.1856466830 0.4193551838 0.4036082029 -0.0024884995 0.2030242831 0.2049995363 0.0970395133 0.1562632620 0.4332531989 -0.0112139834 -0.1539982706 -0.0351331085 0.1070948914 0.2023619562 0.5343246460 0.0533630177 -0.0899038389 0.3007878363 0.0633198470 0.0606053509 0.0326978341 -0.0266325995 0.1957207918 0.0272366442 0.2726766467 -0.0925641507 -0.1257327944 0.6591343284 -0.0675544590 0.0387345664 0.4227589965 0.1211627424 -0.0073604323 0.4016514421 -0.0587593988 -0.1356283277 0.0545949191 0.0588496029 -0.0598296598 -0.0978575721 0.5522022247 0.4774856567 -0.0575225577 0.1832886785 0.1969270855 0.0492337346 -0.0405169502 0.1700896770 0.1966959387 0.2337683588 0.3447420597 0.5018657446 0.3777946532 0.0569021963 0.3983224332 0.3165614903 -0.1217680424 0.3691886067 0.3615953624 0.3105586171 0.0952096209 -0.1071272194 0.1893033236 0.1294333041 0.0059146723 0.0895288140 0.3078549504 -0.1437861025 0.3037850559 -0.2240839601 0.1398467422 -0.1808725297 0.4389707148 0.2834647298 0.0560531504 -0.1136424541 0.4353532493 0.4583737254 0.2576508522 -0.2154439837 0.2316709906 -0.1659778953 0.5177005529 0.1621172726 -0.0288461447 0.3902154863 0.0697965994 -0.0905418992 0.0062294221 0.3203465939 0.1365548670 -0.0483443215 0.1670004129 -0.1912773848 -0.0838164762 0.2254599035 -0.2802905142 -0.1376437843 0.1873436421 -0.0927871540 0.1396021545 0.1120411232 -0.1212566346 0.2337550074 0.1313623041 0.2473710179 0.0843732581 0.2641077042 0.3895617425 0.2600108683 0.2673648596 -0.1115278751 0.0254499745 0.4384363592 0.1196920648 0.4342845976 -0.0271042418 0.0591848902 0.4018190503 -0.0355043374 0.5326164365 0.2311638296 0.0256382022 0.3966597319 -0.1759694070 0.0849498212 -0.1774911731 0.0244445112 0.2831600904 0.3472159505 0.0425038189 -0.1062165871 -0.1270433217 0.5912516117 0.3096281588 0.2954411805 -0.1244709343 0.2864147425 0.2446709573 0.1317744851 -0.2118690014 0.4975369871 0.0552401990 0.2549938858 -0.0815121233 -0.1407965571 -0.1281232983 0.2779805362 0.3248021305 -0.1062004119 0.1982993037 -0.0541256592 0.0080176219 -0.0467287600 0.0692317039 0.1275653094 0.0548859350 -0.0688258633 -0.0933293030 0.1818696856 0.1534232348 0.1508958191 0.3052433729 0.3592445254 -0.1475010812 0.0155671863 0.0746235102 0.7066140175 0.0278563872 0.0780463740 -0.0742171854 0.2446424812 0.1772750169 0.3103140891 0.3374564946 -0.1159682572 -0.2163020670 -0.2583409846 -0.1858946383 0.0710235685 0.2283542156 -0.2640060484 0.2970696986 0.0610006079 0.2996519804 0.3759939671 -0.1059879139 0.1062874794 0.1925521195 0.1782695055 0.0573557988 0.2011312246 -0.2373381853 -0.0287809446 -0.0942619890 0.0491709262 0.2162470520 0.3194608092 -0.1218623221 0.0319247656 0.2393098474 0.2847032547 0.2227635980 0.2437335402 0.4111075103 0.3347721994 0.3586658537 0.4124743938 0.5493780971 0.2305839658 0.1021876037 0.4430117905 -0.0065625766 0.4249823391 -0.1034328192 0.1112943888 -0.0114398301 -0.1754762977 0.4328832328 -0.1349539608 0.2905910611 0.2235800624 0.1024853811 -0.0955577493 0.0070787212 0.4365177751 -0.0040456643 0.4596014321 0.2925831079 0.1300494820 0.1835822165 -0.1130756810 0.5387095213 0.0947267339 0.1407660097 -0.1341218203 -0.0663259253 0.1369656175 0.0596155562 -0.0066211610 -0.1580484509 0.2443925887 0.1663140506 0.2820367217 0.1707031876 0.7410686612 0.4939987361 0.1370879859 0.4547448158 0.2305531055 0.3389813006 0.5096794367 0.0545954406 0.3110119104 -0.0391160026 0.3903807402 0.1869782954 0.5085127354 -0.0561654381 -0.1371893436 0.2164324820 0.4375989437 0.4876583815 0.3842054009 0.0432238355 0.2700498104 0.1464431882 -0.2674796879 -0.1676344424 0.0434590280 0.0445821621 -0.0933185965 -0.0864524096 0.2277539372 -0.1122474521 0.6113610864 0.1811749190 0.1826751232 -0.1694729626 0.1332816333 0.0120395115 0.4228459299 0.3819273114 -0.0522450507 -0.2060586661 0.0064909044 -0.0572607927 0.0788614005 0.1891098619 0.0571954511 0.2401340604 -0.1647286415 0.2555554211 -0.0789569095 -0.0864620209 0.2904147506 0.3568160236 0.2146272957 -0.1258752048 -0.1121307313 -0.0842519253 0.0382234938 -0.0630352944
0b3ac784338e7e94e0fbca2a56166f32__39.80_62.98 -0.0020567011 0.0649920404 0.4187134206 0.0860920697 0.0762663409 0.2884645760 0.6796205640 0.0794750974 0.0820997953 0.5506023169 0.2070796192 -0.0252771229 0.0557709038 -0.0088797547 -0.0964247063 -0.1889761537 0.2191809267 0.0263778195 -0.1622292399 -0.1202514172 0.1375428438 0.3425247967 -0.1087182313 0.1711795032 -0.0619568750 0.1147081628 0.0493105985 0.1891961545 0.2839586735 -0.0054783896 0.1971985400 0.1346345991 0.2729395628 -0.0778435692 -0.2367771715 0.2835960984 0.2933394909 -0.0269759744 -0.0231970828 0.1523775905 0.3729602695 0.1327659637 0.2191219181 0.4454843402 0.4766629636 0.4671484530 0.5064566731 0.3125509918 -0.1829498708 -0.2005089372 -0.1305942386 0.0260319468 -0.1058753431 0.2327631414 0.1281433105 0.2450329363 0.4838843644 0.0047571007 0.0631236732 -0.1205942556 0.0935884342 -0.1305372268 0.0091745211 0.4104747176 0.1470119357 0.4733196199 -0.0792469606 0.4618284702 0.3684839308 0.4832191467 -0.1256471723 -0.1222461388 -0.1061215773 0.4555922151 -0.0330154151 -0.2029612809 0.0481178612 -0.2052182555 0.2141456306 -0.0492676049 -0.0055725505 0.1654796004 0.2533742189 0.2722249329 0.0522015542 0.7387160659 0.1436736137 -0.1196784377 0.6956075430 -0.1879694760 -0.2146987915 0.5922678709 0.3151187599 -0.0599103197 -0.1143392101 0.2628585696 -0.2358883023 -0.0997801796 -0.1594789326 -0.0624874607 -0.0691282004 0.0626643598 -0.0244875588 -0.1449674517 0.2796404660 -0.0591899008 0.0605424754 -0.0891959742 -0.1215791851 -0.0300057996 -0.1727121323 -0.2178667933 0.0002808962 0.2889358103 0.1225037053 0.1219142228 -0.1696064770 0.0847003013 0.3107999265 -0.0261287745 0.0712149739 -0.0252904892 0.3020388484 0.4333598316 0.4827792048 0.1410575807 -0.1064169779 0.0896641612 -0.1495363861 0.2189952731 0.3422471583 0.2175897509 0.1424493343 -0.1734770089 -0.0607182421 0.0580812544 -0.2260495424 0.1683359742 0.3151039183 0.1798151284 0.2579070628 0.0502655245 -0.1510881037 0.2897013724 -0.0733859912 0.2372182012 -0.0045005991 -0.0565684438 0.0420250632 0.0175948292 0.0393656455 0.1250057966 -0.1277403384 -0.0038910364 0.1803579628 -0.2127083242 0.2390505522 0.0186806638 0.0305809602 0.0375367254 0.0232328437 0.3525433838 0.1234329566 0.7657048702 0.4888446033 0.0302432999 -0.0802044794 0.5478847623 -0.0636599734 0.0938982889 0.0645937622 0.0582763776 0.2571029365 -0.1434854418 0.2076752335 0.7357766032 0.1014337763 -0.0531971939 -0.1643329561 -0.0700240359 0.1019811854 0.3039916754 0.1602639556 0.2961061299 0.4142121375 0.5087578297 -0.0572032258 0.3399054408 -0.0005656276 0.0257145762 0.0562548935 0.2209063917 0.4877387285 0.0113523938 -0.1167088076 0.0846983269 0.0675207004 -0.1212384999 0.3921808004 -0.0006014931 -0.1536220014 0.4510526359 0.1730037928 0.0083721792 -0.0504403226 0.3955829144 0.1371243894 0.1039498597 -0.0960714296 0.1770898700 -0.0772330239 -0.0844577402 0.0893435478 0.2503882349 -0.0646746829 -0.1948013753 0.0460572653 0.4228323698 0.1250336915 -0.0003349418 0.1630581617 0.3674091399 -0.0375062525 0.1364406794 0.5109491944 -0.1027786210 -0.0962201655 0.6411837339 0.2130150795 0.1592006087 0.0380769521 0.1130050272 -0.1535194963 0.1226038486 0.4333129823 -0.0738648847 -0.0508152172 0.1815113425 0.5425726175 -0.1417778283 -0.1989880055 -0.0227415133 0.2339428961 0.3567062318 -0.0113323685 -0.0403876230 0.2553214431 0.2673521340 0.1251932681 0.3358142674 0.0325804725 0.0805126131 0.2267241329 0.4918088913 0.3300864697 0.0398815945 0.1208912432 0.0522885323 -0.0742486492 0.3805143535 -0.1302693039 -0.0308276322 0.2874940634 -0.1355285943 0.0868830010 0.1096474677 0.4420280159 -0.0144441081 0.6242951751 0.0861919150 0.1754153073 0.4389307797 -0.1034828052 0.0109632267 0.2056711316 0.0511901453 -0.1795428544 0.0684888214 -0.1069670692 0.5678572059 0.0293856636 0.5715047121 0.5501837134 0.0717720166 -0.0187690426 0.2768658400 0.1912563890 -0.0049591009 0.2080840468 -0.0060108071 0.2910807729 -0.1584460437 0.5404688120 0.4806703329 -0.0021621767 0.0113105830 0.0571000054 0.1561057121 0.4102365077 0.3607708216 0.0045299884 0.0101004615 0.3511125445 0.1297074407 0.2288278788 0.3425695896 0.0259848218 -0.1686590016 -0.0124819130 0.0402176455 0.1402399987 0.5213245153 0.0715068579 -0.0913979933 0.3922794759 0.0277393851 0.0594194569 0.0344200730 -0.0077325990 0.2979425788 0.0590547211 0.2696409225 -0.1105715856 -0.1199970171 0.4537062049 -0.0492412671 -0.1453253776 0.5544264913 0.1028730199 0.0467826165 0.4119697809 -0.0614552200 -0.1071197018 0.0986857116 0.0662702471 -0.0628013238 -0.0736517906 0.7600876689 0.6153871417 -0.0379349440 0.1851195693 0.1087945104 0.0354596488 -0.0321121924 0.1038379371 0.2774913609 0.1239952892 0.3716743886 0.5594866872 0.4464263022 -0.0167204030 0.5850179791 0.2309947610 -0.0980087221 0.4697521329 0.4004706144 0.4014911950 0.1597838104 -0.1188553125 0.2858715951 0.1582561880 0.0043342644 0.1266304702 0.1877596676 -0.1684160382 0.3816008568 -0.2092311084 0.1618313491 -0.2161152065 0.5216664672 0.3788478076 0.0643635988 -0.1029428840 0.6011434197 0.5907304287 0.3758115172 -0.2129852474 0.2492796034 -0.2311732918 0.4323034286 0.1558068842 -0.0320664756 0.4516139030 0.0168326292 -0.0860237926 -0.0140569052 0.1734106243 0.1888501048 -0.0257249121 0.2042496949 -0.1845564097 -0.0734820068 0.1662038565 -0.2984496653 -0.1333673298 0.1040441245 -0.1193529665 0.2177921981 0.1619524062 -0.1174201965 0.3171288371 0.1013152748 0.2029556483 0.0199472383 0.4084322453 0.3137940168 0.3074298501 0.1408579350 -0.1404927969 -0.0370107405 0.5080724359 0.1318203062 0.2113793194 -0.0179783702 0.0264219902 0.4072555900 -0.0114322752 0.6661657095 0.1273628324 0.0813055709 0.4817206562 -0.1369259953 0.0878057852 -0.1738670766 -0.1531268805 0.2847845256 0.4713510871 -0.0144374724 -0.1307565421 -0.1583651602 0.8030922413 0.3925760388 0.3906632960 -0.1161454022 0.2921940982 0.1568345129 0.0936043411 -0.1840396225 0.7028551698 0.0801824406 0.4052458405 -0.0462735072 -0.1350393295 -0.1550621986 0.2640348673 0.1469171345 -0.1063401401 0.2458532006 -0.0651207268 -0.0854508057 -0.0407092683 0.0613322966 0.1491647363 0.1230290979 -0.0628449693 -0.0797520503 0.2468740642 0.1631524563 0.0417146683 0.3052254319 0.3195833266 -0.1546712667 -0.0545875505 0.0662455335 0.6553893685 0.0837224722 -0.0332372859 -0.0793301240 0.2867303789 0.1636170745 0.4363194704 0.3287477791 -0.0995132476 -0.2012292296 -0.2312488705 -0.2093920559 0.0516749099 0.2171187103 -0.2879564166 0.2520689368 -0.0198596455 0.3055625558 0.3316083848 -0.0947962254 0.0268902369 0.2444336116 0.3161885738 -0.0327477753 0.1857204139 -0.2234577984 -0.0066993204 -0.0934298858 0.0445564352 0.1062565595 0.2223239243 -0.1384314001 -0.0623067729 0.2521770895 0.2521806657 0.0408122204 0.1010245383 0.4060165882 0.1456348002 0.4541708827 0.5508803129 0.8041444421 0.2158959657 -0.0134378579 0.4713216126 0.0059652803 0.3666022122 -0.0723893046 0.1924061179 -0.1428694576 -0.1486212462 0.5059828758 -0.1625596732 0.3648609519 0.1568695754 0.0884684175 -0.1104363203 0.0442573801 0.5180124044 -0.0962694362 0.4359231591 0.2667653263 0.2994091213 0.0756676197 -0.0903357342 0.4580764771 0.1527930349 0.2132644206 -0.1110856533 -0.0321925618 0.1719755083 0.1432155520 -0.0127503788 -0.1170986742 0.2139432132 0.2306798697 0.0896632969 0.1417679042 0.7580585480 0.7079365253 0.1959792376 0.5072967410 0.0412328616 0.5112318993 0.6222674251 0.1491449922 0.2927652001 -0.0605276152 0.5509802103 -0.0332517475 0.4753225744 -0.0494642258 -0.1293981373 0.2099958360 0.3857910931 0.5303691030 0.5150623322 -0.1213356778 0.2953279614 0.1516619772 -0.2761742473 -0.1766301244 0.0123873986 0.0108107720 -0.1134990454 -0.1097448468 0.1914095581 -0.1178580299 0.5588996410 0.1644438952 0.0107537787 -0.2143479437 0.1420964152 0.0284315646 0.5960554481 0.3336024880 -0.0584201030 -0.1799112260 -0.0047561978 -0.0578799918 0.0891191140 0.2096358091 0.0066015157 0.1388450712 -0.1476779282 0.4078870416 -0.0630107746 -0.0980703905 0.3330555260 0.3690898120 0.1656859815 -0.1382424831 -0.1264428794 -0.1005622447 0.0473617800 -0.0785921216
0c7405f73c1855193585f67d402073f3__37.02_38.96 0.0533142090 0.1115391329 0.3068379462 0.0910640210 0.1421251744 0.1336006820 0.7024663091 0.1483777165 0.0759235099 0.0552871004 0.0419142246 -0.0295550693 0.1678759456 0.3310721517 -0.0430848002 -0.1218491271 0.3751009405 0.2554763258 -0.0630667657 -0.1903810948 0.3537760675 0.0734811425 -0.1222990304 0.0726435110 -0.1167689860 0.0105890129 0.2010895759 0.1468446404 0.3738376200 0.4626353383 0.8040499687 0.0759043247 0.3096232116 -0.0615914650 -0.2003242224 0.3309561908 0.6148753166 0.1904028356 0.1000130177 0.1739117205 0.0443177484 0.0812196434 0.0413251631 0.3783071637 0.2948537171 0.4453526437 0.1711066663 0.2318133712 -0.1937835515 -0.2232885063 -0.1252062768 0.1664634943 0.1693913341 0.3067937493 0.3681238890 0.1515053511 0.7264227271 0.1765159369 0.1463685036 -0.0528435521 0.2177991867 -0.1062642336 -0.0447034799 0.3007978797 0.2732731998 0.3705546260 -0.0750033036 0.0398481861 0.2809592783 0.1035696715 -0.1485782713 -0.1324820220 -0.1744025648 -0.0531282201 -0.0325381793 -0.2398411036 0.3140497804 -0.2094487995 0.5318633914 -0.0480616949 0.0679077730 0.0751370415 0.3386482298 0.1316283494 0.0595426224 0.0679153353 0.2357937247 -0.1748454869 0.2230762690 -0.1751962751 -0.1919008195 0.4129174352 0.2219034135 -0.1010192335 -0.0753569156 0.4756105840 0.0875092596 -0.0676531494 -0.1155736744 0.2338757813 -0.1026981920 0.0138934152 0.2155129015 -0.1830283254 0.0262404457 -0.0255842209 0.3758201003 -0.1199079901 -0.0358626172 -0.0406472459 -0.1393924206 -0.2181681842 -0.0950195640 0.7906404138 0.5279040337 0.3973810971 -0.1659306735 0.1832194477 0.0648947433 0.0654491037 0.1730854511 0.3450983763 0.1507608443 0.2119614333 0.4913853705 0.5048247576 -0.3060685694 -0.0287604872 -0.0925702229 0.2624962926 0.3340130746 0.0553865992 0.2565131187 -0.1492108852 -0.1404161006 0.3524482250 -0.1932172030 0.2699176967 0.0905530378 0.4612125158 0.0552878417 0.0624539815 -0.1028483957 0.0436827838 -0.0135898991 0.1188848317 0.3531618416 -0.1683545709 -0.0562562309 0.1267275512 0.2090488672 0.3499259651 -0.1577194482 0.0390571393 0.1142949685 -0.1071115807 0.0317477435 0.3464441895 0.1845948398 0.0932144672 0.1003150344 0.4367363751 0.2997140884 0.4813963175 0.2608307898 0.0728766099 -0.0488784425 0.0718773603 -0.0352511927 0.2662745118 0.1234724373 0.1274091601 0.1604331881 -0.1385280490 0.0662249625 0.7309290767 0.2398924083 -0.0896419361 -0.1988101006 0.0151756220 0.1449120641 -0.1148356646 -0.0040526446 0.5336851478 -0.0091560781 0.0724466443 -0.0478250720 0.5045160055 0.0012153592 -0.0095616886 0.1548484117 0.0754134282 0.4776988029 0.0459363312 -0.1575482488 0.1826658398 0.1475109756 -0.1101461276 0.0912920386 -0.0469739512 -0.1351297051 0.0600273907 0.0237577856 0.3311052024 -0.0609822385 -0.0330235586 0.5581461787 0.2139995396 -0.1326790899 0.1638407260 -0.1055765897 0.0109716747 0.2394855618 0.0797218382 -0.0726879612 -0.1045135260 0.2900192142 -0.1949403584 0.0283839982 -0.0770282447 0.0276827384 -0.0829951763 0.1695016921 0.3107022643 0.5526256561 -0.1675682217 0.0617297515 0.2866913378 0.3439476788 0.2657591403 0.3180339634 0.1020214334 -0.1300162524 0.0032797959 0.5413173437 -0.0859907195 -0.1156612858 0.2156866640 0.1732118726 -0.0777758062 -0.1903712451 0.2303339541 0.3271797597 0.3583759069 0.0161379036 -0.1274296492 0.0769777372 0.1405387670 -0.0499625579 0.7979978323 0.2755607367 0.3049733937 0.3810131252 0.2748831809 0.0473406464 0.1452247798 0.2592269778 0.1450921744 -0.0878740922 0.2528864145 -0.1216281354 -0.0903015658 0.4768011570 -0.0843191743 0.2791023552 0.1444218308 0.2636274695 -0.0378772430 0.4632700086 0.3835186064 0.2563720644 0.0138848666 -0.1596892774 0.0161972381 -0.1528558880 0.1020157114 -0.1745107621 0.5979181528 0.1059378684 0.1448966116 -0.0554476194 0.0355657376 0.4691036940 0.0294276141 0.0340297148 -0.0525226481 0.0590096377 -0.0280048996 0.3604519665 -0.1081811413 0.1300710738 -0.1412346214 0.4688515067 0.3673990071 0.0172086488 0.0080256891 0.3770615757 -0.0155521249 0.0604497567 0.1450661123 0.1278780699 0.3028686047 0.2847344875 0.1343725622 0.0911333412 -0.0405421555 0.1275951713 -0.2020929009 -0.0864936411 0.0273455102 0.0070399176 0.3022854626 0.2827979624 -0.0220850203 0.2600440681 0.3232118487 -0.0086459517 -0.0004327225 0.0478029959 0.2413703948 0.0482424647 0.2192638963 -0.0663477629 -0.0882871076 0.1447935998 -0.1231417656 -0.1386568993 0.3427975774 0.1224844009 0.2668625712 0.2631350756 -0.0611927956 -0.1031612083 0.1649163067 0.3057925999 -0.0944610313 -0.0726797953 0.6041197777 0.2063343078 -0.0733693615 0.3690104187 0.2233779281 0.0851721540 -0.0506253652 0.3068612814 0.0736291111 0.3108803332 0.3053799272 0.3386010826 0.2709670067 0.4495550990 0.2308377028 0.2430379242 -0.0427786075 0.0937489793 0.0449394882 0.2169911414 0.4930877686 -0.1319693923 0.1872833222 0.0344487727 0.2233697176 0.0533722788 0.4113269448 -0.1711054742 0.4175563753 -0.2684541345 0.2624549568 -0.1445274651 0.1479062438 0.2276644707 0.3387146294 -0.0815014243 0.1997742355 0.2145952582 0.1918666363 -0.2980154157 0.1160424203 -0.1026466414 -0.0246479623 0.0603032783 -0.0083795432 0.6069235802 0.1194740981 -0.0467312038 0.0290873162 0.2331629694 0.5189325809 -0.0582486317 0.1983991414 -0.1707184613 -0.0799331143 0.2103552520 -0.3432019055 -0.1054610312 0.4500555992 -0.1160755455 0.4061950147 0.0520766042 -0.0959236622 0.8589174747 0.2343664020 0.3397730291 0.2162311226 0.6323189139 0.1254619509 0.1708700657 0.3843728006 -0.1009596884 0.0473884903 -0.0108579192 0.2439904362 0.0192275979 -0.0219862182 0.3894249797 -0.0965520591 -0.0478907600 0.1037665457 0.5158269405 0.2590970993 0.2317264825 -0.2038852423 0.2492127866 -0.1397873759 0.0625823885 0.0509515740 0.1319258213 0.2646239102 -0.0702765584 -0.0862063691 0.2488531470 0.0872521400 0.0178928003 -0.1282280385 0.1371026188 0.2360596508 0.6380791068 -0.1858160645 0.6412799358 0.1795229167 0.4006784558 -0.0820243508 -0.2162772417 -0.1412476301 0.4472082257 0.1647962630 -0.1197319180 0.3839631379 -0.0251696296 0.3040909469 -0.0697502866 0.0711848661 0.3974400759 0.3385072351 -0.0764143541 -0.1002966091 0.0865816921 0.0874790773 0.3238452673 0.5107027292 0.0917435512 -0.2291961461 0.1921474040 0.1695211977 -0.0661576912 0.1010289714 0.2303593010 -0.0902667791 0.0683959424 0.0794042051 0.1786655933 0.1938952506 -0.0637838393 -0.1663855165 -0.2303416282 -0.1275224835 0.5126810670 0.0459795259 -0.2448141426 0.2468114048 0.3286077082 0.1416746080 0.1917512417 -0.0446317717 0.2331586033 0.0783326924 0.1338190883 0.4417522848 0.5899580717 -0.2365586758 -0.0525838472 -0.0846239626 0.4358513057 0.0414417014 0.5052768588 -0.1619784683 0.0329509899 0.1986603886 -0.0230890475 0.1389747411 0.2455593050 -0.0338170603 0.1261320859 0.1210168004 0.1151602641 0.2944161296 0.3236676157 0.4253539145 0.0617604852 0.0043426859 -0.0791697502 -0.1163022444 0.6042119861 0.3154639602 -0.1779598892 0.2761811912 -0.1219272390 0.0560475290 0.2673653960 0.2466926575 -0.1455199867 0.0371960215 0.2301630080 0.1716634482 -0.0975330770 0.0016228613 0.5738857388 0.2601478696 -0.0911953747 0.0320175290 0.2000623941 0.1307087988 -0.1037719920 -0.0952984765 0.3276422322 0.3905161619 0.0110191246 -0.1351688206 0.2199266851 -0.0454196520 0.2289730012 0.0473277271 0.4190944135 0.3283881247 0.2386059463 -0.0963638946 0.6137686968 0.2978831232 0.3433601856 0.1821831018 0.4651000500 0.0465080477 0.4068722129 0.1032681465 0.0275666788 -0.1244389936 -0.1532930285 0.2330237478 -0.1094583943 0.6424182057 0.1106506437 0.0062258150 0.2384356260 0.0564314276 -0.2508138716 -0.0842027292 0.1292724460 0.1219105124 -0.0901921839 -0.0897905603 0.0837747008 -0.1835823506 0.1943362951 0.2643319964 0.2350665033 -0.1763865203 0.4854952395 0.0513383411 0.5124192834 0.0439524502 -0.0879259557 -0.2364594787 -0.0102216788 -0.0676928088 -0.0349745676 0.0133399433 -0.0182414521 0.5239944458 -0.1735816747 0.4217646420 -0.0586529709 -0.1022124812 0.0449509099 0.1079475507 0.3203464150 -0.1759463847 -0.1425292939 -0.0859585181 0.0754668266 -0.0653313547
0f4017d282fbfa19509f3681eb914154__131.84_146.26 0.0155771170 0.0965683907 0.4768375456 0.0352431759 0.0956827551 0.2752812803 0.8260833025 -0.1132842973 -0.0571502261 0.5800639391 0.1438571811 -0.0299359336 0.0937162340 0.0369514972 -0.0839323625 -0.1842974573 0.2129998058 0.0093298703 -0.1656037867 -0.1125644445 0.1241604984 0.2899566889 -0.0759383664 0.1035418287 -0.0306640845 0.1327105910 -0.0335909836 0.0995528772 0.3495575786 -0.1339099705 0.1762282997 0.1520794928 0.3783899248 -0.0768646747 -0.2401316762 0.2397415638 0.2872404754 -0.0213344991 -0.0506007187 0.1781027615 0.4884655476 0.2013205588 0.1366408914 0.4789401591 0.4318528175 0.5575696230 0.4185886085 0.4320218563 -0.1343876421 -0.1801380664 -0.1063793004 -0.0738635361 -0.0317656696 0.3104697466 -0.0405458473 0.1786375940 0.4753099382 0.0053655989 0.0056799604 -0.1370566040 0.0628912300 -0.1287115961 -0.0412612520 0.4774214923 -0.0368461721 0.5097661018 -0.0649294928 0.2555672824 0.4482645392 0.4877119064 -0.0674941018 -0.1337654293 -0.0571746156 0.2478520870 -0.0154231638 -0.1771634966 -0.0260250103 -0.1658497155 0.0717778206 -0.0359741785 -0.0207860786 0.2633500993 0.1177603900 0.2957530916 0.1085100695 0.6715542674 0.1866885275 -0.1452649683 0.6932806373 -0.1599508822 -0.2200107574 0.5337776542 0.2566266954 -0.0198499672 -0.1166445315 0.0643462986 -0.0894452706 -0.0950438082 -0.1464307606 -0.0586926937 -0.0462174937 0.0941938907 -0.0309578422 -0.1388102174 0.3575624824 -0.1090195104 -0.0689008087 -0.1004780382 -0.0967084616 -0.0315990560 -0.1522191912 -0.1796899885 -0.0736884028 0.4028494954 0.0884777531 -0.0448547862 -0.3616088629 0.0770106986 0.3136147857 -0.0437868312 0.0495822169 -0.1508034170 0.3000495434 0.4724625349 0.5827409029 -0.0772546232 -0.3350522518 0.1018449217 -0.1244826987 0.2675097585 0.3366479278 0.1542448997 0.1359480619 -0.1532395035 -0.1549315006 0.0807166174 -0.1988872886 0.0604756251 0.3967557847 -0.0423734225 0.3118304014 0.0409919098 -0.1451579332 0.2020175159 -0.0493356958 0.1547751278 0.0005951016 -0.1715856791 -0.0868612528 0.0089236703 -0.0033515764 0.2332026213 -0.1107236221 0.0697741061 0.2974759042 -0.1954448521 0.1334395409 -0.0328549668 -0.0878090039 0.0090939067 -0.0275279358 0.5021280646 0.0527718551 0.8257766366 0.6476472616 0.0514044277 -0.0643178970 0.4501899779 -0.0696064010 -0.0587136075 0.0016317517 0.0536679290 0.2650539279 -0.1165554971 0.1836511046 0.9340623021 0.1300344020 -0.0445158258 -0.1345520169 -0.0729890168 0.1126879230 0.1461824775 0.1967033446 0.4486921430 0.3537129164 0.6079607010 -0.0320470966 0.4445991516 -0.0378626771 0.0557028577 -0.0264945813 0.2327592820 0.5556006432 0.0389436334 -0.0742812678 0.0919843018 -0.1077049300 -0.1430513561 0.3611818850 -0.0688214824 -0.1402134746 0.4628922343 0.1761634797 0.0624247789 -0.0477399267 0.2653081715 0.1761187911 0.1566663682 -0.0820388794 0.2386228591 -0.0720952898 -0.0253654104 0.0558080822 0.2599095404 -0.0813293681 -0.2002333552 0.0385945961 0.4807133377 0.1625093222 -0.0603105575 0.1298509836 0.3488028049 -0.0954612643 0.1105757877 0.6200886965 -0.0674455091 -0.0106982533 0.6105859280 0.2496046573 0.2097645551 -0.0374087989 0.0314653814 -0.1258291751 0.1727415621 0.5639760494 -0.0803320035 -0.0305840205 0.1402442306 0.4750709832 -0.1409657598 -0.1812518388 0.0120372493 0.0151253324 0.3918924630 -0.0353341326 -0.1336355656 0.2480052561 0.1274690777 0.0692719668 0.4326889217 0.0400915369 0.0312451571 0.3520042598 0.5538843870 0.0735315979 -0.1035027355 0.0545365065 -0.0595716685 -0.0693066791 0.3088007867 -0.1151276380 -0.0349921770 0.3211830556 -0.0996349379 0.1499343365 0.0558245927 0.4706036150 -0.0543949120 0.4393684268 0.0162346158 -0.0061327806 0.4303407967 -0.0865087658 -0.0009651153 -0.0335321017 0.0044696108 -0.1469146609 0.0353935584 -0.0003479578 0.5365868211 -0.0336143486 0.4318116307 0.5097673535 0.0426531136 0.0412372574 0.2497239411 0.2407350987 -0.0241124108 0.2012318075 -0.0667320564 -0.0029157978 -0.1596033722 0.6699758768 0.5559847355 0.0291096494 0.0081250202 -0.0487852544 0.1597567052 0.2836870849 0.3404691517 0.0399149209 -0.1433741301 0.3765711784 0.1346466392 0.2109286338 0.1524304748 0.0327521525 -0.1939673722 -0.0113501456 0.0229449924 0.0000929721 0.3393832743 0.0191728994 -0.1110967547 0.3883302510 0.0615999177 0.0583141148 0.0436959863 -0.0058639487 0.3099647760 0.0359835997 0.3371760249 -0.0936722085 -0.1213116497 0.2921091318 -0.0315120816 -0.3065086901 0.6298563480 0.1674294919 0.0985765755 0.2849163115 -0.0650769845 -0.0951999649 0.1196294278 0.0489259288 -0.0555237643 -0.0533304885 0.8677851558 0.6895127296 -0.0229675118 0.1186802685 -0.0307356585 0.1615082920 -0.0161473826 0.0529310629 0.2289221585 -0.0331745110 0.4811823368 0.6624078155 0.4027870595 0.0777513981 0.5730664730 0.2250211984 -0.0513582081 0.5260439515 0.3663354814 0.3984737694 0.0892594382 -0.1321400255 0.3410380185 0.1600496620 0.0352246836 0.1240756810 -0.0965912566 -0.1715604067 0.4774958491 -0.2133609802 0.2278402448 -0.2049638480 0.5208738446 0.3510866761 0.0330854245 -0.0874826610 0.5747104883 0.5056945682 0.3805922866 -0.2181720138 0.2569164932 -0.2277086824 0.4295420647 0.1337239146 -0.0477027819 0.5765759945 -0.0456014164 -0.0539552718 0.0305484012 0.1325708628 0.1979309469 -0.0189542994 0.2466028780 -0.1489484310 -0.0894082189 0.2107510418 -0.2558431327 -0.1294001937 0.0358311757 -0.1052139401 0.2502871752 0.1790557057 -0.1157350093 0.3616822362 0.0199646931 0.0436238274 -0.0341498740 0.4220184982 0.0743697286 0.2462098002 -0.0465459973 -0.1266119927 0.0606623963 0.6374800801 0.2035456896 0.1758400798 -0.0159027111 0.0062066643 0.3413122296 -0.0051936209 0.6445386410 -0.0462409072 0.0672458857 0.6280468702 -0.1114044040 0.1492233127 -0.1542644799 -0.1042590067 0.2601023316 0.3570839167 0.0025794916 -0.1481098682 -0.1675954908 0.8239713311 0.4690891206 0.4808246493 -0.1167794093 0.4384431541 0.1296327114 0.0826247185 -0.1611528695 0.8193084002 0.1013047844 0.4325385690 -0.0193542354 -0.1443571597 -0.1816648543 0.3413259089 0.0082147624 -0.1216248199 0.2813838124 -0.0702316463 -0.0225549527 -0.0303812213 0.0462325066 0.2155705541 0.1213279068 -0.0218428038 -0.0715969205 0.1477631629 0.1941406727 -0.0344308838 0.4014573097 0.2953314185 -0.1321088225 -0.0158677734 0.0928431898 0.4963261485 0.0843168497 -0.0143263452 -0.0940942615 0.1773732901 0.1252139807 0.4487181008 0.3626753688 -0.0747229159 -0.2155965269 -0.1976613700 -0.2310723960 0.0996229872 0.2748545706 -0.2781613767 0.2659792006 0.0203453712 0.3128540516 0.2265778631 -0.0597593039 -0.0409451090 0.2788815498 0.2887066007 0.0025875792 0.1309339106 -0.1963846684 -0.0043802825 -0.0924302042 0.0055276109 0.1759305596 0.0552087203 -0.1453741789 0.0684653819 0.3009716570 0.1815703660 -0.0473860838 0.1073964983 0.3013973534 0.1466603279 0.5138672590 0.6132097244 0.8073496819 0.3208698332 -0.0589518473 0.3954704702 -0.0008740062 0.2492968440 -0.0436382703 0.2249713987 -0.0560293607 -0.1251504272 0.6342994571 -0.1507443637 0.2780968249 0.0131846238 0.1362056434 -0.1111079007 0.0715537146 0.4904739857 -0.0151985614 0.4109156430 0.1557002217 0.2870293260 -0.0544481650 -0.0781573504 0.3170154691 0.1329104900 0.2221568227 -0.1078904495 -0.0051255529 0.1842608750 0.1039155722 -0.0113995979 -0.0942018777 0.2822315693 0.2765359282 0.0794213787 0.1416983306 0.8132745624 0.7372036576 0.2022298574 0.5047163367 -0.0480973348 0.4736257493 0.7153385878 0.1253900379 0.3939820528 -0.0129478611 0.6363249421 -0.2562543452 0.3523958325 -0.0376801342 -0.1047748104 0.1056817397 0.2665012181 0.7152114511 0.5596093535 -0.0406902283 0.3529207110 0.1147919595 -0.2423131615 -0.1374475658 0.0366170667 -0.0753677264 -0.1247014850 -0.0971953124 0.1241665035 -0.1258180737 0.4915514290 0.0837229639 -0.1119054928 -0.2509291172 0.1807081550 0.0074332450 0.6727144718 0.2216452062 -0.0660199597 -0.1665535122 -0.0514136963 -0.0451347567 0.0849408805 0.2932573259 -0.0519653521 -0.0710912049 -0.1258455664 0.4276151359 -0.0517489016 -0.0792824998 0.3399131298 0.3891306221 0.2453287542 -0.1479841173 -0.1136498377 -0.0790184289 0.0443530865 -0.0890986621
0f4017d282fbfa19509f3681eb914154__25.99_56.53 0.0195289925 0.1107273176 0.4171600938 0.0818419307 0.0341634564 0.3124492168 0.7546030879 -0.0704170391 -0.0178660881 0.5338919163 0.1619353890 -0.0289780684 0.0693662763 0.0009695943 -0.0869111195 -0.1656291336 0.1729449928 0.0666288584 -0.1632916182 -0.1014343947 0.0565400422 0.2973175645 -0.0729063600 0.1376276463 -0.0244554486 0.1568735987 -0.0281698257 0.1693847477 0.2661760151 -0.0576191172 0.0802502334 0.1575630754 0.4091657400 -0.0462200902 -0.2148197442 0.1575802863 0.1552872062 0.0130009390 -0.0164020173 0.1731105000 0.4719887674 0.1944067478 0.1491487175 0.4624519646 0.3557470441 0.5591107607 0.3684009314 0.4391039908 -0.1235336214 -0.1680907607 -0.0902372897 -0.0185162723 -0.0285325106 0.2561019957 -0.0552119948 0.1465623677 0.3007242978 0.0289132930 0.0457711481 -0.1257978827 0.0335536972 -0.1046528518 -0.0336887278 0.4108181000 0.0124978777 0.3536719680 -0.0681498274 0.3146898150 0.4812346101 0.4618612528 -0.0597994104 -0.1116188690 -0.0473349169 0.3055476248 -0.0043230881 -0.1574406177 -0.0425990596 -0.1592185497 0.0065327371 -0.0277442560 -0.0554232933 0.2594187558 0.0690471232 0.2419144362 0.1491443813 0.6699996591 0.2204732299 -0.1315638572 0.6301209927 -0.1451786757 -0.1938338429 0.4242376089 0.2176671475 -0.0287992377 -0.1115734056 0.0109814685 -0.0500731021 -0.0821070597 -0.1267711520 -0.0170051530 -0.0420141667 0.1213046312 -0.1009567454 -0.1283166409 0.3901500702 -0.1013943106 -0.0219686106 -0.0937664360 -0.0981711745 -0.0334526114 -0.1528152525 -0.1531523764 -0.0383591354 0.3151021004 0.0188624095 -0.0243042447 -0.2875027061 0.0312403254 0.3495237529 -0.0637778640 0.0228739399 -0.0479315147 0.2633038759 0.4602431655 0.5202986002 -0.0186196603 -0.2327002883 0.0838517547 -0.1171673313 0.2988637686 0.2439056933 0.1936261803 0.0771447942 -0.1534196287 -0.1006940305 0.0433370210 -0.1803354621 0.0199380536 0.3715131581 -0.0407642834 0.2819180787 0.0283921324 -0.1278687567 0.2094230801 -0.0447761118 0.1435647309 0.0124967359 -0.1095753834 -0.0630798489 0.0279837046 -0.0008632687 0.1917222589 -0.1072704718 0.0690772086 0.2764930725 -0.1934412420 0.1494065374 -0.0053126942 -0.0100949137 -0.0072110733 -0.0227328055 0.4087242186 0.0098564876 0.6677446365 0.5852078199 0.0299594514 -0.0666411147 0.4520446062 -0.0792851746 -0.0601739958 0.0080260560 0.0440609716 0.2085170448 -0.1150699183 0.1635265052 0.7925834656 0.0185861159 -0.0319166481 -0.1186101735 -0.0620776266 0.0905703530 0.1859627217 0.2088370174 0.3744097650 0.3457943201 0.5473008156 -0.0320628136 0.3501353860 -0.0260815881 0.0437820926 -0.0300435983 0.2394812107 0.4267902970 0.0278256461 -0.0587325245 0.0127876988 0.0296057463 -0.1129630655 0.4540699422 -0.0673077926 -0.1401281059 0.4778220952 0.1670371294 0.0165189467 -0.0516927354 0.3060878515 0.1039610729 0.1201685071 -0.0772794858 0.2340442389 -0.0588561818 -0.0086525436 0.0918501690 0.2643379867 -0.0693694800 -0.1882561445 0.0781884268 0.4564799368 0.1529901773 -0.0395122096 0.1406392753 0.3643951416 -0.0448734052 0.0520597510 0.5331772566 -0.0611523204 0.0064785117 0.5274466872 0.1835338026 0.0963245407 -0.0092157349 0.0631350726 -0.1298333555 0.1665321738 0.4821712971 -0.0775334463 -0.0307287704 0.0885310546 0.4402687550 -0.1273402721 -0.1503372341 0.0047448408 0.0027055903 0.3064968884 -0.0513222814 -0.1075479239 0.2146992683 0.1249758005 0.0869706422 0.3015796542 0.0061475397 -0.0014625192 0.2959072590 0.4319425225 0.1455798149 -0.0668642297 0.0157254953 -0.0827976763 -0.0646461174 0.2452156395 -0.0961070061 -0.0284415018 0.2868477702 -0.1047468483 0.1922882348 0.1341906041 0.4326215088 -0.0291217975 0.3627779484 -0.0069299880 -0.0029259520 0.4799945056 -0.0746508688 -0.0192963667 0.0306474529 0.0483975261 -0.1354196072 0.0224450305 0.0062162885 0.4611015022 -0.0224244706 0.4621611536 0.3888291717 0.0423695445 0.0575702637 0.2677519619 0.2295634449 -0.0285509750 0.1571097076 -0.0280685015 0.0586022213 -0.1422921270 0.5972383022 0.4307981133 0.0261567235 0.0087408479 -0.0445024893 0.1918700188 0.3127008975 0.3981375694 0.0417153910 -0.0422673598 0.3095904291 0.0902615711 0.1877798885 0.1946417987 -0.0241160169 -0.1723942608 -0.0137483710 0.0416933820 0.0336530693 0.3083601594 -0.0054360284 -0.1222081557 0.2938618660 0.0878249258 0.0634485781 0.0432033315 -0.0371655636 0.2451289445 0.0354211256 0.3056220114 -0.0815749243 -0.1239199638 0.3931922019 -0.0317968652 -0.2215797305 0.5458703041 0.1661891341 -0.0186441727 0.2487787604 -0.0703540817 -0.0808820650 0.0981110632 0.0090802545 -0.0540999733 -0.0665216669 0.7305107713 0.6240115762 -0.0300602820 0.0480256230 -0.0518408120 0.1769381464 -0.0122590922 0.0139641473 0.2197974324 -0.0584678017 0.4389071167 0.6812481880 0.3377101421 0.0204631872 0.5060731769 0.1917610019 -0.0666672885 0.4736179411 0.3536083102 0.3165032566 0.0421671234 -0.1081830263 0.2738561332 0.1479982287 0.0556752235 0.1320410818 -0.0647509024 -0.1445581168 0.3908830583 -0.2008239180 0.1888547987 -0.1772224605 0.4313716590 0.2846915722 0.0033566291 -0.0794695914 0.5311331749 0.5369300842 0.3125622869 -0.1828736216 0.2669690549 -0.2070374340 0.4870041311 0.1365551054 -0.0366087481 0.5234483480 -0.0074422415 -0.0544471815 0.0364503823 0.1213096455 0.0961683691 -0.0216898043 0.2248017788 -0.1451146603 -0.0930428505 0.2491729707 -0.2240633368 -0.1228971928 -0.0110162143 -0.0864683986 0.1771253198 0.1483223885 -0.0977869034 0.2336426675 -0.0007470157 0.0125025306 0.0133266998 0.2677586079 0.1183712929 0.2004323304 -0.0805827230 -0.1127443165 0.0786845535 0.6040667295 0.1570736468 0.2667630017 -0.0150115937 -0.0159879550 0.3470954299 -0.0065289810 0.6113829613 -0.0529513173 -0.0152731305 0.5693648458 -0.1060361043 0.1125234589 -0.1476108432 -0.0332816169 0.2810217738 0.3373126984 0.0276048910 -0.1389085054 -0.1622197479 0.7474898696 0.4129038155 0.4323072433 -0.1107919663 0.4158181250 0.2062857449 0.0144242533 -0.1500933468 0.7256381512 0.0838975832 0.3419820070 -0.0188718401 -0.1204974949 -0.1571882069 0.3385590315 0.0882477090 -0.1126875579 0.2811025083 -0.0648438632 -0.0388766453 -0.0350893736 0.0647071600 0.1835462004 0.0577624254 -0.0109256394 -0.0743371546 0.1423731893 0.1779189855 -0.0745549724 0.3900111914 0.3171449006 -0.1001162082 -0.0220792815 0.0752641782 0.5067421198 0.0529542118 0.0009635966 -0.0808605626 0.2032627314 0.1037006825 0.4121226370 0.3085495830 -0.0834207535 -0.2049251348 -0.1821754277 -0.2136642635 0.0657845587 0.2876320183 -0.2513852417 0.2247714400 -0.0196615048 0.3399677575 0.3050034940 -0.0589494444 -0.0846456140 0.2627829611 0.2632570267 -0.0125604551 0.0104164109 -0.1858785301 -0.0080441982 -0.0888220146 0.0351864137 0.2135504484 0.0039520282 -0.1120270118 0.1055470333 0.2619808614 0.1956251264 -0.0030986778 0.1757530123 0.3223581910 0.1978435218 0.4713059664 0.5714244246 0.7470947504 0.2568290234 -0.0387873128 0.3650721908 -0.0070153447 0.2807233036 -0.0440837294 0.1559387445 -0.0162762515 -0.1184171066 0.5612297058 -0.1436758935 0.2820922732 -0.0359799713 0.1293220222 -0.0952825174 0.0537623651 0.3858390152 -0.0076898262 0.4293009937 0.1770751327 0.1526069045 -0.0351716466 -0.0673689768 0.3753324449 0.0927221999 0.1795919836 -0.1136895269 -0.0154534271 0.1278688163 0.0454271883 -0.0227972660 -0.0899889246 0.2910840511 0.2569339275 0.1510027200 0.1552947760 0.7232356668 0.6538879275 0.1949566007 0.4868573546 -0.0471304730 0.3931335807 0.6227498055 0.0815224871 0.3761704564 -0.0181558859 0.5102850795 -0.2290180475 0.3919558525 -0.0194094032 -0.0916283950 0.0753164291 0.3117730618 0.6154745221 0.4982112348 0.0288726389 0.3531138301 0.0841305330 -0.2246862799 -0.1346408576 0.0204790309 -0.1060803384 -0.1219478175 -0.0932477638 0.1080621704 -0.0931381211 0.5547792315 0.0347749889 -0.1003933325 -0.2246638983 0.0921076909 0.0058291918 0.5540300012 0.2713170052 -0.0535337292 -0.1435032785 -0.0494439118 -0.0326205269 0.0801560581 0.2841032445 -0.0239380971 -0.0692450479 -0.1292456090 0.3269929588 -0.0553494468 -0.0679903775 0.3390006125 0.4075239003 0.2714945972 -0.1337981224 -0.0992884040 -0.0710542798 0.0317257941 -0.0588775314
11965bc3d7b3a55438683abccf1f066c__806.23_810.06 0.0194028746 0.0099828281 0.3512838185 0.2316353172 0.1153730378 0.2659526467 0.4902277291 -0.0470802821 0.0129510770 0.4389480650 0.1266081780 -0.0258205794 0.1043053195 0.0728648603 -0.0893318579 -0.1471764743 0.1004459187 -0.0562848561 -0.1547094285 -0.1258670241 0.0962064192 0.1587507874 -0.1267332584 0.0988422334 -0.0750790611 0.1763816625 0.0439172983 0.2970307469 0.3623669147 0.1687625349 0.0494119003 0.1102792397 0.2708032429 -0.0791798010 -0.2099583894 0.0772076696 0.2042153180 0.1322082132 0.1142538041 0.0994216278 0.3709212542 0.1263938695 0.0701796785 0.1699340492 0.4308078587 0.3246690631 0.4611960351 0.2848622203 -0.1720620543 -0.2022457868 -0.1207823604 0.0761566758 -0.0065830741 0.2948036492 0.1386128515 0.1734589487 0.3284116983 0.1320634782 -0.0138488645 -0.1114760265 -0.0160729717 -0.0903195590 0.0171581730 0.4900391102 0.1278962195 0.4891207218 -0.0635557249 0.3100165725 0.2712479234 0.3381450176 -0.1105437130 -0.1058110520 -0.0988944098 0.4464166760 -0.0475817174 -0.1716545373 0.1630944014 -0.1943303645 0.1972914487 -0.0165282376 0.0363071859 0.1635701805 0.1727771163 0.2666177154 0.1901051253 0.5464376807 0.1501502097 -0.1205564663 0.4942083061 -0.1809834391 -0.1902708858 0.5382001400 0.0073666098 -0.0660855472 -0.1048423871 0.1463339329 -0.1414802670 -0.0936576277 -0.1366380602 0.0084205791 -0.0731681138 0.1198661402 0.0490042195 -0.1188696548 0.2955831587 -0.0219990220 -0.0016339975 -0.0859326646 -0.1322413832 0.0022698320 -0.1775053293 -0.1896980852 0.0597274676 0.2333683819 0.2048017681 0.0167464316 -0.0367378555 0.0973369703 0.4204987586 0.0079189781 0.0189498719 -0.0450342223 0.1798764467 0.2758783996 0.3541316688 0.1806760728 0.0349912271 0.0786623955 -0.1132078320 0.1125109643 0.1470593214 0.1765071005 0.0625568330 -0.1277883351 0.0166553780 0.1022022516 -0.2276696265 0.1439005136 0.3158871531 0.0326275527 0.2479453981 0.0061194999 -0.1408618987 0.2157889605 -0.0554284416 0.2325426638 -0.0855298936 0.0085291145 0.1413036585 -0.0585082546 0.0351041295 0.1975319684 -0.1218986586 0.0262353960 0.1891326159 -0.2062548250 0.1615706980 0.0560789481 -0.0271505006 -0.0732983649 0.0019760542 0.4359132051 0.1753796488 0.6042382121 0.5089952350 0.0300943926 -0.0633952394 0.4236536026 -0.0437982753 0.0937784463 0.0250231139 -0.0319668278 0.2013259232 -0.1483432055 0.2670887411 0.6695775390 0.1828714907 -0.0685168281 -0.1619602889 -0.0558888204 0.1720986962 0.3496836126 0.1680041701 0.3596532345 0.4653887749 0.4617075324 -0.0621538013 0.3086879849 -0.0102377422 0.0044906805 -0.0816289708 0.1730289906 0.4654622078 0.0031615803 -0.0889661834 0.0983711109 0.2715043426 -0.1053237990 0.5013979673 0.0134986956 -0.1402464658 0.3858898580 0.1169485375 0.0802412853 -0.0272064563 0.3843067884 0.1376469433 0.1805799901 -0.0742308050 0.1633306295 -0.0710484982 -0.0438004807 0.0756836087 0.2035035342 -0.0437411740 -0.1350199878 0.2619570792 0.3751096725 0.1313130707 0.0372100994 0.0801369846 0.3765687943 0.0778429657 -0.0176205784 0.3499065340 -0.1223219931 -0.0118038179 0.3773257732 0.3160611093 0.1637523323 0.0773811787 0.1607574970 -0.1524535865 0.1249429733 0.3461608887 -0.0655471087 -0.0730137080 0.2113475949 0.3280331194 -0.0949072540 -0.2126023322 0.0410308875 0.1088106856 0.2127508074 -0.0025875103 0.0117104044 0.2867377698 0.1268761903 0.1540355831 0.2990681827 0.0317334570 0.0870605037 0.3316914141 0.4439823031 0.2419047356 0.1146682277 0.1728304625 0.1504360735 -0.0635501295 0.2718316317 -0.1250300109 -0.0131644215 0.0934869274 -0.1219129115 0.1110402867 0.1554189026 0.2134951949 -0.0004347630 0.5374258161 0.1188210696 0.0994708464 0.5011455417 -0.0739128515 0.0193515979 0.3132432401 -0.0019713286 -0.1493646055 -0.0351425298 -0.0265110843 0.6011704803 0.0337247849 0.4871312976 0.2887123227 0.0834249407 -0.0369930416 0.2694924772 0.2266242802 -0.0159485023 0.0860396326 0.0400712863 0.2843078375 -0.1561361998 0.4832352698 0.4311866164 0.0184889361 -0.0180895645 0.2189281285 0.1706703156 0.3334611356 0.2875678837 -0.0245303903 0.0055671372 0.1669623256 0.1168033034 0.1261155009 0.3803388774 0.0359531753 -0.1281034499 -0.0291467234 0.0918369591 0.1359209269 0.5236591101 0.0158864185 -0.0776018128 0.3709674180 -0.0469229296 0.0438215137 0.0335548744 0.0059685791 0.2193838954 -0.0163909681 0.3474613428 -0.0798427239 -0.1022201329 0.5368568897 -0.0475925133 -0.0142938532 0.4675225914 0.0998837128 0.1179205477 0.3895491660 -0.0381635763 -0.1325971335 0.0232346132 0.0447465628 -0.0555902347 -0.0767182633 0.5847689509 0.5042119026 -0.0306067169 0.2490462065 0.2131564170 0.0529832020 -0.0472477078 0.1781422943 0.1597229540 0.2376670092 0.3828184307 0.3919781446 0.3904635012 0.1307378262 0.3742323816 0.3878685832 -0.1024235785 0.3986828923 0.3561388254 0.3803965449 -0.0122985020 -0.0973968655 0.2311859280 0.1522789598 -0.0837514997 0.0463479050 0.1557452083 -0.1354205310 0.3484753370 -0.2007620633 0.1484231502 -0.1747968793 0.5341657400 0.3038890362 0.0181240849 -0.0933238119 0.3929668963 0.2428398728 0.2564678192 -0.2072354108 0.1776887476 -0.1599951535 0.5061982870 0.1340543628 -0.0384848528 0.3541358709 -0.0268196370 -0.0624536164 0.0017042542 0.3644385636 0.1824208796 -0.0479892492 0.1538713425 -0.1815894395 -0.0670088381 0.1598436832 -0.2565511763 -0.1178540513 0.1968769580 -0.0956925526 0.1436351538 0.1544699818 -0.1072139740 0.2419859469 0.1319297403 0.2213544399 -0.0485534221 0.3213838041 0.2899804115 0.2719415426 0.2954159677 -0.1000684202 0.0337592326 0.4960731864 0.1705550253 0.3958522677 -0.0288655907 0.0249892697 0.4046022296 -0.0148883872 0.4862122238 0.1378842443 0.0795219690 0.4528250694 -0.1538768113 0.1051542833 -0.1732033044 -0.0185511522 0.2604187429 0.2429789156 -0.0368013941 -0.0921497121 -0.1045138836 0.5805595517 0.3852841258 0.3494332731 -0.1120738089 0.3397765160 0.0872026682 0.1277769506 -0.1814484149 0.4208997786 0.0291588530 0.2784211636 -0.0786826611 -0.1278156936 -0.1312196702 0.2080130726 0.2163378447 -0.0978665724 0.0926169753 -0.0484663993 0.0504815914 -0.0299350359 0.0060167364 0.0819335133 0.0693571717 -0.0612718314 -0.0732331350 0.1314533353 0.1851191968 0.2012665719 0.2297404706 0.3025797904 -0.1463985592 0.0327632874 0.0587469861 0.7276293039 0.0282387249 0.0527167097 -0.0662862882 0.1352323294 0.2081346661 0.2914088964 0.3859890103 -0.0819425434 -0.2184408307 -0.2368034869 -0.1827365607 0.0223109592 0.2001692355 -0.2474345565 0.3671445847 0.1070278212 0.2040015459 0.1753488630 -0.0873192474 0.1634201556 0.1905497164 0.1268247366 0.0289947260 0.2983708978 -0.1957901418 -0.0202236548 -0.0927858204 -0.1383894235 0.2294009924 0.3213629723 -0.1217818633 0.0339012034 0.2922686934 0.2696069479 0.1924333125 0.1425996721 0.3796432614 0.3415412605 0.3882782459 0.4095295370 0.4639806151 0.3033854663 0.0314885750 0.4634718299 0.0055890856 0.4066555500 -0.0811463445 0.0582577698 -0.0687104166 -0.1515341848 0.5159348249 -0.1228784397 0.1960434169 0.2670545578 0.0737442896 -0.0862787291 0.0167394429 0.5539838076 0.0035733646 0.4539907277 0.2409114540 0.1378895938 0.1264964640 -0.1048570126 0.4722891152 0.1050946787 0.1564291418 -0.1021211147 -0.0412987545 0.1588006020 0.0056332960 0.0073459283 -0.1543521583 0.2181321234 0.1916288286 0.2114586383 0.1397054493 0.8601465821 0.4910347760 0.0660860837 0.5013481975 0.1729090661 0.3332962692 0.5632047653 0.0306721497 0.2734937668 -0.0363391563 0.4603290260 0.1938811541 0.4303553402 -0.0529556312 -0.1494517028 0.2152434886 0.4118690193 0.5505406260 0.4229223430 0.0111926515 0.2154009640 0.1966802776 -0.2583468854 -0.1421998441 0.0567344800 0.0700859949 -0.1021432281 -0.0618131384 0.2511652112 -0.1160283834 0.4755302668 0.2010106146 0.1624558568 -0.1806004196 0.1841478646 0.0103947362 0.4593151808 0.2876113057 -0.0433224477 -0.1903128326 0.0112298504 -0.0477782302 0.0662053749 0.2078323662 0.0481210984 0.1238842681 -0.1388190836 0.2690040469 -0.0672234520 -0.0914495289 0.2649869621 0.3055842519 0.1325696707 -0.1140881106 -0.0934930444 -0.0623321943 0.0439372547 -0.0776123554
