00da1e09560aa8e86f4f994ae9e98a22_F_0000_73.28_91.11 0.0198422950 0.0512742698 0.3189555705 0.1192883179 0.0942002982 0.2095600963 0.5482136011 0.0880084932 0.0794218406 0.3454760015 0.1315325797 -0.0144851161 0.0827526599 0.0935942903 -0.0753601864 -0.1507661641 0.2077484578 0.0454453044 -0.1116949692 -0.1224317774 0.1682467610 0.1906689405 -0.1079762727 0.1089948118 -0.0672273338 0.0918447003 0.0891806334 0.1912373751 0.2919870913 0.1756358147 0.3067594469 0.0994983837 0.2238378972 -0.0693322197 -0.1878853142 0.2389546186 0.3283287585 0.0718310922 0.0498400703 0.1252391934 0.2263517678 0.0735610351 0.1345573366 0.3037953377 0.3819461167 0.3450584114 0.3834547400 0.2204604894 -0.1682654619 -0.1877682060 -0.1193978861 0.0766689926 -0.0089064669 0.2297318280 0.2056003511 0.1807811558 0.4707070589 0.0849777684 0.0615827180 -0.0885561258 0.0807731524 -0.0996630639 0.0033107353 0.3596553802 0.1851835847 0.4109818935 -0.0701725408 0.2868101597 0.2619437277 0.3070602417 -0.1119101867 -0.1075035408 -0.1172816008 0.3199750781 -0.0472030230 -0.1857228130 0.1645796001 -0.1871480197 0.3046614528 -0.0356235616 0.0374761857 0.1014845595 0.2700736523 0.2130234689 0.0581366010 0.4493267238 0.1341564208 -0.1137930602 0.4696552753 -0.1760281473 -0.1818354130 0.4959590733 0.1866735518 -0.0749092102 -0.0936470851 0.3049048185 -0.1478533447 -0.0683793724 -0.1233363301 0.0356399938 -0.0607890487 0.0539402887 0.0674215406 -0.1281912923 0.1698037386 -0.0239224993 0.1277202070 -0.0795220584 -0.0977742597 -0.0281049330 -0.1513095349 -0.1960700452 0.0102032665 0.3442108333 0.2443163991 0.1694027036 -0.0837618187 0.1064649895 0.2483299673 0.0168118365 0.0694230199 0.0605914071 0.2046295404 0.2797213197 0.3788681328 0.2546567023 -0.0681234598 0.0476456545 -0.1136097759 0.1487190127 0.2578866780 0.1379035860 0.1396181285 -0.1398779452 -0.0341790952 0.1329968721 -0.1968641877 0.1921591610 0.2127715796 0.2319845706 0.1692866683 0.0359913707 -0.1245526522 0.1912010312 -0.0352296680 0.1864695847 0.0474282168 -0.0528160147 0.0674426258 0.0246441979 0.0789461136 0.1670559645 -0.1162566245 0.0056634783 0.1243051142 -0.1628726125 0.1559398174 0.1179867163 0.0578761660 0.0201736130 0.0349923410 0.3526640832 0.1954050511 0.5728294849 0.3623608351 0.0406413376 -0.0699101985 0.3561286926 -0.0513753518 0.1514063179 0.0805358812 0.0529278107 0.1922610402 -0.1225853562 0.1706221253 0.6108011007 0.1536512822 -0.0675061867 -0.1621355712 -0.0425281823 0.1245544404 0.1978379488 0.0983839482 0.3164348304 0.2921825051 0.3205274343 -0.0520120002 0.3288619518 -0.0030863211 0.0002047562 0.0529714935 0.1424713582 0.4380798936 0.0239361748 -0.1249196753 0.1053466201 0.1388489902 -0.1019017622 0.2906021774 -0.0007023795 -0.1416298449 0.2843294442 0.1020976901 0.1112423390 -0.0396308340 0.2697784603 0.2338254750 0.1322964132 -0.0808239803 0.1368613094 -0.0810313597 -0.0530720204 0.1060269326 0.1626617461 -0.0451090559 -0.1339894831 0.1549349278 0.2036955357 0.0722236484 0.0052722413 0.0995663404 0.2219125181 0.0520126671 0.1376357675 0.4106370807 -0.1174225435 -0.0510647558 0.4393485785 0.2488961667 0.1770507097 0.1215371266 0.1183864921 -0.1347627193 0.0833674595 0.3734958172 -0.0601839684 -0.0683182776 0.1950941682 0.3417150080 -0.0957644954 -0.1851668656 0.0511575416 0.2390188128 0.2791102529 0.0116278324 -0.0184986070 0.1916902214 0.1921061724 0.0794246271 0.3927867413 0.0817940533 0.1503235698 0.2475811839 0.3718934357 0.2428886443 0.0907089859 0.1758989245 0.1149208024 -0.0538751110 0.2971750200 -0.1176061630 -0.0280872043 0.2513411045 -0.1060405970 0.1077564433 0.1138522625 0.2918741405 -0.0019388117 0.5321701765 0.1699039489 0.1907593757 0.2851978838 -0.1014987305 0.0243718773 0.1622566432 0.0455020294 -0.1519151926 0.1684036404 -0.0496178307 0.4204891920 0.0137025202 0.3863517940 0.4237559438 0.0557269491 -0.0151559077 0.1745599210 0.1336091310 -0.0258479901 0.1938239932 -0.0045411298 0.2546203732 -0.1290443391 0.4282923937 0.3916729987 0.0168870613 0.0066788918 0.1923273802 0.0989804566 0.2632131875 0.2529073358 0.0300561711 0.0917864293 0.2489702851 0.1115625501 0.1462802738 0.2525338531 0.0448625274 -0.1337458938 -0.0319118351 0.0481586903 0.1213553995 0.4469473660 0.1211639419 -0.0560226291 0.3232525289 0.0581416860 0.0342561640 0.0290683787 0.0069767842 0.2428583056 0.0321090966 0.2432892174 -0.0807152539 -0.0858432949 0.3586044312 -0.0672578663 -0.0614976995 0.4031049311 0.0888222605 0.1189298034 0.3556029797 -0.0409326777 -0.1076841131 0.0881254226 0.1173424050 -0.0564460456 -0.0716892034 0.5856087804 0.4134745002 -0.0457107760 0.2498636991 0.2008974701 0.0113090789 -0.0329859927 0.1819588542 0.1722524464 0.2201617211 0.2933937013 0.3863792121 0.3624739647 0.1081986129 0.3950605690 0.2570115030 -0.0761555061 0.3017852306 0.2594411671 0.3103692234 0.2023097575 -0.1117293984 0.2310707420 0.1135512292 0.0299880020 0.0750618577 0.2564070523 -0.1398665309 0.3214391768 -0.2014711350 0.1633729637 -0.1830909401 0.3745865524 0.2955125272 0.1248207018 -0.0813365504 0.3885792792 0.3527779579 0.2706094086 -0.2115464956 0.1602711976 -0.1615002304 0.2909112275 0.1111325398 -0.0246551018 0.3929646015 0.0501177311 -0.0711552724 -0.0060221786 0.2294333875 0.2600004077 -0.0369423106 0.1556909978 -0.1666351259 -0.0629237294 0.1432165205 -0.2752803862 -0.1179932579 0.2138955742 -0.1083901972 0.2275714874 0.1058299020 -0.0997570902 0.3974260092 0.1507697403 0.2529276013 0.0460364893 0.4074252546 0.2728714645 0.2463553399 0.2774744332 -0.1124774367 -0.0133735519 0.3037661910 0.1455457360 0.1829374135 -0.0221371278 0.1135637462 0.2441324294 -0.0139707774 0.4279209971 0.2493390590 0.1202849895 0.3299747407 -0.1439321488 0.1174051091 -0.1500438899 -0.0640267059 0.1970013380 0.3023753166 0.0421029925 -0.0984510854 -0.1078140885 0.5218706727 0.2719766200 0.2404346615 -0.1016894355 0.2026197612 0.1355067641 0.2407650948 -0.1619735956 0.5287134051 0.0735759512 0.3342055678 -0.0545336418 -0.1373459250 -0.1254252791 0.2532742918 0.1617825329 -0.0954878256 0.1980300695 -0.0469709411 0.0558262728 -0.0427695327 0.0354519002 0.1670363098 0.1646367162 -0.0655551776 -0.0797790065 0.1724639386 0.1314166337 0.1754577607 0.2777769566 0.2281866670 -0.1540200710 0.0202308893 0.0768703371 0.4586381018 0.0605647489 0.0619622618 -0.0602858029 0.1657957435 0.1471134573 0.2975676060 0.2864427269 -0.0659359768 -0.1687283516 -0.2058088779 -0.1577478796 0.1591365039 0.1341344714 -0.2378998846 0.2657131553 0.0928605571 0.1953177154 0.2287648320 -0.0723014846 0.1348593384 0.1658825874 0.1853827536 0.0971101969 0.3102420270 -0.1957186759 -0.0121641010 -0.0911444053 0.0803337321 0.0833628848 0.3365242481 -0.1181700751 -0.0367521346 0.2185363173 0.1770800501 0.1169149131 0.1132655442 0.2666316330 0.1626135707 0.3001201451 0.3541392684 0.5134605169 0.2322920710 0.1149981767 0.3279918432 0.0119535113 0.2581329644 -0.0839930773 0.2415931374 -0.0228258558 -0.1420363933 0.3720088303 -0.1249974668 0.2283820957 0.2359049767 0.1155381948 -0.0979546309 0.0311343372 0.4190379381 -0.0094623258 0.2600892782 0.1870945394 0.3094862401 0.1495595425 -0.0924899876 0.3257732093 0.1477698982 0.1702014953 -0.0961779207 -0.0539188161 0.2055064291 0.1654711664 0.0028400668 -0.1208375469 0.1756006628 0.1107634529 0.1309953183 0.1105364189 0.6230477691 0.4804958701 0.1484921277 0.3001150191 0.2266279012 0.3746241033 0.4687280059 0.1277814806 0.2771584392 -0.0336758979 0.4343897104 0.1014525965 0.3230603337 -0.0635123625 -0.1404039264 0.2253827602 0.2435445487 0.4660596550 0.3278675377 -0.0649085715 0.2217445076 0.1343654990 -0.2403670251 -0.1341091841 0.0472481921 0.0736399293 -0.0867657065 -0.0840461627 0.1841799915 -0.1208032072 0.3826411963 0.2043111026 0.1218628287 -0.1538953632 0.2162709236 0.0318670608 0.4757443666 0.2317013741 -0.0501213185 -0.1802512556 0.0140529834 -0.0684715956 0.0416596681 0.1246029809 0.0197974406 0.2539229989 -0.1366469413 0.3397627771 -0.0593841486 -0.0882455111 0.2137091756 0.2473081648 0.1513938606 -0.1300711185 -0.1122481897 -0.0756183118 0.0519983172 -0.0737488642
049ac2c2c19361349813d231e8a878f4_M_0003_17.50_30.81 0.0543884039 -0.0319344550 0.3109444976 0.1502898633 0.2342056632 0.0601405762 0.5064537525 -0.0087418864 -0.0134403417 0.1745979637 -0.0012490582 -0.0089436062 0.1857950389 0.3038511872 -0.0635069832 -0.1348769367 0.2598469555 -0.0107231736 -0.0740253255 -0.1738217324 0.3407676816 -0.0091182664 -0.1358310133 -0.0184024815 -0.0964503586 0.0615089163 0.1424002200 0.1325961947 0.4909459651 0.3406076431 0.5547304153 0.0461968407 0.1304852515 -0.1108235493 -0.2016912550 0.2456255257 0.5925894380 0.2069595158 0.1233130991 0.1032238603 0.1164839491 0.0469176471 -0.0206547584 0.0889978707 0.4225034118 0.2006274909 0.3343313038 0.1319878101 -0.1916922927 -0.2013658583 -0.1335001886 0.0918145105 0.1082001477 0.3619205952 0.3331558108 0.1935410351 0.7154435515 0.2002843320 -0.0210492350 -0.0750947371 0.0909611657 -0.0895330682 -0.0000916655 0.4537490010 0.1719000489 0.6164759994 -0.0607180037 0.0029400345 0.0758433938 0.1211834475 -0.1405603141 -0.1315841079 -0.1526644975 0.0786031410 -0.0786008462 -0.2092067152 0.3632507622 -0.2076708525 0.5172856450 -0.0152411340 0.1601204872 0.0574947223 0.3413406312 0.2362473160 0.0739865825 0.1159204245 0.1129741222 -0.1556804180 0.2613004148 -0.1870432943 -0.1810386330 0.6011810899 0.0164677612 -0.0820760205 -0.0875632241 0.4284448326 -0.0887311697 -0.0652736351 -0.1311486214 0.1027869210 -0.0847604573 0.0187843405 0.3058719635 -0.1381097138 0.0269391984 0.0095672039 0.1313963979 -0.1028133631 -0.0692855418 -0.0136735123 -0.1597975492 -0.2181729227 -0.0240071360 0.5906969905 0.5466439724 0.1898726076 -0.0699929669 0.2168141156 0.1704117954 0.0985751152 0.0961261988 0.0351710320 0.1438560933 0.1018478945 0.3772830963 0.3449054360 -0.1542638987 0.0164945070 -0.0997162685 0.0380160064 0.2681885660 0.0092219282 0.2160916924 -0.1007656008 -0.0775540620 0.2956040502 -0.2072340548 0.2764939070 0.1615054458 0.2493716329 0.1300599128 0.0386680886 -0.1246679574 0.0571514554 -0.0188224204 0.1772864461 0.0777135417 -0.1019704342 0.0814837515 -0.0159753002 0.1351645887 0.3394628763 -0.1290440261 0.0173494667 0.1067207232 -0.1360049397 0.0108262394 0.2080255449 -0.0281406567 -0.0103480257 0.0555619933 0.5351453424 0.3706104755 0.5866190791 0.3477041125 0.0920031145 -0.0527592413 0.1164212972 -0.0051968326 0.2399834991 0.0753108487 0.0394622758 0.2019014955 -0.1490876526 0.1926565766 0.7124493122 0.4076742828 -0.1031647399 -0.1855214983 -0.0253208261 0.2163850665 0.0506691858 0.0237470269 0.5032815933 0.2130472958 0.2051322460 -0.0608567931 0.4718056321 -0.0128902681 -0.0108192498 0.0149301831 0.0555539653 0.6036562920 0.0196948703 -0.1464950442 0.2820831835 0.1213835254 -0.1044932529 0.1166668385 0.0078165736 -0.1231604740 0.0885836929 0.0297505241 0.3219313920 -0.0405730568 0.0751353651 0.4646592438 0.2636334598 -0.0982523784 0.1076586694 -0.1026675776 -0.0470417477 0.1004308462 0.0542873926 -0.0364267305 -0.0943649337 0.3074062467 -0.0034136674 0.0513057113 -0.0241990723 -0.0100085083 0.0461611934 0.1220845878 0.1738468409 0.4244244993 -0.1509180516 0.0004752493 0.2771312594 0.4491528571 0.3682817519 0.2004818022 0.0920328945 -0.1253074408 0.0290804487 0.4330580235 -0.0539932214 -0.1100377440 0.3098647594 0.1467755437 -0.0724123940 -0.2317923456 0.1585799456 0.2476222068 0.2969143093 0.0547611266 -0.0515884943 0.2085434943 0.0906678289 0.0231672730 0.6983577013 0.2159694880 0.2944130898 0.4176776111 0.4360913336 0.0140089523 0.1475717425 0.3308236301 0.2698553801 -0.0683439374 0.2903985977 -0.1332529485 -0.0395197235 0.2227006704 -0.0801313818 0.0942367464 0.0461919941 0.1422141790 -0.0258313939 0.5755960941 0.3455265462 0.2097242326 0.0840173066 -0.1232057214 0.0471091308 0.0511641353 -0.0282700378 -0.1598506868 0.2905395925 0.0393750928 0.4321837723 -0.0058053592 0.1259569675 0.4300932586 0.0630217120 -0.0210311916 0.0275851134 0.1057219207 -0.0212899670 0.2425316572 -0.0462719463 0.1753797531 -0.1639894396 0.4402195215 0.4801709056 0.0167825688 -0.0273331720 0.4265621305 0.0080524879 0.0531761870 0.0307523739 0.0402106978 0.0542477109 0.1968726516 0.1707506776 0.0674951375 0.1355913132 0.1689327061 -0.1393103302 -0.0651165992 0.0442814827 0.0309339054 0.4668325186 0.1857415140 -0.0104556996 0.3922815919 0.0478735194 -0.0075881300 0.0143353529 0.0738270953 0.2796992660 -0.0177848153 0.3078551888 -0.0645862594 -0.0677760616 0.1820841730 -0.0856023133 -0.0781990960 0.3858490586 0.0575825982 0.4121264517 0.3616405427 -0.0140445773 -0.1222414598 0.0828463882 0.2509312630 -0.0696834698 -0.0637056455 0.6091981530 0.2846080363 -0.0520524532 0.4806427062 0.3658434153 -0.0339819975 -0.0533587374 0.3638186455 0.0384522900 0.4332027733 0.3323788345 0.1337131411 0.3803336322 0.4352591038 0.2247316241 0.4147934020 -0.0481628291 0.1917867661 0.1525830477 0.3568336666 0.2723079622 -0.1083233804 0.2390316278 0.0752551854 -0.0007192185 -0.0122802956 0.3162541986 -0.1609644294 0.4183257222 -0.2368819416 0.2353544384 -0.1736529917 0.3924323916 0.3004808724 0.2356864065 -0.0749163851 0.1917565167 -0.0549079701 0.2334637493 -0.2671899796 0.0452964604 -0.1087503061 0.0756838843 0.0725034177 -0.0250319857 0.4298874140 0.0050687511 -0.0397008732 -0.0100094089 0.3963150978 0.5325737596 -0.0473677590 0.1419639885 -0.1866176426 -0.0511469766 0.0690205023 -0.3209516108 -0.1031176448 0.4689213037 -0.1288143098 0.3492398262 0.1253211647 -0.0931946784 0.7263399959 0.2484609038 0.3845674992 -0.0202441141 0.6526393890 0.1823093146 0.2629781067 0.5486267805 -0.0927707702 -0.0038288976 0.1383972168 0.2685839236 0.0802626312 -0.0361506492 0.2783029079 0.0764437467 -0.0289218873 0.1659407467 0.4323401749 0.3164624274 0.2821557522 -0.1929936111 0.2144026905 -0.1504090726 -0.0370808616 0.0787855983 0.0881138444 0.0652215630 -0.0729134604 -0.0538174473 0.3014383018 0.2254788727 0.1341044754 -0.0980258733 0.1792487651 -0.0088625150 0.5592413545 -0.1879548430 0.4168547988 0.0906540006 0.3749045432 -0.0922287479 -0.1893731356 -0.1303552240 0.2348931283 0.0954589173 -0.1224337220 0.1347361952 -0.0350848995 0.2657389343 -0.0430373102 -0.0222552828 0.2283698320 0.3088429570 -0.0877316073 -0.0844044387 0.0704151466 0.1444173008 0.4627980888 0.2874618769 0.0891510174 -0.2199798673 0.1570918411 0.1240194291 0.2813596427 0.0629479140 0.1633684039 -0.0541870184 -0.0182465352 0.1893556416 0.1670684069 0.3411634266 -0.0405434668 -0.1589506865 -0.2267162800 -0.1147572249 0.3170724511 0.0315545499 -0.2356030196 0.3904646337 0.3374262452 -0.0019243956 -0.0474070162 -0.0557583161 0.3766869307 0.0944783911 0.0625652820 0.3048003018 0.7170196772 -0.2030747086 -0.0233106427 -0.0694673583 0.0305638649 0.0650851876 0.6148437262 -0.1643911153 -0.0407142565 0.2823460400 0.0938128829 0.1917432994 0.0746543407 0.1049492508 0.1905505657 0.1925267130 0.1646015793 0.1995789409 0.3778919876 0.2653886378 0.2275070101 0.0131943515 0.0957633629 -0.1021996140 0.3901321292 0.0838751048 -0.1640333980 0.3812653422 -0.1129051223 0.0064394213 0.4668717384 0.1620905101 -0.1266887188 0.0337687694 0.5068639517 0.1192622781 0.0557275042 0.0626329854 0.4942439198 0.2609798312 -0.0972384661 0.1423562765 0.1964561790 0.1605067551 -0.0751521587 -0.0759694576 0.3387829959 0.2433172315 0.0481861532 -0.1549587995 0.1392178386 0.0064126635 0.1221973151 0.0474225730 0.6939201355 0.3284922540 0.0975533128 0.1165455654 0.5109270811 0.3150034249 0.4560419619 0.1244788840 0.3170172572 0.0071346741 0.5078735948 0.2867617309 0.0913033187 -0.1047556847 -0.1798778176 0.2990153730 0.0453502312 0.6081653833 0.2109711468 -0.0645874962 0.1322683692 0.1893702447 -0.2667335570 -0.0966652334 0.1348580122 0.1928221136 -0.0772972107 -0.0469039045 0.2268318534 -0.1880339235 0.1076949090 0.3553403914 0.3109782934 -0.1544746310 0.4668188989 0.0534131043 0.5227760673 0.0558973812 -0.0523620471 -0.2186165899 0.0341764688 -0.0853027031 -0.0216271076 0.0539972782 0.0140901040 0.4211659431 -0.1453302056 0.4041294754 -0.0621092059 -0.1051997840 0.0661870390 0.0789238662 0.0905908942 -0.1224336848 -0.1181024760 -0.0773610920 0.0819573030 -0.1044322997
04d3ad10aceb69fcfb3a55d102ba7cff_M_0004_116.66_129.74 0.0338967666 0.0823719949 0.4469231069 -0.0296979006 0.1731654704 0.1685240269 0.8401618004 0.0214198660 0.0047854977 0.4024284482 0.1035317406 -0.0241798032 0.1343001276 0.1713800728 -0.0622114986 -0.1896359622 0.3656066060 0.0790085942 -0.1131526828 -0.1600521505 0.3341608047 0.2429961860 -0.0912724733 0.0749918669 -0.0672337040 0.0172953233 0.0718050823 0.0108950995 0.3976654112 0.0258402266 0.6040017605 0.1102968603 0.2722276747 -0.0976936221 -0.2484218627 0.4265429676 0.5929538608 -0.0039983187 -0.0589308999 0.1829648316 0.2563543022 0.1491129845 0.1391395926 0.4944750667 0.4703168571 0.5052632093 0.3647536337 0.3082996309 -0.1759903133 -0.2008798569 -0.1329009831 -0.0155570209 0.0019137282 0.3167090118 0.1753891259 0.2229150236 0.7999845147 0.0231438354 0.0523376875 -0.1176003292 0.1868519932 -0.1500648260 -0.0264524687 0.4000972509 0.0918149650 0.5749726892 -0.0604569353 0.1715861857 0.3306082487 0.3521273732 -0.1221943274 -0.1475416273 -0.1280603707 0.0735253170 -0.0409763604 -0.2300920933 0.1270818263 -0.2037252933 0.3584561348 -0.0472202376 0.0480418168 0.1571397185 0.3086342216 0.2587632239 -0.0081381742 0.4401670992 0.1559452564 -0.1615591049 0.5743376613 -0.1840314269 -0.2213536799 0.6029214263 0.3567803204 -0.0546938926 -0.1003724337 0.3793168366 -0.1151505038 -0.0902353153 -0.1503608376 -0.0019516088 -0.0704502985 0.0108254673 0.1390960962 -0.1677666605 0.1361640692 -0.0790616944 0.1250246018 -0.1248837858 -0.0512466431 -0.0519561209 -0.1586392373 -0.2273958176 -0.1213634312 0.6575396657 0.3371659815 0.1950635612 -0.3505323231 0.1611237377 0.1076802537 0.0319839343 0.1445006728 0.0013552690 0.2994908094 0.3916969597 0.6050776243 0.1508287489 -0.4183190763 0.0439160354 -0.1212073192 0.2423814237 0.4587556422 0.0943688378 0.2648200095 -0.1603099853 -0.2023493201 0.2361294776 -0.1978311837 0.2089571357 0.2513090968 0.2535753250 0.2056769878 0.0803026557 -0.1354026198 0.1408552974 -0.0495361611 0.1509709060 0.1652447283 -0.2290455252 -0.1100039482 0.0696914643 0.0954134762 0.2935353816 -0.1375021040 0.0274131335 0.1990317255 -0.1680291295 0.0915164053 0.1083717048 -0.0059941923 0.0965344235 0.0484341048 0.5045711994 0.2104937434 0.8328948021 0.4715082645 0.0659322366 -0.0661345869 0.2992578745 -0.0463337898 0.1196745858 0.0881355479 0.1357027888 0.2780302167 -0.1455770433 0.1183068976 0.9242728353 0.2623484433 -0.0738785639 -0.1717582643 -0.0504408255 0.1180123761 -0.0170077346 0.0757838860 0.4933901429 0.1811566651 0.3925719559 -0.0388117619 0.5255786777 -0.0181072187 0.0291963145 0.1181832552 0.1534035653 0.6183630228 0.0520156920 -0.1385928094 0.2078670114 -0.1591402590 -0.1402590722 0.0961379260 -0.0655224100 -0.1424456835 0.2589101791 0.1326839775 0.1971776783 -0.0489708520 0.1007466018 0.4110065699 0.1808286309 -0.1202635840 0.1982411146 -0.0928904936 -0.0480247736 0.1116026044 0.1675538719 -0.0823233798 -0.1959729195 0.0465944707 0.1794720441 0.1030089036 -0.1036429331 0.1050794274 0.1049874574 -0.0602948815 0.3003339171 0.6846020222 -0.1101160198 -0.0372494757 0.5994614959 0.3116321862 0.3369690180 0.0867364928 0.0193664953 -0.1228433028 0.0811973140 0.6076646447 -0.0652320758 -0.0688876361 0.2181066126 0.4307515919 -0.1299092025 -0.1982840896 0.0929486156 0.2354333550 0.4784673452 0.0033508483 -0.1556969732 0.1826172620 0.1918961406 -0.0109473485 0.7048208714 0.1776755601 0.1987145990 0.3487549126 0.5225194097 0.0460585207 -0.0234672632 0.1822504550 0.0466822535 -0.0872340128 0.3761496842 -0.1407365948 -0.0579329617 0.4512711763 -0.0873060226 0.1450432390 0.0288114436 0.4657403827 -0.0566007011 0.5557771325 0.2105368972 0.1688427627 0.1446408629 -0.1252552122 0.0280387737 -0.1606105566 0.0363150015 -0.1851943582 0.3474868834 0.0068137636 0.4119752645 -0.0359520204 0.2380623966 0.6887727380 0.0327869467 0.0323690996 0.0930306911 0.1379037499 -0.0121807801 0.3571607471 -0.1237433031 0.0397508666 -0.1689693928 0.6203841567 0.5747023821 0.0167457014 0.0048899068 0.1131646112 0.0482869670 0.1795721650 0.2013988346 0.0858373046 -0.0174540430 0.4371249378 0.1645669490 0.1998745948 0.0354337916 0.1346041709 -0.2089607865 -0.0364604145 -0.0243626814 -0.0351031907 0.3727678657 0.1776562184 -0.0670014769 0.4158548713 0.1649005711 0.0198541395 0.0203536619 0.0324837789 0.3482119143 0.0561577678 0.2725735307 -0.0914839432 -0.0899566114 0.1081360653 -0.0702066571 -0.3322561681 0.5620036721 0.1218797937 0.2581898868 0.3319369555 -0.0542257875 -0.0999623761 0.1762772650 0.2165779024 -0.0719094127 -0.0585498959 0.8869979978 0.5318272710 -0.0495085418 0.2980908751 0.0910004452 0.0904071480 -0.0343090855 0.1826821119 0.2049596012 0.1442262828 0.4082418680 0.4915630519 0.4173794687 0.2451888323 0.5291829109 0.2090062350 -0.0373716466 0.3754315078 0.2492019981 0.3887709379 0.3712471724 -0.1382870078 0.3230041862 0.1150209978 0.1181970090 0.1061770692 0.1390891075 -0.2003416866 0.5143144727 -0.2500952482 0.2516305149 -0.2111897767 0.4151616991 0.3755704165 0.2263480425 -0.0810641944 0.5008630753 0.4134958088 0.3805299103 -0.2718239725 0.1787642092 -0.2065196335 0.1198693514 0.1003764495 -0.0311680306 0.6317107677 0.0111864842 -0.0451569967 0.0092047369 0.1222713888 0.4332504570 -0.0276270639 0.2522018254 -0.1700657010 -0.0816535428 0.1499627829 -0.3485762477 -0.1281022877 0.2413340211 -0.1427304000 0.4013973475 0.1595366448 -0.1040711999 0.7225664258 0.1526063830 0.2144162953 0.0470648929 0.6782601476 0.0913415402 0.2646884322 0.1630193591 -0.1503652781 -0.0106207253 0.3185432553 0.2296671122 -0.0510231256 -0.0184316859 0.2102687061 0.1316120476 -0.0204993486 0.4552971423 0.2323572785 0.2365268618 0.4646892250 -0.1513542980 0.2116933018 -0.1546023190 -0.1345037222 0.1506711096 0.3451514840 0.0848174244 -0.1341970265 -0.1433891803 0.6722496748 0.3281851411 0.2876851857 -0.1162025854 0.2687045932 0.1149261594 0.4056808949 -0.1759691387 0.8468990922 0.1615359634 0.5312740803 -0.0298212059 -0.1940745711 -0.1788836718 0.3649951518 -0.0117417444 -0.1305929273 0.3564318717 -0.0545225665 0.0945020393 -0.0533188656 0.0586756393 0.3285945654 0.3066144586 -0.0447400883 -0.0782238394 0.1651911587 0.1436546892 0.1329073310 0.4515617788 0.1722750217 -0.2080947161 0.0478587747 0.1330458373 0.2108753622 0.1249311119 0.0559968948 -0.0932932422 0.1469977796 0.1219755113 0.3877519667 0.2948325872 -0.0673976541 -0.1865905225 -0.2310955673 -0.1895462722 0.3081460297 0.1495606005 -0.2863656878 0.2513051033 0.1674618572 0.2132953107 0.1696104109 -0.0549641363 0.0968933105 0.2034922540 0.2848401070 0.1797343343 0.4371435940 -0.2177202404 -0.0198218469 -0.0823394209 0.2336688638 0.0118586086 0.3075361848 -0.1782742143 -0.0427676663 0.2686097920 0.0867163837 -0.0325219072 0.0864770710 0.1425347924 0.0108130369 0.3599963188 0.4332637191 0.7087186575 0.3096829057 0.1363415867 0.2631804049 0.0001975447 0.0677062795 -0.0730489790 0.4888238013 0.0285502765 -0.1418894082 0.4871025980 -0.1608107835 0.2133281082 0.1695952713 0.1790437102 -0.1395612061 0.0782043636 0.4493338466 0.0261615440 0.1280013919 0.0723701119 0.5885280371 0.0723027661 -0.0852888823 0.1350356936 0.2162421197 0.2100029886 -0.1010533720 -0.0362477973 0.3106895685 0.3370668292 0.0050449506 -0.1051166579 0.2291679680 0.1455015838 0.0270294435 0.0742932186 0.6569175124 0.6679886580 0.2650850415 0.2190254927 0.2253170758 0.5102819204 0.6073169708 0.2349791080 0.4070173502 -0.0050163958 0.6452854276 -0.1566189826 0.1744442284 -0.0871722177 -0.1357393414 0.1978541166 0.0561606213 0.7131220102 0.4114446044 -0.1344794333 0.2986508310 0.1177424863 -0.2735086679 -0.1355300248 0.0720493570 0.0299190693 -0.1282309443 -0.0996284410 0.1206691936 -0.1675408781 0.2999151945 0.2188997269 0.0095249526 -0.2383914441 0.3893341422 0.0424791873 0.7242495418 0.1081719398 -0.0860809684 -0.1962512732 -0.0323859006 -0.0582435094 0.0261496436 0.1450064778 -0.0629360825 0.2458072603 -0.1463700980 0.5418508649 -0.0475019291 -0.1010061875 0.2080133557 0.2364847064 0.2295996249 -0.1674966216 -0.1375786364 -0.1001832038 0.0753928050 -0.0930949301
04f42214c5e614bdfdde2fc9af71ee39_F_0000_4.72_118.98 0.0566017404 0.1099115834 0.2847650349 0.1598202288 0.0893599987 0.1974603087 0.6505954862 0.1231228560 0.0908187628 0.1297337264 0.0724795610 -0.0319968536 0.1477449536 0.2642930746 -0.0636981428 -0.1330920607 0.2830057740 0.2221180648 -0.0822815746 -0.1766478866 0.2492501736 0.0929362103 -0.1141683683 0.1031346321 -0.1020706743 0.0709648058 0.1612312049 0.2480221093 0.3335421681 0.4567399621 0.5645629168 0.0930660143 0.3615945876 -0.0592596270 -0.2011049241 0.2279177308 0.4357253313 0.2241941392 0.1427566260 0.1693542451 0.1319459528 0.1151644737 0.0657928959 0.3504412770 0.2674980164 0.4583713114 0.2163983285 0.2747839391 -0.1849286556 -0.2220258415 -0.1224560216 0.1825428605 0.1359358132 0.2771231830 0.2917014062 0.1214330792 0.5340120792 0.1831433624 0.1412810385 -0.0537618063 0.1513248682 -0.0954460651 -0.0364551842 0.3175863028 0.2600155771 0.2960588932 -0.0789865404 0.1467206776 0.3381331265 0.1626836061 -0.1327688992 -0.1185776517 -0.1511636674 0.0914082080 -0.0379548669 -0.2205146551 0.2663141489 -0.2114139199 0.3770253360 -0.0387838744 0.0359956957 0.1171514839 0.2680073678 0.1278482378 0.1227136701 0.2026130408 0.2677792013 -0.1636668295 0.2652914524 -0.1704667956 -0.1791229099 0.3641026020 0.1473908871 -0.0794008970 -0.0991961285 0.3439847529 0.0787258670 -0.0666496381 -0.1008114666 0.2186708450 -0.0896502137 0.0605169572 0.1120853648 -0.1646018028 0.1260531396 -0.0409713723 0.3231095672 -0.1130827814 -0.0671789199 -0.0419115201 -0.1426108181 -0.1896957010 -0.0517269522 0.6385469437 0.4123242795 0.3043319881 -0.1094737947 0.1353856176 0.1844594479 0.0242388994 0.1079216450 0.3342639804 0.1332841218 0.2271593362 0.4561718404 0.4655043185 -0.1771072596 -0.0071152402 -0.0888411030 0.2638962865 0.2402962446 0.1132762954 0.1819738597 -0.1468198895 -0.0771742314 0.2724241614 -0.1976452321 0.2054790109 0.1538975090 0.3393858969 0.1079862937 0.0420889147 -0.1055212989 0.0820610374 -0.0194040369 0.1376105249 0.2762256265 -0.0998977497 -0.0009754077 0.1082429439 0.1860505342 0.3028987050 -0.1512696892 0.0533165485 0.1411116123 -0.1293947399 0.0513648242 0.2985531390 0.1840184629 0.0480955131 0.0799357742 0.4043909311 0.2312748581 0.4091115296 0.3041150570 0.0581334345 -0.0659673288 0.1674061120 -0.0521791726 0.2100361288 0.0984598771 0.0810233876 0.1404613853 -0.1419517994 0.1012364998 0.6658790112 0.1475500613 -0.0920748636 -0.1805522889 0.0106929941 0.1573797166 0.0109847896 0.0591491237 0.4663892984 0.1070312485 0.1368341148 -0.0542052686 0.4106643200 0.0042021014 -0.0233935565 0.0758991390 0.1015330032 0.4068060517 0.0353936367 -0.1322299391 0.1041962132 0.2741326690 -0.1091976985 0.2804500461 -0.0402708128 -0.1483051926 0.1623240262 0.0398888662 0.2607671320 -0.0534301549 0.0946538150 0.4270368516 0.1792555451 -0.1081942692 0.1689571887 -0.0935512930 0.0119026620 0.2242223471 0.1142708510 -0.0566821918 -0.1129792705 0.3235603571 -0.0628262386 0.0584865883 -0.0415353477 0.0525733121 0.0369510017 0.1816792935 0.1986846328 0.4958791733 -0.1433933228 0.0619620681 0.2642996013 0.3037625849 0.1647102386 0.2716609240 0.1416734457 -0.1519032568 0.0443142578 0.4925772250 -0.0772964582 -0.1004427150 0.1822530627 0.1817198992 -0.0647937432 -0.1830504835 0.1804671884 0.2543041706 0.2777706385 0.0032032076 -0.0746089071 0.1108566448 0.1294707060 0.0243243016 0.6219986677 0.2134004831 0.2307016104 0.3499464095 0.2354706377 0.1315670162 0.1566766202 0.2155676037 0.1271005571 -0.0898504481 0.2121190280 -0.1096926779 -0.0776979327 0.3773055673 -0.0950731933 0.2973617315 0.2125109136 0.2570668757 -0.0145885041 0.4278051257 0.2852829695 0.2194409966 0.1851419359 -0.1448066533 0.0018192747 -0.0212099291 0.1319649518 -0.1601876765 0.4491990507 0.0923461691 0.2148423195 -0.0291464366 0.1711793691 0.3476348519 0.0295097046 0.0266570356 0.0544029474 0.1089097410 -0.0409467481 0.2718354464 -0.0604997836 0.1924539506 -0.1403655410 0.4594689906 0.3158959448 0.0223816037 -0.0121818352 0.3408434987 0.0708438754 0.1482231915 0.2311995029 0.1005391032 0.3037958443 0.2249191403 0.1275986731 0.0882053375 0.0863759145 0.0545211770 -0.1771588027 -0.0751940608 0.0566092506 0.0508699380 0.3160026968 0.2029661834 -0.0460575409 0.2242524773 0.2724916935 0.0185389444 0.0141507015 0.0156939030 0.1945959628 0.0246891603 0.2298380584 -0.0671946704 -0.0994711369 0.3293537796 -0.1140434295 -0.0700469539 0.3374386728 0.1292589307 0.1455343664 0.2606068254 -0.0549787059 -0.1137408987 0.1104518846 0.2137187868 -0.0705977753 -0.0943340436 0.5316755772 0.2711705565 -0.0681044757 0.2813163102 0.2118606418 0.1033097580 -0.0438263267 0.2543817163 0.0828281716 0.2636450529 0.3264261782 0.4100399613 0.2488610297 0.3523007035 0.2450988889 0.2698950469 -0.0802003518 0.1542028785 0.1156964302 0.2014252245 0.3451289237 -0.1068508998 0.1650769413 0.0608752780 0.1741090715 0.0653636530 0.3591674566 -0.1535955667 0.3718393743 -0.2467200756 0.2258983552 -0.1403747797 0.1930348575 0.2015288770 0.2345834523 -0.0829001144 0.2268224955 0.2574767470 0.1855837703 -0.2531580329 0.1542317271 -0.1120253131 0.1575489044 0.0884400383 -0.0178724695 0.5498957634 0.1256823987 -0.0553869903 0.0424434841 0.2701842785 0.3770717680 -0.0490646400 0.1947573870 -0.1761060208 -0.0820012093 0.2570486069 -0.3076226711 -0.0966497511 0.3573551774 -0.1004872620 0.3062583804 0.0492628515 -0.0887399912 0.6400329471 0.1922023445 0.2808130085 0.1883439571 0.4671095908 0.1766214073 0.1693692505 0.3301269412 -0.0976686478 0.0754485503 0.1120885089 0.1982018799 0.1745131314 -0.0270386152 0.2803765237 0.0338250324 -0.0397937149 0.1931308061 0.4089604914 0.1467289478 0.2752348185 -0.2105839401 0.1952155977 -0.1496364176 0.1105193719 0.1190365702 0.1410710216 0.2153963447 -0.0834494680 -0.0852453560 0.3160666227 0.1418728083 0.0889544860 -0.1095455736 0.1914030463 0.2706104815 0.4796284437 -0.1918843687 0.5698304176 0.1416990608 0.3204092979 -0.0700009838 -0.1959070414 -0.1314139068 0.4259777665 0.2356741875 -0.1186182722 0.3301697075 -0.0325219929 0.2348310053 -0.0594692267 0.0787211657 0.3159583807 0.2334555537 -0.0623010546 -0.0981521681 0.0865928531 0.1043948010 0.2683809996 0.4565210640 0.1710151285 -0.1911796331 0.1431722492 0.1526053697 0.1349529922 0.0657155812 0.2056891024 -0.0851511732 0.1100765690 0.1068878323 0.1936503351 0.2270212173 -0.0656424835 -0.1879182905 -0.2222141176 -0.1320165545 0.3863804936 0.1103509367 -0.2527949810 0.2533696294 0.2497669011 0.1930335462 0.2635201216 -0.0502558164 0.1694360673 0.1045988053 0.1252922416 0.3560604155 0.4227165282 -0.2358848006 -0.0563635752 -0.0937745795 0.3261081576 0.1439829469 0.4195056558 -0.1546219885 0.0795230344 0.2123645842 0.0479759611 0.1825995445 0.2830084264 0.0702432245 0.2114738077 0.1719731838 0.1931108534 0.3185807467 0.2857294679 0.3448699713 0.1377149969 -0.0083107082 0.0555029660 -0.1014222354 0.4462134838 0.2669531405 -0.1614340842 0.3093627989 -0.1214294806 0.1107290685 0.2187737375 0.2180462927 -0.1238707304 0.0151595725 0.2428002954 0.1500777304 0.0645825267 0.0652000010 0.3935633600 0.2283924222 -0.0909528136 0.1567030400 0.1486695707 0.1165862232 -0.1157836616 -0.0983581617 0.2595179677 0.2601919770 0.0101357875 -0.1347983778 0.2472461760 -0.0041233776 0.2919831574 0.0915519670 0.4994207621 0.3333057761 0.2087287307 0.0464703850 0.5188382268 0.2550238967 0.3594452441 0.1170090362 0.4428563118 0.0419543311 0.3620483875 0.1239580661 0.1600589156 -0.1045608893 -0.1401446611 0.2060750723 0.0388536975 0.5954851508 0.1622115821 0.0807215571 0.2694895864 0.0668877289 -0.2433637381 -0.1001047939 0.1002765670 0.0738520771 -0.0947631150 -0.0812298656 0.1147591099 -0.1585408300 0.3395601213 0.2224471718 0.2197672427 -0.1631138772 0.3553142250 0.0297303498 0.4359547496 0.1524727941 -0.0618118048 -0.2187510580 -0.0171157047 -0.0637259111 -0.0069728382 0.0787011981 0.0164189711 0.4035489261 -0.1662349552 0.3197066784 -0.0615256578 -0.0893859118 0.1102081463 0.1888455749 0.3184739351 -0.1448825151 -0.1253344417 -0.0747718811 0.0558048226 -0.0579880103
0501982b07698c64b559f0d25b5b0c8b_F_0001_5.87_19.78 0.0495056137 0.1501961350 0.3276211619 0.1005801633 0.0723335445 0.2475058734 0.7833989263 0.2517513931 0.1872150451 0.1860102564 0.1486777514 -0.0414400846 0.1253034920 0.2483623028 -0.0693940297 -0.1540465355 0.3899476230 0.3144533932 -0.0997215062 -0.1917632520 0.3263738453 0.2295851260 -0.1128936559 0.1833634377 -0.1137941405 0.0453347154 0.1994740516 0.2292229384 0.3053405881 0.4459934235 0.7401577830 0.1254009306 0.3868059218 -0.0599053167 -0.2353790849 0.3707901835 0.5435579419 0.1435272992 0.0822524354 0.2040138096 0.1033475921 0.1168532670 0.1742752939 0.5350635648 0.3380326331 0.5735419989 0.2814193368 0.2938157916 -0.2130576968 -0.2509150803 -0.1500359923 0.2052754015 0.0739563480 0.2443963289 0.3666576147 0.2054933310 0.6767073870 0.1231906787 0.2256927490 -0.0659052059 0.2402994484 -0.1303805709 -0.0184355266 0.2722720504 0.3673993349 0.3048063815 -0.0866601467 0.3011498451 0.4007582366 0.2482152581 -0.1725514978 -0.1283789277 -0.1945584565 0.1565736979 -0.0320165083 -0.2727819681 0.2534792721 -0.2548431158 0.4703867435 -0.0555834547 0.0250262134 0.1117694229 0.3645716012 0.1331834495 0.0687220469 0.3399026096 0.2720037401 -0.1702401787 0.3906708956 -0.2055172920 -0.2167776525 0.4332084954 0.3593147099 -0.0939180031 -0.1053359732 0.5059899092 0.0137969479 -0.0874256790 -0.1202666014 0.2127430439 -0.1065021828 0.0346158035 0.0989930406 -0.1913249046 0.1134248823 -0.0361038558 0.4400114715 -0.1377584487 -0.0711775497 -0.0685834065 -0.1812135726 -0.2324863970 -0.0676564127 0.7111893892 0.4229681194 0.4584250748 -0.1537102461 0.1392096132 0.1276698560 0.0226195175 0.1602670848 0.4224382937 0.2119386494 0.3340155184 0.5449230671 0.5768854022 -0.2123029679 -0.0055765165 -0.1242110133 0.3449604809 0.3579372168 0.1819404215 0.2409191877 -0.1915271431 -0.1003269628 0.2761628628 -0.2294349968 0.2792910635 0.1257242411 0.5342425108 0.0918080285 0.0795156956 -0.1179340333 0.1522222906 -0.0502981991 0.1764618456 0.3602684438 -0.1130002141 -0.0252824239 0.1633103788 0.2120517790 0.2813161612 -0.1718455255 0.0211990010 0.1267538071 -0.1475587040 0.1417940110 0.3169842660 0.2694928050 0.1286504418 0.1234784275 0.3557274938 0.2464556694 0.5266238451 0.2818481922 0.0359878540 -0.0908846557 0.2821027935 -0.0682728514 0.2866452336 0.1727751493 0.1449685246 0.1734407246 -0.1662736684 0.0770720989 0.7247734666 0.1167212352 -0.0847241953 -0.2035104185 -0.0052254410 0.1066590995 0.0360303372 0.0350641683 0.4482725859 0.0920713767 0.1560286134 -0.0570268296 0.4536163807 0.0267268121 -0.0142337764 0.1909978092 0.1232704967 0.4365465641 0.0406992733 -0.1832830012 0.0792660341 0.2431524694 -0.1198364198 0.2505756617 -0.0409289114 -0.1761940718 0.1909765452 0.0825068057 0.2169791907 -0.0598021597 0.1466469467 0.4637412131 0.1327619106 -0.1397916824 0.1735599935 -0.1094400212 -0.0086333100 0.2706410289 0.1483710259 -0.0744355544 -0.1537086666 0.2467022091 -0.0759284049 0.0596921444 -0.0593003109 0.1224770546 0.0218483545 0.1482741088 0.3171425760 0.6058774590 -0.1692253351 0.0102343531 0.4378761947 0.2602229714 0.1722718179 0.2937212884 0.1592074931 -0.1734921187 0.0123378392 0.5616647005 -0.0816830471 -0.1260346323 0.1881479770 0.3454821408 -0.1025010347 -0.1982920319 0.1760137975 0.4092525840 0.3880955577 -0.0011859741 -0.0893166661 0.0965701714 0.2570402324 0.0096967630 0.6825094223 0.2395259589 0.2606034875 0.2941293120 0.2601253092 0.2688378096 0.1780331880 0.2346017957 0.1104884297 -0.1117887869 0.3059460819 -0.1354573518 -0.0928992182 0.5288367867 -0.1263800263 0.3340536058 0.2302862406 0.3986166120 -0.0129144220 0.5601994395 0.3308815658 0.3479620516 0.1652994901 -0.1742663980 0.0004089227 -0.0095777540 0.1823950112 -0.2047788203 0.5668220520 0.0347941741 0.2035369575 -0.0140214013 0.2674559653 0.5463759303 0.0297055319 0.0188275073 0.0558518767 0.0825704187 -0.0350302234 0.3793027997 -0.0622746162 0.2930803895 -0.1592249274 0.5087143183 0.3561680913 0.0044747409 -0.0032470436 0.3138653040 0.0458674803 0.2457743585 0.3022302985 0.1247951761 0.4065274894 0.3559365571 0.1380621791 0.1637004763 0.1170750484 0.0645946413 -0.2040858865 -0.0712719560 0.0290460121 0.0934933573 0.4008169472 0.2708790600 -0.0481458716 0.2543806136 0.3287534118 0.0174191184 0.0074459277 0.0020102719 0.2503241301 0.0642758161 0.1810479760 -0.0953979194 -0.1099833548 0.3555890918 -0.1288146526 -0.1037912145 0.3869574368 0.1300673485 0.1142703146 0.3272951245 -0.0740841627 -0.1059665307 0.1664701104 0.2581214905 -0.0844780803 -0.0969726145 0.6497541666 0.3221286833 -0.0931199193 0.2840971649 0.1886097342 0.0836095884 -0.0533435941 0.2568108141 0.1701536179 0.2756145597 0.3222174942 0.5107310414 0.3147249222 0.2926557362 0.3778778911 0.1952449977 -0.0814471841 0.1861758530 0.1665457934 0.2332431376 0.5000833869 -0.1233538836 0.1803994924 0.0641572624 0.2434878051 0.1171790510 0.4860177040 -0.1874945611 0.4037659466 -0.2850329876 0.2431700826 -0.1777048409 0.2025158703 0.2697537839 0.3009331524 -0.1026869640 0.3724497855 0.5014899373 0.2634478807 -0.2911988795 0.2006753534 -0.1534353197 0.1316272318 0.1203311235 -0.0175609700 0.6335870624 0.1862110794 -0.0691942722 0.0303502269 0.1975035071 0.4104109108 -0.0570359752 0.2316895276 -0.1990687549 -0.0963330492 0.2634377480 -0.3717883229 -0.1274855137 0.3608179092 -0.1304669827 0.3847663403 0.0501933768 -0.0977204144 0.7457923889 0.2210450619 0.3338218927 0.2848660350 0.5652614236 0.2654535770 0.2251253426 0.3188198209 -0.1370458156 0.0194956567 0.0864390433 0.1773577482 0.1166976914 -0.0231076758 0.3325323462 0.0382229835 -0.0411439762 0.3144975603 0.4916227460 0.1609255522 0.2903340161 -0.2264734805 0.2000166625 -0.1656625271 0.0508294627 0.1431196332 0.3227339983 0.2570552826 -0.0968988091 -0.1378342807 0.4624824226 0.1381481439 0.0804858580 -0.1237254292 0.1517016292 0.3537748754 0.5241018534 -0.2114431262 0.7485391498 0.1932302862 0.4257611334 -0.0537781045 -0.2211690098 -0.1529948711 0.4768097103 0.2643779814 -0.1299741268 0.4456319213 -0.0439193882 0.1717168987 -0.0827193409 0.1229372770 0.3793712258 0.2727553844 -0.0806858838 -0.1146936938 0.1840564162 0.0977436677 0.2250843197 0.5412710309 0.1980387419 -0.2314621508 0.1080121323 0.1588216722 0.1472238749 0.1036186144 0.1865040213 -0.1053160504 0.2298894525 0.0965562910 0.2838700712 0.1990799904 -0.1049168780 -0.1891653389 -0.2689711154 -0.1632608622 0.4344597459 0.1155372709 -0.2845779359 0.1917490512 0.2099791914 0.2753060758 0.4189610481 -0.0865468755 0.1215695143 0.1297933906 0.2343798727 0.3377079964 0.4287434518 -0.2704328299 -0.0580925345 -0.0918598771 0.5047394633 0.0507608913 0.4387770593 -0.1572372168 -0.0127059594 0.1921998560 0.0704640895 0.1437357217 0.3114341497 0.1224966571 0.1225335225 0.1885546148 0.2581588030 0.5235995054 0.2266714573 0.3767537177 0.1586357653 -0.0098244334 0.0583080947 -0.1154605001 0.5648140311 0.2407830805 -0.1804788858 0.2940678895 -0.1542970240 0.2405508310 0.2085904628 0.2381626219 -0.1345709264 0.0380840600 0.2374492288 0.1068323627 0.0695170239 0.1162819490 0.5222801566 0.2651239038 -0.1079070568 0.2140929550 0.1853834093 0.1377321929 -0.1427523345 -0.1145802513 0.2829074860 0.3828399777 -0.0159229916 -0.1327074468 0.2697125673 0.0038289623 0.2741525173 0.1067433283 0.4546700716 0.4753454924 0.3153048754 0.0301898085 0.5331158042 0.3810621798 0.3945398331 0.2128056139 0.4820176959 0.0103285871 0.4027366638 0.0659847483 0.2337947190 -0.1129597351 -0.1494408250 0.2457047403 0.0672188699 0.6144187450 0.2075018734 0.0066487063 0.3157814443 0.0530689843 -0.2874825001 -0.1432992071 0.0818231553 0.0663460419 -0.1037001088 -0.1083490998 0.1032835171 -0.1736194193 0.4304245710 0.2358464897 0.1904907227 -0.1997489184 0.3697179854 0.0658438578 0.5396429300 0.2215569168 -0.0890152305 -0.2399926335 -0.0104532577 -0.0634454191 -0.0064691044 0.0540111363 -0.0000059237 0.5461450219 -0.1984322518 0.4100679457 -0.0637392625 -0.1030243710 0.1616077721 0.2176241279 0.3605707884 -0.1766926497 -0.1564626545 -0.1036247611 0.0717376992 -0.0585676730
065631d00f18a4152ef4b0a61d0b333b_M_0005_831.99_840.59 0.0749580711 0.1862622052 0.2026860416 0.1801132709 0.0174680110 0.2222051024 0.6890686154 0.3406089842 0.2126241326 -0.0851928368 0.0970347002 -0.0397066548 0.1438829005 0.3505688012 -0.0446556807 -0.0986707583 0.3828064501 0.4578041732 -0.0503327064 -0.2057603747 0.3173000813 0.1121938601 -0.1189545915 0.1792959571 -0.1213197932 0.0445893519 0.2620854378 0.3210914135 0.2584542334 0.7512124181 0.8461236358 0.0983543620 0.4358761907 -0.0302919988 -0.1919172704 0.2827130258 0.5092796683 0.2866055369 0.1965182871 0.2022706717 -0.0514457896 0.0904003680 0.1029685289 0.4800223112 0.1621345282 0.5587316751 0.1041885242 0.2556485236 -0.2115356624 -0.2490994483 -0.1358006746 0.3397646546 0.2058628947 0.2109935135 0.4498466849 0.1260530800 0.5640481710 0.2163776159 0.2917119861 -0.0210458953 0.2700985968 -0.1070720032 -0.0389981046 0.1659848392 0.4694319367 0.0724415183 -0.0846553519 0.1906499565 0.3873158693 0.0558726080 -0.1745582372 -0.1003092453 -0.2116114497 0.0291855130 -0.0320219584 -0.2560375631 0.3316271305 -0.2349843383 0.5225161314 -0.0625511855 0.0191944651 0.0619409978 0.3491463959 0.0133280698 0.1225655079 0.0486143343 0.3472306430 -0.1777577847 0.0935206637 -0.1746906936 -0.1726581752 0.2269323319 0.2526897192 -0.1193260401 -0.0876613036 0.5183939934 0.2055309564 -0.0740501434 -0.0933173150 0.3803672493 -0.1172074080 0.0412227064 0.1069354936 -0.1952039748 0.0484387279 -0.0138579281 0.6304027438 -0.1358265132 -0.0452848077 -0.0637788773 -0.1498751491 -0.2096358389 -0.0575483441 0.8082463741 0.5190194249 0.5784078240 -0.0483707041 0.1395438313 0.0801684782 0.0290461164 0.1545873284 0.6852496862 0.0887672901 0.2085251361 0.4579798281 0.7954543829 -0.1613119096 -0.0651115030 -0.0886918381 0.3926400840 0.2448938042 0.1476101428 0.2204002887 -0.1774309725 -0.0578446612 0.3529576957 -0.2133284807 0.2729644775 0.0047772285 0.6388472319 -0.0244490057 0.0646053031 -0.0880962610 0.0619519986 -0.0318029672 0.1218771636 0.5223720670 -0.0738226399 -0.0154651850 0.2248246670 0.2824965715 0.3309635818 -0.1816354543 0.0384797193 0.0724260956 -0.0989890769 0.0784230977 0.4860646725 0.4075500369 0.1291677207 0.1501533538 0.2792197168 0.2698042095 0.2045854628 0.1321191341 0.0300512053 -0.0781605467 0.0907200575 -0.0764326677 0.3457399011 0.1973018348 0.1511783302 0.0746087730 -0.1522957236 0.0119003197 0.5556573272 0.0425853729 -0.1037082151 -0.2154155076 0.0589087754 0.1219162121 -0.0715190917 -0.0215332303 0.4649319649 -0.0744484663 -0.0885706022 -0.0668984503 0.4066962600 0.0328431576 -0.0487555414 0.2171247900 0.0633260608 0.2794693112 0.0408786945 -0.1994877458 0.0313612968 0.4493629336 -0.0999005437 0.2556433678 -0.0518243648 -0.1564602703 0.0508083887 -0.0070354133 0.3023464978 -0.0675540045 0.0180617534 0.5487622023 0.1501059681 -0.1449041516 0.1603418589 -0.1040962934 0.0547422580 0.3495178819 0.0821752921 -0.0649770051 -0.1050397232 0.4042043388 -0.3647760749 0.0213392694 -0.0482884422 0.0730814785 -0.1375673860 0.2995837629 0.3165828586 0.5167565346 -0.1817822158 0.1083836928 0.1825163215 0.2557138503 0.0861939117 0.4423423111 0.2074743956 -0.1736176759 -0.0539728776 0.5100023150 -0.0893054679 -0.1413905770 0.1465403736 0.1219234839 -0.0438888855 -0.1694994420 0.2785802484 0.4298534989 0.2777164578 -0.0104069691 -0.0740951598 -0.0067714327 0.1881636381 -0.0144825317 0.7093592882 0.3190611005 0.3051490188 0.3028059304 0.0394277722 0.2423251420 0.2729209363 0.2565993667 0.1342396438 -0.1068880185 0.1759098619 -0.1044343859 -0.1126905903 0.5452674031 -0.0998160392 0.4511556923 0.3326296806 0.2752264440 -0.0177510455 0.4090359807 0.4285252094 0.3814727962 0.0712775216 -0.1815687120 -0.0182816852 -0.0561886206 0.2506815493 -0.1883666366 0.7605428100 0.1326972544 -0.0443406105 -0.0294406079 0.0798397362 0.3340539038 0.0012871721 0.0442027748 -0.0514632575 0.0235528424 -0.0503305197 0.3772023320 -0.0566014014 0.3032069802 -0.1374716610 0.3924379647 0.1669369340 0.0218164511 -0.0077176639 0.4623242915 0.0182508007 0.1408931017 0.2794288099 0.1640966088 0.6595781446 0.2423661798 0.1108896434 0.0669236034 0.0250968114 0.0437803119 -0.1974407732 -0.1072760075 0.0615662411 0.0943757594 0.2764029503 0.3158890307 -0.0361289196 0.0937206075 0.4852879643 0.0013115066 0.0004778390 0.0104888482 0.1383402646 0.0660423487 0.1259259731 -0.0679590777 -0.1096232384 0.3651663959 -0.1553410590 0.0017501410 0.2011290342 0.1381067336 0.0751032084 0.2340675592 -0.0764041916 -0.1076231524 0.1430086046 0.3092492819 -0.0825809166 -0.1206472963 0.4051351845 0.0760548338 -0.1020093337 0.2752028406 0.2280723453 0.1073910221 -0.0608081669 0.3129233420 0.0642302558 0.3327192664 0.2389339060 0.4296229482 0.1492995769 0.4170721471 0.1428658664 0.1927913427 -0.0862401128 -0.0324526951 0.0054888055 0.0655246973 0.5815412402 -0.1090333909 0.0636726171 -0.0006072256 0.3382690847 0.0862828195 0.6296655536 -0.1569644213 0.3169822693 -0.2770462632 0.2408070266 -0.1104027256 -0.0401215665 0.1233315840 0.3751873374 -0.0970083252 0.1246060431 0.3574826717 0.1059947014 -0.2816876471 0.1611561030 -0.0611988567 0.0184076335 0.0954128429 -0.0034700523 0.6206374168 0.2771633267 -0.0612793155 0.0564727299 0.2435464263 0.4262685478 -0.0698697791 0.2000602186 -0.1925719082 -0.0898760632 0.3346591592 -0.3338104486 -0.0919637829 0.4672353268 -0.0910099074 0.3599428833 -0.0424761884 -0.0833867788 0.7885307670 0.2518887818 0.3739160001 0.4191109538 0.4620530307 0.2419624329 0.1196731329 0.4081538022 -0.0896524936 0.0829844400 -0.1615550965 0.1604844481 0.1673634052 -0.0268120971 0.4531419277 -0.1390176415 -0.0634391978 0.0463197753 0.6511381269 0.1404759735 0.1177090108 -0.2628809214 0.2180801332 -0.1444810033 0.2199942321 0.0713971034 0.1308640987 0.3981191814 -0.0573372841 -0.0864318907 0.1337605417 -0.0539225601 -0.1196958646 -0.1176741868 0.0684572607 0.4630766809 0.6630168557 -0.2011136711 0.6045098901 0.2174596339 0.2962279022 -0.0812707543 -0.2356116921 -0.1097267121 0.5533693433 0.3806804717 -0.1184240729 0.4865869582 -0.0107493214 0.3098281324 -0.0993475616 0.1474613696 0.4225211740 0.2759037614 -0.0808517858 -0.1228877306 0.0936151445 0.0360232741 0.3071682751 0.5994278193 0.1320507675 -0.2198096663 0.2092529088 0.1835225523 -0.1234884635 0.0863881707 0.3228678405 -0.0860342011 0.1730124354 0.0454444699 0.1152573898 0.1127281711 -0.0940532610 -0.1721459478 -0.2506919503 -0.1015146747 0.5784682035 0.0604298636 -0.2457899749 0.1566451192 0.3149079382 0.2388697863 0.4505174160 -0.0679041296 0.1703487188 0.0358734131 0.1240243614 0.5281901360 0.4662037790 -0.2696380615 -0.0928200707 -0.0866835639 0.6808559895 0.0941670761 0.5144721866 -0.1473881602 0.0941421539 0.1250310391 -0.0439612456 0.2577138543 0.4502016902 -0.0286916383 0.1904037446 0.0165967233 0.0288894139 0.2182541341 0.2205628753 0.5687589049 -0.0259665344 -0.0196248181 -0.0664263293 -0.1314440817 0.6440475583 0.4671106339 -0.1944460422 0.1139742136 -0.1104265973 0.1244086474 0.2139647007 0.2840684354 -0.1326646060 -0.0064937854 0.0062500406 0.2239547968 -0.1131287813 0.0453898907 0.4734562337 0.3477068543 -0.1035368294 0.1063982397 0.1464019865 0.0627686828 -0.1348817796 -0.1718028188 0.2754986584 0.4094303250 -0.0112849893 -0.1480689049 0.2801065445 -0.1366739273 0.4369682670 0.0856170952 0.2221658826 0.2098473608 0.2898589969 -0.2244798690 0.7819290757 0.1883445382 0.1693057120 0.1611356735 0.5341187716 0.0719693378 0.2049063295 0.1736815274 0.1056483462 -0.1184704453 -0.1379726976 0.2187934071 -0.0821260884 0.5404750109 -0.0275366139 0.1362493932 0.2959518433 -0.0110291531 -0.2536252439 -0.1033917367 0.1144429147 0.0908753946 -0.0774566829 -0.0998189375 0.0504392311 -0.1589431018 0.3558935225 0.2462857366 0.3205255568 -0.1431463212 0.4227997959 0.0429758318 0.3649377823 0.1577685773 -0.0896992385 -0.2474578917 -0.0120147523 -0.0557304211 -0.0525640175 -0.0315691158 0.0269754846 0.6813514829 -0.2058547139 0.2854793370 -0.0614931062 -0.0809954926 0.0311333388 0.1390646696 0.4505200982 -0.1722360104 -0.1462918967 -0.0807236061 0.0632654130 -0.0360563844
065631d00f18a4152ef4b0a61d0b333b_M_0010_1069.21_1146.87 0.0493105277 -0.0096228495 0.3026519120 0.1254691631 0.2145834118 0.0690165460 0.5142466426 0.0754894614 0.0467109978 0.1649901122 0.0374059156 -0.0033860877 0.1642802954 0.2784996927 -0.0635485798 -0.1431641579 0.2861444652 0.0319233797 -0.0780141354 -0.1726669818 0.3527908027 0.0454681069 -0.1391784847 0.0175940860 -0.1028586328 0.0437365510 0.1670120060 0.1385825574 0.4473102391 0.3583835661 0.6056362391 0.0428709611 0.1232496798 -0.1029789746 -0.2040935606 0.3096730709 0.6111513376 0.1841821671 0.0990833938 0.1031122804 0.0718251318 0.0320694000 0.0326596014 0.1652463228 0.4264498055 0.2251069248 0.3459975719 0.1165635586 -0.1994551271 -0.2094902843 -0.1401186883 0.1120302677 0.0873118490 0.3183417916 0.3742326200 0.2048570067 0.7443050146 0.1721656471 0.0239783823 -0.0771140531 0.1370096952 -0.0951034948 0.0061513921 0.4024273753 0.2276816517 0.5736497641 -0.0657109842 0.0864835680 0.0905938894 0.1348774284 -0.1525277048 -0.1339628696 -0.1665142179 0.1166892648 -0.0739265755 -0.2262243479 0.3525376022 -0.2147918493 0.5543591976 -0.0293343551 0.1512515247 0.0284028426 0.3938092887 0.2245343924 0.0281715356 0.1608627439 0.1054717898 -0.1523043066 0.2900420129 -0.1842240244 -0.1882328093 0.5968917012 0.1028470770 -0.0971349999 -0.0849580169 0.4998309612 -0.1228297278 -0.0713241547 -0.1351874620 0.0996411145 -0.0864317641 -0.0042636665 0.2828530073 -0.1539772004 0.0016390607 0.0123253865 0.2008652687 -0.0990877673 -0.0756161287 -0.0255014393 -0.1525279135 -0.2337672710 -0.0253227931 0.5864011645 0.5321561694 0.2674352229 -0.0606089123 0.2183309793 0.1418102682 0.0903782919 0.1236204058 0.0994829386 0.1675612032 0.1305283010 0.3827661574 0.4037725627 -0.1401632726 0.0114231603 -0.1077663377 0.0667843819 0.3105749786 0.0295726210 0.2323728800 -0.1212474927 -0.0747302622 0.2921941578 -0.2155190110 0.3058636785 0.1325421184 0.3541334271 0.1056134477 0.0498598441 -0.1183180213 0.0841217712 -0.0197016932 0.1809004694 0.1255426854 -0.1062244624 0.0868707448 0.0194565449 0.1598997414 0.2963099182 -0.1381223053 -0.0019688052 0.0833419412 -0.1349584460 0.0530415103 0.2341270596 0.0336797386 0.0352308638 0.0762443393 0.4769382477 0.3677687347 0.5917517543 0.2924242616 0.0767703280 -0.0580131225 0.1598191112 -0.0110038826 0.2767811716 0.1068824455 0.0637756735 0.2026488483 -0.1481143534 0.1810066104 0.6729431152 0.3747578859 -0.1078687310 -0.1968941540 -0.0156744998 0.1927237809 0.0521761775 0.0064341929 0.4540400505 0.1920567751 0.1707610339 -0.0647102892 0.4506042004 0.0000245050 -0.0222155750 0.0798824802 0.0610368773 0.5702150464 0.0260060057 -0.1618613601 0.2687493265 0.1264022291 -0.1098746061 0.0934898257 0.0094319731 -0.1319449246 0.0891750604 0.0439883880 0.3029200137 -0.0432434976 0.0877678692 0.4620633423 0.2235893607 -0.1091491953 0.1036348939 -0.1016071364 -0.0639779419 0.1134976149 0.0657922626 -0.0454102010 -0.0999537110 0.2742629647 -0.0337085724 0.0399574675 -0.0191795267 0.0211400688 0.0289644934 0.1225771010 0.2193910778 0.4374172390 -0.1653602272 -0.0236127637 0.3335703015 0.4043859839 0.3446016312 0.2278144807 0.1019519866 -0.1336355209 0.0194746405 0.4276311100 -0.0567416959 -0.1077784598 0.3021388054 0.1932382584 -0.0719656721 -0.2370847762 0.1513807476 0.3321407735 0.3164362609 0.0558880642 -0.0353445411 0.1882932633 0.1547789574 0.0194620639 0.6984453201 0.2209781855 0.3055562377 0.3636980951 0.4090080559 0.1031761393 0.1710338444 0.3316239119 0.2683394551 -0.0659328103 0.3226528764 -0.1330584437 -0.0491758846 0.2676780820 -0.0836381689 0.0857135206 0.0610924289 0.1834909320 -0.0263206307 0.6171416640 0.3548559844 0.2704561353 0.0693785250 -0.1324787736 0.0505691133 0.0672135055 0.0068318704 -0.1664477885 0.3516162336 0.0050808964 0.4037288427 -0.0054222504 0.1700193435 0.4910446405 0.0531963781 -0.0258964691 0.0304034967 0.0870777071 -0.0200309735 0.2667812109 -0.0482788421 0.2347114682 -0.1601806581 0.4135338962 0.4582479596 0.0054527116 -0.0148809794 0.4131743014 -0.0013766540 0.0960088149 0.0604754016 0.0422062129 0.1258481443 0.2337690890 0.1605060697 0.0945163369 0.1507958025 0.1675941199 -0.1451087445 -0.0683825761 0.0382423401 0.0617202632 0.4813319743 0.2180062234 -0.0116891209 0.3833108246 0.0863950923 -0.0061418791 0.0029795391 0.0705086663 0.2776776552 0.0036790585 0.2691856325 -0.0690367222 -0.0689110234 0.1962603331 -0.0912505239 -0.0751179680 0.3773554862 0.0443832427 0.3629718125 0.3854554594 -0.0239622220 -0.1259287298 0.0973932892 0.2591028214 -0.0725999027 -0.0697241127 0.6055947542 0.2756819427 -0.0548943654 0.4762249589 0.3689019084 -0.0541486666 -0.0574486032 0.3565267622 0.0807975903 0.4374920428 0.2911595106 0.1619611681 0.3873779476 0.3840863109 0.2649912238 0.3700980246 -0.0579837039 0.1787335873 0.1481771171 0.3411133885 0.3473860323 -0.1138893515 0.2268604338 0.0781876296 0.0294033848 0.0139607955 0.3982752562 -0.1624607742 0.3966740370 -0.2398295850 0.2247101367 -0.1801868826 0.3645924330 0.3106316030 0.2503394485 -0.0832190067 0.2281639278 0.0592532679 0.2492845356 -0.2638316751 0.0582449734 -0.1164251342 0.0476194173 0.0808717012 -0.0288402401 0.4366566539 0.0344856977 -0.0500155613 -0.0117073981 0.3561356366 0.5228779912 -0.0472509712 0.1516816169 -0.1889524609 -0.0528026745 0.0842675045 -0.3312858045 -0.0983982384 0.4639510810 -0.1291945279 0.3561373055 0.1116928309 -0.0876990855 0.7370977402 0.2638805807 0.4175667465 0.0353528336 0.6591783762 0.2408049107 0.2761534452 0.5514527559 -0.1031336188 -0.0346954167 0.0900240168 0.2370185256 0.0462926105 -0.0348257609 0.2887078524 0.0743808821 -0.0256182421 0.2012220174 0.4823803008 0.3080462515 0.2381293774 -0.1945850849 0.2010589689 -0.1550319791 -0.0624509007 0.0845625103 0.1569519490 0.0833231658 -0.0754758716 -0.0624122918 0.3255727887 0.1930961460 0.1121511087 -0.1027789041 0.1314354986 0.0392818376 0.5627097487 -0.1872999370 0.4601897597 0.1031282172 0.3861466348 -0.0909649357 -0.1878433079 -0.1324424446 0.2493334115 0.1257160306 -0.1112990007 0.1815795749 -0.0309792049 0.2326862812 -0.0474604443 0.0006135213 0.2443489432 0.3260496855 -0.1031205729 -0.0840945914 0.1094405726 0.1203440875 0.4306620955 0.2999173999 0.1018820331 -0.2179351747 0.1418914199 0.1212621331 0.2665712237 0.0822874457 0.1567962617 -0.0619155578 0.0454145633 0.1736239046 0.1876046211 0.3095859587 -0.0506455079 -0.1526328027 -0.2289801389 -0.1205239370 0.3328633606 0.0228139684 -0.2487834841 0.3558882773 0.2983967364 0.0326955318 0.0379592851 -0.0664299130 0.3495868742 0.0934624299 0.1118511409 0.2997305393 0.6896917820 -0.2136519402 -0.0327357650 -0.0782540739 0.1219080836 0.0298401713 0.6306188703 -0.1681920290 -0.0778359175 0.2479827255 0.0858337730 0.1798169464 0.0811115429 0.1088505238 0.1483942419 0.1813683510 0.1655119210 0.2608502507 0.3300016820 0.2880744636 0.2349713892 0.0192232840 0.1032208800 -0.1085424498 0.4237539470 0.0691940039 -0.1622958779 0.3292197883 -0.1206673682 0.0704617724 0.4474288523 0.1553772092 -0.1292331070 0.0248560905 0.4751187265 0.0856267884 0.0374661162 0.0832957178 0.5392748117 0.2667758763 -0.1049694493 0.1503731161 0.2128401697 0.1595254391 -0.0765673444 -0.0869183168 0.3333137333 0.2926456034 0.0437663719 -0.1564235985 0.1317801028 -0.0045111505 0.1204145402 0.0496807434 0.6304484010 0.3555920124 0.1304080784 0.0928371325 0.5180857778 0.3521382511 0.4169675410 0.1586071402 0.3050082922 -0.0058875140 0.4885516167 0.2841997743 0.1218241453 -0.1108574048 -0.1825200766 0.3094853461 0.0529368222 0.5661649108 0.2015662640 -0.1081094369 0.1416011453 0.1775485128 -0.2693668008 -0.1051931828 0.1213696525 0.2074261308 -0.0775613040 -0.0625716895 0.2217307389 -0.1852959245 0.1475010961 0.3608328104 0.3031465113 -0.1498567909 0.4526649714 0.0602698475 0.5208089948 0.0837184638 -0.0513564274 -0.2202932686 0.0339458846 -0.0875734091 -0.0272954721 0.0209744759 0.0194483995 0.4748396277 -0.1526639014 0.4220510125 -0.0613886081 -0.1140053272 0.0712613910 0.0910210460 0.1045350507 -0.1323596090 -0.1234015301 -0.0834898502 0.0766083449 -0.0987904817
06a257c7b6e0fe3b3780f98e35b2ac06_F_0004_38.88_48.97 0.0149173606 -0.0309304614 0.2949838638 0.0753207281 0.1815381199 0.0897528529 0.3902367949 0.1754721254 0.1272869259 0.2947386503 0.1225490794 0.0105322152 0.0802765712 0.1167748719 -0.0767889842 -0.1512907743 0.2494104505 -0.0401274040 -0.0841899142 -0.1355091631 0.3101306856 0.1801065207 -0.1256884187 0.0675482005 -0.0933459029 0.0350162536 0.1512652785 0.1158509329 0.3397504389 0.1883381009 0.4655814469 0.0404583812 -0.0165664703 -0.0965702832 -0.1909806281 0.3744607270 0.5458142161 0.0312326141 0.0202691630 0.0572512373 0.0602776259 -0.0141702751 0.1530052423 0.1766246408 0.4982421696 0.1437200904 0.4873707891 0.0109901242 -0.1985343546 -0.1854902953 -0.1428596675 0.0742684379 -0.0606006682 0.2179147005 0.3875319660 0.2754342854 0.7225997448 0.0643085763 0.0251512229 -0.0829750970 0.1267343313 -0.1032735109 0.0539014265 0.3615521193 0.2562687397 0.5965434909 -0.0691118315 0.3155039549 0.0288949683 0.2401058376 -0.1623890251 -0.1302849799 -0.1593766212 0.3533948362 -0.0742202252 -0.2009096742 0.2819385231 -0.2121104449 0.5581136942 -0.0442163683 0.1408712715 -0.0318443589 0.4756237268 0.2567303777 -0.0741188303 0.3775936365 0.0000576167 -0.0907606855 0.4454847276 -0.1942539960 -0.1680984050 0.6813703775 0.2338681221 -0.0960737318 -0.0714695528 0.5814747810 -0.3382590711 -0.0687843114 -0.1580894440 -0.0474933311 -0.0802529752 -0.0325802937 0.2305792123 -0.1332784593 -0.0239857212 0.0412451364 0.1420501322 -0.0702262968 -0.1074659526 -0.0238657463 -0.1528220773 -0.2559490502 0.0340129659 0.3324047029 0.4074152410 0.2808033228 0.0151341427 0.1930118352 0.1337950230 0.0894394666 0.1229559779 -0.0091585806 0.2262015939 0.1666588932 0.2832933068 0.3637263179 0.0137810735 0.0336213447 -0.1300199926 -0.0005683126 0.3543176353 0.0974238515 0.2246618271 -0.1236711740 -0.0286278427 0.1890755594 -0.2150281370 0.3329418898 0.1187094972 0.4161098301 0.1114233509 0.0619110800 -0.1365856379 0.2172304690 -0.0516714305 0.2446154058 0.0003459738 -0.0295406450 0.1736827195 -0.0127487145 0.1131269932 0.1273043752 -0.1177565977 -0.0767150596 0.0077242809 -0.1456223428 0.1841800362 0.1120251045 0.0290444754 0.0702362433 0.0834633410 0.3176793158 0.3446923196 0.6653935909 0.2118929476 0.0502501875 -0.0561668910 0.3449799716 -0.0043405634 0.3162976503 0.1318899989 0.0750947520 0.2267064303 -0.1264943480 0.2258252800 0.5370956659 0.3241850734 -0.0894901529 -0.1970044822 -0.0624788329 0.1340849698 0.2332909554 0.0177415237 0.2485529482 0.3096647859 0.2367809713 -0.0688679144 0.3316976428 0.0233399384 -0.0080528269 0.1406770051 0.0826520771 0.5241916776 0.0261472985 -0.1648047119 0.2450957894 0.0640119165 -0.0992798805 0.0873339325 0.0640728027 -0.1300385594 0.1464290470 0.0918306336 0.1502862126 -0.0270766784 0.2571423054 0.3009841442 0.1398113072 -0.0876687840 0.0529623665 -0.0771344975 -0.1462238729 0.0497658812 0.0902742893 -0.0365982018 -0.1214788780 0.1015944853 0.0937384591 0.0245322082 0.0216724519 0.0801810920 0.1342038363 0.0360051990 0.2207687348 0.3506820500 -0.1530693769 -0.1479464173 0.5003748536 0.3111856580 0.3125065863 0.1425504535 0.1165399998 -0.1370742768 0.0081335781 0.2886816263 -0.0475327037 -0.0969813019 0.3157606125 0.3631727397 -0.0991377309 -0.2252134830 0.0350641534 0.4430268109 0.3253349662 0.0704025924 0.0310969483 0.2227109820 0.2897290289 0.0857994333 0.4856119454 0.1211726815 0.2681366801 0.1742115915 0.4433431029 0.3217898011 0.1766095459 0.3161023855 0.2773709297 -0.0539214388 0.4158355296 -0.1388064325 -0.0231912676 0.2063117921 -0.1008094549 -0.0704314336 0.0046680868 0.2367641181 -0.0065075541 0.7698323727 0.2905696929 0.3503334224 0.1134843528 -0.1027628779 0.0630258918 0.2549929023 -0.0070539005 -0.1679730713 0.2117502391 -0.1504395604 0.5207164288 0.0489378422 0.3749414384 0.6002975106 0.0651338547 -0.0849896669 0.1176295877 0.0660043359 0.0052952990 0.2395948470 -0.0007128911 0.3953217864 -0.1537293494 0.3189644217 0.4474118948 -0.0128688999 -0.0006018789 0.3105397522 0.0031716935 0.2418339550 0.0933819413 -0.0133533794 0.0633076951 0.2722903788 0.1313096881 0.1621782184 0.3170704544 0.1544394046 -0.1249325946 -0.0355669335 0.0086766770 0.1758906841 0.6290065646 0.1999145001 -0.0153259970 0.4407839477 -0.0485743359 0.0086424015 0.0088778548 0.0570105538 0.3058852553 0.0358018912 0.2104628086 -0.0803848431 -0.0494690165 0.2593338788 -0.0706999302 -0.0290006809 0.3745456636 -0.0053500952 0.2993935049 0.4917710721 -0.0195762180 -0.1219571158 0.0866186544 0.1969399750 -0.0618169270 -0.0552800037 0.5969066620 0.3419271708 -0.0509160422 0.4523761868 0.3671690524 -0.1605858505 -0.0511820279 0.2991009951 0.1913996041 0.4319708645 0.1887827963 0.1261895150 0.4789538682 0.1427698731 0.3954375684 0.3207586706 -0.0631876811 0.2619963884 0.2537561059 0.3970301151 0.3192554712 -0.1046007127 0.2330884337 0.1117483079 -0.0476138704 0.0306402296 0.4701009691 -0.1498808563 0.2989616692 -0.1998713464 0.1347439736 -0.2011554837 0.4468266666 0.3859733641 0.1869425774 -0.0836408734 0.3751988709 0.2404209673 0.3134372532 -0.2326448262 0.0795396119 -0.1522206813 0.1075528562 0.1013892069 -0.0285267271 0.2692451477 0.0270052273 -0.0673182383 -0.0786930323 0.2719066441 0.4175100029 -0.0375910364 0.1128111184 -0.1944258660 -0.0214114133 -0.0081661139 -0.3306486607 -0.1117725819 0.3543126285 -0.1376021057 0.2873871028 0.1290166229 -0.0960196108 0.5474363565 0.2526690960 0.4487725794 -0.0102795167 0.6112574339 0.4050678611 0.3531513810 0.5405630469 -0.1226586550 -0.1520477682 0.1285050362 0.1560958922 0.0229556747 -0.0263027418 0.1829046458 0.2293564528 -0.0212192051 0.3948777616 0.4302593172 0.2865330279 0.1917811036 -0.1592756361 0.1066577807 -0.1666607261 -0.2171993256 0.1344026178 0.3558453918 -0.0416536666 -0.0776067972 -0.0800052509 0.4952526391 0.2178055197 0.1635954231 -0.0962478518 0.0493228659 -0.0181661323 0.3858909011 -0.1686187088 0.4344168305 0.0682252720 0.3958957791 -0.0769977495 -0.1325593591 -0.1293638796 0.0986167639 0.1230547950 -0.0751192123 0.1021318212 -0.0436118878 0.0571687743 -0.0336273611 -0.0085161049 0.1254155040 0.2717027068 -0.1243644729 -0.0692700893 0.2260996997 0.0999603346 0.3408612907 0.1466836631 0.1555847675 -0.2070358545 0.0240426287 0.0627329573 0.4995650053 0.0910379440 0.0369830281 -0.0541868359 0.1622612625 0.2045973688 0.2572399080 0.2941635549 -0.0642301664 -0.1204961836 -0.2318179607 -0.1358982474 0.1539678127 0.0220918525 -0.2299474031 0.3089583814 0.1454091966 0.0504482612 0.0954234600 -0.0968473703 0.3031361699 0.1193067506 0.1942794919 0.0949744731 0.5949813128 -0.1950197518 -0.0076139686 -0.0697137192 0.0424519144 -0.0680716261 0.5926861763 -0.1400285065 -0.2419452518 0.1968409121 0.1865185648 0.1283149570 -0.0403692462 0.2741487324 0.0507979915 0.2163282484 0.2638490200 0.4512842596 0.1993154585 0.1351259351 0.3768596351 0.0355305076 0.2612376213 -0.1058914736 0.2872051001 -0.1767249405 -0.1407408118 0.2699218690 -0.1248219386 0.2283366919 0.4879227877 0.0564828292 -0.1106162816 0.0386362672 0.5639673471 -0.0755076408 0.1495366395 0.2159311622 0.5219681263 0.2420390844 -0.1070697904 0.2970633209 0.2132415175 0.1908673495 -0.0665851831 -0.0594721287 0.2789789736 0.2730026245 0.0280403998 -0.1454392374 0.0426227488 0.0529064126 -0.0105873793 0.0561858863 0.6174246669 0.4613391757 0.1177971512 0.2271962762 0.3282746673 0.4689305723 0.4168795347 0.1948581189 0.1417040527 -0.0721789077 0.4873827696 0.3116453886 0.2833907604 -0.0976141021 -0.1804040372 0.3603362143 0.2262688726 0.3678238392 0.2899233103 -0.2606213689 0.0844102353 0.2105210125 -0.2729155123 -0.1393178850 0.0601162314 0.2253133804 -0.0708192512 -0.0795202032 0.2707789540 -0.1498519778 0.2071829885 0.3622758389 0.2457286417 -0.1351926476 0.3322544098 0.0788702443 0.5075011253 0.1867572218 -0.0405478850 -0.1883234978 0.0534539483 -0.1023491696 0.0105724204 0.0014402261 0.0362470038 0.4651260078 -0.1293080002 0.4285504520 -0.0604723245 -0.1006471589 0.1336623430 0.1177528277 -0.0280331075 -0.1163736284 -0.1160090044 -0.0846257508 0.0731124952 -0.1048287302
0a38b6c09acf9a223cd9f466dd65dc04_F_0021_891.45_905.23 0.0694269985 0.1716814637 0.3380231261 0.0593860075 0.0947457328 0.2052060664 0.8929443359 0.1935478598 0.1128212363 0.1006043777 0.0714527518 -0.0383133888 0.1700378358 0.3471052051 -0.0533856004 -0.1429751366 0.4416313469 0.3630927205 -0.0780616105 -0.2176823169 0.3869564831 0.1629060656 -0.1065517813 0.1289398819 -0.1180346757 0.0127737299 0.1946551055 0.1600539237 0.3640016615 0.4692150056 0.9019858241 0.1169279292 0.4357061684 -0.0737728626 -0.2431724817 0.3988894522 0.6428906322 0.1835913658 0.0826766938 0.2319674641 0.0778600499 0.1424871832 0.1108306125 0.5698235631 0.2830210924 0.6253825426 0.1781170964 0.3369971514 -0.1974508464 -0.2437986284 -0.1495094746 0.1898671687 0.1543312818 0.3080178201 0.3426442742 0.1571229845 0.7750209570 0.1395414770 0.2072220743 -0.0623525046 0.2782733738 -0.1411498338 -0.0566876568 0.2750755548 0.3026928306 0.3124988973 -0.0831829384 0.1132603586 0.4259681702 0.1725217253 -0.1609748006 -0.1392287910 -0.1873240769 -0.0571455285 -0.0253796205 -0.2747057676 0.2762860060 -0.2349815220 0.4829750657 -0.0561436489 0.0266630575 0.1338420212 0.3373463452 0.1161283627 0.0729372278 0.1619264930 0.3209324777 -0.1930339038 0.2966976762 -0.1956894696 -0.2214878798 0.3867943883 0.3352379501 -0.0858640671 -0.1000914574 0.4838295877 0.1428020895 -0.0773927122 -0.1095593274 0.2593833804 -0.1075285226 0.0356825031 0.1491361111 -0.2094029337 0.0825572684 -0.0614151321 0.4556749761 -0.1484593600 -0.0294599030 -0.0766985714 -0.1604480296 -0.2213391960 -0.1401189417 0.9071711898 0.5051091909 0.4481485784 -0.2655470371 0.1681640148 0.0529405586 0.0420916975 0.1714972854 0.4489935935 0.1950608641 0.3188743889 0.6123776436 0.5461534858 -0.4091944695 -0.0312231015 -0.0978887901 0.3959380686 0.3971064389 0.1075402647 0.2987095714 -0.1832960099 -0.1807913035 0.3644472957 -0.2025413662 0.2432729602 0.1190209985 0.5081481338 0.0810297504 0.0867004693 -0.1120510697 0.0650046021 -0.0297039840 0.1207139120 0.4693835378 -0.2009291947 -0.1284801066 0.1897989959 0.2328204215 0.3864881396 -0.1719163209 0.0648525357 0.1615476161 -0.1172462776 0.0352985486 0.3797078729 0.2483224869 0.1411673427 0.1142045707 0.4416219294 0.2562480867 0.5164029002 0.3172208965 0.0648987442 -0.0667338595 0.1219524220 -0.0694055334 0.2455593348 0.1576086879 0.1804512292 0.1821074486 -0.1587961316 0.0286672786 0.8330440521 0.1569619328 -0.1075767204 -0.2048017383 0.0174443331 0.1256504953 -0.1588862836 0.0112165939 0.5756836534 -0.0454353839 0.1061922088 -0.0511485562 0.5480030775 0.0057234354 -0.0164541006 0.1920858473 0.1150313318 0.4863637686 0.0641423166 -0.1756859422 0.1249165311 0.1463218927 -0.1273365766 0.1482331455 -0.0917711183 -0.1653756648 0.1202617884 0.0395469107 0.3247194290 -0.0618999302 -0.0170089938 0.5993738174 0.1912253052 -0.1426444799 0.2019846439 -0.1122751907 0.0300000813 0.2853268087 0.1175316572 -0.0889592916 -0.1518825293 0.2770361602 -0.1781246215 0.0610069111 -0.1136552542 0.0727050602 -0.1048409790 0.1585729420 0.3677189946 0.7043618560 -0.1554639786 0.0836768299 0.3769367635 0.3056327999 0.2256799340 0.3190357387 0.1035598963 -0.1603587419 0.0113152107 0.6664150953 -0.0888421834 -0.1226369292 0.1834021658 0.2401287854 -0.0819422752 -0.1952363402 0.2555842102 0.3370637000 0.4185616076 0.0027573649 -0.1531894952 0.0611893162 0.1802267134 -0.0460796654 0.8641307354 0.3056538105 0.2934396565 0.3740331531 0.2540285289 0.0855120197 0.1238071769 0.2325968295 0.0741403103 -0.1168619618 0.2641076744 -0.1320722699 -0.1150126979 0.6071190834 -0.0857434049 0.3863649070 0.2023284733 0.4052092433 -0.0427252166 0.4529770911 0.3718939424 0.2785130739 0.0521214642 -0.1866255403 -0.0032053818 -0.2328655273 0.1824401021 -0.1968866289 0.7042158842 0.1299664378 0.1029368266 -0.0572799332 0.0624640584 0.5386810899 0.0113438116 0.0673497990 -0.0331218056 0.0685607418 -0.0426506996 0.4366329610 -0.1308434010 0.1174648032 -0.1672985256 0.5763416886 0.3869386911 0.0323036090 0.0059290431 0.3314319253 0.0089592589 0.1035109311 0.2371035963 0.1748713404 0.3968250751 0.3774130642 0.1526510268 0.1239482611 -0.0732868388 0.0841253176 -0.2454337627 -0.0856809169 0.0163386334 -0.0240429863 0.2676932812 0.2944856286 -0.0406814367 0.2364625484 0.4345027208 -0.0054392708 0.0005838198 0.0262425654 0.2621665299 0.0579761639 0.2097907066 -0.0820577517 -0.1042080522 0.1919641197 -0.1417728364 -0.2184011638 0.3855207860 0.1582842022 0.2051627636 0.2416785508 -0.0667265654 -0.1031677052 0.1912421733 0.3189190328 -0.0861954391 -0.0905282646 0.7047857642 0.2877009511 -0.0910546631 0.3009686470 0.1401505768 0.1474892795 -0.0596688464 0.2649068236 0.1121606231 0.2327901721 0.3607281744 0.5207079053 0.2614321113 0.4381405115 0.3157952130 0.1924517453 -0.0543337651 0.1331398785 0.0782806277 0.1944185942 0.5714878440 -0.1387944072 0.1955849528 0.0399094597 0.3058123589 0.1045978293 0.3950035572 -0.1920109987 0.4786075652 -0.3031814992 0.3004531562 -0.1545975506 0.1210949868 0.2326852828 0.3685846925 -0.0836279839 0.2896234095 0.3894731402 0.2480593622 -0.3189012408 0.1863712072 -0.1306030154 -0.0042514987 0.0904003531 -0.0185622294 0.7520862222 0.1673819870 -0.0452289768 0.0500675850 0.1711554825 0.5115266442 -0.0509121530 0.2629294693 -0.1853432059 -0.1013591141 0.3026665151 -0.3685289621 -0.1232713237 0.4161578119 -0.1277102828 0.4578073919 0.0363689139 -0.0992822796 0.9180117846 0.2192738801 0.2951689363 0.2993541360 0.6456130743 0.1029205322 0.1756888330 0.2788991928 -0.1286052763 0.0787726566 0.0228164215 0.2280589044 0.0174027644 -0.0230035298 0.4145738780 -0.1051286533 -0.0524604246 0.1953558922 0.5003762245 0.2210023105 0.3025292158 -0.2353658229 0.2642844617 -0.1491425782 0.1021551713 0.0871688575 0.2128744721 0.3244341612 -0.0975103751 -0.1255136579 0.3680057228 0.1023833826 0.0509889983 -0.1251084208 0.1744708270 0.3591132760 0.6486480832 -0.1976449192 0.8362755775 0.2291823775 0.4575929940 -0.0581088439 -0.2597249746 -0.1606150120 0.5649930239 0.1957513690 -0.1492599249 0.5098030567 -0.0261622481 0.2797141075 -0.0863368958 0.1251728833 0.4662016034 0.3423908353 -0.0518984757 -0.1129614562 0.1130411699 0.0920089707 0.2345359623 0.6362955570 0.1299007237 -0.2468702048 0.1726653576 0.2072802186 -0.1216597632 0.1250355989 0.2471085191 -0.1147819534 0.1452947855 0.0676146597 0.2527319789 0.1887690127 -0.0800493509 -0.1920222938 -0.2507569492 -0.1551299244 0.5843520761 0.1025523916 -0.2821264565 0.1986572593 0.3151725531 0.2500122488 0.3356018364 -0.0524426661 0.1320856810 0.1183405891 0.2112872601 0.4710064828 0.5050428510 -0.2759739161 -0.0754998848 -0.0850720629 0.5872499347 0.0565359443 0.4379399717 -0.1952546835 0.0710649267 0.2066564858 -0.0433921106 0.1110838950 0.3308455944 -0.0278325900 0.0934315100 0.1632490605 0.2029279321 0.4570158422 0.3058134615 0.4491257071 0.0317856334 -0.0263398513 -0.1028278619 -0.1167587042 0.7045060992 0.3789478838 -0.1832658499 0.3102750182 -0.1504653692 0.1422757953 0.1751946062 0.2902281880 -0.1470812708 0.0517270528 0.1601589918 0.1973121166 -0.0798648074 -0.0019057356 0.6235004663 0.2299670428 -0.0997747555 0.0333393924 0.2066858113 0.1445389837 -0.1322947741 -0.1186985448 0.3321623802 0.4412403405 -0.0142468670 -0.1361160725 0.3012181520 -0.0285985842 0.2861295342 0.0799668953 0.4028441012 0.4389016628 0.3383387327 -0.1200671569 0.6165240407 0.3526436388 0.3918547034 0.2268039286 0.5666286349 0.0611624643 0.4459842443 -0.0398681648 0.0699566156 -0.1294625103 -0.1424995512 0.2103780806 -0.1298325956 0.7329297066 0.1446564794 0.0440314263 0.3464086950 0.0236166976 -0.2776764333 -0.1019547805 0.1156127155 0.0389220901 -0.1223391965 -0.1017247140 0.0426311195 -0.1877824962 0.3180480897 0.2386669517 0.1681187749 -0.2067896724 0.4888620079 0.0386904962 0.5808649659 0.0976516008 -0.1035822183 -0.2434756309 -0.0443652757 -0.0663870797 -0.0471706763 0.0495499894 -0.0385345928 0.5254096985 -0.1916918010 0.4514304101 -0.0588800870 -0.1081365272 0.0942416638 0.1791674346 0.4285073578 -0.1992641687 -0.1692479104 -0.1080004424 0.0782530531 -0.0562159531
0a38b6c09acf9a223cd9f466dd65dc04_M_0005_201.08_206.93 0.0136498343 -0.0317800194 0.2735070884 0.1896730959 0.1331332773 0.1770608425 0.3019743264 0.1828482747 0.1569878012 0.3337311149 0.1514723748 0.0063614771 0.0554859377 0.0625530034 -0.0991610661 -0.1426104456 0.1592188776 -0.0469154082 -0.1108184531 -0.1287158132 0.1946888119 0.1681396663 -0.1479674280 0.1168352887 -0.0964716077 0.1120110676 0.1522843987 0.2710442543 0.3034566939 0.2604854703 0.2443551272 0.0660212114 0.0458480902 -0.0786201432 -0.1913395077 0.2443527877 0.3555214703 0.0836945921 0.0914699286 0.0506155044 0.1423647851 -0.0101828622 0.1455730051 0.1269863248 0.4775105119 0.1316146106 0.5344995856 0.0460312292 -0.2092401385 -0.1963911504 -0.1472862810 0.1281174421 -0.0620234162 0.2063340098 0.3611630499 0.2553043067 0.5082430840 0.0938090980 0.0176633596 -0.0888051316 0.0507529564 -0.0819738656 0.0542131178 0.3869079351 0.2918955386 0.5272920728 -0.0729003921 0.4234154224 0.0784077942 0.2781309485 -0.1633448154 -0.1276132017 -0.1567688286 0.5292773843 -0.0811973885 -0.1846919805 0.2844254673 -0.2294891626 0.4760695398 -0.0436631665 0.1113425121 -0.0066335239 0.4061349332 0.2536897361 0.0137204919 0.4721368849 0.0429054350 -0.0818851888 0.4401699007 -0.2195834368 -0.1787593961 0.6478677988 0.1310055107 -0.0935402587 -0.0909935310 0.4742760658 -0.3240315318 -0.0692725331 -0.1672438234 -0.0211802125 -0.0828998834 0.0330818258 0.1453500837 -0.1206259504 0.0689913929 0.0425817631 0.1365724057 -0.0566471741 -0.1422217339 -0.0044131451 -0.1669110954 -0.2390563488 0.1030486897 0.1822075695 0.3325656950 0.2318439335 0.1312979758 0.1517314017 0.2908841372 0.0585213304 0.0698142201 0.0372526385 0.2028101385 0.1624190509 0.2204623371 0.3967500329 0.2003624588 0.0432243273 -0.1375627220 0.0045588082 0.2411531657 0.1652979702 0.1394352615 -0.1256369650 0.0676133335 0.1232438013 -0.2305809855 0.2974325418 0.1641251743 0.3339494765 0.1410171539 0.0311249495 -0.1501327306 0.2751711011 -0.0534001291 0.2837401032 -0.0711930394 0.0651092678 0.2608868778 -0.0407867581 0.1082488522 0.0867180005 -0.1311491579 -0.0710344166 0.0187393818 -0.1698254943 0.2310479432 0.1159207895 0.0450693518 0.0052704858 0.0761304349 0.2827381492 0.3017961681 0.5673698187 0.2420477718 0.0260483548 -0.0527287684 0.4192535579 -0.0159569345 0.3078407347 0.1127309725 0.0162280723 0.2067627609 -0.1471518576 0.2744419873 0.4596873522 0.2370027453 -0.0849533156 -0.1890617609 -0.0612075478 0.1431452334 0.3864777684 0.0852546468 0.2114303261 0.4355552793 0.2802690268 -0.0807001665 0.2496454865 0.0217195898 -0.0177341625 0.0783405155 0.1133869588 0.4393177032 0.0108452681 -0.1529698968 0.1678003073 0.2632293403 -0.0945476070 0.3095407188 0.0975814387 -0.1404774338 0.2469253242 0.1030519605 0.0987401530 -0.0312166251 0.3932677507 0.1799531579 0.1189981550 -0.0772158504 0.0555421263 -0.0744359344 -0.1417223662 0.0617487505 0.1356786638 -0.0402948707 -0.1190794334 0.1818199009 0.1993245333 0.0430118553 0.0728216022 0.1064310074 0.2650571167 0.1052220464 0.1109320819 0.2446267009 -0.1409852952 -0.1272691190 0.4345897436 0.2905400693 0.2133406997 0.1518802345 0.1946484894 -0.1580529809 0.0438435599 0.2141378969 -0.0681771412 -0.0996838436 0.2854861021 0.3443759680 -0.0883172303 -0.2293652445 0.0115199629 0.3945607245 0.2264843434 0.0443649516 0.0884682089 0.2633202374 0.2849638164 0.1549875885 0.3172316849 0.0554303676 0.2092944384 0.1698463857 0.3892816305 0.4426684380 0.2217406183 0.2996208072 0.2859387994 -0.0449033417 0.3789810538 -0.1427867115 -0.0138631295 0.1100226566 -0.1228558868 -0.0430238098 0.1021756232 0.1861229241 0.0094636967 0.7631630301 0.2363839746 0.3296029866 0.2987567484 -0.0948214680 0.0553247072 0.4451028407 0.0110574225 -0.1748203933 0.0918771625 -0.1508745104 0.5867913365 0.0763985068 0.5159323812 0.4475341141 0.0898380056 -0.0944504514 0.2166210413 0.1137117743 -0.0108460104 0.1409423053 0.0728232190 0.5120820403 -0.1518429965 0.2971584201 0.3790130615 -0.0127622727 -0.0076177442 0.3336836398 0.0760455728 0.3375311196 0.1851267368 -0.0481519401 0.1178279966 0.1942177713 0.1081989184 0.1409203261 0.4762360752 0.0890270174 -0.1163734049 -0.0361424461 0.0701124296 0.2580505610 0.6775293946 0.1329524070 -0.0406311564 0.4046534002 -0.0799745023 0.0298183635 0.0181507654 0.0240150541 0.2365527600 0.0121980766 0.2389550060 -0.0799366534 -0.0769804269 0.5036702156 -0.0841894597 0.1044836566 0.3581210077 0.0053706178 0.1942697614 0.5163670778 -0.0197744314 -0.1299315542 0.0452106670 0.1207407638 -0.0658192784 -0.0762550086 0.5018672347 0.3587338328 -0.0402929857 0.3847637177 0.4014899731 -0.1391304433 -0.0551102161 0.2901075482 0.1872223616 0.4502688944 0.2003702819 0.1757040322 0.4678007960 0.0721371174 0.3614578843 0.3695398569 -0.0914365202 0.2839034498 0.3156113327 0.3745746613 0.1693446636 -0.1036895812 0.2126921415 0.1305659413 -0.0876510367 0.0303979293 0.4769130349 -0.1372420490 0.2564770579 -0.1940681189 0.1065740883 -0.1848988384 0.4874090552 0.3596382439 0.1042832881 -0.0972336754 0.3713902235 0.2543657720 0.2763051987 -0.2295080274 0.1120032668 -0.1456857473 0.3015247583 0.1264298111 -0.0317013897 0.2062711120 0.0382831432 -0.0958398730 -0.0666259453 0.3569107056 0.2829731405 -0.0505060516 0.0850046724 -0.1945999116 -0.0316124558 0.0479943007 -0.2945304215 -0.1202965826 0.3113301396 -0.1150088757 0.1892187148 0.1255725473 -0.1058920473 0.3268395066 0.2444810420 0.4356503487 -0.0167541094 0.4482411146 0.5088236928 0.3407932818 0.5511990786 -0.1068879515 -0.1108741835 0.2435493171 0.1264171898 0.2282501459 -0.0196307171 0.1011324376 0.3462221622 -0.0256876219 0.4486865997 0.3910127580 0.1942022294 0.2183001488 -0.1675182432 0.0647724867 -0.1792651564 -0.1466987878 0.2002151012 0.3497756720 -0.0573941506 -0.0814960226 -0.0817433298 0.4961874783 0.2541401982 0.2094731033 -0.1182737127 0.0961617082 0.0372661240 0.2584667206 -0.1904809326 0.3152987659 0.0309437178 0.2961008251 -0.0823253319 -0.1181637645 -0.1182865351 0.0825589895 0.2572643161 -0.0748726949 0.0371348858 -0.0527950302 0.0161696225 -0.0385153368 -0.0018340875 0.0545954295 0.1639260203 -0.1330592334 -0.0761741772 0.2193723321 0.1258667260 0.3363096416 0.1081398353 0.2476629615 -0.1864853650 0.0121520301 0.0391316786 0.7206418514 0.0527745038 0.0438604951 -0.0516667143 0.1907375902 0.2320157886 0.2405369133 0.3363100886 -0.0709074363 -0.1548948586 -0.2408229262 -0.1412975192 0.0492307618 0.0757453367 -0.2365787476 0.3525731862 0.0981249213 0.1059963480 0.1813766211 -0.1057850569 0.2963888943 0.1356596500 0.1485709548 0.0430869125 0.4794394076 -0.2114445269 -0.0205640309 -0.0848057345 -0.0590492748 0.0444548577 0.5735436082 -0.1345826238 -0.1685481966 0.2129441053 0.2777877152 0.2287393808 0.0307026971 0.3742279708 0.1975783557 0.2449098527 0.2866242230 0.4089968204 0.1844009310 0.0975382179 0.4604376256 0.0236164741 0.4179211557 -0.1102854535 0.1305875927 -0.1648166776 -0.1601604074 0.3177558482 -0.1225163639 0.2655795217 0.4776356220 0.0330697075 -0.1055531800 0.0022132276 0.5731639266 -0.0757643878 0.3087196648 0.3139274120 0.3326675296 0.2639619708 -0.1165150255 0.4708842337 0.1664992869 0.1677708179 -0.0767688975 -0.0593516156 0.2069996595 0.1423600912 0.0234519783 -0.1748673469 0.0672018528 0.0877948627 0.1017985493 0.1002975032 0.7096711397 0.4313615263 0.0651080459 0.3599978983 0.3122506738 0.4009234309 0.4116703868 0.1151844934 0.1187983528 -0.0691149309 0.4225620925 0.4216405749 0.4292452335 -0.0847860053 -0.1747374088 0.3519748449 0.3915565610 0.3142197728 0.3069366515 -0.1755306125 0.0929309577 0.2280934155 -0.2771922350 -0.1685373932 0.0491678491 0.2075853646 -0.0799446553 -0.0713877156 0.3317233920 -0.1345676780 0.3668993413 0.3326292038 0.2952285409 -0.1218956336 0.2234095633 0.0418742634 0.4150894582 0.2928080559 -0.0287536830 -0.2053775936 0.0663261339 -0.0976739824 0.0363510065 0.0524039045 0.0697768256 0.4188859463 -0.1447448432 0.3219391108 -0.0786898136 -0.0949462727 0.1797520518 0.1966696084 -0.0132402033 -0.1142918319 -0.1014123559 -0.0824527889 0.0431301333 -0.1022228673
0a38b6c09acf9a223cd9f466dd65dc04_M_0012_1883.03_1888.78 0.0891463235 0.0547707602 0.2695028484 0.1985584646 0.1954314709 0.0799781084 0.6463655829 0.0121590206 -0.0140195983 -0.0346986726 -0.0553079695 -0.0246541481 0.2435095310 0.4557873607 -0.0314534269 -0.1082524359 0.3270294070 0.1911959499 -0.0550694950 -0.2227103561 0.3750749826 -0.1063157320 -0.1416579187 -0.0073796380 -0.1182197258 0.0710070506 0.1901991069 0.2009080499 0.5006158352 0.6209896207 0.7737788558 0.0540041886 0.3325827718 -0.0809686035 -0.2008000612 0.1942796856 0.6247202158 0.3637933433 0.2174675614 0.1711261719 0.0628030971 0.1072546616 -0.0827277228 0.1836195737 0.2661700249 0.3649063408 0.1327205896 0.2463927716 -0.1973024458 -0.2331358939 -0.1282384694 0.2009960413 0.2698863149 0.4049847424 0.3625262976 0.0891175494 0.6858765483 0.2918328941 0.0705901161 -0.0526657291 0.1505803168 -0.0830175504 -0.0587241612 0.3913183808 0.2292024940 0.4286839068 -0.0697117969 -0.1489179283 0.2139494419 0.0002701581 -0.1348640174 -0.1337307990 -0.1708699316 -0.1570481807 -0.0654371306 -0.2393532842 0.4136827290 -0.2050516605 0.5101099610 -0.0397764072 0.1160829142 0.1072646827 0.2757979035 0.1303491741 0.1714052409 -0.1075165272 0.2765938044 -0.2000083178 0.0554764271 -0.1691064537 -0.1806132793 0.3949141502 -0.0289016999 -0.0964446515 -0.0913538262 0.3808830678 0.2028453052 -0.0708649531 -0.0922073349 0.3117365241 -0.1045801044 0.0421139747 0.2904694676 -0.1719269156 0.0488130897 -0.0047861910 0.3225350678 -0.1362081915 -0.0395135470 -0.0293101687 -0.1388946027 -0.1951434463 -0.0963287130 0.8791786432 0.6492137909 0.2936803997 -0.1293689758 0.2106844336 0.1298715919 0.0834918693 0.1126635969 0.3320665061 0.0604051873 0.0984782651 0.4738215506 0.5284027457 -0.2969186008 -0.0243943483 -0.0635074824 0.1986400485 0.2221225202 -0.0085121645 0.2256255001 -0.1193638220 -0.1235589311 0.4215382934 -0.1962778866 0.2372006774 0.1179937646 0.3165420592 0.0660829023 0.0428294130 -0.0847656727 -0.0684421659 0.0117138913 0.0886089578 0.3244882226 -0.1583935916 -0.0208420604 0.0764923394 0.2269419432 0.4724376798 -0.1710380167 0.0858148634 0.1598875076 -0.1078275219 -0.0927763581 0.3960060775 0.1328534782 0.0165630728 0.0748898834 0.5912736654 0.3479555249 0.3948496878 0.3369033635 0.0823508278 -0.0520890169 -0.0674098507 -0.0226245262 0.2371360064 0.0802814737 0.0771628767 0.1349808872 -0.1520786136 0.1007679552 0.7712740898 0.3336048424 -0.1287107319 -0.1939606667 0.0404163972 0.2272689044 -0.1661460847 0.0028966090 0.6673433185 -0.0044947192 0.0293946546 -0.0549724922 0.5467435122 -0.0279020853 -0.0300969444 0.0253081582 0.0295654181 0.5316910148 0.0286091324 -0.1504987329 0.2221036404 0.2694921196 -0.1089285836 0.1554204375 -0.0609266870 -0.1300485581 0.0081520379 -0.0387426242 0.4635100663 -0.0464323945 -0.1023781151 0.6346474290 0.2986688912 -0.1302507371 0.1667816192 -0.1021921113 0.0517480522 0.2379494160 0.0370917432 -0.0453076959 -0.0815358832 0.4790865481 -0.2474147081 0.0441931784 -0.0721614733 -0.0484888665 -0.1065012217 0.2543450892 0.2200827301 0.5234811902 -0.1751337945 0.1491021365 0.1040110141 0.4722872674 0.3113313615 0.3636553288 0.1144339219 -0.1426564455 0.0206743181 0.5633114576 -0.0740209818 -0.1216565594 0.2426970452 -0.0362199284 -0.0283917189 -0.2138119042 0.3101336062 0.2138936222 0.2645768523 0.0311954264 -0.1202456653 0.1017226651 -0.0007608496 -0.0414865613 0.8930257559 0.3273045421 0.3359248638 0.5350412726 0.2822322845 -0.1199830398 0.1785283685 0.3179326653 0.2236533314 -0.0859117284 0.1651617438 -0.1182277948 -0.0940699950 0.3721262217 -0.0709387511 0.3307774365 0.1721929312 0.1265459657 -0.0409294181 0.3732496500 0.4380659163 0.1855981052 0.0337476172 -0.1610604227 0.0136576993 -0.1635659337 0.0711866319 -0.1582747996 0.5684075356 0.2119381130 0.1634608507 -0.0579538457 -0.0819946378 0.2960771918 0.0318194628 0.0514960140 -0.0779673457 0.0789533556 -0.0511702187 0.2987250686 -0.1041027233 0.0649089143 -0.1599817723 0.4811603427 0.3588884175 0.0422883816 -0.0254367236 0.5239728093 0.0096334303 -0.0595502853 0.0725555196 0.1294243634 0.2921438515 0.1666477770 0.1647173315 -0.0035132058 -0.0760193244 0.1549702287 -0.1858603060 -0.1103784591 0.0665057153 -0.0511919968 0.2601055503 0.2453671247 -0.0122508872 0.2509875894 0.3094193041 -0.0120704658 0.0062246155 0.0721380338 0.2032550275 -0.0182229653 0.2923511267 -0.0529103875 -0.0907797739 0.1564472616 -0.1325383484 -0.0987217948 0.3091089129 0.1292727590 0.3689281344 0.2304658592 -0.0408921242 -0.1367405951 0.1034665927 0.3230036199 -0.0804466978 -0.1083277091 0.5395889282 0.1473476291 -0.0717393160 0.4336533248 0.3135288358 0.1182138249 -0.0524389669 0.4042071402 -0.0425399132 0.3907072246 0.3769492805 0.2357889414 0.2195939869 0.6574548483 0.0797662437 0.3855109513 -0.0655560270 0.0491173789 -0.0171899237 0.2056007683 0.3871994019 -0.1267556101 0.1790988743 0.0201161802 0.1640354246 -0.0007297900 0.3414656520 -0.1710774004 0.4674114287 -0.2722903192 0.2972772419 -0.1201833412 0.1737588942 0.1799106151 0.3306225538 -0.0865107849 0.0369555466 -0.0902556852 0.1327378750 -0.3049488068 0.0489324927 -0.0645370483 -0.0034313239 0.0522004366 -0.0187981185 0.6221225262 0.0951762795 -0.0300561134 0.0558649041 0.4088474810 0.5778853893 -0.0562864281 0.1888158917 -0.1760126948 -0.0890663043 0.2348035574 -0.3322558105 -0.0919776484 0.5618038177 -0.1098277047 0.4119589925 0.0572688542 -0.0753517002 0.9027457833 0.2650515437 0.3505551219 0.1637378186 0.6304137707 0.0449405424 0.1447197497 0.5037372708 -0.0711178333 0.1114578992 -0.0180487987 0.3179974854 0.1297482550 -0.0372922085 0.4355411828 -0.1291165799 -0.0517682359 -0.0684985444 0.5455486178 0.2816776633 0.2495299727 -0.2306077927 0.2923718989 -0.1420089900 0.1875075251 0.0121684736 -0.0816875398 0.2717729211 -0.0429120362 -0.0273123644 0.0875185430 0.0991028547 -0.0054546045 -0.1034599915 0.2157200426 0.1842357665 0.7477380633 -0.2005533874 0.4938426912 0.1614639312 0.3271054327 -0.1015682891 -0.2422472537 -0.1374783665 0.4544665515 0.1692109108 -0.1278006285 0.3106374145 -0.0228770860 0.4541928470 -0.0631316230 0.0322351567 0.3909152448 0.3496401310 -0.0688777566 -0.1020815670 -0.0333908796 0.1118042842 0.4983077347 0.5070140362 0.0450201258 -0.2276632339 0.2748458982 0.2151419371 -0.0858084038 0.0741487145 0.3218036294 -0.0789595842 -0.0796981677 0.1183125302 0.0704040900 0.2734817266 -0.0406190455 -0.1885535419 -0.2339698970 -0.0925712883 0.5483065248 0.0421936885 -0.2675548792 0.3648776710 0.4720724523 0.0623269454 0.0467977673 -0.0291064810 0.3525308669 0.0472978577 -0.0091714878 0.5588374138 0.7274300456 -0.2331474572 -0.0655593798 -0.0829935744 0.3097500503 0.1571868062 0.6067518592 -0.1846791208 0.1356013566 0.2702057958 -0.0615751408 0.2497209460 0.2813820839 -0.0989348814 0.2732027769 0.1022262126 0.0192008466 0.0305555388 0.4374386668 0.4929847419 0.0192594882 -0.0076017687 -0.1148955747 -0.1120252460 0.5808689594 0.4243927300 -0.1806443185 0.3315533698 -0.1015096605 -0.1015997678 0.3598189056 0.2746161819 -0.1332702488 0.0141161522 0.2727865279 0.2916309536 -0.1247400343 -0.0643781424 0.5123276114 0.3049741387 -0.0942433029 -0.0291949622 0.1698858440 0.0898744464 -0.0935830399 -0.1205769852 0.3714472950 0.3090652227 0.0363314189 -0.1542534530 0.2401488423 -0.0903004929 0.3356887102 0.0505665466 0.5554766655 0.1852982193 0.1606936455 -0.1339374334 0.7655681968 0.1583131552 0.3511146903 0.0979047269 0.5170432329 0.0941249505 0.4097841382 0.2293633819 -0.0743206218 -0.1275824606 -0.1644136161 0.2310774475 -0.1657550484 0.7442375422 0.0422710739 0.1342470348 0.2221001089 0.0980275646 -0.2456820458 -0.0611199960 0.1899077594 0.1523241401 -0.0780548304 -0.0451171175 0.1221912131 -0.2057963461 0.0995959044 0.3147758543 0.3520109057 -0.1650687009 0.5817216039 0.0400480963 0.4665405750 -0.0178816132 -0.0663440228 -0.2471382320 -0.0074462150 -0.0641676560 -0.0580352321 0.0225688480 0.0080518704 0.5037644506 -0.1762348562 0.3494057357 -0.0574335605 -0.1044070944 -0.0084448643 0.0466388538 0.3291693032 -0.1582665145 -0.1210834756 -0.0760690495 0.0800901651 -0.0644937009
0b4888e74453004d2ea1b779ccc99100_M_0001_65.22_77.72 0.0512364134 0.0558232442 0.2269833088 0.1843217164 0.1140782684 0.1554855257 0.4745216668 0.2293550670 0.1527265757 0.0847653896 0.0891822949 -0.0146825165 0.1329022795 0.2569336295 -0.0598341376 -0.1202613935 0.2723950148 0.1797543764 -0.0705981776 -0.1748187542 0.2866719365 0.0882720500 -0.1383933127 0.1122835651 -0.1167893484 0.0612668432 0.2197075933 0.2649200559 0.3251476586 0.5238148570 0.5926710963 0.0637258142 0.2056388110 -0.0624155067 -0.1878243834 0.2559535205 0.4892754853 0.2127516270 0.1608731449 0.1260804981 0.0161497723 0.0369024798 0.0848488063 0.2338005602 0.3205824196 0.2990708351 0.2933133543 0.1282272190 -0.2082500160 -0.2245068848 -0.1355902106 0.2299025357 0.0946864709 0.2347182333 0.4310181439 0.1822973341 0.5781217217 0.1872571409 0.1303967237 -0.0515847355 0.1557133049 -0.0844550207 0.0182343256 0.2881812751 0.3625984788 0.3380508721 -0.0682064444 0.2221626192 0.1845215857 0.1175045073 -0.1678579897 -0.1094538867 -0.1825165153 0.2091192156 -0.0522860736 -0.2257309258 0.3467068076 -0.2304926515 0.5204914808 -0.0439512581 0.0860443935 0.0166785233 0.3784151971 0.1337243468 0.0740912706 0.1694713533 0.1834287196 -0.1331209987 0.2112931311 -0.1861255467 -0.1678810418 0.4494572878 0.1392861903 -0.1130620837 -0.0847802982 0.5089716911 -0.0452156216 -0.0703024268 -0.1149718612 0.1965753436 -0.1009975448 0.0336454175 0.1824271828 -0.1510974020 0.0265288278 0.0230575223 0.3620803952 -0.1017322838 -0.0853853151 -0.0272483062 -0.1608571559 -0.2153378278 0.0099446569 0.5459113121 0.4753426015 0.3965620100 0.0394807421 0.1707354337 0.1564471126 0.0633146167 0.1264978200 0.3442602158 0.1237248033 0.1368608922 0.3422269523 0.5944471359 -0.0012807110 -0.0133131323 -0.1035441607 0.1578780115 0.2318945676 0.1189949885 0.1911341548 -0.1366502047 -0.0020483101 0.2636968493 -0.2160943449 0.2966710627 0.0726786405 0.4802553952 0.0399570875 0.0514551811 -0.1064908952 0.1211846843 -0.0385782607 0.1883296669 0.2236420214 -0.0152932266 0.1124201119 0.0774718970 0.2003986090 0.2433930933 -0.1557807624 -0.0136284772 0.0440593883 -0.1335503608 0.1142128706 0.3243879080 0.2037087828 0.0607787408 0.1093521714 0.3192658424 0.3269255161 0.3846262395 0.1749755889 0.0405149497 -0.0708495304 0.1904370487 -0.0276114717 0.3283703923 0.1494448483 0.0783276483 0.1375810802 -0.1539763957 0.1288234144 0.5132213235 0.2018898129 -0.0991260707 -0.2001447082 0.0020242948 0.1533662081 0.1120255142 0.0065152254 0.3666009903 0.1425886005 0.0601569973 -0.0715366080 0.3465175629 0.0222720541 -0.0364243165 0.1258256584 0.0621070787 0.3938051462 0.0204792060 -0.1719034463 0.1374014020 0.3544556499 -0.0930190831 0.2254118770 0.0242867153 -0.1514321268 0.0955724120 0.0255499724 0.2496271282 -0.0427996553 0.1488836855 0.4097068906 0.1573030204 -0.1129804477 0.0958021134 -0.0970713869 -0.0355464183 0.2027546316 0.0734555274 -0.0425197706 -0.0973936468 0.3248465359 -0.1267831773 0.0202178378 0.0042074006 0.0562952310 0.0232452359 0.2109088004 0.2140796483 0.3770465255 -0.1700723320 0.0006965939 0.2555241883 0.3152585328 0.1861766577 0.3087720275 0.1876390278 -0.1585774571 -0.0079195630 0.3707237840 -0.0588175990 -0.1209181398 0.2365733683 0.1744093895 -0.0639794171 -0.2037925422 0.1632169932 0.4005635083 0.2510122061 0.0301593374 0.0072100721 0.1294223070 0.1985067874 0.0443212241 0.5659612417 0.2147482336 0.2850571871 0.2715590000 0.2188218683 0.2677901983 0.2538174987 0.3008985817 0.2413136065 -0.0808782950 0.2648173571 -0.1206483543 -0.0616528876 0.3029085398 -0.1130787134 0.2001127154 0.1992646158 0.1872501075 0.0029863312 0.5744282007 0.3653990626 0.3406267166 0.1282685995 -0.1321210861 0.0263246112 0.1567479521 0.1022540852 -0.1778701097 0.4401190877 0.0157161430 0.2670049965 0.0113152293 0.2274647802 0.3785156310 0.0458032489 -0.0218088999 0.0403495692 0.0550259203 -0.0256855488 0.2652505040 -0.0069897799 0.3739792109 -0.1417114437 0.3339986503 0.2905752957 0.0005083089 -0.0204788167 0.4416228831 0.0298322663 0.1767292023 0.1743511558 0.0689915344 0.3606076539 0.1919266284 0.1275271326 0.0826317668 0.2158435285 0.0962105021 -0.1418750137 -0.0751061589 0.0622195825 0.1396473199 0.4620848298 0.2437695116 -0.0150332935 0.2552216351 0.1868846416 -0.0020610956 0.0068549365 0.0294543058 0.1907445639 0.0213494413 0.1847719699 -0.0744292960 -0.0812535062 0.3660984039 -0.1131994501 0.0440230891 0.2650415599 0.0621755272 0.1920704544 0.3655041754 -0.0376236662 -0.1206744537 0.0921504423 0.2453439236 -0.0692627430 -0.0952341780 0.4427244067 0.1730546802 -0.0735315084 0.3838203847 0.3455075920 -0.0274179429 -0.0574502349 0.3343198299 0.0848325342 0.4244795740 0.2301638573 0.2267094851 0.2951939106 0.3248291016 0.2047828138 0.3000932634 -0.0879586488 0.0950649679 0.1192162633 0.2190571576 0.3833769262 -0.0979160741 0.1359173059 0.0554979667 0.1159509867 0.0413949862 0.5469737053 -0.1429038644 0.2961403430 -0.2360655814 0.1877405345 -0.1424185783 0.2219279408 0.2284453511 0.2691642344 -0.0919084325 0.1905533671 0.1967517734 0.1801214218 -0.2485698462 0.1062381417 -0.0904010609 0.1104947031 0.0934819952 -0.0146553302 0.4190527797 0.1435094178 -0.0607961938 -0.0074754125 0.3298920989 0.4124695063 -0.0640914962 0.1443802863 -0.1977690011 -0.0603504851 0.1613363028 -0.3249894977 -0.0951799899 0.4427963495 -0.1108965799 0.2924563587 0.0416523889 -0.0854840130 0.6323702931 0.2631391585 0.4199329317 0.1737510413 0.5046167374 0.3398381472 0.2282142490 0.5258752704 -0.0968860239 -0.0073994803 -0.0027471278 0.1688429862 0.1626271307 -0.0276867580 0.3045632541 0.0556490943 -0.0341484994 0.1643121690 0.5492764711 0.2123521417 0.1492811143 -0.2145512551 0.1616293043 -0.1522016823 0.0413147211 0.1009731814 0.1775860488 0.1658811420 -0.0574272349 -0.0694503337 0.2516536117 0.0769974291 0.0127482107 -0.1072197035 0.0718126893 0.2075654119 0.5276570320 -0.1991958469 0.4188195467 0.1139516085 0.2958584726 -0.0917933136 -0.1857698113 -0.1096267626 0.3009158671 0.2913165092 -0.1064816266 0.2472147048 -0.0200450383 0.2135391533 -0.0619453043 0.0582855083 0.2413519919 0.2546615005 -0.1057773009 -0.1038428843 0.1269105971 0.0733678043 0.3732299507 0.3401770294 0.1450794339 -0.2011239082 0.1340917796 0.1229418442 0.2365917265 0.0629018918 0.1957169324 -0.0666277558 0.1314323694 0.1383063197 0.1474042982 0.2234195769 -0.0704295039 -0.1606314331 -0.2407185733 -0.1084695011 0.3473243713 0.0400650874 -0.2335813344 0.2757747471 0.2634329498 0.1226764619 0.2437466681 -0.0760968551 0.2819240689 0.0656662434 0.0897387862 0.3310757875 0.5576808453 -0.2261248529 -0.0496906750 -0.0813135132 0.2859118581 0.0557493828 0.5917199254 -0.1403602213 -0.0462269187 0.1846370101 0.0889341086 0.2570362687 0.2241826802 0.1274454147 0.2019931525 0.1061433405 0.0990475044 0.2322417498 0.2319895327 0.3709397316 0.1880596131 0.0088831531 0.1186120361 -0.1118004695 0.4165922701 0.1719541252 -0.1703981608 0.2054468393 -0.1060916930 0.1240744218 0.3910813928 0.1652807891 -0.1101459414 0.0020935936 0.3052366376 0.1044055894 0.0467151105 0.1284349412 0.4225853384 0.3248332143 -0.1041470170 0.2208006680 0.1639143527 0.0993903503 -0.1024123654 -0.1142324209 0.2718311846 0.2854444981 0.0174764153 -0.1552741826 0.1639736593 -0.0503824167 0.2569802403 0.0752550662 0.4641941786 0.2717339694 0.1586512476 0.0193569735 0.5899996758 0.2771845162 0.2810626626 0.1306278259 0.3289594054 0.0037384788 0.3150788844 0.3226262927 0.1954420805 -0.1038362086 -0.1672496945 0.2842068672 0.1024514213 0.4520569146 0.1063496321 -0.0107181128 0.1666388512 0.1176165715 -0.2657899857 -0.1251700670 0.0990711227 0.1747075766 -0.0678429455 -0.0734169334 0.1817151308 -0.1597765088 0.2801709175 0.3138289452 0.3394187987 -0.1205760464 0.3727593124 0.0560247302 0.3793061078 0.1806539148 -0.0585587062 -0.2269358188 0.0245729573 -0.0736429617 -0.0239071678 -0.0086564906 0.0453508683 0.5753073096 -0.1660864502 0.3103009760 -0.0612874180 -0.0932348445 0.0658384264 0.1080958694 0.1922827065 -0.1292021573 -0.1189925969 -0.0835522339 0.0649336427 -0.0645100400
