011fcda726f60201ad37765796e84ddb_M_0001_827.84_842.06 0.0372081175 0.0116496738 0.2457306683 0.2263595313 0.1229689941 0.1890398860 0.4035865664 0.1630091667 0.1375931203 0.2247557342 0.1146057919 -0.0097759571 0.1068105474 0.1710083187 -0.0833549872 -0.1356341690 0.1850474030 0.0604871660 -0.1058550254 -0.1530935019 0.2134421915 0.1104835048 -0.1453622729 0.1111348495 -0.1113415137 0.1087592021 0.1696177870 0.3057944775 0.3298873007 0.4290935397 0.3581902385 0.0787713453 0.1854970753 -0.0660006329 -0.1891550869 0.1991061717 0.3656066954 0.1926994026 0.1554256678 0.0971048549 0.1209007576 0.0344758555 0.0975609347 0.1590483189 0.3858678341 0.2399690896 0.4061271250 0.1332642734 -0.2158655375 -0.2218705565 -0.1374450177 0.1929644346 0.0342442840 0.2501349151 0.3769795001 0.1950151026 0.4785203636 0.1785762757 0.0714197531 -0.0696178079 0.0803715512 -0.0865580142 0.0320504084 0.3787300587 0.3229942322 0.4217417538 -0.0784623846 0.3025688529 0.1796744764 0.1926961839 -0.1576743573 -0.1183876917 -0.1597128958 0.3867885768 -0.0635054186 -0.2064128965 0.3211427033 -0.2308203429 0.4546453655 -0.0289833732 0.0928124338 0.0310787056 0.3489589989 0.1848299354 0.0923113674 0.3301795423 0.1463891119 -0.1312541664 0.3280536532 -0.2037656009 -0.1770692915 0.5166452527 0.0776256844 -0.1059786305 -0.1007762253 0.4210015833 -0.1591581851 -0.0712465197 -0.1259888411 0.1186601147 -0.0956616849 0.0523239002 0.1400159001 -0.1392177641 0.0994161218 0.0269856062 0.2363454252 -0.0819343626 -0.1134462431 -0.0149669517 -0.1643359810 -0.2192144841 0.0582574904 0.3623716831 0.3921884298 0.2798263431 0.0840742737 0.1499095261 0.2804760635 0.0624246262 0.0770007372 0.2015985996 0.1472619474 0.1602189690 0.2938053310 0.4889065325 0.1100851744 0.0135796787 -0.1143582240 0.0909356475 0.1874634176 0.1492434889 0.1415362358 -0.1363997757 0.0304800887 0.1901943088 -0.2316666245 0.2643162012 0.1511836797 0.3512748778 0.1177127436 0.0247918144 -0.1347637922 0.1863685399 -0.0359949619 0.2308773696 0.0609095171 0.0190704111 0.1837558597 0.0153289363 0.1529826820 0.1818878800 -0.1401622444 -0.0138537902 0.0637785494 -0.1672450900 0.1676113904 0.2271897197 0.1297312081 0.0043671085 0.0827197134 0.3515699506 0.3028268218 0.4494092464 0.2606085241 0.0306150392 -0.0617504679 0.3168759644 -0.0292712003 0.2849171162 0.1092405990 0.0226040892 0.1601133794 -0.1535079926 0.2141105533 0.5092569590 0.2022351623 -0.0946858451 -0.1954130679 -0.0168274567 0.1698808074 0.2572619021 0.0721259415 0.3158774376 0.3107866049 0.1997540444 -0.0716654360 0.3014435172 0.0215138812 -0.0328740552 0.0594737232 0.1040768325 0.4188716412 0.0084880115 -0.1467120498 0.1368184686 0.3608841300 -0.1011410505 0.3479838669 0.0483221672 -0.1571986228 0.2070230693 0.0627635792 0.1741974950 -0.0441764630 0.2911236584 0.2790701091 0.1561159194 -0.0924286768 0.0985184908 -0.0938171148 -0.0778253153 0.1543596387 0.1200970635 -0.0473802313 -0.1051852703 0.3102602959 0.0705030859 0.0384131745 0.0470442623 0.0646205544 0.1742221117 0.1824653596 0.1136503816 0.3081725538 -0.1658969969 -0.0389724076 0.3066084385 0.3147083819 0.1790502816 0.2392388284 0.2052278221 -0.1590387374 0.0383223891 0.2994363904 -0.0663732663 -0.1065420583 0.2516951561 0.2452114224 -0.0740024298 -0.2179923952 0.0986604914 0.3465584219 0.2110363692 0.0385530144 0.0387186371 0.1988466233 0.2119306028 0.1121648774 0.4237534404 0.1239040196 0.2202263921 0.2656405270 0.3064658046 0.3380238116 0.2406965941 0.2810525298 0.2549219728 -0.0604157522 0.2973281443 -0.1391770840 -0.0421091579 0.1937206089 -0.1217398196 0.1078429148 0.1878667623 0.1650772095 0.0130204195 0.6262915730 0.2758504152 0.2884572744 0.2854071259 -0.1078294367 0.0370100774 0.3211930990 0.0669079721 -0.1695699841 0.2261545658 -0.0520522743 0.4294613600 0.0403294824 0.3860643208 0.3394288421 0.0716105998 -0.0435182005 0.1516409516 0.1149373576 -0.0201927871 0.1685723811 0.0380877107 0.4334689379 -0.1523051262 0.3443409204 0.3259596825 -0.0002207323 -0.0228481758 0.3986199796 0.0854092091 0.2707638144 0.2097681016 0.0008377936 0.2326347679 0.1572337747 0.1122959107 0.1009318829 0.3554061651 0.0635315403 -0.1317318976 -0.0584107637 0.0898230672 0.1966602206 0.5587612987 0.1643139571 -0.0367618315 0.3268075883 0.0480879545 0.0196982846 0.0092521254 0.0109758647 0.2050927430 0.0064532096 0.2475327700 -0.0752003491 -0.0859309882 0.4980927706 -0.1011625528 0.0983404666 0.3168803453 0.0521224216 0.1649462432 0.4222749174 -0.0368408784 -0.1239187419 0.0640320480 0.1644851416 -0.0612605661 -0.0812003762 0.4580807090 0.2843563557 -0.0623202808 0.3600111306 0.3695838451 -0.0550912991 -0.0609310716 0.3063064516 0.1274951100 0.4187422693 0.2458472997 0.2433787584 0.3745936155 0.2163669616 0.2726343572 0.3572183549 -0.1044620425 0.2066135406 0.2320349514 0.2898794115 0.2291385233 -0.0985766053 0.1686900705 0.1007611230 0.0015731277 0.0283782408 0.4756076038 -0.1416284144 0.2863391340 -0.2263736725 0.1522517055 -0.1579385400 0.3631261289 0.2835120559 0.1623039395 -0.0963527337 0.2720865309 0.2004084289 0.2048753798 -0.2368266582 0.1132513583 -0.1215278432 0.2769973874 0.1177750602 -0.0305191241 0.3232388794 0.0818374306 -0.0727323070 -0.0079834638 0.3847953975 0.3235659897 -0.0599809475 0.1212524325 -0.1952287257 -0.0522805937 0.1312135160 -0.3080978096 -0.1097502336 0.3761538565 -0.1137410849 0.2158813924 0.0805131942 -0.1017818451 0.4473856688 0.2494105995 0.4024933577 0.0737171173 0.4381904900 0.4033087492 0.2657400966 0.5330510736 -0.1015880108 -0.0302693322 0.1626431644 0.1585149914 0.2657868862 -0.0279895589 0.1884775758 0.2204043865 -0.0253931433 0.3014983237 0.4406681955 0.1673545390 0.2111141235 -0.1916309446 0.1183087528 -0.1764242798 -0.0017655583 0.1624378562 0.2355594486 0.0702230781 -0.0698016137 -0.0790519714 0.3588943481 0.1906248331 0.1351750344 -0.1119910926 0.1303626448 0.1464905292 0.3723893166 -0.2009895146 0.3469520807 0.0592169948 0.2775613666 -0.0964978859 -0.1564717293 -0.1206406653 0.2128175348 0.2993609905 -0.0908305123 0.1370629221 -0.0369019881 0.1353334188 -0.0570647717 0.0265004784 0.1473375857 0.1895535141 -0.1095563099 -0.0966324881 0.1558123678 0.1212021112 0.3674612343 0.2385766208 0.2197823375 -0.1866030693 0.0832088366 0.0933834016 0.5187413096 0.0359786712 0.1312944740 -0.0646994039 0.1428943425 0.1953315288 0.1868636757 0.3001277149 -0.0728854686 -0.1704835743 -0.2384567261 -0.1347483844 0.1925411373 0.0819008872 -0.2391407490 0.3290294707 0.1870406270 0.1260772049 0.2185784578 -0.0955793262 0.2833180428 0.1086924896 0.1006738544 0.1922822446 0.4828419983 -0.2257304639 -0.0308142267 -0.0885509253 0.0822295845 0.1013643369 0.5700607300 -0.1343880594 -0.0626893789 0.2183769494 0.2054026723 0.2758310437 0.1641069353 0.2671984136 0.2698110342 0.1937901974 0.2088373303 0.2977570295 0.2497380525 0.2322673500 0.3352828920 0.0113514019 0.2953918874 -0.1170532033 0.2399712056 0.0315910392 -0.1702931374 0.2951107919 -0.1184999123 0.1744689196 0.4130404592 0.1136564463 -0.1097353101 -0.0050772550 0.4404172599 0.0323235579 0.2227407098 0.2148385197 0.3163649738 0.2959155440 -0.1102471799 0.3738940954 0.1539264321 0.1359666437 -0.1011490524 -0.0968446136 0.2282164544 0.1733335108 0.0186625216 -0.1638575196 0.1464839131 0.0330713950 0.2208519727 0.1059785038 0.6366605759 0.3291969299 0.1024194807 0.2287578583 0.4531917572 0.3083271384 0.3713894486 0.0943869427 0.2498140484 -0.0329228714 0.3551337421 0.3823837042 0.3376271725 -0.0847580582 -0.1734513342 0.3121015131 0.2705437243 0.4225381315 0.2297960669 -0.0338161588 0.1583810151 0.1745819300 -0.2651246786 -0.1367049068 0.0754919127 0.1838957071 -0.0813316330 -0.0756733268 0.2531364858 -0.1386422515 0.3693101406 0.3097065091 0.3287671506 -0.1330657303 0.2762846053 0.0406918600 0.3842522502 0.2515796423 -0.0326070823 -0.2209546715 0.0481900312 -0.0814317688 0.0055988450 0.0546765551 0.0658780187 0.4577510655 -0.1586651355 0.2847298384 -0.0673590600 -0.1105147824 0.1376766562 0.1830830574 0.1238845959 -0.1201963872 -0.1095588133 -0.0792109221 0.0497013889 -0.0736999661
01576c43cb06a58e50f49876c4a8f5d5_F_0001_3.04_13.84 0.0450507924 -0.0251741428 0.0910416022 0.4707306623 0.0731011555 0.2529180348 0.0777884573 0.2188954651 0.2232487500 0.1147325709 0.1101058722 -0.0022188146 0.0914060771 0.1516862810 -0.0993964002 -0.0829340294 0.0040894519 0.0500821844 -0.1195310578 -0.1592694521 0.0615199283 -0.0105732530 -0.1941484511 0.1456958055 -0.1267388612 0.2330426127 0.2156678587 0.5924990773 0.2957655489 0.7351124883 0.0691670030 0.0692165866 0.1962096393 -0.0263663102 -0.1585506350 -0.0788341314 0.1135476977 0.3470310569 0.3607152700 0.0296135228 0.1011247411 -0.0115688154 0.0362106785 -0.0969427750 0.3016485274 0.0968348607 0.4285521805 0.0740620941 -0.2356706560 -0.2216831893 -0.1427009404 0.3624802232 0.0909092128 0.2118661553 0.4543915689 0.1409429014 0.1058397293 0.3074857295 0.0522671603 -0.0459023416 -0.0473830551 -0.0303097796 0.0722516552 0.3988873363 0.4647095799 0.2773891687 -0.0819062516 0.4201632440 0.1286562383 0.1152800173 -0.1684511155 -0.1056128293 -0.1812621951 0.6660535932 -0.0951616094 -0.1760209054 0.4272973239 -0.2544302642 0.4447960258 -0.0256831013 0.0992233232 0.0104500726 0.3016635776 0.1328423470 0.2455666214 0.2784580588 0.1617030501 -0.0923846811 0.1304227114 -0.2348956019 -0.1581404060 0.4394289553 -0.1953909248 -0.1415240765 -0.0992882848 0.3399646282 -0.1179823875 -0.0687248930 -0.1281582117 0.2215076685 -0.0956671983 0.1463797390 0.0870566145 -0.1180715933 0.1471368670 0.0971197486 0.2916321754 -0.0411816239 -0.1650734544 0.0146281775 -0.2001766264 -0.2002759427 0.2146953940 0.1020909697 0.3876225054 0.2864488363 0.4001262188 0.1133405715 0.4943429530 0.0441844426 -0.0008318527 0.3559326828 0.0114051495 0.0030155387 0.0519896671 0.7132195830 0.5286139846 -0.0157969799 -0.1214425713 0.0062496839 -0.0713055134 0.2343046218 -0.0032648139 -0.1049070731 0.2319301516 0.1355851740 -0.2649790943 0.2754683495 0.1102304831 0.3142223656 0.0717961937 -0.0146628665 -0.1271007806 0.2112668455 -0.0334865302 0.2991066873 -0.0350067429 0.2484173179 0.4188649058 -0.0486204028 0.1550444812 0.1223878339 -0.1720411777 -0.0362667292 0.0176735334 -0.1815764010 0.2440636754 0.3101962507 0.2036244422 -0.0979936346 0.0715190619 0.2456288785 0.3128143847 0.1442913413 0.1838067919 -0.0302835852 -0.0467069224 0.3362189531 -0.0314759202 0.3749718964 0.1160385385 -0.0767562538 0.0715141669 -0.1662026793 0.2937340140 0.2252642363 0.1111120209 -0.0972974896 -0.1792924404 -0.0077243373 0.2164289057 0.5156415701 0.1185802743 0.2290831655 0.4702288508 0.0999617130 -0.1065631658 0.1342089623 0.0515214577 -0.0628181174 -0.0244701803 0.0855707675 0.2249415815 -0.0151598491 -0.1424950212 0.0342378914 0.8390729427 -0.0699410513 0.6574403644 0.1272489429 -0.1539417803 0.2306560874 0.0214821566 0.1585316807 -0.0264389031 0.4765198827 0.1426647007 0.1474823803 -0.0756095201 0.0512977764 -0.0947963372 -0.0665139407 0.1964751780 0.0966538340 -0.0313183777 -0.0453563631 0.5498354435 0.0493262038 0.0432710759 0.1498781145 0.0346581787 0.2821612060 0.3820226192 -0.0999862179 0.0088542756 -0.1753400862 0.0139141297 0.0426865146 0.3312767744 0.0253992658 0.3365066350 0.3743032217 -0.1913302094 0.0245290250 0.0808208287 -0.0717715546 -0.1357059479 0.2436285913 0.0638952702 -0.0330418497 -0.2293374538 0.1162523478 0.3324927986 -0.0223641209 0.0459727049 0.1911149621 0.2407620102 0.1767019480 0.2235046178 0.1642765999 0.0614468195 0.1786793768 0.2498560250 0.1258922815 0.5577411056 0.4310739636 0.3353832662 0.3913463950 -0.0564697683 0.1850088239 -0.1256551296 -0.0226737391 -0.0278813075 -0.1499609947 0.1452354193 0.3782379627 -0.0623831078 0.0643923879 0.6295639277 0.3042132854 0.3366360664 0.4999457002 -0.0776613131 0.0285989866 0.7218071222 0.0886677131 -0.1599882841 0.0794388503 -0.0549220406 0.4620948136 0.1077490374 0.5264303088 -0.0003388384 0.1050626338 -0.0873371139 0.2200356126 0.1323755831 -0.0298766382 -0.0122055858 0.2041727006 0.7112419009 -0.1338523775 0.1814321727 0.1319038421 0.0117387064 -0.0615159385 0.5990741849 0.1500495970 0.3741830289 0.2656137347 -0.0559078529 0.4294225872 -0.0646536127 0.0607911535 0.0052769408 0.6246749163 -0.0049505527 -0.0799060166 -0.0852368921 0.1855440289 0.3462684453 0.6867341995 0.1036413535 -0.0452795886 0.2421387434 -0.0224158596 0.0460644849 0.0146970730 -0.0254886039 0.0482043400 -0.0439839661 0.2491075397 -0.0567023680 -0.0986898616 0.8772047758 -0.1278062761 0.4248612225 0.1361837089 0.0370082781 0.0742437690 0.4772865176 -0.0186087787 -0.1600739658 -0.0438705459 0.0814907253 -0.0547986738 -0.1180940047 0.1318046302 0.1200199425 -0.0624892637 0.3581332266 0.5364457965 -0.1144494042 -0.0823019594 0.3800196350 0.0467435978 0.5939182639 0.1674729735 0.0998718888 0.3360778391 0.1908048987 0.0684534311 0.4970044494 -0.1610115170 0.1063422859 0.2575308383 0.1957295984 0.0294682141 -0.0711974055 0.0391351394 0.1022399291 -0.0941639468 -0.0197281800 0.6531882882 -0.0855000839 0.1184193119 -0.2005819231 0.0856047124 -0.1149817184 0.3484845459 0.1866572797 0.0743962675 -0.1170721948 0.1012219787 0.0399076007 0.0832893699 -0.2273589969 0.0965894759 -0.0564916022 0.4911022186 0.1393121034 -0.0318372063 0.0993200094 0.1240656152 -0.1027681902 -0.0140961111 0.6040830612 0.1602021903 -0.0912765563 0.0355028063 -0.2120659053 -0.0610982962 0.1709069908 -0.2573435307 -0.1063697711 0.4418255687 -0.0834644735 0.0385057479 0.0442934781 -0.1179905683 0.1345368773 0.2797073126 0.4901467562 0.0958112031 0.1710055023 0.6264211535 0.2534782588 0.7514309287 -0.0546776913 -0.0101828501 0.1481916904 0.1020072028 0.6288678050 -0.0413421132 0.1400448978 0.3472788930 -0.0488202348 0.2081145048 0.5329465270 0.0680553317 0.1101455241 -0.2243215740 0.0437694862 -0.1856450140 0.1658410877 0.2046969235 0.1375693232 0.0535368696 -0.0255661048 -0.0300866701 0.1405134201 0.1244861409 0.0672580153 -0.1329710782 0.1085583121 0.2015478313 0.2888733745 -0.2113365531 -0.0398104638 -0.0097031901 0.0374704562 -0.1428888291 -0.1273433417 -0.0854083002 0.1185309738 0.5656319261 -0.0737493634 -0.0337663367 -0.0386942662 0.1500426233 -0.0435722545 0.0121204648 0.0069056116 0.0405447595 -0.1243650094 -0.0982340276 0.1165027916 0.1212798133 0.5166996121 0.0891010016 0.2983995676 -0.1570155025 0.1113469228 0.0540978163 0.7997059226 -0.0509390384 0.2163747698 -0.0516114794 0.1164637506 0.2355597913 0.0419809483 0.3383130431 -0.0762732625 -0.1855443567 -0.2713423073 -0.1149782985 0.0754766166 0.0860889480 -0.2108330280 0.4227304757 0.2165628374 0.1020209566 0.2777367234 -0.1196061596 0.4078540504 0.0541981012 -0.0739058554 0.1805890054 0.4631161988 -0.2320611030 -0.0522910170 -0.0895951316 -0.0764450207 0.2516394556 0.6959238648 -0.0904704705 0.0179741755 0.2058618218 0.3368816078 0.5244489908 0.2922462225 0.3938674629 0.5525674224 0.1045750529 0.0562168136 -0.0089601278 0.2191845775 0.2944879830 0.4118146896 0.0031355247 0.5280819535 -0.1604863405 -0.0163482204 0.0670789182 -0.2085590363 0.2246630490 -0.0747447759 0.1290901601 0.5529990196 0.0599888489 -0.0869818553 -0.0649791956 0.4224995077 0.0758692473 0.3606196940 0.3610832095 -0.0010432499 0.4316959977 -0.1355646253 0.6279082298 0.0549365692 0.0450970009 -0.1184461191 -0.1315422356 0.1304139346 -0.0279470086 0.0022909739 -0.2167313099 0.1320423931 -0.0100063561 0.4393206835 0.1531910747 0.6965304613 0.0846081972 -0.0354257748 0.2999883294 0.6028355360 0.0997143686 0.2351361811 -0.0687904283 0.1572160870 -0.0400392041 0.1342083514 0.7755686641 0.4884231091 -0.0890683457 -0.1973549277 0.3392441571 0.5036982894 0.2580535114 0.1092588454 0.1293640435 0.0644606203 0.2119377553 -0.2568862140 -0.1469498724 0.0944261253 0.2513282001 -0.0538286790 -0.0374619737 0.3641220927 -0.1083391085 0.4786670208 0.3474059105 0.5687069893 -0.0679269508 0.1762796640 0.0101459539 0.0969086736 0.3720857203 -0.0136663020 -0.2416469008 0.1045245752 -0.0825871006 0.0235749613 0.0284093302 0.1611478627 0.5470883250 -0.1699986309 0.0507033356 -0.0879202932 -0.0973226205 0.1272436380 0.1880218536 0.0935469046 -0.0890355110 -0.0778394565 -0.0664976537 0.0194722190 -0.0561832860
018a07a7a89f1e3e8bc6aee11ea50169_M_0000_75.05_93.93 -0.0012113955 0.0202286802 -0.0458034799 0.4552043378 -0.0683709159 0.3658292592 -0.1506619751 0.7597244382 0.6212967038 0.1647209227 0.3606320322 0.0281145740 -0.1052661166 -0.0959862843 -0.1269004941 -0.1030643359 0.0170451775 0.1971805245 -0.1211119816 -0.1346973628 0.0246447753 0.3091365099 -0.2237911671 0.4009233713 -0.1579295993 0.1807634383 0.3621478677 0.7340719700 -0.0371061414 0.8346840739 0.0708888918 0.0850067064 0.0272151567 0.0321771689 -0.1571293920 0.1427102834 0.0111674760 0.1713722050 0.2871331871 -0.0142934322 -0.1130478755 -0.1660087854 0.3757616282 0.1076371893 0.3433297575 0.0378164873 0.6756025553 -0.1413359940 -0.3158909976 -0.2288844734 -0.1892092079 0.4986650944 -0.1232592016 -0.0956262425 0.7217558026 0.2891275883 0.0601676852 0.1536221206 0.2576376498 -0.0315720625 0.0743914470 -0.0406333767 0.1648335457 0.1270339042 0.8669869304 0.0624215677 -0.1043946221 1.0724357367 0.1188253835 0.2459413260 -0.2519616783 -0.1203147620 -0.2526644170 1.2249608040 -0.0741126835 -0.2154432684 0.3962883949 -0.3253356218 0.6556330323 -0.0872238874 0.0572487749 -0.1947808862 0.5984466672 0.0728639513 0.0335382596 0.6180214882 0.0760039911 -0.0008349803 0.3062235117 -0.3004960418 -0.1562894285 0.4906989932 0.1920975000 -0.1988251209 -0.0760621801 0.7589689493 -0.4747389853 -0.0591808110 -0.1701551229 0.1449728310 -0.1107737869 0.0739506632 -0.0719380230 -0.1191859320 0.0287374631 0.1650714725 0.6053793430 -0.0134331910 -0.2235233635 -0.0214173030 -0.2367291003 -0.2739958465 0.3488167524 -0.2347141802 0.2269146442 0.6885892153 0.7092642188 0.0687451512 0.4608958066 0.0165892001 0.0523357429 0.6669397950 0.1113030985 0.0646475852 -0.1361610442 1.1228020191 0.9931799769 -0.0488259718 -0.1978729218 0.0449694619 0.0186450779 0.4722782075 0.0163293146 -0.1584515721 0.4067301750 -0.0039300527 -0.3018452525 0.4443265200 -0.0663481429 0.8523217440 -0.0460175835 0.0308735631 -0.1767398715 0.5225008130 -0.0838784799 0.4546015561 -0.0025105192 0.4848856330 0.6505568027 0.0500263050 0.2413413078 -0.2391110808 -0.1860269159 -0.2032915503 -0.2222652584 -0.2221772373 0.6095618606 0.3369828463 0.5151808262 0.0678929240 0.1892634183 -0.2284368277 0.3151465654 0.0545692593 -0.1919755340 -0.1374026686 -0.0739226118 0.7089561820 -0.0492813438 0.6690965295 0.3187742233 0.0123329042 0.0753586739 -0.1939757764 0.3267469704 -0.2222254127 -0.1510028094 -0.0819795281 -0.2291965485 -0.0313040055 0.0568828136 0.8660237789 0.0784111023 -0.2201494426 0.5860493779 -0.0228759646 -0.1437356174 -0.1609886140 0.1399727464 -0.1011575311 0.2524345517 0.1310591400 -0.0381996632 -0.0082203690 -0.2183169425 -0.1180631295 1.0466558933 -0.0510287099 0.7381727099 0.2356027216 -0.2148187757 0.3063760698 0.0946306288 -0.1071002856 -0.0486617498 0.8365184069 -0.0953967646 -0.0956501216 -0.0737997293 -0.0614113845 -0.0620467141 -0.2485811859 0.2522059977 0.1607312560 -0.0468037575 -0.0859685540 0.3601683080 0.0334885269 -0.0285723191 0.2753483355 0.2383800745 0.3571383059 0.3973073363 0.0227589197 -0.1694414467 -0.2049026638 -0.2043049484 0.3103740215 0.0604809150 -0.1663258523 0.3885680437 0.5551069379 -0.2478868812 -0.0564297661 -0.1831162423 -0.0841462836 -0.1434810311 0.2366734296 0.3765400946 -0.0633835420 -0.2289630622 -0.0342222303 0.8548994064 -0.0229657888 0.0554536656 0.3666162193 0.2145383805 0.5837317109 0.3532245457 -0.1820708513 -0.0498933010 0.1797826439 -0.2033804506 -0.0551679321 1.3168030977 0.6376055479 0.3597928584 0.4487946033 -0.0466784686 0.3634998500 -0.1619389355 -0.0160836410 0.0478172414 -0.2071685493 -0.0012415219 0.4953114092 0.0693156421 0.1119934916 1.0147019625 0.3192324638 0.7477437854 0.5862718821 -0.0930043608 0.0276110619 1.2141643763 0.2395027876 -0.2273104191 0.1406869888 -0.3564580977 0.4830325842 0.2161229104 0.9712986350 0.1990091801 0.1434260607 -0.1938980073 0.3368458748 0.0294002295 0.0165344067 0.0054544229 0.3397219777 1.3365930319 -0.1069438756 -0.0852097124 -0.0683638304 -0.0463486388 -0.0136158634 0.5851771235 0.1345234662 0.7548932433 0.4680960774 -0.0979014263 0.8080906272 0.0549859777 -0.0275576375 0.1368148774 1.0249865055 -0.0977689475 -0.0866807252 -0.0599063411 0.1682750881 0.6967481971 1.0124133825 0.2056160420 -0.0482209139 0.2125299573 -0.0467824414 0.0626482368 -0.0211641975 -0.0934703350 0.0222433601 0.0448908620 0.0135029797 -0.0753303319 -0.1059774905 1.2511692047 -0.1444594860 0.7021620870 -0.0090771820 -0.0762071833 -0.2083244622 0.7281954288 -0.0552990958 -0.1434700936 -0.0037655085 0.0480403714 -0.0520173982 -0.1220307574 -0.0396605022 0.0603994951 -0.0915409774 0.3043711185 0.6679829359 -0.3532558978 -0.1109674349 0.3535671532 0.2802868187 0.7347577214 -0.1213781014 0.1207204536 0.4770242870 -0.2568431199 0.2461625636 0.3292414248 -0.2019021660 0.0818131864 0.3966296017 0.1571863294 0.2451958060 -0.0689880326 -0.0419945531 0.1258707792 -0.0410001948 0.0717210248 1.2210538387 -0.0800500885 -0.1332838982 -0.2008584589 -0.0607310347 -0.1369972229 0.2837411463 0.2606059909 0.0942290947 -0.1528556347 0.3306366801 0.6265320182 0.1595385671 -0.2148492634 0.1909145564 -0.0806086436 0.5378795862 0.2368098050 -0.0136018908 -0.1416788250 0.2877960503 -0.2000016719 -0.0979035422 0.4779375494 0.0084814606 -0.0862713531 -0.0283523239 -0.2374237925 -0.0369424857 0.1268389970 -0.3097890913 -0.1401440054 0.3898000419 -0.1031185612 -0.0468603000 -0.0219637044 -0.1476978213 -0.1452217400 0.3675085902 0.7321450114 0.3030148447 0.0606773272 1.1943187714 0.3847204447 0.8979240656 -0.1144680828 -0.2390705496 -0.0369288623 -0.1441163719 0.6355869174 -0.0151027739 0.1029905453 0.5123348832 -0.0686677173 0.5047568083 0.7867864370 -0.0099919336 -0.1757239699 -0.2551509738 -0.1452430189 -0.2296522111 -0.0348862931 0.2989040911 0.6224826574 0.0052167140 -0.0378135592 -0.1013530865 0.3052819073 -0.0311466362 -0.0466573015 -0.1622588933 -0.2048070729 0.3802584112 0.1325828731 -0.2457180768 -0.0621106774 -0.0207595341 -0.0046259034 -0.1611499339 -0.0799782947 -0.0755278096 -0.0382832028 0.8637824655 -0.0209805388 -0.0132293273 -0.0481192432 -0.1599529982 -0.0644446537 0.0938944966 -0.0975226983 -0.0119138006 -0.2174080461 -0.0785366744 0.3987728059 0.0301514566 0.4017825723 -0.0653733313 0.4498467147 -0.1734008044 -0.0615542755 -0.0227448698 1.1271111965 -0.0273144469 0.0928423628 -0.0731180608 0.5033484697 0.2482535243 0.1199310124 0.2108860314 -0.1155367866 -0.1464260370 -0.3079736829 -0.1364607364 -0.0721729845 0.0471535325 -0.1874385923 0.2595558167 -0.0593124181 0.2423382998 0.7089997530 -0.2096011937 0.3545185030 0.0292733125 0.1215052009 -0.0285976026 0.2629180551 -0.2916231453 -0.0513549820 -0.1044476107 0.1534733325 0.0462720692 0.8216667771 -0.0762376487 -0.3045335114 0.0158296600 0.5076794624 0.5955962539 0.2864327431 0.6721126437 0.4056040943 0.0051060617 0.1085682958 0.2834865451 -0.1388274133 0.2610734701 0.5828586221 0.0044621816 0.8262569308 -0.2075108290 -0.1012970731 -0.1938303858 -0.2216193676 -0.0666138753 -0.1143773645 0.5491605997 0.6410223842 -0.0637256652 -0.1039286256 -0.1117939949 0.3780714273 -0.1782346517 0.4708944261 0.6767337918 0.0376176611 0.5749871135 -0.1839893609 1.0186330080 0.0562129728 0.0553941168 -0.1333491504 -0.1751419753 0.0210059620 0.0795224831 -0.0599513389 -0.2563742697 0.0009627938 -0.0232405178 0.4125374854 0.1900193393 0.4244305491 0.1842114925 0.0673337579 0.3472917974 0.5635581017 0.2750771940 0.0141457617 0.0495208986 -0.1026930660 -0.1697039008 -0.0213128496 1.0096002817 0.8726328015 -0.0949497148 -0.1810381860 0.5040745735 0.8139240742 -0.2247599363 0.0684536695 -0.1214485988 -0.0048851706 0.2146770358 -0.3004796803 -0.2457487285 -0.0171660688 0.3190838397 -0.0399814472 -0.0884527937 0.4809873700 -0.0657620654 0.7849682570 0.4161320627 0.6284388900 -0.0053136935 -0.0542243719 0.0553831831 -0.0403926037 0.6878254414 -0.0128452107 -0.2544175088 0.1703740358 -0.1154466420 0.0298743565 -0.1295025647 0.2334148884 0.9303802848 -0.2057740539 0.0120794512 -0.1100150645 -0.0989093110 0.2037174702 0.2797723711 -0.0131745636 -0.1029196158 -0.1043496504 -0.1111452729 0.0103898821 -0.0479289778
02c7f3aef9dc51980002732a57d5d2ce_M_0001_1410.88_1418.87 0.0044930968 0.1141439527 0.1369266957 0.2529207170 -0.0771325380 0.3340058029 0.3073000014 0.4270925522 0.3373267949 0.2066401392 0.2627396882 -0.0168856662 -0.0151590072 -0.0022277143 -0.0937851816 -0.1086107269 0.1316441298 0.2496812195 -0.1142232716 -0.1169430763 0.0523877442 0.2954512835 -0.1344555169 0.2839043736 -0.0999484733 0.1233747676 0.2058120519 0.4521501660 0.0465929620 0.5076701641 0.1984648407 0.1097696796 0.2607429624 0.0086856969 -0.1495784968 0.1624679714 0.0839559138 0.1204214618 0.1529049873 0.0981177688 0.0781825259 0.0032200248 0.2524062395 0.3429874778 0.2363263071 0.3458546698 0.3867977858 0.1388563216 -0.2124699950 -0.1970067024 -0.1260960102 0.3058534861 -0.0391192436 0.0265303329 0.3665401936 0.1837892532 0.1497356892 0.0910083205 0.2342192978 -0.0469352491 0.1052000895 -0.0653707758 0.0391337425 0.1406409442 0.5042917728 0.0201647747 -0.0868102834 0.6485855579 0.3234178126 0.2748081088 -0.1615678519 -0.0845963731 -0.1713674217 0.6488063931 -0.0250083599 -0.1867573410 0.1801669002 -0.2353809476 0.3533837199 -0.0575068407 -0.0203357786 0.0150239263 0.3257493377 0.0737335756 0.0786334872 0.5229861140 0.1964588314 -0.0826582015 0.3481343091 -0.1910838485 -0.1612134427 0.3090196252 0.2483823001 -0.1120018139 -0.0885500386 0.4190754890 -0.1584506631 -0.0671933144 -0.1208578497 0.1528584659 -0.0808986649 0.0793934613 -0.1036804095 -0.1300823689 0.1702085137 0.0343761966 0.4401041865 -0.0634572655 -0.1354624629 -0.0341319218 -0.1675399989 -0.1947981864 0.1278005689 0.1227072775 0.1549365819 0.4463915527 0.2153404653 0.0395167023 0.3219217658 -0.0387117304 0.0632691681 0.4820769429 0.1483902484 0.2465643287 0.1843893528 0.6701392531 0.3420311213 -0.0124345040 -0.1348110735 0.2312185764 0.1221107244 0.3201026022 0.0549114235 -0.1677404493 0.1453417540 0.0415507779 -0.2132844925 0.2419582605 0.0658786073 0.5211587548 0.0427429564 0.0386848636 -0.1133752018 0.3198144734 -0.0590411499 0.2544804811 0.1471508443 0.1800701767 0.2400286496 0.1097784415 0.1653476357 -0.0186067186 -0.1566018313 -0.0656699985 -0.0042088260 -0.1732361764 0.3559294939 0.2533063293 0.3554127216 0.0701100603 0.1081119925 0.0055565480 0.1509988457 0.1936314255 0.0788639188 -0.0586433634 -0.0759560019 0.4924449325 -0.0667805672 0.3277340531 0.1909012198 0.0582907833 0.0840711519 -0.1384389251 0.1504200250 0.1905628294 -0.1375747025 -0.0488781892 -0.1645255983 -0.0043139029 0.0493380278 0.4164373279 0.1034794375 0.0549936034 0.3163486123 0.1238181889 -0.0772985816 0.0722493082 0.0644993633 -0.0367461331 0.1746065915 0.1590827554 0.0920144022 0.0199637469 -0.1487372071 -0.1070744619 0.5978755355 -0.0635303855 0.5460944176 0.0662964657 -0.1576895565 0.3132252097 0.0987211540 -0.0193143412 -0.0474944748 0.4816976190 0.0643766820 -0.0211595818 -0.0851544514 0.0774820000 -0.0642019659 -0.0851064920 0.2340330333 0.1809354275 -0.0555237122 -0.1083121523 0.2405393124 0.0777888596 0.0265313536 0.0874666795 0.1907408684 0.2456209362 0.2254926860 0.0967292488 0.1811819673 -0.1319755912 -0.0651532188 0.3321538270 0.0655186698 -0.1067388356 0.2614312470 0.3096390963 -0.1746905893 0.0116604399 0.1563010067 -0.0732992738 -0.0888708457 0.1143444702 0.3514941037 -0.0800824463 -0.1586244553 0.0232174154 0.4806424677 0.1223822087 -0.0063993651 0.1186106056 0.1137223393 0.3588884175 0.1655825675 0.0774774253 0.0243027192 0.1130347475 0.0101670511 0.0406004041 0.7164034843 0.3167957067 0.1846021563 0.1488125473 -0.0656104386 0.2429276109 -0.1033470035 -0.0397980586 0.2459651679 -0.1487901360 0.1830371916 0.3544349968 0.2360778451 0.0416731201 0.5954734087 0.1919766963 0.4140799940 0.4310056865 -0.0989535674 -0.0072608595 0.5244060159 0.2131961733 -0.1708182096 0.2441620380 -0.1267818362 0.2641132474 0.0820293278 0.6088585854 0.2461735159 0.0652810112 -0.0510518253 0.2209238708 0.0790707618 -0.0289399270 0.1282690316 0.1311546266 0.6785312891 -0.0940043181 0.1943808049 0.0629299283 -0.0162584260 -0.0029564300 0.2878032923 0.1368532628 0.4975706339 0.4396190643 0.0167841259 0.5337241292 0.1617934704 0.0267675184 0.1411406398 0.5220230222 -0.0819783360 -0.1155967787 -0.0442227423 0.1044455543 0.3541776538 0.5537713170 0.1496848315 -0.0603708513 0.1372940391 0.1562899351 0.0531842597 0.0001160230 -0.0642413124 0.0749249831 0.0599893779 0.0760294870 -0.0747797638 -0.1139936596 0.7698380947 -0.0959249288 0.2566148043 0.1700277627 0.0553773716 -0.1781843752 0.4082187116 -0.0636764094 -0.1027567983 0.0539129265 0.0582108535 -0.0501138829 -0.0921212211 0.2371140867 0.2113365233 -0.0749763474 0.1418874860 0.2819775343 -0.0733363405 -0.0552243553 0.1761709601 0.2163695991 0.3157507479 0.1039893329 0.4123548865 0.2902606726 -0.1006181538 0.2922396958 0.1745918691 -0.1358519047 0.1373234987 0.2634301186 0.1159266829 0.2565927207 -0.0756821930 0.0501213931 0.0919276923 0.1140033826 0.1172675788 0.6613284349 -0.1016966477 0.0738665238 -0.1806697994 0.0533535890 -0.1187387183 0.1790708005 0.1860862225 0.1067719012 -0.1141950786 0.3372272849 0.6198704839 0.1693520844 -0.1866250187 0.2262785882 -0.1101490706 0.4078253806 0.1641419828 -0.0036887557 0.2249809653 0.2149337083 -0.1168423072 -0.0018726811 0.2361407280 0.0539834164 -0.0576802306 0.1022341400 -0.1699569523 -0.0736556351 0.2261947393 -0.2493775636 -0.1115095466 0.2105353922 -0.0732309446 0.0724499077 -0.0059002163 -0.0989447385 0.1111716703 0.1834219247 0.3807531893 0.2817749083 0.1233340800 0.6256835461 0.2303845435 0.3700990379 -0.0972935855 -0.0457480475 0.1108519360 -0.0204842519 0.4003579617 -0.0187052079 0.1140312776 0.2968410850 -0.0442908332 0.4258302748 0.4426912367 -0.0421537906 0.1002308279 -0.1955826283 -0.0077783139 -0.1525561512 0.0403330997 0.2458031625 0.4180895090 0.1186119318 -0.0689748079 -0.1168951690 0.3805890977 0.0732558966 0.0623813085 -0.1151727140 0.0333341882 0.3898189068 0.1369569004 -0.1880807877 0.3283658326 0.0605890304 0.1354920417 -0.0758141503 -0.1049800068 -0.0841454268 0.2319616228 0.5199778080 -0.0641428158 0.2210635394 -0.0411678441 -0.0496161729 -0.0683435053 0.1131395102 0.1014010161 0.0409170315 -0.1123895273 -0.0734733045 0.2534230947 0.0555944405 0.1442964226 0.2284896821 0.3320337832 -0.1194763780 -0.0051656598 0.0429677181 0.5928124189 0.0086449087 0.1006174460 -0.0675072670 0.3635406196 0.1198015064 0.2147600800 0.1534968019 -0.1121857613 -0.1567472965 -0.2251688242 -0.1401388943 0.0995320603 0.1312908381 -0.1919507235 0.1432214081 -0.0205418654 0.3213841915 0.5870773196 -0.1211914197 0.0920029432 0.1009493470 0.1924155504 0.0756218657 0.0993743613 -0.2323663086 -0.0445074625 -0.0856218114 0.2871168256 0.0992837921 0.3947445154 -0.0769546628 -0.0706990659 0.0733043849 0.2593592405 0.2973225117 0.3059322834 0.3931270838 0.2617867589 0.1433975548 0.2316580266 0.4416346252 0.0118227527 0.2282698750 0.3397055566 0.0015237508 0.4230178297 -0.1179338992 0.1251549870 0.0162306614 -0.1700629890 0.1149049327 -0.1147953868 0.3862231970 0.2301223874 0.0630828440 -0.0848126858 -0.0436036959 0.1941270828 -0.0546691716 0.3216688633 0.3655636907 0.0940897912 0.2981174588 -0.1070611775 0.5946735144 0.0736680776 0.0624052882 -0.1251042634 -0.1170913652 0.0711548403 0.1286431849 -0.0394823402 -0.1587587893 0.1644237190 0.0308404900 0.3443425596 0.1520395875 0.3468182385 0.3155701458 0.1596378535 0.2464734763 0.3557879031 0.2535251081 0.1778745055 0.0743616745 0.1849225312 -0.0702921897 0.1254955381 0.3471642733 0.5535840392 -0.0560725592 -0.1197912470 0.2551641762 0.4362629652 0.1490088999 0.1572727114 -0.0009171050 0.2007024884 0.0707649589 -0.2265671343 -0.1656226367 -0.0020411592 0.0870381445 -0.0485984012 -0.0948389322 0.2136107385 -0.0754369423 0.6421525478 0.1843464077 0.2746383250 -0.0796585158 0.0313352719 0.0352199003 0.1869554669 0.4519751370 -0.0385754593 -0.1942623258 0.0481845476 -0.0606408194 0.0268418975 0.0331007093 0.0983848646 0.5066301227 -0.1843243688 0.1329618394 -0.0797538981 -0.0721943304 0.2104853690 0.3037489653 0.2029601634 -0.1188903600 -0.1142666340 -0.0820436478 0.0144721949 -0.0268118754
06a7bcfec00ea6661a7c0f7b5dcb713e_M_0006_59.66_140.94 0.0072338749 0.0351380780 -0.0612928793 0.4261618853 -0.0737244859 0.3287868500 -0.1248950586 0.7287873030 0.5724902749 0.0719083920 0.3206066787 0.0220493730 -0.0851150081 -0.0468561575 -0.1040269881 -0.0807235688 0.0348006785 0.2316932976 -0.0935856402 -0.1245618314 0.0282595716 0.2626300752 -0.2021051943 0.3714552224 -0.1458781213 0.1584314257 0.3499063253 0.6805344224 -0.0448506065 0.8347627521 0.1308868378 0.0764065832 0.0605837479 0.0431494042 -0.1337344050 0.1224932000 0.0221381839 0.1893210709 0.2869804800 -0.0041755023 -0.1488640904 -0.1605951190 0.3255647719 0.1115004495 0.2636403143 0.0498240367 0.5516250134 -0.1294145286 -0.2803337872 -0.2082920074 -0.1672458053 0.4904867709 -0.0806912780 -0.0920306817 0.6761782765 0.2470948994 0.0476265699 0.1576525569 0.2669381797 -0.0247327406 0.0857018083 -0.0299324915 0.1375258863 0.0792231113 0.8166235685 -0.0134944227 -0.0960200652 0.9466465712 0.1245495826 0.1781025678 -0.2259970158 -0.1027823761 -0.2424737215 1.0558500290 -0.0709182322 -0.2062992007 0.3845446110 -0.2884953916 0.6240446568 -0.0805353224 0.0566301756 -0.1877837777 0.5443654060 0.0360353291 0.0327543058 0.4867631793 0.0954929590 -0.0090310657 0.2099920064 -0.2683005929 -0.1316669434 0.3883669078 0.1730960608 -0.1829581559 -0.0697385743 0.7072097063 -0.3713587523 -0.0520861410 -0.1417686492 0.1852322817 -0.1022450924 0.0685804635 -0.0625739098 -0.1176091805 0.0103080049 0.1557630152 0.6217434406 -0.0137006901 -0.1942896843 -0.0224670824 -0.2092113942 -0.2427378297 0.3088950217 -0.1609432399 0.2413292527 0.6734869480 0.6523577571 0.0677322447 0.3904099166 0.0221158992 0.0545662381 0.6957416534 0.0817736834 0.0432467200 -0.1238524020 1.0921036005 0.8850467801 -0.0544959344 -0.1794894189 0.0708242357 0.0033892831 0.4123396575 0.0090577053 -0.1537483633 0.3706315756 0.0227045547 -0.2690676451 0.4057890475 -0.0957258195 0.8170636296 -0.0738858804 0.0296833888 -0.1459546238 0.4478742480 -0.0652778149 0.3896810114 0.0553290807 0.4333683550 0.5750421286 0.0745197833 0.2480438948 -0.1959340423 -0.1777181923 -0.1821390688 -0.2052196264 -0.1810536683 0.5375540853 0.3670986593 0.5087504983 0.0668195859 0.1920138448 -0.2139532119 0.2914635539 -0.0345113948 -0.2164792120 -0.1262024492 -0.0683334917 0.5904505849 -0.0522142053 0.6234176159 0.2953895330 0.0246661901 0.0415828452 -0.1650116742 0.2597059011 -0.2297210544 -0.1654756516 -0.0735491738 -0.2080858350 -0.0108006839 0.0501825809 0.7295218706 0.0560483634 -0.1808082610 0.4644184709 -0.0899934769 -0.1340157986 -0.1429325789 0.1241858900 -0.0891706422 0.2523352206 0.1018212289 -0.0708115250 -0.0019842852 -0.2036298215 -0.1172792986 0.9951997995 -0.0463997498 0.6582722068 0.2135187835 -0.1919337809 0.2351456583 0.0712575614 -0.0715194345 -0.0469584763 0.7098174095 -0.0421133712 -0.0859437287 -0.0748935342 -0.0454708859 -0.0610779040 -0.2015295774 0.2541999519 0.1288873255 -0.0407859087 -0.0714280978 0.3639923036 -0.0525726601 -0.0386558995 0.2382887006 0.2083787620 0.2698874772 0.4019928277 0.0471000262 -0.1535439640 -0.1956178993 -0.1603481025 0.2272620946 0.0431504175 -0.1806484908 0.4038160145 0.5138551593 -0.2265304476 -0.0746092424 -0.1622069329 -0.0732013285 -0.1378624439 0.1993030757 0.2878458202 -0.0498909429 -0.2000156492 0.0021189319 0.7943742871 -0.0316984728 0.0458214059 0.3242106736 0.1556421071 0.5159527659 0.2862574756 -0.1368083656 -0.0111054191 0.1874929070 -0.1794567108 -0.1163705885 1.1792603731 0.5942353606 0.3398410082 0.4047800303 -0.0479645357 0.3017984331 -0.1362155229 -0.0275020208 0.0843594223 -0.1871586740 0.0410570577 0.4800791442 0.0461271182 0.0957317948 0.8841933608 0.3220727742 0.7001987100 0.4866380095 -0.0912059471 0.0176780205 1.0610766411 0.2456840128 -0.2043209076 0.2088000178 -0.2883118391 0.3508608043 0.1886419803 0.8290148377 0.1478894651 0.1161015630 -0.1580171138 0.2648446262 0.0103837587 -0.0008547383 0.0336090550 0.3031567931 1.2057856321 -0.0950625390 -0.0964793041 -0.1093276888 -0.0369098522 -0.0117675830 0.5675895214 0.1139399484 0.6554867625 0.4274696410 -0.0604914352 0.8135885596 0.0248230770 -0.0273388699 0.1086314023 0.8896088004 -0.0980508476 -0.0826810524 -0.0582051426 0.1632809192 0.6365521550 0.8762148619 0.2193439901 -0.0364281647 0.1563697606 0.0253019314 0.0541121028 -0.0185007118 -0.0902739316 -0.0017157663 0.0468398668 -0.0094044786 -0.0670750365 -0.0924557373 1.1281359196 -0.1447670162 0.6539972425 -0.0497053713 -0.0599601641 -0.2062973827 0.6288460493 -0.0579076111 -0.1324415952 -0.0045127533 0.0642573908 -0.0487484969 -0.1219613180 -0.0880689025 -0.0149018969 -0.0877565295 0.2699139416 0.6102916002 -0.3152033985 -0.0963329449 0.3362917006 0.2325358391 0.6739544868 -0.1330001652 0.1169631407 0.3826088309 -0.1971761882 0.1715678871 0.2854035497 -0.1879518181 0.0044777654 0.3094675243 0.0833646059 0.2736235559 -0.0659111962 -0.0621511899 0.0964777097 0.0124797672 0.0718894973 1.1533855200 -0.0640896335 -0.1376770735 -0.1844956875 -0.0534058623 -0.1089797541 0.1734620482 0.2007417679 0.1176554412 -0.1409943849 0.2482914031 0.5620068908 0.1069002077 -0.1989025623 0.1666771173 -0.0578064658 0.4449632168 0.2052561790 -0.0152724972 -0.1087111086 0.3011707962 -0.1815279573 -0.0744756088 0.4329599142 0.0251607224 -0.0887284130 -0.0201790258 -0.2120465487 -0.0417487323 0.1475386173 -0.2749556303 -0.1196595803 0.3810074925 -0.0919328481 -0.0345291719 -0.0497901253 -0.1194638610 -0.0846661702 0.3456545174 0.6727495790 0.3261722922 0.0475748591 1.0756208897 0.3137985468 0.8231527805 -0.0957612693 -0.1942209601 -0.1150735617 -0.1200508475 0.5731714368 -0.0063200663 0.1298952550 0.4050471187 -0.0674682632 0.3817861974 0.7704049349 -0.0121762687 -0.1991758645 -0.2416321039 -0.1196515933 -0.2030291110 0.0183144324 0.2474938482 0.5165629387 0.0590701438 -0.0280188639 -0.0818111598 0.1962924898 -0.0798958391 -0.1011421457 -0.1448759288 -0.2091706842 0.3879260719 0.1756116152 -0.2129715830 -0.0655982792 -0.0062203603 -0.0156288780 -0.1426604092 -0.0811177492 -0.0628459603 0.0078845546 0.8079444170 -0.0201972947 0.0257997531 -0.0432530902 -0.0960661769 -0.0631252676 0.0957939401 -0.0533269793 0.0025731269 -0.2009082735 -0.0800680816 0.3416579366 0.0115130199 0.3794859648 -0.0185086075 0.3828404248 -0.1602112204 -0.0249435082 -0.0131810922 0.9204215407 -0.0357681178 0.1285878271 -0.0655211732 0.4481465518 0.2003606856 0.0665593967 0.1601173282 -0.1036453918 -0.1207602471 -0.2697836161 -0.1095209196 -0.0033857827 0.0263000280 -0.1610767990 0.2220331728 -0.0270304605 0.2256720662 0.6758646369 -0.1822790056 0.3263162374 0.0060162367 0.0905557871 0.0359981582 0.2489189208 -0.2648308873 -0.0632122979 -0.0913613662 0.2264604717 0.0422540233 0.7703301311 -0.0582829751 -0.2513561547 -0.0026763352 0.4207605720 0.5584930182 0.3039191663 0.5639681220 0.3766033053 -0.0444989726 0.0390943065 0.1974930912 -0.1288639307 0.3087320030 0.4661867321 0.0072052013 0.6985569000 -0.1883864105 -0.0417591818 -0.0944708735 -0.2085576504 -0.1130313203 -0.0949422568 0.4651732445 0.5655354857 -0.0348805226 -0.0925712585 -0.1066301838 0.2592701614 -0.1279049218 0.3632537723 0.5908125043 0.0448522493 0.5495020151 -0.1629514843 0.8852011561 0.0505513437 0.0287752412 -0.1234629080 -0.1746160984 0.0277758799 0.1030107215 -0.0474314950 -0.2285952270 0.0077666342 -0.0640877411 0.4182152450 0.1752067804 0.3058299124 0.1099692136 0.0667167008 0.2311692089 0.5934205055 0.2049025148 -0.0497470647 0.0414187536 -0.0620886534 -0.1345874369 -0.0772944689 0.9243927598 0.7440543175 -0.0863751620 -0.1659940034 0.4540423453 0.6868227124 -0.2121646404 -0.0010581359 -0.0740027204 0.0107076140 0.1719658375 -0.2666426003 -0.2152459621 -0.0094130635 0.2900737822 -0.0316589102 -0.0789030418 0.4095035493 -0.0614520758 0.6898283362 0.3742338121 0.5927225947 0.0031792754 -0.0270269606 0.0545627698 -0.0622347407 0.6044990420 -0.0161891654 -0.2359242886 0.1599714756 -0.1086326540 0.0104034673 -0.1395924091 0.2124276906 0.8943222761 -0.1896942705 -0.0056041013 -0.0970920846 -0.0864273831 0.1507439315 0.2353842854 0.0316947103 -0.0939147472 -0.0946253389 -0.0982344076 0.0059280386 -0.0294698142
06bb9604496afd03083130e19bf50ae0_M_0001_89.76_112.32 0.0174858142 0.0591561347 0.0228351820 0.3815877140 -0.0542738885 0.3261931539 0.0452211350 0.5948910713 0.4769205749 0.0947158262 0.2724958658 0.0088628251 -0.0371226072 0.0134243816 -0.0990185663 -0.0817859992 0.0866229981 0.2501807511 -0.1016148776 -0.1375434697 0.0663535148 0.2309819609 -0.1872414500 0.3247390687 -0.1419306397 0.1508022845 0.3150163293 0.6122239232 0.0318763256 0.7722184658 0.2055246532 0.0809263438 0.1489240676 0.0213377420 -0.1475259811 0.1284827888 0.0914145336 0.1967062354 0.2658928931 0.0321293510 -0.0783583596 -0.0810761452 0.2701645195 0.1766912788 0.2622590363 0.1686490476 0.4837094247 -0.0271933638 -0.2625153363 -0.2182309777 -0.1576428860 0.4461155236 -0.0388509929 -0.0158942379 0.5970571637 0.2264022827 0.1191611588 0.1619892865 0.2494458854 -0.0299307834 0.0959869698 -0.0496650226 0.0956772044 0.1264440715 0.7106835246 0.0310340617 -0.0937562883 0.7978432178 0.1894330382 0.1763166487 -0.2147943825 -0.0979943499 -0.2275741398 0.8777745366 -0.0586592630 -0.2073182911 0.3528991044 -0.2756312191 0.5585900545 -0.0665730983 0.0341632925 -0.1078238338 0.4665575624 0.0422063097 0.0795901865 0.4504893422 0.1464391500 -0.0494229645 0.2204914391 -0.2499713302 -0.1487419754 0.3694908619 0.1645140648 -0.1664243639 -0.0817414299 0.6127871275 -0.2652938366 -0.0605303682 -0.1403035671 0.2043662369 -0.0991041809 0.0807695836 -0.0421259068 -0.1341362000 0.0538358539 0.1138679013 0.5690559745 -0.0394403040 -0.1775659621 -0.0202854965 -0.2000484318 -0.2288534641 0.2427988499 -0.0010558292 0.2699242830 0.6018692255 0.4946082234 0.0727007389 0.3650094569 0.0161767770 0.0620036907 0.6292915344 0.0861498788 0.0995752588 -0.0042966194 0.9727351069 0.6741671562 -0.0505495481 -0.1542778313 0.1263829172 0.0399996191 0.3627765179 0.0419093780 -0.1508242041 0.2826994061 0.0715451092 -0.2667858303 0.3576731980 -0.0350518972 0.7202363014 -0.0322528966 0.0365241319 -0.1385218203 0.3822580576 -0.0650376230 0.3444353342 0.1090683118 0.3313165009 0.4480803907 0.0834759921 0.2295967937 -0.0866829827 -0.1735142618 -0.1270585358 -0.1227603257 -0.1709025055 0.4501456320 0.3552290201 0.4515112042 0.0579532795 0.1655740887 -0.0976037756 0.2706254125 0.0528532490 -0.0939046293 -0.0964302495 -0.0675008893 0.5148188472 -0.0541892126 0.5351424217 0.2557897568 0.0347558744 0.0573917963 -0.1660320312 0.2222052813 -0.0335535184 -0.1170435175 -0.0815325007 -0.2028103173 -0.0087488275 0.0777841583 0.5944644809 0.0626558587 -0.0482203625 0.3984242082 -0.0216763429 -0.1154805645 -0.0230329484 0.1028996110 -0.0775823966 0.2170845270 0.1148544475 0.0191725865 -0.0004052389 -0.1947915554 -0.0914805979 0.8757347465 -0.0546131581 0.6174058318 0.1544852406 -0.1759117991 0.2390074432 0.0650867000 -0.0106652090 -0.0448733829 0.6077448726 0.0523413718 -0.0337927565 -0.0876060277 0.0040828111 -0.0667275861 -0.1420044601 0.2625017464 0.1332660317 -0.0477240011 -0.0732536167 0.3623274565 -0.0474477187 -0.0102392752 0.1784555018 0.1832496524 0.2351656109 0.3704912961 0.0670436993 -0.0158251487 -0.1828576773 -0.1056087688 0.2296822369 0.0918322951 -0.1231486127 0.3820804954 0.4408094883 -0.2116206437 -0.0539733618 -0.0232978500 -0.0754501373 -0.1338354051 0.1905746907 0.2719226778 -0.0598576553 -0.1960401088 0.0476037674 0.6803992391 0.0284020025 0.0238146205 0.2427467853 0.1434865743 0.4324105978 0.2422649562 0.0072293878 0.0305716302 0.1784486920 -0.0593589582 -0.0515880845 0.9745740891 0.5137024522 0.3054674268 0.3419626951 -0.0621275157 0.2770027220 -0.1277622879 -0.0357449949 0.1454394013 -0.1768185198 0.1193947569 0.4403366745 0.0944230258 0.0815602243 0.7818356752 0.3186523616 0.5969119072 0.4529964626 -0.0940252915 0.0044612805 0.8525901437 0.2288457751 -0.1998036653 0.2550721467 -0.2069153041 0.3142671585 0.1398320496 0.7056307197 0.1666565388 0.0955404565 -0.1198219508 0.2256961465 0.0417624265 -0.0028517798 0.0772970319 0.2321369052 1.0039205551 -0.1063736454 0.0346383713 -0.0258837342 -0.0238414481 -0.0199177917 0.5252492428 0.1093123406 0.5697811246 0.4124062657 -0.0276159849 0.7272109389 0.0635619983 0.0002319338 0.1095645279 0.7401264310 -0.0723795816 -0.1047052965 -0.0608274713 0.1374419928 0.5154539943 0.7683406472 0.2029027045 -0.0390757658 0.1555097848 0.0856274515 0.0475014262 -0.0165219381 -0.0702306181 0.0211052354 0.0431544334 0.0438091457 -0.0648678616 -0.0998021513 0.9919827580 -0.1379985511 0.5019404888 0.0363883600 -0.0085704261 -0.1485534459 0.5456427932 -0.0569451787 -0.1291162670 0.0143123157 0.0862138867 -0.0546581857 -0.1168852374 0.0427414067 0.0564201102 -0.0959426090 0.2632343471 0.5085927248 -0.2043996453 -0.0891782418 0.3116705120 0.2029312700 0.5810390115 -0.0292941909 0.2032709420 0.3442586660 -0.0893811807 0.1888763905 0.2771050930 -0.1704020351 0.0395867750 0.2787849009 0.1026924700 0.2819772661 -0.0770214349 -0.0244902410 0.0874120295 0.0532573983 0.0708688572 0.9922687411 -0.0845185742 -0.0338628441 -0.2016281188 0.0023677899 -0.1159423217 0.1796694994 0.1970854402 0.1305732429 -0.1317428797 0.2439234555 0.5154724121 0.1112062633 -0.2098939419 0.1767393202 -0.0654051080 0.4200726748 0.1914791316 -0.0130320806 0.0428283587 0.2679563165 -0.1534947008 -0.0476356559 0.4037050307 0.0773435608 -0.0875500143 0.0267579481 -0.2022629678 -0.0504764542 0.1824205816 -0.2811435163 -0.1184728965 0.3696703315 -0.0851236060 0.0287918709 -0.0265035555 -0.1162490100 0.0484681651 0.3054954708 0.5838524699 0.3110246062 0.1067218184 0.8920189738 0.2869124115 0.7057486773 -0.0910661817 -0.1255228519 -0.0458322689 -0.0612046570 0.5244974494 -0.0160652939 0.1586786360 0.3403804302 -0.0640762374 0.3581440151 0.6916492581 0.0013075278 -0.0842206180 -0.2413283139 -0.0498285703 -0.1948262453 0.0581762195 0.2344692796 0.4430745840 0.1053540409 -0.0365228876 -0.0887958705 0.2265484035 -0.0347609483 -0.0589924678 -0.1384460181 -0.1073187143 0.3789796829 0.2266486734 -0.2124169916 0.0759643391 0.0276004523 0.0414772145 -0.1245330349 -0.1166641712 -0.0720953941 0.1105679274 0.7083854675 -0.0483494140 0.1006215587 -0.0374198779 -0.0280006193 -0.0633255094 0.0965634584 0.0225499012 0.0334462300 -0.1627360582 -0.0920115411 0.2928857505 0.0323645100 0.3450360000 0.0947865471 0.3553100526 -0.1637021750 0.0116771264 0.0211273823 0.7740691304 -0.0134776793 0.1526210755 -0.0731879175 0.3914438188 0.1820940822 0.1019618511 0.1700882316 -0.1060882434 -0.1393566281 -0.2788002193 -0.1148975194 0.0667569116 0.0541348457 -0.1785464436 0.2141575515 0.0321509428 0.2409616709 0.6119648814 -0.1621498913 0.2826344073 0.0352876298 0.0962641686 0.0942237377 0.2724644244 -0.2565298975 -0.0641469359 -0.0825804546 0.2586175203 0.0793787166 0.6833599210 -0.0798811242 -0.1690462828 0.0416833982 0.3497860432 0.4960023165 0.3235130012 0.4771117270 0.3612864614 0.0031884760 0.0805262923 0.2380407751 -0.0457427651 0.3164256215 0.4048990309 0.0000884188 0.5738078356 -0.1725568026 0.0547766164 -0.0182642266 -0.2027121782 -0.0173844267 -0.1010120735 0.3998497128 0.4859289527 0.0236742608 -0.0889454782 -0.0808663443 0.2392472327 -0.0669790059 0.3290727735 0.4867528379 0.0867863894 0.4788391590 -0.1428123415 0.7523508668 0.0668353811 0.0410088114 -0.1281867325 -0.1577397734 0.0611619540 0.1272418797 -0.0413098671 -0.2135918885 0.0866504535 -0.0436706878 0.4232371151 0.1613379419 0.3499708474 0.1563190371 0.1016281992 0.2073337585 0.5755910873 0.2134419829 0.0411776379 0.0491972491 0.0597386993 -0.0983920172 0.0031782892 0.7540833354 0.6487326026 -0.0902646333 -0.1591416895 0.3966824114 0.5660282373 -0.0347652137 0.0358681493 -0.0290608983 0.0755805895 0.1427078992 -0.2568234503 -0.1925040036 0.0080859270 0.2285002470 -0.0489958748 -0.0764440894 0.3426839411 -0.0725812167 0.6451125741 0.3262721598 0.5100315809 -0.0363565721 0.0496995524 0.0428987779 0.0418381728 0.5314096212 -0.0323119760 -0.2387124896 0.1132862568 -0.0941296890 0.0103266966 -0.0803377479 0.1682457924 0.7856097817 -0.1916578412 0.0518554114 -0.0962051079 -0.0796450600 0.1476375759 0.2329771370 0.1047336310 -0.1002144068 -0.1027192771 -0.0930845067 0.0121108005 -0.0262398720
06c8100580de63fee31f7c4d983b4aa7_M_0002_119.38_134.83 0.0132133681 -0.1283945441 -0.0488062650 0.4707200825 0.0764769167 0.1994243860 -0.3286758959 0.6458052993 0.5217376351 0.1329024881 0.2489110380 0.0705311000 -0.0571305230 -0.0206166469 -0.1165855303 -0.0991135463 -0.0161248632 -0.0135159120 -0.0970195904 -0.1383208036 0.1143591478 0.1540309042 -0.2371494621 0.2666429579 -0.1607208848 0.1778425574 0.3630012870 0.6398804784 0.1172498763 0.7980027795 0.0762139633 0.0217259899 -0.1892573386 -0.0098652020 -0.1498965472 0.1402621865 0.1726942509 0.2008207142 0.3061980009 -0.0886170715 -0.1723104864 -0.2230400294 0.2627899945 -0.1830763966 0.4415650964 -0.2476481944 0.7320755124 -0.3147966564 -0.3211397827 -0.2098370790 -0.1946274489 0.4445431232 -0.1159668416 -0.0083211064 0.7904109359 0.3115509152 0.2187857628 0.2052488029 0.0978944972 -0.0425455980 0.0115810400 -0.0229559094 0.1890080124 0.2459712774 0.7927262187 0.3340702653 -0.0874670148 0.9077756405 -0.1494234502 0.1385756284 -0.2460789382 -0.1384649426 -0.2533257008 1.1660376787 -0.1334204078 -0.1961621493 0.5238568783 -0.3174454570 0.8082641959 -0.0645427704 0.1778798252 -0.2875025272 0.6906565428 0.1472647339 -0.0117025767 0.4402905107 -0.0625479817 0.0149428761 0.2219184339 -0.3018701375 -0.1403377652 0.6728591323 0.0109048085 -0.1991056800 -0.0613007136 0.8575601578 -0.6012989879 -0.0540553443 -0.1776026338 0.0712132752 -0.1035896689 0.0277907066 0.1377161741 -0.0984053239 -0.1164927557 0.2127341777 0.4673546553 0.0069580050 -0.2172594666 0.0122182351 -0.2297757268 -0.2940580249 0.3699956238 -0.2679843605 0.4000335634 0.5951955318 0.7857012153 0.1658389866 0.4288868606 0.1082877517 0.0307101328 0.4442090988 0.0847149715 -0.1164968982 -0.2337418199 1.0535548925 1.0359033346 -0.0428918116 -0.2029284984 -0.1842252910 0.0072837649 0.3591545820 0.0370748527 -0.1126742586 0.4103111625 0.0491070673 -0.3079825342 0.5126715899 -0.0788912997 0.7836889029 -0.0431043543 0.0305927210 -0.1825432032 0.4581284225 -0.0660199672 0.4764948487 -0.1718629152 0.4734509885 0.7492675185 -0.0577520132 0.2218341231 -0.1979843378 -0.1708482802 -0.2267314196 -0.2794692814 -0.2203703970 0.5352239013 0.3062903285 0.3355872035 0.0112031978 0.1826495528 -0.1042492315 0.4591562748 0.1459093839 -0.2166350335 -0.0974608287 -0.0608275943 0.5827089548 0.0022652070 0.7077344060 0.2822629809 -0.0344026424 0.1049946845 -0.1857232153 0.4101212621 -0.2287641019 0.1028080806 -0.1131528690 -0.2328985780 -0.0513085946 0.1346853375 0.8578134179 0.0274850000 -0.1880258918 0.6486114264 -0.0430558100 -0.1547393054 -0.1127007157 0.1278994977 -0.1081736088 0.1913395822 0.0588193983 0.1076813191 -0.0210931264 -0.2154471576 0.0951608568 0.9560953379 -0.0497988313 0.5618469119 0.3090663850 -0.1877113581 0.1687722504 0.0605688691 -0.0082175424 -0.0426455773 0.7555003762 -0.0253846906 -0.0036791414 -0.0621141493 -0.1313123405 -0.0716683194 -0.2938897312 0.1387728900 0.0782424212 -0.0268246345 -0.0514488742 0.3845319450 0.0113331545 -0.0460886881 0.2906156480 0.1501251757 0.3138441443 0.3881196082 -0.0078120860 -0.2655674815 -0.2244370133 -0.2440865487 0.2413627356 0.2014564127 0.0186499041 0.3731735349 0.5185097456 -0.2147756666 -0.0785672590 -0.2754983604 -0.0599545203 -0.1642453074 0.3561432362 0.2464088500 -0.0540760532 -0.2713705599 -0.0368717723 0.8531695008 -0.0481220782 0.1097827405 0.3898800313 0.2932312787 0.5167518854 0.3417541683 -0.0903457776 -0.0249143690 0.2651305795 -0.1385315955 0.0874235928 1.1722896099 0.6412709951 0.4843822718 0.6291967034 -0.0250263810 0.4042712748 -0.1691955626 0.0156994704 -0.1175610200 -0.1810757965 -0.1947808415 0.3578240871 -0.1001442820 0.0996219143 1.1285824776 0.3957397640 0.7415510416 0.4445110857 -0.0762394220 0.0669285059 1.2652312517 0.1016121581 -0.2189401835 0.0351334922 -0.3781789243 0.6437246203 0.2339061350 0.8613630533 0.2190441489 0.1652908325 -0.2294632345 0.2734134793 0.0109716803 0.0271277279 -0.0276523177 0.3407641649 1.3078910112 -0.1361364275 -0.1570665836 0.0352379680 -0.0534869507 -0.0476754643 0.7255986333 0.0719534382 0.6068726778 0.2372514457 -0.1629984379 0.5864821076 -0.0270930976 0.0131471762 0.0759284049 1.0456753969 0.0166265219 -0.0553639829 -0.0628881529 0.1751119792 0.6865876913 1.1106142998 0.2121503949 -0.0064012310 0.3539144099 -0.2350913137 0.0451294668 -0.0172249898 -0.0407750420 0.0697078630 -0.0011204602 0.0798171088 -0.0627803579 -0.0705705136 1.0976473093 -0.1307921261 0.7249540091 -0.0131098609 -0.1368394196 0.0482740216 0.8063120842 -0.0107632875 -0.1728874594 -0.0496835150 0.1014112830 -0.0508417003 -0.1209484786 -0.0414584763 -0.0040602963 -0.0630653724 0.5108515620 0.8484551311 -0.4778041840 -0.1249513850 0.4920477569 0.2074092627 0.9187939167 -0.1327993125 -0.1909615099 0.5654956698 -0.1191072762 0.1646195650 0.4792148471 -0.1745442301 0.0669574142 0.3717334867 0.2456434965 0.1864849627 -0.0680501536 -0.0014811708 0.1293038726 -0.2000076473 -0.0133580333 1.2167996168 -0.0842654631 -0.1062229648 -0.1813581139 -0.0643846691 -0.1456637233 0.4127919376 0.3297803998 0.0934042111 -0.1470151246 0.2184614837 0.2513305545 0.1502286047 -0.2211772949 0.0612390973 -0.0659210235 0.4099367857 0.1934001595 -0.0302851759 -0.2759629786 0.1851811409 -0.1829592437 -0.1409172416 0.6204963923 0.1577040404 -0.0755936280 -0.0912184194 -0.2446656078 -0.0049746162 -0.0327119380 -0.3185928464 -0.1323058605 0.5343850851 -0.1295233816 -0.0187982339 0.0382887796 -0.1368295103 -0.0390484072 0.4410243928 0.8468312621 0.1068522111 0.2233227640 1.1945830584 0.4400281608 1.1544717550 -0.0966072977 -0.3039998710 -0.0898900479 -0.0615270585 0.5513908863 -0.0121801961 0.1104401425 0.4900191426 -0.0632191375 0.3850652575 0.8510954976 0.1546020955 -0.2374787182 -0.2368343025 -0.1161128655 -0.2383443117 -0.1355090290 0.2212680876 0.5018638968 -0.1103957891 -0.0140072908 -0.0418583117 0.1966116428 -0.0095528523 -0.0442980304 -0.1512597352 -0.2538113296 0.1178025454 0.2557433844 -0.2386643887 -0.2689970732 -0.0619556680 -0.0020691566 -0.1840213984 -0.0622624010 -0.0806500316 -0.2176243514 0.7363165617 0.0009881445 -0.2033871859 -0.0405705161 -0.0750229284 -0.0411902592 -0.0034850123 -0.1797167808 0.0715627819 -0.2517793775 -0.0617396869 0.3384315073 0.0431049466 0.6331429482 -0.2400786728 0.3497053087 -0.2010913491 -0.0216795020 -0.0475179777 1.1927682161 -0.0345193185 0.0940978974 -0.0423048623 0.3456673026 0.3314857185 0.0260064844 0.3103763759 -0.0711583048 -0.1042832807 -0.2924073339 -0.0907691196 -0.1033022553 -0.0603837818 -0.1781179756 0.4076298475 0.0648894608 0.0257866792 0.4068223238 -0.2062138617 0.5834044814 -0.0055910069 0.0155140199 -0.0224914756 0.5745296478 -0.2509609461 -0.0501234867 -0.0833823904 -0.0959963351 -0.0050834939 1.0414787531 -0.0759148598 -0.3971072435 0.0748687983 0.5254073143 0.6255234480 0.1102810949 0.6412302256 0.3962086439 -0.0351272970 0.0025981925 0.0630185604 -0.0515824258 0.2470697612 0.6320921779 0.0278447792 0.8301884532 -0.2052199841 -0.1465295404 -0.3070620000 -0.2099646181 -0.0567143857 -0.0953737497 0.3949545324 0.8899952769 -0.1095655784 -0.1122445986 -0.1093755662 0.5900843143 -0.1838984489 0.3827986419 0.6540798545 0.1390536129 0.6348085999 -0.1938133538 0.9484925866 0.1092710048 0.0828174427 -0.0974225476 -0.1595955044 0.1140254140 0.0679527149 -0.0204440821 -0.2633696795 -0.1191205978 -0.0562442355 0.2750541568 0.1481031179 0.5752409101 0.0868448764 -0.0575570203 0.3348276019 0.6313132048 0.2805620730 0.0253930166 0.0395403467 -0.2285728902 -0.1781041026 0.0659226477 1.2419862747 0.7400437593 -0.1003412679 -0.2189869434 0.6083071828 0.7739793062 -0.2441993356 0.0462768897 -0.2283303142 -0.1493538618 0.3348392248 -0.3127593398 -0.2313715369 0.0225478876 0.4633395970 -0.0323640332 -0.0481311306 0.5902230740 -0.0997403562 0.5076127648 0.5663218498 0.7730728984 0.0082224319 0.0657895431 0.0678438768 -0.0232737698 0.5597098470 0.0122881755 -0.2603419721 0.2230676115 -0.1526710540 -0.0042530242 -0.1817374974 0.2399942577 0.9790436625 -0.1778799891 0.0590641089 -0.1011930704 -0.1201235726 0.1152140498 0.1382905692 -0.2130006552 -0.0685673058 -0.0890765265 -0.1094972044 0.0236405693 -0.0882452503
0727cec2ffe005682fa250813bbea704_M_0017_412.13_543.40 0.0541249514 0.1325013638 0.2358082533 0.2116277069 0.0163895097 0.2706698179 0.5907780528 0.2048033625 0.1614583880 0.1317973733 0.1355849653 -0.0393375829 0.1110140607 0.1996742785 -0.0674452111 -0.1175530031 0.2354871929 0.2777462602 -0.0930242911 -0.1565002054 0.1720502973 0.1458514929 -0.1192672774 0.1746664494 -0.1031436622 0.1078501642 0.1694405824 0.3453950882 0.2404079735 0.5161081553 0.4456515014 0.1120273322 0.4109392762 -0.0290422309 -0.1837305427 0.1655273139 0.2887282670 0.2255837917 0.1731967330 0.1625833958 0.1361451447 0.1069669947 0.1113872603 0.3737608790 0.2146804035 0.4842980802 0.2301897109 0.2901094258 -0.1896982789 -0.2199830264 -0.1162792966 0.2470758855 0.1064503193 0.2097939253 0.2870060503 0.1243404821 0.3541525900 0.1788247079 0.1960398555 -0.0518445559 0.1354468018 -0.0864086673 -0.0200674385 0.2629989386 0.3376064897 0.1498756707 -0.0833785161 0.2890305519 0.3887307048 0.1867511123 -0.1402588040 -0.0927441269 -0.1583151668 0.2418905795 -0.0294653792 -0.2124771923 0.2260259241 -0.2165197283 0.3252587020 -0.0412131362 -0.0130471289 0.1166537181 0.2348181456 0.0883549526 0.1598273069 0.2880925536 0.2853194177 -0.1481797397 0.2683493197 -0.1712177545 -0.1683714688 0.2841824591 0.1598950326 -0.0976938382 -0.1026748940 0.3063108921 0.0757137761 -0.0747794211 -0.0994541198 0.2435099781 -0.0904678628 0.0807493627 0.0175535381 -0.1662787795 0.1830197871 -0.0337769948 0.3837338090 -0.1084563285 -0.0871787295 -0.0366529785 -0.1491661817 -0.1765091568 -0.0018042866 0.5126652122 0.3213135898 0.3465707898 -0.0273505542 0.0854573995 0.2427263558 -0.0061528333 0.0794734508 0.4273061752 0.1182533726 0.2478282750 0.4017001092 0.5409882665 -0.0382434204 -0.0080952002 -0.0985722467 0.3072410226 0.1732180417 0.1827079207 0.1215284541 -0.1647551358 -0.0087516289 0.2082350254 -0.2041852921 0.1869689822 0.1352613419 0.3734505177 0.0901735276 0.0384571515 -0.1015525907 0.1370105743 -0.0297733005 0.1565805376 0.2734223902 -0.0183579605 0.0413911082 0.1267897487 0.1766654700 0.2350178957 -0.1536176056 0.0369535722 0.1253440380 -0.1404749602 0.1301674098 0.3035874963 0.2670334876 0.0435217284 0.0862236172 0.2946521044 0.1781209260 0.2946262956 0.2654716969 0.0181439333 -0.0803133547 0.2568097413 -0.0632056594 0.2211887538 0.1206868738 0.0675466806 0.1028257832 -0.1363785565 0.0983414501 0.5434880257 0.0208086558 -0.0753443390 -0.1694847196 0.0171504617 0.1193805858 0.1201370209 0.0758556947 0.3732970059 0.1476346105 0.1351445317 -0.0639502257 0.3136504889 0.0131013896 -0.0267152376 0.0938586295 0.1260463446 0.2801660299 0.0229118466 -0.1385174543 0.0018077965 0.4234409630 -0.0939498916 0.4156117141 -0.0226341505 -0.1512737870 0.2196112126 0.0540245660 0.1749517620 -0.0497893579 0.1978993863 0.3221363127 0.1210919619 -0.1037293598 0.1625066996 -0.0834257230 0.0158897713 0.2576839030 0.1409781128 -0.0532755330 -0.1148819774 0.3423719108 -0.0297237691 0.0539490283 -0.0054844646 0.0905955136 0.1004790813 0.2263253629 0.1512525231 0.4133727252 -0.1412029266 0.0556302816 0.2459183484 0.2212287635 0.0385242961 0.2959215939 0.1943812966 -0.1575157791 0.0361094996 0.4129909277 -0.0710625052 -0.1056713611 0.1304256767 0.2129729986 -0.0682523996 -0.1696804464 0.1602438390 0.2872737050 0.2143661678 -0.0169928167 -0.0316214450 0.0886922777 0.1675270945 0.0624632239 0.4495888352 0.1736945659 0.1729883552 0.2776706517 0.1403175890 0.2878573537 0.2112390548 0.1867729127 0.0969462544 -0.0887363926 0.1871475726 -0.0974632651 -0.0757622048 0.3615031540 -0.1210455745 0.3354960978 0.2958842814 0.2598074973 -0.0025305592 0.4107762873 0.2550049126 0.2562650144 0.2933467329 -0.1323001087 -0.0179084819 0.1165258735 0.1808356345 -0.1608735323 0.4076195359 0.0629497021 0.1797539443 -0.0094771693 0.2955923975 0.2586419582 0.0319282785 0.0214942042 0.0999053121 0.1194592416 -0.0424218848 0.2326041460 -0.0077444268 0.3201610446 -0.1192885190 0.4035708904 0.2075934559 0.0173794348 -0.0113629159 0.3216254115 0.1056125388 0.2605808675 0.3375739753 0.0887115076 0.4218843877 0.1967930347 0.0933548287 0.0944775939 0.1984246224 -0.0054323175 -0.1668002307 -0.0685479492 0.0913510993 0.1363319606 0.3404546380 0.1733966172 -0.0546575934 0.1506901085 0.2895939350 0.0332030207 0.0127420276 -0.0115177045 0.1413099766 0.0349070430 0.1862712353 -0.0726423934 -0.1115873903 0.4883474112 -0.1124270260 0.0254303813 0.2818675935 0.1312009841 -0.0013323538 0.2685848176 -0.0665753186 -0.1119287759 0.0889972150 0.1647344530 -0.0634717494 -0.1054965556 0.4268904626 0.2484160066 -0.0722218826 0.1945157349 0.1920359135 0.0873745754 -0.0503706001 0.2162532061 0.1082910597 0.2485902458 0.2755576968 0.4693536758 0.2137454003 0.2334626168 0.2263371944 0.2279613465 -0.1015508324 0.1358012557 0.1479405761 0.1498591155 0.3161388040 -0.1034655795 0.1083227471 0.0506745428 0.1813447475 0.0887999684 0.4286665916 -0.1366693228 0.2811489999 -0.2286432981 0.1807323694 -0.1309992373 0.1498665512 0.1619847566 0.1910738945 -0.0944695771 0.2408675551 0.3838209212 0.1489579678 -0.2293855399 0.1903562844 -0.1048889533 0.2580142617 0.1149260327 -0.0205500927 0.4852801561 0.1713671982 -0.0688487068 0.0471923612 0.2644057870 0.2482326776 -0.0589991175 0.1758543849 -0.1750205457 -0.0856470838 0.2909717262 -0.2803206742 -0.1031428128 0.2959063053 -0.0828760117 0.2302729040 0.0160724316 -0.0948576033 0.4714877009 0.1788409948 0.2749621570 0.2623392045 0.3151109815 0.2763768435 0.1591434926 0.2927430868 -0.0901558548 0.0793828070 0.1272889525 0.1317671388 0.2959046960 -0.0268748626 0.2334718108 0.1069482714 -0.0405175909 0.2448287010 0.4116811752 0.0536564961 0.2369584441 -0.2053495646 0.1433152109 -0.1411693692 0.1480843276 0.1648696065 0.1884002984 0.2251848280 -0.0751576126 -0.1007221863 0.3063151240 0.1102125123 0.0747819468 -0.1133233830 0.1803010255 0.3608680665 0.3691572547 -0.1881172508 0.5103575587 0.1256610602 0.2476311326 -0.0757727399 -0.1783184558 -0.1099567115 0.4157065451 0.3466776609 -0.1083547473 0.3416936398 -0.0349195786 0.1678365469 -0.0715386197 0.1100678593 0.2732329369 0.1480328888 -0.0695797727 -0.0994748995 0.1192969531 0.0905765966 0.2079540491 0.4447138309 0.2244857699 -0.1616120785 0.1134122610 0.1272136569 0.2396288961 0.0427670032 0.2036491185 -0.0778243393 0.1865600944 0.0946718529 0.1902051121 0.2015519142 -0.0931503624 -0.1917760521 -0.2246500701 -0.1354259402 0.3215920031 0.1439624429 -0.2334222049 0.1966403425 0.1817101538 0.2659643292 0.4102694690 -0.0731939077 0.1063731462 0.1069152206 0.1334141642 0.2960133255 0.2809421420 -0.2403263748 -0.0606573187 -0.0864192992 0.3602079749 0.1752895117 0.3740265965 -0.1249838024 0.0944685191 0.1676576883 0.0941655487 0.2272620648 0.3536894023 0.1558612138 0.2704414427 0.1648197770 0.2031136751 0.3372496367 0.2086343616 0.3349037468 0.1685778052 -0.0097828750 0.1439366192 -0.1129390597 0.3620585501 0.2591041923 -0.1681909412 0.2511391938 -0.1160358936 0.1810857803 0.1672583669 0.1988748759 -0.1032609716 -0.0019425647 0.1673164070 0.1190201640 0.1564006507 0.1430404633 0.2601904869 0.2526382506 -0.0968248844 0.2913472950 0.1050422639 0.0819618702 -0.1267704368 -0.1092810854 0.1876447946 0.2074126303 -0.0050534247 -0.1392712593 0.2649409771 -0.0001963964 0.3793881238 0.1222779527 0.4335641861 0.3052322567 0.2035835683 0.0913180709 0.4926701188 0.2173876762 0.3005275726 0.0855762661 0.4234346151 0.0281995367 0.2498409301 0.1572452337 0.2785900235 -0.0830184370 -0.1288366914 0.1921938509 0.1445187032 0.4890926480 0.1518806964 0.1238930598 0.2863785923 0.0543697029 -0.2407268733 -0.1137360632 0.0773020536 0.0441257618 -0.0789245144 -0.0822700784 0.1217673123 -0.1231739521 0.4657270014 0.1712044626 0.2252298295 -0.1320736259 0.2496806830 0.0206383616 0.3474306762 0.2539878190 -0.0633421466 -0.2109451741 -0.0012670760 -0.0554327928 0.0120943859 0.0841274634 0.0385898314 0.4125445187 -0.1789476126 0.2385388017 -0.0687602088 -0.0771101192 0.1460597515 0.2389932275 0.3439939022 -0.1390768737 -0.1197436303 -0.0747058988 0.0425771549 -0.0397211052
094afdf3c7b2e41da63ea00c5dfe24f9_M_0001_0.00_26.91 0.0177678037 0.0453993753 -0.0540462881 0.4389656782 -0.0706253126 0.3159879148 -0.0914177224 0.6977591515 0.5543619394 0.0167846605 0.2862713635 0.0145913046 -0.0526545718 0.0025553759 -0.1022135764 -0.0750578120 0.0553170070 0.2651748359 -0.0814348012 -0.1326048970 0.0498003662 0.2187805623 -0.2079990208 0.3539935648 -0.1513585448 0.1591749042 0.3599354625 0.6865215898 -0.0142434053 0.8906434178 0.1925631315 0.0697465241 0.0962943584 0.0365554467 -0.1329110712 0.1075302884 0.0519806147 0.2357657254 0.3110496402 0.0054823593 -0.1595387757 -0.1396566629 0.2931354940 0.1104184315 0.2367758155 0.0821667612 0.4999343753 -0.1041117311 -0.2790333331 -0.2170331925 -0.1631288826 0.5027083158 -0.0386793986 -0.0681929216 0.6814966798 0.2241801322 0.0673781708 0.1816643178 0.2717921734 -0.0172487553 0.0953214839 -0.0315444767 0.1264650673 0.0851750299 0.8076778054 -0.0296928603 -0.0935226157 0.8754321337 0.1365994215 0.1296951920 -0.2253115773 -0.0960939005 -0.2410479486 0.9721986055 -0.0686825439 -0.2071297616 0.4067028463 -0.2880012095 0.6349582672 -0.0805228278 0.0571722202 -0.1759953052 0.5298380852 0.0194177013 0.0610186979 0.4147903025 0.1232732460 -0.0265266132 0.1513420492 -0.2625899613 -0.1353836060 0.3564749658 0.1465887129 -0.1887007058 -0.0716748834 0.6922413111 -0.3036774397 -0.0512362011 -0.1385173947 0.2282088101 -0.0996172056 0.0740784183 -0.0402614102 -0.1285196394 0.0026853085 0.1498523951 0.6469517350 -0.0236154906 -0.1818486452 -0.0210130159 -0.2037794441 -0.2395887524 0.2868753076 -0.0829276145 0.2832530439 0.6814963818 0.6290386915 0.0745499954 0.3725091815 0.0261854697 0.0570424274 0.7291144729 0.0560039133 0.0259775277 -0.0983389020 1.1054694653 0.8324081302 -0.0644909516 -0.1657778770 0.0889197588 -0.0056269681 0.3882281184 0.0204196647 -0.1485702544 0.3475024998 0.0645869821 -0.2726048529 0.4021082222 -0.1030416265 0.8109868169 -0.0866540074 0.0323315412 -0.1372423619 0.4127708972 -0.0558936112 0.3705195189 0.1025771424 0.4076662064 0.5451486707 0.0866740420 0.2634968460 -0.1472470313 -0.1819942445 -0.1637184322 -0.1860999614 -0.1655855179 0.4917702973 0.4051312804 0.5159096718 0.0649929941 0.2009407729 -0.1769108027 0.3027943075 -0.0606034398 -0.2061271220 -0.1085667461 -0.0646932945 0.5260975361 -0.0521863997 0.6191913486 0.2911064625 0.0244574547 0.0242391899 -0.1615167260 0.2428416461 -0.1935737878 -0.1432477981 -0.0805487558 -0.2106963545 0.0031716283 0.0714932978 0.6636428237 0.0438835099 -0.1254093051 0.4172557592 -0.1212428212 -0.1299220473 -0.1052303612 0.1202663928 -0.0945167094 0.2452685982 0.0956972539 -0.0612391979 0.0016652299 -0.2051924318 -0.1112890095 1.0111160278 -0.0487218946 0.6421639323 0.1936500520 -0.1834131926 0.2025526613 0.0569740720 -0.0177660212 -0.0451456495 0.6478566527 0.0185832605 -0.0613795184 -0.0857142136 -0.0353562459 -0.0621995814 -0.1676011682 0.2718681395 0.1199826747 -0.0372889712 -0.0568089560 0.4114639461 -0.1147154495 -0.0411654562 0.2211792767 0.1862531006 0.2284848839 0.4336934388 0.0594789796 -0.1277916878 -0.2034230530 -0.1246900707 0.1764321625 0.0650731027 -0.1709130853 0.4348052740 0.5032544136 -0.2223112285 -0.0787721053 -0.1171485484 -0.0792643875 -0.1416046023 0.1953153312 0.2352958620 -0.0396923237 -0.1990268677 0.0423368365 0.7708248496 -0.0324308872 0.0443421677 0.3036495149 0.1352184117 0.4814696312 0.2654346526 -0.0637112707 0.0229755472 0.2071446031 -0.1341099590 -0.1283011585 1.1103113890 0.5979236364 0.3453350365 0.4069057703 -0.0507008359 0.2714904249 -0.1293843091 -0.0313134603 0.1040098593 -0.1785720438 0.0898522884 0.4925103486 0.0358323902 0.0894779339 0.8368542790 0.3525635302 0.6812369227 0.4569362402 -0.0971760824 0.0098641226 0.9888361692 0.2565800846 -0.1974910796 0.2656963170 -0.2493883520 0.2958863974 0.1705461293 0.7473999858 0.1160669252 0.1086713076 -0.1496673375 0.2296054810 0.0134890974 -0.0107831378 0.0440155268 0.2793452740 1.1504238844 -0.0990519375 -0.0746300817 -0.1114792079 -0.0309547856 -0.0179416854 0.6021466255 0.1116582975 0.6059762239 0.4076073170 -0.0393677726 0.8372730613 0.0129375309 -0.0234671794 0.0952817947 0.8254023790 -0.0882397667 -0.0880994126 -0.0776465386 0.1631311178 0.5974374413 0.8246678710 0.2265622020 -0.0349284075 0.1314771026 0.0718641058 0.0508719757 -0.0192848835 -0.0770956650 -0.0153914355 0.0435606092 0.0060877372 -0.0554921255 -0.0931681097 1.0845185518 -0.1527087390 0.6342555285 -0.0521268472 -0.0430999547 -0.1794732958 0.5901563168 -0.0522707626 -0.1385725737 -0.0012084022 0.0846057758 -0.0521385446 -0.1222032756 -0.0922468305 -0.0382946357 -0.0866220221 0.2862092257 0.6021962166 -0.2797340453 -0.0982884467 0.3508007526 0.1988310218 0.6739002466 -0.1112563685 0.1240697727 0.3398062885 -0.1210242808 0.1341596246 0.2955465317 -0.1868246645 -0.0287249722 0.2701818943 0.0640052557 0.2937627733 -0.0677813441 -0.0699217469 0.0809904560 0.0419068597 0.0611547530 1.1442935467 -0.0666560754 -0.1097981259 -0.1964357346 -0.0312791020 -0.0970380604 0.1377353966 0.1777812093 0.1449756026 -0.1366232932 0.1974302232 0.5014646053 0.0790015236 -0.2024105787 0.1596595645 -0.0458568968 0.4107713401 0.1913659126 -0.0127072642 -0.0562097989 0.3045540750 -0.1670266539 -0.0616540723 0.4506521225 0.0582279265 -0.0921161696 -0.0104240654 -0.2136791497 -0.0403035209 0.1739688814 -0.2794193923 -0.1119515896 0.4130685627 -0.0859480724 -0.0089179240 -0.0601878315 -0.1157023162 -0.0129373744 0.3477609158 0.6680685282 0.3458972573 0.0633531213 1.0118249655 0.2931733131 0.8223688006 -0.0873585492 -0.1644449085 -0.1496282816 -0.0964977890 0.5730056763 -0.0081954002 0.1672524810 0.3471106887 -0.0716483817 0.3175454438 0.7940233350 -0.0027060795 -0.2014689744 -0.2585288882 -0.0854949951 -0.2004712820 0.0685599074 0.2256330401 0.4493888617 0.1048296839 -0.0230135545 -0.0713843852 0.1393109858 -0.1016051322 -0.1288257390 -0.1458476037 -0.1900904775 0.4045990109 0.2386150062 -0.2169719487 -0.0507487580 0.0099539822 -0.0186383165 -0.1478611380 -0.0990186781 -0.0581827350 0.0610176809 0.8053708673 -0.0235870145 0.0580517799 -0.0333395302 -0.0371197425 -0.0626587942 0.0970397815 -0.0168134123 0.0185509473 -0.1916771978 -0.0838583633 0.3083213866 0.0106415423 0.4050012827 0.0315237790 0.3615451455 -0.1668693423 0.0106488792 0.0053323559 0.8299720287 -0.0350717902 0.1694345772 -0.0643210635 0.4104373753 0.1916771084 0.0420350730 0.1571873724 -0.1040534824 -0.1249628365 -0.2763547003 -0.1024517938 0.0562741831 0.0191837810 -0.1680236906 0.2261984199 0.0231430382 0.2139660716 0.6525570750 -0.1703783870 0.3340043128 -0.0095042242 0.0678346306 0.0997010767 0.2852173448 -0.2646688819 -0.0742351264 -0.0909063444 0.2676612437 0.0656780526 0.7820994854 -0.0631578565 -0.2083684057 -0.0007287795 0.3774451017 0.5707665086 0.3368265927 0.5041787624 0.3958980441 -0.0673427731 0.0031747352 0.1328399032 -0.0898194313 0.3598022461 0.4151963592 0.0057629719 0.6362286210 -0.1902941763 0.0107684778 -0.0223523770 -0.2123868316 -0.1135325059 -0.0947556794 0.4127545953 0.5590558648 -0.0027319584 -0.0987682268 -0.1139794290 0.2226944864 -0.0824449360 0.3112112284 0.5419468880 0.0619789958 0.5541493297 -0.1626473963 0.8214556575 0.0504252315 0.0191655941 -0.1270477623 -0.1817084402 0.0445296094 0.1196331605 -0.0439253449 -0.2291153371 0.0308490805 -0.0884193182 0.4544737935 0.1653856784 0.2919101715 0.0700746626 0.0721551329 0.1797331870 0.6577222347 0.1737844199 -0.0687671304 0.0366793610 -0.0100144222 -0.1066790521 -0.0829491019 0.9149100184 0.6875154972 -0.0925433710 -0.1644910872 0.4415549338 0.6181100011 -0.1671555042 -0.0297680367 -0.0314598605 0.0277468711 0.1571459919 -0.2579851747 -0.2010747343 0.0022491589 0.2905830145 -0.0333745144 -0.0788411945 0.3892557323 -0.0665264502 0.6564703584 0.3701415956 0.6074334979 0.0014475631 0.0227353815 0.0540043786 -0.0603253059 0.5719883442 -0.0217199586 -0.2426854223 0.1482577026 -0.1067912579 -0.0049900617 -0.1455988139 0.2047963142 0.9014943242 -0.1954817623 -0.0035755103 -0.0955823064 -0.0865587816 0.1208388507 0.2174417526 0.0717215538 -0.0982253104 -0.0966731980 -0.0876641870 0.0098002916 -0.0276444219
0ba0d1a1604d205db6fc0733fb40b092_F_0006_88.35_99.47 -0.0094021838 0.0265321042 -0.0847276226 0.4974521697 -0.1048933044 0.3873593509 -0.2397960722 0.8063452840 0.6535279155 0.1475412995 0.3697507977 0.0340547860 -0.1349358261 -0.1305802464 -0.1315457225 -0.0846377015 -0.0272984505 0.2074663788 -0.1134546846 -0.1352715194 -0.0284704845 0.3096447289 -0.2208453715 0.4288123846 -0.1582041830 0.1974491775 0.3765678406 0.7857398391 -0.0904146731 0.8783650994 -0.0049492158 0.0798079669 0.0286606140 0.0573683530 -0.1486230344 0.0901389122 -0.0650628582 0.1788307428 0.3163990974 -0.0219808053 -0.1389154643 -0.1826934516 0.3788990676 0.0790851042 0.2996070087 0.0071668718 0.6681478620 -0.1666640192 -0.3154818118 -0.2248594165 -0.1804410070 0.5424439311 -0.1356607378 -0.1336744279 0.7370325923 0.2777883410 -0.0465818197 0.1603185534 0.2633949816 -0.0195998978 0.0461368114 -0.0255377349 0.1748916060 0.0892361701 0.9106741548 -0.0081598368 -0.1092243865 1.1259294748 0.1253375262 0.2260620296 -0.2483967096 -0.1085313037 -0.2557440996 1.3144663572 -0.0708736256 -0.2059136182 0.3926512897 -0.3245798349 0.6408720016 -0.0857109129 0.0453685336 -0.2165523767 0.5817064643 0.0513033569 0.0504498631 0.6242845058 0.0725570619 0.0086630872 0.2603221834 -0.3005393744 -0.1363347322 0.4417192936 0.1724777520 -0.1995907724 -0.0643379837 0.7480833530 -0.4778638780 -0.0584583171 -0.1603073478 0.1511237919 -0.0986288786 0.0919346437 -0.1069552377 -0.1067768410 0.0323178694 0.1843819469 0.6333417892 0.0043437267 -0.2409081161 -0.0237365793 -0.2350134701 -0.2674434185 0.3838456273 -0.3256753087 0.1936614960 0.7060921788 0.7810687423 0.0538267754 0.4913339019 0.0032953224 0.0421096161 0.7256360054 0.0842795745 0.0443317294 -0.2101520598 1.1767390966 1.0975544453 -0.0577787235 -0.1984526366 0.0395001136 -0.0454437174 0.4953185022 -0.0305731744 -0.1617651880 0.4572159052 -0.0353564173 -0.3014803827 0.4338279963 -0.0935848579 0.8754962087 -0.0620743521 0.0317724869 -0.1699331999 0.5445008278 -0.0872372612 0.4705816209 -0.0195654072 0.5328612924 0.6879427433 0.0599913597 0.2396523505 -0.2845646143 -0.1849034131 -0.2124760449 -0.2384538651 -0.2157294005 0.6547322273 0.3586982787 0.5479619503 0.0534488298 0.2014231533 -0.2976389229 0.2939111590 -0.0465056151 -0.2461328655 -0.1670177281 -0.0691859499 0.7192667127 -0.0486745611 0.6849688888 0.3211325109 0.0034221346 0.0486678220 -0.1901718974 0.3282586932 -0.3327157497 -0.2123626322 -0.0773114860 -0.2218804210 -0.0312529542 0.0480654985 0.9201861620 0.0915268958 -0.2834632993 0.6025308967 -0.0525738224 -0.1624677628 -0.2277730107 0.1457518786 -0.1056743786 0.2628186643 0.1426858008 -0.1260176450 -0.0115022622 -0.2237879634 -0.1640353352 1.1380077600 -0.0411682539 0.8003680110 0.2590974271 -0.2193975002 0.3082240820 0.1003041640 -0.1426907480 -0.0457076766 0.8900942802 -0.1476766765 -0.1191824973 -0.0683397576 -0.0770939887 -0.0559020229 -0.2538317740 0.2674014568 0.1670654267 -0.0511030555 -0.0814951584 0.3834985197 0.0203754697 -0.0412307978 0.2943745255 0.2508938313 0.3694337904 0.4334172904 -0.0161496177 -0.2494783700 -0.2016489357 -0.1971088648 0.2508801818 0.0169418957 -0.2323088944 0.4051025212 0.5933277607 -0.2516870499 -0.0740967318 -0.2646673322 -0.0770875737 -0.1486100554 0.2139089406 0.3606739640 -0.0617634170 -0.2127821594 -0.0508861244 0.8687812686 -0.0767337680 0.0489158034 0.4101667404 0.2048179507 0.5888335109 0.3791265786 -0.2830057442 -0.0790097639 0.1614200175 -0.2385481596 -0.1243464649 1.4063808918 0.6711748838 0.3528338671 0.4593121409 -0.0460813381 0.3406181633 -0.1593987048 -0.0252468344 0.0131025901 -0.2097830474 -0.0059906673 0.5360238552 0.0318290144 0.1250292957 1.0110251904 0.3087246716 0.7736433148 0.6276529431 -0.0813793913 0.0212184563 1.3024734259 0.2581264377 -0.2207204998 0.1061061919 -0.3716504872 0.4578716159 0.2350104451 1.0165836811 0.1249713674 0.1415441781 -0.1929516047 0.3465512395 0.0238511972 0.0239206720 -0.0254848953 0.3799658120 1.4105268717 -0.0928545371 -0.1467655450 -0.1397370994 -0.0439131334 -0.0161201824 0.5981512070 0.1531191468 0.8010889888 0.4977780581 -0.1075316444 0.8660055995 0.0018941835 -0.0528322197 0.1206706613 1.0860451460 -0.1283149123 -0.0750026926 -0.0576661229 0.1879988611 0.7531113029 1.0324883461 0.2054934800 -0.0437846854 0.1832702309 -0.0606520474 0.0658335835 -0.0255662426 -0.1084153801 -0.0328677595 0.0448119119 -0.0231902469 -0.0727698728 -0.0947183818 1.3389791250 -0.1440864354 0.7847454548 -0.0673389509 -0.0834721848 -0.2589327693 0.7256546617 -0.0550914332 -0.1456032693 -0.0220833980 0.0200453475 -0.0481821150 -0.1314117312 -0.1363967955 0.0080950093 -0.0838982090 0.2665185630 0.6763762832 -0.3689802587 -0.1179093793 0.3448943496 0.2799362838 0.7392383218 -0.1744921505 0.1005785018 0.4666558802 -0.3146407902 0.2074269652 0.3214964271 -0.2213906646 0.0622359887 0.4029248655 0.1049610972 0.2151499391 -0.0730235726 -0.0829769745 0.1238895357 -0.0396783985 0.0703311786 1.2678512335 -0.0516146868 -0.1952113360 -0.1856508106 -0.0990646854 -0.1260656416 0.2417535335 0.2346900105 0.0700648054 -0.1534601450 0.3082902431 0.6388445497 0.1210280210 -0.1950124204 0.1946979761 -0.0744943619 0.5839326978 0.2368889302 -0.0134818153 -0.2095738649 0.3099217117 -0.2142021358 -0.1091344059 0.4907441139 -0.0556681640 -0.0968185067 -0.0505076535 -0.2305129319 -0.0364397429 0.1412008852 -0.2879831195 -0.1402852386 0.3849115670 -0.0966430753 -0.1018492877 -0.0405531786 -0.1478631496 -0.2475367635 0.3716276288 0.7396529317 0.3205808103 -0.0404065065 1.2580395937 0.3684601188 0.9084748030 -0.1085823476 -0.2420316041 -0.0519693419 -0.1750137359 0.7010379434 -0.0082012359 0.0670146644 0.5305655003 -0.0774417371 0.4867834747 0.7945526838 -0.0511807725 -0.2257776707 -0.2436559647 -0.1762768924 -0.2298183441 0.0032816420 0.2923923731 0.6247512698 0.0035740025 -0.0278559458 -0.0942219943 0.2622111142 -0.0615406893 -0.0636940375 -0.1657489836 -0.2317796499 0.4025002122 0.0799973011 -0.2338779420 -0.1468043625 -0.0436092168 -0.0602067746 -0.1716382205 -0.0646052435 -0.0668154061 -0.0720961690 0.9252952933 -0.0131381731 -0.0415279493 -0.0467223339 -0.1751080453 -0.0598946139 0.0988676995 -0.1348082721 -0.0539801419 -0.2153569460 -0.0763657391 0.4087812901 0.0258489139 0.3930705488 -0.1077171713 0.4758752584 -0.1551099271 -0.0705613643 -0.0479113311 1.1690115929 -0.0530475900 0.0925202593 -0.0714000985 0.5222075582 0.2434637994 0.0772968233 0.1862048209 -0.1189261079 -0.1355455220 -0.3126690686 -0.1301379949 -0.1083213761 0.0400864929 -0.1570377201 0.2514935732 -0.0894841701 0.2582716644 0.7535687089 -0.2170056701 0.3496225178 0.0128822448 0.0946656913 -0.0571413487 0.2008930445 -0.2890940011 -0.0593146905 -0.1056607962 0.1509285122 0.0658821613 0.8231769800 -0.0547844917 -0.3001539111 -0.0081902472 0.5430424809 0.6384643316 0.3150469959 0.7069169879 0.4396398664 -0.0327672698 0.0749591067 0.2404378951 -0.1826199293 0.2652566135 0.5963044167 0.0108795604 0.8809283972 -0.2135029137 -0.1702681929 -0.2039676756 -0.2241510004 -0.1108386889 -0.1020328999 0.5655677319 0.6428334117 -0.0931358114 -0.0976124778 -0.1268962026 0.3395764828 -0.1913966984 0.5080829859 0.7107670903 -0.0422039963 0.5830027461 -0.1891369671 1.0857919455 0.0364501812 0.0298984796 -0.1345719099 -0.1781298965 -0.0219949298 0.0425492004 -0.0721726641 -0.2587604821 -0.0117316842 -0.0270351209 0.4531016648 0.2045128495 0.3691331744 0.1267158985 0.0381104387 0.3553383052 0.5573499799 0.2288219184 -0.0489237830 0.0228392370 -0.1508765966 -0.1679771841 -0.1041253358 1.0716319084 0.9094719291 -0.0909081921 -0.1743521243 0.5117024779 0.8810259104 -0.3151511848 0.0321165323 -0.0948546827 -0.0160445943 0.2105416059 -0.2945582569 -0.2502411902 -0.0324984714 0.3264458776 -0.0330136567 -0.0799810439 0.4928638935 -0.0486692488 0.8147818446 0.4093886018 0.6635944247 0.0072205188 -0.1071577668 0.0574077815 -0.1191455722 0.7185972333 -0.0175407231 -0.2504061460 0.1770171821 -0.1155518666 0.0292211715 -0.1436176896 0.2504761517 0.9509674311 -0.1975543797 -0.0574334823 -0.1040723994 -0.0905344263 0.2030832618 0.2849136293 -0.0132112019 -0.0937834159 -0.0951135606 -0.1101880446 -0.0021221256 -0.0339084044
0bd60a1636689f28b69c2217ac944418_F_0002_675.19_680.53 0.1158467978 0.2883177102 0.1036471575 0.6048726439 -0.1837035120 0.5593400002 0.5851612687 0.0975956619 0.1497877240 -0.0633947551 0.1169098318 -0.1003755182 0.1638821065 0.3220564723 -0.0639832690 -0.0368090793 0.0364014171 0.5395258665 -0.1380838454 -0.2139248401 -0.1060844064 -0.0650863275 -0.1443422437 0.2648609877 -0.1158658937 0.3558830917 0.1615219563 0.8402116895 0.2444032133 1.1199513674 0.0986425728 0.1862607747 0.9104529619 0.0608872883 -0.1816398650 -0.4013738930 -0.2045501173 0.6308235526 0.5544254780 0.2288661003 0.3301371038 0.2659295499 -0.0709697157 0.2775008082 -0.1102852151 0.7532784939 0.0030396562 0.6354260445 -0.1925512552 -0.2983494401 -0.0984250307 0.5544295311 0.4101527035 0.2939427197 0.1728531718 -0.0937597901 -0.3537436128 0.4620515704 0.2771950066 -0.0039373501 -0.0196155626 -0.0182375088 -0.0637695715 0.3227266371 0.4524187446 -0.3318164647 -0.0934346095 0.2335819602 0.7577644587 0.0558262542 -0.1201958209 -0.0509704165 -0.1584521830 0.3222611248 0.0289124101 -0.1898279339 0.2604736388 -0.2511708438 -0.0026285518 -0.0276381671 -0.1517430693 0.3128739297 -0.1381292641 -0.0727102235 0.6607015133 0.1519045681 0.6433703899 -0.1949043721 -0.0760026202 -0.1764682978 -0.1543728709 -0.1593616754 -0.2908623219 -0.1212827265 -0.1385807693 -0.1859173477 0.6140019894 -0.1019577235 -0.0425868407 0.6468867064 -0.1131985933 0.3212201893 -0.2051160932 -0.1848369241 0.5281540155 -0.0620231368 0.5674045086 -0.1241472065 -0.1158238277 -0.0054558390 -0.2082757354 -0.0992746577 0.0794146806 0.5385618806 0.2799770534 0.2761750519 0.1577558666 -0.0471478514 0.6344289780 -0.1052040681 -0.0636706799 0.8942478895 -0.1426184475 0.1932017505 0.3566804826 0.8138396144 0.2163095176 -0.0538600199 -0.0530124754 0.5679411292 -0.2820100486 0.3195331097 -0.1283154190 -0.1757532805 0.1410011798 0.2268412560 -0.2523243427 0.0004030410 0.2156563848 0.1333956122 0.1061087176 -0.0475249924 -0.0620915741 0.0268510059 -0.0572127178 0.1047743112 0.4238419533 0.1680876017 0.1204323322 0.1553339064 0.2121975273 0.4293920398 -0.2162920386 0.1993103474 0.2960900664 -0.1488598287 0.0698595345 0.5476201773 0.4759224951 -0.1420010924 0.0303455852 0.3440130055 0.0338254757 -0.2695222497 0.4206707478 -0.0553533919 -0.0797005147 0.1442005783 -0.1188012138 0.1356286108 0.0569121242 -0.0641957819 -0.0966741517 -0.1816874444 0.0857273266 0.4801783562 -0.2854569256 -0.0878067911 -0.1579344869 0.1155439168 0.1865431666 0.2316961288 0.2131081074 0.5730609894 0.1882562041 0.0602538139 -0.0806978568 0.2491349727 0.0087178685 -0.0605653897 -0.1296056509 0.1578899920 -0.0412986428 -0.0042047482 -0.0738008171 -0.3113655448 1.2196390629 -0.0640039593 1.1244128942 -0.0716946945 -0.1755054593 0.3659834564 -0.0291492734 0.2378439903 -0.0444962047 0.2950230241 0.2560881972 0.2120724767 -0.1053987294 0.2909646034 -0.0842112675 0.2296767086 0.5062208772 0.1997231543 -0.0592340566 -0.0686382502 0.8987232447 -0.1350028962 0.1452029198 0.0371799543 0.0083885510 0.2173284292 0.6030471325 -0.1852920949 0.2760657072 -0.1578858346 0.4071815610 -0.3093482256 0.2557324767 -0.3069946468 0.5041382313 0.4094454348 -0.2298536748 0.0811670274 0.4215602875 -0.1238878891 -0.1467585862 -0.0581238791 -0.1382302344 -0.0032152729 -0.1308805943 0.3562243581 -0.0350080952 -0.1086887121 -0.0964031890 0.0098219495 0.0363173895 -0.0867358148 0.1772757918 0.2728225291 0.1685561836 0.0228918605 0.5134115815 -0.1981291771 0.2652831972 0.3945381343 0.0772133768 0.0294230655 -0.1202787533 -0.1573277712 -0.0449064337 -0.1191158816 0.2507828772 -0.1536612511 0.8428819180 0.7473124862 0.0044874698 0.0115671055 -0.0363989696 0.2400943339 0.0739817247 0.7680174708 -0.1208131313 -0.0965703577 0.2658167183 0.3571517169 -0.1286948025 0.4096455276 0.3654486835 -0.0450880602 -0.0303410441 0.2964335978 -0.4641118646 0.0243430473 0.1176803038 0.1561490893 0.2608537972 -0.0956646428 0.0396338031 0.1150638834 0.3366941214 -0.1225761920 0.4569770098 -0.1291737407 0.0780723765 -0.0808703750 0.5257245302 0.2876958847 0.3159321547 0.6344462633 0.1186422333 0.8561486602 -0.1170264333 0.0361788161 -0.0892829597 0.2615550756 -0.2079427540 -0.1934988052 -0.1344876140 0.2720987797 0.1491382718 0.1408492178 0.0215500295 -0.1321226954 -0.1545957029 0.5506336689 0.0760565549 0.0075438917 -0.0933779925 -0.1527939886 -0.0354500823 0.2784056664 -0.0528352410 -0.1977967620 1.0664122105 -0.1709561944 0.3226465285 0.1120747402 0.3000554144 -0.3025019169 0.0714174286 -0.1009395123 -0.1553768218 -0.0062053651 0.0475000478 -0.0698175803 -0.1740791798 0.0465463288 0.0795995742 -0.1052970663 -0.0703066885 0.1150703505 0.3842902184 -0.0687304586 0.2103995830 -0.0930124968 0.1960794777 0.3894224167 0.7279100418 -0.0755074248 0.4333620667 -0.1579792500 0.3847474158 -0.1883797348 0.0084472094 0.1023071706 -0.1432210058 0.0212661326 -0.0641804859 -0.1235515773 -0.0070884707 0.2751610279 0.0865927786 0.3750708699 -0.0750840008 0.2179368138 -0.2752153873 0.1846374422 -0.0256592650 -0.0676933676 -0.1482945085 0.0936268345 -0.1385328025 -0.0826072618 0.2340084016 -0.1572485715 -0.2334693670 0.2888265550 -0.0043364568 0.7110257745 0.1792125553 -0.0342611261 0.5754013062 0.2695721090 -0.1024083868 0.1743361950 0.5414513350 -0.0524059124 -0.1427243054 0.1907128841 -0.1962615997 -0.1720162034 0.6532580853 -0.2011224478 -0.1052042991 0.3332764208 -0.0040949397 0.0337343626 -0.0821371675 -0.1000844091 0.1653779447 0.1014041156 0.1202906445 0.4808997214 -0.2087234706 0.2084158063 -0.0674470812 0.2242122591 0.0051886477 0.3975193202 0.2495583594 0.1310785413 1.0137438774 -0.0728184581 0.2488048077 0.1287605464 -0.1075659022 0.0023500137 0.3815786541 -0.2736777961 0.3361833394 -0.2920448184 0.1677854955 -0.1557161510 0.7339298129 0.2508923709 -0.1710325480 0.4575437903 -0.0241027679 -0.0756646320 -0.0458302200 0.0377369262 -0.0132671641 -0.1681950837 0.4460891187 0.7478945255 0.3018991053 -0.2390100956 0.2704652250 0.1068279818 -0.0926452279 -0.1292345822 -0.2059291303 -0.1080980301 0.6976596713 0.7886644602 -0.1471234560 0.4101423621 -0.0138123371 0.3914351761 -0.0978004187 0.1858209521 0.2938335538 -0.1403619200 -0.0092143603 -0.1450943798 -0.0917867571 0.1281017065 0.2685586214 0.6778625846 0.3664979935 -0.1108521670 0.2817504406 0.1926908940 0.2866135836 -0.0935625210 0.4879966080 -0.1073316038 0.0862320811 0.0703068301 -0.0293551926 0.2261342108 -0.1395911574 -0.3044755757 -0.2945882082 -0.1267039180 0.3833526671 0.3190612793 -0.2482081503 0.2713509798 0.3413086832 0.4467321932 0.6681924462 -0.0741463229 0.0342900790 0.0464987606 -0.1808796525 0.5322995186 0.0010864586 -0.3216041923 -0.1251864284 -0.1029953137 0.4219035208 0.6627853513 0.2306367010 -0.1005692035 0.5965349078 0.2062723935 0.1288687140 0.5722995996 0.9077138305 0.1492304653 0.8482849002 0.1025358289 0.0368226320 -0.1013657451 0.3130803108 0.5637053847 0.0668984056 -0.0714801252 0.2176110893 -0.1465217173 0.1595573872 0.7918611169 -0.2327606678 0.3075732887 -0.0509735830 0.0153362770 -0.0180746671 0.2990420461 -0.0653488636 -0.0732854903 -0.1641605496 0.4316061437 0.3393101990 0.1538710445 -0.3241037428 0.3432868123 -0.1172445565 0.4954329729 -0.1007433534 -0.0986088812 -0.1940621585 -0.1762098372 0.0063963449 -0.1154210269 -0.0299806800 -0.2122626305 0.5319268703 -0.0335005336 1.0243077278 0.2426084280 0.5012302399 -0.0743396208 0.1255099028 0.0913220420 0.7954512239 -0.2661178708 0.1714083254 -0.2201143056 0.7215543985 0.1384875476 -0.1268255711 0.3272598088 0.3859729767 -0.0718108490 -0.0983806774 0.0282587316 0.2987401783 0.6565798521 -0.0291680861 0.7550808191 0.4451620579 -0.0569040030 -0.2056306750 -0.1018076539 0.1584828496 -0.0898618624 -0.0464913435 -0.0497248694 0.0708965734 -0.0937630162 0.8061941266 -0.0148129873 0.4494898617 -0.1243536919 0.1563526988 -0.0640408993 -0.0080911405 0.3905915320 -0.0781630129 -0.2586221695 -0.0458843485 0.0092169503 0.0460043103 0.2297644913 0.1244575903 0.3119048774 -0.2356186658 -0.1654978395 -0.1024145558 -0.0435081348 0.1748899817 0.3852151036 0.7442634702 -0.1448377371 -0.1092909575 -0.0398433022 -0.0047925999 0.0524938479
0be431904f423fe6eab892ec9853c67c_F_0010_245.46_255.15 -0.0025986116 0.0538959801 0.0087960716 0.2914600372 -0.0580897443 0.2802184224 0.0034545697 0.6653690934 0.5091156363 0.1280059814 0.3049361110 0.0201465059 -0.0825260803 -0.0529352948 -0.0987387076 -0.0976434276 0.0994115025 0.2176712751 -0.0866398662 -0.1185240075 0.0880714133 0.3077787757 -0.1672348380 0.3344347477 -0.1272309870 0.1018821076 0.3106752038 0.5216369033 -0.0337085798 0.6503155828 0.2240497023 0.0672853589 0.0311948806 0.0232607611 -0.1323063821 0.2314680070 0.1178454161 0.0973394662 0.1825601608 0.0129540749 -0.1232540980 -0.1361580342 0.3436014354 0.2113892585 0.2876927555 0.1042469591 0.5259432793 -0.1062302291 -0.2569221556 -0.1962000281 -0.1552011669 0.3908188343 -0.1058764905 -0.0852788612 0.5997249484 0.2493137568 0.1960066259 0.0834037736 0.2490130663 -0.0245944206 0.1233581230 -0.0534436144 0.1192844436 0.0623157620 0.7040237784 0.0500017107 -0.0906292349 0.8617190719 0.1299938560 0.2197736800 -0.2048820406 -0.1030304134 -0.2241460383 0.9008218050 -0.0634127855 -0.2013543993 0.3097771108 -0.2666019201 0.5807675719 -0.0792001560 0.0482924320 -0.1565591395 0.5387961268 0.0620244034 -0.0345194750 0.5099990964 0.0758100599 -0.0116825784 0.2924587727 -0.2339833379 -0.1340054274 0.4136532545 0.2820728123 -0.1571053565 -0.0694833025 0.7015960217 -0.3784568310 -0.0458627082 -0.1465241015 0.1138430610 -0.0899540260 0.0289413370 -0.0412046127 -0.1256206930 -0.0073115304 0.1194578409 0.5502247810 -0.0208337046 -0.1681931913 -0.0353458822 -0.1873800904 -0.2437794507 0.2319675535 -0.0784521848 0.2065021694 0.6249177456 0.4910829067 0.0762400553 0.2892685235 0.0143537652 0.0831448585 0.5706067681 0.1326660812 0.1055338010 -0.0308389924 0.9165968895 0.6656674147 -0.0392776318 -0.1655837297 0.0915911347 0.1176582426 0.3556529880 0.0623634122 -0.1593844295 0.2787431479 0.0383919924 -0.2448144853 0.3821290731 -0.0738431364 0.7852410078 -0.0475078858 0.0465282649 -0.1352557987 0.4256228507 -0.0645826161 0.3501197398 0.0827876478 0.3198484480 0.4615330100 0.0929231942 0.2260856926 -0.1747694463 -0.1607076526 -0.1700627059 -0.1744670272 -0.1575918198 0.4841646254 0.2977918684 0.4412756562 0.1061129645 0.1745886058 -0.1814909726 0.2623673677 0.1076769233 -0.1781377345 -0.0920579880 -0.0719679445 0.5569689870 -0.0484990329 0.5457990766 0.2741001844 0.0635064915 0.0703431368 -0.1459053606 0.2202371657 -0.1109521240 -0.1259759068 -0.0675931126 -0.1946127415 -0.0253198203 0.0319188572 0.5992299914 0.0319012366 -0.1521027535 0.3853282630 -0.0403759927 -0.1176233068 -0.0755821839 0.1174608469 -0.0725171119 0.2801186740 0.1077817529 0.0071170926 0.0119608501 -0.1978607774 -0.0783090666 0.7385460734 -0.0510257706 0.4889027178 0.1697928309 -0.1748566478 0.2269550264 0.0870929733 -0.0656162500 -0.0453669764 0.6173289418 0.0073777717 -0.0858475119 -0.0737604722 -0.0379288830 -0.0555141009 -0.2006083727 0.2076654285 0.1323211938 -0.0462698415 -0.0860274211 0.2292098552 -0.0286815222 -0.0400371328 0.1900635809 0.2121215016 0.2210941464 0.2911317348 0.1187758222 -0.0307284426 -0.1718218178 -0.1797852665 0.3427951038 0.0307286158 -0.1081629023 0.3332277238 0.4158079326 -0.1983918697 -0.0680984557 -0.0724681169 -0.0671123117 -0.1126130149 0.1931580752 0.3567385674 -0.0581518486 -0.1847324371 -0.0165394694 0.7542462945 0.0635487139 0.0440375805 0.2582547367 0.1363831013 0.5038422346 0.2372578233 -0.0382161774 0.0012116630 0.1919301748 -0.1815132499 -0.0301786289 1.0393247604 0.4792320728 0.2987938225 0.3306156397 -0.0450485498 0.3322597742 -0.1271484792 -0.0278424937 0.1537355036 -0.1607186198 0.0083378367 0.3670905232 0.1502784342 0.0770307332 0.8462185860 0.2804869413 0.6423576474 0.3808528483 -0.0924495906 0.0206756201 0.8528044224 0.2172537148 -0.1974783391 0.2478993833 -0.2838582993 0.3370597363 0.1568936855 0.7433296442 0.2941947877 0.0915174633 -0.1327181011 0.2312230766 -0.0038082821 0.0034820659 0.0960253179 0.2281377614 1.0269676447 -0.0976925716 -0.0310761649 -0.0212535970 -0.0326015949 0.0089066532 0.4435759783 0.0825677440 0.5826898813 0.3845167160 -0.0418892056 0.6823655963 0.1239343733 -0.0059025446 0.1508480757 0.7483028173 -0.0589098893 -0.0923869982 -0.0503855273 0.1084124371 0.5420892835 0.7895278931 0.2239286602 -0.0359319523 0.1807534397 0.0454210117 0.0518331751 -0.0139568411 -0.0693965703 0.0566033572 0.0736648813 -0.0101844016 -0.0688296109 -0.0849341303 0.9044963121 -0.1185199469 0.4791027904 0.0258236807 -0.0587593168 -0.1594430953 0.5761431456 -0.0573638380 -0.1134136990 0.0368227214 0.0853122920 -0.0503790751 -0.1030508727 0.0559253655 0.0636934415 -0.0807932988 0.2601539493 0.5042176247 -0.2748797536 -0.0800251737 0.2735760808 0.2592012584 0.5590790510 -0.0992507488 0.1655937731 0.3891597986 -0.2008008361 0.2661964297 0.2146185338 -0.1528844535 0.0527852848 0.2891684473 0.1168016717 0.3347652555 -0.0727189556 -0.0088750040 0.0963502452 0.0460348055 0.0923733786 1.0139230490 -0.0788926929 -0.0800949857 -0.1741791964 -0.0288798846 -0.1274710745 0.1831295639 0.2316656113 0.1397890747 -0.1178707480 0.3108440340 0.6106954813 0.1697527170 -0.1773018837 0.1701844484 -0.0812942088 0.3374997079 0.1849841774 -0.0145122847 -0.0233221762 0.2703872025 -0.1583233476 -0.0818369463 0.3063505888 0.0677674860 -0.0671172589 0.0100059984 -0.1963539571 -0.0326961800 0.1222597137 -0.2762378752 -0.1104194671 0.3232860863 -0.0953581482 0.0349752158 -0.0274350327 -0.1097959429 0.0244500544 0.2970316410 0.5973477960 0.2912639380 0.1379757524 0.9388608932 0.3110055029 0.6826570034 -0.1074297577 -0.2084886730 -0.0864547044 -0.1062392890 0.3962968886 -0.0026561352 0.1250914186 0.3488331437 -0.0508475825 0.4278654158 0.6708963513 0.0286486745 -0.1395106912 -0.2116619796 -0.0881545767 -0.1813039333 -0.0646357983 0.2274684906 0.5422758460 0.0439937562 -0.0524919033 -0.0939669982 0.3003618121 -0.0426689349 -0.0555785522 -0.1309005022 -0.1885717213 0.3344321549 0.1733797491 -0.1931178272 0.0996693224 0.0263475329 0.0791360289 -0.1104040891 -0.0811095536 -0.0621636547 0.0388330296 0.6493762732 -0.0258734282 0.0857730061 -0.0367210843 -0.1185315326 -0.0636067912 0.0951489881 -0.0107149798 0.0496111736 -0.1732901186 -0.0704020411 0.3463356495 0.0023607509 0.2878654003 0.0275356527 0.3338974118 -0.1553739756 -0.0439606830 -0.0000497834 0.7720389366 0.0096605532 0.0748551860 -0.0654570162 0.4431257844 0.1750567406 0.1374750584 0.1373974979 -0.0894193351 -0.1026171595 -0.2463854551 -0.1113895103 0.0319788344 0.0245425049 -0.1675436199 0.1672953963 -0.0558623001 0.2253120244 0.6112719178 -0.1618534625 0.2467800677 0.0400551893 0.1665932238 0.0200277753 0.2431470454 -0.2362523377 -0.0522443689 -0.0803480372 0.2601439059 -0.0259114802 0.6583338976 -0.0665319636 -0.2727651596 0.0005020387 0.3459815383 0.4113213718 0.2226733416 0.4887176752 0.2257879674 0.0090627577 0.1056870446 0.3392220438 -0.1211359501 0.2551797032 0.4227048159 0.0115863252 0.5824035406 -0.1597776413 0.0531232283 -0.1319288909 -0.1725572348 -0.0787954256 -0.1071470752 0.4820417166 0.4782727659 -0.0276482888 -0.0921421498 -0.0744337738 0.2595957816 -0.1515751034 0.2985840142 0.5066137314 0.1592518091 0.4541871548 -0.1467167586 0.7400351167 0.0849124789 0.0682328790 -0.1130840406 -0.1485690325 0.0571794063 0.1722370535 -0.0484773740 -0.1909928918 0.0108275227 -0.0368789397 0.2923909724 0.1447434574 0.2660021484 0.2234205753 0.1147910804 0.2045336515 0.4717915058 0.2858227789 0.0105034038 0.1068499163 -0.0298668928 -0.1310789287 0.0257271398 0.7074486017 0.6501454115 -0.0805869251 -0.1506609768 0.4175101817 0.5715858340 -0.1408947110 0.0573767647 -0.1513499469 0.0426758155 0.1370871812 -0.2520440519 -0.2054502815 -0.0199101362 0.2433545887 -0.0376742780 -0.0938485488 0.3508818746 -0.0658087507 0.6105735302 0.3375224471 0.4542999566 -0.0211426653 0.0033197030 0.0664481819 0.0568238348 0.5340548158 -0.0240084045 -0.2121688128 0.1229556203 -0.1051299125 0.0117039960 -0.1204462498 0.1601325721 0.7934423089 -0.1761889905 0.0931101367 -0.0820134953 -0.0848915651 0.1579859406 0.2283748686 0.0288954545 -0.1015008390 -0.1035922617 -0.0942537040 0.0081990538 -0.0449624918
