0363c7d018d5ff957280a026e13f51a5_M_0014_214.92_230.72 0.0690902770 0.2363822460 0.0829671696 0.2952688932 -0.1202914789 0.3439705968 0.5583363771 0.5354871750 0.3811902106 -0.1513218433 0.2062828392 -0.0512012839 0.0737748966 0.2653290629 -0.0564966127 -0.0791027620 0.3052064478 0.5962068439 -0.0567333922 -0.1955731362 0.1888170689 0.1797102392 -0.1417685151 0.3127122223 -0.1364369392 0.0981371328 0.3211790919 0.5331032872 0.0912023634 0.9580826163 0.6978724003 0.1230001003 0.5215336084 0.0348307490 -0.1635632962 0.1762575954 0.2606024146 0.3354452848 0.2817672789 0.1946905106 -0.0902049839 0.0620322451 0.1926012784 0.5213295817 0.0288418196 0.6080271006 0.0985072032 0.2551447451 -0.2197925746 -0.2569054961 -0.1337762326 0.4857147932 0.1964232177 0.0760749653 0.4976168573 0.1057549939 0.2570788562 0.2270148546 0.4044594765 0.0070536309 0.2519938946 -0.0839483216 -0.0149809429 0.0309012905 0.6581360698 -0.2211767733 -0.0931948274 0.4382661581 0.4799036682 0.0526610501 -0.1922901124 -0.0812845752 -0.2264430374 0.2788545191 -0.0104070716 -0.2589451969 0.3180488050 -0.2537656128 0.4851867855 -0.0710181668 -0.0439685173 0.0399997830 0.3298971653 -0.0786659867 0.1787367612 0.1349030584 0.4097962677 -0.1607879102 0.0408724770 -0.1923497766 -0.1639225036 0.0606283620 0.2608354986 -0.1400009394 -0.0911969170 0.5072767138 0.2278270423 -0.0703391358 -0.0762800872 0.4693256617 -0.1161642224 0.0920183435 -0.0528011136 -0.1962711513 0.1185576841 0.0053563179 0.8081336617 -0.1270541251 -0.0850808322 -0.0697895810 -0.1672130674 -0.1887630373 0.0279003736 0.6156364679 0.3955862224 0.7117550969 0.1514414251 0.0695821866 0.1837135851 -0.0223334376 0.1201357991 0.9603405595 0.0462843142 0.2103572637 0.3301318884 1.0343931913 0.1227618158 -0.0847900808 -0.0909876749 0.4692606628 0.1170262247 0.2754406333 0.1353866309 -0.2053099573 0.0774404258 0.2737561166 -0.2260216773 0.2739194334 -0.0587688759 0.7678844333 -0.0834509432 0.0552806966 -0.0760018826 0.1545913666 -0.0356655121 0.1608594656 0.5749744177 0.0926654413 0.0948605090 0.2764417827 0.3240147829 0.2011404335 -0.1995981783 0.0112079792 0.0199219938 -0.0969200060 0.2071913481 0.5674878359 0.6013094783 0.1371521950 0.1798101217 0.0674485415 0.2094203234 -0.0690845996 0.0045327293 -0.0377239995 -0.0939040855 0.2051221579 -0.0970496982 0.4215806425 0.2557183802 0.1375308484 -0.0173926465 -0.1522819251 0.0007618342 0.2852727771 -0.1834855825 -0.0880696252 -0.2025429308 0.0727786124 0.0670969337 0.1047286838 -0.0016683878 0.3011427224 -0.0333845913 -0.1839300841 -0.0805377737 0.2282219380 0.0706299990 -0.0645637363 0.2613432705 0.1021496430 0.0235481709 0.0356125757 -0.2005482316 -0.1522377580 0.7971580029 -0.0764752254 0.5065131187 -0.0143304877 -0.1791499704 0.1260127723 0.0047363178 0.2032996863 -0.0697516501 0.1946292222 0.3984502852 0.0355203860 -0.1470696628 0.1451362818 -0.0966571346 0.0641217083 0.4420314133 0.1291536093 -0.0656556115 -0.0947338417 0.4774893522 -0.3852289915 0.0061034150 0.0154195465 0.1305250376 -0.0669804364 0.4201490581 0.2577558458 0.3601005077 -0.1892231405 0.1092019007 0.0982844681 0.1132115200 -0.1431461424 0.5269944072 0.3394822180 -0.2019032538 -0.0617783964 0.3765739799 -0.0942161828 -0.1463119090 0.0556795970 0.1254269183 -0.0338250287 -0.1447737813 0.2605079114 0.5320298672 0.1545898318 -0.0242057163 0.0308602192 -0.0616096333 0.2757704854 0.0523403063 0.4457623661 0.2516608238 0.2431570292 0.1677557230 -0.1877537221 0.5496543050 0.4097704589 0.2266043872 0.1175173149 -0.0992977619 0.1104227081 -0.0925655887 -0.1057173386 0.5356097817 -0.1396002620 0.5358921289 0.5120428801 0.2430680990 0.0205332115 0.4007033110 0.4092541337 0.4876136184 0.2391433418 -0.1773338020 -0.0509513132 0.2036655247 0.3665502667 -0.1803787947 0.7521288991 0.1002348959 -0.1451819837 0.0056966739 0.2558584809 0.1482109129 0.0120592536 0.0324079171 0.0042518545 0.0286283158 -0.0608800277 0.3088260591 0.0483536310 0.5642241240 -0.1021937579 0.2534652054 -0.0651408136 0.0142748933 -0.0027880841 0.4944669902 0.0778787136 0.3170492351 0.4531268477 0.1680039912 0.9372691512 0.1653677076 0.0412331559 0.0633216500 0.2136649936 -0.0789567754 -0.1876321286 -0.1033115089 0.1235682219 0.2446481287 0.3154608309 0.3027275503 -0.0564345010 -0.0498133339 0.5552831292 0.0270704217 -0.0142940171 -0.0543786772 0.0154780168 0.0703732446 0.0291145984 -0.0647186264 -0.1288606226 0.6779313087 -0.1803006530 0.2266982645 0.0654066056 0.1466011107 -0.1751440018 0.2412180007 -0.1005098373 -0.1086295918 0.1108263582 0.2289488316 -0.0794668868 -0.1292300969 0.1600932926 -0.0246150289 -0.1136567742 0.1486898810 0.2403003871 0.0847161934 -0.0719287395 0.2724574804 0.0964343548 0.3534713686 0.1273739040 0.5221384168 0.0793091059 0.2597224116 0.0783186257 0.1378100067 -0.1340752691 -0.1217072681 0.0226056240 -0.0845109224 0.5581062436 -0.0849954784 -0.0549173839 -0.0140061472 0.3939744532 0.1250372529 0.8326008320 -0.1145613119 0.1390758306 -0.2724063396 0.1741501987 -0.0743383169 -0.1739019752 0.0358266085 0.3258060515 -0.1190042049 0.0962692201 0.5602000952 0.0240294114 -0.2538588643 0.2223273516 -0.0392892621 0.1798857301 0.1410432607 0.0028830494 0.5137423277 0.3851688206 -0.1052706689 0.0688425004 0.2569267154 0.2251499593 -0.0777269602 0.1736907661 -0.1908800751 -0.1058548018 0.4251273572 -0.2998725772 -0.1026276723 0.4209221005 -0.0696768463 0.2236112654 -0.1193190143 -0.0882301182 0.5251038074 0.2437347621 0.4081463516 0.5744377375 0.2007929087 0.4518350363 0.0889006555 0.4025722742 -0.0783952177 0.0964159295 -0.2141991258 0.0455698073 0.3830032647 -0.0243841037 0.4100803435 -0.0617584214 -0.0819693655 0.0760644004 0.7278633714 -0.0249523222 0.0011715945 -0.2918496728 0.1190932319 -0.1481103003 0.3324300051 0.1344026923 0.2077062428 0.4541212320 -0.0469288044 -0.1052258909 0.0537308380 -0.1583362669 -0.2031918019 -0.1351241022 0.0063722301 0.6592190862 0.5266160965 -0.2087622434 0.4784140289 0.1894808859 0.1454056650 -0.0876011327 -0.2099752277 -0.0848054439 0.5703620911 0.6438418627 -0.1038643271 0.5043756366 -0.0142938234 0.2289507389 -0.0974755734 0.2007135302 0.3718857765 0.1423154026 -0.0964153782 -0.1243964583 0.1493467689 0.0070100604 0.2467822880 0.5789380670 0.2321643829 -0.1830603927 0.1705782413 0.1553894430 0.0138564352 0.0375584513 0.3507475257 -0.0939918458 0.2970851958 0.0223851483 0.0753620267 0.0489838123 -0.1271258891 -0.1728339046 -0.2607797980 -0.1041091457 0.5118394494 0.0848267749 -0.2234432548 0.0813467205 0.2207579613 0.3596999049 0.7136237025 -0.0986129642 0.1016889513 0.0054313531 0.1091384292 0.4923194945 0.2353673279 -0.2943001091 -0.1082811356 -0.1023082063 0.7856895328 0.1469887793 0.4963048398 -0.1115238667 0.1148214117 0.0338871889 0.0183973089 0.3823678195 0.6102427244 0.0807053521 0.3061671555 -0.0526832156 -0.0096890926 0.1766228825 0.0816502422 0.6246746182 -0.0046668369 -0.0311264619 0.0784005895 -0.1570196748 0.5103185177 0.5200297832 -0.2100123316 -0.0236365888 -0.1134969294 0.2391678095 0.1541354060 0.2552041709 -0.1173641458 -0.0486847535 -0.1694068015 0.2039212286 -0.0064681862 0.1602885276 0.2552244365 0.4261717200 -0.1185075641 0.3220064640 0.0728804767 -0.0085386029 -0.1609005928 -0.2066044956 0.1589450836 0.3288394511 -0.0441630147 -0.1681157500 0.3071039915 -0.1641244739 0.6208193302 0.1453915089 0.0659528002 0.1003547758 0.2943986356 -0.2039859891 0.8288308978 0.0836541504 0.0019884249 0.0974072441 0.4989387393 0.0437882319 -0.0274023023 0.2996241152 0.3002000451 -0.1102127731 -0.1150506511 0.2184942514 0.0898013785 0.3386582136 -0.1086338758 0.2310504913 0.3050692379 -0.0531134978 -0.2367402464 -0.1315308660 0.0684205368 0.0660335049 -0.0609921589 -0.0988959298 0.0613692254 -0.1155582145 0.5810288787 0.1778747290 0.3853867948 -0.0935911313 0.2545595467 0.0362215489 0.1465283781 0.3420471847 -0.0785548985 -0.2441291064 0.0142655075 -0.0516332053 -0.0524850935 -0.0537657589 0.0909765139 0.7758240700 -0.2348023802 0.1102813259 -0.0815355107 -0.0679121539 0.0722156316 0.2248341143 0.5080178976 -0.1669616997 -0.1398941576 -0.0837772787 0.0281488393 0.0055425283
058071436742324a73b82eb688906361_M_0000_8.31_20.52 0.0788704529 0.2393011898 0.1231790259 0.3061017692 -0.1138155609 0.3668987453 0.6051925421 0.3592313826 0.2658317983 -0.0597608462 0.1704465151 -0.0606242642 0.0980409831 0.2513797283 -0.0590972081 -0.0742338002 0.2361591160 0.5272102356 -0.0812981725 -0.1753392667 0.1143944040 0.1370326430 -0.1213811040 0.2721482515 -0.1160259545 0.1353576481 0.2337787598 0.5152912736 0.1328316033 0.8299220800 0.5090966821 0.1346301436 0.5899941325 0.0292822588 -0.1737870574 0.0573468208 0.1490235031 0.3468743861 0.2767387629 0.2063653171 0.0609846488 0.1172147915 0.1240467578 0.4666348994 0.0174919032 0.6339880228 0.0724976063 0.3659465611 -0.1908335984 -0.2474476099 -0.1133190319 0.4184499383 0.2116378993 0.1451970637 0.3319372237 0.0531979203 0.1334386617 0.2479815334 0.3400833607 -0.0117755979 0.1738139689 -0.0614239536 -0.0386933088 0.1184470728 0.4991660118 -0.1937133819 -0.0881107524 0.3385750651 0.5491439104 0.0938668847 -0.1505357623 -0.0694230199 -0.1805704534 0.2354015410 0.0008731368 -0.2251170725 0.2433815449 -0.2201103568 0.2905899286 -0.0486959182 -0.0861185491 0.1336500943 0.1717774868 -0.0473449193 0.2626917064 0.1775982529 0.4326564968 -0.1663805097 0.0754671246 -0.1672208905 -0.1629415005 0.0298137050 0.1471817195 -0.1189288944 -0.1024207026 0.2712848783 0.3013170660 -0.0816381648 -0.0605993420 0.4495027363 -0.1058245823 0.1357141584 -0.0945174173 -0.1820729822 0.2319365144 -0.0331172682 0.6370079517 -0.1203625649 -0.0797629952 -0.0488235392 -0.1597602665 -0.1459403187 0.0155520309 0.5906871557 0.3156050742 0.5113718510 0.0618312396 0.0342044570 0.2683819830 -0.0465989262 0.0767558739 0.8059291840 0.0362955108 0.2421559393 0.3793808520 0.8198915124 0.0443406664 -0.0635078177 -0.0776135251 0.4749893248 0.0517503470 0.2551582456 0.0723115355 -0.1829808652 0.0469142050 0.2316169292 -0.2016785443 0.1664164066 0.0571225882 0.5131562352 -0.0010171225 0.0308850780 -0.0681479424 0.1149420738 -0.0369675346 0.1286995858 0.4833282828 0.0534731224 0.0418933444 0.2261970490 0.2550001740 0.2481506765 -0.1847154051 0.0568275079 0.1155067235 -0.1153403446 0.1436035782 0.4840197265 0.4933039844 0.0672375113 0.1247090846 0.1652119607 0.1244919524 -0.0353385881 0.1572884470 -0.0252602696 -0.0874191299 0.1901008636 -0.0972245485 0.2685525417 0.1759312749 0.0858200267 -0.0059872344 -0.1466467083 0.0145685757 0.3903006911 -0.1909155399 -0.0744737461 -0.1787217557 0.0643444806 0.0824106261 0.0961123332 0.0621157810 0.3733188510 0.0149639957 -0.0600742921 -0.0648479834 0.2508811057 0.0351279452 -0.0481055863 0.1318845302 0.1238297969 0.0593860596 0.0250501893 -0.1432456374 -0.1621334404 0.7429277301 -0.0766993910 0.5922302008 -0.0525394045 -0.1732871830 0.1985060573 0.0147194341 0.1880931556 -0.0534586869 0.1809477359 0.3370799422 0.0871355981 -0.1229873672 0.1926679462 -0.0825228319 0.1010115743 0.4057119191 0.1474590898 -0.0604232773 -0.0968166813 0.4929292798 -0.2393661439 0.0521899238 0.0011364101 0.1010703146 0.0309626926 0.3825478554 0.1427530646 0.3806708157 -0.1528726667 0.1630463600 0.0664985999 0.1418353915 -0.1531519741 0.4429885745 0.2960055172 -0.1882256418 -0.0023816172 0.4117034078 -0.0945895091 -0.1224455535 0.0268716272 0.1023371369 -0.0329312272 -0.1315078735 0.2502085268 0.3199064732 0.1136800349 -0.0569469556 -0.0090380348 -0.0228569563 0.1651044190 0.0665687397 0.3983657360 0.2144198716 0.1618771553 0.2586167157 -0.1314122081 0.3836433589 0.3216096759 0.1447193176 0.0456667840 -0.1045543402 0.0564853735 -0.0722018257 -0.1086159125 0.4526200593 -0.1375458241 0.5626526475 0.5065031648 0.2257641703 0.0046832701 0.2535497844 0.3025106788 0.3085763752 0.3456719220 -0.1523214728 -0.0600968115 0.1266308874 0.3174691498 -0.1597599536 0.6012892723 0.1582524180 -0.0856872052 -0.0150794582 0.2508987486 0.0525143072 0.0088282321 0.0634485558 0.0586648174 0.0883860067 -0.0595536456 0.2376073599 0.0213449560 0.3994703889 -0.1069602892 0.3509138227 -0.0174170174 0.0206530672 -0.0161136854 0.4006990790 0.1354363561 0.2873463035 0.4705664515 0.1488818228 0.7763183713 0.1296838820 0.0435358547 0.0367511362 0.1701591015 -0.0968267843 -0.1814047843 -0.1004560292 0.1317516118 0.1748265475 0.2234192491 0.2080294490 -0.0714399442 -0.0486116633 0.5065033436 0.0350801125 0.0052827392 -0.0564696342 0.0053887852 0.0475065373 0.1077654734 -0.0592595749 -0.1324775219 0.6659488678 -0.1527554393 0.1623652875 0.1252642572 0.1875410527 -0.1895194203 0.1731177717 -0.1024782434 -0.1052057669 0.0900055319 0.1634684801 -0.0739731640 -0.1310737580 0.2048729062 0.0750467032 -0.0977725610 0.0754058957 0.1450680345 0.1838417947 -0.0517466292 0.2034471482 0.0610991232 0.2339224368 0.2248614877 0.5803182721 0.0426434688 0.2740893960 0.0725011677 0.1664386541 -0.1342452765 -0.0256393328 0.0573991835 -0.0561557896 0.3862728477 -0.0820474401 -0.0244148411 -0.0015898091 0.3424356282 0.1184950992 0.5761144161 -0.1092859209 0.1944632977 -0.2515977323 0.1778603792 -0.0646023527 -0.1047786772 0.0104941893 0.2409912050 -0.1092915758 0.1031525955 0.4780456126 0.0198208280 -0.2304667532 0.2427198887 -0.0505806096 0.2938312590 0.1322707683 -0.0004198451 0.5394793749 0.3107071221 -0.0814098492 0.0943911299 0.2588328421 0.1500881612 -0.0804044753 0.1871175170 -0.1785775721 -0.1130997390 0.4448252022 -0.2634302676 -0.0971109122 0.3231915236 -0.0523051694 0.1799864173 -0.0853721276 -0.0783370137 0.4350559711 0.1717589200 0.2622503936 0.4871928096 0.1248305738 0.3077800274 0.0531640686 0.2533797622 -0.0642476976 0.1702477187 -0.0261292253 0.0765650421 0.4654535651 -0.0315738618 0.3256444037 -0.0062761791 -0.0690882802 0.1039744467 0.5239375234 -0.0778169483 0.1425372362 -0.2590098679 0.1409445256 -0.1321214736 0.3731146455 0.1617761850 0.1235159934 0.4067313075 -0.0515730716 -0.0910059363 0.1079719216 -0.0555091091 -0.0944353864 -0.1255764365 0.1524323970 0.6201362014 0.4154046476 -0.1981587708 0.4741800725 0.1621951908 0.1218413711 -0.0818558782 -0.1964819431 -0.0995948315 0.5777333379 0.5687971115 -0.1154631972 0.4694197774 -0.0163734108 0.2440445125 -0.0931228176 0.1772358567 0.3390043676 0.0750759691 -0.0571385808 -0.1282072663 0.0818395987 0.0456670821 0.1845633537 0.5905432701 0.2560995221 -0.1504642814 0.1646229476 0.1661328077 0.0613310263 0.0109265037 0.3295362294 -0.0917488411 0.2305504382 0.0226167329 0.0951170474 0.0939954594 -0.1206938028 -0.2041790038 -0.2374152392 -0.1214892045 0.4454857409 0.1628520191 -0.2260170728 0.1162207499 0.2101694345 0.3772656918 0.6396485567 -0.0737255961 0.0381441489 0.0454296693 0.0776365697 0.4440311193 0.1388345957 -0.2752413154 -0.1010260656 -0.0920460671 0.6289118528 0.2549858391 0.3311449289 -0.1032225117 0.2308515757 0.0955383554 0.0379928611 0.3456606865 0.6157485843 0.0826683640 0.3833734989 0.0436058044 0.0650029778 0.1962507069 0.1464436799 0.5283966660 0.0170895979 -0.0333070979 0.0836787298 -0.1222980320 0.4181045890 0.5311192870 -0.1965738088 0.1041135862 -0.0967871472 0.1763280481 0.0495809317 0.2615197599 -0.0947227702 -0.0400030613 -0.1213491634 0.2258328497 0.0892303586 0.1339223534 0.1248249784 0.3275923133 -0.1042272747 0.3120886683 0.0353884175 -0.0079525011 -0.1574828178 -0.1706509143 0.1291279197 0.2067399025 -0.0339127854 -0.1504285932 0.3516353965 -0.0918520242 0.6281868219 0.1516245455 0.2029646933 0.1302928030 0.2539124191 -0.0829469785 0.6965025663 0.0321687907 0.1089651361 0.0298810937 0.5442972779 0.0733918101 0.0138693862 0.1876824647 0.2927320600 -0.0827034637 -0.1053845510 0.1354315430 0.1073876843 0.4428519607 -0.0257552490 0.3285975456 0.3439161479 -0.0542443469 -0.2250802815 -0.1126337200 0.0840915367 -0.0021710084 -0.0594700910 -0.0902067274 0.0355520919 -0.1031563208 0.6021372676 0.0975660980 0.3010692894 -0.1156722382 0.2089419961 0.0128839118 0.1647702903 0.3133368790 -0.0729208067 -0.2240841836 -0.0207919944 -0.0264644362 -0.0114948731 0.0526422039 0.0716760829 0.5387809873 -0.2091742307 0.0833285823 -0.0706094429 -0.0646696165 0.1121787578 0.2625063658 0.5420498848 -0.1541358531 -0.1222381070 -0.0719029978 0.0256242603 0.0134767070
09b16db04f9a51c0eedd876a94395c2f_M_0002_29.56_48.29 0.0587926507 0.2397747040 0.3432838023 0.1573252231 -0.0600605607 0.3994775414 0.9056136012 0.0950709134 0.0909756720 0.2691806555 0.1625272334 -0.0626484603 0.1189875081 0.1781920195 -0.0717497393 -0.1303314865 0.2683749497 0.3769913912 -0.1362692267 -0.1601721644 0.1102048382 0.2465038598 -0.0846309215 0.2148575187 -0.0750977546 0.1435685605 0.0774285123 0.3239592314 0.2300681323 0.3671018183 0.4024923742 0.1685054749 0.6611135602 -0.0107730944 -0.2198537290 0.1269385815 0.2017513216 0.1844736338 0.1211728305 0.2438336313 0.3434621990 0.2458639145 0.1316970885 0.6279188395 0.1601389647 0.7823370099 0.1613007486 0.5560904741 -0.1445057094 -0.2301701456 -0.1068394557 0.1852031201 0.1289408058 0.2589817345 0.0688447282 0.0838687941 0.2623937726 0.1252456009 0.2321248800 -0.0738924071 0.1468188167 -0.1095292345 -0.0754156783 0.2939911783 0.1998872757 0.0610554442 -0.0816625804 0.2781774998 0.6693564057 0.3229532242 -0.0983447507 -0.1015001833 -0.1166510135 0.1473164707 0.0220320150 -0.2138733268 0.0463305712 -0.1941903383 0.0883574933 -0.0491748601 -0.1199745163 0.2918938696 0.0645852014 0.0877012536 0.2515371442 0.4513575435 0.4101046920 -0.1831225902 0.4063697159 -0.1531070173 -0.2040808499 0.1843319982 0.2538078427 -0.0685780346 -0.1208708063 0.0699163824 0.2482974827 -0.0964691937 -0.0895139873 0.2646790445 -0.0771067291 0.1451345384 -0.1331606209 -0.1818231791 0.3802798092 -0.1198658571 0.3387799561 -0.1351094991 -0.0674711242 -0.0586695932 -0.1630173177 -0.1423762292 -0.0830348358 0.6297814250 0.1551842988 0.2409529686 -0.2638261020 0.0134155424 0.2922835350 -0.0843068212 0.0629834384 0.4214630127 0.1648878306 0.4585572183 0.6058162451 0.3504061103 -0.2903038263 0.0128977606 -0.0879887864 0.5209579468 0.2060482949 0.2334536463 0.1023188680 -0.1929852962 -0.1128560752 0.1758363098 -0.1953430921 0.0549215376 0.2736117840 0.1986684501 0.1837148815 0.0488969944 -0.0962026119 0.1271786690 -0.0449288338 0.1058228686 0.3576202095 -0.1138069332 -0.1402390897 0.1728704870 0.1372874379 0.3124178946 -0.1603320688 0.1220689863 0.2891231477 -0.1595629156 0.1125193238 0.2711144686 0.2589883208 0.0480170958 0.0415613912 0.3781139851 0.0213698260 0.3864434659 0.4772729874 0.0150408475 -0.0872018039 0.3016882837 -0.1034455895 0.0471726656 0.0760555640 0.0950409248 0.1189526245 -0.1326735616 0.0393361151 0.7852790952 -0.1107130274 -0.0477268584 -0.1451102644 0.0133565571 0.0791754276 0.0279847607 0.1562215090 0.5011893511 0.1114358380 0.3080617487 -0.0454643220 0.4078139067 -0.0055492409 0.0106657660 0.0545232557 0.2090244293 0.2852948904 0.0434377864 -0.0933540836 -0.0944819450 0.3205001056 -0.1168106124 0.5493719578 -0.1138227060 -0.1541363299 0.3786643744 0.1039431170 0.1351594925 -0.0554752983 0.1674486101 0.3050548732 0.1327072084 -0.1125443950 0.2782305777 -0.0760366321 0.0968660861 0.3009926677 0.2485747188 -0.0904313177 -0.1803142130 0.2923851609 0.1204680949 0.1453966200 -0.0763821527 0.1282470673 0.1712842584 0.1582889259 0.1474579275 0.6247656941 -0.1026443318 0.1378359795 0.3262264729 0.1670986712 -0.0216776263 0.2135613114 0.1418120712 -0.1585044712 0.1026627421 0.6107757092 -0.0986560881 -0.0786778778 0.0204770807 0.3004378974 -0.1007334888 -0.1368094683 0.1767641753 0.0953908712 0.2910181582 -0.0715448111 -0.1468264014 0.0702566653 0.1092548221 0.0368732363 0.4842805564 0.1489693820 0.0607604086 0.3622326255 0.1784612834 0.1557631493 0.0689892769 0.0408643782 -0.1107982695 -0.1091332734 0.1430742741 -0.0889147148 -0.0986912325 0.4994956255 -0.1227494404 0.5020968914 0.3452862799 0.4294722974 -0.0331831314 0.2335258126 0.1441930830 0.0940953195 0.4399282932 -0.1304331720 -0.0743262768 -0.1028129980 0.2239921540 -0.1487778127 0.4111923873 0.1510353982 0.1186918691 -0.0651747584 0.2963179052 0.2634297013 0.0095447721 0.1025016829 0.1423166543 0.1993237138 -0.0560125336 0.2677209079 -0.0645763725 0.0906240642 -0.1380657107 0.6185300350 0.2547263503 0.0414751135 0.0008712090 0.1215084121 0.1766098440 0.2841185033 0.4909659624 0.1484648436 0.3714920282 0.2899280488 0.0858944952 0.1400769800 0.0493417978 -0.0656014085 -0.2254872918 -0.0593662336 0.0820942745 0.0276531801 0.1649468541 0.1081962809 -0.1102681980 0.1083667502 0.4287295938 0.0525615402 0.0224157944 -0.0441866033 0.1455272287 0.0542958602 0.2334764749 -0.0808194950 -0.1511287391 0.4753463864 -0.1010735258 -0.1592197120 0.4217923582 0.2399510592 -0.1174062788 0.1391535699 -0.1005913690 -0.0986745879 0.1249653473 0.1064443737 -0.0673714131 -0.1107879803 0.6013163328 0.4243809879 -0.0690254793 0.0023804400 -0.0777934492 0.2931054533 -0.0305939540 0.0716767088 0.1444090158 -0.0218649842 0.4299983382 0.8102315664 0.1607348621 0.2155921310 0.3470884264 0.1376746595 -0.1003161967 0.2660873234 0.2019455433 0.1235825568 0.2738725245 -0.1219257712 0.1471506953 0.0650150329 0.2886112034 0.1620090902 0.1504786909 -0.1552926749 0.3924002349 -0.2597226501 0.2340936810 -0.1325626075 0.1389429271 0.1361289173 0.1523040235 -0.0988959968 0.3707919419 0.6093457341 0.1882087141 -0.2348204106 0.3097279072 -0.1502617747 0.3927514553 0.1261531413 -0.0351270325 0.7117018104 0.1583145261 -0.0693872571 0.1005033851 0.1329290867 0.1521921754 -0.0560129993 0.2738752663 -0.1662757993 -0.1387889683 0.4381477237 -0.2648319900 -0.1192051023 0.1270976663 -0.0679445490 0.2493609786 0.0378891416 -0.1001707017 0.4485175014 0.0486859083 0.0520568192 0.3109864593 0.2383900136 0.0668029040 0.0918879211 -0.0622503385 -0.0988882184 0.1920211315 0.3502548337 0.1565041393 0.3541791439 -0.0224643536 0.1824248880 0.1243614554 -0.0546551570 0.3686060607 0.1820146888 -0.0643767193 0.4747991860 -0.1967635751 0.1790422946 -0.1376246661 0.2301618010 0.2219803631 0.2340338975 0.2998918593 -0.1172084585 -0.1592703313 0.5004472733 0.2156293243 0.2049664557 -0.1324628443 0.3772483766 0.5005221367 0.2487175614 -0.1893827319 0.8076773882 0.1770509928 0.3008151650 -0.0408037193 -0.2019849867 -0.1585957259 0.6103481650 0.2945432365 -0.1442200989 0.5180975795 -0.0490577333 0.1376691759 -0.0724673197 0.1671034396 0.3749281764 0.0821711570 -0.0023087196 -0.1076433435 0.0884047300 0.1293689907 -0.0266894065 0.6509371996 0.2998677790 -0.1473650485 0.1067760140 0.1570154428 0.1457023025 0.0561638735 0.1941417903 -0.1086767986 0.2127449363 0.0351018719 0.2994698286 0.2010749876 -0.1209733039 -0.2350087017 -0.2333741337 -0.1893864423 0.3589943945 0.2901131809 -0.2737160921 0.1403135359 0.1343391538 0.4443512857 0.5432517529 -0.0494572781 -0.1108184010 0.1897930801 0.2082815766 0.2816495299 0.0199284479 -0.2543568611 -0.0637665167 -0.0962006599 0.4680864811 0.2845819890 0.0642299950 -0.1290100664 0.2685339451 0.2039700001 0.0670881718 0.1102055758 0.4793282449 0.1452894807 0.2812147141 0.3036535382 0.3893527985 0.5747792125 0.2563882470 0.2763606906 0.1362809092 -0.0329746380 0.0849694684 -0.0814394653 0.3968673944 0.3805651665 -0.1786795259 0.4215869009 -0.1363628507 0.2346657962 -0.1213535666 0.2643169463 -0.1083688289 0.0204634517 0.0611309633 0.1695170552 0.2483666390 0.0967203006 0.1845933497 0.0925698876 -0.0811086595 0.2684397101 0.0751219690 0.0874904022 -0.1623815745 -0.0864607766 0.1405571848 0.1740719378 -0.0386434905 -0.1091239974 0.4201046824 0.1207968667 0.4402599633 0.1717474461 0.4796836972 0.4758763611 0.3030085266 0.1776357889 0.3330142498 0.2314874083 0.4450336993 0.0758020952 0.6058200002 0.0649002790 0.3176053464 -0.2089664340 0.2840680182 -0.0617909469 -0.0829371214 0.0485868007 0.1283960342 0.7088624239 0.2789309025 0.2458679825 0.4521399736 -0.0280335732 -0.2226055712 -0.1123281717 0.0655771643 -0.1366877258 -0.1169997305 -0.0968689248 0.0017942814 -0.1187253073 0.6342809796 -0.0000659842 0.0190211162 -0.2124970406 0.2007765919 -0.0014610635 0.4601812661 0.2712942958 -0.0936379135 -0.2013235092 -0.0802361965 -0.0152080161 0.0478217378 0.2215878963 -0.0144297704 0.1757640243 -0.1862328202 0.2659043968 -0.0622593053 -0.0703304261 0.2544409633 0.3836317956 0.5399981141 -0.1751756817 -0.1320451349 -0.0837450400 0.0383662470 -0.0145194381
0b7f30ba63cf6e01790cebc5a645d939_F_0000_66.83_80.36 0.0605223998 0.1131736413 0.2430773675 0.2240569741 0.0544217899 0.2536791861 0.5920867920 0.1758037508 0.1529794633 0.1178197637 0.1013446227 -0.0351398736 0.1367900372 0.2556745708 -0.0649249554 -0.1109955758 0.2628745139 0.2661617696 -0.0933813900 -0.1755513698 0.2258391678 0.0970784128 -0.1343058944 0.1497389227 -0.1105408296 0.1059635282 0.1931622773 0.3390376568 0.3034489751 0.5611824393 0.5226297975 0.1004615426 0.3841948211 -0.0502425916 -0.1944718212 0.1690396219 0.3750687540 0.2523702085 0.1950048059 0.1590198576 0.1076293662 0.1044515371 0.0869537964 0.3240122199 0.2481815517 0.4558942616 0.2469163537 0.2708527744 -0.1988111436 -0.2393796742 -0.1369470805 0.2561069131 0.1310328543 0.2506601214 0.3378132582 0.1395846903 0.4487035871 0.2025072873 0.1776809841 -0.0446768142 0.1448429078 -0.0853974149 -0.0034923088 0.2945680022 0.3420815170 0.2321264893 -0.0821557865 0.2388058156 0.3401134014 0.1524140388 -0.1544307470 -0.1031066924 -0.1709245741 0.2012507915 -0.0331004038 -0.2253064662 0.2872682214 -0.2269646078 0.3938823044 -0.0435090736 0.0171323903 0.0994110033 0.2780782878 0.1045269892 0.1677450240 0.2225872874 0.2822175324 -0.1622444987 0.2306983471 -0.1864505559 -0.1806997061 0.3293984830 0.1267659068 -0.0947225615 -0.0906963423 0.3684560359 0.0871967152 -0.0784411281 -0.1005252898 0.2570167780 -0.1074534282 0.0757765621 0.0801102594 -0.1711937785 0.1420399249 -0.0177113637 0.3873611987 -0.1157923043 -0.0837554187 -0.0278878231 -0.1619036943 -0.1922352165 0.0014354978 0.5837805867 0.4058927000 0.3640761375 -0.0115495455 0.1223347634 0.2341148555 0.0211637784 0.0950869918 0.4169039726 0.0993458927 0.2122552693 0.4087570012 0.5845707655 -0.0437667631 -0.0225652158 -0.0909686089 0.2688292861 0.1800784171 0.1480882913 0.1495216787 -0.1562515050 -0.0222275015 0.2575985491 -0.2193419635 0.2194860876 0.1292201132 0.4083192945 0.0818624645 0.0408771820 -0.1067634523 0.1196357012 -0.0383561850 0.1723784059 0.2763709724 -0.0216419064 0.0567983352 0.1125711501 0.1914310753 0.2813855410 -0.1674603671 0.0434282534 0.1175341457 -0.1335310638 0.1061821580 0.3392552435 0.2486280352 0.0431176499 0.0886296183 0.3443998098 0.2409568280 0.3290025890 0.2666300833 0.0339937769 -0.0764177516 0.2127131224 -0.0531466305 0.2596592307 0.1188474968 0.0708884448 0.1203309372 -0.1529010236 0.1138792560 0.5898090005 0.0952045545 -0.0927046463 -0.1859248132 0.0146973003 0.1540061533 0.1029232219 0.0495830067 0.4165157974 0.1405037940 0.1108515114 -0.0632391050 0.3664024472 0.0144348536 -0.0283020139 0.0917955488 0.1092198715 0.3460187912 0.0177250393 -0.1525459141 0.0519647710 0.4234445095 -0.0937924311 0.3866952360 -0.0231669750 -0.1548774838 0.1747659296 0.0348664895 0.2236958295 -0.0497341566 0.1801116467 0.3925476670 0.1585080475 -0.1112062111 0.1618514061 -0.0916359723 0.0178144984 0.2573048174 0.1216073483 -0.0514509454 -0.1109105572 0.3762050867 -0.0811210051 0.0543288440 -0.0132348193 0.0637983233 0.0652804077 0.2347115278 0.1706384122 0.4349956512 -0.1571958661 0.0691707581 0.2152958065 0.2882238626 0.0990711823 0.3169460893 0.2034965903 -0.1624546498 0.0201780796 0.4355649352 -0.0814951211 -0.1161381379 0.1712696105 0.1819346547 -0.0692885369 -0.1887465715 0.1952995807 0.3055018783 0.2312856317 -0.0031796452 -0.0257026292 0.1037612036 0.1561940610 0.0628909916 0.5448691845 0.1953201145 0.2186145782 0.3193327188 0.1781761795 0.2501211762 0.2374658138 0.2302226275 0.1523173749 -0.0928137377 0.2051049769 -0.1169455945 -0.0822995529 0.3555824161 -0.1168631241 0.3410095870 0.2777697444 0.2258813381 0.0014937527 0.4552338421 0.3236179054 0.2692402899 0.2493294626 -0.1411850154 -0.0109928707 0.1186698601 0.1645560712 -0.1688973755 0.4454335570 0.0793856531 0.2043339759 -0.0001329230 0.2421433479 0.2806791961 0.0407809205 0.0146833081 0.0803859979 0.1057981625 -0.0342089906 0.2588894069 -0.0110145314 0.3214924634 -0.1305181235 0.4145707488 0.2509835958 0.0179862920 -0.0099973101 0.3966208696 0.0795831233 0.2150459886 0.2865086794 0.0939542577 0.4215624034 0.1825616062 0.1043467820 0.0846513659 0.1821961999 0.0332213156 -0.1715828627 -0.0805548429 0.0867636576 0.1159055680 0.3856322765 0.2090191245 -0.0380261801 0.1938230097 0.2732077837 0.0165786222 0.0078634210 0.0062507810 0.1607512683 0.0256099552 0.2028731555 -0.0757739544 -0.1043313965 0.4623168409 -0.1205421090 0.0328149311 0.2893837988 0.1257589608 0.0920723826 0.3004283309 -0.0541935377 -0.1246150732 0.0903086811 0.1992658079 -0.0685724691 -0.1020488441 0.4536352158 0.2303878963 -0.0712331086 0.2710013986 0.2362530828 0.0794649348 -0.0535423607 0.2784565687 0.0838174820 0.3188298941 0.2809728682 0.4065473676 0.2400129139 0.3184915781 0.2057308853 0.2842257917 -0.1023094505 0.1252200603 0.1350259483 0.1740917265 0.3373593688 -0.1087225452 0.1170993447 0.0566350296 0.1696691811 0.0603509434 0.4649503827 -0.1482571214 0.3154617250 -0.2503179610 0.1949659735 -0.1344585419 0.1744621694 0.1828341037 0.2304628640 -0.0965234637 0.2111871839 0.2911392748 0.1462946534 -0.2499133497 0.1600548327 -0.1036848351 0.2189431787 0.1080668792 -0.0159182288 0.5103819370 0.1643706411 -0.0691890344 0.0332592912 0.3154638112 0.3295959830 -0.0692708343 0.1733449996 -0.1879363209 -0.0767656267 0.2753815055 -0.3103785515 -0.1056802347 0.3706692755 -0.0936880857 0.2721619904 0.0291577391 -0.0961228013 0.5676393509 0.2032848150 0.3214175701 0.2378226519 0.3957707286 0.2664748728 0.1862405539 0.3902507722 -0.0909268707 0.0708495528 0.0913512036 0.1645298302 0.2820409536 -0.0300490316 0.2816661894 0.0764338672 -0.0401448756 0.1967479587 0.4691489339 0.1142549440 0.2350499332 -0.2180774361 0.1731442660 -0.1527572274 0.1534049213 0.1525245756 0.1596068591 0.2268618792 -0.0634795502 -0.0937659591 0.2683510780 0.1054301187 0.0525720790 -0.1206828058 0.1685816497 0.3222954273 0.4584620297 -0.2035927176 0.4990840554 0.1347110718 0.2702788413 -0.0826463774 -0.2073575556 -0.1127896011 0.4093023241 0.3420636356 -0.1204805374 0.3178133070 -0.0294944346 0.2254132926 -0.0736566633 0.0988347381 0.2870600224 0.1838213652 -0.0725961700 -0.1101150587 0.1074384153 0.0897324234 0.2844488621 0.4513452649 0.1973674595 -0.1987438053 0.1454958767 0.1423085928 0.2220843285 0.0539358035 0.2271154076 -0.0853667930 0.1516525894 0.1160538197 0.1630108505 0.2214243114 -0.0873455107 -0.1926185638 -0.2549208403 -0.1297379285 0.3641663194 0.1134621724 -0.2410392463 0.2378708869 0.2524602413 0.2229620516 0.3378145397 -0.0706856176 0.1834053397 0.0882518515 0.1005849987 0.3514170647 0.4118826091 -0.2531827688 -0.0585850589 -0.0879655182 0.3541494012 0.1643608212 0.4599871635 -0.1423286200 0.0812027231 0.1934194267 0.0899584442 0.2623111010 0.3467966616 0.1396974772 0.2790905237 0.1456617713 0.1604420841 0.2745895982 0.2547696233 0.3780403733 0.1672777981 -0.0119407056 0.1209355518 -0.1255027503 0.4108087420 0.2832908332 -0.1798284501 0.2711092532 -0.1170818359 0.1352915019 0.2517485321 0.2126422822 -0.1147850901 0.0049116937 0.2167648077 0.1539665759 0.1233583316 0.1284729540 0.3166446984 0.2870330811 -0.0995915309 0.2628573477 0.1190546155 0.0873954594 -0.1164119318 -0.1111305580 0.2208024710 0.2337895632 0.0075885640 -0.1525290161 0.2588534951 -0.0123407999 0.3727626503 0.1183083504 0.4805685878 0.2796920538 0.1977165043 0.0430397056 0.5825859904 0.2228236198 0.3192566037 0.0947754756 0.4313574433 0.0281220786 0.2805615664 0.2220641226 0.2400477231 -0.1017373875 -0.1486357898 0.2292925715 0.1163419634 0.5443322659 0.1269117594 0.1112732887 0.2641879320 0.0742535144 -0.2497461885 -0.1160001978 0.0929667652 0.0894067660 -0.0821510106 -0.0735320225 0.1324775964 -0.1317873001 0.4067734778 0.2271194905 0.2895077467 -0.1431855112 0.3321002126 0.0295036584 0.3728192151 0.2266533077 -0.0679700971 -0.2291522771 0.0052256281 -0.0570725687 -0.0024186054 0.0679443926 0.0364841186 0.4858507812 -0.1886274517 0.2646209896 -0.0675649792 -0.0856788382 0.1192580611 0.1948019564 0.3230878711 -0.1455874741 -0.1265114397 -0.0816193074 0.0557581186 -0.0381252207
0bd60a1636689f28b69c2217ac944418_F_0001_1215.69_1262.22 0.1102981344 0.2730201781 0.1113958731 0.4583519697 -0.1379936039 0.4552328885 0.6508039832 0.2854998708 0.2488534153 -0.1168996170 0.1353128999 -0.0774097964 0.1466293633 0.3375363350 -0.0568502024 -0.0621379353 0.1961200088 0.5984660983 -0.0947056115 -0.2152757645 0.0609076470 0.0367724746 -0.1417836845 0.2842562795 -0.1291443557 0.2285358459 0.2419835776 0.6932025552 0.2043197155 1.0761294365 0.4528506100 0.1605630666 0.7793278694 0.0368241258 -0.1875007898 -0.1235019565 0.0604519993 0.5157154799 0.4331723154 0.2340952754 0.1367797554 0.1830390096 0.0350284204 0.4190205038 -0.0581883043 0.7323284745 0.0148196556 0.5015892386 -0.2089304179 -0.2909925878 -0.1192734316 0.5245465636 0.3328966498 0.2223502845 0.3224845827 -0.0046369126 -0.0355209038 0.3777976334 0.3526903391 0.0017773830 0.1309263855 -0.0586515889 -0.0552460402 0.2022396028 0.5457905531 -0.2702085376 -0.0975783542 0.2770399153 0.6633048058 0.0489622056 -0.1541324854 -0.0600075573 -0.1985580176 0.2403801233 0.0035962802 -0.2316881269 0.2969805896 -0.2547417879 0.2337015122 -0.0467054620 -0.1052888483 0.2163930833 0.0715354830 -0.0786012262 0.4510974884 0.1020638794 0.5644744039 -0.1993902773 -0.0395912006 -0.1819545925 -0.1697934419 -0.0693573281 -0.0336511694 -0.1271418035 -0.1218733564 0.1281593442 0.4963522553 -0.0977384150 -0.0551726669 0.6004216075 -0.1256061047 0.2165567577 -0.1235528886 -0.2026304603 0.3489929140 -0.0486617163 0.7011843324 -0.1365159899 -0.0927756652 -0.0454766490 -0.1911716163 -0.1397211701 0.0307296608 0.6730577350 0.3752385378 0.4880332053 0.1030912474 0.0157490931 0.4136867225 -0.0655772835 0.0314207897 0.9577144384 -0.0534963124 0.2190452665 0.4010536373 0.9267663360 0.1091486812 -0.0786760598 -0.0627886206 0.5544792414 -0.0832769424 0.2847526670 0.0097501175 -0.1894951910 0.0803306475 0.2850393653 -0.2451159358 0.1238626167 0.1035246104 0.4378086925 0.0160358921 0.0097445799 -0.0673975945 0.0586439855 -0.0345679745 0.1234913319 0.5484439135 0.0985215381 0.0614772029 0.2253850847 0.2787136734 0.3752384782 -0.2201206535 0.1262800097 0.1963754296 -0.1212456748 0.1065699011 0.5952149034 0.5529003143 -0.0032850644 0.1042272002 0.2644461393 0.1152104586 -0.1669168323 0.2558665872 -0.0350018814 -0.0965960547 0.1394467056 -0.1037723646 0.2592454553 0.1464630067 0.0395109616 -0.0558404177 -0.1707030237 0.0316576697 0.4613654613 -0.2316185087 -0.0928979889 -0.1847389638 0.0999663323 0.1465699375 0.1193163246 0.1159694865 0.5144320130 0.0387131870 -0.0601047128 -0.0770466253 0.2846416235 0.0318018794 -0.0622691736 0.0436250754 0.1273994744 0.0239287633 0.0141229983 -0.1337635517 -0.2283992320 1.0174967051 -0.0721770227 0.8359004855 -0.0691015497 -0.1823898554 0.2393109649 -0.0166212078 0.2565049231 -0.0524131618 0.2026809901 0.3764579594 0.1498461813 -0.1299637854 0.2419649065 -0.0937964916 0.1740433872 0.5047538877 0.1634048969 -0.0658815429 -0.0814040080 0.7288071513 -0.2725516260 0.0751352534 0.0139138866 0.0578195043 0.0518450253 0.5310090780 0.0341373645 0.3737307787 -0.1780735105 0.2873464823 -0.1203698367 0.2133124471 -0.2179759443 0.5449018478 0.3562483490 -0.2179565877 0.0193287767 0.4673061669 -0.1111351177 -0.1512215436 -0.0007871371 -0.0317333788 -0.0189883336 -0.1429193467 0.3382394016 0.2165503651 0.0341749713 -0.0698197037 -0.0048519559 -0.0216954835 0.0571474843 0.0990245715 0.4316427708 0.2413131446 0.1343958527 0.4169428349 -0.1938930899 0.3455028534 0.4002075195 0.1468988210 0.0532497726 -0.1256564409 -0.0392275341 -0.0679880530 -0.1285040677 0.4299209118 -0.1534341872 0.7460700870 0.6560161114 0.1408815384 0.0123426402 0.1494298577 0.3386835754 0.2553445101 0.5060548782 -0.1611005664 -0.0848335028 0.1679187566 0.3744997382 -0.1598714590 0.6264829636 0.2754592299 -0.1194574758 -0.0277112424 0.2306210399 -0.1715116650 0.0170660540 0.0974699557 0.0801794380 0.1515528560 -0.0780333579 0.1907728314 0.0542088412 0.4066928029 -0.1175966114 0.4127288461 -0.0808983073 0.0485328287 -0.0405644551 0.5310483575 0.1923249811 0.2795070708 0.5497854948 0.1615648419 0.9137391448 0.0321065038 0.0455572493 -0.0232209787 0.1830342114 -0.1367178708 -0.2081270069 -0.1263540685 0.2055293769 0.1658305228 0.1889054179 0.1712045372 -0.0903103352 -0.1160931066 0.5960801840 0.0448083021 -0.0021423197 -0.0694806501 -0.0660518333 0.0149254631 0.1772962958 -0.0572750196 -0.1700598449 0.8554795384 -0.1781651080 0.2417169362 0.1087368503 0.2548089325 -0.2199941278 0.1248361692 -0.1043917835 -0.1301411390 0.0554050989 0.1633200347 -0.0765683055 -0.1589196026 0.1403953135 0.0399637669 -0.1134689003 0.0438980460 0.1632795036 0.2791718245 -0.0728034005 0.2522111535 -0.0181519631 0.2669962049 0.3148898482 0.6584290862 -0.0142798657 0.4176383615 -0.0534075797 0.2704036236 -0.1674074829 -0.0581361651 0.0406682678 -0.1175169721 0.3051483929 -0.0827471837 -0.0860111862 -0.0172860045 0.3623227179 0.1002566516 0.5682300925 -0.1058522761 0.2149606049 -0.2908399105 0.2147597522 -0.0499032326 -0.1305836737 -0.0702957734 0.2319388837 -0.1288115233 -0.0075931028 0.3694268763 -0.0681253374 -0.2582983077 0.2640022337 -0.0190692581 0.4448028505 0.1518771201 -0.0145126656 0.6169244051 0.3316407204 -0.0898419768 0.1377346069 0.4146595597 0.1209522262 -0.1102936566 0.2058452070 -0.1924672872 -0.1493139416 0.5735718012 -0.2590364814 -0.1030526608 0.3982850015 -0.0304691400 0.1619036347 -0.1028664783 -0.1023393571 0.4147208929 0.1724366993 0.2451082021 0.5554420948 0.0207396075 0.2684773207 -0.0034126192 0.2939499915 -0.0384218581 0.2837733924 0.0311050285 0.1170736849 0.7091206908 -0.0481823422 0.3653403223 -0.0009085461 -0.0906066447 0.0094737411 0.5576436520 -0.1478330195 0.2106499076 -0.2964569628 0.1732707769 -0.1480091810 0.5822739601 0.1854731590 -0.0194326565 0.4939617515 -0.0385426059 -0.0825627148 -0.0112925246 -0.0562794842 -0.1064014658 -0.1567345560 0.2664113939 0.7375379205 0.4617282450 -0.2349653840 0.4208045304 0.1652601063 0.0335249081 -0.1081024855 -0.2297786027 -0.1020351127 0.6927495003 0.7075023055 -0.1397714168 0.4971756637 -0.0147176385 0.3621659875 -0.1047434285 0.1982276887 0.3774520159 0.0191574804 -0.0490399338 -0.1524726301 0.0045079049 0.0780971125 0.2757870853 0.6980750561 0.2971877456 -0.1537302881 0.2581083179 0.2010366023 0.0810092837 -0.0280625895 0.4506869912 -0.1030715555 0.1712174714 0.0330414139 0.0240830239 0.1423341334 -0.1380653381 -0.2552855313 -0.2819370031 -0.1212879717 0.5042288303 0.2184761167 -0.2398236245 0.1864714026 0.3214229345 0.4217098951 0.6875070930 -0.0769409984 0.0676366538 0.0253309570 -0.0408497937 0.5709739923 0.1374118626 -0.3203677833 -0.1250863820 -0.1041859686 0.6396106482 0.4399336576 0.3587139249 -0.1160395443 0.4069029391 0.1381116062 0.0464497916 0.4804624319 0.8046945333 0.0778395236 0.6102960706 0.0357340276 0.0135323610 0.0246286206 0.2376188934 0.6331320405 -0.0022653509 -0.0508630425 0.0994160622 -0.1465149522 0.3879994452 0.7285229564 -0.2281572074 0.1769298762 -0.0856916159 0.0997837409 0.0477907211 0.3228214681 -0.0984084755 -0.0578182638 -0.1819433570 0.3605234921 0.1434014142 0.1189136058 -0.0150376474 0.3914762735 -0.1186852604 0.3669350445 -0.0148531077 -0.0518796593 -0.1844271570 -0.1965353936 0.1104411557 0.1195561886 -0.0323652439 -0.1959791481 0.4652456641 -0.1073366180 0.8617852330 0.1951990873 0.3134190142 0.0134414006 0.2315383554 -0.0842534676 0.8513544202 -0.1099468917 0.1204611436 -0.0639029816 0.6853063703 0.1202707067 -0.0525743291 0.2798570096 0.3078472316 -0.0976055041 -0.1140699014 0.1042216942 0.1441687346 0.5757654905 -0.0696014091 0.5459889770 0.4101195633 -0.0636335611 -0.2310556173 -0.1084935218 0.1307465881 -0.0220484398 -0.0630931407 -0.0820468739 0.0481911637 -0.1119986847 0.6945963502 0.0845712870 0.4144157469 -0.1195353642 0.2426729649 -0.0178196989 0.0946928859 0.3451469839 -0.0780942738 -0.2658983767 -0.0334593579 -0.0139521481 -0.0021862478 0.1016256660 0.0933009237 0.5373261571 -0.2422000319 -0.0102881519 -0.0915395096 -0.0645067245 0.1195752546 0.3023604453 0.6790600419 -0.1668178588 -0.1236292869 -0.0667514503 0.0226471089 0.0262916125
0ce99b1a9e9ca348566bcf7e9a8354ce_F_0001_95.98_107.77 0.0086378139 0.0552685633 0.3465437293 -0.0417174622 0.1656105220 0.1457509696 0.5904923677 0.4686658978 0.3223243058 0.2961534858 0.2381685674 0.0098238904 0.0372487493 0.1175190434 -0.0823460147 -0.1791866422 0.4397715628 0.1475823820 -0.0777414590 -0.1737520993 0.4432972968 0.3979288042 -0.1338187307 0.2101282477 -0.1194913462 -0.0577378683 0.2650941610 0.0906699374 0.2655730844 0.2591770887 0.8480862975 0.0663828924 0.0001664273 -0.0951176807 -0.2392961383 0.6647166014 0.7613433599 -0.0769399628 -0.0631844327 0.1209060177 -0.0788816437 -0.0538073704 0.3333277702 0.4993638992 0.5640372038 0.3100857735 0.5513542891 -0.0166850947 -0.2579340637 -0.2411188036 -0.1857443899 0.1433383822 -0.1332830042 0.1310062259 0.5593639612 0.3798441291 1.0095226765 -0.0375172347 0.1952806711 -0.0786029473 0.3013985455 -0.1633146852 0.0699300021 0.2182464600 0.4614356756 0.5451644659 -0.0840236470 0.5582101941 0.1236497387 0.3240450025 -0.2251896113 -0.1533239484 -0.2432545424 0.4156856537 -0.0680176914 -0.2965008616 0.2924902737 -0.2848998904 0.7670727968 -0.0980581865 0.1336283535 -0.0843664855 0.6864284277 0.2288548201 -0.2074251920 0.5072636008 0.0203702673 -0.0950573236 0.5762575269 -0.2374122143 -0.2168147862 0.7585488558 0.6022791266 -0.1310979724 -0.0754023567 0.9226322174 -0.4192626178 -0.0891634673 -0.1881476790 -0.0280796997 -0.1000750214 -0.0979973078 0.2107433677 -0.1963343620 -0.1165977940 0.0433388837 0.4255185723 -0.1109406129 -0.0986795127 -0.0703048259 -0.1939583421 -0.3260607421 0.0073667634 0.5066347122 0.4585025012 0.6238882542 -0.0160125401 0.2204012722 -0.0170489289 0.0967379287 0.2355387658 0.2433739752 0.3387775421 0.2988781929 0.4111026525 0.6175884604 -0.0477862880 0.0109152617 -0.1723331660 0.1479898840 0.5706011653 0.1783290654 0.3537913263 -0.1969408542 -0.0519779883 0.2388531417 -0.2516481876 0.4766067863 0.0268868599 0.8260995150 0.0385272577 0.1340967417 -0.1608494371 0.3230961859 -0.0853406042 0.2934892178 0.2122988403 -0.0631873086 0.1308618933 0.1152445525 0.2155631483 0.0871907994 -0.1565905213 -0.1370254755 -0.0721377954 -0.1549566090 0.3114349246 0.2130211294 0.2279925346 0.2431652844 0.1679011732 0.1946455240 0.3948719203 0.7734916210 0.0910641253 0.0332435668 -0.0963080451 0.4739481509 -0.0361879729 0.4683350027 0.2703427672 0.2119994909 0.2688540220 -0.1728616208 0.1661950499 0.5681783557 0.2620968521 -0.0952371210 -0.2416875362 -0.0666819960 0.0557891838 0.2074626982 -0.0490765497 0.1894413680 0.2144225836 0.1524899304 -0.0814855024 0.3787391782 0.0605471209 -0.0137878368 0.3770094812 0.0965900272 0.5375433564 0.0489828512 -0.2604186535 0.2264807522 0.0216661431 -0.1068807319 -0.0188435987 0.0682023019 -0.1872427464 0.1304899901 0.1264213622 0.1206398830 -0.0542872287 0.2916014493 0.4132884741 0.0456426032 -0.1339402944 0.0523165017 -0.0955930799 -0.1874736249 0.1466865391 0.1226884872 -0.0691973269 -0.1837782860 -0.0131446626 -0.0407712534 -0.0018193256 -0.0088477731 0.1985344291 0.0416053012 0.0181855410 0.4667405188 0.5282207727 -0.1936835498 -0.2312706262 0.7462551594 0.2354674190 0.3240014911 0.2204043716 0.1478388309 -0.1832509339 -0.0564445853 0.3905118704 -0.0568292551 -0.1126304418 0.3336827159 0.5709146857 -0.1472214460 -0.2411638200 0.0451780036 0.7527573109 0.4981310964 0.0541166514 0.0094781555 0.1740875989 0.5158209801 0.0544607937 0.6239491701 0.1993026733 0.3550061882 0.0354078896 0.4072581530 0.5720496178 0.2168124616 0.3505676687 0.2685766816 -0.0710420981 0.5647020340 -0.1655839384 -0.0550311171 0.4894834161 -0.1375599355 -0.0248497035 0.0406287797 0.4574927688 -0.0067313248 0.9900385737 0.3963297009 0.6048133969 -0.0035534091 -0.1653344482 0.0562122054 0.2324936688 0.1036089882 -0.2461126745 0.5279147625 -0.2381954193 0.4404767752 0.0616604052 0.4624474645 0.9123992324 0.0578899384 -0.0927980915 0.0948891193 -0.0207238384 0.0203090813 0.4487133324 -0.0344538316 0.5622460246 -0.1730501801 0.3535255790 0.4683627784 -0.0286370404 0.0193989705 0.3209050298 -0.0391622297 0.3528506160 0.1776227504 0.0500654951 0.3060452640 0.4821121395 0.1378697008 0.2673187554 0.3379900455 0.1626756638 -0.1738795042 -0.0448977351 -0.0432971790 0.2484617531 0.7259868383 0.3610319495 -0.0070223450 0.4560294151 0.1170739010 0.0054130363 -0.0028490799 0.0387310460 0.3648435473 0.1097266302 0.0975878835 -0.1093817949 -0.0696217567 0.2618465722 -0.1073888615 -0.0771228895 0.4032407105 -0.0207684785 0.2517729402 0.5922923088 -0.0602482930 -0.1238427982 0.1855922192 0.3101437688 -0.0806521103 -0.0602538064 0.7220143676 0.3595411777 -0.0838187486 0.4866096079 0.3693355620 -0.1937291026 -0.0592730269 0.3135593832 0.3213561177 0.4702309370 0.1309546083 0.2675117254 0.5416989923 0.0583778359 0.5696778297 0.1799198091 -0.0601140708 0.2432513535 0.2666032016 0.4021162689 0.6551513076 -0.1421430856 0.2526901066 0.1083546057 0.1356756091 0.1219062209 0.7700226903 -0.1993722171 0.3282235861 -0.2640566826 0.1656015813 -0.2447003126 0.3608910143 0.4622143805 0.3459142745 -0.1024797931 0.5538885593 0.6336310506 0.4244886637 -0.2881582975 0.1582674533 -0.1990624368 -0.0346942656 0.1375401169 -0.0269881487 0.4212345779 0.1654133201 -0.0973445103 -0.0987730846 0.1421043277 0.5176669955 -0.0478437245 0.1605862081 -0.2278692573 -0.0308124293 0.0214649197 -0.4426452816 -0.1378046125 0.4127287567 -0.1783763468 0.4224708676 0.0985106453 -0.1117041260 0.7759776711 0.3221490681 0.5722427964 0.1816997677 0.7823774219 0.5695809722 0.4117465615 0.5669028163 -0.1902257651 -0.2390480042 -0.0281935241 0.1027747467 -0.1232436225 -0.0079829283 0.3062251508 0.1577606946 -0.0275689699 0.5195776224 0.6463846564 0.3381618261 0.1226537526 -0.2126475275 0.1142705157 -0.1968133301 -0.2993029356 0.1497844756 0.6225703955 0.0679776818 -0.1146438792 -0.1338520795 0.6504973173 0.1250831485 0.0799685568 -0.1236876175 -0.0914938524 0.1519264132 0.5361046791 -0.1969095170 0.7233210206 0.1605435461 0.5496538877 -0.0665047765 -0.1837967187 -0.1514977217 0.2160736620 0.2058767825 -0.0931212977 0.3254917264 -0.0453506969 -0.0125112683 -0.0732463673 0.0867551267 0.2652428746 0.3748849034 -0.1516211927 -0.0893309563 0.3696880937 0.0332973897 0.2880161703 0.2946641147 0.1759498864 -0.2792568505 -0.0140853310 0.0791834965 0.3932657540 0.1526840627 0.0323533788 -0.0858393461 0.3743240237 0.1734381318 0.3696338534 0.2039003372 -0.0926885903 -0.1300745755 -0.2831406891 -0.1548543721 0.3062212467 0.0008030031 -0.2817588151 0.2007675171 0.0858337432 0.1764554381 0.3563361168 -0.1481827646 0.2376450747 0.1354456246 0.3776599467 0.1549870372 0.6348821521 -0.2538363934 -0.0283999555 -0.1046217233 0.4224939048 -0.2407401204 0.6837441325 -0.1711633354 -0.3780382276 0.1340714246 0.1584300697 0.0847754627 0.0133635849 0.2812460959 -0.1293886304 0.1853216439 0.3080647290 0.7360508442 0.0750525743 0.2509033680 0.3608733714 0.0245001838 0.2233731449 -0.1323853135 0.5585399866 -0.1695352793 -0.1693458557 0.1753682643 -0.1780577153 0.4444164932 0.4829747081 0.1019708440 -0.1418359727 0.0442254730 0.4877084792 -0.1377991885 0.0644692481 0.2624411881 0.8038988709 0.3140943646 -0.1307051033 0.3202438354 0.2888660133 0.2349379659 -0.1052219570 -0.1059910581 0.3413422108 0.5269252658 0.0005553575 -0.1567031145 0.0571511909 0.0214740373 -0.0275217555 0.0520097017 0.4390721321 0.6404916048 0.3031592965 0.0989981219 0.4281747341 0.6638864279 0.3881582618 0.3694261611 0.1939149052 -0.1046307310 0.5406181812 0.2519252598 0.3583548963 -0.1206136495 -0.2020806819 0.4392276108 0.2063470632 0.3491903841 0.2750173807 -0.4093061686 0.1542985439 0.1622439772 -0.3389306366 -0.2075405419 0.0235624667 0.2280947268 -0.0908460766 -0.1329570562 0.2524602711 -0.1809908301 0.3171878457 0.4204998612 0.2154334188 -0.1658486724 0.3877539933 0.1204279140 0.6375281215 0.2726435661 -0.0803193003 -0.2422894984 0.0637609810 -0.1184759885 -0.0050705764 -0.0807015002 0.0125409123 0.7595531344 -0.1747395247 0.5840224624 -0.0700842962 -0.1195234507 0.1684107184 0.1476902515 0.0482417494 -0.1755050719 -0.1789737642 -0.1378170252 0.0889850035 -0.1145920902
0ce99b1a9e9ca348566bcf7e9a8354ce_F_0004_119.17_133.53 0.0620903969 0.1923712194 0.1906489283 0.3704250157 -0.1110082939 0.4444287419 0.5693282485 0.2121672034 0.2040661871 0.1527087539 0.1800846756 -0.0553563312 0.1008571461 0.1631539762 -0.0863758698 -0.0929889753 0.1228138804 0.3866734803 -0.1398393512 -0.1682039350 0.0071793962 0.1393029392 -0.1378015727 0.2844637036 -0.1081141084 0.2178479582 0.1598184854 0.5962218642 0.1698369682 0.7131558061 0.1887705326 0.1583155841 0.6250310540 0.0231254529 -0.2029431909 -0.0671604425 -0.0099755935 0.3449800313 0.2990086675 0.1979188323 0.2562283874 0.1656669527 0.1152306870 0.3833848536 0.1032892391 0.6111550927 0.2077725232 0.4535630345 -0.1898731887 -0.2606232464 -0.1206817403 0.3728761673 0.1661511362 0.1955420375 0.2355114073 0.0576851517 -0.0171985719 0.2511747181 0.2515377402 -0.0363348909 0.0576360598 -0.0629939064 -0.0293925293 0.2653516233 0.4155799747 -0.0821128413 -0.0943751559 0.4252897799 0.5902342200 0.2107197791 -0.1301359236 -0.0812621638 -0.1496231854 0.4400225580 0.0110182706 -0.2048942745 0.2032263726 -0.2397089452 0.1414605230 -0.0396945998 -0.1036516055 0.2068610489 0.0789492354 0.0330156349 0.3691742420 0.3975901306 0.4338274002 -0.1661276966 0.2161827981 -0.1937111765 -0.1755273640 0.1110047624 0.0291008316 -0.1023098677 -0.1157292649 0.0910699293 0.2346529067 -0.0857422501 -0.0824480057 0.3716610372 -0.0937368497 0.2028794736 -0.1544796228 -0.1736726463 0.3833840787 -0.0326698907 0.4564665854 -0.1094471589 -0.1298082918 -0.0299751442 -0.2035073787 -0.1347888112 0.0688762069 0.4100512862 0.2044401765 0.3212796748 0.0927601382 0.0079367021 0.4664971232 -0.0667750761 0.0137660271 0.6218164563 0.0453544259 0.2958858311 0.3696220815 0.6649721861 0.1638206095 -0.0201821979 -0.0881096348 0.4371521771 -0.0277732499 0.3059732914 -0.0076389527 -0.1810328364 0.0816901773 0.1484918296 -0.2265311629 0.0896800384 0.1918629557 0.2883151770 0.1255306005 0.0022222614 -0.0966866389 0.1848179847 -0.0352748595 0.1914878488 0.2810491621 0.1150829494 0.1053249985 0.1453094184 0.1885232627 0.2331480235 -0.1683643013 0.0874812603 0.1964559704 -0.1695807874 0.1905779839 0.3760666251 0.3865562677 -0.0241957605 0.0720091462 0.2477231771 0.0818665326 0.0840951204 0.3313588500 -0.0300500877 -0.0825500339 0.3396254778 -0.1011613011 0.1862408817 0.1088393852 0.0100061083 0.0408768877 -0.1592546105 0.1166919842 0.4686615467 -0.1835492998 -0.0719742626 -0.1738010943 0.0313846618 0.1174388379 0.2727299929 0.1749158949 0.3706989586 0.2431381643 0.1620061696 -0.0651824474 0.2280583829 0.0257782377 -0.0386072509 0.0014500283 0.1838300079 0.1132373810 0.0092074983 -0.1012632772 -0.1816869080 0.7853288054 -0.0795014650 0.8088601828 -0.0286340155 -0.1835760623 0.3619938493 0.0507165939 0.1191738918 -0.0477733277 0.3699589074 0.1868368983 0.1104423851 -0.1018228233 0.2125416845 -0.0827643350 0.0795105323 0.3697225749 0.2109614611 -0.0679210201 -0.0954462513 0.5234327316 0.0421515927 0.1030584574 0.0360918194 0.1066790670 0.2484031171 0.3583269119 -0.0122294538 0.3339484632 -0.1418551654 0.1598385870 0.0860000029 0.1736840159 -0.1682915241 0.3479116261 0.3245083988 -0.2065274715 0.0699528679 0.3770337701 -0.0980814770 -0.1063762531 0.0266798958 0.1696000993 -0.0621756390 -0.1454699337 0.1849125028 0.1872787327 0.0745972246 -0.0607501045 0.0176748373 0.0958495662 0.1313906461 0.1572383046 0.2508935630 0.0935892463 0.0663055852 0.3180307448 -0.0039211959 0.4327192903 0.2898638248 0.1058022678 0.0503283814 -0.0971849561 0.0658246353 -0.0867753327 -0.0802858695 0.2985997796 -0.1578899473 0.5172817111 0.5139779449 0.2072502226 0.0226162244 0.2855691016 0.1928174645 0.2056152523 0.5991492867 -0.1188078225 -0.0548465438 0.3120143116 0.2806409597 -0.1622606814 0.3251818717 0.1204206422 0.1473860294 0.0142168840 0.4367489517 -0.0296089388 0.0555749685 0.0491402745 0.2017665505 0.1871086657 -0.0595311299 0.1225926727 0.0708890334 0.4359232783 -0.1379350871 0.4303717017 0.0470050573 0.0374851413 -0.0238037743 0.3577806652 0.2384897023 0.3838489950 0.5407686234 0.0877763554 0.6147074103 0.0783519521 0.0400986597 0.0628464818 0.3376067281 -0.1297677457 -0.1849194765 -0.0736437291 0.1764421612 0.2070019692 0.3207080662 0.0886103660 -0.1016969159 0.0279100351 0.3674212694 0.0507189110 0.0065999068 -0.0687285140 0.0143182110 0.0105750067 0.2219082117 -0.0753720477 -0.1534520090 0.8590665460 -0.1304033697 0.1985737979 0.2300275564 0.2083266228 -0.2166315764 0.2314824164 -0.0867138579 -0.1235824972 0.0448351428 0.0540450551 -0.0573221520 -0.1240245849 0.2660674751 0.2469462603 -0.0898784772 0.0309449732 0.1391127855 0.1994956732 -0.0470057465 0.1612577587 0.0977458656 0.1983614713 0.3153889179 0.6462490559 0.1280057877 0.1926688552 0.1430398971 0.2649133503 -0.1639922410 0.1388653219 0.2168021947 0.0229570940 0.1514302194 -0.0800032243 0.0081314025 0.0576067939 0.2092410624 0.1018792838 0.4277564883 -0.1106930971 0.2228612751 -0.2628754377 0.1518344134 -0.0845407024 0.1075045317 0.0548081920 0.1006909236 -0.1089837104 0.2113886476 0.4779981375 0.0502563715 -0.2235606164 0.2641283572 -0.0891230255 0.5633370280 0.1603452563 -0.0240540616 0.4932968020 0.2218555212 -0.0999312252 0.0914283544 0.3582936227 0.0480034351 -0.0794901028 0.1756298244 -0.1926181018 -0.1224931404 0.4551777840 -0.2465476692 -0.1108031422 0.2345610559 -0.0505683459 0.0944274738 -0.0225258060 -0.0974768698 0.2013310343 0.1221674383 0.1951201856 0.3527806103 0.0278760605 0.3341405988 0.0997855514 0.2215244770 -0.0627909005 0.1864342541 0.2593637109 0.0904947370 0.6507782936 -0.0347786434 0.1767670661 0.2113988549 -0.0684741288 0.2816469967 0.3441739082 -0.1399970651 0.2995670140 -0.2319872230 0.1020565629 -0.1581147462 0.3619012237 0.2658749819 0.1666142493 0.2873889208 -0.0677833259 -0.1154727116 0.2773258388 0.1186250150 0.0862391070 -0.1419842094 0.3012422621 0.5628419518 0.2302931100 -0.2163165659 0.4210630953 0.0932808742 0.0837771595 -0.0915334448 -0.1851912737 -0.1183303744 0.5009273291 0.5800239444 -0.1242844909 0.3567551970 -0.0272369571 0.1686343551 -0.0714938194 0.1441901475 0.2322943211 -0.0288856328 -0.0484477915 -0.1301713884 0.0939265266 0.1154070795 0.1630647182 0.5156564713 0.3594844639 -0.1355815977 0.1234423071 0.1500274837 0.4145733714 -0.0203600843 0.2681027949 -0.0955322161 0.2283986658 0.0859274715 0.1482973993 0.2068089247 -0.1254017055 -0.2447617054 -0.2616280913 -0.1623399407 0.2645736933 0.2576744556 -0.2346941233 0.2145322263 0.1471618563 0.4038492441 0.6080669761 -0.0833618045 0.0234935433 0.1087053865 0.0622384511 0.2845689058 0.0444701239 -0.2860848010 -0.0860875323 -0.1033555642 0.3706606925 0.3618488014 0.2573647797 -0.1099018306 0.2751707733 0.1848202348 0.1921692938 0.3902055919 0.5888528228 0.2700642347 0.5250012279 0.1787529141 0.2107357085 0.2769237161 0.2060330808 0.3650227785 0.2149438709 -0.0372131169 0.2900316417 -0.1241561696 0.1919791847 0.3919982016 -0.1936014146 0.3029081523 -0.1181653664 0.2084932029 0.0571419671 0.2128145099 -0.0899560004 -0.0291297510 0.0615387820 0.1757785678 0.3443752527 0.2271071374 -0.0471381471 0.2721286416 -0.1041638106 0.5074102879 0.0054930942 0.0252627581 -0.1664569825 -0.1334365457 0.0713601410 0.0368124805 -0.0410769060 -0.1655629128 0.3707744479 0.0475943349 0.6416212916 0.2153792679 0.4895133376 0.2245993167 0.1791327596 0.2104780525 0.5232375264 0.0492063761 0.2692326009 -0.0436676964 0.5074335337 0.0405076146 0.0832391083 0.2133377194 0.4621370435 -0.0679784045 -0.1028443351 0.1305188686 0.3324475288 0.4916795492 0.1314236969 0.3612874448 0.3706763089 0.0172833949 -0.2222590744 -0.1337076277 0.0658732504 -0.0354917087 -0.0928558782 -0.0775071532 0.1178390458 -0.0905471072 0.7359236479 0.0673360154 0.2888549268 -0.1394843310 0.1186541021 -0.0096563501 0.1870323122 0.4115076065 -0.0693087727 -0.2283311933 -0.0078758467 -0.0274893045 0.0451568253 0.1664034128 0.0814785138 0.3497274816 -0.2154579014 0.0430159308 -0.0865617618 -0.0644105300 0.2181190252 0.3716247976 0.4979070127 -0.1485975683 -0.1205527931 -0.0783827230 0.0113342153 0.0096672140
0d1dd8c66c8a284bfa012da952280157_M_0002_75.69_89.95 0.0361451507 0.1723127067 0.2574113309 0.2199036330 -0.0576541200 0.3666031361 0.6512134671 0.1954117119 0.1735497415 0.2287169993 0.1898982078 -0.0477996618 0.0768866092 0.1194722950 -0.0729343295 -0.1168619916 0.1969858259 0.3079822063 -0.1139497235 -0.1425555944 0.0752980784 0.2213086337 -0.1148795038 0.2292025983 -0.0836598724 0.1513663530 0.1265220791 0.3962194324 0.1839263439 0.4567424357 0.2947316468 0.1472286284 0.5018953681 -0.0072646863 -0.1801150888 0.1102722362 0.1366795599 0.1839933097 0.1646279693 0.1848940253 0.2385296077 0.1361570954 0.1507695764 0.4606697261 0.1941910088 0.5929543972 0.2428511977 0.3837295175 -0.1798880398 -0.2160344124 -0.1045141965 0.2465185225 0.0774209201 0.1833827943 0.1823882759 0.1148350388 0.1949904263 0.1431013048 0.2192065418 -0.0627173260 0.1133873761 -0.0917183384 -0.0270339940 0.2593299747 0.3191472590 0.0570686385 -0.0827776119 0.3915545940 0.5125906467 0.2860588431 -0.1201569960 -0.0786737651 -0.1329218149 0.3425396681 -0.0065099993 -0.1998373419 0.1240155101 -0.2085575759 0.1858368665 -0.0474569239 -0.0676243156 0.1862158477 0.1489764750 0.0911395103 0.2138667256 0.4448952675 0.3304119408 -0.1429485381 0.3550454080 -0.1701184213 -0.1830563992 0.2285761386 0.1958709657 -0.0960200205 -0.1096574217 0.1823426187 0.1047763005 -0.0861677155 -0.1026699841 0.2402151227 -0.0783074722 0.1257926971 -0.1087895110 -0.1649411023 0.2991521657 -0.0513540357 0.3687008023 -0.1077916920 -0.1029282436 -0.0395009220 -0.1618755609 -0.1637044698 0.0095311757 0.4243340492 0.1795699298 0.2980656624 -0.0504518189 0.0290128998 0.3204247653 -0.0589433275 0.0554118566 0.4303167164 0.1354071349 0.3447316885 0.4343418181 0.4779707193 -0.0181534849 0.0089290077 -0.1070179865 0.3820356131 0.1421862394 0.2434725016 0.0696424246 -0.1757440269 0.0066062799 0.1322399229 -0.2065725029 0.1320869029 0.1927680820 0.2962469161 0.1293597072 0.0317292511 -0.1017626822 0.1902795881 -0.0428166315 0.1676569879 0.2627505362 0.0108493110 0.0230195243 0.1364690661 0.1378902197 0.2066256553 -0.1577590704 0.0530625395 0.1726321429 -0.1550365984 0.1858760417 0.2721332908 0.2865454853 0.0316183604 0.0601656102 0.2580209672 0.0830495879 0.2829383612 0.3380393386 -0.0035081003 -0.0896623656 0.3584212363 -0.0881468207 0.1501115859 0.1097453535 0.0563095398 0.1021886244 -0.1370536983 0.0959094167 0.5523358583 -0.1024910063 -0.0514329709 -0.1512482017 0.0074800029 0.0872028470 0.1959589869 0.1325087100 0.3415149748 0.2076331377 0.2245135903 -0.0615773126 0.2756187320 0.0099328719 -0.0078733349 0.0718404874 0.1781248301 0.2246900946 0.0193070695 -0.1140301898 -0.0884365290 0.4667743742 -0.0968728960 0.5633985996 -0.0432537906 -0.1628608406 0.3437129557 0.0906501636 0.0875363350 -0.0534077249 0.2981735170 0.2077581286 0.0877908617 -0.1069469526 0.2056519091 -0.0859157294 0.0307758246 0.2737568319 0.2069120854 -0.0727948695 -0.1354435235 0.3115349114 0.0950877890 0.0975356400 0.0076254252 0.1325204223 0.2124672681 0.1983218640 0.1021704227 0.4247734249 -0.1183217391 0.0657638684 0.2866736054 0.1508305222 -0.0567115843 0.2489728183 0.2064160854 -0.1627265513 0.0769328997 0.4235722423 -0.0819977596 -0.0809866711 0.0663777590 0.2876982391 -0.0789007246 -0.1539224088 0.1165595427 0.2241569310 0.2043033242 -0.0492893532 -0.0323734656 0.0992889330 0.1775483191 0.0854858011 0.3206180930 0.1061577797 0.0802355260 0.2627302706 0.1183468103 0.3480973542 0.1798297465 0.0967056528 0.0113552995 -0.0891352445 0.1728606373 -0.0766539723 -0.0697537735 0.3714376092 -0.1361600608 0.3809908330 0.3541001678 0.3222921193 -0.0006583009 0.3612893224 0.1703197211 0.2039640695 0.4385398626 -0.1218235418 -0.0419207104 0.1677472591 0.2065621912 -0.1599277109 0.3227452338 0.0562666357 0.1928314120 -0.0070942128 0.4069786966 0.2097649574 0.0396406204 0.0417234227 0.1773011982 0.1634788662 -0.0481521338 0.1925342679 0.0191209242 0.3224824071 -0.1275196671 0.4492598474 0.1797234118 0.0188524835 -0.0046245814 0.2212061882 0.1689092219 0.3448064327 0.4628252387 0.0906274095 0.4355078638 0.2083740234 0.0686167628 0.1222590208 0.2456180304 -0.0753337517 -0.1704303920 -0.0535083339 0.1050100327 0.1591970921 0.3213466406 0.1235276163 -0.0936405584 0.1202064380 0.3008252382 0.0513139442 0.0200569518 -0.0414286815 0.1199765205 0.0463165157 0.1942753047 -0.0776216239 -0.1311754584 0.5953187346 -0.0993813425 0.0279210657 0.3179374337 0.1697037667 -0.1291990429 0.2447272539 -0.0877475441 -0.1061469167 0.0847075582 0.0874058679 -0.0659411922 -0.1058761403 0.4332590699 0.3285667002 -0.0681884512 0.0725492388 0.0837893263 0.1493566334 -0.0382747725 0.1289709359 0.1509261727 0.1390496194 0.3131849766 0.6286122799 0.1928149462 0.1196675897 0.2879754901 0.1818784177 -0.1208305061 0.2008732557 0.2171642333 0.1209617853 0.2417874634 -0.0963231996 0.1037179977 0.0632570758 0.1981999725 0.1321393847 0.3489484787 -0.1304326802 0.2669644952 -0.2257716507 0.1694530845 -0.1297727823 0.1653014272 0.1440640092 0.1309685111 -0.1060105041 0.3193067014 0.5499708056 0.1614787877 -0.2142874599 0.2585582733 -0.1268494427 0.4162322879 0.1469702274 -0.0254664384 0.5096396208 0.1790369451 -0.0846448541 0.0601292364 0.2200593650 0.1152732223 -0.0618961528 0.1996953040 -0.1727180779 -0.1075346842 0.3534302413 -0.2520696223 -0.1241286620 0.1856407523 -0.0721091405 0.1681826115 0.0166664403 -0.1016701758 0.3118324876 0.1102532297 0.1878679395 0.2877018452 0.1875339001 0.2824316323 0.1332910508 0.1454198062 -0.0891193449 0.1100479513 0.2608053386 0.0986989439 0.4064201415 -0.0205871277 0.1594866812 0.2028232217 -0.0464624278 0.3688483536 0.2888434827 -0.0506415144 0.3243943453 -0.1920433789 0.1128182933 -0.1439966559 0.1748053879 0.2322092056 0.2647465467 0.2259265184 -0.0944885164 -0.1261287779 0.4168676734 0.1564261764 0.1521249563 -0.1268345118 0.2550111413 0.4417741895 0.2167866975 -0.1840581596 0.5777134299 0.1193168238 0.2144024223 -0.0624424852 -0.1578121930 -0.1234458759 0.4597358406 0.3897607327 -0.1219548061 0.3725524247 -0.0473642573 0.0921204537 -0.0685375258 0.1357837915 0.2525483072 0.0614221208 -0.0503790751 -0.1057832092 0.1376558542 0.1080016941 0.0764136985 0.4776314795 0.3055494130 -0.1360388249 0.0747275949 0.1182792634 0.3448902071 0.0241787098 0.1727552116 -0.0858250633 0.2536693215 0.0765616596 0.2455920726 0.1974164844 -0.1107128188 -0.2078888714 -0.2262936383 -0.1669427603 0.2508982718 0.2186961323 -0.2475907505 0.1601814926 0.0888791308 0.3793992996 0.5318972468 -0.0810960606 -0.0041739363 0.1505985707 0.1737766564 0.2174690515 0.0795025826 -0.2484337986 -0.0598958470 -0.0923326537 0.3534443676 0.2291144431 0.2172012478 -0.1051552296 0.1536285430 0.1659530103 0.1440142542 0.2167987525 0.4183957577 0.2437621951 0.3139037192 0.2400978357 0.3080793321 0.4624542892 0.1818398088 0.2656289041 0.2218597978 -0.0180909336 0.2225333452 -0.0979374498 0.2771996260 0.2448658794 -0.1707499027 0.3061715662 -0.1269518286 0.2670402527 0.0422138199 0.1970699281 -0.0930294842 -0.0058248425 0.1269550174 0.0953765959 0.2858031988 0.1964814812 0.1260416508 0.1925725192 -0.0938974619 0.3955626488 0.0672955364 0.0791896880 -0.1421667337 -0.1042879522 0.1155777723 0.1295363605 -0.0252195410 -0.1293276548 0.3156610727 0.0684594512 0.4243929386 0.1617660373 0.4578640163 0.3752922118 0.2245862782 0.2085300833 0.3659265041 0.2131230682 0.3368427753 0.0633321479 0.4438445568 0.0092667574 0.2343885601 0.0474010482 0.3905144334 -0.0600809269 -0.1084998399 0.1358649731 0.2602360547 0.4951986074 0.2207436115 0.1711405069 0.3430725336 0.0223949440 -0.2258683145 -0.1377818584 0.0472085476 -0.0330973305 -0.0906203613 -0.0958158523 0.0933982506 -0.0948650539 0.6202437878 0.0902943909 0.1474057734 -0.1501309723 0.1450014561 0.0112908557 0.3384869397 0.3365628719 -0.0688300133 -0.1989723444 -0.0053826035 -0.0322335549 0.0442036241 0.1590141207 0.0465546995 0.2988689840 -0.1800185293 0.2017579377 -0.0779069811 -0.0742934868 0.2302174419 0.3460516632 0.3937524557 -0.1447757185 -0.1219556034 -0.0829239637 0.0274942480 -0.0202110782
0ddacceb331ddbfbabaefcd66f30a77a_M_0002_65.10_100.53 0.0856326669 0.2088174969 0.2534296215 0.3091851771 -0.0385391898 0.3668844998 0.7675011158 0.0570004880 0.0664941594 0.0778558627 0.0918283984 -0.0672950372 0.1683689952 0.2997022867 -0.0641965941 -0.1000988111 0.2198703736 0.3941413760 -0.1172928736 -0.1848567873 0.1008346975 0.0489112474 -0.1165414602 0.1657864600 -0.0877340361 0.1949962676 0.1266281605 0.4676445723 0.3062847555 0.6701420546 0.4062590301 0.1431738287 0.6889669299 -0.0075312895 -0.2028592080 -0.0373877585 0.1720260531 0.3795399666 0.2763742208 0.2242285460 0.2823007107 0.2208745778 0.0006019042 0.4154579639 0.0851230025 0.6976355314 0.0772691518 0.5273178816 -0.1595124900 -0.2490570694 -0.1081679314 0.3065660596 0.2703964114 0.3046497405 0.1453689188 0.0117375413 0.1517330706 0.2871056497 0.2079997659 -0.0495638587 0.0890144780 -0.0732667521 -0.0800385401 0.3238519430 0.2754021883 0.0089313481 -0.0834069625 0.1277572215 0.5959123969 0.1624678522 -0.1090865284 -0.0807447806 -0.1419479847 0.0986204892 -0.0095999371 -0.2077043653 0.1963953376 -0.2027239352 0.1411921531 -0.0295125060 -0.0768782720 0.2759546638 0.0346186236 0.0523043275 0.3752911985 0.2001763582 0.4652468562 -0.1963350773 0.1659895927 -0.1542191058 -0.1771702468 0.1117709726 -0.0019290848 -0.0846090019 -0.1221807823 0.0423267931 0.3889408410 -0.0991997123 -0.0736729801 0.4065570235 -0.0946912616 0.1765638441 -0.0590640530 -0.1817613244 0.3688896298 -0.0802695006 0.4116729498 -0.1397510618 -0.0759555697 -0.0379035063 -0.1677808464 -0.1337155700 -0.0516690612 0.6842258573 0.3098612130 0.2564370930 -0.1221430600 0.0414584614 0.3616325855 -0.0498771332 0.0333017260 0.5519208908 0.0330305547 0.2910721898 0.5097862482 0.5255428553 -0.1552144736 -0.0156120164 -0.0695462003 0.4679822326 0.0540864170 0.1892459393 0.0477621518 -0.1736708283 -0.0436653420 0.2580672801 -0.2070985436 0.0738824531 0.2202904224 0.1890493482 0.1307771057 0.0146940304 -0.0859975144 0.0303643420 -0.0235958714 0.0949188024 0.3850568235 -0.0505772531 -0.0514284596 0.1481091082 0.1845318079 0.4089646041 -0.1749426723 0.1430648565 0.2735594809 -0.1385839581 0.0291092861 0.3864836097 0.2966914177 -0.0256279334 0.0388113149 0.4383553267 0.0958749279 0.1773246527 0.4472877383 0.0168361701 -0.0869249478 0.1408329904 -0.0919822082 0.1013035104 0.0642831400 0.0387320258 0.0509518757 -0.1472695172 0.0620463789 0.6994501352 -0.0563402325 -0.0751084164 -0.1526821852 0.0537543073 0.1511352658 0.0250145011 0.1318135113 0.5854313970 0.0893134922 0.1514136940 -0.0560830794 0.3996274471 -0.0130929016 -0.0275428146 -0.0286099650 0.1496027261 0.2419940978 0.0273482576 -0.0988717303 -0.0950707868 0.5919766426 -0.0999574885 0.6307992339 -0.1016098782 -0.1512567848 0.2827216387 0.0314399451 0.2529338896 -0.0533913970 0.1203659028 0.3807255924 0.1996898800 -0.1227841452 0.2639811337 -0.0906305537 0.1441082656 0.3478438556 0.1784966439 -0.0620075315 -0.1157569885 0.5403079987 -0.0503279343 0.1295199543 -0.0471423715 0.0386240184 0.1187782586 0.3155339062 0.0503342785 0.5001100302 -0.1324109733 0.2340698242 0.0597386360 0.2655023932 -0.0472049937 0.3488911092 0.2017416358 -0.1688053459 0.0817754120 0.5631704330 -0.0951418728 -0.1053830609 0.0422559902 0.0677527338 -0.0440686084 -0.1539491713 0.2697283924 0.0617921390 0.1571493447 -0.0611500219 -0.1071833670 0.0542072840 0.0060625207 0.0489050969 0.5281579494 0.2062296718 0.1152005196 0.4809897244 0.0764195621 0.0909311697 0.1883725524 0.1041751131 -0.0064245127 -0.1067039296 0.0390668809 -0.0736684054 -0.0988248885 0.4047042727 -0.1155083477 0.5858408809 0.4283140600 0.2357845604 -0.0164900273 0.1516597867 0.2358206213 0.0919442698 0.4343584478 -0.1469200850 -0.0592802502 -0.0304366536 0.2318849117 -0.1429439634 0.4601241946 0.2572516799 0.0556465909 -0.0584329106 0.1796828210 0.0248712674 0.0210927650 0.1040952504 0.0898587257 0.1945805997 -0.0679850727 0.2078474760 -0.0251248293 0.1334947199 -0.1323460191 0.5477786660 0.1586076617 0.0539504699 -0.0303288754 0.3371680379 0.1719629318 0.1983765662 0.4368141294 0.1470685899 0.5096681714 0.1368874013 0.0870854482 0.0333880968 0.0607455447 -0.0619679950 -0.2006768584 -0.0956643000 0.1449923962 0.0349908695 0.1508709639 0.1117151305 -0.0899654254 0.0436536931 0.4497706294 0.0483655669 0.0212103054 -0.0244612917 0.0671967193 0.0066862833 0.2696539760 -0.0543439761 -0.1525509357 0.5640064478 -0.1302554160 -0.0071569425 0.3056436479 0.2406118065 -0.0663020015 0.1128900051 -0.0841393322 -0.1304771453 0.0680960491 0.1431794167 -0.0717428252 -0.1258273870 0.4054409564 0.2515305281 -0.0722671822 0.0786195397 0.0658996999 0.2925360203 -0.0524962284 0.1827401221 0.0208379049 0.1301419586 0.4283489287 0.6623317003 0.0720936805 0.4082176685 0.1094993874 0.2657038867 -0.1216792166 0.1220669523 0.1019703597 0.0586881898 0.2139340937 -0.1002393067 0.0695237890 0.0269891638 0.2641022801 0.0972854048 0.2408795953 -0.1354287118 0.3633903861 -0.2694627643 0.2528060675 -0.0947632268 0.0727084577 0.0426377505 0.1788757741 -0.1059615314 0.1280849278 0.3120732307 0.0561179928 -0.2515317798 0.2385960966 -0.0775682256 0.3939289749 0.1143021137 -0.0210753251 0.6656826735 0.1825313121 -0.0554862358 0.1305891722 0.3267782331 0.1895308197 -0.0670454726 0.2424551845 -0.1741026789 -0.1356327832 0.4667859674 -0.2495977730 -0.0992845893 0.2903766036 -0.0463050269 0.2200865895 0.0049997075 -0.0989252478 0.4833981991 0.1078095511 0.1292556524 0.3404144645 0.1923682839 0.0698259622 0.0449840464 0.1427505314 -0.0521243326 0.2608395219 0.2332547903 0.1932450831 0.5111669302 -0.0443137810 0.2681019604 0.0483491719 -0.0710029826 0.1320397705 0.3200278282 -0.0584767386 0.3870146871 -0.2331058681 0.2020115852 -0.1433728933 0.3928972483 0.1795558035 0.0012122430 0.3619349897 -0.0718793571 -0.0893121064 0.2165828645 0.1389405727 0.0903738067 -0.1388296485 0.3751301765 0.5148432851 0.3873178661 -0.1957741529 0.5734511018 0.1486124545 0.1761642396 -0.0781631917 -0.2158461064 -0.1238597333 0.6268025041 0.4143231511 -0.1394583285 0.4499010444 -0.0341740847 0.3095901906 -0.0845164210 0.1358749419 0.3675959110 0.0785411224 -0.0090911062 -0.1208273321 -0.0036787447 0.1263181269 0.1839503199 0.6493655443 0.2488531023 -0.1460485309 0.2076202035 0.1840921789 0.0995607823 0.0076933908 0.3281373084 -0.0877022967 0.0860388651 0.0478839390 0.1513427645 0.2247821391 -0.1061608493 -0.2510840595 -0.2427335978 -0.1466437280 0.4287535548 0.2417282760 -0.2586640120 0.2253779471 0.2903662920 0.3607588410 0.4587948322 -0.0401856676 0.0345306695 0.1223065257 0.0411491618 0.4502934515 0.1721998751 -0.2621101439 -0.0812150463 -0.0996550471 0.4244373441 0.3859241903 0.2302606553 -0.1265873611 0.3721011281 0.2237021178 0.0339065120 0.2777135074 0.5895299911 0.0657657012 0.4688019753 0.1997570097 0.1886795759 0.2151277959 0.3253139853 0.4305532873 0.0650995299 -0.0346511528 0.0599045977 -0.1041737646 0.3858148158 0.5515481830 -0.1926799119 0.3710489273 -0.1103217080 0.0697798133 0.0032334942 0.3026796281 -0.1061748266 -0.0110319490 0.0160839446 0.2957608402 0.1850265861 0.0550655052 0.0912227184 0.2243872136 -0.0952782780 0.2505868673 0.0400049947 0.0282430016 -0.1589147747 -0.1312781125 0.1619466394 0.1220437586 -0.0163895339 -0.1447455734 0.4322632551 0.0077017983 0.6125854850 0.1668649465 0.4960959256 0.2247756571 0.2152515054 0.0622830875 0.5874102116 0.0356118381 0.3415142298 -0.0190091096 0.6586396098 0.0994662270 0.1890859902 0.0356833711 0.2190693319 -0.0711192563 -0.1170356274 0.0692301840 0.0853106305 0.7181184888 0.1254170537 0.3960633874 0.4062230885 -0.0136629408 -0.2218986899 -0.0867733955 0.1311050355 -0.0594311990 -0.0844159275 -0.0722415447 0.0401264057 -0.1195578501 0.5590844750 0.0608713254 0.2194615006 -0.1674966067 0.2794370949 -0.0221916400 0.3175621033 0.2299000770 -0.0798080713 -0.2283966839 -0.0507644415 -0.0174741391 0.0149407778 0.1902272701 0.0297186710 0.2781795859 -0.2057108581 0.1485495865 -0.0783849880 -0.0704163462 0.1616306901 0.3069488108 0.5617071390 -0.1615104377 -0.1140627265 -0.0625736117 0.0363654904 -0.0016825865
10826f8b2468fca342f4161dce3d5356_M_0000_28.06_47.31 0.0997269154 0.1597996056 0.2055406868 0.2856070101 0.0400994420 0.2375771999 0.6622152328 0.0798822492 0.0595836304 -0.0606303811 0.0141577814 -0.0544137210 0.1952968538 0.3968216479 -0.0458556339 -0.0799306631 0.2599821389 0.3604401350 -0.0641270280 -0.2032015920 0.2197497189 -0.0544791743 -0.1280075908 0.0947006121 -0.1094594523 0.1339545995 0.1814938188 0.3713765144 0.3664535284 0.7509194016 0.6008495688 0.1029904932 0.5485885739 -0.0215236116 -0.1816618145 0.0427754149 0.3508333862 0.4139486849 0.2850058675 0.1943684071 0.1214740202 0.1503993720 -0.0569720753 0.2939761877 0.0930419043 0.5425698161 0.0397183746 0.3857944906 -0.1706682593 -0.2431784868 -0.1141811311 0.3073658943 0.3130138814 0.3261604905 0.2719206214 0.0199793056 0.3399361074 0.3165985942 0.1839014441 -0.0329380631 0.1293485165 -0.0659737810 -0.0670452341 0.3079748750 0.2982792854 0.1090227142 -0.0743521675 -0.0149972606 0.4211423099 0.0185661465 -0.1285654753 -0.0982219204 -0.1568270922 -0.0439962074 -0.0325303786 -0.2191149145 0.3224348724 -0.2064079195 0.3300302625 -0.0277857333 0.0012266147 0.1771181077 0.1481203139 0.0485013947 0.2969941497 -0.0201724842 0.3952043951 -0.1976754814 0.0213495754 -0.1526283026 -0.1752681881 0.1551371962 -0.0342286490 -0.0930608958 -0.1012454256 0.1955228299 0.3562252223 -0.0793312639 -0.0694800019 0.4238139391 -0.1019034907 0.1170196459 0.0979168490 -0.1846492887 0.1934702992 -0.0519283153 0.4445433319 -0.1297183484 -0.0531634502 -0.0271073598 -0.1474820077 -0.1452332884 -0.0606934428 0.7786085606 0.4895561337 0.3171828985 -0.0753527284 0.1138525009 0.2468840182 0.0098862257 0.0714689046 0.5497396588 0.0084723178 0.1566402465 0.4523192346 0.6067147851 -0.1832131147 -0.0471749939 -0.0578539558 0.3648100793 0.0829338133 0.0913582817 0.1185069755 -0.1500745714 -0.0594447069 0.3500176072 -0.1970899254 0.1545094699 0.1251382530 0.2941742539 0.0544992499 0.0233439021 -0.0728819072 -0.0319060534 -0.0014920384 0.0745358765 0.4184100926 -0.0888510495 -0.0303322338 0.1424845159 0.2248144150 0.4347292781 -0.1675589979 0.1177062467 0.1986487061 -0.1013973579 -0.0329664871 0.4491875768 0.2733366191 -0.0087509165 0.0762704313 0.4604585171 0.2165103257 0.1453459412 0.3265869915 0.0434461758 -0.0687355772 -0.0071672490 -0.0566244423 0.1859290600 0.0913830176 0.0514184088 0.0453535691 -0.1430575550 0.0519352034 0.6520845294 0.0829892829 -0.1043475494 -0.1736015230 0.0621267483 0.1909344494 -0.0755242258 0.0494949296 0.6071826220 -0.0057241954 0.0089211864 -0.0574774407 0.4386209846 -0.0118738562 -0.0384704284 0.0181811340 0.0784460157 0.3025897145 0.0277296342 -0.1184535548 0.0294845328 0.5278192759 -0.0981099084 0.4170113206 -0.0824394152 -0.1412491947 0.1147784442 -0.0220377166 0.3567275703 -0.0477125533 -0.0146627650 0.5105356574 0.2381410152 -0.1293515116 0.2088801414 -0.0975382775 0.1247347444 0.3254563510 0.0908188149 -0.0628375486 -0.0776008740 0.5527682304 -0.2333975285 0.0699269921 -0.0531104952 -0.0163167715 -0.0454175137 0.3414865434 0.1208661944 0.4630494118 -0.1583237648 0.2154597491 -0.0032243952 0.3424796760 0.0698712692 0.4043186009 0.1787188053 -0.1558004171 0.0256811529 0.5362066031 -0.0898780152 -0.1242992431 0.1109373420 -0.0385389850 -0.0199702308 -0.1653680056 0.3178968728 0.1495205611 0.1632617116 -0.0261388849 -0.0978264213 0.0301946383 -0.0065505952 0.0021201055 0.6790800095 0.2800412476 0.2185836881 0.4929535389 0.0743400306 0.0128597692 0.2201426923 0.2144296169 0.0961767212 -0.0936326459 0.0536374189 -0.0850436389 -0.1060039252 0.3994602263 -0.0879232585 0.5055553913 0.3550990522 0.1401904821 -0.0265887771 0.2028181851 0.3559462130 0.1604400575 0.2232697457 -0.1556472927 -0.0367981084 -0.0935988426 0.1901703626 -0.1452450901 0.5703241825 0.2582929730 0.0184340794 -0.0656319559 0.0171335377 0.0790496990 0.0101137692 0.0909385979 -0.0143223945 0.1232452691 -0.0634652227 0.2478688359 -0.0532992631 0.1162046343 -0.1328817755 0.4654153585 0.1813045293 0.0429315828 -0.0259991791 0.4635785520 0.0789713711 0.0524602011 0.2617795169 0.1478496939 0.5022281408 0.1112083942 0.1063392758 -0.0146788806 -0.0155056249 0.0206259657 -0.1953991652 -0.1133726239 0.1310692430 0.0012219511 0.1685510725 0.1834911555 -0.0519225337 0.0772766098 0.4407111108 0.0174385682 0.0112609845 0.0113885524 0.0880127251 0.0026186500 0.2440027893 -0.0380290076 -0.1200134233 0.3927876055 -0.1456097960 0.0051856651 0.2388685048 0.1868801862 0.0959344804 0.1310983151 -0.0671508461 -0.1275318563 0.0808898136 0.2291813642 -0.0719193444 -0.1199158430 0.3654872477 0.1165558696 -0.0736894682 0.2250656784 0.1898218840 0.2210575044 -0.0516164936 0.2940471768 -0.0403788835 0.2742404640 0.3598386943 0.4377154112 0.0951051563 0.5306999087 0.0198978856 0.3113224208 -0.0973733291 0.0103440490 0.0056360103 0.0578345731 0.3269887567 -0.1062192619 0.0652897954 0.0042669098 0.2610696256 0.0487649105 0.3439801335 -0.1356924921 0.3516377509 -0.2690123320 0.2634235322 -0.0878111646 0.0311382171 0.0510620326 0.2610771656 -0.0898448378 0.0061103590 0.0919638351 0.0361071452 -0.2683727443 0.1453823149 -0.0398517437 0.1737088710 0.0763671026 -0.0189522132 0.6199971437 0.1736473739 -0.0446803905 0.1039053425 0.3670527935 0.3529299200 -0.0686812550 0.2036795318 -0.1704125255 -0.1106320322 0.3889381289 -0.2689566612 -0.0815824121 0.4388930202 -0.0648269355 0.2929787636 -0.0126801329 -0.0836030543 0.6657428741 0.1900835633 0.2511682212 0.3149979413 0.3409827352 0.0641726106 0.0549072884 0.3288162351 -0.0530792661 0.2091585100 0.0316547230 0.2254181057 0.3477566242 -0.0418263488 0.3746238947 -0.0865592211 -0.0563219115 -0.0259903353 0.4702010453 0.0840918124 0.2553644776 -0.2355631888 0.2422816753 -0.1320684701 0.3589546084 0.0807316974 -0.0899772346 0.3682284653 -0.0491406843 -0.0549820624 0.0483762883 0.0468761660 -0.0226794668 -0.1233270466 0.2581433356 0.4093818963 0.5819227099 -0.1919892728 0.4727155864 0.1598896086 0.2043550760 -0.0923357531 -0.2266793698 -0.1185729951 0.5653124452 0.3572977185 -0.1333107650 0.3960435987 -0.0197080076 0.4129335582 -0.0817613453 0.1042843759 0.3893795609 0.1925964653 -0.0350395367 -0.1150528565 -0.0345907882 0.1081287712 0.3427010179 0.6000729203 0.1483652443 -0.1767936647 0.2622426450 0.1975041628 -0.0643818453 0.0333182700 0.3639493287 -0.0839924291 0.0052247760 0.0658523738 0.0534635484 0.2142274082 -0.0803890973 -0.2049673051 -0.2298059911 -0.1019107774 0.5249373317 0.1319889575 -0.2368414104 0.2640334964 0.3931962252 0.2123135030 0.3000589907 -0.0320297033 0.1864669919 0.0513249487 -0.0142680146 0.5558112264 0.4202003479 -0.2504748106 -0.0938438252 -0.0954881385 0.4378142655 0.2845450640 0.4225275815 -0.1362011880 0.2883406579 0.2101267874 -0.0363367498 0.3002805710 0.4955071509 -0.0563398711 0.3894643784 0.0897904485 0.0320109576 0.0340733342 0.3559416533 0.5246497393 -0.0103026927 -0.0259270333 -0.0469937921 -0.1165336668 0.4845232666 0.5607993603 -0.1849602759 0.2796679735 -0.0875113010 -0.0344137996 0.1575715840 0.3020260632 -0.1139897779 -0.0087921591 0.0389063843 0.3279846907 -0.0185041036 -0.0167887677 0.2601532638 0.3016777635 -0.0974809974 0.0983330309 0.0838017911 0.0258350279 -0.1309381872 -0.1443336904 0.2402334511 0.2135512233 0.0084059155 -0.1586917639 0.3521113992 -0.0825454295 0.5356357694 0.1135309935 0.4286473691 0.1146359667 0.1859251410 -0.1126804799 0.7420950532 0.0294715296 0.2521685362 0.0189448427 0.6026886702 0.1139365509 0.2103696018 0.1744424403 0.0574345663 -0.0994360223 -0.1329589337 0.1334348172 -0.0673764125 0.6800772548 0.0112663582 0.3188286424 0.3216038644 0.0106316926 -0.2184786648 -0.0619790219 0.1590524465 0.0449478626 -0.0785802975 -0.0568244532 0.0565071367 -0.1538362950 0.3399805129 0.1732588410 0.3185740411 -0.1476371884 0.4079277217 -0.0016672844 0.3015825450 0.1061025560 -0.0814601183 -0.2384129316 -0.0230736621 -0.0372332670 -0.0310624186 0.0819706842 0.0257239342 0.4331943095 -0.1912207752 0.1939220130 -0.0676508397 -0.0858594105 0.0424336381 0.1750276089 0.4837566316 -0.1510104090 -0.1096915826 -0.0595369413 0.0469168872 -0.0282406956
14182ff1f33de9091118f5107cdb18aa_F_0032_1213.20_1252.05 0.1057797521 0.1630577147 0.0728696138 0.4708207250 -0.0485677570 0.3180274665 0.4436518550 0.2062958628 0.1777040660 -0.1636664122 0.0612869635 -0.0541021004 0.1573805213 0.3644713461 -0.0604056418 -0.0509853996 0.1410581321 0.4231934249 -0.0726031810 -0.1960228235 0.0925492197 -0.0773545802 -0.1581573933 0.1828113198 -0.1297602504 0.2186460197 0.2380672246 0.6273010373 0.2770664096 1.0349949598 0.4000975788 0.1083897501 0.5897454023 0.0113049746 -0.1529425830 -0.1364942789 0.1244894266 0.5264526010 0.4372420609 0.1637589484 0.0783638209 0.1139658540 -0.0465856083 0.1782093495 -0.0029775891 0.4862642586 0.0555225946 0.3477625251 -0.2003892064 -0.2557097673 -0.1170655191 0.4761598408 0.3378174603 0.2434322834 0.3584915996 0.0016814778 0.0334362499 0.3980571628 0.2303293198 0.0014528246 0.0703967065 -0.0352134816 -0.0307398122 0.2510192394 0.4851829112 -0.1019294336 -0.0813514367 0.1561126709 0.4287829101 -0.0429918915 -0.1481278837 -0.0614133999 -0.1829301417 0.2094727308 -0.0338672996 -0.2026692033 0.3823296428 -0.2289181650 0.3257162273 -0.0327866487 -0.0136186369 0.1306205988 0.1270035207 -0.0275828596 0.4029715061 -0.0366688184 0.4420551956 -0.1725710481 -0.1210599542 -0.1711951047 -0.1435821056 0.0375918448 -0.1773499250 -0.1300199330 -0.1002131253 0.1808713973 0.3792509139 -0.0863869414 -0.0585738644 0.5250169039 -0.1099132299 0.1742515713 0.0096900081 -0.1734927148 0.2429856658 -0.0028106882 0.5750423670 -0.1145147681 -0.0909200385 -0.0141216684 -0.1823342294 -0.1377983242 0.0577015802 0.5774412751 0.4513663352 0.4174017906 0.1892115027 0.0741684884 0.3892667592 -0.0057271742 0.0187189821 0.7721594572 -0.0866585448 0.0702934116 0.2664598525 0.8664191365 0.1666061878 -0.0748270974 -0.0597747825 0.3532230854 -0.1101327464 0.1870653033 0.0176402889 -0.1501288712 0.1036713198 0.3012892604 -0.2284717113 0.1633961797 0.0690585300 0.3668825030 -0.0066730278 -0.0040494641 -0.0629394129 0.0137168448 -0.0175791439 0.1258557290 0.4017831087 0.1121111587 0.1476629674 0.1413630396 0.2547543645 0.3593935966 -0.1979879588 0.0948756412 0.1333035976 -0.1044728011 0.0591809526 0.5379137397 0.4123096466 -0.0459125675 0.0996019393 0.3033476472 0.2055916488 -0.1423394233 0.2132277787 -0.0148086557 -0.0773890689 0.0479960553 -0.0643690377 0.2892993093 0.1174214408 -0.0028019724 -0.0518281162 -0.1641321629 0.0895628780 0.3856137991 -0.0607296079 -0.0963552818 -0.1698829085 0.0885985643 0.1876101494 0.1264944375 0.0730127916 0.4865399897 0.0829750896 -0.0980176628 -0.0803747028 0.2724458575 0.0213469081 -0.0617571473 0.0021407194 0.0713425130 0.0905163065 0.0113363909 -0.1312072873 -0.1058830619 0.9435799718 -0.0607711449 0.6920005679 -0.0226859450 -0.1465342790 0.1446961015 -0.0410965830 0.3038929999 -0.0461707860 0.1528193355 0.3836244047 0.1862524152 -0.1099523678 0.1774955541 -0.0917442814 0.1391841471 0.3957939446 0.1044640914 -0.0439345166 -0.0419018045 0.7329960465 -0.2865966260 0.0495495424 0.0360523611 -0.0092845410 0.0308491066 0.5109404922 0.0012540095 0.2406937927 -0.1833363920 0.2509992719 -0.1859642714 0.2958810925 -0.1070912108 0.5101282001 0.3370388746 -0.1886734813 0.0054426286 0.3606425524 -0.0972728059 -0.1433063000 0.0734860301 -0.1300051212 0.0018461319 -0.1649269313 0.3199889958 0.2042948455 -0.0107133240 -0.0210211743 0.0293720439 0.0219787937 0.0172908567 0.0982300416 0.4446880519 0.2352677435 0.1844035834 0.4183624685 -0.1146361530 0.2647761106 0.4031103551 0.2313832790 0.1714422107 -0.0951183289 -0.0303777568 -0.0715107992 -0.0978866294 0.2748401761 -0.1205184013 0.5795772672 0.5290284157 -0.0023615090 0.0155151663 0.2095757127 0.3704222739 0.2411978543 0.4021357894 -0.1359063536 -0.0493090190 0.2259880900 0.2633366287 -0.1364828348 0.5159603953 0.2441310883 -0.0262147691 -0.0062372806 0.1623791158 -0.1840873361 0.0342669673 0.0509480909 0.0378294438 0.1341047436 -0.0636382699 0.1339308321 0.0718023553 0.3932773471 -0.1108785868 0.3122290671 -0.0376643166 0.0479521640 -0.0442331247 0.6031053066 0.1376993060 0.1878151596 0.3666452467 0.1172213033 0.7541733384 -0.0435598306 0.0534545071 -0.0624278225 0.2105823755 -0.0629731864 -0.1607076675 -0.1328999251 0.2067991495 0.1637810022 0.2564885318 0.1581965536 -0.0494485945 -0.0413253047 0.4390172958 0.0290887132 -0.0047024228 -0.0359327793 -0.0493066087 -0.0206331238 0.2078934610 -0.0368989594 -0.1377861649 0.7413188219 -0.1584495604 0.2838732004 0.0781374052 0.1798247397 -0.0619942136 0.1675887108 -0.0673816055 -0.1404961348 0.0067993999 0.1732621938 -0.0658740401 -0.1340883672 0.0790911689 -0.0247260947 -0.0906484947 0.1787809730 0.2941006124 0.1672963500 -0.0759987161 0.3279227018 -0.0709721744 0.3962437809 0.2646851838 0.3985313773 0.0312091708 0.4734716415 -0.1270294487 0.3656776845 -0.1468151361 -0.0912715569 0.0157150384 -0.0539933853 0.2335682809 -0.0722649544 -0.0577591993 -0.0045456593 0.2295448780 0.0320041068 0.5662229061 -0.0932545289 0.1956828237 -0.2541212440 0.1899800450 -0.0433534272 -0.0534171723 -0.0416088402 0.2135087699 -0.1073081195 -0.1104945913 0.0959402770 -0.0844476074 -0.2428597957 0.1615154892 0.0141512500 0.3486061394 0.1117717177 -0.0210951585 0.4596395791 0.2518789470 -0.0791925564 0.1066438332 0.5052191019 0.2023697644 -0.0951833203 0.1461354941 -0.1895105094 -0.1171938628 0.4352540076 -0.2367968261 -0.0862651840 0.4733303785 -0.0382514149 0.1502847970 -0.0716843978 -0.0948839933 0.4252884388 0.2105525434 0.3237707019 0.4065624774 0.0933789164 0.2854711115 0.0369592719 0.4662507474 -0.0166735314 0.2210351974 -0.0235432405 0.1483742297 0.6385020018 -0.0447054319 0.3501093090 -0.0007305071 -0.0717319921 -0.0856721997 0.5832776427 -0.0378059447 0.1325976402 -0.2744600773 0.1582887471 -0.1403192729 0.4966226220 0.1325446367 -0.1113632023 0.3912483454 -0.0154851936 -0.0367163494 -0.1224845722 -0.0502816997 -0.1186070517 -0.1363374591 0.2071212679 0.5296875834 0.4958162904 -0.2088516802 0.2104667127 0.1145603284 0.0189617984 -0.1289826781 -0.1962137073 -0.0787044913 0.5260866880 0.6303579807 -0.1119297743 0.3262525201 -0.0101755001 0.3935723007 -0.0864325911 0.1188900843 0.2935420871 0.0592311174 -0.0670082197 -0.1184475422 -0.0285602268 0.0871224329 0.4104032815 0.5247782469 0.2183222026 -0.1521196514 0.2717066109 0.1644075811 0.1348742694 -0.0374140702 0.4266205430 -0.0790212005 0.0584803186 0.0790238231 -0.0527861714 0.1944404840 -0.0948750153 -0.2242278010 -0.2497756630 -0.0872259215 0.4425050616 0.1326885670 -0.2126394361 0.2765485346 0.3816240430 0.2541555762 0.4495936930 -0.0647474900 0.2259798646 0.0020434544 -0.1209368855 0.5508912206 0.3314195275 -0.2704939842 -0.1026096568 -0.0958455801 0.4267106652 0.3873362541 0.5086917877 -0.1051120833 0.3296529353 0.1575959921 0.0487453379 0.4989977777 0.6440092325 0.0587433577 0.5874197483 -0.0039283782 -0.0748069361 -0.1630616635 0.2859996557 0.5929912925 0.0274616349 -0.0266637132 0.1219784021 -0.1478643119 0.3184467554 0.6085140705 -0.2103382498 0.1649650186 -0.0627595708 -0.0108127873 0.2220166922 0.2628374100 -0.1018287241 -0.0605113953 -0.0514968708 0.3370478451 0.0997930020 0.1016893834 0.0186840259 0.4221185446 -0.1202067435 0.3318346441 0.0049005235 -0.0468911454 -0.1466678083 -0.1785035878 0.1409138590 0.0923668742 -0.0097650001 -0.1989915669 0.3511968851 -0.1333359331 0.7490635514 0.1589436382 0.3794313967 -0.0756442249 0.1148946956 -0.0780197307 0.8652509451 -0.1223843396 0.0914173946 -0.0835957453 0.5482837558 0.1039585769 -0.0181484241 0.4539887905 0.2216028869 -0.0987154543 -0.1412103027 0.1652547419 0.1232545599 0.5055865049 -0.0924445540 0.4487090409 0.2806008458 0.0154743949 -0.2190632522 -0.0788773745 0.1516026706 0.0854794979 -0.0504832156 -0.0477748364 0.1210097000 -0.1187814847 0.4941946566 0.1737616062 0.4945037067 -0.0847925544 0.2921648026 -0.0125179058 0.0585375167 0.2529622316 -0.0590333492 -0.2514573932 0.0064229942 -0.0341313630 -0.0284689534 0.0508231521 0.0998721346 0.5468502045 -0.2109792084 -0.0079318276 -0.0802416503 -0.0733541027 0.0485757329 0.2052340358 0.4999629557 -0.1303423792 -0.1012963578 -0.0479036607 0.0222996194 0.0011633676
14182ff1f33de9091118f5107cdb18aa_M_0030_1179.15_1200.40 0.0768636987 0.3292483389 0.2332834005 0.2429275960 -0.1608454734 0.4707737267 0.8868505359 0.2259794921 0.1747085601 0.0792604685 0.1820261329 -0.0822465941 0.1122192070 0.2338020205 -0.0649223626 -0.0893430710 0.2676697671 0.5846587420 -0.1105254591 -0.1666682810 0.0712939501 0.2175998986 -0.0932557359 0.2783439159 -0.0835313126 0.1696230769 0.1523927003 0.4750245810 0.1474642754 0.6790884137 0.4781557620 0.1796283871 0.7945307493 0.0374633335 -0.1945526302 0.0409897566 0.0894103721 0.3111986518 0.2309118509 0.2680331171 0.2551825941 0.2372499406 0.1192290410 0.6747119427 -0.0131812841 0.8899286389 0.0196296107 0.5937780142 -0.1598850191 -0.2506422698 -0.0953831598 0.3377629220 0.2338617891 0.1941002756 0.1228643507 0.0170570612 0.0863382965 0.2068491727 0.3514962196 -0.0371142514 0.1649454981 -0.0889201835 -0.0941576660 0.1699438691 0.3555926383 -0.2328971624 -0.0900145695 0.2959408164 0.7679303288 0.2190874964 -0.1122438088 -0.0675918981 -0.1497636735 0.1345857382 0.0373535231 -0.2226722538 0.0856034979 -0.2035443783 0.0825374722 -0.0533222891 -0.1652581841 0.2881400585 0.0275992118 -0.0208944734 0.3393028975 0.3167146444 0.5320275426 -0.1919113994 0.2186588496 -0.1472239792 -0.1812218130 -0.0302768033 0.2163185179 -0.0846762955 -0.1087031588 0.0535205603 0.4333411455 -0.0984838158 -0.0603056923 0.4482633471 -0.1000526994 0.1766082793 -0.2039075345 -0.2024286985 0.4069722593 -0.1179235801 0.5729980469 -0.1505267769 -0.0670565590 -0.0694229156 -0.1690243930 -0.1230090484 -0.0745678842 0.6985420585 0.1829311550 0.3867383003 -0.1732777953 -0.0259024464 0.3042308986 -0.1104191393 0.0606681481 0.7576954365 0.0760449022 0.4220781326 0.5670442581 0.6063305736 -0.1924139708 -0.0422019325 -0.0774057731 0.6474660039 0.0998714715 0.2771235406 0.0566865616 -0.2115513682 -0.0617558286 0.2086136192 -0.1916443706 0.0472979993 0.1871751249 0.3405953348 0.0918392837 0.0365368836 -0.0626748055 0.0927179530 -0.0379967019 0.0761180371 0.5413356423 -0.0473883450 -0.1270823032 0.2653177083 0.2040228993 0.3317885101 -0.1895388365 0.1407549679 0.2673960328 -0.1323824525 0.1147560775 0.4324848652 0.4535425901 0.0610409342 0.0640441030 0.2758988142 -0.0003253808 0.0871579126 0.3649423122 -0.0205112807 -0.1000734642 0.2318116724 -0.1217465773 0.1006583497 0.1283323765 0.1166180745 0.0252268985 -0.1303501129 -0.0259208679 0.6365966201 -0.2719636858 -0.0501046516 -0.1524784416 0.0621719360 0.0584307499 -0.0001661843 0.1357050091 0.4946213365 -0.0063005611 0.1261458844 -0.0456616655 0.3425527811 0.0136458445 -0.0161584616 0.0923906192 0.1995761693 0.0911987424 0.0439953431 -0.1055480018 -0.2325943261 0.6048878431 -0.0951317325 0.6808728576 -0.1379723400 -0.1797500253 0.3401256204 0.0627491400 0.1571727842 -0.0559730716 0.1517872661 0.3309876323 0.1099772155 -0.1317065954 0.2911308706 -0.0811120197 0.1597711146 0.4363727272 0.2357216030 -0.0868042633 -0.1548689008 0.4452430010 -0.0951421782 0.1206178889 -0.0623120368 0.1236722469 0.0984670073 0.3005058467 0.1315743774 0.5711556077 -0.1264880002 0.2329947203 0.1435632408 0.1090914682 -0.1816654503 0.3632574081 0.2266715914 -0.1744378656 0.0741172284 0.5961940289 -0.1052073315 -0.0878044963 -0.0563163981 0.1874853671 -0.0708217770 -0.1028373986 0.2540883720 0.1457718760 0.1957236081 -0.0969020352 -0.1265950203 -0.0358127467 0.1021012366 0.0280773938 0.4439106882 0.1891663522 0.0654330328 0.3574679792 -0.0636150837 0.2401464880 0.1726512909 0.0169762708 -0.1387134194 -0.1176275685 0.0334144533 -0.0572800599 -0.1267448962 0.5745308995 -0.1324467361 0.6872949004 0.5176671743 0.3761756420 -0.0175539684 0.0975302085 0.1984880567 0.1591232121 0.4590169787 -0.1544227004 -0.0996058956 -0.0851413682 0.3450489640 -0.1544388235 0.5959227085 0.2448876798 -0.1121602282 -0.0771203935 0.2442670912 0.0739981905 -0.0091797942 0.1454868466 0.0991763026 0.1670537144 -0.0758095235 0.2721238136 -0.0386416279 0.1772729456 -0.1087265611 0.5374396443 0.0465741381 0.0437582247 -0.0050671273 0.2174411714 0.1929620653 0.2941101789 0.5900263786 0.2004331052 0.6875158548 0.2298210561 0.0440174453 0.0878706127 0.0321599208 -0.1434861571 -0.2320380658 -0.0830241591 0.1237927377 0.0658210441 0.0701738521 0.1481368095 -0.1139160395 -0.0621324107 0.6118164062 0.0627734885 0.0207100511 -0.0754279122 0.0316312686 0.0612037294 0.1672684997 -0.0651281103 -0.1704786122 0.6141795516 -0.1389607489 -0.0350010917 0.2720789015 0.2776582837 -0.2687531114 0.0649277270 -0.1224543750 -0.0990456864 0.1273264289 0.1248743683 -0.0704088733 -0.1290387809 0.3920361996 0.2524099946 -0.0882876366 -0.0805589259 -0.0836984441 0.3539353013 -0.0312913954 0.0862874612 0.0955138728 -0.0077087581 0.3713455200 0.8748475313 0.0184893366 0.2566869855 0.1862455308 0.0920870602 -0.1250849515 0.0978114083 0.1007764041 -0.0550496802 0.3483143449 -0.1022943184 0.0285181776 0.0122524351 0.4168930352 0.1772186607 0.3044564724 -0.1292546839 0.3009192646 -0.2777209282 0.2325773239 -0.0852148235 -0.0836217552 0.0002589878 0.1993348002 -0.1112482846 0.2241958082 0.6543049812 0.0674437284 -0.2346894145 0.3328764737 -0.0984567255 0.4007720053 0.1408550292 -0.0193069335 0.7400574684 0.2784354091 -0.0763057321 0.1481039375 0.1527563930 0.0871144980 -0.0735142529 0.2716015875 -0.1747362167 -0.1602402925 0.5617077947 -0.2449787408 -0.1171489209 0.1801210046 -0.0374716558 0.2075435519 -0.0565521009 -0.0970480442 0.4283208847 0.0683194548 0.0686995164 0.5077912211 0.0819086581 0.1057833880 0.0056477077 -0.0499321669 -0.0720188916 0.2644988000 0.1908729523 0.1061141640 0.4870259166 -0.0243991502 0.2772412002 0.0199176185 -0.0709026754 0.2220994085 0.3112180829 -0.1688780636 0.3613837659 -0.2342282832 0.1756678969 -0.1348318011 0.4228206277 0.2113257349 0.1439898461 0.4553644061 -0.0887833163 -0.1404111236 0.2944457233 0.0589520186 0.0399390534 -0.1447925121 0.3268855214 0.7196537256 0.3122095764 -0.1957885623 0.7493875623 0.2038244754 0.1879351437 -0.0555658117 -0.2093869746 -0.1263799518 0.7358142734 0.4877797067 -0.1405926794 0.6160783172 -0.0343212076 0.2169272304 -0.0969104320 0.2176623791 0.4363312423 0.0477333851 0.0051041832 -0.1307771951 0.0581306890 0.0829615891 -0.0144630615 0.7724313140 0.2978516519 -0.1321754307 0.1602150053 0.1845249832 -0.0125339013 0.0219897106 0.3074441254 -0.1139817536 0.2459157705 -0.0217797011 0.2027821988 0.1086541787 -0.1354914904 -0.2509196103 -0.2420434356 -0.1651593596 0.4773620665 0.2877734900 -0.2568070590 0.0665338784 0.1666017473 0.5148654580 0.7180053592 -0.0563208237 -0.1433182657 0.1253983974 0.1461435556 0.4291900396 -0.0662090406 -0.2857054174 -0.0918254331 -0.1057736278 0.6968178153 0.3494285047 0.0678148717 -0.1084130704 0.3800789118 0.1389917284 0.0086640874 0.2228368968 0.6941424608 0.0612158291 0.3846864998 0.1789585352 0.2440858185 0.4101600349 0.1987259388 0.4572848380 0.0052585090 -0.0488693193 0.0168026630 -0.1050636768 0.4612174928 0.6144497991 -0.1890686452 0.2766965330 -0.1242727339 0.2183856964 -0.1876609921 0.3257113099 -0.0949829817 -0.0111930454 -0.1854570508 0.2705377042 0.1662123501 0.0838022456 0.0769304335 0.1889887005 -0.0901593566 0.2722096443 0.0244199894 0.0099487584 -0.1852199882 -0.1439009160 0.1066424549 0.1807625592 -0.0590811521 -0.1347197890 0.4892988801 0.0138001004 0.6608166099 0.1880661398 0.2662552893 0.2860330939 0.3319093585 -0.0043744436 0.5288352966 0.0640522167 0.2623255253 0.0265615359 0.7044407725 0.0961212888 0.1052546501 -0.1500727832 0.2872802615 -0.0624574423 -0.0732295439 0.0131847719 0.0832147524 0.6530435085 0.1066536382 0.4197138846 0.4935972989 -0.1186737046 -0.2114915401 -0.1085771844 0.0818578750 -0.1522412747 -0.0894137919 -0.1137388647 -0.0516064689 -0.0944388434 0.7205025554 -0.0375360399 0.1152208596 -0.1845277399 0.1818372756 -0.0129207885 0.2955816388 0.3076331019 -0.1084694415 -0.2151080519 -0.0805422068 0.0029312791 0.0199184548 0.1827046573 0.0111625195 0.3036889732 -0.2179926187 0.1344440132 -0.0740577430 -0.0585716665 0.2042541206 0.3857772946 0.6904878020 -0.1883015633 -0.1387022287 -0.0689316243 0.0277308282 0.0217776708
