07d019336fd44c1d89e29cb6e0de7764_M_0003_65.39_78.84 0.0478466302 0.0710123777 0.2648466825 0.1517092884 0.1264103204 0.1610311270 0.5591416955 0.2145831436 0.1561272591 0.1274653971 0.1044042632 -0.0197116006 0.1314004809 0.2498933077 -0.0627978146 -0.1364203095 0.3045341372 0.1903371811 -0.0833229795 -0.1731576473 0.3059800267 0.1234033406 -0.1334387064 0.1188779175 -0.1105092838 0.0483705364 0.2046880573 0.2400036454 0.3414998055 0.4851359129 0.6181805134 0.0782018080 0.2332894802 -0.0673273876 -0.1975753903 0.2981842160 0.5234736800 0.1845940948 0.1293563694 0.1382933855 0.0389707312 0.0434663706 0.1016592160 0.2929854691 0.3461925983 0.3570500612 0.3059515953 0.1642868221 -0.2140752077 -0.2252455503 -0.1427576989 0.2013420463 0.0850537866 0.2408624440 0.4104723334 0.2012541294 0.6252192259 0.1668539643 0.1368687302 -0.0609901138 0.1754056662 -0.0986702517 0.0054979762 0.3110555410 0.3519130945 0.3687191010 -0.0784192011 0.2260161638 0.2115404010 0.1655748785 -0.1640710533 -0.1182036251 -0.1789018065 0.1989763081 -0.0578183457 -0.2429717630 0.3254881203 -0.2347552776 0.5266488791 -0.0449709333 0.0857030451 0.0467375852 0.3816651106 0.1500777155 0.0567947961 0.2073015422 0.1798772812 -0.1401277184 0.2882671356 -0.1977764517 -0.1856212318 0.4785769582 0.2006821930 -0.1163251102 -0.0947700366 0.5205408335 -0.0587228611 -0.0733989403 -0.1160477102 0.1865510345 -0.1020118371 0.0190146826 0.1747277081 -0.1581219286 0.0472703129 0.0157161076 0.3598006666 -0.1066924334 -0.0780402645 -0.0440552905 -0.1577734351 -0.2284080535 -0.0043905247 0.5794010758 0.4692619145 0.3997726440 -0.0261087455 0.1654453427 0.1569050252 0.0641543418 0.1320678443 0.3186338544 0.1640032828 0.1883808076 0.3947353065 0.5603500605 -0.0688266754 -0.0109312264 -0.1102786288 0.1831804663 0.2782690227 0.1185695827 0.2147629410 -0.1480369270 -0.0329194255 0.2677192092 -0.2244479954 0.2964933813 0.0907946527 0.4827230275 0.0580221340 0.0573177487 -0.1133055463 0.1346644163 -0.0323746130 0.1820646822 0.2353111804 -0.0494843349 0.0778501481 0.0871584713 0.1903621554 0.2544957101 -0.1592512131 -0.0004283623 0.0647684932 -0.1417619288 0.1254631877 0.2993663251 0.1980086118 0.0687638521 0.0999151915 0.3513747454 0.3106527627 0.4540834427 0.2257380635 0.0421140119 -0.0813832358 0.2180778235 -0.0412844382 0.3121964037 0.1509566009 0.0891241059 0.1613228768 -0.1522749066 0.1348930001 0.5860678554 0.2129035741 -0.0980766341 -0.1995597631 -0.0051032621 0.1502186954 0.0902276486 0.0173021052 0.3887076676 0.1492038369 0.1070410460 -0.0676760003 0.3855534792 0.0145017803 -0.0353257805 0.1334867030 0.0846302286 0.4367622137 0.0262186714 -0.1801689714 0.1485422254 0.2852699161 -0.1013683528 0.2152936757 0.0057083741 -0.1506594419 0.1260762513 0.0408067070 0.2510994673 -0.0550022423 0.1530611217 0.4268358946 0.1530096382 -0.1200954840 0.1213651597 -0.0995187461 -0.0411026962 0.1982866824 0.0931961387 -0.0562995896 -0.1132153198 0.2914301455 -0.0886445194 0.0278644059 -0.0059893029 0.0715688765 0.0336521491 0.1780373156 0.2424086183 0.4364161491 -0.1655959487 -0.0067420239 0.3256638050 0.3095725775 0.2060693055 0.3001946509 0.1672544926 -0.1570450068 0.0067299223 0.4159530103 -0.0598368235 -0.1252187788 0.2383565009 0.2304428816 -0.0743947774 -0.2142043561 0.1595760882 0.4075127244 0.2942625880 0.0225400049 -0.0209180266 0.1346898824 0.2163452506 0.0356579497 0.6079952717 0.2137531042 0.2776851654 0.2947206497 0.2617739439 0.2539367676 0.2234839648 0.2882040143 0.2147348970 -0.0782723948 0.2996911407 -0.1256182492 -0.0645797774 0.3525658548 -0.1120022610 0.2000610232 0.1819021404 0.2482308149 -0.0021215000 0.5843108296 0.3510337472 0.3403465450 0.1295203120 -0.1474130303 0.0201244093 0.1172837690 0.1047484428 -0.1824646592 0.4418317378 0.0053672260 0.2826330960 0.0069482354 0.2393641472 0.4378239512 0.0485337786 -0.0115331560 0.0512418896 0.0682329610 -0.0249937996 0.2912692428 -0.0232473426 0.3479021788 -0.1423913389 0.3889266551 0.3289023340 0.0007390571 -0.0113435891 0.4081930220 0.0332342982 0.1922649145 0.1950110942 0.0779797286 0.3362447023 0.2441004664 0.1330224723 0.1136975437 0.1931569874 0.0890536532 -0.1528229266 -0.0674571097 0.0500996336 0.1244742721 0.4555895030 0.2478609085 -0.0242080167 0.2777050138 0.2005421668 0.0088585205 0.0053471327 0.0304186121 0.2225366086 0.0342803448 0.1973064989 -0.0816756785 -0.0888130814 0.3394911885 -0.1100881249 -0.0114941187 0.3100946248 0.0817129463 0.2003945261 0.3743312955 -0.0482704863 -0.1139449105 0.1151797324 0.2544552982 -0.0693752244 -0.0840702578 0.5243697166 0.2356854379 -0.0773699433 0.3731099069 0.3242877126 -0.0176519547 -0.0616209507 0.3171661496 0.1098605022 0.3900448978 0.2550826669 0.2921722829 0.3248791099 0.3078058958 0.2667033076 0.2755432427 -0.0798210427 0.1352475584 0.1435145885 0.2510333657 0.4094664752 -0.1070274264 0.1682018638 0.0537967272 0.1246068180 0.0574242063 0.5176071525 -0.1562710702 0.3353843391 -0.2517767847 0.2130687535 -0.1615287960 0.2448028624 0.2520118356 0.2732615173 -0.1007711142 0.2497101128 0.2642671466 0.2115234137 -0.2622147501 0.1199061573 -0.1184739843 0.1135831773 0.1007838026 -0.0228507668 0.4698388278 0.1403168440 -0.0660513341 0.0033786530 0.3044307232 0.4347367287 -0.0598577373 0.1619281769 -0.1934122890 -0.0669980273 0.1693297029 -0.3346478343 -0.1078211665 0.4259059131 -0.1158927754 0.3182362318 0.0517317913 -0.0936641395 0.6737513542 0.2557502389 0.4062941670 0.1802306920 0.5425126553 0.3162503242 0.2360977978 0.4937529564 -0.1074312925 -0.0144525133 0.0362274051 0.1769416779 0.1318190694 -0.0330643058 0.3061188757 0.0679971725 -0.0344374143 0.2243674695 0.5338900685 0.2085043043 0.1903057843 -0.2087207735 0.1734600812 -0.1524436623 0.0210681800 0.1133290306 0.2307836115 0.1694851965 -0.0809189156 -0.0909157619 0.3164246380 0.1158142984 0.0509964377 -0.1085828990 0.1028218567 0.2219928801 0.5212434530 -0.1927201748 0.5097293854 0.1244088486 0.3409499526 -0.0848678127 -0.1961851269 -0.1217435598 0.3314219713 0.2561635077 -0.1118506640 0.2864648104 -0.0301242284 0.1983410418 -0.0740316436 0.0627423227 0.2768947184 0.2744997144 -0.0981570333 -0.0960298330 0.1478212029 0.0938437060 0.3504332602 0.3729731739 0.1597513705 -0.2111076862 0.1261846572 0.1270164847 0.2396628559 0.0759274140 0.1846950054 -0.0714135617 0.1509408206 0.1318786740 0.1963872761 0.2356161475 -0.0787534639 -0.1652012318 -0.2484903485 -0.1189799979 0.3586095273 0.0536726713 -0.2449917048 0.2584302127 0.2424155027 0.1530510783 0.2566725016 -0.0811990499 0.2614392340 0.0942597240 0.1439566910 0.3136861920 0.5445986390 -0.2371733934 -0.0522199608 -0.0858121291 0.3077359796 0.0497209951 0.5634943843 -0.1514998525 -0.0486622825 0.1884445101 0.0901356936 0.2185509801 0.2117000371 0.1437795311 0.1731250584 0.1403121799 0.1582043171 0.3201493621 0.2396100461 0.3517516553 0.1953762770 0.0050403182 0.1220757291 -0.1162873209 0.4476008415 0.1527408659 -0.1775360405 0.2382842898 -0.1290750355 0.1598276943 0.3602294028 0.1853021234 -0.1203685254 0.0091837486 0.3198153973 0.0922065824 0.0598285757 0.1290125251 0.4624350667 0.3042276502 -0.1066070125 0.2267101258 0.1785612255 0.1291909963 -0.1078447551 -0.1148917153 0.2832643092 0.3076658845 0.0158016738 -0.1513537467 0.1835840195 -0.0285690278 0.2359292060 0.0784895197 0.4854418933 0.3345570564 0.1988437623 0.0501231849 0.5590431094 0.3231404722 0.3367740214 0.1602480859 0.3524133563 -0.0078025041 0.3691188395 0.2593086064 0.2107625306 -0.1036677361 -0.1707773656 0.2914958298 0.0960174873 0.4962040186 0.1508776844 -0.0376821831 0.1927688122 0.1147951484 -0.2687522471 -0.1273015290 0.0993808284 0.1536624283 -0.0784206539 -0.0806045830 0.1796430945 -0.1628165245 0.3006688356 0.3070045710 0.2974400818 -0.1446269900 0.3789843619 0.0564568415 0.4524507821 0.1789696664 -0.0587005019 -0.2284809351 0.0275215060 -0.0774847940 -0.0206284616 0.0084010269 0.0349988192 0.5524794459 -0.1681273729 0.3606603742 -0.0666318089 -0.1039597020 0.1044497192 0.1393838525 0.2131759524 -0.1537189931 -0.1251282096 -0.0866518766 0.0733583868 -0.0694742650
086e1118790a99391c7aeb0fd1f086c8_M_0002_71.11_87.16 0.0340316594 0.1891797036 0.1966149211 0.0826522484 -0.0178091507 0.2493835390 0.6140105128 0.4062841237 0.2721525133 0.0512237325 0.1910225898 -0.0329008624 0.0593956336 0.1707967222 -0.0582523346 -0.1149728075 0.3431589305 0.3992807269 -0.0594111755 -0.1479341090 0.2444527447 0.2642411888 -0.0947768316 0.2210521698 -0.1015303358 0.0125491507 0.2260668427 0.2457252294 0.1153625101 0.4935873449 0.6759119630 0.1084522381 0.3378513157 -0.0082957651 -0.1641674787 0.3602505326 0.3899588287 0.1113591045 0.0733673871 0.1766530275 -0.0281847920 0.0553604141 0.2323741764 0.5544768572 0.1925478280 0.5246136785 0.1940158904 0.1944101453 -0.1825821400 -0.2065246552 -0.1173175946 0.2588650882 0.0648395568 0.0913314447 0.3825013936 0.1560592949 0.4982120991 0.0791418180 0.2969380319 -0.0303943213 0.2548040450 -0.1077713817 -0.0109682335 0.0794412792 0.4411115944 0.0425575525 -0.0738706440 0.3800513148 0.3756563067 0.1756641716 -0.1565937996 -0.0934762880 -0.1823951006 0.1911654621 -0.0117222108 -0.2349373251 0.1991618574 -0.2063641846 0.4373137951 -0.0625138208 -0.0240240134 0.0298315119 0.3573679030 0.0343442671 0.0038425424 0.2773161530 0.2586722672 -0.1313108802 0.2756356597 -0.1652789563 -0.1645545810 0.2397721261 0.4102723897 -0.0991125330 -0.0753176287 0.5162563324 0.0124186166 -0.0593124256 -0.0923903808 0.2309205234 -0.0930310264 0.0112712244 0.0047048619 -0.1709475815 0.0548849814 -0.0188044291 0.5449726582 -0.1044330746 -0.0533357486 -0.0677003637 -0.1263577938 -0.1918022782 -0.0404158011 0.5612688065 0.3144638240 0.5451629162 -0.0530381985 0.0902967900 0.0509685576 -0.0012939408 0.1569742858 0.5671273470 0.1710667610 0.2895976007 0.4024924636 0.6582509875 -0.1023601145 -0.0459087305 -0.1020353660 0.3577258289 0.3014194667 0.1935195774 0.2047537267 -0.1828196496 -0.0410050079 0.2191607207 -0.1822367609 0.2535414100 0.0143691879 0.6356539130 0.0005303342 0.0731422156 -0.0881076977 0.1739772856 -0.0380846784 0.1379931569 0.4085995853 -0.0540598333 -0.0073721334 0.2244032770 0.2359440625 0.1322361082 -0.1505440176 -0.0173631590 0.0303676613 -0.0979268923 0.1853516996 0.3424888849 0.3873747289 0.1662939340 0.1447839439 0.1246700212 0.1854645461 0.2717076838 0.0695442706 0.0101145487 -0.0835932568 0.2572499812 -0.0756372288 0.3151904047 0.2027003467 0.1721320301 0.0974786729 -0.1261604428 0.0077680191 0.4262337089 -0.0487410575 -0.0704605207 -0.1810433567 0.0164693985 0.0445977375 0.0289150998 -0.0007432883 0.2504333854 -0.0063947886 -0.0060569104 -0.0528796725 0.2811383605 0.0503620245 -0.0330080949 0.2652120292 0.1108223498 0.2074199468 0.0480078720 -0.1679707766 -0.0134569807 0.2992217839 -0.0880444571 0.2179750204 -0.0278894305 -0.1509681046 0.1385749429 0.0617953092 0.1291988492 -0.0632272959 0.1400872320 0.3618910611 0.0349515192 -0.1229731143 0.1305119842 -0.0805828273 -0.0161226057 0.2828017473 0.1243136972 -0.0646533370 -0.1258800775 0.1886436045 -0.1921864450 0.0082585458 -0.0295912884 0.1463808715 -0.0341810472 0.1702294052 0.3196694553 0.4558498263 -0.1455869675 -0.0097552445 0.3620973527 0.1057492048 0.0189992320 0.3183508217 0.1963576525 -0.1527625173 -0.0215246268 0.4029774964 -0.0745571628 -0.0949351192 0.1091308296 0.2998041809 -0.0740022808 -0.1362525523 0.1513767987 0.4737790227 0.2881650329 -0.0173473712 -0.0397634543 -0.0026922221 0.3061254621 0.0100873383 0.4798857570 0.2035386711 0.2336986512 0.1088527143 0.0488513596 0.3936263621 0.2113800794 0.1832415015 0.0655110180 -0.0848249719 0.2456786633 -0.0966151878 -0.0882770047 0.5237067342 -0.1071494669 0.3102602959 0.2704075873 0.3652938306 0.0007084950 0.4628157616 0.2893005013 0.3929894567 0.1045399755 -0.1571455002 -0.0121976649 0.0344089530 0.2430749387 -0.1714289486 0.6084797978 -0.0004974556 0.0150845889 -0.0086943964 0.2496516556 0.4356656671 0.0117867598 0.0145792756 0.0260039065 0.0183595493 -0.0395259708 0.3470833302 -0.0372481830 0.3700126708 -0.1048735082 0.3196551800 0.1506224573 0.0009929924 0.0210610162 0.2601477206 0.0373216458 0.2755450606 0.3342101872 0.1274817288 0.5470339060 0.3023802936 0.0752248019 0.1457502395 0.1246499792 0.0016323426 -0.1724406481 -0.0641702339 0.0232245587 0.1512497067 0.3125158250 0.2781479061 -0.0408355407 0.1088887155 0.3842971325 0.0219960362 0.0010404752 -0.0159304515 0.1526612043 0.0859426633 0.0590386987 -0.0773870647 -0.0922931582 0.3654952049 -0.1358200908 -0.0011604171 0.2166701853 0.0962577313 -0.0524782874 0.2714894116 -0.0772073269 -0.0777729899 0.1574563235 0.2131630778 -0.0708086863 -0.0904492214 0.4081798196 0.1620407403 -0.0874494761 0.1808485836 0.1596377045 0.0454902649 -0.0429459363 0.1879651845 0.1776670516 0.2252300531 0.1491379440 0.4789206982 0.1996446401 0.1442367435 0.2952585220 0.0726973563 -0.0827351436 0.0484662466 0.0916080028 0.0857771933 0.5402043462 -0.0952580273 0.0880446061 0.0274492260 0.2993603349 0.1336893439 0.5884361267 -0.1421537846 0.2343545556 -0.2376745790 0.1634386182 -0.1195703074 0.0028367271 0.1638981551 0.2861455083 -0.0838526264 0.2921483517 0.6003696322 0.1724543571 -0.2261402309 0.1991611272 -0.1166086495 0.0671307445 0.1074892357 -0.0014439842 0.5015938282 0.2547927499 -0.0757892653 0.0277585015 0.0882383808 0.2781142890 -0.0478005670 0.1827340424 -0.1614265293 -0.0785076320 0.2702807188 -0.2982721031 -0.0911052525 0.2802440524 -0.0974662602 0.2821746171 -0.0240091588 -0.0748237371 0.5722668171 0.2022206187 0.3222551048 0.3785230815 0.3836014867 0.3373308480 0.1530493498 0.2653454244 -0.1138801724 0.0011146214 -0.0798212290 0.0699259490 0.0868240893 -0.0119465794 0.3115610182 -0.0155683681 -0.0402509645 0.2430960387 0.5142821670 0.0750382617 0.1008064598 -0.2073274106 0.1248208731 -0.1280623376 0.0628210977 0.1203115359 0.3297713995 0.2851190567 -0.0778499767 -0.1132785156 0.3124118447 -0.0140151810 -0.0462644175 -0.1028523743 0.0058688764 0.4218644798 0.4267666638 -0.1678466201 0.6244676709 0.1800771803 0.3083682060 -0.0443440378 -0.1802559197 -0.1047129184 0.4358320832 0.3363652527 -0.0903661177 0.4509585500 -0.0256942958 0.1024481580 -0.0814905986 0.1473369151 0.3330765367 0.2135656923 -0.0764921457 -0.0982936919 0.1996500194 0.0233032331 0.1207747683 0.4706808627 0.1759812236 -0.1723081023 0.0754536688 0.1239511222 0.0282209720 0.0841841996 0.1726666391 -0.0809591487 0.2932758033 0.0365762562 0.2238248587 0.0702235997 -0.0914762914 -0.1431827545 -0.2061203271 -0.1244655177 0.4038814604 0.0716962144 -0.2162187397 0.0569564328 0.1168877557 0.2971527874 0.5272422433 -0.0755650252 0.0424263775 0.0773029625 0.2385037839 0.3058355451 0.2486070096 -0.2326167822 -0.0643951446 -0.0888551697 0.6126990318 -0.0014026053 0.3703390956 -0.1221427023 -0.0314592347 0.0723546967 0.0300713927 0.1512913853 0.3289225996 0.0894597471 0.0558517016 0.0733733475 0.1635711938 0.4582476318 0.0760431290 0.3941775560 0.0690665320 -0.0122348322 0.0384973250 -0.1097670719 0.5174626708 0.2534950078 -0.1566529125 0.0761398375 -0.1268301159 0.2753304243 0.1218378916 0.2018009722 -0.1144774109 0.0081373109 0.0302358083 0.0632879138 -0.0073339306 0.1279577762 0.4247470200 0.2586665154 -0.0831068158 0.2015274465 0.1416126639 0.0904173777 -0.1207555160 -0.1307897419 0.2036737949 0.3716925383 -0.0245119873 -0.1122605279 0.2090321332 -0.0630901456 0.2918379903 0.0917292908 0.1583802551 0.3401969671 0.3035314381 -0.0919060484 0.5120270252 0.3027873039 0.1680592895 0.1993149668 0.3853103518 0.0026472881 0.1953780502 0.0703074932 0.2448895574 -0.0893257782 -0.1103357300 0.2153637558 0.0443860516 0.3576696813 0.0709936097 -0.0021440014 0.2777255774 -0.0195977725 -0.2292660177 -0.1244431809 0.0374694392 0.0515241511 -0.0792571455 -0.1098358408 0.0464746505 -0.1216955632 0.4327837229 0.1761310399 0.1682260931 -0.1290158778 0.2511862218 0.0539756753 0.3548975587 0.2428010255 -0.0742552876 -0.1953961551 -0.0020702002 -0.0570563078 -0.0246142913 -0.0197831001 0.0251505300 0.5724610686 -0.1703100801 0.2864785492 -0.0583369322 -0.0744344145 0.1103662997 0.2022440583 0.3484917879 -0.1577652097 -0.1369902343 -0.0847859830 0.0474188142 -0.0147067346
094afdf3c7b2e41da63ea00c5dfe24f9_M_0002_193.95_212.98 0.0727677792 0.3461100459 0.2920525670 0.1090020090 -0.1346614212 0.4336947203 1.0150940418 0.3121802509 0.2201841474 0.1018021628 0.1977778077 -0.0713455752 0.0993136391 0.2287894189 -0.0629487857 -0.1170514077 0.3876430094 0.6221635342 -0.0993576795 -0.1792241037 0.1765021831 0.3162583411 -0.0810023695 0.2951554656 -0.0943296179 0.0902696773 0.1730969101 0.3366144896 0.1287917346 0.5720546246 0.7082782388 0.1814586222 0.7380512357 0.0110449158 -0.2154393643 0.2451534271 0.2748165429 0.1984263659 0.1283219308 0.2995511889 0.1874781549 0.2237904519 0.2029917687 0.8346654177 0.0536069982 0.9362024665 0.0473365448 0.5528742075 -0.1711521447 -0.2484165877 -0.1027069539 0.2978660464 0.1730557680 0.1719283164 0.1760496944 0.0727905035 0.3288906217 0.1147786155 0.3916558027 -0.0512462296 0.2778607905 -0.1243763790 -0.1000692472 0.1208528578 0.3591673970 -0.1589170694 -0.0897543877 0.3344501853 0.7609077692 0.2647324800 -0.1274607182 -0.0946901739 -0.1660314649 0.0554133505 0.0437942669 -0.2567149699 0.0673966184 -0.2114695311 0.1950480193 -0.0732738450 -0.1411532015 0.2559852004 0.1432172656 -0.0122119319 0.2004065514 0.3546830714 0.4992378056 -0.1914211214 0.3156049848 -0.1582745016 -0.2090402544 0.0482241437 0.4363258779 -0.0965412632 -0.1112730280 0.2214759886 0.3583895266 -0.0902250409 -0.0789011344 0.3902380466 -0.0996067226 0.1129711717 -0.1623707414 -0.2174785435 0.3062627316 -0.1218972653 0.6206889153 -0.1617156714 -0.0376396589 -0.0918354988 -0.1524567157 -0.1551473588 -0.1220821142 0.8073222637 0.2139330804 0.4951052964 -0.2808723152 -0.0002739721 0.1641231626 -0.1023547053 0.1317740083 0.7516832352 0.1606035680 0.4867296517 0.6606031656 0.6043095589 -0.3465780914 -0.0452223606 -0.0846392587 0.6831636429 0.2770491540 0.2696136832 0.1653676629 -0.2359486967 -0.1387499571 0.2490768731 -0.1887947619 0.1011792049 0.1521537155 0.4900659919 0.0724119097 0.0783156231 -0.0705112815 0.1211868227 -0.0418522283 0.0725712255 0.6257594824 -0.1270220429 -0.2024574429 0.3162323534 0.2277197987 0.3115889132 -0.1932812929 0.1156025007 0.2351597846 -0.1250694096 0.1301949918 0.4311651886 0.4781651199 0.1595715582 0.1061923653 0.2482653111 0.0267529115 0.2397228181 0.3161495328 -0.0002596239 -0.0932945982 0.2481916249 -0.1271586567 0.1519986093 0.1649514735 0.1975888163 0.0781099573 -0.1332530379 -0.0769023746 0.7166041136 -0.2309992760 -0.0533417761 -0.1698722392 0.0489777625 0.0272424016 -0.0974937901 0.0919577852 0.4871533215 -0.0924152285 0.1115313843 -0.0443044789 0.4045164585 0.0110209435 -0.0095950151 0.2216197252 0.2004828006 0.1712701619 0.0684774444 -0.1384452134 -0.1758089364 0.3988536894 -0.1129542887 0.4795013666 -0.1456825137 -0.1767937988 0.2994148433 0.0899818614 0.1651488096 -0.0619867109 0.0860837847 0.4154275060 0.0826683491 -0.1445526034 0.2785857618 -0.0892625526 0.1239189804 0.4219429195 0.2366404831 -0.1061814502 -0.1855247915 0.2970489860 -0.1268489510 0.1078533530 -0.1113637835 0.1628185362 0.0099025257 0.2183464319 0.2866965830 0.7009704113 -0.1210143343 0.1669239849 0.3254046142 0.0784486905 -0.1018799543 0.3466006219 0.1748204082 -0.1695249230 0.0495940968 0.6620226502 -0.1081096008 -0.0870139897 -0.0284054000 0.3068504035 -0.0953058004 -0.1106024906 0.2450112253 0.2707408965 0.3295570910 -0.0878474861 -0.1664277166 -0.0476318635 0.1898317337 -0.0166862104 0.5758470297 0.2326709330 0.1219725460 0.2901192009 -0.0011388119 0.2579081357 0.1316678226 0.0412368774 -0.1523296684 -0.1372888237 0.1275136471 -0.0767573863 -0.1348826438 0.7181658149 -0.1273135245 0.6380478740 0.4432494938 0.5154710412 -0.0346600898 0.2040367126 0.2259601504 0.2424384505 0.3082934320 -0.1718110442 -0.0895613432 -0.2214860022 0.3534159958 -0.1718570739 0.7311786413 0.1880976856 -0.1336805224 -0.0898712426 0.2193758786 0.3206907809 -0.0233226940 0.1417667717 0.0522128679 0.1168580204 -0.0612085164 0.3952044547 -0.0989963114 0.1564901918 -0.1183090061 0.5742677450 0.1292448491 0.0235175528 0.0128947627 0.1615847647 0.1354357749 0.2851774991 0.5519797802 0.2267923951 0.6728737950 0.3637738526 0.0705725774 0.1487271637 -0.0456339344 -0.0982209072 -0.2637908161 -0.0825730041 0.0621769652 0.0363086760 0.0888108537 0.2317600101 -0.0972393975 -0.0082036788 0.6567475200 0.0485286824 0.0123315416 -0.0698380321 0.1112986431 0.1018370241 0.1206110790 -0.0851735920 -0.1568585336 0.4553474784 -0.1475042850 -0.1603234559 0.3249574304 0.2498354465 -0.2083112448 0.0917235166 -0.1253342032 -0.0869119689 0.1874910593 0.1870453060 -0.0740817934 -0.1187732965 0.5378483534 0.2962622046 -0.1000274271 -0.0321073756 -0.1157386824 0.3270035386 -0.0302955136 0.0843864009 0.1634563059 -0.0266240537 0.3532728553 0.9082126617 0.0728296041 0.2353742421 0.3209951818 0.0059559029 -0.0967233181 0.1176049039 0.0920594484 -0.0120166056 0.5293234587 -0.1294410825 0.0735955611 0.0165041499 0.4788323343 0.2100588679 0.3606863022 -0.1648876518 0.3555578887 -0.2811402380 0.2526924610 -0.1081364676 -0.1077113077 0.0708475262 0.2747318149 -0.1042152494 0.3361406326 0.8023412228 0.1623444259 -0.2629444301 0.3507387340 -0.1383286566 0.2417931408 0.1312891692 -0.0162119940 0.8226217628 0.2980159223 -0.0734494776 0.1182621270 0.0275623128 0.1910333484 -0.0596355610 0.2995513678 -0.1739362776 -0.1522904932 0.5316309929 -0.3013286889 -0.1250947714 0.1834889650 -0.0663031638 0.3130951822 -0.0408048443 -0.0955735892 0.6030459404 0.0838785022 0.1016255692 0.5338565707 0.2521840930 0.1022777855 0.0435332023 -0.0806350335 -0.1140250117 0.2020543069 0.1076910943 0.1097929478 0.2673126459 -0.0107594449 0.3254654408 -0.0423791297 -0.0713027492 0.2915366590 0.3569974005 -0.0819579959 0.3458166718 -0.2346859723 0.2059572786 -0.1333853900 0.3079769015 0.1851608157 0.2736117244 0.4676211476 -0.1088278219 -0.1666197926 0.4023343325 0.0412117951 0.0368794128 -0.1380734146 0.2587802410 0.7032848001 0.3984250128 -0.1926028728 0.9436714649 0.2590001822 0.3170243502 -0.0330938287 -0.2282951474 -0.1466512531 0.7625624537 0.3958814740 -0.1424123943 0.7044823766 -0.0441879742 0.1820240319 -0.0964221507 0.2433078289 0.5053496957 0.1509589702 -0.0097423336 -0.1257936507 0.1251206249 0.0553103909 -0.0644160584 0.8120196462 0.2690348625 -0.1738179922 0.1356441081 0.1910373867 -0.1484640539 0.0877472311 0.2655223906 -0.1364783794 0.3106523752 -0.0272658207 0.2732433081 0.0672258735 -0.1366533935 -0.2315198034 -0.2397813201 -0.1742871255 0.5584675074 0.2528380752 -0.2766778171 0.0056527052 0.1454458833 0.5263314843 0.7518542409 -0.0558185466 -0.1773281097 0.1434726566 0.2577137053 0.4320309162 -0.0052480660 -0.2958007753 -0.0986936688 -0.0987766683 0.8433516622 0.2143324018 0.0991721079 -0.1384020150 0.2671767175 0.1141057536 -0.0486416779 0.1074251682 0.6107047200 0.0196950771 0.1964184195 0.1829030067 0.2914183438 0.5973749161 0.1693196893 0.4547227025 -0.0275957454 -0.0511807054 -0.0654188991 -0.1110211015 0.6226575971 0.5603681207 -0.1882973015 0.2483903468 -0.1492940634 0.2960329652 -0.1981488466 0.3296814561 -0.1132326946 0.0124870976 -0.1755821109 0.2220634371 0.0602862313 0.0570252016 0.3063530326 0.1579421461 -0.0903813317 0.1832495332 0.0918645561 0.0568144023 -0.1799171567 -0.1269159317 0.1580691785 0.3464251459 -0.0754016116 -0.1144439429 0.4548200965 0.0118774706 0.5383865833 0.1642544866 0.1850092411 0.4275698066 0.4363862276 -0.0761409327 0.5100962520 0.2272804528 0.2836757302 0.1465857178 0.6966146231 0.0833562762 0.2096213549 -0.2660295367 0.2352460921 -0.0837993696 -0.0709619448 0.0442593992 -0.0094869062 0.6620408297 0.1350398958 0.2698347569 0.5132041574 -0.1290193796 -0.2326154560 -0.1161878854 0.0667597502 -0.1575415432 -0.1119303778 -0.1328749508 -0.0750071034 -0.1184303686 0.6815448403 -0.0080777183 0.0325651467 -0.2079363912 0.2462591231 0.0131395739 0.4301618338 0.2669939697 -0.1231045052 -0.2147355676 -0.0967699811 -0.0134603539 0.0047313422 0.1403966546 -0.0313890800 0.3871843219 -0.2177604735 0.2747587860 -0.0600148402 -0.0737600252 0.2021669745 0.3617150486 0.6793587804 -0.2085715234 -0.1628756225 -0.0896079093 0.0382583849 0.0095101707
0a740dab8fd0e4301edf3057b5c27c27_M_0014_559.42_585.92 0.0505963489 0.2633361816 0.3780167401 0.0458665788 -0.0387172215 0.3768465221 0.9861364961 0.1563510299 0.1281006634 0.2988379300 0.1868041009 -0.0546187311 0.0984501317 0.1602307558 -0.0674339086 -0.1466651261 0.3615771532 0.4079542160 -0.1234510317 -0.1629677862 0.1855803579 0.3267413378 -0.0707807913 0.2300377786 -0.0728633776 0.0807714835 0.0970600098 0.2163021415 0.2128197700 0.2712201476 0.5669238567 0.1734856218 0.6006182432 -0.0268985834 -0.2252391130 0.2798747420 0.3259993196 0.0752044395 0.0363832191 0.2601091862 0.2874868512 0.2299345434 0.1953670382 0.7457031012 0.2098951042 0.8295370340 0.1890075207 0.5198904872 -0.1528543532 -0.2240236551 -0.1185343266 0.1514904797 0.0814772025 0.2311653942 0.1053490788 0.1285897493 0.4400120974 0.0482458621 0.2573656440 -0.0866007954 0.2191260308 -0.1387608200 -0.0700498968 0.2408965528 0.2128672451 0.1101612225 -0.0740520209 0.3078506291 0.6501738429 0.3576807380 -0.1062889919 -0.1123394445 -0.1256345510 0.1043265983 0.0211272538 -0.2340877503 0.0277443621 -0.1927849501 0.1637232453 -0.0704435557 -0.0982899293 0.2637609839 0.1413531303 0.1017076746 0.1455442756 0.4746998549 0.3785844743 -0.1767749339 0.4843481481 -0.1641583443 -0.2158568650 0.2442863286 0.4229388535 -0.0664579570 -0.1105821058 0.2026106268 0.1834024787 -0.0975238979 -0.1060914621 0.2201208472 -0.0766670331 0.0951066762 -0.1051616296 -0.1947670877 0.3026179075 -0.1196233779 0.3689273596 -0.1399060488 -0.0535569824 -0.0766901821 -0.1625088155 -0.1697240323 -0.1231149137 0.6970633864 0.1731980443 0.3182122409 -0.3463356197 0.0367422886 0.1845361590 -0.0698881745 0.1180653572 0.4135848582 0.2304283381 0.5073117614 0.6596214771 0.3411134183 -0.3932132423 0.0087930085 -0.1026728228 0.5422314405 0.3344815075 0.2273115069 0.1850811392 -0.2088004053 -0.1584206372 0.1971927583 -0.1868269295 0.0975826159 0.2367226183 0.3218484819 0.1619533002 0.0776597708 -0.1036966592 0.1567948163 -0.0558949113 0.0963201672 0.4147135615 -0.1655485481 -0.1822935641 0.2106158733 0.1456706673 0.2959678769 -0.1575358361 0.1022740304 0.2546462119 -0.1504501849 0.1350886375 0.2540068924 0.2708119154 0.1269257963 0.0547638871 0.3403647542 0.0350545943 0.5004386902 0.4428547025 0.0161420517 -0.0876131281 0.3132776022 -0.1091087013 0.0855270401 0.1114905104 0.1651045531 0.1559851468 -0.1363074481 0.0072432635 0.8357965350 -0.0885830671 -0.0445833057 -0.1593067944 -0.0023356695 0.0448620282 -0.0354498178 0.1199293882 0.4737984240 0.0573224463 0.3037641943 -0.0395836495 0.4439185858 -0.0029007904 0.0137923574 0.1603595018 0.2154258043 0.3297580481 0.0581303537 -0.1228876635 -0.0625791550 0.1589816660 -0.1160684973 0.3949178159 -0.1241293326 -0.1634264588 0.3538098037 0.1319340765 0.1277975440 -0.0626831874 0.1382803619 0.3553999960 0.1090581864 -0.1191751510 0.2705248594 -0.0829284862 0.0747419149 0.2926006019 0.2442523986 -0.1032690182 -0.2003042251 0.1662990749 0.0914367586 0.1314328164 -0.1071563214 0.1596966386 0.1101058871 0.0820882544 0.2629550695 0.7128909826 -0.0975610688 0.0918665156 0.4664112031 0.1414171457 0.0316380635 0.1916178316 0.1059046537 -0.1504160762 0.0827161744 0.6514117718 -0.0956211984 -0.0725802183 0.0370425135 0.3970903754 -0.1195954978 -0.1361002177 0.1625388116 0.1924805194 0.3870379627 -0.0674198717 -0.1688628048 0.0573407412 0.1836898476 0.0013486259 0.5645047426 0.1757502109 0.0935728922 0.3091535866 0.2210198045 0.1769406497 0.0297024455 0.0478704274 -0.1273520887 -0.1151978597 0.2223456800 -0.0917515159 -0.1007158533 0.6015318036 -0.1116004884 0.4644367099 0.2811843455 0.5335057378 -0.0351157263 0.3082787097 0.1615050733 0.1566374004 0.3185847700 -0.1458552331 -0.0606643595 -0.1884451509 0.2248699367 -0.1686550081 0.5034569502 0.1141373515 0.1048632041 -0.0645123497 0.2852053344 0.4469896853 -0.0019938694 0.0989288762 0.1121643335 0.1599006653 -0.0409718901 0.3653115332 -0.1023121923 0.0723345578 -0.1347417086 0.6329405308 0.3131253421 0.0227512605 0.0101460163 0.0666147023 0.1256602407 0.2789191902 0.4652253389 0.1695145220 0.3690987527 0.4125556946 0.0973914117 0.1853732169 -0.0014274660 -0.0260418858 -0.2428126484 -0.0554344207 0.0271971617 0.0084090158 0.1789653301 0.1682481468 -0.0964530557 0.1576214433 0.4518068731 0.0475528166 0.0241872333 -0.0329812691 0.2038522214 0.0879834965 0.1901050359 -0.0871535465 -0.1381671131 0.3503173590 -0.1074984670 -0.2530702353 0.4482578933 0.2183732688 -0.0761517584 0.1616047472 -0.1023986861 -0.0900283679 0.1735114455 0.1551838517 -0.0778236464 -0.0959483907 0.7113613486 0.4604620337 -0.0793092623 0.0317075923 -0.1079435423 0.2662459910 -0.0297467560 0.0634739473 0.1969074607 -0.0428013317 0.3959003389 0.8254128695 0.2009626031 0.1807769239 0.4467904866 0.0591764674 -0.0751929432 0.2833113670 0.1942594349 0.1534592509 0.4104293883 -0.1350938976 0.1831426173 0.0684460998 0.3356122375 0.1911914647 0.1880973577 -0.1734382808 0.4202132523 -0.2616178989 0.2484895289 -0.1528838277 0.1320511103 0.1907904446 0.2092326880 -0.1029670984 0.4543007314 0.7270877361 0.2580601275 -0.2506344914 0.3138024509 -0.1755391657 0.2757240236 0.1229581758 -0.0181646198 0.7593163848 0.1787112951 -0.0673677474 0.0831037238 0.0343007222 0.2134438604 -0.0447710045 0.2887679338 -0.1658991128 -0.1300332248 0.4078168869 -0.2949870527 -0.1278985292 0.1229655594 -0.0865715817 0.3221205175 0.0471336804 -0.1008061022 0.5627114177 0.0563514531 0.0721053407 0.3302628398 0.3516848087 0.0779350922 0.1282842755 -0.0920696557 -0.1299653351 0.1351613700 0.2887716591 0.1480492502 0.1868214309 -0.0152645968 0.2231068313 0.0838786215 -0.0541460812 0.4335756004 0.2125111371 -0.0054521253 0.4643722177 -0.1822544038 0.1898295134 -0.1368352026 0.1336487532 0.2040955722 0.3438451290 0.3022420108 -0.1272047907 -0.1814295501 0.5854644775 0.1989897788 0.2022317350 -0.1357691884 0.3162335455 0.4928105175 0.2963046730 -0.1763648391 0.9537455440 0.2172500342 0.3948871195 -0.0273356847 -0.2134696990 -0.1662140936 0.6237080097 0.2276903689 -0.1484523416 0.5808104873 -0.0473382697 0.0975246355 -0.0809333101 0.1819272041 0.4210251868 0.1521389037 -0.0050165141 -0.1119380742 0.1443540007 0.1117089316 -0.0787306502 0.6784783602 0.2741793096 -0.1651821584 0.0800238699 0.1561358571 0.0484553501 0.1075917929 0.1519573480 -0.1264341921 0.2625487447 0.0191660672 0.3597618639 0.1605442762 -0.1163028255 -0.2210317552 -0.2440857291 -0.1989230812 0.4085295498 0.2584274709 -0.2714887261 0.0816366374 0.1066832095 0.4531972706 0.5624160171 -0.0582489073 -0.1442280859 0.2004582435 0.2940728664 0.2761659026 0.0621984228 -0.2580395937 -0.0582452714 -0.0947118625 0.5739364624 0.1704705954 0.0688239932 -0.1470380127 0.1731518954 0.1789277494 0.0327794366 0.0224125497 0.4130466878 0.1195582226 0.1356934905 0.3099714220 0.4255587459 0.7260846496 0.2154697329 0.2682404816 0.1208043322 -0.0395053849 0.0259683225 -0.0772415400 0.5181324482 0.3314711154 -0.1642752141 0.3943413794 -0.1505512297 0.3044619858 -0.1262685657 0.2684877217 -0.1128901243 0.0473859459 0.0629203841 0.1253356338 0.1724968851 0.0912972167 0.3474280834 0.0717677474 -0.0847366899 0.2058925033 0.1151721179 0.1270190626 -0.1518113166 -0.0753412247 0.1717426479 0.2935196161 -0.0542760529 -0.0961022899 0.3971180916 0.1164070144 0.3350811601 0.1507868469 0.4059676230 0.5773178339 0.3828942180 0.1110057607 0.2985451818 0.3437268734 0.4543316066 0.1703084856 0.5972045064 0.0404004753 0.3932476044 -0.3047393858 0.2632105649 -0.0741880238 -0.0891858935 0.0714507475 0.0734541863 0.7115659118 0.2984304428 0.1302770227 0.4595233798 -0.0436801575 -0.2390037477 -0.1307755560 0.0482514352 -0.1339724362 -0.1243759841 -0.1211434379 -0.0182743967 -0.1239351332 0.5948125124 0.0229624044 -0.0458792709 -0.2271693200 0.2413332313 0.0141124241 0.5589464307 0.2426450551 -0.1127183214 -0.1979574114 -0.0900541693 -0.0253173299 0.0312705487 0.1887196302 -0.0531514809 0.2359127700 -0.1807241887 0.3687049150 -0.0615405738 -0.0726614818 0.2581016719 0.3622918427 0.5194783211 -0.1920961887 -0.1481420100 -0.1026014835 0.0498271845 -0.0250514932
0b5dd105bb108404dd07aa10e7ad2b9a_F_0019_894.61_901.77 0.0150696281 0.2766245604 0.2148331106 0.1538712680 -0.1763107032 0.4384231567 0.7046487927 0.4571343660 0.3448214233 0.1828867942 0.2996308208 -0.0480513424 0.0075513143 0.0434952788 -0.0832115933 -0.1110494807 0.2749730647 0.5032394528 -0.1192690507 -0.1283505261 0.0867361352 0.4010979533 -0.1018541753 0.3587267101 -0.0973759368 0.1007722840 0.1981524676 0.4307990670 0.0012568161 0.5236186981 0.4447113872 0.1612278074 0.5288525224 0.0344354734 -0.1740499288 0.2432557940 0.1166269034 0.1096080914 0.1145965755 0.2058805227 0.1184329763 0.0996933505 0.3049602807 0.7068778276 0.1241416335 0.7149512768 0.2310702205 0.3659348786 -0.1904880553 -0.2208118886 -0.1141056493 0.3136235476 0.0170352943 0.0413253047 0.2702828646 0.1513217688 0.2020594031 0.0586303622 0.3848124743 -0.0441766083 0.2181593776 -0.1039428711 -0.0200132020 0.0609485582 0.4846277535 -0.1725537926 -0.1049711779 0.6126422882 0.6138956547 0.3156163692 -0.1523150951 -0.0781741962 -0.1691626310 0.4222053289 0.0316672027 -0.2407096028 0.0661313012 -0.2253304422 0.2394290119 -0.0809470490 -0.1321706474 0.1284013689 0.2331636697 0.0223451424 0.1182022542 0.5647372007 0.3673496246 -0.1318636835 0.3954220116 -0.1683245599 -0.1873329282 0.1373043954 0.4509170651 -0.1113889962 -0.0962356851 0.3369765282 0.0813009739 -0.0819190592 -0.0921256989 0.2598486245 -0.0877626687 0.0975652039 -0.2164474130 -0.1803382635 0.2713044584 -0.0423673801 0.5981901288 -0.1189507842 -0.1070789322 -0.0728146881 -0.1628842205 -0.1683892459 0.0078758616 0.4155041873 0.1062202379 0.5317836404 -0.0264946911 -0.0102723828 0.2288627923 -0.0944058076 0.1106053740 0.6916150451 0.1857566386 0.4428721964 0.4393861890 0.6759533286 0.0248850994 -0.0299600568 -0.1231010333 0.5213300586 0.2293054909 0.3407321870 0.1005415320 -0.2151033431 0.0183164384 0.0957408026 -0.1973278970 0.1666516960 0.0973512530 0.5915947556 0.0437955968 0.0590365604 -0.0840943903 0.2838931978 -0.0661869422 0.1766970456 0.4223289788 0.0497894660 0.0074229427 0.2624793053 0.2055025995 0.0812330171 -0.1758622527 0.0118124336 0.1071914881 -0.1515251547 0.3149077892 0.3427655995 0.4944962263 0.1506808847 0.1184593141 0.0306559894 0.0405947268 0.1863514781 0.1611775458 -0.0426629670 -0.1021524370 0.4663658142 -0.1232997030 0.2448120415 0.2110914886 0.1493562609 0.0653513372 -0.1382665187 0.0180777442 0.4020224214 -0.2936992347 -0.0389352217 -0.1719235331 0.0159705635 -0.0115022585 0.1950456053 0.0917854607 0.1881304532 0.1012721732 0.1199563220 -0.0618641265 0.1885912865 0.0471607037 -0.0107640931 0.2441006899 0.2095318586 0.0650895685 0.0508346632 -0.1493766308 -0.2135420144 0.5147294998 -0.0785093606 0.5486016273 -0.0459754877 -0.1863998771 0.3560864329 0.1262080073 -0.0085856216 -0.0578344539 0.3472153842 0.1787734032 -0.0291850530 -0.1158563718 0.1959784478 -0.0762502849 0.0128770899 0.3535099328 0.2381889820 -0.0883989483 -0.1668822169 0.2105203718 -0.0143009368 0.0637071133 0.0045270342 0.2279933095 0.1610248536 0.2063376456 0.2230072767 0.4563766718 -0.1290050149 0.0299011245 0.4062958360 -0.0091098081 -0.1882164925 0.3104462028 0.2634674013 -0.1817767173 0.0266047474 0.4042500257 -0.0941780657 -0.0829198956 0.0062434915 0.4218299389 -0.0983156636 -0.1239319369 0.1106302664 0.4203619957 0.2403282672 -0.0716747344 -0.0074376408 0.0093790684 0.3446940780 0.0789964199 0.2474296391 0.1069645360 0.0931151435 0.0706963986 -0.0419722609 0.5986394286 0.2262540907 0.0616926774 -0.0585344285 -0.1071332917 0.2037527859 -0.0783987939 -0.1089439318 0.5433162451 -0.1527619809 0.4350853860 0.4396118522 0.4563653469 0.0135412822 0.4007045627 0.1802446246 0.3712379038 0.3994639218 -0.1409043968 -0.0593956187 0.1899890453 0.3286214471 -0.1836704314 0.5081560612 -0.0057445476 0.0232249852 0.0047489172 0.4970120788 0.3242300153 0.0182874314 0.0432009101 0.1759936213 0.0911443979 -0.0521063693 0.2743479908 0.0246475786 0.4828903675 -0.0992677659 0.3785673678 0.0530442968 -0.0058065928 0.0216426793 0.1682307422 0.1569625735 0.4720940590 0.5849352479 0.1345273107 0.6867579818 0.2930946648 0.0400491469 0.1822545081 0.2706193924 -0.1348394752 -0.1796250939 -0.0477649719 0.0805484205 0.2437789440 0.3205796182 0.2071383148 -0.0951459035 0.0248947255 0.4504606724 0.0568053722 0.0019195674 -0.0811022744 0.0882349983 0.1089689210 0.0484369323 -0.0906592831 -0.1351540238 0.6633676887 -0.1262718141 0.0587493666 0.2404030263 0.1565139890 -0.3082998395 0.2573896050 -0.1231778264 -0.0828059390 0.1431806237 0.0971766114 -0.0726735815 -0.1105530635 0.3836213648 0.2771526575 -0.0939863697 -0.0180619732 0.0205309074 0.1368336976 -0.0418197624 0.0774964616 0.2527353168 0.0893738121 0.1877428144 0.7632334828 0.1621308327 -0.0453423038 0.3571466208 0.0115072783 -0.1212129071 0.1434467435 0.2065297216 0.0239189584 0.4408496022 -0.0946964175 0.0461764745 0.0413271375 0.3494640291 0.2015856057 0.5618125796 -0.1297326386 0.1755205542 -0.2411535233 0.1301359087 -0.1172302440 -0.0029817591 0.1329326630 0.1856681406 -0.1159592271 0.4099521637 0.9019303322 0.1720967740 -0.2104703039 0.3316651285 -0.1414519101 0.3615683615 0.1666532457 -0.0040417495 0.5343410969 0.3007458746 -0.1105452329 0.0594617911 0.0547700487 0.0482477322 -0.0646068379 0.2151085287 -0.1782073826 -0.1089212820 0.4172543287 -0.2728231549 -0.1246785820 0.1297921389 -0.0668993443 0.1677537113 -0.0593242906 -0.0966594219 0.3034128547 0.1137369871 0.2243060619 0.4816571176 0.1271949559 0.4218597412 0.1364755780 0.0737972334 -0.1146295965 0.0640136078 0.1127615497 -0.0076740989 0.3387708366 -0.0060929866 0.2086787373 0.1594648361 -0.0459187478 0.4517988563 0.3878526092 -0.1274618506 0.2139897197 -0.2103734463 0.0668241307 -0.1405845284 0.1553890258 0.2491719425 0.4490419626 0.3204183280 -0.0966253355 -0.1566385329 0.4655162692 0.0383357480 0.0408249609 -0.1283688545 0.1200357825 0.6374214888 0.1952398568 -0.1812406629 0.7062473297 0.1733005643 0.2383255959 -0.0434244797 -0.1603456885 -0.1194635779 0.5312035680 0.5131142735 -0.1077081338 0.5269795060 -0.0436464474 -0.0067957602 -0.0900405943 0.2011925280 0.3013870716 0.0544164702 -0.0613716915 -0.1232719347 0.2492662519 0.0382893384 -0.0616634637 0.5543658137 0.3399865031 -0.1449368000 0.0165859908 0.1046383083 0.2480886430 0.0503203310 0.1493216455 -0.1127319187 0.4459059536 0.0160696357 0.2906267345 0.0492592975 -0.1456195265 -0.1915638745 -0.2392771691 -0.1755563468 0.3211973310 0.2136654109 -0.2373634279 0.0026020166 -0.0376961678 0.5083107352 0.8073777556 -0.1048302129 -0.1299680769 0.1324601471 0.3009737730 0.2056787759 -0.0793437287 -0.2834486365 -0.0677773952 -0.1002438366 0.6625334620 0.1225293428 0.1647479236 -0.0932217985 0.0798672438 0.0564967766 0.1216563731 0.1832718700 0.5014854074 0.2582276464 0.1923179626 0.1705681980 0.3154504597 0.6429905891 0.0175036266 0.3297445774 0.1686572433 -0.0207072310 0.1996252388 -0.1112835184 0.3883053362 0.2653109729 -0.1772179157 0.1346382797 -0.1427972168 0.4439283013 -0.0621179566 0.1949328333 -0.0871751532 -0.0167577900 -0.0566224977 0.0394426733 0.2353723496 0.2585683763 0.1789601892 0.2122859210 -0.0932354778 0.4402008951 0.0778924748 0.0688106716 -0.1617352068 -0.1362871677 0.0738694742 0.2583198547 -0.0753578320 -0.1369778365 0.3175010085 0.0312964395 0.4442625940 0.1656754166 0.1721369624 0.4260015786 0.3445282578 0.1024471745 0.3832411468 0.2724027038 0.2080008984 0.1431495696 0.4529550076 -0.0156817697 0.1176502407 -0.0360841826 0.4797087908 -0.0618212633 -0.0842099562 0.1395643950 0.2629536092 0.3548188508 0.1561836749 0.1111816242 0.3894767761 -0.0724760517 -0.2255756557 -0.1546937972 0.0010523628 -0.0625876114 -0.0848225504 -0.1378879398 0.0380014963 -0.0818571597 0.7602881789 0.0474509746 0.0920114592 -0.1498398930 0.0588775873 0.0393511169 0.3018096685 0.4318616688 -0.0902392343 -0.1955726445 -0.0267668404 -0.0330264680 0.0338525549 0.0907714367 0.0438494310 0.4500650167 -0.2054128498 0.1995884925 -0.0716642216 -0.0692260936 0.2421284020 0.3898712695 0.4824936986 -0.1712630838 -0.1516226679 -0.0958620161 0.0283466280 0.0067073000
0b5dd105bb108404dd07aa10e7ad2b9a_M_0021_629.40_677.36 0.0609635562 0.1640844047 0.3066208363 0.1577369422 0.0326562002 0.2730642259 0.7655349970 0.0878680199 0.0762261599 0.1741530150 0.0999708697 -0.0439440608 0.1381511688 0.2418382764 -0.0597203970 -0.1271073222 0.2847382426 0.2906312644 -0.1012898013 -0.1682959795 0.1964035481 0.1372153461 -0.1021298319 0.1400667429 -0.0787420943 0.1088242829 0.1242669374 0.2701126933 0.3075559139 0.4187458158 0.5061081052 0.1326382756 0.4956492484 -0.0353023671 -0.2047801167 0.1741189808 0.3354403973 0.2054421008 0.1361961216 0.1991081238 0.2252517939 0.1682394147 0.0700268969 0.4575107694 0.2137322128 0.6053662896 0.1780504584 0.3984216750 -0.1642365456 -0.2169146985 -0.1144015342 0.1857881546 0.1500666589 0.2799528241 0.1780637950 0.0984568298 0.4131397605 0.1647360623 0.1692057550 -0.0675873980 0.1437617242 -0.1039835364 -0.0535537824 0.3107306063 0.2257923484 0.1954703033 -0.0735705942 0.1565252990 0.4736899137 0.2170810401 -0.1095533371 -0.1061750278 -0.1350611001 0.0884563848 -0.0233573932 -0.2171989083 0.1734055430 -0.1948445886 0.2505573928 -0.0390421823 -0.0241481289 0.1948529184 0.1600510329 0.1160652786 0.1891974807 0.2758655846 0.3290954828 -0.1707471013 0.3072300851 -0.1635779589 -0.1902780831 0.2814013958 0.1749358177 -0.0742607862 -0.1051732004 0.2120396346 0.1696536988 -0.0810008645 -0.0966190919 0.2460673749 -0.0828904063 0.0983074829 0.0165828988 -0.1728536189 0.2364952266 -0.0709913746 0.3276408613 -0.1236338019 -0.0615036711 -0.0478900336 -0.1538481414 -0.1643093675 -0.0743321478 0.6468062401 0.3112699986 0.2639973462 -0.1920614839 0.0886315256 0.2318437994 -0.0187120680 0.0816146135 0.3651819527 0.1382446289 0.3183367848 0.5232925415 0.4023910165 -0.2469307631 0.0031221148 -0.0895525739 0.3743998110 0.2192193270 0.1543900818 0.1440361291 -0.1677619964 -0.0944364816 0.2408160865 -0.1909349114 0.1319955140 0.1973295063 0.2615697086 0.1341102123 0.0426002443 -0.0991448238 0.0829436928 -0.0237382073 0.1088888943 0.3149329722 -0.1157451496 -0.0702153593 0.1355559677 0.1594492346 0.3291522861 -0.1531424373 0.0898022205 0.2091323584 -0.1387382448 0.0661224425 0.2869993746 0.1985656470 0.0404213630 0.0551556088 0.4105261564 0.1359900832 0.3926692903 0.4008995891 0.0352378860 -0.0762426257 0.1944719106 -0.0721980855 0.1235089898 0.0916260108 0.0861892924 0.1296035796 -0.1378580034 0.0676435307 0.7317370772 0.0463115387 -0.0681849793 -0.1614734381 0.0148217920 0.1177339554 -0.0051661246 0.0950811952 0.5043680072 0.0921931192 0.2056145221 -0.0503831990 0.4222027659 -0.0157236625 -0.0063806106 0.0657526180 0.1413477659 0.3603302240 0.0349448062 -0.1166631952 0.0222862773 0.2910857797 -0.1160216928 0.3771429062 -0.0803622007 -0.1499961466 0.2485490143 0.0674682856 0.2189186066 -0.0563981831 0.1075429171 0.3876665533 0.1696260571 -0.1135393232 0.2206427455 -0.0947907716 0.0603356175 0.2504435778 0.1621570289 -0.0727034584 -0.1377481669 0.3147604167 0.0078086909 0.0970688611 -0.0639031306 0.0731651485 0.0865982622 0.1688044369 0.1759576648 0.5494184494 -0.1216531768 0.1121735945 0.2721600831 0.2504237890 0.0879260972 0.2531771064 0.1331351101 -0.1435619444 0.0704949573 0.5544753671 -0.0818922147 -0.0884710401 0.1066986173 0.2121164799 -0.0728599504 -0.1617791504 0.1862021238 0.1677508801 0.2769752145 -0.0326030031 -0.1068266481 0.0869866237 0.0972312093 0.0159944445 0.5743677616 0.1958561093 0.1558603197 0.3847986758 0.2178459466 0.1051022932 0.1107095182 0.1414692551 0.0174760185 -0.0922061726 0.1732849479 -0.0918013379 -0.0859586000 0.4383803010 -0.1051130742 0.3951492906 0.2639703453 0.3247324228 -0.0204465352 0.3158098459 0.2260486335 0.1487942487 0.2752234936 -0.1378846467 -0.0265368950 -0.0820499659 0.1599591225 -0.1552302241 0.4342052042 0.1400985420 0.1544788480 -0.0462187603 0.2022507638 0.2976948619 0.0234252550 0.0720800757 0.0783620328 0.1481563747 -0.0477696359 0.2770057917 -0.0622523241 0.1152142584 -0.1364895105 0.5337673426 0.2958078384 0.0327489674 -0.0062304833 0.2472890317 0.1101800129 0.1823423505 0.3304499388 0.1281851381 0.3310574889 0.2565578520 0.1166335568 0.0941677988 0.0488978811 0.0075162803 -0.1967843175 -0.0708570331 0.0723700374 0.0271930713 0.2362756282 0.1582091898 -0.0760622323 0.1732833385 0.3449958563 0.0383028574 0.0209602490 -0.0053395880 0.1716675758 0.0334991142 0.2401382923 -0.0620838292 -0.1186631024 0.3618263602 -0.1099899709 -0.1210031211 0.3702025712 0.1767951548 0.0505399406 0.1931320429 -0.0756054148 -0.1062630340 0.1160227209 0.1796777546 -0.0719431415 -0.0974261761 0.5623415112 0.3274646997 -0.0640773028 0.1657354236 0.0838595256 0.1899574101 -0.0379854590 0.1800125241 0.0957155079 0.1394910067 0.3726189137 0.5767702460 0.1984665990 0.3140543401 0.2688132226 0.2106271833 -0.0824240372 0.1896049678 0.1375772208 0.1658722311 0.3116602600 -0.1124836579 0.1570216119 0.0557858534 0.2205666006 0.1050715074 0.2442671955 -0.1530516595 0.3851986527 -0.2456764281 0.2459496260 -0.1400241852 0.1633276790 0.1604440510 0.2051720172 -0.0924139619 0.2664013803 0.3775586784 0.1792854220 -0.2500712872 0.2105275989 -0.1229082048 0.2473641187 0.1018287838 -0.0192223713 0.6284756064 0.1370443553 -0.0587617569 0.0798164755 0.2175014317 0.2801736295 -0.0506807826 0.2297143638 -0.1662746370 -0.1046024784 0.3353746533 -0.2818521559 -0.1106913462 0.2694603801 -0.0818360746 0.2914809287 0.0393451639 -0.0982392877 0.5746534467 0.1293443739 0.1767120510 0.2420662045 0.3705533147 0.1098765582 0.1302690208 0.1601107419 -0.0980218351 0.1343593597 0.2079189420 0.1923659891 0.2504895031 -0.0211500842 0.2528971136 0.0542280264 -0.0424742848 0.2502235770 0.3113459051 0.0616453215 0.3680385947 -0.1912627071 0.1952670217 -0.1441050619 0.1736745238 0.1552177817 0.1548472941 0.2620705962 -0.0938586369 -0.1142742783 0.3705130219 0.1736176461 0.1402998269 -0.1195138842 0.2795222700 0.3655970097 0.3903434575 -0.1750998795 0.6692889929 0.1589280814 0.3117865026 -0.0559155494 -0.2005209029 -0.1392136216 0.5096362233 0.2475091219 -0.1345773190 0.4115605950 -0.0389492363 0.2072745562 -0.0728624165 0.1142019331 0.3487218916 0.1771621704 -0.0284672361 -0.1023285836 0.0738947317 0.1197013184 0.1458087265 0.5519873500 0.2097121924 -0.1629103422 0.1385593265 0.1548340619 0.1101411283 0.0560057163 0.2116765976 -0.0925007835 0.1298744529 0.0670897514 0.2371337116 0.2226683199 -0.0854430348 -0.2056210488 -0.2199767679 -0.1569833755 0.3849458694 0.1844984889 -0.2538261712 0.2050025165 0.2188210338 0.2940042317 0.3679735661 -0.0480599813 0.0555846207 0.1427355260 0.1467431486 0.3403580785 0.2656997442 -0.2417811006 -0.0572521277 -0.0923261121 0.3840040267 0.2018447518 0.2665593326 -0.1402039975 0.1796757728 0.2127285004 0.0383713655 0.1443157792 0.3696896732 0.0852036774 0.2486967444 0.2297150344 0.2629751563 0.4065404236 0.2858088017 0.3227078021 0.1196580008 -0.0204248726 0.0484312773 -0.0914045721 0.4401204884 0.3362558484 -0.1607277840 0.3676427007 -0.1237492487 0.1436030865 0.0712549463 0.2491662502 -0.1127660573 0.0255482681 0.1514139175 0.1777099967 0.1277914047 0.0613001883 0.3013220727 0.1703836769 -0.0914840549 0.1935155839 0.1127229780 0.1049717814 -0.1296409220 -0.0989152789 0.2127149105 0.2267450839 -0.0108221294 -0.1208968237 0.3239544630 0.0367617868 0.3571754992 0.1271332055 0.4865685403 0.3822001815 0.2480717152 0.0810228810 0.4463722706 0.2304484695 0.3981063664 0.1000212729 0.5282052755 0.0488581285 0.3443478942 -0.0282676890 0.1963143051 -0.0779745057 -0.1208712086 0.1293540299 0.0555870011 0.6589555740 0.2038855553 0.1603100300 0.3462605774 0.0240264013 -0.2349491268 -0.1036651805 0.0996762216 -0.0220095385 -0.0973987654 -0.0845678151 0.0630375072 -0.1363152564 0.4430762231 0.1245574132 0.1312514544 -0.1836501956 0.3008836806 0.0148104010 0.4490060210 0.1795485169 -0.0787168220 -0.2104891837 -0.0355826095 -0.0399629921 0.0068177190 0.1473443061 -0.0059609474 0.2946193218 -0.1755805761 0.2960424423 -0.0642567053 -0.0879920051 0.1643952131 0.2617034614 0.4160909057 -0.1602178514 -0.1256175041 -0.0829427391 0.0509704910 -0.0379441231
0f09748dff35e2103323375212c4c5a9_M_0000_19.92_37.72 0.0288213957 0.0869596824 0.3314130604 0.1025956646 0.0904081836 0.2328759283 0.6278170347 0.1892911792 0.1436197758 0.3047291338 0.1583598107 -0.0228240099 0.0922481120 0.1302402616 -0.0844381079 -0.1594390571 0.2828553021 0.1469109356 -0.1084445417 -0.1507837176 0.2396886051 0.2411960065 -0.1166290119 0.1531994045 -0.0899914354 0.0747693405 0.1389006227 0.2098150104 0.2830177248 0.2652269006 0.4735513330 0.1059327126 0.2584344149 -0.0719659626 -0.2126613259 0.3237882555 0.4288767278 0.0795691088 0.0482393168 0.1547308713 0.1686673164 0.0908348337 0.1822943687 0.4080742896 0.3946338296 0.4282777607 0.3834367692 0.2308365703 -0.1968880147 -0.2189719230 -0.1346646100 0.1252377629 -0.0106043946 0.2269891948 0.2916277647 0.2169243246 0.5818288326 0.0811872259 0.1251270026 -0.0862474814 0.1584956348 -0.1209831014 0.0027082162 0.3184265494 0.2774973512 0.3848531544 -0.0784470364 0.3518440723 0.3011299074 0.2985627651 -0.1524162143 -0.1231647953 -0.1556000561 0.3043330014 -0.0383212827 -0.2247250527 0.1932827532 -0.2285359055 0.3970670998 -0.0490078740 0.0325379707 0.0912054330 0.3445973098 0.1936837435 0.0404113345 0.4577684402 0.1763490140 -0.1357724518 0.4702296853 -0.1915972233 -0.1937511563 0.5038061142 0.2906098068 -0.0836485550 -0.0987666026 0.4341605902 -0.1289218664 -0.0878634974 -0.1413208097 0.0708060712 -0.0878141224 0.0334669203 0.0839184821 -0.1666002721 0.1304923296 -0.0189826768 0.2506754994 -0.1031888872 -0.0996051207 -0.0470339693 -0.1653510779 -0.2213914841 -0.0073541272 0.4566265643 0.3188707530 0.3082281947 -0.0963151380 0.1274091452 0.1957800239 0.0205353778 0.1200918704 0.1941803843 0.2348109037 0.3157739639 0.4363898635 0.3987741172 -0.0974508226 0.0295534562 -0.1194724813 0.2231037915 0.3280902803 0.1728426218 0.1946586519 -0.1683405787 -0.0479896329 0.1791376173 -0.2157685757 0.2454093993 0.1767800301 0.3881568313 0.1402997077 0.0608825609 -0.1381833702 0.2104425281 -0.0549624860 0.2044511288 0.1621985137 -0.0609665960 0.0499107577 0.0814418644 0.1369050592 0.1844429225 -0.1376882344 -0.0081168804 0.1038898081 -0.1635265052 0.1774336696 0.1781820059 0.1530949026 0.0795257837 0.0842056721 0.3264333606 0.2202423364 0.5888515115 0.3146079183 0.0387340970 -0.0798458904 0.3673088849 -0.0474431813 0.2346991897 0.1256150901 0.0980649069 0.1977886856 -0.1488708854 0.1499866992 0.6466156244 0.1372778118 -0.0787899569 -0.1830894947 -0.0286928136 0.1148587689 0.1717005819 0.0724618882 0.3344808519 0.2431811988 0.2676120400 -0.0615249351 0.3634113669 0.0203459524 -0.0100029493 0.1286232919 0.1472677737 0.4409909248 0.0308374278 -0.1546966136 0.1004635617 0.1734018922 -0.1098118275 0.2771900296 -0.0011232311 -0.1553564519 0.2534540594 0.0982893780 0.1250771880 -0.0431766585 0.2522874177 0.3114472330 0.1228593737 -0.1065878570 0.1398125440 -0.0873258933 -0.0588759147 0.1689204723 0.1592025608 -0.0570414215 -0.1519994289 0.1658025086 0.1089247093 0.0611028597 -0.0187641811 0.1234451979 0.1535861045 0.0799531117 0.2204094678 0.4858722091 -0.1387999356 -0.0586082116 0.4908250272 0.2486256808 0.1799121499 0.1794225425 0.1418584585 -0.1592348665 0.0433092713 0.4307335615 -0.0696759149 -0.0914875865 0.2052078545 0.3862745464 -0.1122797728 -0.1976122558 0.0838311762 0.3484779894 0.3354047835 0.0110424589 -0.0363668762 0.1686122268 0.2547834218 0.0672883019 0.4878077805 0.1410498172 0.1956182271 0.2296064794 0.3420433700 0.3085239530 0.1379506886 0.2043425143 0.1243873909 -0.0852081701 0.3343663514 -0.1252288818 -0.0541598238 0.3563126624 -0.1178989261 0.1668475717 0.1490358859 0.3526340425 -0.0095697558 0.5949769020 0.2352932692 0.2847501636 0.2468769550 -0.1317548007 0.0185094848 0.1360747665 0.1068548411 -0.1798572391 0.3199369609 -0.0512997918 0.3785750866 0.0146944178 0.3883734345 0.5196729898 0.0495395139 -0.0188423153 0.1476434320 0.1102573350 -0.0225645863 0.2694429755 -0.0282016844 0.3246171772 -0.1573422700 0.4544883668 0.3858793676 0.0013819807 -0.0069211596 0.2389990687 0.0762681291 0.3029756248 0.2768146396 0.0456609502 0.2215978652 0.3122161031 0.1247415692 0.1726208627 0.2403896451 0.0574976318 -0.1642077416 -0.0477285087 0.0300173759 0.1334805638 0.4771142900 0.1822650880 -0.0452466123 0.3137668073 0.1489194334 0.0281725563 0.0110909604 0.0111902440 0.2599705458 0.0510781668 0.2114902437 -0.0930591151 -0.0935556591 0.3819997311 -0.0879347622 -0.0761514530 0.4073657393 0.0867478400 0.1201367676 0.3792302310 -0.0516741760 -0.1104790121 0.1157981604 0.1716590375 -0.0749320164 -0.0878884122 0.6247415543 0.3958795667 -0.0654361770 0.2781408131 0.2025339454 0.0133150620 -0.0484979749 0.2102179378 0.1974459291 0.2609522641 0.2956477106 0.4278341830 0.3694954216 0.1539418697 0.4204446375 0.2379681915 -0.0773108304 0.2788437605 0.2519848049 0.3034790456 0.3348840773 -0.1092365161 0.2079887688 0.0983076692 0.1068288907 0.0934629068 0.3904802501 -0.1676747799 0.3542090058 -0.2324756980 0.1803359985 -0.1878651977 0.3360376358 0.3142844141 0.1890651882 -0.0988512859 0.4208523929 0.4550961256 0.2894279361 -0.2412903607 0.1864566356 -0.1639138907 0.2308140099 0.1182914153 -0.0210909974 0.4655809700 0.0999162942 -0.0655958951 -0.0131315468 0.2105056345 0.3208710551 -0.0436759964 0.1831013858 -0.1859215051 -0.0694301054 0.1747694910 -0.3215769231 -0.1205817163 0.2616432309 -0.1266780496 0.2810534239 0.0974092409 -0.0964099914 0.5268828273 0.1852788478 0.3175651133 0.1363293827 0.4848004282 0.3156368136 0.2595750988 0.3096581101 -0.1268306375 -0.0238596126 0.2162786126 0.1439994127 0.1467286050 -0.0274722725 0.1922703832 0.1919267327 -0.0290575009 0.4319078326 0.3579238057 0.1495203525 0.3004261255 -0.1853437722 0.1369052380 -0.1600128859 -0.0582354814 0.1812295616 0.3566681147 0.1001419574 -0.0979718789 -0.1237004697 0.5440586209 0.2202291042 0.1839280576 -0.1147071421 0.1606236249 0.2128931582 0.3398655057 -0.1911499798 0.6242402196 0.1191872731 0.3848113716 -0.0586362183 -0.1636946350 -0.1382212639 0.3189346790 0.2094150633 -0.1018151790 0.2894372046 -0.0428765714 0.0673763379 -0.0586569048 0.0784650072 0.2313678861 0.2037828416 -0.0842969343 -0.0950324014 0.2053171992 0.1075809523 0.1906861067 0.3650003672 0.2262334377 -0.1944682151 0.0426894650 0.1010307446 0.3920725286 0.0884032622 0.0897519886 -0.0777020752 0.2264312804 0.1411561668 0.3065342307 0.2501972914 -0.0941071957 -0.1740110219 -0.2404025942 -0.1668141484 0.2414733768 0.1261791736 -0.2543675601 0.2376832813 0.1216102615 0.2323398888 0.3189259768 -0.0887276232 0.1233095229 0.1578837931 0.2318560630 0.1677867621 0.3660338819 -0.2311908603 -0.0290337466 -0.0841256604 0.2436788678 0.0543637276 0.3955757022 -0.1471855193 -0.0701871812 0.2074006349 0.1564674377 0.1266803443 0.1756210029 0.2414543331 0.1266929060 0.2639490366 0.3390603662 0.5674166679 0.2083425522 0.1990651190 0.2954668999 0.0008759471 0.2097671628 -0.0986938030 0.3614882827 0.0280578658 -0.1654735804 0.3346641660 -0.1402202100 0.2702746987 0.2509343922 0.1415956169 -0.1161343604 0.0360398293 0.3772299588 -0.0005001957 0.2091519833 0.1837844700 0.4223636091 0.1946484149 -0.0961793512 0.3061283827 0.1714803278 0.1610947996 -0.1103479117 -0.0727048516 0.2390417010 0.2637339830 -0.0009993737 -0.1382252723 0.1969553679 0.0761132687 0.1701995134 0.1088125035 0.5655584335 0.5079380870 0.2226442993 0.2193384469 0.3309962451 0.4222885072 0.4479851127 0.1747751981 0.3402360678 -0.0248911753 0.4380227923 0.1037058234 0.3276510537 -0.0817896053 -0.1451466531 0.2567768395 0.2050944269 0.5008597970 0.3009607196 -0.0803969353 0.2631700933 0.1169634089 -0.2730168402 -0.1421534568 0.0514819026 0.0818879306 -0.0932804197 -0.0988123491 0.1681258678 -0.1429131776 0.4212546349 0.2317457050 0.1524243355 -0.1721115410 0.2690379620 0.0520140640 0.5169817209 0.2569902837 -0.0647193938 -0.2100777477 0.0043374035 -0.0708863139 0.0292582344 0.0933444276 0.0133697949 0.3879847825 -0.1630989462 0.3897431195 -0.0613607578 -0.0868536383 0.1962342113 0.2447512448 0.2150466442 -0.1479657888 -0.1388313621 -0.0893621892 0.0569801144 -0.0718056038
10998f7d083819ae952528a6b2d218b1_M_0047_388.93_400.10 0.0307967421 0.2169013619 0.2759836018 -0.0314410925 -0.0103954859 0.2555921376 0.7796236873 0.5045551658 0.3329716921 0.1547854990 0.2366024703 -0.0221168250 0.0378774330 0.1584184170 -0.0660273805 -0.1464103460 0.4756358266 0.4531383514 -0.0707721859 -0.1791809201 0.3571118414 0.4015270472 -0.0902421400 0.2792330384 -0.1084527448 -0.0476943552 0.2575098276 0.1498598456 0.1112408191 0.3889217675 0.8943665624 0.1239033490 0.3086931109 -0.0383482017 -0.2103151977 0.5685074329 0.5749331713 -0.0167210959 -0.0271710679 0.2081814110 -0.0536569059 0.0509322360 0.3404670358 0.7541240454 0.3015089333 0.6236938834 0.2680040300 0.1926509291 -0.2117184550 -0.2223757952 -0.1434125900 0.2241775244 -0.0174968224 0.0725826845 0.4388125837 0.2492606491 0.7496656775 -0.0181672256 0.3435152471 -0.0552492030 0.3629735112 -0.1493623257 -0.0028120680 0.0521862432 0.4792311788 0.1356984228 -0.0820222721 0.4948661625 0.4012779593 0.2769783139 -0.1893641502 -0.1206322536 -0.2090466619 0.2019854188 -0.0043025916 -0.2768983543 0.1740213484 -0.2392597944 0.5479061604 -0.0946240127 -0.0137684979 0.0198851787 0.4867599905 0.0626363084 -0.1104324386 0.4091047049 0.2363835871 -0.1393115222 0.4435829520 -0.1938958466 -0.2039136887 0.3690897226 0.6571314335 -0.1048344597 -0.0860520154 0.7010263205 -0.0833070427 -0.0755960867 -0.1193959936 0.1741009355 -0.1007707939 -0.0411902964 0.0250418372 -0.2027137876 0.0033267140 -0.0207050759 0.6067482233 -0.1281048506 -0.0515534766 -0.0972980708 -0.1497072279 -0.2445365041 -0.0695123374 0.6706534028 0.3348904252 0.6631212234 -0.1572420597 0.1190084517 -0.0403127745 0.0047955043 0.2183968872 0.5718992949 0.2851449251 0.4000082612 0.5228319168 0.6723046303 -0.2226121277 -0.0244908463 -0.1303720325 0.4310375452 0.4948243797 0.2250851691 0.3117320836 -0.2289495766 -0.1019279361 0.2430423647 -0.2033047378 0.3116891384 0.0009828527 0.8084530830 0.0016954793 0.1183617488 -0.1123050004 0.2409825921 -0.0630725920 0.1620229781 0.4845431745 -0.1003594548 -0.0610181652 0.2566152513 0.2493635118 0.1273427904 -0.1576102972 -0.0445610359 0.0148843415 -0.1275529861 0.2532884181 0.3308403194 0.4217667282 0.2559472620 0.1717208475 0.0910198316 0.2099837065 0.4759036899 0.0710192770 0.0066040969 -0.0987701192 0.3437986374 -0.0829184353 0.3727429509 0.2571510971 0.2541618943 0.1611790657 -0.1409198940 -0.0053776996 0.5491011739 -0.0328653231 -0.0683203042 -0.2078582942 0.0045237737 -0.0000308827 -0.0193399657 -0.0214664489 0.2485567480 -0.0301988758 0.0494172573 -0.0550921150 0.3515826464 0.0509501919 -0.0267625079 0.3958143890 0.1325487942 0.3060792089 0.0624513850 -0.2169898599 0.0230748132 0.1356603801 -0.1074948236 0.0935038626 -0.0350270309 -0.1678384542 0.1602022499 0.1061337069 0.1092275083 -0.0637110397 0.1593640149 0.4296762347 0.0060962439 -0.1457825750 0.1352253407 -0.0937803835 -0.0572991110 0.2789261937 0.1589261740 -0.0839686990 -0.1756758690 0.0402812362 -0.1782741845 0.0095949695 -0.0725310445 0.2113590837 -0.0696287006 0.0912377909 0.4829348922 0.6174440980 -0.1526426971 -0.0784767047 0.5887129307 0.0821813792 0.0943823382 0.2983519137 0.1470712721 -0.1713602990 -0.0452008992 0.5001838207 -0.0685253367 -0.1034554243 0.1300537139 0.4900794327 -0.1164614856 -0.1530686170 0.1314685941 0.6319324970 0.4465271235 -0.0144598465 -0.0800392777 0.0031771599 0.4292904735 -0.0158607829 0.6005781889 0.2349670529 0.2825364470 0.0546573699 0.1379222274 0.4825981259 0.1770101637 0.2038935125 0.0494322404 -0.1017152593 0.3690227270 -0.1245224774 -0.1036618948 0.6801703572 -0.1271168143 0.2802301943 0.2162607908 0.5476614833 -0.0135325929 0.6213969588 0.3312216401 0.5096380711 0.0249254759 -0.1838899851 -0.0180953983 -0.0370779410 0.2628741264 -0.2137207687 0.7312541008 -0.0632437542 0.0496189594 -0.0027093487 0.3061256111 0.7136222720 0.0050543072 0.0202395190 0.0239353888 -0.0192195177 -0.0138361063 0.4831198156 -0.0710908696 0.4046352804 -0.1363771260 0.3890751004 0.2541511059 -0.0195949636 0.0382930674 0.2174462378 -0.0081602661 0.3219888508 0.3527186513 0.1561914235 0.5583789945 0.4734230936 0.0889179632 0.2395987213 0.1128491089 0.0442197844 -0.2208182812 -0.0544345304 -0.0360375792 0.1523896456 0.3927353621 0.3376486599 -0.0449998267 0.1848372817 0.4294422567 0.0199261829 -0.0041337721 -0.0121040726 0.2477783859 0.1413171440 0.0169871543 -0.0926411152 -0.1039848700 0.2761085033 -0.1309406161 -0.1360407472 0.3009482026 0.0833001733 -0.0100659616 0.3334718049 -0.0885070413 -0.0764501095 0.2126767486 0.2741498053 -0.0785757601 -0.0860358700 0.6178598404 0.2692088783 -0.1015848517 0.2317749411 0.1201757565 0.0185907818 -0.0465438701 0.1734380126 0.2694478929 0.2118150443 0.1523813009 0.5655864477 0.2987853289 0.0884030312 0.4785120487 -0.0032802355 -0.0718118995 0.1134409234 0.1350708157 0.1508844793 0.7247689366 -0.1247213110 0.1413653195 0.0528857522 0.3584611118 0.1893328875 0.6676982045 -0.1764122248 0.2934004962 -0.2571016252 0.1896238327 -0.1757057011 0.0356300361 0.2686362863 0.3651377857 -0.0864936113 0.4607197642 0.8157384396 0.2979047596 -0.2585628331 0.2411119193 -0.1590213925 -0.0193053745 0.1291129887 0.0021649892 0.5964869857 0.2832771242 -0.0866347924 0.0003007399 -0.0210076496 0.3673450649 -0.0460434146 0.2214244902 -0.1815650314 -0.0788869485 0.2448377460 -0.3747997582 -0.1196007431 0.2900133729 -0.1306030601 0.3960562944 -0.0043656947 -0.0831307471 0.7356134057 0.2188202590 0.3626242280 0.4219810963 0.5482177138 0.3846803308 0.2301064134 0.2384344041 -0.1571645588 -0.0684585720 -0.1026989445 0.0645741671 -0.0810293406 -0.0035077385 0.3493576050 -0.0116973706 -0.0494420677 0.3942629397 0.5624819994 0.1492899507 0.1330988407 -0.2130537629 0.1451925039 -0.1485399455 -0.0526048876 0.1360113621 0.5109574199 0.2988880277 -0.1137714460 -0.1608051360 0.5001197457 0.0049706055 -0.0161425360 -0.1049564183 -0.0343185663 0.4464088380 0.4959107637 -0.1835218519 0.8702683449 0.2255381942 0.4594134688 -0.0252756439 -0.2108763456 -0.1284597218 0.4765357673 0.2735322714 -0.1097926944 0.5587218404 -0.0340585746 0.0367700532 -0.0993189663 0.1793304235 0.4017615318 0.2969214916 -0.0836661980 -0.0975013450 0.2973009944 0.0102947103 0.0579928011 0.5438117385 0.1772668660 -0.2251964211 0.0380664207 0.1278547794 -0.0085214321 0.1566311717 0.1190966070 -0.1111656427 0.3973740637 0.0410431810 0.3346546888 0.0482721552 -0.1187841818 -0.1433107108 -0.2421517074 -0.1541741788 0.4723662436 0.0722135976 -0.2525614202 0.0051703621 0.0765718594 0.3467395306 0.5995280147 -0.0977639779 0.0027404726 0.1203571782 0.3744838834 0.2907732725 0.3012181520 -0.2549275458 -0.0690020770 -0.0880758166 0.7669043541 -0.1222273037 0.3962068856 -0.1463772357 -0.1576559395 0.0484187230 0.0148797240 0.0495502725 0.2687890530 0.1094722897 -0.0974928215 0.1177397519 0.2649936974 0.7177692056 0.0392436236 0.3843405545 0.0976032466 -0.0116051063 0.0137668923 -0.1100087762 0.6741775870 0.1695182770 -0.1633524150 0.0971275494 -0.1698087901 0.4147179127 0.1245526597 0.2048693895 -0.1334607601 0.0326831266 0.0751668066 0.0009214161 -0.0342968442 0.1479000747 0.6450064182 0.2468281090 -0.0975969955 0.1879800707 0.2057037055 0.1457559317 -0.1344340295 -0.1282233447 0.2561273575 0.5349384546 -0.0434167534 -0.1047144532 0.2166184038 -0.0286241136 0.1845287085 0.0871627778 0.1274952292 0.5367117524 0.4275514185 -0.1040509418 0.4708681107 0.4892166853 0.2464914620 0.3261611462 0.3941201568 -0.0271220990 0.3320928812 -0.0529092699 0.2714811563 -0.1088710204 -0.1104945317 0.2490629405 0.0160214733 0.3968296945 0.1439200938 -0.1525143236 0.3166551590 -0.0182264075 -0.2745292783 -0.1630831510 0.0108688921 0.0416965522 -0.1027271152 -0.1425941288 0.0416203178 -0.1407015473 0.4586400986 0.2001062036 0.0958879367 -0.1639965922 0.3103525341 0.0809312239 0.5253770351 0.2658840120 -0.0993175507 -0.2122043371 -0.0257742144 -0.0701496229 -0.0272625815 -0.0312644914 -0.0174996313 0.6721774340 -0.1910806447 0.4524362087 -0.0657026097 -0.0870009437 0.1479354203 0.2191903591 0.3396708965 -0.1908686757 -0.1732261181 -0.1138233542 0.0637074336 -0.0439498723
1384ffc32f5ab479dcc3f9256d041237_F_0020_2068.27_2096.98 0.0307278503 0.1018423364 0.1972892135 0.1313661784 0.0475778356 0.1852330416 0.4813522100 0.3847017288 0.2599508464 0.0736852065 0.1706081778 -0.0132955424 0.0662310272 0.1748466194 -0.0626764521 -0.1210537851 0.2983819246 0.2719193995 -0.0651488751 -0.1550281942 0.2634966075 0.2088032663 -0.1257105023 0.1857363582 -0.1114764512 0.0287933145 0.2450638264 0.2569285631 0.1905743778 0.5138973594 0.6256920695 0.0741351843 0.2049345225 -0.0359995551 -0.1755850464 0.3474599421 0.4434857070 0.1391821504 0.1033728942 0.1199718788 -0.0502663329 -0.0055293934 0.1895271987 0.3800933957 0.2812222540 0.3569767773 0.2959164679 0.1017852277 -0.2037033290 -0.2110103965 -0.1299398541 0.2522888780 0.0427767336 0.1246135011 0.4479343295 0.2012471557 0.5619027615 0.1187421903 0.2257345766 -0.0405385941 0.2139176577 -0.0957420766 0.0218317471 0.1608977318 0.4490026534 0.2004967779 -0.0804238543 0.3807251453 0.2283802032 0.1558734626 -0.1772723347 -0.1043267325 -0.1927973479 0.2867616117 -0.0469031483 -0.2371162027 0.2900523245 -0.2252209634 0.5405375361 -0.0622103922 0.0538105629 -0.0213866420 0.4356717169 0.0970811024 -0.0063629602 0.2600706220 0.1787293404 -0.1182196289 0.2608340979 -0.1851565689 -0.1676027626 0.3863918781 0.3019836247 -0.1167336330 -0.0762387887 0.5929045677 -0.0981795490 -0.0631885231 -0.1167210639 0.1780970097 -0.0958011821 -0.0010366878 0.0976361707 -0.1626541317 0.0044885054 0.0177135151 0.4739062190 -0.0950119495 -0.0843098611 -0.0431004129 -0.1463122368 -0.2217130214 0.0180924144 0.4779587388 0.3854906559 0.5184342861 0.0607229583 0.1415268332 0.1055537611 0.0364863835 0.1488238722 0.4531140327 0.1647607833 0.1917262971 0.3147550821 0.6684173942 0.0264594592 -0.0285117049 -0.1229199246 0.2223823816 0.2837620974 0.1684823185 0.2054497749 -0.1623353362 0.0071252771 0.2158310115 -0.2072617412 0.3127031624 0.0157302935 0.6260221004 0.0053031836 0.0644520149 -0.0996702239 0.1924601942 -0.0406929739 0.1917737573 0.2846267223 -0.0032695178 0.1084744483 0.1462742537 0.2206854373 0.1316077262 -0.1531396657 -0.0512095280 -0.0093062818 -0.1201277971 0.2007012516 0.3219282627 0.3040063083 0.1285497844 0.1429330558 0.1635207981 0.2804675102 0.3311573863 0.0692684203 0.0070394864 -0.0709170029 0.2811209261 -0.0513831228 0.3678441644 0.2008718550 0.1288225651 0.1157152802 -0.1373333335 0.0940719545 0.4000802636 0.0772436038 -0.0791431144 -0.2018379271 0.0045901230 0.0901758745 0.1354762316 -0.0124038402 0.2402451038 0.1062886342 0.0173059627 -0.0675210878 0.2692971230 0.0485363118 -0.0319163911 0.2392313182 0.0822677314 0.2862569690 0.0358788930 -0.1834218800 0.0748065040 0.3394655585 -0.0872843042 0.2065493166 0.0245701559 -0.1528230458 0.1180796176 0.0542973354 0.1610327065 -0.0545809492 0.2002364695 0.3538834155 0.0665314794 -0.1152240410 0.0831600279 -0.0874605179 -0.0641036928 0.2270746827 0.0965778083 -0.0528355241 -0.1072655246 0.2218314856 -0.1519949883 -0.0046372842 0.0103047919 0.1262778193 0.0117614530 0.1934206039 0.2796460986 0.3668695390 -0.1697637737 -0.0524152480 0.3538492918 0.1917884052 0.1073845103 0.3200323284 0.2113065273 -0.1602440923 -0.0328495055 0.3310357034 -0.0632970855 -0.1043553352 0.1996055692 0.2753479779 -0.0702848956 -0.1884785593 0.1286361367 0.5179902911 0.2647827864 0.0203106832 0.0208971389 0.0731772333 0.3074843585 0.0446862876 0.4718379378 0.1942979544 0.2711236179 0.1269711107 0.1328726113 0.4365383685 0.2665061057 0.2723299861 0.1874520630 -0.0733244345 0.2899541855 -0.1174309626 -0.0642746463 0.3980308175 -0.1153533831 0.1868270338 0.2203905582 0.2710180283 0.0025725036 0.6102244258 0.3399117589 0.4318898320 0.1120035499 -0.1403856277 0.0108581586 0.1878731549 0.1665840149 -0.1819888502 0.5112132430 -0.0473734625 0.1859341413 0.0237897709 0.3053783476 0.4463381767 0.0381979197 -0.0304189380 0.0469835773 0.0268738754 -0.0277111717 0.2987732291 0.0018008975 0.4697413445 -0.1168633327 0.2718372345 0.2109205872 -0.0133502427 0.0045555732 0.3676730692 0.0190991387 0.2642398477 0.2510086894 0.0807300657 0.4811538458 0.2577815950 0.0899193585 0.1322561055 0.2423564196 0.0484504960 -0.1464080215 -0.0675122142 0.0414265171 0.2057654709 0.4647523463 0.2726112306 -0.0243049208 0.2072470039 0.2450673282 0.0105554797 0.0031574869 0.0064804619 0.1826457083 0.0668044165 0.0979060829 -0.0706104711 -0.0740452111 0.4023973942 -0.1163991243 0.0657327548 0.2246733308 0.0484716110 0.0666055977 0.3685143292 -0.0611094087 -0.1058999076 0.1198531464 0.2218683213 -0.0738552809 -0.0879981071 0.3979606032 0.1619405448 -0.0760889575 0.3086748123 0.3024561107 -0.0569891259 -0.0481639840 0.2761827409 0.1594956815 0.3764271438 0.1356660277 0.3058512211 0.2908353806 0.1665678322 0.2702636123 0.1880991310 -0.0875820890 0.0600719936 0.1229578108 0.1654591709 0.4842775166 -0.0990330130 0.1086833850 0.0530782565 0.1764038205 0.0857032239 0.6586265564 -0.1409483105 0.2149547786 -0.2273554802 0.1484438479 -0.1427948624 0.1286029816 0.2201220393 0.2761152983 -0.0947713256 0.2607173324 0.4365790784 0.1908768117 -0.2352748513 0.1453381330 -0.1020637900 0.0788879395 0.1150128469 -0.0129749114 0.3943857849 0.2111823112 -0.0773602575 -0.0118272519 0.2099022567 0.3470146060 -0.0540167764 0.1418266743 -0.1854478419 -0.0551852658 0.1828398407 -0.3146434128 -0.1010406017 0.3742989600 -0.1073379368 0.2786258161 0.0059477305 -0.0821667761 0.5748174787 0.2519960999 0.4247623086 0.2802378535 0.4511033297 0.4382910728 0.2311548144 0.4592727721 -0.1104805917 -0.0517340563 -0.0741467625 0.0902651399 0.1131446436 -0.0089289844 0.3005747497 0.0642021298 -0.0377344042 0.2506734729 0.5782324672 0.1576133072 0.0780663341 -0.2142424285 0.1105090976 -0.1471725404 -0.0020893149 0.1277226508 0.3060727715 0.1961187571 -0.0694877803 -0.0950466245 0.2982814014 0.0214230213 -0.0174132437 -0.1071530133 -0.0158733111 0.3000209332 0.4543182552 -0.1782625318 0.4794130325 0.1382712126 0.3028839231 -0.0793339461 -0.1656726450 -0.0956762284 0.3124712110 0.3415305614 -0.0793984905 0.3132937551 -0.0240783952 0.1168833151 -0.0738875940 0.0934607983 0.2547841370 0.2396448404 -0.1198218912 -0.0927183852 0.2000681758 0.0398088992 0.2593128979 0.3490415215 0.1636174321 -0.1933545619 0.0816648677 0.1021413654 0.2144019604 0.0742153376 0.1597287208 -0.0702921227 0.2554713786 0.1026206240 0.1893534511 0.1468497515 -0.0820941776 -0.1334143728 -0.2195173502 -0.1206771806 0.3429088593 0.0258672778 -0.2213266641 0.1668761373 0.1536684483 0.1966396570 0.4007100463 -0.0946254134 0.1900329888 0.0689282045 0.1949316114 0.2758033872 0.4283297956 -0.2323381603 -0.0541276596 -0.0827902257 0.4371052086 -0.0189846344 0.5435271859 -0.1210123301 -0.1033350527 0.1052249297 0.0856434703 0.2155431062 0.2310879827 0.1563781202 0.1067495942 0.0843180269 0.1302173287 0.3695698082 0.1169215962 0.3696093261 0.1743216962 0.0058975499 0.1402016878 -0.1176268756 0.4449202120 0.1355225444 -0.1615606695 0.0963318050 -0.1187824681 0.2500749528 0.3117693663 0.1487723887 -0.1115983427 0.0003511151 0.1972224712 0.0332321152 0.0372476690 0.1808622926 0.4453084767 0.3236201406 -0.1039990485 0.2779360414 0.1647823751 0.1090173572 -0.1093725488 -0.1265131980 0.2300373614 0.3367667198 -0.0044464148 -0.1478573680 0.1435754150 -0.0592514388 0.2455090284 0.0811827257 0.2893556058 0.3186299801 0.2180675417 -0.0098202871 0.5428363085 0.3276624084 0.1987821758 0.1794145703 0.2917829752 -0.0252000354 0.2608351707 0.2719314098 0.2682996690 -0.0977447554 -0.1477887183 0.2941084206 0.1223503128 0.3267027736 0.0943610519 -0.0799094141 0.1890505254 0.0687444955 -0.2578309476 -0.1379409432 0.0526169986 0.1489339024 -0.0665731281 -0.1006121263 0.1514754593 -0.1370456517 0.3642663658 0.2779887319 0.2807288468 -0.1143223271 0.2900149524 0.0675083622 0.3546456695 0.2401369512 -0.0640921295 -0.2118584961 0.0398107432 -0.0785885379 -0.0263466854 -0.0390753970 0.0462864973 0.6290722489 -0.1731993258 0.3088162839 -0.0671562180 -0.0923499689 0.0931493789 0.1621037573 0.2113346756 -0.1372007430 -0.1353673786 -0.0844776332 0.0495650806 -0.0527498759
1384ffc32f5ab479dcc3f9256d041237_M_0016_2259.91_2265.00 0.0410812795 0.2094168663 0.1070473194 0.1962508708 -0.0998004377 0.3227284849 0.4889507890 0.6008711457 0.4145016968 -0.0251550674 0.2617509067 -0.0310022403 0.0173639320 0.1393370032 -0.0730817392 -0.0945987627 0.2959887683 0.5132379532 -0.0579794012 -0.1577640027 0.1815991402 0.3032539487 -0.1319212914 0.3295056224 -0.1304807067 0.0474993549 0.3085125089 0.4293235540 0.0051788874 0.7359378338 0.6247442961 0.1127686799 0.3692947626 0.0303449091 -0.1577156037 0.3030057847 0.2659982145 0.1762405038 0.1688863188 0.1586366445 -0.1187728718 0.0011672855 0.2828117907 0.5614773631 0.1261532903 0.5200818777 0.2236973047 0.1592061222 -0.2181098759 -0.2302858680 -0.1266927868 0.3932471871 0.0621814653 0.0003870944 0.4985148609 0.1749584377 0.3317244649 0.1193223298 0.3864313066 -0.0106136966 0.2664664388 -0.0905626789 0.0071163671 -0.0073906779 0.6375061274 -0.1496406347 -0.0896483585 0.5831500888 0.4134016037 0.1450117230 -0.1871679425 -0.0902557597 -0.2192159444 0.4062807560 -0.0113590285 -0.2596109807 0.2454964221 -0.2423749417 0.4985332191 -0.0815337747 -0.0364566855 -0.0190337747 0.4120331109 -0.0221435111 0.0433680154 0.3210535347 0.2991597354 -0.1225930005 0.2004271746 -0.1883940697 -0.1602012962 0.1759291291 0.4038134515 -0.1320579350 -0.0791020021 0.5972205400 0.0157363638 -0.0657284334 -0.0996077657 0.3136535585 -0.1023273468 0.0416510701 -0.0717874542 -0.1872773916 0.0655847639 0.0126890345 0.7296148539 -0.1006162092 -0.0994206443 -0.0646734536 -0.1611899883 -0.2024754435 0.0509800687 0.4499431252 0.2860594690 0.7066227198 0.1433067769 0.0685443208 0.1365526915 -0.0247261766 0.1442444324 0.8129612803 0.1372724026 0.2550387979 0.2922292650 0.9245560765 0.1611903608 -0.0705335811 -0.1247166693 0.3955151141 0.2194902301 0.2923087180 0.1581071913 -0.2077206820 0.0839564875 0.1812762171 -0.2146392912 0.2916295230 -0.0546318814 0.8116935492 -0.0618318729 0.0676980913 -0.0845210999 0.2557190359 -0.0442589410 0.1979057491 0.4626812935 0.0899186581 0.1138474643 0.2562308311 0.2869953513 0.0577965826 -0.1820601225 -0.0543839857 -0.0312337056 -0.1124375984 0.3029924929 0.4460776746 0.5564956665 0.1775201410 0.1855492294 -0.0277512502 0.1973841786 0.0786165446 -0.0598571561 -0.0621440336 -0.0907362998 0.3483563364 -0.0920548737 0.4156163931 0.2711589038 0.1704882383 0.0423193276 -0.1413167268 0.0293623377 0.2168988287 -0.1963261068 -0.0660765097 -0.1969423741 0.0288504232 0.0140795168 0.1875813752 0.0060379207 0.1369496137 0.0362799838 -0.1045643091 -0.0702138394 0.1545696408 0.0852680951 -0.0548610836 0.3284552991 0.1223248392 0.0424825624 0.0330223665 -0.1919342726 -0.1255775243 0.6186017394 -0.0768383667 0.4030745924 0.0149244685 -0.1712080985 0.1608121246 0.0438040793 0.0849172920 -0.0613195486 0.2880257666 0.2879506648 -0.0282367580 -0.1195119247 0.1040053368 -0.0822217390 -0.0288090371 0.3699087501 0.1351857632 -0.0671305284 -0.1069754139 0.2733434737 -0.2562488616 -0.0239107255 0.0439229012 0.1999553591 0.0029806476 0.3071031868 0.2928953171 0.3280173242 -0.1727557927 -0.0209651850 0.2999118567 0.0385506079 -0.1190547422 0.4322151840 0.3074690402 -0.1898367107 -0.0578543693 0.2908365428 -0.0830966085 -0.1108316332 0.0864911377 0.2945813537 -0.0627065301 -0.1487892419 0.1469246447 0.6139554381 0.1956037581 -0.0180980880 0.0491909347 -0.0271042157 0.3877314329 0.0696000233 0.3341377676 0.1795237958 0.2316849083 0.0142629109 -0.1188739091 0.6721673608 0.3597358763 0.1978871375 0.1042151675 -0.0836957917 0.2200226337 -0.0934225246 -0.0971912146 0.5005636811 -0.1431385875 0.3580588996 0.4180826247 0.3155039251 0.0267386958 0.5301541090 0.3309426606 0.5309041739 0.2160943300 -0.1526181549 -0.0344952978 0.2832816839 0.3334089816 -0.1904619783 0.6488776207 -0.0338330269 -0.0279988479 0.0310008600 0.4025878012 0.3216954470 0.0269548558 -0.0001541469 0.0706566870 -0.0003281717 -0.0483144559 0.3046100140 0.0500277393 0.6394524574 -0.0901873261 0.2064190805 -0.0177138969 -0.0048409658 0.0147735532 0.3804063797 0.0640234649 0.3957671225 0.4484030604 0.1209160760 0.8174120188 0.2410629392 0.0237277076 0.1336283088 0.3073120415 -0.0689941272 -0.1756680757 -0.0682524964 0.0806309879 0.3047428727 0.4085192084 0.2978195548 -0.0385868661 0.0261815004 0.4265783727 0.0288428292 -0.0074903760 -0.0584198721 0.0696090981 0.1003697291 -0.0041573700 -0.0763171315 -0.0986496806 0.6434815526 -0.1493990421 0.1944372952 0.1004836857 0.0937348530 -0.1878945678 0.3256905675 -0.1037664413 -0.0912826210 0.1296486855 0.1892463565 -0.0784191117 -0.1118867993 0.2284267694 0.0592662171 -0.1084479615 0.1484844387 0.2498389781 -0.0122935548 -0.0496443026 0.2166478783 0.1953859925 0.3180674911 0.0573282018 0.4934768975 0.1847063750 0.0577956513 0.2353058457 0.0736103281 -0.1255874634 -0.0492142104 0.1060945839 -0.0008415603 0.5760148764 -0.0824751854 -0.0150932027 0.0209326595 0.3270340264 0.1461034715 0.8418523669 -0.1187450290 0.1001175046 -0.2346276045 0.1231915802 -0.0983886272 -0.0807334930 0.1146853119 0.2931039035 -0.1164833158 0.2479992509 0.7152714729 0.1171761528 -0.2288081050 0.2323043793 -0.0775570124 0.1575211287 0.1516165584 0.0027687193 0.4118619263 0.3517940342 -0.1111457199 0.0185820945 0.1507860422 0.2004168928 -0.0632630065 0.1468162090 -0.1830985695 -0.0865195617 0.3348389268 -0.3014488816 -0.1020942107 0.3244612813 -0.0730427206 0.2013664544 -0.0952820033 -0.0873212069 0.4354793429 0.2421259433 0.4228630960 0.5054263473 0.2396936119 0.5557183623 0.1529649496 0.3755418956 -0.1098845005 -0.0086629950 -0.1683514863 -0.0006802306 0.2522298992 -0.0036563217 0.3293363154 0.0492131710 -0.0569652617 0.2596141398 0.6688624024 -0.0004705561 -0.0102387369 -0.2506863773 0.0705982894 -0.1504660994 0.1458663791 0.1617749482 0.3914165497 0.3321452439 -0.0654220730 -0.1222070754 0.2263889611 -0.1162465066 -0.1289961189 -0.1295672059 -0.0815119296 0.5756822228 0.4076846540 -0.1865033209 0.5062209368 0.1628520489 0.2055167705 -0.0768110678 -0.1669187099 -0.0823174417 0.4370848835 0.5703091025 -0.0770558715 0.4492832124 -0.0288325846 0.0743960515 -0.0975426137 0.1818472445 0.2940447330 0.1421841234 -0.1203912869 -0.1078768373 0.2454885542 -0.0057954481 0.1557933837 0.4580236673 0.2466966361 -0.1742764413 0.0742195025 0.1182339415 0.1553151459 0.0551269390 0.2123789936 -0.0892851353 0.3958287537 0.0371612050 0.1643410474 0.0384660736 -0.1166714206 -0.1367682815 -0.2283216417 -0.1292979121 0.3882476091 0.0711808950 -0.2031175047 0.0333150476 0.0762913302 0.3623744249 0.7144386172 -0.1161969602 0.0651670098 0.0471856594 0.2087912410 0.3171025217 0.1809182465 -0.2717405260 -0.0755659491 -0.0917881057 0.7086679339 0.0165185407 0.4647032917 -0.0970787406 -0.0333152115 0.0096284319 0.0867388994 0.2995418906 0.4483589232 0.1808490157 0.1673772335 -0.0057992972 0.0959726870 0.3935076594 -0.0154005773 0.4786587954 0.0973100737 -0.0190076977 0.1611270159 -0.1451332867 0.4457067251 0.2915624380 -0.1741649956 -0.0556956381 -0.1291767657 0.3643541634 0.1766124666 0.1781764776 -0.1000066549 -0.0405009948 -0.0649375468 0.0537373610 0.0510248877 0.2462131232 0.3176910877 0.3724036813 -0.1053430364 0.3834640384 0.1062786728 0.0413968191 -0.1416779608 -0.1766583025 0.1406846195 0.3423530161 -0.0454089530 -0.1475300044 0.2166108936 -0.1086753458 0.4410841465 0.1276692301 0.0560044944 0.2351612151 0.2957002819 -0.0986343920 0.6273570061 0.2435233742 0.0276481677 0.1589738429 0.3431575894 -0.0243539885 0.0412081778 0.2659470439 0.3909201026 -0.0944997445 -0.1139733195 0.2593562603 0.1716846973 0.1992230415 -0.0178634357 0.0409149453 0.2598561049 -0.0262682736 -0.2479469627 -0.1589559764 0.0243844520 0.0819572136 -0.0581150353 -0.1265511811 0.0963748991 -0.0981087163 0.5832784772 0.1963158846 0.2896019220 -0.0880596936 0.1658207327 0.0589299873 0.2040853649 0.3827957213 -0.0732315034 -0.2197391838 0.0348931402 -0.0692329779 -0.0259410869 -0.0615077093 0.0719624236 0.7393124104 -0.2004484236 0.1884464622 -0.0764227509 -0.0667045563 0.1145314202 0.2473857254 0.3762322068 -0.1458130181 -0.1414671391 -0.0936382711 0.0341662876 -0.0079333596
140a0b901025c4af3e23cf489943561d_F_0000_248.83_276.73 0.0672235489 0.2854487598 0.2844489217 0.1139740646 -0.0871494412 0.3966367841 0.8822922707 0.3264405429 0.2449618727 0.1412978321 0.2088697553 -0.0583215058 0.0882358477 0.1987647712 -0.0597141758 -0.1190110222 0.3725129068 0.5282430649 -0.0985945389 -0.1793420613 0.1966377050 0.3119294941 -0.0914674476 0.2900348306 -0.0960809290 0.0723007470 0.1828887910 0.3285276294 0.1389217228 0.5283568501 0.6608181000 0.1638114303 0.6040527821 -0.0084807426 -0.2137964219 0.2775202990 0.3127322793 0.1540948749 0.1142812520 0.2579480410 0.1440905482 0.1787548214 0.2234839797 0.7305612564 0.1375790983 0.8094024658 0.1359877586 0.4566822350 -0.1780283749 -0.2417970747 -0.1151901856 0.2851756215 0.1163567975 0.1579933465 0.2463297695 0.1241602153 0.3838026822 0.1009115502 0.3488622010 -0.0465475991 0.2593258619 -0.1215034649 -0.0530309975 0.1342891753 0.3900186419 -0.0501186363 -0.0830358937 0.3934943676 0.6313216686 0.2662940025 -0.1444669664 -0.0950421989 -0.1757939160 0.1566500068 0.0211925413 -0.2495757788 0.1065093055 -0.2190748602 0.2693374753 -0.0712448955 -0.0984803364 0.1967324317 0.2115100324 0.0212219972 0.1556194425 0.3795992434 0.4155134261 -0.1729081869 0.3385080695 -0.1751370579 -0.1955736279 0.1499615461 0.4189928174 -0.0994173884 -0.1064103246 0.3273881972 0.2278141528 -0.0909852087 -0.1010740921 0.3267549872 -0.0952469260 0.0886680633 -0.1098305061 -0.2121600658 0.2379276752 -0.0795319825 0.5671923161 -0.1422586590 -0.0550908111 -0.0784858018 -0.1604403257 -0.1756712645 -0.0726351291 0.6988030076 0.2401049882 0.4970955551 -0.1900887787 0.0288008638 0.1642687619 -0.0660405755 0.1384358853 0.6529852152 0.1712058485 0.4359853566 0.5743731260 0.6068680882 -0.2353729159 -0.0329654701 -0.0929748937 0.5660293102 0.2820036411 0.2546187341 0.1732779592 -0.2225338370 -0.0851519927 0.2313136756 -0.2062188387 0.1517946869 0.1281518191 0.5289749503 0.0700374916 0.0776526481 -0.0889466181 0.1658724099 -0.0595934391 0.1142079532 0.5226083994 -0.0810125545 -0.1169856191 0.2635436952 0.2164205611 0.2599191368 -0.1787804514 0.0780490935 0.1760405302 -0.1305009872 0.1709672958 0.3826693296 0.4323947728 0.1502501816 0.1026902795 0.2193994671 0.0781973675 0.2958489060 0.2702605724 -0.0061973138 -0.0969256535 0.2869824469 -0.1155943424 0.2060710788 0.1758764088 0.1797436327 0.0981824845 -0.1423327625 -0.0186112355 0.6510300040 -0.1612645239 -0.0605066679 -0.1792997718 0.0300611127 0.0394535363 -0.0031339619 0.0706522167 0.4095019996 -0.0075301006 0.1210817397 -0.0498380996 0.3681575060 0.0334088653 -0.0156311616 0.2263093144 0.1763404757 0.2101313621 0.0529026613 -0.1554359496 -0.1254981309 0.3821507096 -0.0980267823 0.4422747195 -0.1061674953 -0.1738102138 0.2799860835 0.0880977735 0.1355288774 -0.0568283498 0.1612161398 0.3854083717 0.0740958303 -0.1319230050 0.2339116037 -0.0876036584 0.0748865157 0.3726167977 0.2130011171 -0.0903271809 -0.1661724448 0.2625329792 -0.0991574973 0.0884491354 -0.0725510344 0.1691436023 0.0333644375 0.1970087886 0.2880682051 0.6245279908 -0.1330170482 0.0980839729 0.3535241485 0.1069984809 -0.0502550714 0.3255947232 0.1814553589 -0.1751907915 0.0272981171 0.5778482556 -0.0967856720 -0.0982409120 0.0326229706 0.3306041956 -0.1012862697 -0.1290301085 0.1995756924 0.3394275904 0.3199113607 -0.0649411157 -0.1122398227 -0.0018779174 0.2270597368 0.0175865125 0.5333098173 0.2116465569 0.1501734257 0.2456707805 0.0543356016 0.3324556947 0.1631114930 0.0891378596 -0.0721464902 -0.1241674498 0.1913201213 -0.0880073011 -0.1188015044 0.6263289452 -0.1310602427 0.5295593739 0.3807805777 0.4742983878 -0.0169906765 0.3295676708 0.2538702488 0.2939400971 0.2850050628 -0.1675319374 -0.0644202754 -0.0751946643 0.3037613332 -0.1872314811 0.6499902010 0.1112396196 -0.0214187670 -0.0441037826 0.2767663002 0.3722772896 -0.0014770217 0.0825524181 0.0807611048 0.0972133726 -0.0412170514 0.3746111989 -0.0590232797 0.2524040043 -0.1280849725 0.5140004754 0.1700736880 0.0203239396 0.0088594649 0.2038451135 0.1095349863 0.3095594645 0.4995976388 0.1835650057 0.6247885227 0.3479834497 0.0724956840 0.1609764844 0.0537718758 -0.0568910278 -0.2286996096 -0.0721530467 0.0504214019 0.0857510865 0.2143744826 0.2303050011 -0.0784699321 0.0579987168 0.5331674218 0.0377019905 0.0084257312 -0.0432495698 0.1298253387 0.1032612696 0.1077942923 -0.0839662775 -0.1326283514 0.4690863490 -0.1318097115 -0.1036992595 0.3063082099 0.2008253187 -0.1419630647 0.1865851432 -0.1093259007 -0.0980609432 0.1677235812 0.1883713156 -0.0691614449 -0.1134558246 0.5326108932 0.2956930697 -0.0966940448 0.0570109896 -0.0137670469 0.2259407640 -0.0366496444 0.1110559031 0.1775766909 0.0714697093 0.3018830419 0.7675622702 0.1454345733 0.1958893836 0.3387986720 0.0522870347 -0.0949056372 0.1277378947 0.1292401254 0.0596342981 0.5115402341 -0.1262828112 0.0820246860 0.0401830301 0.3996800482 0.1854129732 0.4360703826 -0.1586706191 0.3215874732 -0.2704468369 0.2196371853 -0.1301420927 -0.0098821241 0.1239110604 0.2675111592 -0.1094340459 0.3514937460 0.7440575361 0.1841007918 -0.2469477355 0.2998968661 -0.1323968768 0.2391515821 0.1377493888 -0.0080552241 0.7109698653 0.2810353935 -0.0745616108 0.0765550733 0.0784269720 0.2136262357 -0.0642769784 0.2564648986 -0.1785951406 -0.1237547547 0.4351946115 -0.3101527393 -0.1203530878 0.2115504444 -0.0739049539 0.3016253710 -0.0190440621 -0.0956191123 0.5747394562 0.1174114645 0.1703629196 0.4684611559 0.2938691974 0.2093685865 0.1088991761 0.0454702787 -0.1185200810 0.1289022267 0.0941820294 0.1057352945 0.2481617332 -0.0164104886 0.3025589287 0.0202371012 -0.0692259669 0.3249938190 0.3952735960 -0.0218361653 0.3027074635 -0.2228900045 0.1671597809 -0.1381522864 0.2163333893 0.1945061386 0.3260334134 0.3836399913 -0.1055375561 -0.1573900282 0.4168448448 0.0561574586 0.0422443040 -0.1304971278 0.1973169148 0.6041706204 0.3856268823 -0.1881083101 0.8392436504 0.2230672091 0.3174602687 -0.0432948396 -0.2236971706 -0.1309981346 0.6422403455 0.3814687729 -0.1400506794 0.6039274335 -0.0357977673 0.1398953050 -0.0940483361 0.2084587365 0.4340319037 0.1509101987 -0.0293435492 -0.1200100034 0.1592330337 0.0541343018 -0.0012193634 0.6855552793 0.2572320104 -0.1772984564 0.1083867922 0.1653008312 -0.0024030749 0.0945890471 0.2175835371 -0.1246889681 0.3129289448 0.0088481130 0.2754976451 0.0900094137 -0.1345858276 -0.2127510458 -0.2596916258 -0.1655414253 0.4677393734 0.2108758539 -0.2633067966 0.0428486317 0.1268771440 0.4600163102 0.6769325137 -0.0698921308 -0.0990044028 0.1370622218 0.2571669221 0.3633563221 0.0928614959 -0.2695402503 -0.0802947357 -0.0992190465 0.7302294970 0.1551158428 0.1885021925 -0.1309578419 0.1598562151 0.1109107658 0.0140796136 0.1388116777 0.5121199489 0.0977129638 0.1768254340 0.1752773970 0.2815944850 0.5847943425 0.1401562989 0.4138270617 0.0605744198 -0.0395825505 0.0220962502 -0.1042415798 0.5601189137 0.4215070307 -0.1775422841 0.2231544107 -0.1428287029 0.3163681626 -0.0697049126 0.2839500904 -0.1093751639 0.0117073199 -0.0603586510 0.1549101174 0.1033836752 0.1182852462 0.3332076967 0.1930160522 -0.0937121809 0.2306400985 0.1000420600 0.0782327428 -0.1630016714 -0.1215876192 0.1662021428 0.3381508291 -0.0490709655 -0.1199614555 0.3837187290 0.0192388482 0.4573309720 0.1468994468 0.2358618081 0.4296951294 0.3907225430 -0.0293891020 0.4911138117 0.2722763121 0.2944042683 0.1634948999 0.5870913267 0.0438717529 0.2351586223 -0.1412537247 0.2884728014 -0.0840575323 -0.0950358286 0.1047739387 0.0675702319 0.5811518431 0.1455251575 0.1647754759 0.4332776666 -0.0683699772 -0.2481781691 -0.1383887976 0.0528649613 -0.0850069150 -0.1030057967 -0.1269409508 -0.0224195644 -0.1156651750 0.6254142523 0.0546754189 0.0870083272 -0.1815178543 0.2473224849 0.0220587552 0.4274143875 0.2883191407 -0.1107854322 -0.2165633440 -0.0654555783 -0.0279243998 0.0159104988 0.1046020240 -0.0098046362 0.4446922839 -0.2082506567 0.2940776050 -0.0729594007 -0.0683903918 0.1983961463 0.3128014505 0.5535829067 -0.1918887198 -0.1527144909 -0.0937265679 0.0507527329 -0.0082103498
140a0b901025c4af3e23cf489943561d_F_0004_190.93_206.10 0.0790164992 0.2655576169 0.3841814101 0.0840800777 -0.0162912868 0.3643158674 1.0161218643 0.1680929661 0.1351057440 0.2268780619 0.1477935910 -0.0575699955 0.1338745952 0.2484149933 -0.0689752996 -0.1492013335 0.3975453377 0.4541105032 -0.1124164164 -0.1981148273 0.2430296391 0.2682332397 -0.0888514146 0.2244520336 -0.0832093433 0.0833460316 0.1326762736 0.2497598529 0.2664170265 0.4076982439 0.6831984520 0.1722267121 0.6279540658 -0.0414552465 -0.2424248010 0.2889855504 0.4161970317 0.1533406973 0.0822510049 0.2759992480 0.2493273616 0.2353644967 0.1692378819 0.7304923534 0.2148294747 0.8357489109 0.1555511951 0.5172791481 -0.1704883873 -0.2515187860 -0.1231742576 0.1979751736 0.1313836575 0.2665085196 0.1787982285 0.1189087629 0.5082170367 0.1091157198 0.2684895396 -0.0740799010 0.2460462302 -0.1307396144 -0.0769001395 0.2551958263 0.2612442076 0.1257974058 -0.0754589289 0.2554979920 0.6482694745 0.3037118912 -0.1336932629 -0.1172576770 -0.1567089260 0.0502131581 0.0114218630 -0.2541441023 0.1050453559 -0.2171926498 0.2418317497 -0.0590973347 -0.0814475194 0.2560499012 0.1741833538 0.0877549052 0.1733722687 0.3800536394 0.4141692221 -0.1915792227 0.4094190001 -0.1789209247 -0.2170251012 0.2460415959 0.3766215742 -0.0781558976 -0.1180171147 0.2580294311 0.2379225194 -0.0898643285 -0.1077724919 0.2801538706 -0.0871921927 0.0965182483 -0.0525542013 -0.2116506398 0.2724098563 -0.1081596166 0.4367690980 -0.1575465351 -0.0516064763 -0.0784096867 -0.1739460975 -0.1835093051 -0.1297778189 0.8042005897 0.2828651369 0.3696574867 -0.3285673261 0.0621819757 0.1773440987 -0.0499256290 0.1288172454 0.4984146357 0.2034820467 0.4653884768 0.6808408499 0.4444290698 -0.3981114626 -0.0049725613 -0.0984943211 0.5545183420 0.3328849375 0.2059010416 0.2111673802 -0.2128404379 -0.1663424075 0.2716980278 -0.2092663646 0.1248941645 0.2218449265 0.3783093095 0.1432937682 0.0771676376 -0.1010141075 0.1231109425 -0.0457225144 0.1068564877 0.4771202803 -0.1758599281 -0.1841467321 0.2284761518 0.1899521947 0.3541465402 -0.1821409166 0.1108684689 0.2610844672 -0.1410143673 0.0988281518 0.3264087439 0.3046565950 0.1231775433 0.0800256729 0.3962751925 0.0903362632 0.4707793295 0.4225732684 0.0302391984 -0.0872225761 0.2524591982 -0.1076385975 0.1339392364 0.1272821426 0.1740429550 0.1550706178 -0.1502082348 0.0032872942 0.8702436090 -0.0504768677 -0.0702281818 -0.1746705770 0.0157741755 0.0843793303 -0.0751310885 0.1034889147 0.5526805520 0.0057203546 0.2378402650 -0.0488783009 0.4981178641 0.0071923733 -0.0023729212 0.1637981832 0.1910715997 0.3598871231 0.0630483180 -0.1400797665 -0.0377091095 0.2311610579 -0.1212973893 0.3932917118 -0.1278776824 -0.1695928723 0.3004245758 0.1000763029 0.1999024749 -0.0654135123 0.0938110501 0.4566045105 0.1472335905 -0.1424500942 0.2666246295 -0.0973713845 0.0804110244 0.3333649933 0.2171504647 -0.0948023498 -0.1792280972 0.2601264417 -0.0145362169 0.1283668578 -0.1207986921 0.1303865165 0.0476818085 0.1459596604 0.2845011652 0.7402877808 -0.1248333827 0.1241475567 0.4028127193 0.1956550628 0.0590544865 0.2622433305 0.1202201247 -0.1667682379 0.0657912716 0.6970319152 -0.1055373251 -0.1016411856 0.0634458214 0.3253541887 -0.1098178774 -0.1460899115 0.2131419629 0.2208525389 0.3856872320 -0.0642247722 -0.1758672148 0.0462614819 0.1600620300 -0.0031207465 0.6816239357 0.2319182307 0.1521525234 0.3679208159 0.2106392533 0.1579234451 0.0767220706 0.0933008268 -0.0817586780 -0.1324862242 0.2115862668 -0.1015112102 -0.1155949011 0.6341978312 -0.1191142797 0.5195239186 0.3099479973 0.5056834817 -0.0357764848 0.3237974942 0.2334447354 0.1922235638 0.2792697251 -0.1637005210 -0.0530934408 -0.2228429914 0.2459070235 -0.1868923604 0.6081200838 0.1555679739 0.0748505667 -0.0711438730 0.2262222320 0.4380693138 0.0070013730 0.1077086031 0.0742209703 0.1440942734 -0.0481745154 0.3946829736 -0.1128075570 0.0803095996 -0.1579727083 0.6458524466 0.3179619014 0.0337002501 0.0026943511 0.1725905836 0.1162832677 0.2394833863 0.4470409453 0.1890289038 0.4375599027 0.3956365287 0.1132760942 0.1650951058 -0.0379471630 -0.0109280609 -0.2635901868 -0.0761921033 0.0351357013 -0.0091541819 0.1899653971 0.2036844641 -0.0884391442 0.1445963532 0.5002083182 0.0342710577 0.0192724038 -0.0230785497 0.2004467696 0.0732127875 0.2066729814 -0.0843607560 -0.1417351961 0.3620786667 -0.1229459196 -0.2377570570 0.4295344055 0.2316617072 -0.0278523676 0.1729355454 -0.0946335047 -0.0992759243 0.1771342903 0.2077280581 -0.0843347907 -0.1130142659 0.7151059508 0.4075476527 -0.0939989313 0.0912950039 -0.0444288999 0.2734841704 -0.0370056294 0.1131978333 0.1633731425 0.0309703089 0.4229106903 0.7946830988 0.1925885230 0.2981132567 0.3955178261 0.1210287288 -0.0767434984 0.2241719067 0.1513331681 0.1441722959 0.4671375751 -0.1381265968 0.1672361791 0.0563558824 0.3506233394 0.1790280938 0.2582862377 -0.1821765900 0.4520622194 -0.2916350067 0.2907027602 -0.1541785449 0.1009956151 0.1794260889 0.2644500732 -0.0971913487 0.3961039186 0.6410970688 0.2378606647 -0.2729550600 0.2962126732 -0.1616260558 0.2316478193 0.1194240302 -0.0122928293 0.8068680763 0.1939307749 -0.0667397529 0.0844207853 0.0962970927 0.2971613109 -0.0559217744 0.3046172857 -0.1872169524 -0.1317162663 0.4314141870 -0.3231517375 -0.1328855306 0.2222130299 -0.0911389291 0.3697642088 0.0411798656 -0.1068347096 0.6876656413 0.1048432589 0.1269478649 0.3682079911 0.4133063853 0.0766703784 0.1248148233 0.0086727217 -0.1268864572 0.1529210657 0.2145862877 0.1854328960 0.1993033290 -0.0243897475 0.3013598323 0.0138722323 -0.0596186630 0.3514188230 0.3087767959 0.0384064950 0.4434463978 -0.2163451612 0.2277088910 -0.1481908858 0.1955300868 0.1852743328 0.2746267319 0.3575158119 -0.1299165040 -0.1646767110 0.5133477449 0.1710087210 0.1501247883 -0.1423848718 0.3059280813 0.5106218457 0.4234004915 -0.2017745078 0.9482606053 0.2239379883 0.3987064958 -0.0333634764 -0.2439808249 -0.1648655683 0.6703021526 0.2570973039 -0.1572943181 0.6055201888 -0.0367307328 0.1846174896 -0.0844874755 0.1844673604 0.4610640407 0.2004108429 -0.0062391805 -0.1186141819 0.1304256320 0.1052693725 0.0242866259 0.7255414724 0.2496284544 -0.1922650486 0.1323921382 0.1924740970 -0.0160157550 0.0999951661 0.2100671679 -0.1261946261 0.2366476357 0.0323294438 0.3234310448 0.1704599857 -0.1208360642 -0.2313200980 -0.2583039999 -0.1899322122 0.5008651614 0.2329918742 -0.2881847918 0.1199705079 0.1920629293 0.4328882694 0.5444965363 -0.0516203158 -0.0766223669 0.1756684482 0.2611759603 0.3783621192 0.1763449609 -0.2758378088 -0.0814903006 -0.0974683017 0.6328031421 0.1846856475 0.1701495200 -0.1647901684 0.1965152770 0.1945752650 -0.0001688180 0.0754870251 0.4598246217 0.0616732351 0.1783061624 0.2560399175 0.3523874283 0.6385695934 0.2581878006 0.3678454161 0.0724315643 -0.0441145971 -0.0243510045 -0.0995264426 0.5958839655 0.4226196408 -0.1758433729 0.3905774951 -0.1583147794 0.2512745857 -0.0661053061 0.3059815466 -0.1267529726 0.0403697118 0.0531229936 0.1913965791 0.1056152061 0.0537081435 0.4092249870 0.1347925961 -0.0870214701 0.1567295790 0.1249734610 0.1224674731 -0.1617877781 -0.1006939411 0.2194809467 0.3361155987 -0.0422013924 -0.1118847281 0.4208801389 0.0648257807 0.4008904397 0.1375979334 0.4131731987 0.5274846554 0.3886549771 0.0348102748 0.4428019226 0.3201674819 0.4410860538 0.1667262465 0.6507601738 0.0649223849 0.3944801390 -0.2292741239 0.2089397609 -0.0888344347 -0.0990225449 0.0946765542 0.0067269057 0.7615729570 0.2368557155 0.1665201038 0.4696297348 -0.0352291428 -0.2575574219 -0.1256254762 0.0796590373 -0.1059808731 -0.1316539496 -0.1193808764 -0.0113908425 -0.1468300819 0.5671902299 0.0825131163 0.0337840356 -0.2323304266 0.3200590611 0.0165499151 0.5586410165 0.2211275548 -0.1135029569 -0.2342074215 -0.0876893625 -0.0245702248 0.0051525068 0.1653198004 -0.0453858152 0.3292317688 -0.2009011656 0.3793375194 -0.0719523057 -0.0748992190 0.2189438939 0.3207094073 0.5602294803 -0.1998605132 -0.1562245190 -0.0981494188 0.0598422065 -0.0239447691
