015c24097909f22590f525063c1f75b0_M_0020_483.62_502.34 0.0386005118 0.1232176498 0.3253461421 0.1755621284 0.0413459614 0.2890242040 0.6894169450 0.0411749408 0.0564782768 0.2998746037 0.1291296482 -0.0417496040 0.1160382107 0.1525993347 -0.0750564486 -0.1386746615 0.2135466337 0.1812363416 -0.1293139458 -0.1479956359 0.1276505589 0.1743095666 -0.1079692766 0.1413653195 -0.0703236237 0.1353345811 0.0807887465 0.2848324776 0.3011915982 0.3000814021 0.3031859100 0.1287937909 0.4431599677 -0.0447234698 -0.2055633366 0.1283638179 0.2508713007 0.1667611301 0.1124901175 0.1772684306 0.3123774230 0.1651688367 0.0949993208 0.3874365389 0.2832761109 0.5375294685 0.2759740949 0.3862566054 -0.1627260000 -0.2137379646 -0.1093069762 0.1432338655 0.0842115507 0.2703491151 0.1273133755 0.1238444075 0.3377341032 0.1437329352 0.1144989654 -0.0818154588 0.0872096419 -0.0966833755 -0.0283242259 0.3669578731 0.1801355034 0.2672147751 -0.0713491812 0.2491449565 0.4417700768 0.2994929552 -0.1104811057 -0.0995501280 -0.1100711226 0.2365853935 -0.0218747519 -0.1978933364 0.1322354078 -0.1935846657 0.1819592118 -0.0305178091 -0.0244676024 0.2074836046 0.1438422203 0.1629064977 0.1928115636 0.4255222082 0.2827697098 -0.1575409770 0.4111832082 -0.1653442681 -0.1885413677 0.3550739586 0.1423301399 -0.0675838664 -0.1139703542 0.1555534452 0.0616264790 -0.0895337760 -0.1068576947 0.1577903926 -0.0771442950 0.1097196788 -0.0119051607 -0.1501502544 0.2959769666 -0.0643246621 0.2044224441 -0.1097458526 -0.0880430788 -0.0294718239 -0.1631601453 -0.1717482358 -0.0308018494 0.4889880121 0.2265494764 0.1689856499 -0.1538726985 0.0703757107 0.3124030828 -0.0308714900 0.0578309707 0.2176427841 0.1637254506 0.3336328864 0.4837636054 0.2994811833 -0.1523746848 0.0389121696 -0.1008703858 0.3083886504 0.1947569847 0.1774170846 0.0999931991 -0.1589962095 -0.0602245182 0.1600619704 -0.2065066099 0.1209773794 0.2584778666 0.1634747684 0.1894653291 0.0319581926 -0.1157923639 0.1424268484 -0.0328848660 0.1525064409 0.1699730307 -0.0727311447 -0.0137439165 0.0768077821 0.1103366464 0.2612472773 -0.1392620951 0.0692482591 0.2204307467 -0.1669781804 0.1172129810 0.1879844368 0.1328226030 0.0035761883 0.0321580283 0.4063287377 0.1187437028 0.4700199664 0.4486851096 0.0359732471 -0.0775161907 0.3078401685 -0.0701701194 0.0896031037 0.0599074885 0.0418618098 0.1523742825 -0.1354308128 0.1300330758 0.7107550502 0.0545148402 -0.0607795455 -0.1460656822 -0.0097717177 0.1302097440 0.1324206591 0.1340227127 0.4377735555 0.2384000719 0.3265961111 -0.0541203246 0.3726350665 -0.0116570815 0.0039250623 0.0078097889 0.1718689054 0.3792358637 0.0168930627 -0.0997741893 0.0232456047 0.2799201906 -0.1152867675 0.4565070271 -0.0510476604 -0.1410473287 0.3316640258 0.0996739194 0.1489160359 -0.0527081899 0.2210805118 0.2618926764 0.1576029807 -0.1069157347 0.2099762261 -0.0864332393 0.0210052039 0.1955365241 0.1981536150 -0.0636479184 -0.1503413916 0.2758378386 0.1764266193 0.1203955486 -0.0280392095 0.0912891924 0.2184291780 0.1316409409 0.0941224098 0.4917816520 -0.1114809290 0.0657260120 0.3360973001 0.2459029108 0.0875054225 0.1762904972 0.1441814154 -0.1435339600 0.1027922854 0.4904369414 -0.0748039559 -0.0743468404 0.1166669428 0.2842502296 -0.0903565958 -0.1738768518 0.1157125011 0.1336303800 0.2560658157 -0.0327734575 -0.0775300413 0.1525209844 0.1203817278 0.0661213771 0.4402359128 0.1199108884 0.1001799405 0.3515540659 0.2905678749 0.1649222076 0.0975810140 0.1226152703 0.0341026187 -0.0852391496 0.2022907585 -0.1001799926 -0.0541769825 0.3295808434 -0.1156800315 0.3065032661 0.2400019318 0.3195454180 -0.0170363821 0.3724061549 0.1591404378 0.1156608760 0.3969023526 -0.1148251668 -0.0218371227 0.0579878390 0.1156217977 -0.1487420946 0.2495066822 0.0707058385 0.3090786934 -0.0213943943 0.3345365226 0.2890193462 0.0431306064 0.0451258421 0.1632839888 0.1854083687 -0.0310091078 0.2060528994 -0.0212157518 0.1787369847 -0.1441245228 0.5314990282 0.3330035806 0.0273568314 -0.0129219461 0.1900402606 0.1513997465 0.2663738132 0.3529788852 0.0732875690 0.2089643031 0.2334288657 0.1118204519 0.1240144223 0.1709254980 0.0021333438 -0.1757509708 -0.0524872318 0.0798881501 0.0684165061 0.3227056563 0.0928141251 -0.0836728066 0.2263875157 0.2134233415 0.0461868234 0.0268644895 -0.0072040083 0.1895663142 0.0275451951 0.2687275708 -0.0729771480 -0.1260887682 0.4521157742 -0.0850229561 -0.0898349285 0.4186429381 0.1593281776 0.0212968998 0.2434582710 -0.0646793097 -0.1092247367 0.0865030438 0.1065352187 -0.0640330762 -0.0946707726 0.5761156082 0.4196017683 -0.0530575588 0.1488510817 0.0899518132 0.1556860209 -0.0387890674 0.1454918981 0.1293401122 0.1298267841 0.3909751773 0.5648082495 0.2552281320 0.2106597573 0.3350281119 0.2456364781 -0.0987636596 0.2899995446 0.2337392271 0.2360889763 0.1826495826 -0.1135993227 0.1898340136 0.0912585706 0.1244708672 0.1040281579 0.1920346916 -0.1446367949 0.3738555312 -0.2313647121 0.2081922442 -0.1521513164 0.2939227223 0.2109376639 0.1242216006 -0.0893979371 0.3432444632 0.3917097747 0.2078093290 -0.2203513980 0.2215512246 -0.1466271728 0.3677427471 0.1190070063 -0.0228405632 0.5408610106 0.0858476460 -0.0613023899 0.0602818541 0.2454298139 0.2020973116 -0.0440646075 0.2161754370 -0.1658054888 -0.0968701169 0.2857865393 -0.2653730512 -0.1172018945 0.2037722617 -0.0888060629 0.2207790762 0.0870110691 -0.1028488129 0.4185371399 0.1048891842 0.1629835814 0.1471679211 0.3196084499 0.1659479439 0.1662559509 0.1493636370 -0.0944219977 0.1080294102 0.3495635390 0.1682428420 0.3148401082 -0.0250460487 0.1455772966 0.2058570683 -0.0334845111 0.3683458269 0.2125316560 0.0332079865 0.4160575271 -0.1795971543 0.1467239559 -0.1462428719 0.0989379138 0.2071243972 0.2098390162 0.1583814323 -0.1039056107 -0.1184695214 0.4844526350 0.2605357468 0.2376087457 -0.1176660061 0.3234530985 0.2886706591 0.2529024780 -0.1833699942 0.6080442071 0.1020882502 0.2876055241 -0.0583223663 -0.1704929620 -0.1406161338 0.4173131287 0.2409726679 -0.1240251437 0.3209590912 -0.0481771082 0.1154559851 -0.0595323332 0.0926040262 0.2515529692 0.1118577570 -0.0325866789 -0.0919966847 0.1049599946 0.1473464072 0.1186636910 0.4461911619 0.2667259872 -0.1446072459 0.0806959271 0.1170848459 0.3454291821 0.0426041633 0.1444161981 -0.0799974054 0.1575792879 0.1019189060 0.2797000706 0.2692371309 -0.0943400711 -0.2139503956 -0.2245291173 -0.1723831892 0.2390895635 0.2115156054 -0.2615060806 0.2374921888 0.1425556540 0.2938942909 0.3411606550 -0.0600279830 0.0445234813 0.1781133413 0.1615542173 0.2044650763 0.2067054808 -0.2208866030 -0.0403644107 -0.0980578363 0.2027412057 0.2269290686 0.2316117287 -0.1337774992 0.1361902356 0.2378778756 0.1369269043 0.1463865787 0.3047861755 0.2042086571 0.2756589949 0.3121387959 0.3497430086 0.4792769551 0.2763645649 0.2025461942 0.2521435916 -0.0105280206 0.1865039170 -0.0837799758 0.2868949175 0.1831104457 -0.1601764411 0.4288723767 -0.1261282563 0.1864498854 0.0912559927 0.1921582669 -0.1094432548 0.0202096775 0.2751542628 0.0975293145 0.2816067636 0.1357994229 0.2138037235 0.1396414489 -0.0895181075 0.3148612976 0.1006195173 0.1234740242 -0.1280036420 -0.0730309188 0.1762686968 0.1303512007 -0.0071279104 -0.1187236309 0.2963482738 0.1146507561 0.3081796169 0.1424251944 0.6182701588 0.4466747940 0.1955270320 0.2673735023 0.3027333915 0.2652983665 0.4700839520 0.0697444454 0.4497753382 0.0243882816 0.3785860538 0.0016387133 0.3015114665 -0.0577574857 -0.1228687167 0.1370747387 0.2010927498 0.6128068566 0.3086348772 0.1257911772 0.3235103488 0.0708779544 -0.2394018918 -0.1208388880 0.0700941831 -0.0169775039 -0.0998763070 -0.0849692672 0.1162520424 -0.1249169633 0.5017395616 0.1217784882 0.1109422371 -0.1819139421 0.2195934206 0.0117204553 0.4504380524 0.2473397702 -0.0641088337 -0.1908902228 -0.0207637437 -0.0382084996 0.0396146178 0.1919276714 0.0143883117 0.1995819509 -0.1649352163 0.2775899470 -0.0649501830 -0.0787587240 0.2258054018 0.3124889433 0.3349555135 -0.1453643441 -0.1111437827 -0.0749420598 0.0419284515 -0.0423999988
0698871b53808777384e1494ee28b273_F_0002_43.05_46.48 0.0042673182 -0.0385604873 0.4862875044 0.1056391671 0.2122138590 0.2150007784 0.6046186686 -0.1207955778 -0.0684850886 0.6799001694 0.1493391395 -0.0158955380 0.0997025520 0.0141513767 -0.1145332381 -0.2071743011 0.1674135774 -0.2184825689 -0.1686799228 -0.1179054826 0.1660195440 0.2442031652 -0.1468260437 0.0511613041 -0.0569028258 0.1804496646 -0.0013109371 0.1550084054 0.4525022209 -0.1258981824 0.0772807896 0.1134843528 0.1465914696 -0.1319620311 -0.2635328174 0.2673311234 0.3698399365 -0.0126224272 -0.0198637247 0.1120735854 0.4743841588 0.1252628267 0.1324428171 0.2313154042 0.6302720308 0.3178307712 0.6453146935 0.2762691975 -0.2021840960 -0.2071205676 -0.1554950178 -0.0746447444 -0.1004673019 0.3405741751 0.1002648324 0.2782354951 0.6059685349 0.0501507297 -0.0988029838 -0.1558717936 -0.0091362977 -0.1394025534 0.0151377218 0.6254647970 0.0150437579 0.7799152136 -0.0743584707 0.3416774273 0.2200158238 0.5201212764 -0.1069092453 -0.1446290016 -0.0673636049 0.4939896166 -0.0546149388 -0.1978716105 0.1055837497 -0.2373313159 0.2605234385 -0.0388681553 0.0822622031 0.1767736971 0.2876233757 0.4143488705 0.0803992301 0.7583425045 0.0430507287 -0.1094248369 0.7604427338 -0.2041122317 -0.2441456914 0.8222377300 0.1466163993 -0.0386546776 -0.1176584139 0.2464094460 -0.3385446072 -0.1114582494 -0.1925845593 -0.1689572930 -0.0579232536 0.0810813904 0.1234873757 -0.1239857972 0.2965036333 -0.0513889156 -0.1732672602 -0.0749738812 -0.1526659131 -0.0067869821 -0.1919967830 -0.2511230111 0.0218701046 0.2377981097 0.1979487836 -0.0582363121 -0.1641888171 0.1449746042 0.4097231925 0.0092981365 0.0459559299 -0.3468087912 0.3143130541 0.3580463529 0.4505600035 -0.0310318656 -0.0738436729 0.1282197237 -0.1565002501 0.0426181667 0.3523906469 0.1529912204 0.1426070780 -0.1395632923 -0.0609726012 0.0692699105 -0.2641941607 0.1914414614 0.4082364738 0.0062855333 0.3380062580 0.0339139588 -0.1741775721 0.2718786597 -0.0663797855 0.2727575898 -0.2084757090 -0.0736962259 0.1226060987 -0.1332923025 -0.0415561609 0.1975138932 -0.1303160787 0.0108905602 0.2095657736 -0.2380240709 0.1869729161 -0.0872709304 -0.1787359565 -0.0464466400 -0.0308970362 0.5387701392 0.2179390490 0.9930040240 0.6450997591 0.0702765957 -0.0809020251 0.5587685704 -0.0472554751 0.0607564822 0.0052604564 0.0027417289 0.3136100769 -0.1493586004 0.3260224164 0.8944022655 0.3402020037 -0.0811074749 -0.1736335307 -0.1082034707 0.1860058904 0.3913625181 0.1839562356 0.3991164863 0.5864886642 0.6688516140 -0.0654680505 0.4134506583 -0.0438710563 0.0447519049 -0.0599666350 0.2070420831 0.6888656020 0.0049337707 -0.1193414703 0.2103002220 -0.0329254046 -0.1435348690 0.3798322380 0.0212914087 -0.1648567915 0.4549256563 0.1746133119 0.0736093894 -0.0313469619 0.4302846193 0.1374915540 0.2052067369 -0.0703089684 0.1742179692 -0.1000114530 -0.1270575374 -0.0353608876 0.2496791482 -0.0487773940 -0.2013040483 0.0756617785 0.5637922883 0.1416398287 0.0165994782 0.1139064133 0.4689043760 -0.0915341601 0.0365873091 0.4942399859 -0.0947227404 -0.1220884323 0.6866753697 0.3872046173 0.3384750485 -0.0564963557 0.0745059550 -0.1465037018 0.1680373549 0.4456548095 -0.0763348863 -0.0636409074 0.2998303473 0.5226889849 -0.1523873359 -0.2768419087 -0.0177222695 0.1551752537 0.3784406185 0.0312902555 -0.0047400258 0.3868148327 0.2024322748 0.1628799289 0.3976595104 0.0225231331 0.0946464539 0.3510951698 0.7263560295 0.2098063529 -0.0131380763 0.1884732693 0.1436435282 -0.0458129607 0.4331824183 -0.1393901557 -0.0080817547 0.1172884777 -0.1109857187 -0.0558002144 -0.0136234947 0.3682866395 -0.0252919495 0.7280958295 0.1054459363 0.0974545106 0.4752237201 -0.0763947815 0.0495041795 0.2807222009 -0.1094887629 -0.1723681241 -0.1389458030 -0.1206739694 0.8376594782 0.0433534458 0.6167219281 0.6068144441 0.0936308801 -0.0616324618 0.3361210227 0.2454792261 0.0018325865 0.1383617520 0.0140689192 0.2299155444 -0.1817245781 0.6013253331 0.6743770838 0.0159517564 -0.0021626637 0.0991737992 0.1615339667 0.3520636559 0.2305812985 -0.0539982840 -0.2568302453 0.3214468658 0.1695660204 0.2188508362 0.3885624111 0.1181956306 -0.1478257626 -0.0055923499 0.0524991974 0.1042100787 0.6414936781 0.0071117068 -0.0909626111 0.5666088462 -0.1829689592 0.0679855794 0.0563788153 0.0254687592 0.3591548204 0.0107097449 0.4042457938 -0.0952315554 -0.0987079591 0.3990193009 -0.0111338533 -0.1934914738 0.6697366834 0.0909185708 0.2597219348 0.5028493404 -0.0201867912 -0.1442488134 0.0846794546 0.0576475784 -0.0568977445 -0.0651203915 0.8863673210 0.7272410393 -0.0312772729 0.3225782514 0.2115447521 -0.0088007189 -0.0308035277 0.1828979850 0.2474696636 0.2061214447 0.4518488646 0.4082674980 0.5873898268 0.0466505736 0.5983344913 0.4057311416 -0.0871856213 0.6131895185 0.4762263894 0.5765446424 -0.0027913060 -0.1323810518 0.3793415129 0.1958842278 -0.1661200672 0.0602931269 0.0658573881 -0.1817774326 0.4715965092 -0.2067032605 0.1909219623 -0.2608330846 0.7861323953 0.4869960546 0.0012440393 -0.1081416160 0.6012001634 0.3391121924 0.4605824649 -0.2276258022 0.1961959451 -0.2487186641 0.4934442937 0.1565505862 -0.0340788774 0.4225794971 -0.1073531955 -0.0738599896 -0.0421636887 0.3113333881 0.2712582946 -0.0482662804 0.1874415278 -0.2089402080 -0.0565815568 0.0700529963 -0.3245602548 -0.1508382112 0.1641962230 -0.1425581127 0.2241116464 0.2431804389 -0.1279129386 0.3529680967 0.1162769049 0.2277441472 -0.1856680065 0.5368104577 0.2788344324 0.3909092844 0.2884716094 -0.1324934661 -0.0572672002 0.6698349118 0.2299870402 0.2388596535 -0.0199205950 -0.0209153555 0.5089546442 -0.0230828077 0.7383366227 0.0639651865 0.1913013160 0.5911685824 -0.1264200956 0.1439144611 -0.1766048521 -0.2333035320 0.2868652940 0.4133878350 -0.1679970771 -0.1286422014 -0.1213098094 0.8946424127 0.5473765731 0.5284728408 -0.1024796516 0.3794588149 -0.0639679804 0.1198794618 -0.1953308582 0.6211386919 0.0267624035 0.4598596692 -0.0675846413 -0.1124696806 -0.1899117529 0.1408546418 0.0229491796 -0.1051960140 0.0678837299 -0.0671307296 -0.0277714059 -0.0168173946 -0.0218480192 0.0802453980 0.1495916843 -0.0842495635 -0.0708264858 0.2063616216 0.2256062925 0.1832835227 0.1762177199 0.3230465055 -0.1553572714 -0.0519697368 0.0666843355 0.8927990198 0.0752998963 -0.0685600042 -0.0630474538 0.1658077538 0.2386987060 0.4332001507 0.4977387786 -0.0857506394 -0.2297084332 -0.2403078526 -0.2375449836 -0.0312429648 0.2147951126 -0.3033315837 0.4329523444 0.0469313264 0.1843444109 0.0764329880 -0.1060886458 0.1772658825 0.2810809612 0.2545397878 -0.0970475823 0.3832737505 -0.2015222311 0.0228354540 -0.1149827912 -0.2683576643 0.1344105750 0.3256791830 -0.1537344903 -0.1098677441 0.3582778275 0.3124527037 0.0347208977 -0.0623475797 0.4774956107 0.2144391537 0.5593438745 0.6099564433 0.7527908087 0.3680033386 -0.1297446340 0.6284750700 0.0341787487 0.4735424221 -0.0656881332 0.0729376078 -0.3104655445 -0.1481322497 0.6669565439 -0.1526484191 0.3124631345 0.3467966914 0.0390534885 -0.1055841669 0.0730449632 0.8229803443 -0.1070073470 0.5428994894 0.2739512622 0.3201098740 0.0460046791 -0.1329082847 0.4816990495 0.1872234046 0.2689043581 -0.1028728858 0.0047765351 0.2314583957 0.0496460907 0.0181905888 -0.1579574049 0.1792162359 0.2992667854 -0.0158846192 0.1307259649 1.0792416334 0.7687379718 0.0924060121 0.6814835072 -0.0066452194 0.5673582554 0.8085634708 0.1378115714 0.2501717806 -0.0815387890 0.7299154997 0.0766282827 0.4711462557 -0.0582053848 -0.1750600189 0.2594200969 0.4665538073 0.6397606134 0.6360163689 -0.2011056393 0.2230566144 0.2663600445 -0.3104519248 -0.1958747059 0.0577590987 0.0964721218 -0.1187566295 -0.1007816046 0.3196647763 -0.1668127328 0.4289956093 0.2753269076 0.0684790164 -0.2415829003 0.2246727049 0.0492299125 0.7076437473 0.2901777625 -0.0414059013 -0.1832633466 0.0188087523 -0.0839505792 0.0954626203 0.2608715594 0.0071334164 0.0524501577 -0.1370679289 0.4670864642 -0.0688625947 -0.0940674320 0.3524492383 0.3389779329 0.0227057431 -0.1519737393 -0.1122960076 -0.0824276581 0.0670638233 -0.1378238499
06c6f484215738a8b6515dd164ef5e9a_F_0010_1532.09_1555.51 0.0206690673 0.0897772163 0.3547500670 0.0808192343 0.0693351850 0.2545968294 0.6669159532 0.1635909081 0.1346966922 0.3778766096 0.1758684069 -0.0175587423 0.0756103843 0.0863865539 -0.0837003589 -0.1591242254 0.2665667534 0.1290072203 -0.1254580021 -0.1415472180 0.2087950110 0.2806147635 -0.1029956415 0.1671387255 -0.0812749639 0.0735756457 0.1157787889 0.1921308041 0.2651048303 0.1760848761 0.3928271532 0.1136037707 0.2823322713 -0.0620844103 -0.2176038474 0.3158549666 0.3740707338 0.0366191864 0.0217558518 0.1602865905 0.2292613536 0.1076797247 0.1996345371 0.4488815665 0.3957751989 0.4651381373 0.4063904881 0.2611426413 -0.1889741570 -0.2097446024 -0.1304894686 0.0995699912 -0.0325415209 0.2135636359 0.2275981456 0.2195335031 0.5389403701 0.0515433252 0.1219589263 -0.0857088044 0.1483283937 -0.1208252385 -0.0037844526 0.3326297998 0.2323218882 0.3790841401 -0.0827304646 0.3804992735 0.3468324840 0.3559261560 -0.1319078356 -0.1160088778 -0.1336896718 0.3305635750 -0.0328099392 -0.2213758975 0.1305185705 -0.2145194411 0.3147895634 -0.0499840863 0.0088710748 0.1159707755 0.3033156693 0.2022964209 0.0389375724 0.5320026875 0.1774502844 -0.1288880110 0.5352657437 -0.1835557073 -0.1995137781 0.4939728975 0.3164091110 -0.0715340599 -0.1060378253 0.3650901914 -0.1518835276 -0.0798542500 -0.1360074729 0.0434139185 -0.0787929744 0.0474969968 0.0277502984 -0.1557261050 0.1791337729 -0.0381142758 0.2042259425 -0.1022768244 -0.0991921648 -0.0443408079 -0.1604599655 -0.2144693881 -0.0121402908 0.4193303287 0.2361269742 0.2540368140 -0.1380593628 0.1095044166 0.2182494700 -0.0032150918 0.1003956199 0.1504235119 0.2509258687 0.3551028967 0.4638469815 0.3170385957 -0.1237453967 0.0431928784 -0.1306241900 0.2422021925 0.3364756107 0.1817847341 0.1787840277 -0.1666710526 -0.0630076155 0.1436036974 -0.2140659094 0.1964321136 0.2195612639 0.3272965252 0.1714398265 0.0531891994 -0.1332639307 0.2234939635 -0.0524913147 0.2018538713 0.1336805075 -0.0644386262 0.0368922986 0.0753291994 0.1098707914 0.1683084965 -0.1361372918 0.0038371761 0.1314650327 -0.1678789258 0.1898034066 0.1395351738 0.1231838688 0.0789068714 0.0621640943 0.3150562644 0.1725618839 0.6158419251 0.3648816645 0.0354535431 -0.0732705072 0.4140549004 -0.0623079836 0.1781878173 0.1064425856 0.0931272060 0.2087219357 -0.1344199032 0.1542800963 0.6774591208 0.0963614136 -0.0699318722 -0.1776276380 -0.0450752527 0.1018618941 0.1876127571 0.1050504521 0.3196420968 0.2735577822 0.3371552527 -0.0563973412 0.3474822044 0.0093704890 0.0058089490 0.1134668589 0.1707308739 0.4365757704 0.0299042091 -0.1398750991 0.0924951658 0.1248525381 -0.1109527722 0.3126522899 -0.0147722419 -0.1575723141 0.3099904656 0.1241928637 0.0879938826 -0.0460438542 0.2858477533 0.2590308189 0.0995815098 -0.1039543077 0.1619437933 -0.0815773383 -0.0638176352 0.1481664181 0.1871550083 -0.0653781444 -0.1672095656 0.1145775840 0.1928648949 0.0785999894 -0.0157328192 0.1476060301 0.2137330621 0.0447885469 0.2056650817 0.5072962046 -0.1206346080 -0.0604532138 0.5311482549 0.2204063535 0.1491418481 0.1409997046 0.1324193627 -0.1520681828 0.0691034794 0.4435895681 -0.0733543038 -0.0797534212 0.1816351861 0.4330200553 -0.1179926023 -0.1905875057 0.0553290956 0.3089209795 0.3463530242 -0.0012291502 -0.0434769057 0.1833914965 0.2582750916 0.0806089640 0.4408884943 0.1085314229 0.1556091905 0.2258498818 0.3625192046 0.3159330189 0.1012141481 0.1703319401 0.0860779583 -0.0801659077 0.3333102167 -0.1158240736 -0.0530777164 0.3559682965 -0.1279216409 0.1525049061 0.1480245590 0.3948787749 -0.0144205084 0.5825684071 0.1793564409 0.2374644130 0.2961449623 -0.1184473634 0.0092125488 0.1246829405 0.0955418274 -0.1711101383 0.2584291995 -0.0564104654 0.4075862467 0.0104044294 0.4327339232 0.5261085629 0.0437176190 -0.0056663183 0.1764613688 0.1314879507 -0.0213812105 0.2639839947 -0.0277539864 0.2849447131 -0.1463369876 0.4767127633 0.3978682160 0.0059538619 0.0108850170 0.1659868062 0.1084957942 0.3186193705 0.3157410026 0.0485216975 0.1646593958 0.3319934309 0.1277498901 0.1975109428 0.2526198328 0.0444785878 -0.1777672321 -0.0341122821 0.0308931004 0.1330056190 0.4581226110 0.1471970975 -0.0718362853 0.3201053143 0.1385655105 0.0374693461 0.0215830766 -0.0014336472 0.2559107542 0.0588787235 0.2123048604 -0.0939307287 -0.1079672426 0.3892138600 -0.0729370862 -0.1142243668 0.4464159608 0.1102602184 0.0739158094 0.3705058694 -0.0576087870 -0.1054760963 0.1243528724 0.1364939064 -0.0634988025 -0.0775473863 0.6675547957 0.4597972333 -0.0586377159 0.2272493094 0.1511780471 0.0299665015 -0.0386888832 0.1606489271 0.2232961208 0.1867243499 0.3087283969 0.4906525612 0.3821381032 0.0855322704 0.4704462290 0.2128192037 -0.0833449438 0.3318681121 0.2817388773 0.3058065474 0.2970729172 -0.1119411066 0.2259029150 0.1149285883 0.0980704129 0.1186104417 0.3217946589 -0.1642330289 0.3523724377 -0.2255058587 0.1752710640 -0.1885695159 0.3632039130 0.3162249625 0.1486828774 -0.0976144522 0.4747818410 0.5209481716 0.3061764836 -0.2300425023 0.2122099847 -0.1915724725 0.2844533324 0.1350898892 -0.0284066983 0.4820005298 0.0891816467 -0.0805696696 -0.0016643936 0.1715544760 0.2679708004 -0.0374815874 0.1948401034 -0.1771790236 -0.0739897788 0.1849010587 -0.3109481633 -0.1231298968 0.2022639960 -0.1096206605 0.2665459216 0.0965974033 -0.1039391309 0.4589048624 0.1458538771 0.2570081949 0.1167015582 0.4425165951 0.3002997935 0.2692267895 0.2284105122 -0.1311317831 -0.0213894397 0.2984302342 0.1405181736 0.1448574960 -0.0206320286 0.1421117932 0.2469018996 -0.0251255613 0.5009381175 0.2791288495 0.1148764268 0.3602211475 -0.1650411934 0.1220652834 -0.1589799374 -0.0773659199 0.2121444046 0.3880403638 0.0803845525 -0.1166011915 -0.1357406378 0.6212066412 0.2566654682 0.2411100417 -0.1169160232 0.2062105685 0.2204665393 0.2635181546 -0.1853324473 0.6729574203 0.1209115759 0.3903569281 -0.0495562889 -0.1551866233 -0.1433818936 0.3158492148 0.1841375828 -0.1027245820 0.2996414006 -0.0498972610 0.0166053306 -0.0511632338 0.0821791738 0.2207766473 0.1851909757 -0.0712602511 -0.0854036808 0.2108283788 0.1186045408 0.1119433865 0.3594695330 0.2554982007 -0.1791054159 0.0062168865 0.0906802192 0.4300533533 0.0917650536 0.0546623990 -0.0867751613 0.2560669482 0.1312155426 0.3476013839 0.2642652392 -0.0882931948 -0.1864394695 -0.2300890684 -0.1744820327 0.1926139593 0.1614118963 -0.2634748816 0.2167255729 0.0632024035 0.2704358399 0.3441294730 -0.0865943730 0.0759369731 0.1783523411 0.2632986307 0.1156868115 0.2824066281 -0.2346388400 -0.0295771994 -0.0909403190 0.2206372917 0.0662513673 0.3139064908 -0.1444055140 -0.0562106073 0.2023141384 0.1683396697 0.0854460448 0.1603165120 0.2794813216 0.1213576570 0.3136095703 0.4034042656 0.6472380161 0.1976011544 0.1381214559 0.3314257860 0.0052208407 0.2360788584 -0.0899730399 0.3224582672 -0.0036386889 -0.1466432959 0.3782489002 -0.1522991061 0.3088967502 0.1886034459 0.1308207214 -0.1110211983 0.0392680690 0.3893119395 -0.0186511427 0.2640053332 0.2066015005 0.3769930601 0.1434572041 -0.1003618464 0.3386527300 0.1560595185 0.1785880029 -0.1174234822 -0.0615975559 0.2053327113 0.2315527648 -0.0074001229 -0.1255280674 0.2104828209 0.1193097755 0.1413551271 0.1200170442 0.5899637938 0.5731838346 0.2307403386 0.2831683755 0.2346214354 0.4402402043 0.4846153855 0.1642172337 0.3295986652 -0.0358420648 0.4604686499 0.0240245908 0.3655163944 -0.0736166760 -0.1326621622 0.2247722000 0.2425042242 0.5094807148 0.3575244844 -0.0789491981 0.2777034640 0.1092836484 -0.2651392221 -0.1558606476 0.0343834162 0.0429707132 -0.0997900367 -0.1079896316 0.1625937521 -0.1283883154 0.4630162120 0.1928821653 0.0900150910 -0.1894721836 0.2273193598 0.0429710038 0.5373725295 0.2755912542 -0.0589802377 -0.1934386939 -0.0062616789 -0.0652557537 0.0457136817 0.1319980025 0.0103407353 0.2998660505 -0.1574778259 0.3798033595 -0.0713013858 -0.0897716731 0.2423053831 0.2800354660 0.2109349370 -0.1500837952 -0.1334515512 -0.0933568999 0.0570495389 -0.0658040121
0b3a9cf3acd38cb8dd95815f8de69ed1_M_0000_80.41_95.17 0.0355635248 -0.0018248502 0.3146809042 0.1844678670 0.1612078100 0.1732545048 0.4844126403 0.0461485051 0.0533348061 0.2893010378 0.0829859748 -0.0128336223 0.1270326972 0.1840849817 -0.0800126269 -0.1447623372 0.2031389028 0.0057299957 -0.1059923470 -0.1545682251 0.2280853391 0.0950352773 -0.1385204494 0.0722138882 -0.0936319605 0.1135544553 0.1260432601 0.2369813472 0.4011389315 0.3049995899 0.3527792990 0.0716146827 0.1916916072 -0.0898250639 -0.2053550035 0.1945257485 0.4161280096 0.1630994081 0.1259464920 0.1077589095 0.2019634396 0.0739593953 0.0524294786 0.1685515195 0.4256354272 0.2717036605 0.4044044912 0.1837671250 -0.1968806535 -0.2130769342 -0.1322181970 0.1192051694 0.0414170176 0.3015955389 0.2874777615 0.2024417818 0.5398523808 0.1577868760 0.0206717849 -0.0842592493 0.0692653507 -0.0939036608 0.0150119113 0.4369101822 0.2123069614 0.5174943209 -0.0738885477 0.2213559151 0.1734619439 0.2270755321 -0.1435668021 -0.1200174019 -0.1484133303 0.2985593081 -0.0670467690 -0.2033431381 0.2709275782 -0.2193305045 0.4034676850 -0.0284788199 0.0979722887 0.0846841857 0.3064979315 0.2407408655 0.1151264012 0.3492857814 0.1325958222 -0.1365659535 0.3754113913 -0.1881211996 -0.1855201572 0.5674781203 0.0694158301 -0.0831990764 -0.0977130532 0.3532783687 -0.1321230531 -0.0856210887 -0.1376526207 0.0664572567 -0.0853270814 0.0574260056 0.1710116267 -0.1434225589 0.1284043193 -0.0006806379 0.1262203753 -0.0948579758 -0.1107728183 -0.0149340723 -0.1725857109 -0.2168975472 0.0260373261 0.4044420719 0.3968382776 0.1770192981 -0.0218450557 0.1664088219 0.2788765728 0.0532810986 0.0770299882 0.0544121675 0.1649924666 0.1902010143 0.3541194499 0.3358759880 -0.0187260099 0.0332688652 -0.1155090556 0.0890995935 0.2344473302 0.1098604798 0.1487864256 -0.1260124147 -0.0203161184 0.2002348155 -0.2373536825 0.2431417406 0.2128113806 0.2367128283 0.1636487544 0.0317991227 -0.1333985031 0.1566856205 -0.0480800420 0.2200287730 0.0277100410 -0.0333530903 0.1267386228 -0.0155934263 0.1018083766 0.2463197112 -0.1361859888 0.0028306297 0.1146062985 -0.1595442295 0.1175657213 0.1638911068 0.0317727253 -0.0066317460 0.0470650531 0.4338366687 0.2858049870 0.5751689672 0.3686017394 0.0474622175 -0.0580716319 0.2983212173 -0.0293573402 0.2136834562 0.0681083202 0.0232106522 0.1950232685 -0.1524600089 0.2171096653 0.6478856206 0.2720336318 -0.0884203836 -0.1820441633 -0.0291859247 0.1834128797 0.2206311226 0.0790470168 0.3955149949 0.3261788189 0.2927937210 -0.0704075098 0.3730244637 0.0023082737 -0.0135628814 0.0153583577 0.1106446832 0.5035269260 0.0081923166 -0.1325506866 0.1758912653 0.2344054580 -0.0983895659 0.3079327345 0.0295590591 -0.1357139349 0.2192106396 0.0720686689 0.1906540543 -0.0304359160 0.2462934256 0.3102235794 0.2040199190 -0.0885757580 0.1203805655 -0.0887031779 -0.0614469759 0.1124957651 0.1234642565 -0.0431901738 -0.1147678718 0.2791135311 0.1403207779 0.0676152781 0.0066749472 0.0527182817 0.1917504817 0.1222323030 0.1089754105 0.3813816309 -0.1517257690 -0.0211367756 0.3457224071 0.3640331924 0.2492197305 0.1725090891 0.1443443596 -0.1475216001 0.0562674031 0.3713657856 -0.0680167153 -0.0975775644 0.2628324926 0.2594332993 -0.0914525390 -0.2269306630 0.1004464477 0.2480342537 0.2638965249 0.0341842696 0.0006095022 0.2377263159 0.1539355963 0.0947735310 0.4906471074 0.1328670830 0.2041027993 0.3329792023 0.4107509851 0.2053868324 0.1710311174 0.2637975216 0.2268910110 -0.0709851608 0.3012962639 -0.1252999008 -0.0344043188 0.1871265471 -0.1101121679 0.1076602787 0.1221455634 0.1934203655 -0.0086569292 0.5992939472 0.2606898546 0.2153737992 0.2793063223 -0.1076086909 0.0332880951 0.2165220827 0.0202611927 -0.1663577408 0.1812808514 -0.0176623389 0.4954986870 0.0231185965 0.3384455144 0.3916780949 0.0696080998 -0.0376261845 0.1464077830 0.1401375383 -0.0204612166 0.1867187321 0.0091672363 0.2989597619 -0.1552221328 0.4294290543 0.4246144593 0.0133343320 -0.0195179339 0.3393813074 0.0727291703 0.2194024026 0.1729709506 0.0020770784 0.0986813754 0.1946704388 0.1395890862 0.1112762094 0.2879834175 0.1074295565 -0.1379187703 -0.0556671768 0.0678833723 0.1213773638 0.5257436037 0.1323356926 -0.0341552794 0.3741183281 0.0221196879 0.0172351189 0.0175914690 0.0340687446 0.2473981231 -0.0009802310 0.2927710712 -0.0819057897 -0.0855952799 0.3871008158 -0.0791111514 -0.0191867203 0.4040709734 0.0691358894 0.2414105088 0.3994151354 -0.0309721753 -0.1313087642 0.0622403324 0.1657606214 -0.0671905130 -0.0793442354 0.5783525109 0.3693912327 -0.0459658653 0.3742461205 0.3089477718 -0.0127140451 -0.0495705530 0.2869194448 0.1164353043 0.3634545505 0.3220073283 0.2582764626 0.3925529420 0.2575166821 0.3073279262 0.3832305968 -0.0823327601 0.2715316415 0.2462475002 0.3536693752 0.1864382923 -0.1098308861 0.2086314261 0.1088000461 -0.0230437070 0.0254840329 0.3291953802 -0.1531275213 0.3585855067 -0.2209794223 0.1814623475 -0.1779817492 0.4382954538 0.3056422174 0.1515804231 -0.0920871124 0.2981347442 0.1561968327 0.2551648617 -0.2417233586 0.1188703924 -0.1374847740 0.2625756562 0.1077986732 -0.0329455622 0.3821680546 0.0262673441 -0.0647835657 -0.0161447823 0.3703660369 0.3634329140 -0.0498106033 0.1412194073 -0.1927630752 -0.0613239296 0.1183345243 -0.3029078245 -0.1098219156 0.3515164852 -0.1136887819 0.2526472211 0.1295967549 -0.1034862250 0.5037336349 0.2034156024 0.3440594077 0.0076485882 0.4886814356 0.2962571084 0.2779067457 0.4514124691 -0.1002560407 -0.0120708849 0.2603909969 0.1971033961 0.2315060198 -0.0315360986 0.1694179475 0.2380230725 -0.0279516019 0.3313232362 0.3457147181 0.2032150924 0.3258201182 -0.1803570539 0.1542973518 -0.1663601547 -0.0329642259 0.1659500897 0.2107165754 0.0325228944 -0.0753479823 -0.0769550949 0.4369973838 0.2691580355 0.2115512937 -0.1093748063 0.2068684250 0.0776198953 0.3612436354 -0.1922526062 0.4297463894 0.0653411075 0.3252514005 -0.0865859389 -0.1574811339 -0.1251953542 0.2238810807 0.1912221313 -0.0998926014 0.1406644732 -0.0435819030 0.1495417058 -0.0402823910 0.0138531234 0.1665115654 0.1983447224 -0.0930205956 -0.0929726660 0.1285263747 0.1439036578 0.3410804570 0.2620108426 0.1992239654 -0.1873345226 0.0857892036 0.0948711038 0.4990849197 0.0537275299 0.1093488485 -0.0625085235 0.1043879539 0.1876963228 0.2251791507 0.3346576989 -0.0754808113 -0.1783645600 -0.2408073694 -0.1484394968 0.1857792586 0.1056397855 -0.2469639629 0.3568946421 0.2086140662 0.1168802604 0.1171411276 -0.0813848749 0.2723703384 0.1327892691 0.1164951175 0.1786311567 0.5111488104 -0.2153124362 -0.0275812224 -0.0801593587 0.0139090205 0.1242381185 0.5041664243 -0.1445751339 -0.0345045328 0.2656901777 0.1817666292 0.2019494027 0.1194424778 0.2512839139 0.2481586933 0.2615691423 0.2636816800 0.3541322649 0.3000062406 0.1849892586 0.3480483592 0.0145017868 0.2548681498 -0.1060826629 0.2482250035 0.0086575374 -0.1680240184 0.3976929784 -0.1229923815 0.1352317184 0.3835014403 0.1192176044 -0.1033972725 0.0245475769 0.5111157894 0.0476424769 0.2437894046 0.1743356884 0.3422701359 0.2283892184 -0.1006077901 0.3171453476 0.1546579748 0.1616243273 -0.0979187116 -0.0682592839 0.2512272894 0.1607871056 0.0230202470 -0.1564761102 0.1657340825 0.0765660703 0.1668307632 0.0947466791 0.7290489674 0.4072503150 0.0982217863 0.2745971680 0.3805826306 0.3448268175 0.4727833271 0.0951935574 0.2924373150 -0.0197528005 0.4557511508 0.2739359736 0.2858718038 -0.0889226571 -0.1687832475 0.2757077813 0.2356428057 0.5412309170 0.2963383496 -0.0439051986 0.1737070680 0.1873302907 -0.2662341595 -0.1306742132 0.0966673791 0.1546478420 -0.0801324174 -0.0665313378 0.2399112880 -0.1505141407 0.3136231303 0.2937913239 0.2685448527 -0.1599987894 0.3246740699 0.0341300890 0.4797502458 0.1963787526 -0.0516826920 -0.2110648453 0.0249385089 -0.0730992630 0.0321807265 0.1034204140 0.0322005488 0.3500874937 -0.1493358612 0.3496895134 -0.0679003149 -0.0971402451 0.1615961194 0.1893385053 0.1176114380 -0.1196129546 -0.1192028970 -0.0817848742 0.0588033684 -0.0878865346
101ac7eb1b3b0aa9ea826c67c1d2b9c3_F_0003_30.05_67.21 0.0324990340 0.1580146253 0.3439790010 0.1762740165 -0.0253654234 0.3935202360 0.7152875662 0.1799635589 0.1692134738 0.3844809830 0.2219109982 -0.0445975140 0.0683590621 0.0645534173 -0.0916358903 -0.1449933052 0.2279478163 0.2548362315 -0.1495053172 -0.1442087591 0.0963531584 0.3214922547 -0.1094517559 0.2494384497 -0.0857151598 0.1432698816 0.1058430076 0.3518216014 0.2041210532 0.3062329590 0.2701055110 0.1568987817 0.4696213305 -0.0357786529 -0.2218944877 0.1754833311 0.1881468147 0.1025133952 0.0943505168 0.1887266934 0.3085609376 0.1618223190 0.2103684247 0.5214002132 0.3058424592 0.6149840355 0.3599818945 0.4052941501 -0.1873968691 -0.2338787615 -0.1217327937 0.1850789636 0.0054755080 0.1986104995 0.1662755162 0.1774642617 0.3028694391 0.0894736424 0.1945530176 -0.0807843879 0.1146847233 -0.1117546260 -0.0050133793 0.3105519414 0.2793174982 0.1861264259 -0.0858719945 0.4814163744 0.5188356638 0.3892803788 -0.1278536767 -0.0990087017 -0.1319071054 0.4255081415 -0.0076149707 -0.2171673328 0.0805149004 -0.2268260270 0.1834187061 -0.0563102812 -0.0689550713 0.1962761730 0.1870985776 0.1535689682 0.1794630289 0.6185815930 0.2925844193 -0.1413461566 0.5179778934 -0.1862079948 -0.2069041282 0.3609111607 0.2815020978 -0.0801597759 -0.1163994744 0.2206240892 -0.0000882586 -0.1027937382 -0.1304833144 0.1377506256 -0.0794059411 0.1176912934 -0.0999886841 -0.1722414792 0.3268978000 -0.0561332963 0.2848862112 -0.1137373671 -0.1178491488 -0.0440431498 -0.1813296825 -0.1919619292 0.0185654256 0.3880239427 0.1398797780 0.2654437125 -0.1022157297 0.0409423187 0.3467824459 -0.0577419214 0.0661298484 0.3151053488 0.2138254195 0.4279778600 0.4856905639 0.3857233524 -0.0379889607 0.0354801901 -0.1248070225 0.3721702099 0.2226044983 0.2762990296 0.0970890149 -0.1952013522 -0.0145444348 0.1024984866 -0.2273916304 0.1344157159 0.2530189157 0.2911673188 0.1833973080 0.0436595976 -0.1267648339 0.2565049231 -0.0707009360 0.2014288604 0.1959296018 -0.0007469882 0.0318959504 0.1081882566 0.1111965775 0.1802946925 -0.1527066529 0.0365956761 0.1881068200 -0.1938184351 0.2359467298 0.1828678846 0.2324642539 0.0532274358 0.0445195399 0.2854843736 0.0807914361 0.4756739736 0.4177180231 -0.0069141379 -0.0893253163 0.4756075144 -0.0921179801 0.1356201172 0.1016915664 0.0723374784 0.1554462612 -0.1559561789 0.1344709694 0.6529151797 -0.0636021420 -0.0553390346 -0.1628832817 -0.0279218163 0.0870871618 0.2659634352 0.1526908875 0.3284279406 0.2999418080 0.3606983125 -0.0607770607 0.3056787252 0.0144683048 -0.0000534511 0.0804508403 0.2148113251 0.3110719919 0.0172696877 -0.1260863245 -0.0635333583 0.3564409912 -0.1012442112 0.5616673827 -0.0312201791 -0.1785911173 0.4124073982 0.1309373081 0.0387374014 -0.0496761538 0.3713634908 0.1810412407 0.0838774294 -0.0994428843 0.2129727155 -0.0733300894 0.0005086637 0.2410287708 0.2526614070 -0.0688475668 -0.1717419326 0.2229346633 0.2352318615 0.1082320288 -0.0040254127 0.1724247038 0.2888854146 0.1275537163 0.1166433543 0.4931636155 -0.1157233045 0.0145537490 0.4513977468 0.1666624099 0.0000097216 0.1771902889 0.1898134500 -0.1793782860 0.0941470936 0.4542082250 -0.0894020870 -0.0820570961 0.1044052020 0.4256053567 -0.1168887913 -0.1742572337 0.0734179243 0.2426443547 0.2729463279 -0.0452952683 -0.0312228911 0.1615024358 0.2316923887 0.1172576547 0.3203280270 0.0784284920 0.0732526109 0.2443558276 0.2521848679 0.3998576403 0.1347996444 0.0935946479 0.0041307043 -0.0940208063 0.2658576369 -0.1075868905 -0.0623350330 0.3628268242 -0.1437786371 0.3166402876 0.3007022440 0.4098973870 0.0014989364 0.4713250995 0.1367263496 0.2162496597 0.4910310805 -0.1200954244 -0.0285563990 0.2014755458 0.1756414324 -0.1817544252 0.2474158108 -0.0023982311 0.3414835036 0.0094920387 0.5271568894 0.3491640687 0.0489709266 0.0127181830 0.2446005195 0.1765555441 -0.0357382111 0.2134166658 0.0080034928 0.3378272355 -0.1401502788 0.5173387527 0.2947016358 0.0050257747 -0.0032696598 0.1525039375 0.1756751388 0.4139764905 0.4793029428 0.0716659203 0.3301035464 0.2873869538 0.0898366347 0.1807489693 0.3062352836 -0.0443328358 -0.1785369664 -0.0434529707 0.0764896721 0.1625070274 0.4115508795 0.1061864272 -0.0922635943 0.2188748121 0.2261735648 0.0535775833 0.0284235664 -0.0398352221 0.1860630661 0.0647713244 0.2173070759 -0.0963993967 -0.1330062598 0.6054777503 -0.0810073763 -0.0418049768 0.4186796844 0.1629301012 -0.0957781225 0.3121852875 -0.0866774395 -0.1172694191 0.1051682755 0.0762799084 -0.0657526180 -0.0981515199 0.5854384303 0.4718995094 -0.0722528398 0.0958580896 0.0694609731 0.1353791654 -0.0352264494 0.1032696366 0.2235578001 0.1107399017 0.3437949121 0.6723280549 0.2949582040 0.0489270911 0.4335882366 0.1928730607 -0.1143568158 0.3278248906 0.3061975539 0.2353142351 0.2249463201 -0.1141811088 0.1663469970 0.1137174517 0.1568570137 0.1478547901 0.3040687442 -0.1576676816 0.3145731091 -0.2416385859 0.1692366451 -0.1686450243 0.3008861542 0.2376372367 0.1088953689 -0.1166290045 0.4674174786 0.6461580396 0.2533919811 -0.2188184410 0.2929599881 -0.1731941849 0.4674476087 0.1613507122 -0.0211829469 0.5294556022 0.1429076195 -0.0791735947 0.0315070562 0.1941995919 0.1243495941 -0.0573847517 0.2200895250 -0.1868005842 -0.0998824015 0.3210902214 -0.2848308980 -0.1353562176 0.1329858303 -0.0902343094 0.1910440028 0.0709647089 -0.1139566749 0.3091519475 0.0959519148 0.1748564839 0.2215955555 0.2502798736 0.3161351681 0.2059064209 0.1109449416 -0.1204146892 0.0664757118 0.3864765763 0.0956802145 0.3756815493 -0.0226665456 0.1132123545 0.3039016128 -0.0435305089 0.5342332125 0.2337528169 -0.0249240827 0.4125649631 -0.1833613217 0.1057892442 -0.1639093757 0.0765875131 0.2808865011 0.3777338266 0.1555586457 -0.1166751012 -0.1603422165 0.6160953045 0.2583281994 0.2533605993 -0.1335338205 0.2887131870 0.3985433877 0.1589606851 -0.1989985853 0.6783280969 0.1129584536 0.2971569598 -0.0508428849 -0.1666540802 -0.1372335255 0.4256818891 0.3417779207 -0.1159342378 0.3630120456 -0.0528059416 0.0133158602 -0.0710966513 0.1309403926 0.2346301973 0.0606007650 -0.0472361818 -0.1055991501 0.1963167787 0.1250168979 0.0301756691 0.4604067504 0.3422408700 -0.1506449580 0.0201601610 0.0987436920 0.4965218604 0.0550670363 0.0992339328 -0.0988545641 0.3030480444 0.1083175838 0.3516609371 0.2489198446 -0.1296615005 -0.2190988213 -0.2549385726 -0.1955109686 0.1863351017 0.2468121052 -0.2669937015 0.1840979606 0.0289035402 0.4032517374 0.5251181722 -0.0978213623 -0.0319769084 0.1970207989 0.2529279292 0.1186282486 0.0819285139 -0.2511754036 -0.0428487286 -0.0996225998 0.2954342663 0.2038373947 0.1924824268 -0.1219126731 0.0807296932 0.1974203587 0.2011951357 0.1625911295 0.3470678627 0.3355258107 0.2711258531 0.3423626423 0.4333234727 0.6613745689 0.1801771224 0.1717286408 0.3358946145 -0.0219246075 0.3051055074 -0.0951361507 0.2583341002 0.1228099912 -0.1744264513 0.3905394077 -0.1463653892 0.3481607437 0.0598639026 0.1626175493 -0.0939927399 0.0191059932 0.2653842270 0.0257050283 0.3854709864 0.2488238961 0.1873270869 0.1455866992 -0.1025675386 0.4573657811 0.0942092985 0.1309889257 -0.1518591940 -0.0796033144 0.1252027899 0.1413467675 -0.0366284475 -0.1325547546 0.3163895607 0.1475734115 0.3433681428 0.1773726344 0.5764097571 0.5401780009 0.2414327711 0.3344037533 0.2485734671 0.3527719378 0.4708590508 0.0984658673 0.4246881008 -0.0224994831 0.3491912186 -0.0159764998 0.4755838513 -0.0549882986 -0.1194545254 0.1552560925 0.3416508138 0.5402468443 0.3541151285 0.0851201117 0.3605394065 0.0554418191 -0.2647785842 -0.1672481447 0.0306530762 -0.0398682989 -0.0980549604 -0.1124961227 0.1238592118 -0.1050443277 0.6675656438 0.1040235013 0.0823310092 -0.1876283139 0.1318747699 0.0130441971 0.4566773772 0.3816777468 -0.0727232695 -0.2021431923 -0.0278865807 -0.0391005948 0.0698589087 0.1954436749 0.0262196884 0.2557633519 -0.1792121977 0.2792906463 -0.0801864862 -0.0713404045 0.3050410748 0.3853232265 0.3523312211 -0.1556802392 -0.1358787417 -0.0882387683 0.0417681299 -0.0332901366
11020839712acc6576e8b97aa1a8939a_M_0005_97.41_113.29 0.0060560647 0.0741045102 0.2753913701 0.2648771107 -0.0214574412 0.3703893423 0.4336757958 0.2175768912 0.2127679586 0.4439854920 0.2551032305 -0.0218602344 0.0076992195 -0.0483266115 -0.1106029227 -0.1498715281 0.0904711038 0.0936028808 -0.1596168578 -0.1099909618 -0.0011090934 0.3102253377 -0.1440490633 0.2516442239 -0.0789719373 0.1907817125 0.1057133451 0.4282675385 0.1643806696 0.2841732204 -0.0015417058 0.1379775703 0.3102619946 -0.0318615772 -0.2011589259 0.1032720357 0.0510616824 0.0975595117 0.1245943084 0.1055339277 0.3137345612 0.0792583376 0.2240405828 0.3218327165 0.3697218001 0.3871346116 0.5057963133 0.2701404393 -0.2035535127 -0.2079729438 -0.1281111240 0.1931721717 -0.0757868290 0.1452963352 0.2054422200 0.2067879885 0.1553347707 0.0841271281 0.1274318993 -0.0967007950 0.0291070510 -0.0880740732 0.0310193896 0.3411047459 0.3295099139 0.2409433126 -0.0944352970 0.6309764385 0.3753234744 0.4160762429 -0.1389055699 -0.1020149067 -0.1294829100 0.7098095417 -0.0341003910 -0.1837885529 0.1138292030 -0.2243562490 0.2101660222 -0.0479955040 -0.0312835127 0.1139954180 0.2346413136 0.1977102757 0.1503495127 0.7258730531 0.1830764860 -0.0950680077 0.5465096831 -0.2110788077 -0.1880181134 0.4596413970 0.1726364493 -0.1004203409 -0.1103307232 0.2400085628 -0.2006540745 -0.0942048579 -0.1574405134 0.0477874391 -0.0729329884 0.1274196506 -0.1058686227 -0.1309526563 0.3117496073 -0.0064923591 0.2040242255 -0.0735461339 -0.1625609845 -0.0216894094 -0.1918635666 -0.2020901591 0.1262725741 0.0795722455 0.0795778409 0.2066891193 0.1118989289 0.0318438224 0.4517637491 -0.0445990860 0.0158268958 0.2016750723 0.2015406787 0.3398733735 0.2870072722 0.3976210058 0.2621656656 0.0570317805 -0.1561426520 0.2041332424 0.1419709027 0.3175002635 0.0272397622 -0.1664011627 0.1077663079 0.0002407823 -0.2422153503 0.1752647758 0.2467772961 0.2518308163 0.1885229498 0.0124113476 -0.1432464570 0.3462536633 -0.0656189397 0.2826060057 -0.0183517821 0.1341475993 0.2189970315 0.0209654979 0.0729487762 0.0472430363 -0.1505109668 -0.0288117360 0.1137349755 -0.2157914788 0.3327952623 0.1191246659 0.1778163910 -0.0025836974 0.0435836203 0.1962621659 0.1100182086 0.4454938769 0.3492829502 -0.0385165587 -0.0804256722 0.5967786312 -0.0727530643 0.1918287575 0.1121806651 0.0007775025 0.1611423939 -0.1503345370 0.2413091958 0.4462966323 -0.0558058172 -0.0462513007 -0.1585913599 -0.0485887714 0.0924308673 0.5086802244 0.1838503182 0.1653782278 0.4942561984 0.3898074925 -0.0797886848 0.1576707661 0.0253053010 -0.0102506885 0.0415342860 0.2129165977 0.2565508485 0.0028218776 -0.1149693057 -0.0616751797 0.4781586528 -0.0944434777 0.6596773267 0.0505762696 -0.1718036830 0.4689125419 0.1506403387 -0.0361427218 -0.0464793704 0.5619651675 0.0012192391 0.0428723469 -0.0774865225 0.1358893812 -0.0740018263 -0.0911223590 0.1564205587 0.2491336614 -0.0592698194 -0.1474681497 0.2282167226 0.3685519695 0.1047862321 0.0929154828 0.1782951057 0.4296334982 0.1420128793 0.0066238609 0.2639010251 -0.1113240793 -0.0750734806 0.4398289919 0.1512401253 -0.0277206134 0.1375016421 0.2651563287 -0.1828246117 0.1004617065 0.2387333065 -0.0800997168 -0.0789533034 0.1461062729 0.4428713620 -0.1085068434 -0.2027897537 -0.0201750603 0.3025618792 0.1707469821 -0.0183073375 0.0817979127 0.2455067486 0.2906768024 0.2047082037 0.0827534497 -0.0268201288 0.0377583243 0.1339479089 0.2666748464 0.5987392664 0.2097932696 0.1347833574 0.1148813590 -0.0646845326 0.2914677858 -0.1194395348 -0.0205793139 0.1695349067 -0.1613948941 0.1393955052 0.2941043675 0.2942674756 0.0243441835 0.6161272526 0.0875461400 0.2629567087 0.6161293983 -0.0825234428 -0.0008109255 0.5369483232 0.1252871156 -0.1766898334 0.0162782986 -0.1269302517 0.5123031735 0.0791342407 0.7195599079 0.2771059871 0.0961745828 -0.0540088564 0.3416536450 0.1951835454 -0.0237828773 0.0744344592 0.1194040850 0.5653749108 -0.1355162859 0.3752564788 0.2520140111 -0.0013671922 -0.0071497583 0.1933087111 0.2025360614 0.5327576399 0.4679679275 -0.0245127287 0.2751785219 0.1910290122 0.0587991662 0.1782603115 0.5600658655 -0.0652818009 -0.1303333491 -0.0299114529 0.1139228940 0.3052232862 0.5988554955 0.0496541597 -0.0892084762 0.2725200057 0.0269310605 0.0697876215 0.0302147046 -0.0507654101 0.1580497772 0.0383943766 0.2223279476 -0.0876816213 -0.1281558871 0.7911588550 -0.0669798627 0.1413340569 0.3755291402 0.0935855731 -0.1237919480 0.4395564795 -0.0659128577 -0.1290654242 0.0359471515 -0.0022428809 -0.0617392361 -0.0949806944 0.4457871318 0.4565362930 -0.0475680828 0.1321437657 0.2185012996 -0.0127670728 -0.0473651588 0.1322078109 0.2450385541 0.2416864187 0.2652039826 0.5203294158 0.3861277401 -0.0987140685 0.4193707407 0.2713403404 -0.1434851736 0.3517739475 0.3998933434 0.2785900533 0.0697967932 -0.1004999727 0.1592681259 0.1478359699 -0.0064473571 0.1095955074 0.3997273445 -0.1237054691 0.2096706033 -0.2001480311 0.0902066305 -0.1698173285 0.4190776646 0.2805102170 0.0106299268 -0.1173133031 0.4754530191 0.5924907327 0.2616381645 -0.1936155111 0.2591165602 -0.1667682379 0.5924675465 0.1874092519 -0.0353830419 0.2867074311 0.0990364999 -0.1158764809 -0.0092304461 0.2975282669 0.0306584686 -0.0558591373 0.1429820657 -0.1898569465 -0.0815556347 0.2238031328 -0.2545026243 -0.1394339204 0.1298308074 -0.0944203585 0.0646170601 0.0995486975 -0.1243417859 0.0495910570 0.1333307922 0.2752021253 0.1227475107 0.1574205160 0.5388404131 0.2693872154 0.2781839967 -0.1071297228 -0.0146459518 0.4315767288 0.0405242443 0.4940033853 -0.0194965266 -0.0042576166 0.4822359085 -0.0330598243 0.6143425703 0.2287995666 -0.0450983793 0.3373067081 -0.1779573262 0.0126884012 -0.1777103394 -0.0193875860 0.3218490779 0.4449380040 0.0090711489 -0.1025645211 -0.1407015175 0.6226457357 0.2946263850 0.3016534448 -0.1326057613 0.2296086401 0.2833206058 0.0129856803 -0.1960397065 0.4258239567 0.0278129280 0.2014410794 -0.0755091012 -0.1031608135 -0.1267638057 0.2188580781 0.4151307940 -0.0829253495 0.1616553962 -0.0646384358 -0.0871255025 -0.0452471673 0.0782223195 0.0609960556 -0.0036978777 -0.0904381573 -0.0847095549 0.2400420308 0.1384739429 0.1013512090 0.2285056412 0.4054341316 -0.1230511144 -0.0397639945 0.0340607539 0.8488690853 0.0107593164 0.0395287052 -0.0736052915 0.3301626444 0.1764571518 0.3236579597 0.2999215424 -0.1130426973 -0.2069531381 -0.2496494502 -0.1979811937 -0.0211815406 0.2259336710 -0.2494917214 0.2602976561 -0.0430336706 0.3364101946 0.4873204231 -0.1296266317 0.0686483309 0.1949502081 0.2092896998 -0.0447469503 0.0762301385 -0.2381294966 -0.0216420777 -0.0945607647 0.0402444713 0.1971544027 0.3011969328 -0.0989990160 -0.0204400644 0.1883462220 0.3440130651 0.2432097644 0.2419490516 0.5095270872 0.3349920511 0.3493884504 0.4408161044 0.5957528949 0.1256131828 0.0569494665 0.5024065375 0.0002889270 0.5463480353 -0.1095037535 0.0120855058 -0.0938666314 -0.1722915918 0.3705731034 -0.1387493014 0.4034057260 0.2086296380 0.0537517853 -0.0919007510 -0.0174288414 0.4132245183 -0.0847704858 0.5365637541 0.3870757222 0.0465301909 0.1933002025 -0.1240640655 0.6762027144 0.0704415292 0.1381588131 -0.1309456676 -0.0720148832 0.0721732527 0.0193467848 -0.0291460585 -0.1566060781 0.2081727982 0.1724285483 0.2970289588 0.1836414635 0.6797301769 0.5011794567 0.1291446239 0.5222783089 0.1647579223 0.3376773894 0.4332420230 0.0407065786 0.2219844460 -0.0824644342 0.3124429882 0.2441001832 0.6301305294 -0.0453101099 -0.1314821541 0.2366010845 0.5695074201 0.3309548497 0.3826194406 -0.0060165506 0.2435024679 0.1453263313 -0.2600106299 -0.1852202266 0.0046352688 0.0421031527 -0.0900734067 -0.0949733630 0.2619779110 -0.0858441219 0.7141761184 0.1568626463 0.1858562231 -0.1389099061 0.0104639214 0.0087329308 0.3439200819 0.4741397202 -0.0473013297 -0.1927770376 0.0375303999 -0.0604889132 0.0862980634 0.1760458350 0.0852600336 0.2625750899 -0.1743959934 0.2046886086 -0.0895788595 -0.0842535719 0.3216201961 0.4056710899 0.1712844968 -0.1184178740 -0.1067024991 -0.0840971023 0.0201937333 -0.0532653555
118d69076daf1ee701e2eb825eb13ac3_M_0005_99.76_110.71 0.0051863622 0.0698983148 0.3461400867 0.0454995781 0.0924977884 0.2140867710 0.6181828380 0.2432177812 0.1746723503 0.3641219139 0.2026811391 -0.0167938359 0.0535491370 0.0631480515 -0.0864795968 -0.1771009862 0.2872526646 0.1081493646 -0.1124518216 -0.1332437396 0.2472336888 0.3259268701 -0.1134049967 0.1612691432 -0.0870226994 0.0504826121 0.1429775506 0.1619900614 0.2515783906 0.1643400788 0.4639529586 0.1100333482 0.1917011887 -0.0676077753 -0.2142838687 0.4106009305 0.4446557462 0.0008938480 -0.0171290524 0.1384483874 0.1523134112 0.0441246778 0.2380695194 0.4448689222 0.4495882094 0.3936280310 0.4639489651 0.1714520901 -0.2037562132 -0.1996300966 -0.1393911242 0.0889306143 -0.0828792676 0.1812682897 0.2981844246 0.2601496279 0.6449531913 0.0277148560 0.1301584840 -0.0970307216 0.1726534367 -0.1306300461 0.0141333705 0.2973573208 0.2881802917 0.4278990626 -0.0780575573 0.4387133420 0.2682395875 0.3650432825 -0.1515205801 -0.1277298778 -0.1580837965 0.3802293539 -0.0484456196 -0.2292498499 0.1720398664 -0.2223628014 0.4282047749 -0.0596004203 0.0398119427 0.0511926450 0.4055780768 0.2216687799 -0.0426964015 0.5481103659 0.1145556867 -0.1138083339 0.5654737949 -0.2048124820 -0.1992118955 0.5752696395 0.3892772496 -0.0863880292 -0.1018157080 0.5092295408 -0.2538805902 -0.0783321336 -0.1480205953 -0.0052131787 -0.0858239532 0.0018850686 0.0720730498 -0.1560930610 0.1035595834 -0.0170721468 0.2364437133 -0.0934675932 -0.1015791446 -0.0526583120 -0.1550429463 -0.2416027635 0.0018578041 0.3912340403 0.2641514540 0.3304845095 -0.0976243243 0.1299926937 0.1688983589 0.0283909943 0.1345506608 0.1409323812 0.2814654708 0.3385027051 0.4256274700 0.3632856011 -0.0779557452 0.0377555601 -0.1499065310 0.1953168809 0.3951494396 0.1827533543 0.2025616020 -0.1740523428 -0.0524596572 0.1356094480 -0.2114258111 0.2701171041 0.1672331542 0.4352555275 0.1405151039 0.0624956265 -0.1392808110 0.2596274912 -0.0577165186 0.2195505798 0.1240645796 -0.0657805279 0.0678546354 0.0885493904 0.1168512329 0.1120518744 -0.1306820214 -0.0484994315 0.0721240342 -0.1752934456 0.2340691090 0.1303609461 0.1407195181 0.1126229838 0.0908353329 0.2783463895 0.2206845880 0.6663103700 0.2819680870 0.0298260227 -0.0827650875 0.4613872170 -0.0554184467 0.2407638729 0.1541174948 0.1136500537 0.2368519306 -0.1418818533 0.1593373418 0.6157867312 0.1342219263 -0.0711274147 -0.1880298853 -0.0536146536 0.0899335966 0.2075934112 0.0620582253 0.2555911541 0.2790578604 0.2961571515 -0.0579221360 0.3288234472 0.0231036264 -0.0004309497 0.1739500016 0.1501581222 0.4550664425 0.0395730436 -0.1650878340 0.1206736714 0.0856199637 -0.1185127869 0.2129382789 0.0184868071 -0.1651964784 0.2869519591 0.1335399598 0.0793743059 -0.0546486676 0.3046848774 0.2596901953 0.0649282783 -0.0997791961 0.1230352223 -0.0871025026 -0.1083100066 0.1269995272 0.1672667265 -0.0615598150 -0.1710545123 0.0594967157 0.1660229415 0.0404294133 -0.0021842746 0.1578125358 0.1843847930 0.0169008896 0.2614439428 0.4750116467 -0.1380484104 -0.1281051785 0.6091942787 0.2015080899 0.1905189753 0.1459061205 0.1293117702 -0.1548951417 0.0526355058 0.3960567117 -0.0596457981 -0.0821199343 0.2192429602 0.4800966084 -0.1189717576 -0.1977750510 0.0254564118 0.4229928553 0.3745897412 0.0107622650 -0.0179654155 0.1847808361 0.3321265876 0.0655720830 0.4391684234 0.1075792387 0.1949667037 0.1534037739 0.3723562360 0.3948683143 0.1204557717 0.2045023888 0.1195037067 -0.0693146512 0.4050988257 -0.1344866157 -0.0467800833 0.3682019711 -0.1201022789 0.0632867664 0.1072977334 0.4153743684 -0.0147627806 0.6878353953 0.2074729204 0.3313676119 0.2264659852 -0.1279681027 0.0417625345 0.1754338294 0.0907496139 -0.1957158595 0.2877701819 -0.1258070916 0.4321978688 0.0219950192 0.4631590843 0.6268088222 0.0528994985 -0.0282753874 0.1761129946 0.0960735083 -0.0160134081 0.2769773901 -0.0200312696 0.3726991415 -0.1521197706 0.4209055901 0.4166189432 -0.0109996237 0.0213784147 0.1757654548 0.0674927533 0.3500190973 0.2831658423 0.0407428518 0.1720947325 0.3701305687 0.1185537279 0.2203254998 0.2928204834 0.0607740022 -0.1535372585 -0.0242086332 0.0168999434 0.1761359274 0.5351389050 0.1940704882 -0.0601152740 0.3569887280 0.1009940803 0.0343229473 0.0201019421 0.0025453093 0.2917962074 0.0706529021 0.1885802001 -0.1014700681 -0.0939004198 0.3579055071 -0.0763443410 -0.0975684449 0.4307415187 0.0583026782 0.1000955552 0.4317622185 -0.0617955960 -0.1056569517 0.1388951242 0.1713797301 -0.0676036701 -0.0727695823 0.6737776995 0.4452476501 -0.0594239309 0.2853470743 0.2213781327 -0.0464718267 -0.0449117050 0.1856223643 0.2610719800 0.2550428808 0.2525723279 0.4279494882 0.4355625808 0.0374229699 0.5123207569 0.1925996393 -0.0754690692 0.3149919808 0.2853971720 0.3445349634 0.3673222065 -0.1142894924 0.2567119896 0.1138874292 0.0783929452 0.1112574711 0.4255557358 -0.1742222607 0.3255285323 -0.2293486148 0.1689552367 -0.2048569620 0.3789344430 0.3613261580 0.1776788831 -0.0971666574 0.5093451142 0.5612231493 0.3435074687 -0.2361382693 0.1947798282 -0.1898831874 0.2199333757 0.1407655627 -0.0334143713 0.4335675538 0.0945767015 -0.0801864564 -0.0264479108 0.1537411511 0.3099840879 -0.0317746848 0.1857811809 -0.1895955652 -0.0621180497 0.1308384389 -0.3305825889 -0.1250308752 0.2314165533 -0.1357661635 0.2853208482 0.1023933664 -0.1016763896 0.4967968464 0.1969327778 0.3351579309 0.1232459173 0.5194890499 0.3914538920 0.3022052944 0.3050855398 -0.1490154713 -0.0863307938 0.2334263325 0.1104299426 0.0746250302 -0.0216234587 0.1625589728 0.2420496494 -0.0145925432 0.5261433125 0.3560406268 0.1610691100 0.2847053707 -0.1637722403 0.1012722254 -0.1712293476 -0.1661368161 0.1981211901 0.4595161080 0.0522201844 -0.1197449118 -0.1329468936 0.6378553510 0.2403825969 0.2158101052 -0.1129535139 0.1115428954 0.1848222315 0.2873663306 -0.1799307615 0.6600147486 0.1109199673 0.4318545163 -0.0554858483 -0.1491513401 -0.1375528276 0.2610358298 0.1828550100 -0.0879778489 0.2815510631 -0.0525620058 -0.0155933313 -0.0568085387 0.0637069270 0.2043657303 0.2319672853 -0.1031260192 -0.0756468028 0.2622060478 0.1023932248 0.1460524201 0.3135595620 0.2336165309 -0.1864195764 -0.0117503414 0.0772572681 0.4594691396 0.0978062153 0.0293459687 -0.0759664997 0.2915545404 0.1429936141 0.3644411266 0.2515337169 -0.0811341926 -0.1587726176 -0.2236170024 -0.1729805917 0.1927681267 0.1158687845 -0.2653778195 0.2097495049 0.0398092531 0.2399353087 0.3397016227 -0.1019853577 0.1115407050 0.1786504835 0.3035422862 0.0872958153 0.3458735645 -0.2277714014 -0.0203367472 -0.0918858871 0.2319107652 -0.0218273401 0.4055385292 -0.1372105032 -0.1521393508 0.1853300333 0.1805392802 0.0831875205 0.0960080922 0.2938588858 0.0451070294 0.2991082668 0.3996108174 0.6854018569 0.1538106352 0.1302580535 0.3581002951 0.0119196502 0.2604903579 -0.0999907553 0.3489620388 -0.0804643333 -0.1495270580 0.3111473024 -0.1583267301 0.3531448543 0.2594281733 0.1051505432 -0.1131545156 0.0319235548 0.4236051440 -0.0799789727 0.2263636589 0.2305865288 0.4803667068 0.1757099777 -0.1020699441 0.3517261446 0.2016216367 0.1941370815 -0.1021365672 -0.0742761195 0.2393177301 0.2944267094 -0.0041643321 -0.1384336799 0.1451980919 0.0928628892 0.0806623250 0.0992538035 0.5510444641 0.5915743113 0.2242148519 0.2659466863 0.2433779538 0.5102375746 0.4581171572 0.2221767306 0.2596972883 -0.0663278177 0.4837651849 0.0834159777 0.3799618185 -0.0776830986 -0.1491634697 0.2803738117 0.2525084615 0.4266791344 0.3538120687 -0.1867454350 0.2357530892 0.1263658851 -0.2867766023 -0.1656452715 0.0203890987 0.0959169194 -0.0920201167 -0.1196906641 0.1911439896 -0.1350433081 0.4308563471 0.2513777018 0.1035185456 -0.1686084270 0.2405053526 0.0653044283 0.5572450757 0.2783894241 -0.0576071367 -0.1951906681 0.0210100338 -0.0820601657 0.0296468344 0.0762858316 0.0247928165 0.3872571290 -0.1546350569 0.4309528768 -0.0667670518 -0.0963283181 0.2229279876 0.2605550885 0.1463168412 -0.1472875923 -0.1337544769 -0.0907442048 0.0588043258 -0.0860149488
190f3384e69d54c8dbf93b519e5729cd_M_0000_72.81_91.14 0.0537471101 0.1693363786 0.3634941578 0.1714146584 0.0194944367 0.3420970738 0.7979545593 -0.0008620779 0.0242597144 0.3151032031 0.1176868901 -0.0475433171 0.1251446903 0.1752464175 -0.0677281767 -0.1423637420 0.2317031622 0.2374354452 -0.1295028031 -0.1593782604 0.1178876534 0.1739933789 -0.0897246599 0.1488763541 -0.0685208961 0.1520854086 0.0570791066 0.2908490300 0.3051628768 0.2952207327 0.3278500736 0.1493009478 0.5452786088 -0.0452302285 -0.2153838426 0.1012884080 0.2413107455 0.1745818555 0.1184748560 0.2165143192 0.3688699007 0.2181072682 0.0785449743 0.4726143181 0.2474875748 0.6495350599 0.2283996940 0.4828798175 -0.1511079222 -0.2220518142 -0.1069142446 0.1419953406 0.1195738465 0.2992564440 0.0723429471 0.0961260498 0.3135411441 0.1463134885 0.1320733875 -0.0852542073 0.0890833065 -0.1034872681 -0.0599710643 0.3757453263 0.1423936784 0.2270498127 -0.0747805908 0.2051779181 0.5416008234 0.3143766522 -0.0906872749 -0.1017493829 -0.1094882935 0.1654165983 -0.0062467759 -0.1967548877 0.0921388194 -0.1924002916 0.1125463992 -0.0278023109 -0.0584284477 0.2738528848 0.0824970901 0.1530668437 0.2394680977 0.4262150526 0.3478147388 -0.1704864204 0.4052614570 -0.1624308527 -0.1930170804 0.2954493761 0.1449955553 -0.0536491498 -0.1172295734 0.0736664608 0.1726921648 -0.0950282738 -0.1101790220 0.1929203570 -0.0788784921 0.1393031329 -0.0473828539 -0.1633832604 0.3489191830 -0.0967374742 0.2092678249 -0.1252593696 -0.0843599960 -0.0388955660 -0.1650728881 -0.1534393281 -0.0616371781 0.5642765760 0.2073978782 0.1384092122 -0.2329663932 0.0599944852 0.3230312169 -0.0548411459 0.0527831130 0.2492448837 0.1568632126 0.3860206604 0.5533795357 0.2569088638 -0.2433878779 0.0342878513 -0.0871412382 0.3904094100 0.1953636855 0.1804964393 0.1023060977 -0.1637692451 -0.0911144093 0.1828978360 -0.2022883445 0.0756012574 0.3007416725 0.1127821952 0.2093846202 0.0315191261 -0.1208941415 0.1122145802 -0.0408585221 0.1202948689 0.2332209051 -0.1021212041 -0.0802712291 0.0973071456 0.1034257188 0.3221587539 -0.1475149393 0.1122131869 0.2768729925 -0.1599205136 0.0860283077 0.2031818330 0.1451501250 0.0030522039 0.0134812854 0.4385759532 0.0743088648 0.4704594314 0.5163601637 0.0342826918 -0.0765698627 0.2797228098 -0.0834635645 0.0389378369 0.0408474095 0.0625329763 0.1538738906 -0.1406614631 0.0985392928 0.8038743734 0.0173297171 -0.0632748082 -0.1446232647 -0.0044451910 0.1300885081 0.0795115829 0.1581692249 0.5122038722 0.1963800192 0.3528729975 -0.0504362397 0.4160103798 -0.0215106048 0.0135971224 -0.0089058951 0.1921663731 0.3783321977 0.0231621880 -0.0954618677 -0.0182208214 0.2714296281 -0.1104845107 0.5026783347 -0.0844668522 -0.1465352476 0.3618229628 0.0915175900 0.1594150513 -0.0485415719 0.1893200427 0.2964687645 0.1766327024 -0.1064094976 0.2486014962 -0.0772244185 0.0677010939 0.2292889059 0.2197593004 -0.0698623732 -0.1560177803 0.2918407619 0.1752795875 0.1375416517 -0.0566944256 0.0937566012 0.2119847834 0.1329064965 0.0938990712 0.5610151887 -0.0983818471 0.1132375449 0.3204938471 0.2500878870 0.0633451566 0.1727441102 0.1226232499 -0.1481673717 0.1143480167 0.5638020039 -0.0960535184 -0.0800647438 0.0920412689 0.2702453732 -0.0966992527 -0.1546307653 0.1504183561 0.0575670451 0.2783719897 -0.0510240495 -0.1160482615 0.1374420673 0.0756761730 0.0530301183 0.4804860055 0.1314533204 0.0760032907 0.4050584435 0.2743725777 0.1021995768 0.0556826890 0.0803461671 -0.0350860171 -0.0967503190 0.1686420292 -0.0914159119 -0.0664348528 0.3863931894 -0.1143417060 0.3949755430 0.2610034347 0.3593281806 -0.0304814316 0.2898448110 0.1402167976 0.0606792420 0.4234383404 -0.1233273298 -0.0386100374 -0.0431740992 0.1396505386 -0.1483276635 0.2915272117 0.1325572282 0.2663029730 -0.0461686589 0.2997980714 0.2713878155 0.0278753862 0.0746045709 0.1606040299 0.2074674964 -0.0419724248 0.2202456445 -0.0529385358 0.0789644495 -0.1479410529 0.6052812338 0.3380527198 0.0431927145 -0.0092766341 0.1599541903 0.1628019810 0.2368148863 0.4001261890 0.1032840684 0.2261587232 0.2590946555 0.1112338603 0.1218915731 0.0972437635 -0.0165175349 -0.1993249208 -0.0573880896 0.0771299005 0.0155233182 0.2422604561 0.0809871331 -0.0928724334 0.1898413301 0.2897912264 0.0483312048 0.0340025388 -0.0203613341 0.1848869920 0.0246667676 0.2852590978 -0.0740233213 -0.1340333968 0.4363322556 -0.0848660022 -0.1535895765 0.4484885931 0.2025970072 0.0018408932 0.1858694553 -0.0715961680 -0.1092927679 0.0967163146 0.1012983844 -0.0644202903 -0.0979061574 0.6253905296 0.4524036944 -0.0568914302 0.0931437314 0.0027103983 0.2451612651 -0.0351958051 0.1120549068 0.1227520704 0.0433637202 0.4454466999 0.6674846411 0.2238455415 0.2484339923 0.3331871629 0.2300628722 -0.0875658318 0.3045530915 0.2140123844 0.2099798918 0.1838779151 -0.1210888401 0.1863144487 0.0820956975 0.1802120060 0.1132451668 0.0993735567 -0.1576080024 0.4152194858 -0.2452068478 0.2337382138 -0.1444448084 0.2586291432 0.1865739971 0.1296235174 -0.0910641402 0.3433350921 0.4262410402 0.2063417435 -0.2317627966 0.2547651231 -0.1439527273 0.3896964490 0.1221394166 -0.0286504868 0.6290872097 0.0924866498 -0.0548706166 0.0709544718 0.2151085138 0.1969804764 -0.0508578196 0.2462900281 -0.1623143554 -0.1149287596 0.3472537696 -0.2561327219 -0.1190863252 0.1662235260 -0.0752763376 0.2337875366 0.0873895735 -0.1083490103 0.4329843521 0.0655249059 0.0836827010 0.1798503399 0.2881043553 0.0768735856 0.1332259029 0.0335477814 -0.0921073705 0.1648560464 0.4063088894 0.1879742444 0.3369684517 -0.0267806947 0.1508762687 0.1789014488 -0.0490315333 0.3689694703 0.1523339748 0.0027278375 0.4864776134 -0.1742743999 0.1762292236 -0.1445796490 0.1680984944 0.2164573371 0.1850942671 0.2043880522 -0.1090920642 -0.1291398853 0.4987295866 0.2760336697 0.2534157932 -0.1308035403 0.3922140598 0.3538176119 0.2479950637 -0.1887463629 0.7040224671 0.1302296072 0.2976273000 -0.0469065607 -0.1860214025 -0.1455178112 0.5062483549 0.2247432917 -0.1332512945 0.3845912814 -0.0450105965 0.1490898132 -0.0655175969 0.1104048043 0.3076964021 0.0933315381 -0.0071722427 -0.1069596037 0.0798875690 0.1495739222 0.0656904206 0.5424385667 0.2738616765 -0.1499267519 0.0969741642 0.1362086982 0.2594122887 0.0547486022 0.1675494462 -0.0963449627 0.1472086161 0.0802365690 0.2849742472 0.2631276250 -0.0989681035 -0.2282684147 -0.2350731939 -0.1798747182 0.2849825919 0.2507925034 -0.2605778873 0.2297641039 0.1657930613 0.3433929980 0.3712608814 -0.0487174727 -0.0077347700 0.1880469471 0.1615313888 0.2453102320 0.1471637189 -0.2300282866 -0.0480937548 -0.0923964679 0.2657565475 0.2783913910 0.1483965963 -0.1349721402 0.2153681815 0.2531634271 0.1036943495 0.1188308895 0.3664895296 0.1700213850 0.3009165525 0.3404672742 0.3822652102 0.5119653344 0.3042663932 0.2074513137 0.2084513456 -0.0237937160 0.1385243535 -0.0776793212 0.3260359168 0.2753056586 -0.1656865925 0.4801498652 -0.1278300434 0.1680026054 0.0010740701 0.2226627469 -0.1048817560 0.0315297842 0.2222998440 0.1494886726 0.2787397206 0.0989621729 0.1999807209 0.0979980081 -0.0868856758 0.2696519196 0.0865855739 0.1171654537 -0.1412988454 -0.0628830492 0.1671527177 0.1305043995 -0.0175115298 -0.1219626442 0.3699047565 0.1345486492 0.3587449491 0.1576641202 0.6186090112 0.4727321863 0.2297801077 0.2479547560 0.2914012969 0.2497592121 0.5074125528 0.0570424572 0.5348829031 0.0497269928 0.3895556629 -0.1096366867 0.2716557086 -0.0615611821 -0.1068881974 0.0881398246 0.1585709304 0.7094088197 0.3179523051 0.1956883669 0.3922217488 0.0454904959 -0.2349554449 -0.1171764806 0.0776347816 -0.0747311488 -0.1163034290 -0.0914513767 0.0694515258 -0.1196309328 0.5310972929 0.0712118745 0.0575119518 -0.2064938992 0.2310352027 -0.0095185069 0.4807731509 0.2309102863 -0.0764390826 -0.2074155658 -0.0662200451 -0.0243183486 0.0557906181 0.2335755825 -0.0130361896 0.1364543438 -0.1643707454 0.2810978889 -0.0626703948 -0.0667790696 0.2457725704 0.3360858262 0.4245953560 -0.1639083773 -0.1237786114 -0.0694480687 0.0436306857 -0.0390927866
19837ac0d3653aceeb17ce977d966256_M_0003_19.83_25.86 0.0244246591 0.2436081767 0.3180035055 0.2774746120 -0.1476200521 0.5660534501 0.7836626172 0.2102403641 0.2237429023 0.4407387674 0.2986091673 -0.0615107119 0.0450130217 0.0032642232 -0.1134276763 -0.1324242651 0.1542275548 0.3698327541 -0.1974572837 -0.1444531530 -0.0506294221 0.3691177964 -0.1118126735 0.3687317371 -0.0791158453 0.2363644987 0.0803865716 0.5499036312 0.1131510735 0.4175879359 0.0734166503 0.2097113878 0.6957835555 0.0127349366 -0.2354712784 0.0159387924 -0.0746331960 0.1634505391 0.1659688056 0.2367026359 0.4465210736 0.2354809940 0.2516838312 0.6317552924 0.1933617294 0.8022298813 0.3307287395 0.5761966705 -0.1939204633 -0.2596048117 -0.1084501073 0.2661616802 0.0260863546 0.1712387800 0.0876400620 0.1302589625 -0.0123342555 0.1105873212 0.2769168019 -0.0816093460 0.0712147877 -0.1003277078 -0.0268533416 0.3053584993 0.3333691657 -0.0455961674 -0.1101137921 0.6468911171 0.7572010756 0.4780905247 -0.1278721839 -0.0891274884 -0.1320881248 0.5935527682 0.0402721837 -0.2170112282 -0.0088365432 -0.2421219796 -0.0121154655 -0.0644766092 -0.1835614890 0.3025586605 0.0419826061 0.0990518034 0.3144165874 0.7821695805 0.4300735295 -0.1622352600 0.5538626909 -0.2074502558 -0.2180876732 0.1979482621 0.2569388449 -0.0778077766 -0.1373543441 0.0202612113 0.1277190447 -0.1182713360 -0.1058485731 0.2333515286 -0.0857290402 0.2206278741 -0.2945173681 -0.1843262613 0.5207250118 -0.0792456344 0.3597938418 -0.1227873117 -0.1572028697 -0.0414485447 -0.2111259997 -0.1545149833 0.0485747159 0.3265763521 -0.0052447077 0.2543457150 -0.0680146366 -0.0606855266 0.5066033602 -0.1300465614 0.0152024915 0.4876702428 0.1818583608 0.5274681449 0.5201629400 0.4719292521 0.0595297404 0.0406172872 -0.1269243211 0.5367097259 0.1051791161 0.4050824046 -0.0092023341 -0.2204306424 0.0434208065 0.0184096992 -0.2540923953 0.0586191714 0.3209866881 0.2196351737 0.2254086882 0.0233981684 -0.1279402375 0.3092034459 -0.0762104243 0.2192817926 0.2304667383 0.0897291005 0.0296120234 0.1407694668 0.1043885276 0.1634709537 -0.1746814996 0.0811200216 0.2749210894 -0.2302881181 0.3103279769 0.2278071642 0.3407481313 0.0124862203 0.0213598497 0.2309128195 -0.0420008190 0.3202407658 0.4937509596 -0.0569605380 -0.1075675189 0.6057543159 -0.1344901174 0.0828723162 0.0968752205 0.0386001505 0.1124058068 -0.1569884717 0.1345703006 0.6275529861 -0.2843953073 -0.0387730338 -0.1410392821 0.0013666042 0.0533888713 0.3768483698 0.2470165640 0.3237604201 0.3675652146 0.4302932620 -0.0702275410 0.2341097593 0.0033444967 -0.0056466465 0.0341757983 0.2805805206 0.1531070322 0.0184118785 -0.1006411985 -0.2594756186 0.6104741693 -0.1004425064 0.9009971023 -0.0597822033 -0.2042437494 0.5804387927 0.1513665915 -0.0447670966 -0.0488854684 0.5176152587 0.0467304289 0.0578910187 -0.1043857783 0.2845470011 -0.0683921576 0.0524256453 0.3402110338 0.3361274302 -0.0877317935 -0.2050683200 0.3266429901 0.3277564645 0.1594485492 0.0243261326 0.2055522501 0.4283119142 0.1929295063 0.0215340927 0.4917138815 -0.0987523422 0.0890477970 0.3926068842 0.0893549174 -0.2044215500 0.2036745250 0.2815558314 -0.2165571302 0.1303898245 0.4713801146 -0.1070295721 -0.0814096779 -0.0033697020 0.4517922699 -0.1286122501 -0.1550843418 0.0875233188 0.1683313400 0.1958587766 -0.0969394520 -0.0237518549 0.1471567303 0.2264167219 0.1729720831 0.1354736537 0.0128037250 -0.0576635674 0.2477597743 0.1323770881 0.5318625569 0.1686599702 -0.0128621366 -0.0972800180 -0.1107982099 0.1777295023 -0.0987178981 -0.0830378309 0.3875176609 -0.1832363009 0.5046932101 0.5039798021 0.4433316886 0.0085663358 0.3600241244 0.0574344248 0.1757172495 0.7623566985 -0.1115451753 -0.0886366367 0.3137513697 0.2833199501 -0.1793494374 0.2000291646 0.0408391356 0.2802900672 0.0232949331 0.6762105823 0.1646063924 0.0508939624 0.0531381965 0.3458179533 0.2531223595 -0.0651688799 0.1543973982 0.0747426078 0.4256216884 -0.1378412098 0.5777850151 0.1638823450 0.0259182714 -0.0046843574 0.0957706943 0.3031288981 0.5836046934 0.7149903774 0.0848686174 0.5014212132 0.2398741543 0.0462382175 0.1806796342 0.4002887309 -0.1772064865 -0.1938995272 -0.0370354354 0.1406530440 0.2187907398 0.3661520183 0.0363024026 -0.1576401442 0.1098245233 0.3278565407 0.0968613550 0.0351451486 -0.1213151738 0.0968760401 0.0490757711 0.2273841202 -0.1204326898 -0.1918418258 0.9095337391 -0.1055007875 0.0562075414 0.4111861289 0.2415926903 -0.3351912498 0.2735049725 -0.1208139062 -0.1156986058 0.0788404793 -0.0198110975 -0.0574558154 -0.1229661033 0.4975670874 0.5117915869 -0.0760165825 -0.0922738612 -0.0471085310 0.2539288998 -0.0382252075 0.0225767791 0.2399077117 -0.0037752651 0.3864282072 0.9226863980 0.2083142102 -0.0444472805 0.4243711531 0.1537925601 -0.1778600514 0.3753134012 0.3814840615 0.1375829726 0.1195736229 -0.1109319180 0.0937499776 0.1180928648 0.2094749808 0.2018760294 0.2712228298 -0.1403242648 0.2785331309 -0.2561408877 0.1450223178 -0.1490323991 0.2449678928 0.1718702763 0.0210711472 -0.1385315955 0.5159677863 0.8537917733 0.2107422650 -0.2194056511 0.3909249604 -0.1821638793 0.7408026457 0.2088979781 -0.0286232457 0.5780724287 0.1980204582 -0.1139340922 0.0880029723 0.1946718097 -0.0934410319 -0.0778658092 0.2452258915 -0.2000518441 -0.1427872479 0.4876213670 -0.2614815533 -0.1580594033 0.0359790921 -0.0725376904 0.0780028105 0.0416946039 -0.1146177500 0.0781685784 0.0336680412 0.0863231197 0.3341713846 0.0026451275 0.3421634436 0.1454789788 -0.0401858389 -0.1178236753 0.1583071649 0.5181276202 0.0382370614 0.6560472846 -0.0326817110 0.0421000347 0.4027518630 -0.0740890577 0.6171459556 0.1342342645 -0.2253345400 0.4999559820 -0.2037775964 0.0765204579 -0.1726701111 0.2333322316 0.3878799081 0.4239568114 0.2236204892 -0.1125939712 -0.1930612624 0.6635680795 0.2754851282 0.2869885862 -0.1577143073 0.4107966721 0.6103368402 -0.0087179095 -0.2297466695 0.7107390761 0.1138702780 0.2055882365 -0.0539289154 -0.1619245559 -0.1609389633 0.5358725786 0.5182930827 -0.1311141849 0.4441093802 -0.0721490532 -0.0407746732 -0.0758103356 0.1866138726 0.2384551615 -0.0796102136 -0.0220386274 -0.1250979155 0.1914810389 0.1344356686 -0.0913021415 0.5628722906 0.4810782671 -0.1379375309 -0.0095673734 0.0999861062 0.6232194901 0.0044419835 0.1249563321 -0.1163859293 0.3848690689 0.0760566592 0.3660251796 0.2351507246 -0.1724045128 -0.2884986103 -0.2840299308 -0.2276240289 0.1376580298 0.3764133453 -0.2910954058 0.1451461911 -0.0455009118 0.5783410668 0.7681301236 -0.1084890962 -0.1731363833 0.2202111632 0.2536539435 0.0850765109 -0.2102209628 -0.2910799980 -0.0666034892 -0.1130974591 0.3678695261 0.3628694415 0.0174254701 -0.1026413068 0.2256297916 0.1935003698 0.2764805555 0.2305686325 0.5500327945 0.4405082166 0.4471684396 0.3879207671 0.5084171891 0.7221852541 0.1436668038 0.1622215658 0.3659694195 -0.0352664068 0.4130054116 -0.1053956375 0.1446235925 0.2369540036 -0.2020850033 0.4435193241 -0.1492163688 0.4265564382 -0.1222193986 0.1868528426 -0.0831976086 -0.0087561021 0.1378275454 0.0681041256 0.5732400417 0.3406953812 -0.0664225668 0.1215835139 -0.0976180136 0.6406534910 0.0078127952 0.0816559494 -0.1995630711 -0.1009916365 0.0274315514 0.0186087303 -0.0673212335 -0.1427583992 0.4303395152 0.2064579576 0.5457868576 0.2480497807 0.5864261985 0.5427189469 0.2817328572 0.4629350305 0.2297313064 0.2462402880 0.4654234350 0.0197803713 0.5211744905 0.0063127596 0.2315271646 -0.0682605952 0.6525305510 -0.0383615009 -0.0867115036 0.0735926107 0.5029872060 0.5613201261 0.3729974329 0.2846733928 0.4729859531 0.0048464360 -0.2530953884 -0.1891283244 0.0056777094 -0.1375717521 -0.1232807040 -0.1233935505 0.0878602415 -0.0652693734 0.9568337798 -0.0169412829 0.0707871169 -0.2134893239 -0.0055872742 -0.0188941285 0.3555158973 0.5325452685 -0.0856852680 -0.1977827400 -0.0436668843 -0.0124518974 0.1158525273 0.2842714489 0.0516085029 0.1699525416 -0.2110075206 0.1533641666 -0.0896212980 -0.0587513447 0.3907786608 0.5404064655 0.5324892402 -0.1736162603 -0.1333263218 -0.0920826495 0.0153882382 0.0068288264
1ceb19dbbd2835fdf8d6187adf33566d_M_0001_63.40_75.16 0.0336726531 0.2041666210 0.3642546535 0.0236992072 -0.0095610386 0.3079405725 0.8699197173 0.1485267431 0.1085009426 0.3078916073 0.1666129380 -0.0392790586 0.0875577778 0.1119020507 -0.0656930134 -0.1508810222 0.3168963790 0.3066365123 -0.1213522106 -0.1398670673 0.1786636710 0.3122522831 -0.0723229945 0.1875704527 -0.0626234338 0.0633820370 0.0912382603 0.1714110970 0.2027872801 0.1963028312 0.5000139475 0.1464694589 0.4721997380 -0.0364640020 -0.2137198597 0.3110067248 0.3241377175 0.0443519540 0.0053057219 0.2081993073 0.2579813004 0.1742509454 0.1932797134 0.6586833000 0.2499932945 0.6845552921 0.2329993844 0.4157517254 -0.1469467878 -0.1900887936 -0.1065899506 0.1080874279 0.0351684764 0.2020588368 0.1176967472 0.1371009648 0.4591273069 0.0316211469 0.2025852352 -0.0883861855 0.1981501728 -0.1262127757 -0.0519476309 0.2401273400 0.1920401156 0.1789113134 -0.0763259232 0.3069135547 0.5422025919 0.3563366532 -0.1099588946 -0.1070243493 -0.1176791787 0.1429818720 0.0073012128 -0.2165018171 0.0385256782 -0.1850939840 0.1843456626 -0.0667508692 -0.0755913109 0.2085310221 0.1834203899 0.1322323233 0.0819011927 0.4910449684 0.3019949198 -0.1470199525 0.4935776591 -0.1532485336 -0.1996022910 0.3040957749 0.3976140618 -0.0554825105 -0.1033063158 0.2345395535 0.0670698136 -0.0768947005 -0.1036051512 0.1335751116 -0.0725425854 0.0674823374 -0.0743128583 -0.1682561040 0.2526473105 -0.0985769778 0.2933656573 -0.1234028414 -0.0627099499 -0.0710178763 -0.1474337876 -0.1713289171 -0.1030704081 0.5832768083 0.1596805155 0.2766183317 -0.3032088578 0.0519743115 0.1589774787 -0.0529165529 0.1058320999 0.3034836650 0.2375700772 0.4582543373 0.5895495415 0.2858290970 -0.3316626847 0.0133704664 -0.1095985100 0.4353540838 0.3476534784 0.1960753202 0.1746164858 -0.1845561117 -0.1440705657 0.1586344093 -0.1761983633 0.1103782281 0.2227226943 0.2985168397 0.1534739286 0.0678387582 -0.0982483253 0.1662912071 -0.0404434726 0.1096375957 0.3110325634 -0.1537809968 -0.1445770264 0.1717417091 0.1265292466 0.2287714481 -0.1417412460 0.0594467819 0.2159352452 -0.1456067711 0.1366601437 0.1947287470 0.2028909773 0.1219055206 0.0619590841 0.3128324151 0.0582152307 0.5200102925 0.3901134431 0.0233198740 -0.0726433918 0.3355261385 -0.0914303213 0.0831465870 0.1023479998 0.1481762975 0.1701082140 -0.1203884482 0.0355014764 0.7505963445 -0.0394619405 -0.0448625945 -0.1477567554 -0.0064950814 0.0453209169 -0.0034274701 0.1081113890 0.3967211843 0.0908454657 0.3044994175 -0.0421078466 0.3917063475 -0.0085541904 0.0175043494 0.1506702304 0.1957018971 0.3422097564 0.0560646802 -0.1133735105 -0.0156988259 0.0892794430 -0.1157967225 0.3149708211 -0.0959336683 -0.1478488594 0.3277602196 0.1273638159 0.1079890206 -0.0552891195 0.1558336318 0.3064572513 0.0842594951 -0.1065991372 0.2283941507 -0.0729452744 0.0181109365 0.2241014987 0.2156440616 -0.0895354226 -0.1842013448 0.1083053052 0.1276355982 0.1078202277 -0.0841818154 0.1486057937 0.1284156591 0.0440372005 0.2443693280 0.6324305534 -0.0909434259 0.0331159160 0.4860971868 0.1400785744 0.0639637560 0.1579266936 0.0871582106 -0.1394474655 0.0800621510 0.5764283538 -0.0884029195 -0.0568553433 0.0645270571 0.3939127028 -0.1115591079 -0.1426838636 0.1136779115 0.2085141689 0.3678123057 -0.0512842536 -0.1355344951 0.0773601159 0.1988689303 0.0076013794 0.5014366508 0.1347253323 0.1069188714 0.2512558699 0.2551759779 0.1980248541 0.0236514285 0.0668098927 -0.0820823684 -0.1030804217 0.2352160215 -0.0944008231 -0.0878036469 0.5289838910 -0.1052827537 0.3335682154 0.2141396105 0.5008504391 -0.0342307575 0.3596954346 0.1386467665 0.1604811102 0.2814833522 -0.1289383024 -0.0304868352 -0.1360552162 0.1744398177 -0.1564087719 0.4259542823 0.0552609600 0.1661729217 -0.0486317016 0.3020179570 0.4775284827 0.0125197619 0.0701693073 0.1249026954 0.1332336962 -0.0352798551 0.3167129159 -0.0895053893 0.1029654071 -0.1273691356 0.5641799569 0.3210499585 0.0231393427 0.0271630492 0.0547631644 0.1123018041 0.2668336630 0.4005108476 0.1285815537 0.2691871822 0.3886496127 0.0958879068 0.1908278465 0.0413102098 -0.0058115930 -0.2123086601 -0.0436204821 0.0183805991 0.0271429308 0.2281619310 0.1547744870 -0.0919083729 0.1900557280 0.3515358567 0.0452917814 0.0240454823 -0.0307092853 0.2225399315 0.0751910806 0.1878523082 -0.0841349885 -0.1256134659 0.3096848726 -0.0907463878 -0.2346023768 0.4359099567 0.1781727821 -0.0447379015 0.2018489540 -0.0921358541 -0.0777976438 0.1588445753 0.1403080672 -0.0684521645 -0.0870027617 0.6821237803 0.4494401515 -0.0585477725 0.0704517290 -0.0452621803 0.1872628331 -0.0241770204 0.0679325312 0.2057871073 -0.0005270336 0.3557699621 0.7115564942 0.2398890704 0.1249652877 0.4549702704 0.0766987577 -0.0740141422 0.2781712115 0.2055249959 0.1920816004 0.3692550361 -0.1252336651 0.1956483722 0.0791538805 0.2571721971 0.1673306972 0.1912278235 -0.1677651405 0.3838874996 -0.2347594649 0.2231659442 -0.1527425945 0.1768322587 0.2216005176 0.1833298802 -0.0825502723 0.4504092038 0.6614058018 0.2766193449 -0.2328276783 0.2728570700 -0.1696204692 0.2375969887 0.1211474314 -0.0263009612 0.6620341539 0.1352873147 -0.0611914806 0.0564885177 0.0259910822 0.2182116359 -0.0275924094 0.2551007867 -0.1509604156 -0.1093720719 0.3235743642 -0.2809367776 -0.1180682331 0.1243398562 -0.0949406400 0.2974911630 0.0614039376 -0.0910968184 0.5122758150 0.0729399100 0.1141994596 0.2521135509 0.3707751930 0.1218519360 0.1520785987 -0.0217158236 -0.1274370998 0.0807011351 0.2752410769 0.1345579177 0.1313271821 -0.0042711864 0.1865599453 0.1075367182 -0.0370053351 0.4487978220 0.1989743561 0.0257998537 0.4116415977 -0.1620606631 0.1622629762 -0.1329518557 0.0491375923 0.1927310228 0.3414538503 0.2218956202 -0.1241744757 -0.1570763439 0.5861604214 0.2122211158 0.2217358947 -0.1115078479 0.2660788000 0.3796000183 0.2571270466 -0.1597145796 0.8513445258 0.1780409664 0.3885718286 -0.0129157752 -0.1854456216 -0.1561626494 0.5037036538 0.1778351963 -0.1218415499 0.4789620638 -0.0477065444 0.0625756234 -0.0659111217 0.1441513747 0.3496287465 0.1739021987 -0.0192422718 -0.0787570998 0.1585576385 0.0984380096 -0.0453676134 0.5628875494 0.2485337555 -0.1504220217 0.0448627658 0.1336715221 0.1190394163 0.0950908586 0.1006825566 -0.1026143134 0.2642764449 0.0377139598 0.3641973734 0.1740864217 -0.0957907587 -0.1900729388 -0.2078714222 -0.1904755086 0.3366406858 0.2240791023 -0.2643043697 0.0945533291 0.0707399398 0.3947733343 0.4722287059 -0.0518015735 -0.0934338272 0.1910912395 0.2985222340 0.2060847580 0.0950495675 -0.2314137220 -0.0454770513 -0.0905600265 0.4561818838 0.1197562143 0.1071478054 -0.1397813708 0.1035940573 0.1770639122 0.0517702773 0.0049334429 0.3007507324 0.1451684833 0.0966653973 0.2983171940 0.4178909063 0.7089728713 0.1921631545 0.1966402680 0.1669220179 -0.0240245014 0.0647220537 -0.0705470592 0.4515483677 0.2067409307 -0.1389195174 0.3754768670 -0.1535330564 0.2982711196 -0.0609144941 0.2182053328 -0.1130557731 0.0432422645 0.1375028193 0.0736272782 0.1754611284 0.1014372483 0.3566347659 0.0629234314 -0.0783739239 0.2119506598 0.1326098293 0.1411012113 -0.1357590258 -0.0711827651 0.1803591847 0.2733882964 -0.0416826904 -0.0900924802 0.3195245862 0.1098479778 0.2370930463 0.1244669557 0.4167426527 0.5717982650 0.3241755366 0.1562402397 0.2335607111 0.3747026324 0.4401998818 0.1698970944 0.4875880480 0.0200355034 0.4150234461 -0.2417629063 0.2639716268 -0.0690525174 -0.0854798183 0.0971722975 0.0899379328 0.6131093502 0.3064565957 0.0401065797 0.3939260244 -0.0087133078 -0.2218224406 -0.1234815866 0.0359016806 -0.0953630432 -0.1116574109 -0.1118273884 0.0181726180 -0.1203817502 0.5268242955 0.0592046902 -0.0492443442 -0.2029309720 0.2151225954 0.0232108049 0.5289516449 0.2309007943 -0.0868915915 -0.1756217331 -0.0664293095 -0.0360136367 0.0280726347 0.1647201926 -0.0392489769 0.2134258747 -0.1713580489 0.3708668053 -0.0474367365 -0.0763211623 0.2340829372 0.3337277770 0.4097069204 -0.1709555835 -0.1335560530 -0.0930432975 0.0396504775 -0.0307690278
1ceb19dbbd2835fdf8d6187adf33566d_M_0004_34.37_46.96 0.0192767512 0.1326751709 0.3405910134 0.1374567896 0.0185012668 0.3240888417 0.7009133101 0.1193528622 0.1080068424 0.3736494780 0.1817332059 -0.0385878012 0.0795898736 0.0756624714 -0.0808818266 -0.1605282426 0.2272653133 0.1792848259 -0.1417255551 -0.1300576478 0.1209624708 0.2699363232 -0.1080563366 0.1800699234 -0.0677234307 0.1267573386 0.0852907449 0.2783928514 0.2441214472 0.2295442522 0.2876431048 0.1434363574 0.4103955925 -0.0493733324 -0.2101460546 0.2090731710 0.2359645665 0.0825590715 0.0624150820 0.1781359166 0.3065980971 0.1538175046 0.1696285307 0.4748751819 0.3245729506 0.5517269373 0.3402242959 0.3647082448 -0.1787987798 -0.2065164447 -0.1154621094 0.1284608245 0.0065820869 0.2264091522 0.1406257451 0.1607713103 0.3695493937 0.0832218975 0.1410993040 -0.0932636112 0.1093532220 -0.1080376506 -0.0194523539 0.3302087784 0.2152343243 0.2586655915 -0.0829409137 0.3818473220 0.4535495043 0.3702450991 -0.1240680367 -0.1003885716 -0.1197365671 0.3380570710 -0.0240510833 -0.1984610856 0.0850463286 -0.2020155638 0.2024206668 -0.0463610850 -0.0359498747 0.1869427413 0.1967497170 0.1813658774 0.1333829612 0.5612534285 0.2613386810 -0.1402906477 0.5186437964 -0.1750307083 -0.1997014284 0.4019041955 0.2554140091 -0.0623801053 -0.1058847830 0.2168000042 -0.0304780398 -0.0946331620 -0.1267852932 0.0991796106 -0.0803419799 0.0950359404 -0.0552411005 -0.1537779570 0.2861239016 -0.0602579676 0.2150034904 -0.1008422524 -0.1049541384 -0.0376802459 -0.1560900360 -0.1924469024 -0.0204659943 0.4020852149 0.1671222448 0.2055836618 -0.1531388760 0.0663309246 0.3007025421 -0.0414467081 0.0705045611 0.2025627643 0.2167972922 0.3890227377 0.4848872125 0.2976849675 -0.1165415198 0.0408204496 -0.1208802611 0.3229659200 0.2561142147 0.2252952009 0.1142563447 -0.1814132482 -0.0498901084 0.1102960408 -0.2083901167 0.1304718852 0.2578874826 0.2246202826 0.1959856600 0.0436917618 -0.1273225397 0.2213748693 -0.0532984436 0.1792479604 0.1548368484 -0.0561122820 0.0022760890 0.0855103433 0.0968550965 0.1917800009 -0.1365971863 0.0387850665 0.1849013120 -0.1836393774 0.1830199212 0.1488918215 0.1534325778 0.0404546000 0.0441507660 0.3359242380 0.0995818302 0.5308409333 0.4205792248 0.0135924192 -0.0864910409 0.4204580188 -0.0788822919 0.1017037854 0.0826867372 0.0683589429 0.1749871075 -0.1387098432 0.1353894770 0.6888319254 0.0142370388 -0.0500324480 -0.1585606486 -0.0270993281 0.0937233642 0.1929776669 0.1447475106 0.3536752462 0.2719881833 0.3649858236 -0.0532199964 0.3264970779 -0.0024809837 0.0049366946 0.0593774542 0.2029633671 0.3658424616 0.0292486753 -0.1135639027 -0.0010716559 0.2444333434 -0.1236829534 0.4468033910 -0.0380751118 -0.1586817652 0.3834428787 0.1286457181 0.0717254877 -0.0474206321 0.2971092165 0.2066746652 0.1061831862 -0.0994870737 0.1986271143 -0.0809238181 -0.0110076424 0.1789224893 0.2249158472 -0.0634746253 -0.1692269742 0.1842016578 0.2360884398 0.1096676663 -0.0126054091 0.1388880312 0.2598829567 0.0793689787 0.1369133294 0.5031969547 -0.1059389710 0.0013767276 0.4568650424 0.1922281981 0.0722998008 0.1492294520 0.1453765035 -0.1580419242 0.1071103960 0.4655603468 -0.0731072500 -0.0669604689 0.1192317531 0.3956146240 -0.1101464182 -0.1759960949 0.0635294616 0.2031147182 0.2955240309 -0.0338714346 -0.0597089268 0.1673516035 0.1987018287 0.0816790909 0.3668121994 0.0897829235 0.0918852985 0.2655997872 0.3061699867 0.2794618309 0.0887342840 0.1065157726 0.0174048208 -0.0859400481 0.2623122633 -0.1051030681 -0.0566894300 0.3526041806 -0.1276375204 0.2553984821 0.2301564366 0.3918696344 -0.0097424714 0.4516756237 0.1245547533 0.1690162271 0.4126687348 -0.1149217486 -0.0141364532 0.1214226782 0.1275472492 -0.1687567681 0.2355310470 0.0053878678 0.3479234278 -0.0023591714 0.4417489469 0.3868974447 0.0494911447 0.0250231344 0.2179466188 0.1758974195 -0.0333334543 0.2171851695 -0.0073859999 0.2501758337 -0.1412724555 0.5174501538 0.3410999179 0.0159524139 -0.0046822228 0.1349733919 0.1569089741 0.3520080149 0.4032094479 0.0591971725 0.2235472947 0.2954620421 0.1054323167 0.1673068851 0.2379523367 -0.0108577227 -0.1717818379 -0.0361075997 0.0660771355 0.1184980422 0.3786677420 0.1032775417 -0.0890026763 0.2547296882 0.1947381347 0.0562976487 0.0329046324 -0.0246113800 0.2132494897 0.0549286045 0.2389809340 -0.0863666758 -0.1262764782 0.4857465327 -0.0800003707 -0.0901569203 0.4459429681 0.1440986842 -0.0305798538 0.2982849777 -0.0774689615 -0.1118694693 0.1015613303 0.0886135995 -0.0640701279 -0.0930734724 0.6184145212 0.4745647609 -0.0495498925 0.1217765510 0.0744128451 0.1263173819 -0.0298551507 0.1144163460 0.2013089210 0.1091791689 0.3590986133 0.6090008020 0.2988379002 0.0868401155 0.4367320240 0.2003950626 -0.1015274525 0.3252620101 0.2808178067 0.2625456154 0.2096503675 -0.1071070284 0.2005224675 0.1032580584 0.1217333898 0.1286701262 0.2397700548 -0.1561422050 0.3455697596 -0.2225425243 0.1896514744 -0.1736313701 0.3237112761 0.2513594925 0.1085876524 -0.1112101674 0.4465009272 0.5539374948 0.2656607330 -0.2197891027 0.2539118528 -0.1757694334 0.3937068582 0.1355484575 -0.0245352685 0.5162478685 0.0993896201 -0.0662288666 0.0389632769 0.1871130168 0.1682506651 -0.0398396365 0.2115441263 -0.1671599597 -0.0920092314 0.2759245038 -0.2787339091 -0.1266924143 0.1437326521 -0.0957316160 0.2115292400 0.0817999393 -0.1068096012 0.3656507730 0.1054036766 0.1730212420 0.1603551209 0.3176176846 0.2506171465 0.2017295063 0.1166579500 -0.1158930063 0.0627668425 0.3765792847 0.1277820766 0.2880590558 -0.0175246224 0.1086596623 0.2630662918 -0.0257824846 0.4974046350 0.2039358467 0.0158140957 0.4154086113 -0.1656107306 0.1242484152 -0.1598794311 0.0266072769 0.2454699278 0.3360959291 0.1227356941 -0.1093541533 -0.1360162646 0.5994551778 0.2784185410 0.2686816752 -0.1184905767 0.2857613862 0.3020859957 0.1860412657 -0.1809060872 0.6762988567 0.1089474037 0.3238722384 -0.0491863973 -0.1498240232 -0.1352991015 0.3948543966 0.2434216142 -0.1177940741 0.3332494795 -0.0580385439 0.0337856412 -0.0570972785 0.0954568610 0.2316566706 0.1087258384 -0.0479651429 -0.0967580155 0.1680787802 0.1375110000 0.0542811044 0.4234168530 0.2916415036 -0.1460456103 0.0197159573 0.0968477204 0.4360123575 0.0529329777 0.0854829103 -0.0814914480 0.2522865832 0.1085283086 0.3394791782 0.2617924213 -0.0980211794 -0.2093445063 -0.2182570398 -0.1929925382 0.1879556775 0.2201369405 -0.2668901980 0.2020371705 0.0533615947 0.3446561694 0.4209237099 -0.0723336563 -0.0022622291 0.1931852251 0.2416799814 0.1298336983 0.1361838281 -0.2307521850 -0.0346883573 -0.0950982720 0.2280876040 0.1736760437 0.2039951682 -0.1251102984 0.0663400441 0.2195404470 0.1681447774 0.1049837172 0.2685637772 0.2773113847 0.2121819854 0.3439504206 0.4237381816 0.6275407672 0.2169809043 0.1411874592 0.3101785183 -0.0110362293 0.2475202531 -0.0813757032 0.2740604579 0.0932710841 -0.1484961063 0.4094349444 -0.1423647404 0.2964137793 0.0818939358 0.1647024751 -0.1080990583 0.0182877406 0.3046469390 0.0239475034 0.3358173668 0.2001783997 0.2335233390 0.1162956804 -0.0905213207 0.3758281767 0.1136123240 0.1493573040 -0.1289897859 -0.0694044754 0.1626023948 0.1571809053 -0.0201682486 -0.1144574359 0.2770196199 0.1401867270 0.2623001933 0.1518357843 0.5965928435 0.5386722088 0.2209929973 0.3240326345 0.2176370919 0.3627412319 0.4874179959 0.1170282438 0.4011089802 -0.0184324235 0.4038657248 -0.0325631127 0.3932982683 -0.0594971776 -0.1213167608 0.1589126289 0.2722202539 0.5514150262 0.3646580875 0.0439170003 0.3332720697 0.0755606666 -0.2571026981 -0.1507797688 0.0366854221 -0.0169041809 -0.0985741913 -0.1035564542 0.1312663108 -0.1073139831 0.5687927604 0.1167687029 0.0564861000 -0.1819769889 0.1573219448 0.0133915944 0.4818961024 0.3014151752 -0.0620621890 -0.1896709353 -0.0228041187 -0.0445034467 0.0610903949 0.1919454336 0.0142710544 0.2083541006 -0.1656802744 0.3096224070 -0.0640200451 -0.0841836631 0.2717702985 0.3531815112 0.3036593199 -0.1439750195 -0.1209824085 -0.0800363943 0.0386665501 -0.0548551269
1ed429727a34da75ae0ddcd840122c14_M_0003_86.47_98.31 -0.0050219726 0.0885740146 0.3327266574 0.1333680749 0.0000644356 0.3436620831 0.5607846975 0.1746206433 0.1593822241 0.4976862073 0.2523676753 -0.0265991762 0.0083374158 -0.0639225096 -0.1025977656 -0.1604370326 0.1623103619 0.0857397914 -0.1614561379 -0.0965774283 0.0736928731 0.3702500165 -0.1047184020 0.2233943343 -0.0613382794 0.1327298880 0.0722322017 0.2722695470 0.1693388224 0.0908179879 0.1063293368 0.1344391853 0.2930172682 -0.0387696885 -0.2096673250 0.2175013572 0.1370984912 -0.0100769885 0.0091298018 0.1319774091 0.3154709339 0.1009094715 0.2492231876 0.4320561290 0.3940684795 0.4520509243 0.4829068482 0.2876887321 -0.1826711595 -0.1902852058 -0.1099921316 0.0882315412 -0.1151664555 0.1474064589 0.1374766380 0.2202590257 0.3002997935 0.0134107135 0.1218470261 -0.1043782905 0.0706245229 -0.1011028811 0.0203670505 0.3195917606 0.2372953743 0.2969348133 -0.0813052803 0.5764788985 0.3861066699 0.4596878886 -0.1297794282 -0.1024206653 -0.1094250083 0.5752909780 -0.0191899873 -0.1924211681 0.0321577936 -0.2061175406 0.1754591167 -0.0508412458 -0.0395735689 0.1365177333 0.2355737388 0.2186454535 0.0809620172 0.7573192120 0.1613163501 -0.1002539545 0.6399622560 -0.1815848649 -0.1914758682 0.4820939004 0.3087089956 -0.0693758279 -0.1015037820 0.2505569458 -0.2197656184 -0.0886446163 -0.1447260082 -0.0232566036 -0.0680425018 0.0838971063 -0.0962192938 -0.1336560845 0.2913074791 -0.0398274660 0.1430878043 -0.0787285641 -0.1332404166 -0.0330059528 -0.1753701121 -0.1984937638 0.0554685742 0.1557343453 0.0499825254 0.1760684550 -0.0566323623 0.0382309556 0.3481096327 -0.0425479151 0.0576984845 0.1055620536 0.2591032386 0.4061168134 0.3794865012 0.2563932836 0.0599361546 0.0740066171 -0.1455501169 0.2391554117 0.2548440695 0.2803367078 0.0822904706 -0.1728147715 0.0132809663 0.0106709199 -0.2245237678 0.1479171962 0.2600223422 0.2302990705 0.2064601481 0.0415344238 -0.1345829815 0.3302001059 -0.0755075812 0.2496015728 0.0063255751 0.0312538072 0.1031087339 0.0365990400 0.0455165915 0.0520231239 -0.1275909990 -0.0230047740 0.1360462755 -0.2073311955 0.3023605049 0.0466548353 0.1225927398 0.0374714322 0.0354751982 0.2159719467 0.0925533846 0.5883895755 0.3783935010 -0.0187900774 -0.0795221403 0.5874729156 -0.0789400935 0.1305928230 0.0982671827 0.0532966629 0.2028151453 -0.1371085048 0.1943824887 0.5483183861 -0.0261149444 -0.0427679829 -0.1508924216 -0.0577804148 0.0580846518 0.3910873830 0.1657764167 0.1763624400 0.4258234799 0.4400990903 -0.0487049557 0.2176026106 0.0208600704 0.0082808575 0.0849914104 0.2303825319 0.3243528605 0.0163809787 -0.1067480668 -0.0168859586 0.2326176763 -0.0972347558 0.4969299138 0.0139972195 -0.1620682478 0.4587734938 0.1694235802 -0.0573803708 -0.0393975563 0.4710092843 0.0359820649 0.0459617972 -0.0789056048 0.1513033956 -0.0657404885 -0.0860400051 0.1256285459 0.2502908111 -0.0597882085 -0.1761780977 0.0791176632 0.3880898058 0.1052300707 0.0335176364 0.1862191558 0.3894653320 0.0163535047 0.0900941938 0.3865846097 -0.1032254919 -0.0916820690 0.5680245757 0.1262587011 0.0363653302 0.0668237656 0.1753654331 -0.1596764475 0.1080880463 0.3242338300 -0.0713296458 -0.0538465008 0.1292997748 0.5237639546 -0.1285111606 -0.1718403250 -0.0366904773 0.2654852867 0.2721467018 -0.0265263673 0.0085401433 0.2184506953 0.2961408794 0.1495712399 0.1695851535 -0.0104213543 0.0501994565 0.1216729581 0.3475541174 0.4845504165 0.1037795618 0.0902986005 0.0372715294 -0.0634215325 0.3330960274 -0.1144783497 -0.0276986714 0.2485053241 -0.1420004964 0.1116576046 0.1963704824 0.4075283110 0.0134354113 0.5839558244 0.0618024468 0.2189251184 0.4997129142 -0.0848179385 -0.0006619158 0.3303905725 0.1029485390 -0.1755412370 0.0597887374 -0.1262698323 0.4965173304 0.0483181849 0.6450042129 0.4322770238 0.0675388426 -0.0252996553 0.3036085367 0.1752014458 -0.0139263459 0.1589553952 0.0547127202 0.4125671983 -0.1255522668 0.4297229946 0.3268668652 -0.0050629745 0.0064750588 0.0630632788 0.1673770547 0.4837587774 0.4326495826 0.0013530646 0.1515138745 0.2946427166 0.0728140995 0.2210645378 0.4326933324 -0.0343145169 -0.1483567506 -0.0131548513 0.0567364097 0.2105908096 0.5175653696 0.0525837578 -0.0978453159 0.2921823859 0.0338754654 0.0675735697 0.0323238857 -0.0390670411 0.2175907642 0.0650520548 0.2114613652 -0.0970272794 -0.1184016839 0.5908503532 -0.0508171916 -0.0223140903 0.4410311282 0.0945244208 -0.0890101343 0.4099023640 -0.0714624599 -0.0990925506 0.0844149143 0.0196685214 -0.0511937365 -0.0722801387 0.5984060168 0.5351663232 -0.0417954959 0.1095621064 0.1097541228 0.0261840355 -0.0297157392 0.0765761137 0.2832968831 0.1222580075 0.2912027538 0.5628811717 0.3899030685 -0.1109333113 0.5173755884 0.1909605414 -0.1105269045 0.4079899490 0.3976042569 0.3229576349 0.1333889663 -0.0952139124 0.1985512972 0.1505370885 0.0318202861 0.1361597776 0.2833204567 -0.1438180953 0.2614874244 -0.1915805191 0.1054874435 -0.1837416738 0.4353657067 0.3127128184 0.0288143829 -0.1024330631 0.5608538985 0.6699462533 0.3162284195 -0.1829906702 0.2684767544 -0.2025347799 0.4935667515 0.1677832603 -0.0246536955 0.3599409461 0.0676284507 -0.0964503065 -0.0147994077 0.1636169255 0.0665782019 -0.0325170606 0.1683651209 -0.1828025132 -0.0730504990 0.2064187080 -0.2652232647 -0.1280409247 0.0629419535 -0.0946626142 0.1349673718 0.1149030030 -0.1068856120 0.1563875526 0.0987420157 0.2020996660 0.0932660326 0.2466840744 0.4135169089 0.2747308910 0.1308452487 -0.1289146394 -0.0258312952 0.4484650493 0.0611654148 0.3122609556 -0.0084934141 -0.0009926232 0.4317356944 -0.0184184145 0.6639607549 0.1461608708 -0.0015819098 0.3921536803 -0.1403116137 0.0409035087 -0.1648724079 -0.0936870277 0.3068472445 0.4863418341 0.0037781633 -0.1219282374 -0.1543454379 0.7287322879 0.3235421181 0.3330302835 -0.1188804805 0.2453800291 0.2446721494 0.0179985948 -0.1777775586 0.5928221941 0.0552742928 0.3029345870 -0.0464386903 -0.1059355512 -0.1312870532 0.2420849502 0.2660838664 -0.0880546719 0.2403507978 -0.0653433576 -0.1209789440 -0.0451946184 0.0798866302 0.1118229926 0.0429290831 -0.0729910880 -0.0727355629 0.2610878646 0.1401605159 -0.0002439558 0.2731176913 0.3591852486 -0.1228438243 -0.0782149807 0.0409355536 0.7028043866 0.0477225482 -0.0208348762 -0.0797041357 0.3358409107 0.1428793818 0.3985950649 0.2727242112 -0.1143689901 -0.2004294246 -0.2295188308 -0.1990352720 0.0033152644 0.2273717672 -0.2551843524 0.1934787333 -0.0863349140 0.3512817323 0.4376745522 -0.1076413020 -0.0158384293 0.2195352018 0.2928363085 -0.0671955049 0.0549536645 -0.2156964391 -0.0089631230 -0.0911671296 0.0920294598 0.1257061958 0.1871140301 -0.1008589640 -0.0535692796 0.1880915165 0.2833305597 0.1070566177 0.1660391986 0.4498829246 0.1878067851 0.3958779871 0.5080102682 0.7516499758 0.1175663844 0.0061285496 0.4659989178 -0.0000655549 0.4318058193 -0.0843008831 0.1083662510 -0.1305392683 -0.1378325969 0.3928554952 -0.1508878618 0.4092462659 0.1268333644 0.0650565773 -0.0864197686 0.0213191286 0.4060698748 -0.1034476012 0.4679089487 0.3293539286 0.1659668088 0.1090617925 -0.0967186689 0.5491802096 0.1037158892 0.1598325521 -0.1159790456 -0.0474436283 0.1095884591 0.1015892774 -0.0323058292 -0.1248751804 0.2121514380 0.2039182633 0.1657529324 0.1551226228 0.6315881610 0.6194175482 0.1839727014 0.4908741713 0.0474866107 0.4399408400 0.5024401546 0.1096763387 0.2474085242 -0.0759776160 0.4004898369 0.0311872177 0.5513692498 -0.0316425152 -0.1123590246 0.1848980784 0.4626163542 0.3861731887 0.4465330243 -0.0751109049 0.2770535946 0.1191875637 -0.2574701905 -0.1809534729 -0.0084377844 0.0018463316 -0.0939245820 -0.1136063412 0.1976423264 -0.0779365301 0.6480873227 0.1340642273 0.0448722206 -0.1704996377 0.0437422693 0.0288294628 0.4596293569 0.4105612040 -0.0507999845 -0.1628625542 0.0062013040 -0.0545420237 0.0853260607 0.1881915629 0.0348055735 0.1892398298 -0.1485760063 0.2996463776 -0.0815101489 -0.0800072625 0.3309912682 0.3859908879 0.1802940071 -0.1219719797 -0.1119090989 -0.0857591927 0.0303305276 -0.0547458567
