00cee45dbd399396b46f54e162891bd3__88.93_99.03 0.0262501631 0.2614678741 0.1306263357 0.0918142572 -0.1178388074 0.3294709027 0.6134751439 0.7403252721 0.5020242929 -0.0408478118 0.3073885143 -0.0332256928 0.0002698023 0.1418038309 -0.0557356812 -0.1072080210 0.4280841649 0.6216173768 -0.0569216050 -0.1821095347 0.2863160074 0.4111809134 -0.1163595617 0.3859344423 -0.1427081376 -0.0235856101 0.3464059830 0.3621518612 -0.0339804478 0.7270483375 0.8785301447 0.1295006573 0.3635139763 0.0243922789 -0.1788191050 0.4829021990 0.4148594141 0.0911180824 0.0878800899 0.1932826340 -0.2013445795 -0.0025243338 0.3854815066 0.7485738993 0.1522836387 0.6088644266 0.2259820402 0.1410421133 -0.2374370396 -0.2496836334 -0.1449171156 0.4083645642 0.0167067815 -0.0455388688 0.5967588425 0.2265052199 0.5371140838 0.0349565111 0.4830535948 -0.0065475754 0.3765669763 -0.1242190376 0.0181271061 -0.1094199717 0.7267253995 -0.1657168120 -0.0955653191 0.6728141904 0.4456839561 0.1767689437 -0.2252157480 -0.1009564027 -0.2552771866 0.3695656359 0.0085516535 -0.2931419313 0.2458037287 -0.2614513338 0.6052916050 -0.1005760729 -0.0522536747 -0.0478739850 0.5111965537 -0.0589061826 -0.0574572198 0.3428021967 0.3094888926 -0.1315375268 0.2562763393 -0.2019988894 -0.1776434779 0.1857286692 0.6337512136 -0.1394700408 -0.0766768306 0.7864545584 -0.0179198571 -0.0583923832 -0.1026872844 0.3154251575 -0.1187870428 -0.0115865087 -0.0745733753 -0.2090663165 -0.0050795227 0.0194854122 0.8638662696 -0.1209083349 -0.0788567066 -0.1027138531 -0.1605889946 -0.2338070124 0.0064434242 0.5784948468 0.3304189742 0.8827841282 0.0749185160 0.0881369561 0.0046905251 -0.0106160585 0.2065973580 0.9237997532 0.2025389075 0.3251973689 0.3759582937 1.0283943415 0.0611409880 -0.0832809582 -0.1299851835 0.4761501551 0.3535319865 0.3126881719 0.2431330979 -0.2335794121 0.0305514503 0.2210383564 -0.2152295262 0.3582849801 -0.1198924109 1.0317611694 -0.1033071652 0.1159923375 -0.0947897583 0.2920518816 -0.0712491497 0.1943253875 0.5855053663 0.0552958138 0.0580368154 0.3315477073 0.3429222703 0.0371379033 -0.1802654266 -0.0757129341 -0.0743526369 -0.1006900892 0.3419857025 0.4830982685 0.6497355700 0.2864376009 0.2320289314 -0.1037615240 0.2124492824 0.1441849470 -0.1352039427 -0.0444454104 -0.1061718017 0.3759824336 -0.1039008498 0.5032413602 0.3337186873 0.2532653809 0.0632695556 -0.1522415876 -0.0366491191 0.2460296005 -0.2190648168 -0.0804940090 -0.2206114531 0.0362488478 -0.0255226381 0.0997807309 -0.0520972759 0.1133886725 -0.0675473064 -0.1604501754 -0.0796577558 0.2018650472 0.1010608375 -0.0524654537 0.4640648961 0.1310399771 0.0632232875 0.0527593568 -0.2422863692 -0.1262890995 0.5035942793 -0.0833683684 0.2704401612 0.0053961929 -0.1957993954 0.1195806265 0.0621961132 0.0818710253 -0.0740010142 0.2515384555 0.3699277341 -0.0821656436 -0.1454212070 0.1000319421 -0.0815218315 -0.0517514981 0.4096241593 0.1487353593 -0.0840894356 -0.1407045126 0.1727922112 -0.3605512381 -0.0379112437 -0.0011188034 0.2536813021 -0.0966003686 0.2640087605 0.4536201954 0.4553419054 -0.1759319901 -0.0543747693 0.4236111641 -0.0121522807 -0.0987010822 0.4543692470 0.3049505949 -0.1967657208 -0.1108525917 0.3579237461 -0.0759282634 -0.1293753088 0.0871167183 0.3990904689 -0.0809809566 -0.1374601573 0.1679881066 0.7779117227 0.3108966649 -0.0216474477 0.0171254426 -0.0699499026 0.4935689270 0.0321512073 0.4306168556 0.2239591181 0.2859518230 -0.0647699833 -0.1383929551 0.7602801919 0.3634077907 0.2149266154 0.0913753733 -0.0992881879 0.2940333486 -0.1165730208 -0.1104038358 0.6773807406 -0.1486964077 0.3881923556 0.4043584168 0.4505042732 0.0238181204 0.6184562445 0.3975320458 0.6600003242 0.0841545612 -0.1935248077 -0.0328323767 0.1880017370 0.3932379186 -0.2177996933 0.8415970206 -0.0792630836 -0.1185323372 0.0319499038 0.3756046593 0.5237519741 0.0031364346 -0.0111731356 0.0145949721 -0.0590235777 -0.0335115939 0.4363631606 0.0085753007 0.6771250963 -0.0958150327 0.2204869390 0.0090550259 -0.0204903893 0.0401170030 0.3528371155 0.0182759166 0.4184014797 0.4621853828 0.1719852537 0.9123479128 0.3633774221 0.0359244682 0.1945599169 0.2522852421 -0.0492687561 -0.1992224604 -0.0726464689 0.0203381181 0.3073690534 0.4228950739 0.3929603696 -0.0364223868 0.0202275850 0.5250506401 0.0132422708 -0.0285988804 -0.0517669283 0.1208110824 0.1466162354 -0.0855525360 -0.0994217843 -0.1111281067 0.5540212989 -0.1799322963 0.1299245805 0.1022898108 0.0771846399 -0.1952950358 0.3484452665 -0.1119417250 -0.0804146081 0.1941316128 0.2536436915 -0.0798945203 -0.1062641442 0.3172177374 0.0584072769 -0.1288146973 0.1687081903 0.2108344436 -0.0170904864 -0.0570359491 0.2146165222 0.2474664152 0.3213582635 0.0149005707 0.5523684621 0.1982319653 0.0311267376 0.3228327632 -0.0309653003 -0.1088041440 -0.0636572614 0.0853341669 -0.0134293381 0.7794668078 -0.1000026837 0.0022506760 0.0080705658 0.4360038936 0.1828622967 0.9672411084 -0.1456993669 0.1184749529 -0.2765474916 0.1338221729 -0.1210599020 -0.1586490571 0.1683730781 0.3866438568 -0.1095244437 0.3455678523 0.9138799310 0.1700918674 -0.2597858012 0.2526819408 -0.1074515209 0.0254997350 0.1612518281 0.0060093752 0.5036250353 0.4208610356 -0.1298360676 0.0023004701 0.0367218629 0.2759910524 -0.0612453260 0.1788725257 -0.1906154603 -0.0807016194 0.3279215097 -0.3624295592 -0.1163371578 0.3351304531 -0.1015806794 0.2993170321 -0.1065191701 -0.0815724730 0.5948684216 0.2693248093 0.4600836337 0.6102544665 0.3547159433 0.5842738152 0.1809620857 0.3561209142 -0.1398635209 -0.0643581674 -0.2829051316 -0.0318476856 0.0911128148 -0.0018448378 0.4076689184 -0.0421994813 -0.0557198897 0.2955645919 0.7680299878 0.0365892127 -0.0619625561 -0.2604093552 0.0723453835 -0.1495132297 0.0774948150 0.1441103071 0.5171238184 0.3969371915 -0.0796465203 -0.1510152668 0.2903921604 -0.1823660433 -0.2051271349 -0.1154948473 -0.1572361887 0.6379882693 0.5001772046 -0.2085719407 0.6930062771 0.2281651795 0.2932669222 -0.0543892235 -0.2152358741 -0.0934270024 0.4939009845 0.5530571938 -0.0908731371 0.5800607800 -0.0179050528 0.0399787389 -0.1082099900 0.2226757854 0.3795901835 0.2248979360 -0.1264501065 -0.1140784845 0.3147304356 -0.0487551168 0.1003869772 0.5395239592 0.2239807695 -0.2193972915 0.0469714478 0.1315912902 0.0004132595 0.1126302257 0.2012786716 -0.1028582677 0.4938605726 0.0111568673 0.2208227068 -0.0502716526 -0.1318868399 -0.1312935948 -0.2591587901 -0.1225071624 0.4856067896 0.0432380326 -0.2207470983 -0.0546220168 0.0507837869 0.4080399871 0.8173024058 -0.1224124581 0.0205947943 0.0406581201 0.3218086064 0.3557308912 0.2027923167 -0.2925439775 -0.0918684974 -0.0914781764 0.9375097752 -0.1026928946 0.4762536585 -0.1291932911 -0.1272999793 -0.0380623266 0.0429799818 0.2362945378 0.4516561627 0.1476712823 0.0117830280 -0.0395407043 0.1127849147 0.5439051986 -0.0776643455 0.5355010033 0.0482614487 -0.0225982815 0.0802631006 -0.1486255378 0.6318740845 0.2937097549 -0.1846979111 -0.1237417981 -0.1492314190 0.4480211139 0.1415897310 0.2038954645 -0.1234416291 -0.0241439417 -0.1231128648 0.0296631418 -0.0560786128 0.2276570797 0.5078672171 0.3894374371 -0.1066571772 0.3177252114 0.1520226598 0.0707337707 -0.1548421085 -0.1877472699 0.1820742786 0.5064279437 -0.0595814325 -0.1441982538 0.2065815926 -0.1320591718 0.3974200487 0.1142454073 -0.0832404718 0.3298957348 0.4161567390 -0.2122758329 0.6681792736 0.3475553393 0.0051408559 0.2832177281 0.3750876784 -0.0248102229 0.0630409494 0.1647774577 0.3751012385 -0.1192451343 -0.1041975766 0.2857031226 0.0950919464 0.1902664304 -0.0488572828 -0.0558984652 0.2951683104 -0.0639643893 -0.2636512518 -0.1750112176 -0.0105624590 0.0566806681 -0.0792895332 -0.1426385790 0.0425535776 -0.1176884845 0.5917651653 0.2029398084 0.2512817979 -0.1101101115 0.2223229855 0.0868648291 0.2901726961 0.3861843348 -0.0885703564 -0.2370875925 0.0220222808 -0.0764335394 -0.0467747338 -0.1261643618 0.0556321293 0.8751986623 -0.2185925841 0.2684589028 -0.0751842037 -0.0642268211 0.1170115098 0.2182848901 0.4253489077 -0.1850249171 -0.1774681211 -0.1082363427 0.0441599227 -0.0085237175
00dcad4fb43c7711877b238949ac8bac__81.98_110.43 0.0231791865 0.2254320681 0.2238751054 0.0442711115 -0.0701948181 0.3074755371 0.6761280894 0.5249456167 0.3607702553 0.1408354938 0.2700455487 -0.0360586867 0.0125095081 0.0999145433 -0.0670442730 -0.1293349117 0.3860059083 0.4582480788 -0.0726170987 -0.1523854434 0.2398460358 0.3946836591 -0.0990446806 0.3124517202 -0.1035835594 0.0024125814 0.2449783236 0.2595123947 0.0463071018 0.4512982965 0.7047038674 0.1313471049 0.3405743837 -0.0101303868 -0.1791210026 0.4440786242 0.3928750157 0.0279805604 0.0280277282 0.1898227185 -0.0311125573 0.0434431657 0.3353435993 0.6972520947 0.2254593372 0.6036120057 0.2667084336 0.2081278414 -0.2008547336 -0.2172217369 -0.1342170537 0.2717612088 -0.0196030308 0.0301446021 0.4069753587 0.2204013765 0.5280770659 0.0063918419 0.3592917025 -0.0403018333 0.3055658340 -0.1279144883 0.0033097528 0.0237470679 0.5095191002 0.0027415394 -0.0838017538 0.5621077418 0.4313932955 0.2705462277 -0.1788856685 -0.0983507335 -0.1989137828 0.3285112977 0.0022273171 -0.2553931773 0.1478221864 -0.2295147628 0.4584261775 -0.0936982706 -0.0443784744 0.0246992372 0.4185115993 0.0348489657 -0.0403161272 0.4414389431 0.2603126466 -0.1225358099 0.3920594752 -0.1870078146 -0.1855220795 0.2827010155 0.5680491328 -0.1134633049 -0.0807647631 0.6030669212 -0.0557540655 -0.0671353787 -0.1201684996 0.2011740208 -0.0945986137 0.0003402783 -0.0613358356 -0.1838687509 0.0636148676 -0.0183665175 0.6122952104 -0.1126971021 -0.0739841312 -0.0856938735 -0.1515360177 -0.2154498547 -0.0140141025 0.5132937431 0.2425796539 0.6348956227 -0.0481827557 0.0704048574 0.0593717359 -0.0244995747 0.1767679006 0.6158756614 0.2348934561 0.3785367310 0.4243068397 0.7052446604 -0.0629471913 -0.0305073094 -0.1256723553 0.4212845862 0.3672381639 0.2613079548 0.2278906405 -0.2131509483 -0.0231320951 0.1812750995 -0.1976643056 0.2831023037 0.0093733910 0.7571238875 -0.0078695966 0.1000986770 -0.0989148766 0.2695209086 -0.0623592921 0.1781996340 0.4451345205 -0.0169494804 -0.0018043630 0.2583612502 0.2386030704 0.0756607428 -0.1591096967 -0.0422728844 0.0103998967 -0.1183293909 0.2905986607 0.3339254260 0.4578719735 0.2140022814 0.1586338580 0.0281287450 0.1643906087 0.3278000057 0.0494215898 -0.0174872093 -0.0964088216 0.3925430477 -0.0972425491 0.3474962413 0.2559101582 0.2084487826 0.1152994260 -0.1338839084 0.0030246929 0.4179301858 -0.1304650754 -0.0571931489 -0.1956022531 0.0022513997 -0.0142376591 0.1018274948 0.0005945510 0.1773405671 0.0233709887 0.0385487154 -0.0624806620 0.2497037947 0.0550332926 -0.0231535062 0.3522879481 0.1509285420 0.1849248111 0.0518615097 -0.2000856996 -0.0639507100 0.2989179492 -0.0890644118 0.2531298399 -0.0259709712 -0.1756558865 0.2119380832 0.1034310684 0.0561669245 -0.0655715317 0.2494671196 0.3188146353 -0.0272940956 -0.1225469187 0.1250383556 -0.0852103978 -0.0410766080 0.3085524738 0.1763144881 -0.0763892233 -0.1539452374 0.0906087384 -0.1331585050 0.0141808437 -0.0226804335 0.2291643173 0.0150458142 0.1446381360 0.3861389458 0.4988006651 -0.1438378841 -0.0633503199 0.5045850277 0.0340817645 -0.0172328819 0.3114342391 0.2039883733 -0.1740428656 -0.0316613317 0.4101380408 -0.0734663829 -0.0989948586 0.0987494662 0.4472200572 -0.1034428552 -0.1406819522 0.1061105579 0.5954927802 0.3472515643 -0.0247931536 -0.0224922076 0.0038458067 0.4104520977 0.0357856005 0.4204765856 0.1746672243 0.2142707855 0.0186104290 0.0445591174 0.5697129369 0.2172928005 0.1669680476 0.0315865986 -0.0910865664 0.3143490255 -0.1078326702 -0.0873849466 0.5931751132 -0.1382119060 0.3051482737 0.2867660522 0.4741758406 0.0055626789 0.5724409223 0.2871744633 0.4828918874 0.1467638016 -0.1682907194 -0.0247624889 0.1030114517 0.2853543460 -0.2021400332 0.6358317733 -0.0655966774 0.0399183780 0.0056815101 0.3908649385 0.5488549471 0.0178343803 0.0100888275 0.0775687844 0.0066912328 -0.0233274195 0.3887374401 -0.0165785663 0.4821908176 -0.1058432907 0.3285142183 0.1541221440 -0.0167954359 0.0360948257 0.2195305824 0.0436581075 0.3810962141 0.4242029488 0.1363804042 0.6249150634 0.3887633383 0.0647312105 0.2053330392 0.2029348016 -0.0268179625 -0.1941007674 -0.0517795980 0.0145699354 0.2214124203 0.3936229348 0.3000932932 -0.0495217890 0.1200701669 0.4033531547 0.0242672376 -0.0021147386 -0.0389549583 0.1768956780 0.1253505498 0.0037521068 -0.0880224556 -0.1051364616 0.4332189858 -0.1263762414 -0.0093731098 0.2372888327 0.0927327201 -0.1204410195 0.3239913583 -0.0932064280 -0.0784976557 0.1793045402 0.2097985297 -0.0686619878 -0.0866434723 0.4684503675 0.2331555635 -0.0960109904 0.1444106847 0.1252298504 0.0145470938 -0.0441884473 0.1450565159 0.2573330104 0.2031807601 0.1161182597 0.5800004005 0.2483374923 0.0125878751 0.4103186727 0.0014948305 -0.0864857510 0.0829749927 0.1525874436 0.1006086618 0.6176370978 -0.1086984575 0.0912844464 0.0502693839 0.3420416415 0.1849698573 0.6794753671 -0.1478679776 0.2061884403 -0.2439123541 0.1481330097 -0.1521732807 0.0084574036 0.2095428109 0.3021524549 -0.0986406654 0.4186469913 0.8367258906 0.2332719117 -0.2316432148 0.2595029473 -0.1411390752 0.1064287573 0.1449434757 -0.0022643830 0.5182828307 0.2981830835 -0.1000106037 0.0048098089 0.0199324191 0.2485384494 -0.0485427864 0.1922581196 -0.1757286936 -0.0826122314 0.2768335640 -0.3279485703 -0.1177720353 0.2382450104 -0.1028721705 0.2910213768 -0.0363881662 -0.0915015936 0.5429084301 0.1959733516 0.3419725597 0.4442030787 0.3713771403 0.4429580867 0.1995164305 0.2176004946 -0.1419465691 -0.0397055447 -0.0648588240 0.0167576633 0.0743009448 -0.0004036347 0.2872941196 0.0563660190 -0.0446949080 0.3972347677 0.5285577178 0.0540552922 0.1099318862 -0.2121331245 0.0911744609 -0.1433973163 0.0089922920 0.1755849719 0.5017174482 0.2855481505 -0.0984332338 -0.1572694480 0.4461364448 -0.0098932115 -0.0186183564 -0.1128687561 -0.0309592765 0.5013719797 0.3723431826 -0.1706084311 0.7428413033 0.1970447898 0.3518479168 -0.0423880555 -0.1804375201 -0.1040942967 0.4504349828 0.3861168027 -0.0989007652 0.5127992630 -0.0305304341 0.0083208829 -0.0915198848 0.1831374913 0.3339941800 0.2008871585 -0.0884294137 -0.0994341597 0.2904065847 0.0111591583 0.0313908421 0.4941984713 0.2327695638 -0.1823308468 0.0195052959 0.1075625718 0.1133660004 0.1139820516 0.1258940995 -0.0966443792 0.4207841754 0.0382495448 0.3006963730 0.0401173532 -0.1227349490 -0.1446655542 -0.2302167416 -0.1502473354 0.3877319694 0.0963318720 -0.2310424000 -0.0001638103 0.0247540176 0.3859585524 0.6708113551 -0.1020535603 -0.0200989526 0.1078978255 0.3330100775 0.2442727387 0.1699849963 -0.2563378215 -0.0558239855 -0.0919075161 0.7072417736 -0.0597315356 0.3449659646 -0.1185575724 -0.0948111191 0.0314388536 0.0643158332 0.1242738813 0.3338055015 0.1831420362 0.0016219225 0.1076538712 0.2584092319 0.6555080414 0.0052549839 0.3657539487 0.1328796744 -0.0096221836 0.1078113690 -0.1144101918 0.5364851356 0.1773359329 -0.1606424898 0.0592939705 -0.1484192312 0.4299723208 0.0880245864 0.1820947975 -0.1078623682 0.0089504151 0.0183465742 -0.0036686221 0.0594702587 0.2080598325 0.4627045095 0.2565699816 -0.0982047766 0.3060878515 0.1547046900 0.1113012582 -0.1343395710 -0.1280447096 0.1819445640 0.4209560752 -0.0468975604 -0.1169566438 0.2243028581 -0.0236480460 0.2777169049 0.1163210943 0.1107512042 0.4551262856 0.3725745082 -0.0376930051 0.4438659251 0.4022907913 0.1880321205 0.2574934065 0.3704919219 -0.0368844718 0.2228225917 0.0192687511 0.3610097766 -0.0873367041 -0.1095330939 0.2315316647 0.1265546679 0.3063145876 0.1200791374 -0.0817368925 0.3116415441 -0.0246498957 -0.2568490803 -0.1620574892 0.0032085199 0.0226872489 -0.0793493167 -0.1425307691 0.0526087210 -0.1155070439 0.5488685966 0.1602192223 0.1166525856 -0.1339320391 0.1999992579 0.0703583434 0.4024105668 0.3372839689 -0.0893284231 -0.2048092186 -0.0039214143 -0.0658578649 -0.0068220627 -0.0144872218 0.0163900182 0.6277912259 -0.1885089129 0.3380297422 -0.0706545636 -0.0736008063 0.1734535694 0.2614272833 0.3511912525 -0.1714884043 -0.1562468708 -0.1023915559 0.0450124405 -0.0277472176
04af33e1cd6b6843c8b7e14390a846f4__2250.98_2255.52 0.0670414641 -0.1683298200 0.2279358059 0.2485435009 0.3382679522 -0.0763051957 0.1761229038 -0.1842664331 -0.1763039827 0.0875745341 -0.1124204919 0.0040301420 0.2335566580 0.3697730899 -0.0546303205 -0.1161029711 0.1252185404 -0.2611286938 -0.0765126124 -0.1604858339 0.3505820930 -0.2438030243 -0.1664627343 -0.1552996635 -0.0928991809 0.1124085709 0.1212958321 0.1364948004 0.6262344718 0.3925545216 0.3851515949 -0.0433485806 -0.0388683453 -0.0997599065 -0.1611717939 0.0636760443 0.5817576647 0.3393077850 0.2072199583 -0.0006893245 0.1274651438 -0.0347155072 -0.2013093531 -0.3233699501 0.4411694705 -0.1032330990 0.3436734378 -0.0100776888 -0.1913756877 -0.1723835617 -0.1302945912 0.0476936921 0.1729244292 0.4467174411 0.3541284502 0.1567356586 0.6486685872 0.3132618666 -0.1683884561 -0.0616937019 -0.0335192047 -0.0365535058 0.0192090869 0.5878983736 0.0723156482 0.7970250845 -0.0494429246 -0.2309182137 -0.2028996348 -0.0270438604 -0.1250845343 -0.1055790707 -0.1117071137 0.0508653149 -0.1368469298 -0.1648656279 0.4937276244 -0.1712919176 0.5384302735 0.0374632329 0.2716976106 -0.0166058168 0.3204014599 0.2988518178 0.1600966007 -0.1057050675 0.0143986167 -0.1325867772 0.0814474225 -0.1819636822 -0.1448299289 0.7057577968 -0.3265028894 -0.0719159022 -0.0752101988 0.3366054296 -0.1094735786 -0.0561014377 -0.1498598158 0.0829902738 -0.0592862442 0.0341357216 0.4829112291 -0.0931117460 -0.0124293491 0.0534354337 -0.0538174137 -0.0523494110 -0.0850103721 0.0416417308 -0.1439094543 -0.2113224864 0.0333613306 0.4386002123 0.6339780092 -0.0065289736 0.0754289851 0.2866899371 0.2740552425 0.1672285795 0.0410459042 -0.1851610541 0.0395193435 -0.1226519868 0.1644029319 0.2692697048 0.0028692456 0.0126346936 -0.0669019967 -0.1985991597 0.0956682488 -0.1217433810 0.1414237171 -0.0419859178 -0.0230138544 0.3071274161 -0.2237907350 0.3138481677 0.1690510511 0.0358134061 0.1116577387 0.0213018432 -0.1118000448 -0.0355543531 -0.0051509095 0.1758651435 -0.1229392961 -0.0601636022 0.2278521955 -0.1655213386 0.1064570770 0.3668993115 -0.0970342383 0.0317288488 0.1089648604 -0.1243418902 -0.0865095556 0.1803266406 -0.2105015516 -0.1422458142 0.0235111676 0.6522520185 0.5122796893 0.5375259519 0.3825615346 0.1034118831 -0.0093577486 -0.0348435529 0.0825628489 0.2345960140 -0.0116242860 -0.0573295616 0.1766684949 -0.1154357642 0.3099324107 0.6109229326 0.6221037507 -0.1333874315 -0.1786830425 -0.0301997047 0.3025618792 0.1091772467 0.0046490710 0.5254470110 0.3030683100 0.1905493885 -0.0636620000 0.4781271219 -0.0301607810 -0.0035772033 -0.1302590221 -0.0121110678 0.6442194581 -0.0189004447 -0.1386770457 0.3902022839 0.1865096092 -0.1006823406 0.0949198455 0.0457681194 -0.1029906049 -0.0077496935 -0.0227123778 0.4102115929 -0.0094700316 0.0405560285 0.4303741157 0.3869461417 -0.0675561130 0.0387510061 -0.1094568148 -0.0819573998 -0.0265967958 -0.0031681308 -0.0154670067 -0.0008002466 0.4619948268 0.0028006569 0.0488344133 0.0277463440 -0.1200519502 0.0662679896 0.1844485402 -0.0182448123 0.2283236384 -0.1854491979 0.0571189225 0.0622502789 0.6099247932 0.4604443610 0.1918249726 0.0761757717 -0.0973612666 0.0538000837 0.2975422442 -0.0451520309 -0.1078780591 0.3937993646 -0.0823153704 -0.0305946507 -0.2690375745 0.1628611088 0.1284259558 0.1522859782 0.0953680873 0.0133862812 0.2842777371 -0.0517219491 0.0336018465 0.6685287952 0.1999307275 0.3143351376 0.5339508057 0.5176364183 -0.1396951377 0.1925251037 0.4322504401 0.4442681074 -0.0453178883 0.2249267399 -0.0982947201 0.0201171804 -0.0755506381 -0.0536852628 -0.0506365597 -0.0372157805 -0.1578494459 -0.0487022512 0.5622803569 0.3909636140 0.0933003128 0.0635739490 -0.0581796244 0.0960984826 0.1773310602 -0.1816523671 -0.1225912422 0.0932979733 0.0484182797 0.5924978852 -0.0122979740 0.0558954105 0.2491692901 0.0598342977 -0.0345819816 0.0167821273 0.1385291219 -0.0012371310 0.0866867006 -0.0056791911 0.1380330473 -0.1681701392 0.3212194145 0.5075724721 0.0245835856 -0.0439982750 0.5687056780 -0.0218938887 -0.0927781835 -0.1888826936 -0.0318841189 -0.1432869881 0.0018977411 0.1726475805 -0.0381952822 0.1981441230 0.2499895394 -0.1014442742 -0.0933699012 0.0759220719 0.0096774567 0.5129264593 0.1203827709 0.0145350229 0.4724380970 -0.1753103882 -0.0153563470 0.0056087878 0.1176647618 0.2431167215 -0.1006872728 0.4046649337 -0.0185880903 -0.0417005084 0.1196667627 -0.0439483151 0.0276553426 0.3394533396 -0.0159932226 0.6079896688 0.3656378388 0.0291915163 -0.1440983415 -0.0044926889 0.2321155369 -0.0518170893 -0.0385765694 0.4703869820 0.1683152318 -0.0370158553 0.6054732800 0.5234470367 -0.0969502255 -0.0638708919 0.4786339104 -0.0768041313 0.6056556106 0.3213906884 -0.2242477536 0.3989398777 0.5791489482 0.0385004245 0.6145630479 -0.0281238183 0.1302020848 0.1347759366 0.4011120200 0.0742813498 -0.0870755091 0.2371897846 0.0706804171 -0.1880427301 -0.1214461327 0.2464203835 -0.1082580835 0.3802684844 -0.1743766516 0.1982876509 -0.1563936323 0.5320065022 0.2777824700 0.1432480365 -0.0417299941 -0.0172922276 -0.5454974771 0.1549609751 -0.2302846760 -0.0861704350 -0.0419390909 0.0782831013 0.0282908250 -0.0320005156 0.2424584627 -0.1253276467 -0.0167756118 -0.0191995986 0.6122605801 0.5672545433 -0.0603969209 0.0574687682 -0.1992834955 -0.0211864375 -0.0541176498 -0.2856600881 -0.0605888441 0.5862381458 -0.1138548255 0.2812575996 0.1380019784 -0.0666502267 0.6706861258 0.2983036339 0.4689192772 -0.2400526702 0.6401055455 0.1493853331 0.2958439589 0.7854914665 -0.0333917066 0.0228824355 0.1451738030 0.3491647840 0.1746934354 -0.0400279872 0.2425607741 0.0903116167 -0.0079244412 0.0047808047 0.4128534794 0.3824607134 0.2434287220 -0.1790656298 0.2101752609 -0.1336604208 -0.0252066702 0.0275778100 -0.1629550904 -0.0591677688 -0.0320430100 0.0370990708 0.0752407387 0.2530311346 0.1421054602 -0.0833325014 0.1972148418 -0.2666684091 0.5881498456 -0.1649045944 0.0681101903 -0.0064687999 0.2695412934 -0.1305986494 -0.1678482145 -0.1206512898 0.0486050099 0.0449958593 -0.1052667126 -0.1202385873 0.0148906149 0.3844129145 -0.0204795562 -0.1486252099 0.0898775682 0.3085809946 -0.1091992334 -0.0585743599 -0.0746367574 0.1842675358 0.6904374957 0.0929954126 0.0138704795 -0.2170702219 0.2413783520 0.1095985174 0.3856848180 0.0181911401 0.2017097026 -0.0363198929 -0.2254125178 0.2650870681 -0.0038040522 0.4484086931 0.0028283449 -0.1659642011 -0.2034696192 -0.0607413501 0.2330393642 -0.0576958209 -0.2142593414 0.5621545315 0.4632584453 -0.2414626181 -0.3817876577 -0.0446934663 0.5898480415 0.0437698178 -0.1506158710 0.3081559241 0.9575342536 -0.1365420669 -0.0310816206 -0.0498621054 -0.3222511411 0.1245468110 0.7962493300 -0.1547233909 -0.0351698957 0.3581258953 0.1220701039 0.3033269644 -0.0603990369 0.0735029951 0.3448689878 0.1393305808 0.0256744940 -0.1683633626 0.5080329180 0.2455271631 0.2775176167 0.0646488741 0.1483557671 -0.0987467095 0.1983220726 0.0079788789 -0.1574502438 0.4149313271 -0.0434748046 -0.1925241798 0.6799315810 0.1024239808 -0.1175743192 0.0259592608 0.6730134487 0.1527799070 0.0544804186 0.0512574688 0.3998575807 0.3114132881 -0.1157893166 0.1200647205 0.1971668750 0.1035519764 -0.0388628393 -0.0505438484 0.3408344984 0.0887038857 0.0997117609 -0.2101776898 0.0451952256 -0.0016743308 0.0981695503 -0.0005674278 0.8718708754 0.1103144586 -0.0808498710 0.1557930559 0.5524355769 0.1953576803 0.4136650562 0.0086777005 0.1979708225 -0.0000452953 0.4812189639 0.5903729796 -0.0193991512 -0.1074638143 -0.2116709501 0.3254528344 0.0699909180 0.5865232944 0.1477120221 -0.0669478104 -0.0083306432 0.3085583448 -0.2235530764 -0.0451139919 0.1925522834 0.3421756327 -0.0393189825 0.0143473065 0.3493210077 -0.1880333573 -0.1371043324 0.4559576809 0.4953015447 -0.1124313548 0.5449264646 0.0594034120 0.3907512128 -0.0538030155 -0.0168405138 -0.2283304483 0.0627716407 -0.1005099490 -0.0665942356 0.0348984674 0.0396509171 0.3610540032 -0.1093703732 0.3025990129 -0.0456562862 -0.1151712686 -0.0328763872 -0.0344271734 -0.0793856457 -0.0551501438 -0.0709696338 -0.0491468869 0.0662351176 -0.1443587244
05c1871ca4740f93d015f7cec5e5eb11__81.92_101.34 0.0049685780 0.2628901303 0.3603657186 -0.0780660734 -0.0575423799 0.3472485244 0.9038918018 0.4804083705 0.3289025724 0.3263981044 0.3109188378 -0.0379954576 -0.0021249447 0.0486769676 -0.0747325346 -0.1706323922 0.4618696868 0.4462453723 -0.1062502265 -0.1534658521 0.2741178572 0.5463911891 -0.0711201429 0.3235955238 -0.0842513144 -0.0319986828 0.1972293705 0.1327913105 0.0624592714 0.1958535016 0.7607101798 0.1632465273 0.3806305230 -0.0316190310 -0.2138893455 0.5828930140 0.4756866395 -0.1114397869 -0.0902921110 0.2337449044 0.0809437409 0.1033395752 0.4015809298 0.9033412933 0.3164552450 0.7593386173 0.3389182687 0.3070118725 -0.1983540356 -0.2222219706 -0.1340990663 0.1545875520 -0.0883095339 0.0563340336 0.3103326857 0.2638618350 0.6921430826 -0.0926646888 0.3483814001 -0.0788470134 0.3420330286 -0.1737910807 -0.0121750422 0.0656125173 0.4008559883 0.1163290963 -0.0850696638 0.6164038181 0.5345843434 0.4366338849 -0.1694419533 -0.1318804175 -0.1899806261 0.2935691476 0.0077604982 -0.2755530179 0.0270889979 -0.2340371013 0.4105308950 -0.1095245034 -0.0679580793 0.0958081558 0.4132306278 0.1031054258 -0.1072943211 0.6428459883 0.2586853802 -0.1349122077 0.6368800402 -0.1951943189 -0.2185050547 0.3970458508 0.7629253864 -0.0882178769 -0.0807276890 0.5995529890 -0.1151271239 -0.0899062306 -0.1472068280 0.0913207754 -0.0863604918 -0.0150238676 -0.0923249796 -0.2119515836 0.1158229336 -0.0696582198 0.5305454135 -0.1263455003 -0.0625378862 -0.1096543968 -0.1524881870 -0.2373976260 -0.0856833011 0.5944190621 0.1662677824 0.5785092711 -0.2626253068 0.0579413213 0.0195176266 -0.0422969572 0.2123571634 0.4918720126 0.3534084558 0.5474622846 0.5869767666 0.5106048584 -0.2688831091 -0.0032810408 -0.1552941650 0.4993717670 0.5346292853 0.2791148722 0.2849085927 -0.2523966432 -0.1250918508 0.1517842859 -0.2024946511 0.2527843118 0.0956688449 0.7194999456 0.0654489920 0.1246797070 -0.1162143797 0.3196269274 -0.0863516256 0.1766695082 0.4586994946 -0.1174338534 -0.1133607626 0.2779636979 0.1911624819 0.0881747082 -0.1652218848 -0.0281933453 0.0810834691 -0.1536717117 0.3131655753 0.2285334617 0.3968689144 0.2683023512 0.1341359019 0.0948998109 0.1075703576 0.5968994498 0.1898906082 -0.0115215657 -0.1024954543 0.4966108799 -0.1074212939 0.2795644701 0.2374348938 0.2649033666 0.2051654011 -0.1351127625 -0.0025531172 0.6446861625 -0.1259042472 -0.0484956987 -0.1930022985 -0.0263812374 -0.0348967761 0.0495873392 0.0448167510 0.2149813920 0.0536084659 0.2208147049 -0.0479429178 0.3496680260 0.0442227721 0.0042712758 0.4008814991 0.2065669745 0.3013384342 0.0715190098 -0.2003187537 -0.0528951958 0.0497194938 -0.1150990650 0.2028331459 -0.0617179312 -0.1835949570 0.3168646097 0.1785656661 0.0092365136 -0.0666609555 0.2566265464 0.3258128464 -0.0325303786 -0.1252252460 0.1786657274 -0.0826822594 -0.0641619042 0.2769394517 0.2404404581 -0.0948430151 -0.2284048647 -0.0723451450 0.0276161078 0.0534209386 -0.0818105116 0.2837901413 0.0666672438 0.0015691677 0.4651090503 0.7003881335 -0.1206991598 -0.1012139842 0.7374157906 0.0156871602 0.0482008532 0.2062801868 0.1220447347 -0.1716491282 0.0161269344 0.5448132753 -0.0814352408 -0.0828475878 0.0864093602 0.6357464790 -0.1617143005 -0.1445038021 0.0598619580 0.5681471229 0.5009869337 -0.0393790454 -0.1119651198 0.0352433026 0.4583702981 0.0169428587 0.5081305504 0.1573638469 0.1895734072 0.0264159329 0.2039447129 0.5297940969 0.0873593315 0.1015060470 -0.0780234039 -0.1093312129 0.4148519039 -0.1221864969 -0.1019533649 0.7142404318 -0.1304517835 0.2876586318 0.2099103183 0.6858686209 -0.0222660825 0.6130172610 0.2087034285 0.4438073635 0.1525655985 -0.1757565141 -0.0230674483 -0.0373760536 0.2683353126 -0.2156404555 0.6321240664 -0.0992606878 0.1290408075 0.0021647913 0.4560146332 0.7865285873 0.0009654919 0.0245941654 0.1299975067 0.0318204425 -0.0072430931 0.4783826470 -0.0779953673 0.3607248068 -0.1290490329 0.4848905802 0.3097819984 -0.0218936298 0.0456507839 0.0459654033 0.0459828787 0.4338550270 0.4735425413 0.1608386487 0.4819118977 0.5553278923 0.0809300393 0.2996337116 0.1420997679 -0.0151998205 -0.2278776616 -0.0308368932 -0.0440256894 0.1616650224 0.3846569955 0.2907198668 -0.0763878077 0.2173498571 0.4180987477 0.0396064371 0.0094481260 -0.0402681790 0.2666793764 0.1704986542 0.0323187932 -0.1239122376 -0.1109302640 0.3243765831 -0.1107964739 -0.2203731239 0.3943118155 0.1131177098 -0.1089018583 0.3342350721 -0.1117527708 -0.0789095908 0.2404898852 0.2086200714 -0.0823950544 -0.0808309913 0.7418537736 0.4416937530 -0.0947013050 0.1038738638 -0.0175434072 0.0743109882 -0.0312233418 0.0644697621 0.3508630097 0.0535419509 0.1985955536 0.7617428899 0.3383565247 -0.0678186640 0.6283728480 -0.0689079389 -0.0718994141 0.2541407049 0.2338586599 0.1914715618 0.6630962491 -0.1352703124 0.1961693019 0.0907806754 0.3721807301 0.2392535359 0.5339239240 -0.1856154352 0.3117302358 -0.2591411173 0.1804252267 -0.1987244338 0.1167350411 0.3074165881 0.2967205644 -0.1047112346 0.6347275376 1.0534318686 0.3730236292 -0.2454060763 0.3293087184 -0.2106864303 0.1187707037 0.1519807279 -0.0124394903 0.6491990685 0.2719876468 -0.0943989530 0.0032496033 -0.1121821329 0.2540501356 -0.0418805815 0.2607202232 -0.1815076023 -0.0936111435 0.2910518050 -0.3581668139 -0.1380826086 0.1291917413 -0.1250537783 0.3676651120 0.0268528964 -0.1006321907 0.6050339937 0.1490472257 0.2524588704 0.4089176655 0.4676735401 0.3684926331 0.2400363088 0.0252767280 -0.1743284762 -0.0614034086 0.1006004587 0.0388438404 -0.0471669957 0.0026947488 0.2492491752 0.1143892109 -0.0429468825 0.6060395241 0.3898923099 0.0710693076 0.2796944976 -0.1867140532 0.1158270761 -0.1541932672 -0.1028593108 0.2119479328 0.6522946358 0.2550056279 -0.1501243114 -0.2176235765 0.7286096811 0.1126074493 0.1185986027 -0.1237283349 0.0510074794 0.5000862479 0.3084754646 -0.1701435000 1.0363610983 0.2357347161 0.5047793984 -0.0036830250 -0.1978565305 -0.1468809098 0.5158444047 0.2552000582 -0.1162298769 0.6156372428 -0.0520964116 -0.0860232189 -0.0949592814 0.1972589642 0.3931611180 0.2391513288 -0.0680302605 -0.0990679190 0.3464878500 0.0285223164 -0.1208228394 0.5743125677 0.2576408982 -0.2012055814 -0.0362638496 0.1097840667 0.1174487323 0.1715704054 0.0311695058 -0.1256840229 0.4850195944 0.0278711244 0.4530046284 0.0633495748 -0.1307182461 -0.1637035161 -0.2549465895 -0.2002491057 0.3803403974 0.1603145897 -0.2703688145 -0.0298473090 -0.0559350178 0.4652655721 0.6992935538 -0.1031720415 -0.1455207467 0.1881503314 0.4713459909 0.1544522047 0.0965071395 -0.2608507574 -0.0508200936 -0.0910181701 0.7390413284 -0.1022360697 0.1977817267 -0.1376151741 -0.1216259003 0.0622128397 0.0725157559 -0.0374624208 0.2734072506 0.2133425474 -0.1209330335 0.2482068986 0.4584204555 0.9779076576 0.0123688243 0.2533565462 0.1945484877 -0.0207826570 0.0993365198 -0.1069763750 0.6134307384 0.0913093239 -0.1537999064 0.1899175048 -0.1822776645 0.5465330482 -0.0244937185 0.1887643635 -0.1241812184 0.0515009947 0.1006202102 -0.0639966279 0.1171674430 0.2103880346 0.5795151591 0.1368161291 -0.0987513512 0.2758096159 0.1919021606 0.1725593954 -0.1371106952 -0.0914599001 0.1925922334 0.4869980812 -0.0630814806 -0.0890726820 0.2687939405 0.0820597410 0.1595651060 0.1172274947 0.1922426224 0.7140040398 0.4697691500 0.0660525188 0.2537648082 0.5745726228 0.3659466207 0.3389542699 0.4206585884 -0.0590583161 0.4023874998 -0.2520766854 0.3916994333 -0.0859566480 -0.1022801623 0.1964959800 0.1353264004 0.4452564418 0.2956517637 -0.1710157394 0.4022893310 -0.0436410531 -0.2789458334 -0.1835306734 -0.0252597015 -0.0494749807 -0.1170730293 -0.1736769080 0.0252188127 -0.1272562295 0.6035261750 0.1191578880 -0.0591763332 -0.2030994743 0.2024004310 0.0682553053 0.6103013754 0.3423779309 -0.1098506525 -0.2028782219 -0.0446598791 -0.0693504736 0.0211796407 0.0544425100 -0.0502322353 0.5020332932 -0.1823327243 0.4833983481 -0.0736572966 -0.0754586533 0.2623603046 0.3377791643 0.3877327144 -0.1999049783 -0.1799808592 -0.1282754838 0.0565471016 -0.0486529246
06443cebd6b2ec5b37dc81282d4aee64__29.09_53.18 0.0129187945 0.2671198845 0.3719882071 -0.1110317484 -0.0019752530 0.2960773110 0.9421460032 0.5550494790 0.3671979308 0.2657005191 0.2922219932 -0.0310939085 0.0260473229 0.1246027276 -0.0692294315 -0.1814134270 0.5425829887 0.4811457396 -0.0700249895 -0.1850706190 0.3861693144 0.5305073857 -0.0871737003 0.3184777498 -0.0987971053 -0.0763738006 0.2554382086 0.0975032970 0.1101278961 0.2802167535 0.9891384244 0.1518804431 0.3347812593 -0.0480962396 -0.2455495149 0.6937241554 0.6660463810 -0.1014787629 -0.0930653512 0.2496017665 -0.0146863516 0.0799454898 0.4184304178 0.9164041877 0.3717814088 0.7396084070 0.3470981717 0.2525616884 -0.2320732474 -0.2477125973 -0.1540148854 0.1757622808 -0.0730408430 0.0781320855 0.4298179746 0.3003587127 0.9061022997 -0.0768842399 0.3786285520 -0.0773053989 0.4112338424 -0.1885306835 -0.0023023803 0.0584545061 0.4675208330 0.2029346079 -0.0862353221 0.5985683799 0.4903920889 0.3881518245 -0.1991382986 -0.1508217007 -0.2309794724 0.2376065850 -0.0086586997 -0.3122661412 0.1197244078 -0.2737981081 0.5688766241 -0.1112461984 -0.0262168832 0.0408140495 0.5438036919 0.1135130599 -0.1582730114 0.5589605570 0.2439795434 -0.1429294348 0.6070234179 -0.2225978822 -0.2303072214 0.4790588021 0.8194513917 -0.1140689179 -0.0774955824 0.7803750038 -0.1397939622 -0.0872259960 -0.1565596461 0.1148572937 -0.0950485766 -0.0532566607 0.0022684478 -0.2406226099 0.0151307657 -0.0524566546 0.6200441122 -0.1462112665 -0.0540068261 -0.1293816268 -0.1724173129 -0.2863012552 -0.1021947116 0.7333508730 0.3033579290 0.7068935633 -0.2601234317 0.1203513741 -0.0691438839 0.0072326562 0.2646785676 0.5516859293 0.3657861352 0.5165674090 0.6249777079 0.6283729672 -0.3039134145 -0.0166303609 -0.1655045748 0.4896164238 0.6144008636 0.2539946139 0.3664849102 -0.2634177208 -0.1552213281 0.2382413894 -0.2142235339 0.3339550197 0.0466242209 0.8822622299 0.0288173035 0.1358026117 -0.1251630783 0.3051425517 -0.0913942680 0.1942342967 0.5218662024 -0.1584622562 -0.1092088819 0.2976865470 0.2346481681 0.1232749224 -0.1869573742 -0.0450673103 0.0284510329 -0.1386837214 0.2950220704 0.2967847586 0.4306095243 0.3160254657 0.1687698513 0.1191470996 0.1955225915 0.6474391222 0.1272903681 -0.0020667957 -0.1101577207 0.4545047581 -0.1071707308 0.3651548624 0.2831773162 0.3027702868 0.2319875509 -0.1520912796 -0.0101124095 0.6826801896 -0.0379683450 -0.0705684870 -0.2309626937 -0.0213275757 -0.0202968940 -0.0041510891 -0.0138813946 0.2692046762 0.0018495917 0.1292773187 -0.0602000020 0.4194132686 0.0610409714 -0.0029046691 0.4609628916 0.1721184403 0.3744522929 0.0809990764 -0.2427574992 0.0244477484 0.0226752795 -0.1283221841 0.0860913545 -0.0500763915 -0.2014450580 0.2242097259 0.1491527557 0.0840004534 -0.0681392774 0.2062914521 0.4570801854 -0.0231929459 -0.1469508559 0.1677751094 -0.0967703015 -0.0855836421 0.2983646095 0.1937837303 -0.0956746191 -0.2295678556 -0.0605485067 -0.1093771979 0.0209578071 -0.0984232202 0.2747041881 -0.0342825577 0.0176505633 0.5726446509 0.7619593740 -0.1595860869 -0.1253384948 0.7747989893 0.0640668049 0.1424726099 0.2674889266 0.1260005087 -0.1839630306 -0.0362081230 0.6022944450 -0.0822352096 -0.1005956531 0.1500377804 0.6312354803 -0.1599273831 -0.1686144620 0.1015609056 0.6823310256 0.5711566806 -0.0106228124 -0.1222144365 0.0326466523 0.5137818456 -0.0145599004 0.6740075350 0.2291857451 0.2867853343 0.0310766362 0.2285905033 0.5403628349 0.1244750470 0.1825363189 -0.0019542761 -0.1114395484 0.4588543475 -0.1427017450 -0.1188238859 0.7864149213 -0.1212610826 0.2758491933 0.1914935261 0.6979189515 -0.0236705802 0.7293674350 0.3230542243 0.5441255569 0.0334801823 -0.2059364021 0.0036052945 -0.0893341899 0.2799330950 -0.2536830604 0.7786518931 -0.1055901200 0.1077717468 0.0016484102 0.3927337825 0.9150773883 0.0058511039 0.0167926718 0.0645678863 -0.0204622112 -0.0186967701 0.5637083054 -0.1040455028 0.3908246160 -0.1465688795 0.4939019680 0.3560943305 -0.0159077682 0.0418001339 0.1324968040 -0.0020610383 0.3860886097 0.4182549715 0.1776432991 0.5324125886 0.6098933220 0.1157285571 0.3072214127 0.1003839448 0.0431705005 -0.2508564591 -0.0529601425 -0.0760639608 0.1581069529 0.4347855449 0.3779228926 -0.0634123012 0.2503179908 0.4591765404 0.0212618224 0.0125869885 -0.0144040948 0.3169905245 0.1852742583 0.0156108830 -0.1248350367 -0.1020912975 0.2460367382 -0.1344407201 -0.2431170046 0.3929044902 0.1070542485 -0.0055514611 0.3868952394 -0.1023289934 -0.1045071408 0.2713950872 0.2965305150 -0.0956017673 -0.0910170972 0.7927700281 0.3921728730 -0.1036719680 0.2215414196 0.0761749148 0.0317127369 -0.0323671103 0.1467697620 0.3538364768 0.1593035460 0.1910479069 0.6918324828 0.3859902024 0.0261093713 0.6323429942 -0.0397458971 -0.0661113039 0.2083884776 0.1907936931 0.2261316478 0.8063320518 -0.1487567127 0.2153506875 0.0800037533 0.3972016871 0.2148292512 0.6770712137 -0.2080157697 0.3607164919 -0.2883128524 0.2252748758 -0.2198380232 0.1080413461 0.3452593088 0.4008045495 -0.0993165672 0.6228920817 1.0246585608 0.4061614871 -0.2878172100 0.3016749024 -0.2133724838 -0.0187776648 0.1389751583 -0.0154293077 0.7056149244 0.2993201613 -0.0936668962 -0.0126912715 -0.0949149504 0.4027490318 -0.0433935858 0.2689096332 -0.2055090219 -0.0847400725 0.2623428106 -0.4254518449 -0.1441449970 0.2451216727 -0.1517611444 0.4595708847 0.0276504196 -0.1020529568 0.8184512854 0.2227560878 0.3496792912 0.4315819144 0.6342124343 0.4029555917 0.2767224908 0.1675707698 -0.1981916726 -0.1121538877 -0.0351687595 0.0702887550 -0.1398901641 -0.0103068966 0.3571869731 0.0226326436 -0.0524166152 0.5515257716 0.5449162722 0.1713306904 0.2180176228 -0.2295331359 0.1633567661 -0.1702881008 -0.1211675107 0.1727624834 0.6595888734 0.2935500145 -0.1554116160 -0.2056017965 0.7095372677 0.0730171278 0.0434550419 -0.1262084395 -0.0247542653 0.4937477708 0.4874033928 -0.1928871125 1.0838295221 0.2724691331 0.5801286697 -0.0117091639 -0.2274240255 -0.1563398689 0.5294949412 0.2423824668 -0.1215540320 0.6472451687 -0.0377100706 -0.0158189386 -0.1059110612 0.2054207027 0.4577360153 0.3333085179 -0.0922717378 -0.1137265265 0.3683359623 -0.0001163026 -0.0132336933 0.6085194945 0.2182121277 -0.2420334965 -0.0090062255 0.1436811835 0.0175388735 0.1874140054 0.0693668425 -0.1347014010 0.4820665419 0.0373247042 0.4396586120 0.0669859275 -0.1221049428 -0.1561466604 -0.2857646942 -0.1965573579 0.4847731292 0.1108116880 -0.2953045368 -0.0030422620 0.0297588967 0.4205022454 0.6718562245 -0.1109515056 -0.0625541955 0.1628596783 0.4879119694 0.2521244586 0.2792697251 -0.2876610756 -0.0625590011 -0.0922693312 0.8447033167 -0.1663150191 0.3510179520 -0.1686494499 -0.1849228293 0.0708534271 0.0362877361 -0.0323632620 0.2617474794 0.1550251096 -0.1740140617 0.1884604990 0.3883836567 0.9657035470 0.0313187838 0.3396777809 0.1644369215 -0.0200870484 0.0337917507 -0.1196336448 0.7577528954 0.1171145067 -0.1717350483 0.1430323124 -0.1972974390 0.5314562321 0.0848768502 0.2170111686 -0.1355899572 0.0576335602 0.1321860254 -0.0350558609 0.0067769857 0.1895301491 0.7619295716 0.2010757923 -0.1067416072 0.1977255344 0.2410244793 0.1925189048 -0.1447257698 -0.1150851101 0.2827386856 0.6103579402 -0.0506725572 -0.1039561182 0.2402958721 0.0228085294 0.1324541718 0.0924434513 0.1723718196 0.7141330838 0.5008981824 -0.0545094423 0.4050038457 0.6259182096 0.3499802649 0.4053733349 0.4350091815 -0.0433910340 0.4515409470 -0.1740564555 0.3335768282 -0.1128856093 -0.1281164289 0.2692030966 0.0476064831 0.4751726985 0.2476917803 -0.2106729597 0.3812088370 -0.0254862234 -0.3148335814 -0.1969919354 -0.0054491479 0.0232178606 -0.1189380065 -0.1819390208 0.0316359997 -0.1623824239 0.5351359248 0.2085534483 0.0150133632 -0.2171398848 0.3130173385 0.0874241069 0.6698443294 0.3044552505 -0.1228865385 -0.2292324305 -0.0420547277 -0.0904000476 0.0004235844 -0.0116935186 -0.0552808307 0.6741462350 -0.1997313648 0.5705474019 -0.0746622980 -0.0845113024 0.2185036242 0.2728906572 0.3828396201 -0.2281538248 -0.2013682723 -0.1367080212 0.0769637376 -0.0646163970
0881d87afb57f978121b2f8d60755e9c__83.17_94.84 0.0214036275 0.2682322264 0.2091441453 0.1135127917 -0.1332126111 0.3841639757 0.7039585710 0.4771530926 0.3433579504 0.1608035415 0.2889253497 -0.0473402739 0.0098673254 0.0770444125 -0.0756030902 -0.1199555472 0.3119328320 0.5030941367 -0.1058814973 -0.1378645301 0.1384947896 0.3993673623 -0.1000548303 0.3461672664 -0.0938834026 0.0653485954 0.2166648358 0.3656923175 0.0270238332 0.5060369968 0.5363546014 0.1476770192 0.4680000842 0.0140593778 -0.1760660857 0.3155289292 0.2236781120 0.0910844207 0.0859034136 0.2101209760 0.0679516792 0.0843093470 0.3189114630 0.7017295957 0.1517736614 0.6887487769 0.2283453643 0.3209913671 -0.1901398897 -0.2217013687 -0.1161692068 0.2982273996 0.0207107514 0.0302340873 0.3143445849 0.1703263968 0.3187464476 0.0548055097 0.3734911978 -0.0363711677 0.2396766096 -0.1070664823 -0.0134397615 0.0502412990 0.4938889146 -0.1260984689 -0.0870230421 0.5950452685 0.5495105982 0.3004236817 -0.1591586471 -0.0879269168 -0.1834109426 0.3774751723 0.0167511739 -0.2503785193 0.0898511708 -0.2325427532 0.3130638301 -0.0850805491 -0.1025486737 0.0978298634 0.3020896018 0.0151271466 0.0678529963 0.5075504184 0.3340875804 -0.1370974183 0.3876361847 -0.1740605980 -0.1891211271 0.1879601777 0.4915376902 -0.1049189940 -0.0847785547 0.4287071824 0.0475315750 -0.0852822289 -0.0994116366 0.2532215118 -0.0877935365 0.0587165281 -0.1547443867 -0.1857724041 0.1986046731 -0.0408826433 0.6053965092 -0.1190834343 -0.0898641571 -0.0703834668 -0.1625247747 -0.1875957698 -0.0029094461 0.4708443284 0.1579210609 0.5685353279 -0.0378355533 0.0109797921 0.1643327475 -0.0686884224 0.1411124617 0.6667884588 0.1945705116 0.4104226530 0.4276840091 0.6930162311 -0.0140598165 -0.0303628650 -0.1253814697 0.4994089007 0.2733589411 0.3079830706 0.1454761326 -0.2244985849 -0.0015310526 0.1282798499 -0.2011757195 0.2146235555 0.0597642586 0.6477863789 0.0245600604 0.0780235529 -0.0776570737 0.2741138637 -0.0593682379 0.1724039912 0.4358544350 0.0161800589 -0.0019458979 0.2599135935 0.2091871351 0.0825565085 -0.1679613143 -0.0091997311 0.0730518252 -0.1394009888 0.3073340356 0.3327214122 0.4847649336 0.1726242006 0.1244840473 0.0356722847 0.0864257812 0.2355156392 0.1278697103 -0.0330838487 -0.1102967113 0.4306912124 -0.1105376706 0.2794770598 0.2268307209 0.1668297499 0.0833722204 -0.1352371275 0.0115414811 0.4113106132 -0.2265466154 -0.0369581692 -0.1799039543 0.0091496985 -0.0127031300 0.1585675478 0.0586677231 0.1907799393 0.0656834394 0.0840357393 -0.0634750500 0.2133020461 0.0489744768 -0.0216179937 0.2737926543 0.1921441108 0.1012234390 0.0526115969 -0.1656025797 -0.1637835205 0.4470229745 -0.0831688344 0.4448051751 -0.0472936928 -0.1827250719 0.3015956283 0.1152421087 0.0266966373 -0.0599065088 0.3019501865 0.2398699522 -0.0328108333 -0.1224166974 0.1710599512 -0.0770389438 0.0021790355 0.3410493433 0.2163424939 -0.0750502869 -0.1569392234 0.1806685328 -0.0688539445 0.0482701287 -0.0124317035 0.2235395908 0.1020643860 0.1857908666 0.2770961821 0.4805761278 -0.1393346936 -0.0047193291 0.4353235364 0.0034933938 -0.1310048550 0.3144032359 0.2405502647 -0.1823254079 0.0088667395 0.4150095284 -0.0803438500 -0.0832044780 0.0296962131 0.4192586243 -0.0971731395 -0.1247326210 0.1036802232 0.4854687452 0.2840650976 -0.0509158149 -0.0190596078 -0.0018390217 0.3672865629 0.0600079894 0.3207360208 0.1404084861 0.1372761130 0.0547156334 -0.0106792338 0.5780619383 0.2271011919 0.0977342352 -0.0276518092 -0.0984242484 0.2354577184 -0.0789815187 -0.0989912003 0.5696207285 -0.1448399574 0.4013728797 0.3774355650 0.4646211565 -0.0003976889 0.4502074718 0.2244985998 0.4053810239 0.3137836158 -0.1556671411 -0.0539469868 0.1452665031 0.3163934052 -0.1867968887 0.5595303774 -0.0193679687 0.0187154002 -0.0017081471 0.4510785043 0.3965557814 0.0138538079 0.0330638885 0.1321498007 0.0626898408 -0.0358093046 0.3238268793 0.0104313055 0.4706766009 -0.0884501934 0.3564775586 0.0807985067 -0.0113178939 0.0188057180 0.1855153143 0.1116818264 0.4388999045 0.5405575633 0.1392052025 0.6715356708 0.3385125995 0.0434003733 0.1952898055 0.2362903655 -0.0979721472 -0.1875343919 -0.0521849617 0.0528601706 0.2255139947 0.3299623430 0.2405864894 -0.0825412795 0.0502492599 0.4405518770 0.0470841713 0.0063954676 -0.0735525489 0.1198104620 0.1180847436 0.0231596287 -0.0908046961 -0.1239097491 0.5799018145 -0.1252304465 0.0335573666 0.2350844145 0.1423932612 -0.2470451444 0.2734168768 -0.1104590446 -0.0895557776 0.1513644457 0.1397411376 -0.0736474767 -0.0964486822 0.4065008461 0.2622608542 -0.0990317464 0.0307286195 0.0587892607 0.0871516541 -0.0413220860 0.0964592323 0.2480541468 0.1247773021 0.1633107662 0.6980041862 0.1882934868 -0.0169567876 0.3707898259 0.0094150547 -0.1193703562 0.1078114733 0.1850313693 0.0496793762 0.5044294596 -0.1034658924 0.0578008369 0.0460311882 0.3507035375 0.1968386620 0.5949912071 -0.1282725036 0.1876763254 -0.2391221970 0.1435562670 -0.1330866814 -0.0081441477 0.1447350532 0.2280483097 -0.1199722141 0.4048969150 0.8829768896 0.1887572259 -0.2084588706 0.3047076166 -0.1428769231 0.2684087455 0.1578763425 -0.0027840959 0.5420106649 0.3032976389 -0.0983979180 0.0422764421 0.0464614742 0.1167967394 -0.0550808683 0.2099910676 -0.1785890609 -0.1104125530 0.3740718365 -0.2849121392 -0.1210246310 0.1767259538 -0.0794581994 0.2149429023 -0.0451695547 -0.0848205984 0.3984936476 0.1388837099 0.2599789500 0.4758971632 0.2153934240 0.4213116467 0.1598332971 0.1147578880 -0.1217746288 0.0306110103 0.0544925705 -0.0019060886 0.2470010221 -0.0066208909 0.2356526852 0.1177255735 -0.0544026904 0.4194241464 0.4434910119 -0.0608864427 0.1739103347 -0.2202174515 0.0820021778 -0.1419991553 0.1171699315 0.2243072391 0.4625851512 0.3073177636 -0.1016707346 -0.1619205624 0.4538700581 0.0187333599 0.0182545409 -0.1207589284 0.0736867860 0.6012018323 0.2664297223 -0.1825443506 0.7213507891 0.1798354834 0.2676263750 -0.0438890308 -0.1624355167 -0.1119676530 0.5088770390 0.4625090659 -0.1003955081 0.5314946175 -0.0396444649 0.0078154337 -0.0881552771 0.1931856871 0.3298908472 0.1117867976 -0.0667583942 -0.1073602512 0.2577948272 0.0157332681 -0.0254316609 0.5430917144 0.2961858809 -0.1503071040 0.0246776752 0.1146921068 0.1853494495 0.0734357014 0.1508271992 -0.1042968035 0.4289597273 0.0117066428 0.2900277674 0.0493836477 -0.1404874176 -0.1739852130 -0.2357687354 -0.1641584337 0.3576520979 0.1742326766 -0.2397224903 -0.0033871625 -0.0060514072 0.4633300900 0.7545188665 -0.0996936038 -0.0994638652 0.1284051389 0.3129108846 0.2237990648 0.0023943111 -0.2688294649 -0.0626351014 -0.1040847898 0.6871861815 0.0650621355 0.2235529870 -0.0997483283 0.0216574669 0.0410267264 0.0889723748 0.1557955742 0.4527042508 0.2213561386 0.1246275976 0.1498268992 0.2832905650 0.6361558437 0.0151700787 0.3564788699 0.1401713043 -0.0200856663 0.1583609134 -0.1133892387 0.4452542961 0.2448134124 -0.1724758595 0.1027713940 -0.1389137506 0.4322830439 -0.0178241115 0.1960150599 -0.0994027704 -0.0065637240 -0.0376021229 0.0326782316 0.1682443619 0.2306722850 0.2731545568 0.2333096117 -0.0936059058 0.3838583827 0.0956679285 0.0705283061 -0.1521347016 -0.1338105798 0.1209112853 0.3077077866 -0.0597845986 -0.1175920442 0.2895746231 0.0055781575 0.4034881890 0.1502011269 0.1390056312 0.4255330563 0.3538351953 0.0493271463 0.4073939919 0.3079829812 0.1997322440 0.1840756834 0.4265719652 -0.0227094330 0.1556832939 -0.0261684805 0.4245483279 -0.0698826015 -0.0958163440 0.1649670303 0.2092661709 0.3397044837 0.1363521814 0.0612172186 0.3658341169 -0.0644673482 -0.2443367094 -0.1601494849 0.0015998427 -0.0315360688 -0.0801096857 -0.1406284720 0.0304910596 -0.0915908292 0.6826734543 0.0847264826 0.1124824882 -0.1422776282 0.1067162603 0.0484991521 0.3375867605 0.3939236104 -0.0935579389 -0.1968194991 -0.0145837124 -0.0513621010 0.0135530662 0.0477944016 0.0294542387 0.5223785043 -0.1966832578 0.2448764592 -0.0719797686 -0.0628262237 0.2217103243 0.3489611447 0.4424913228 -0.1752213538 -0.1510693878 -0.0978576988 0.0358731784 -0.0088439956
088571ef77ceb475624d2d5eabf0c756__116.60_129.00 0.0106359478 0.1940036416 0.2461408973 0.0036712643 -0.0389152542 0.2733050585 0.6595348716 0.5186396241 0.3562665284 0.2118667811 0.2812593877 -0.0205516201 -0.0074853748 0.0556559414 -0.0717723668 -0.1491488069 0.3806382120 0.3827376366 -0.0825839043 -0.1381530911 0.2606684864 0.4397211373 -0.0956980214 0.3007405102 -0.1015692800 -0.0197960343 0.2348080128 0.2031656206 0.0530496053 0.3366448283 0.6748963594 0.1260020733 0.2639400363 -0.0124362670 -0.1869659275 0.5089772940 0.4256589115 -0.0233116634 -0.0265781842 0.1677765846 -0.0196383540 0.0201542452 0.3615546823 0.6830996871 0.2972808480 0.5411083102 0.3429641426 0.1664099544 -0.2051382363 -0.2091186792 -0.1342352629 0.2120681107 -0.0657409802 0.0248960927 0.3981830776 0.2567065358 0.6057063937 -0.0260519255 0.3231681585 -0.0523567684 0.2983054519 -0.1364015043 0.0135380523 0.0542646758 0.4842340648 0.1059204116 -0.0845389739 0.6045669317 0.3863677382 0.3251716495 -0.1843009293 -0.1109117046 -0.1915991604 0.3684392571 -0.0057580327 -0.2624268532 0.1339779496 -0.2326804847 0.4844452739 -0.0829088688 -0.0276028402 -0.0001929095 0.4617163539 0.0881410465 -0.1031459421 0.5178865194 0.1966185123 -0.1083856821 0.4907497168 -0.1944191307 -0.1782641262 0.3848801255 0.6069780588 -0.1066612601 -0.0770450458 0.6466431618 -0.1711007655 -0.0705787539 -0.1300145090 0.1133016124 -0.0917974040 -0.0246355459 -0.0388113260 -0.1870118678 0.0536421761 -0.0190213360 0.5415896177 -0.1045660526 -0.0798621327 -0.0829309374 -0.1534709930 -0.2338979393 -0.0135123804 0.4691429734 0.2291934639 0.6086307764 -0.0600342005 0.0836511627 0.0448841378 -0.0082255546 0.1877849996 0.4970934093 0.2766876221 0.3883542120 0.4188737869 0.6337695122 -0.0603853986 -0.0139530664 -0.1474830657 0.3686242104 0.4255727828 0.2566985190 0.2426572144 -0.2159518600 -0.0336756930 0.1486502141 -0.1991133243 0.3027312160 0.0304517951 0.7557346821 0.0164168589 0.0989170149 -0.1147198826 0.3099968135 -0.0676888973 0.2071603239 0.3654033840 -0.0313642845 0.0158815868 0.2285123914 0.2172935307 0.0329869539 -0.1499917358 -0.0691792443 -0.0057923500 -0.1361183822 0.3101736605 0.2678222060 0.3980276883 0.2227407992 0.1584065259 0.0386768803 0.1825228631 0.4439201653 0.0600716211 -0.0095878374 -0.0966936648 0.4560472965 -0.0904828086 0.3507633805 0.2610056400 0.2136423439 0.1624558121 -0.1276772767 0.0383979529 0.4301452041 -0.0835161805 -0.0526831113 -0.1962242872 -0.0252937209 -0.0146963745 0.1452123225 0.0006282052 0.1355576515 0.0848430842 0.0970151722 -0.0577862598 0.2415953130 0.0623475350 -0.0114835361 0.3579844534 0.1610322744 0.2410197556 0.0552491583 -0.2003012002 -0.0164850373 0.1947896481 -0.1003954038 0.1994888186 -0.0036831854 -0.1815569550 0.2256667316 0.1284901798 0.0296661928 -0.0643329993 0.2765508592 0.2849391699 -0.0423426852 -0.1205441877 0.1081357896 -0.0840804726 -0.0900177211 0.2551060021 0.1678412259 -0.0822905824 -0.1665149033 0.0168140084 -0.0560458861 0.0078959009 -0.0225773435 0.2419426739 0.0562736876 0.0851936415 0.3957209289 0.4995281398 -0.1481467634 -0.1228068769 0.6060767770 0.0346132815 0.0278437901 0.2572901845 0.1843559444 -0.1737901121 -0.0205643699 0.3930516243 -0.0675278679 -0.0891596377 0.1294772029 0.5209540725 -0.1155784652 -0.1550179571 0.0570454150 0.6192973852 0.3782126606 -0.0096179079 -0.0270119943 0.0443852767 0.4566906095 0.0468150973 0.4143323302 0.1476131678 0.2233124673 -0.0121147148 0.1315007508 0.5924485922 0.1959602237 0.1766495705 0.0438474603 -0.0801686719 0.3745794892 -0.1188795567 -0.0795036033 0.5710451603 -0.1341229230 0.2009409219 0.2184196562 0.4997252226 -0.0042580953 0.6508491635 0.2607046664 0.4965918958 0.1422479004 -0.1639093757 -0.0008976018 0.1395451874 0.2437175214 -0.2015199959 0.5713516474 -0.1386449784 0.1412859708 0.0200466514 0.4516536891 0.6487521529 0.0267094113 -0.0084568877 0.1064386368 0.0125391260 -0.0128476433 0.3898161948 -0.0172541738 0.5067169070 -0.1103898659 0.3282877207 0.2151039541 -0.0268415101 0.0425545983 0.1745804250 0.0396904089 0.4092569649 0.3926461935 0.1086662039 0.5169565082 0.4311434925 0.0632028878 0.2441482842 0.2451080382 -0.0074716634 -0.1846631914 -0.0404751673 0.0012074895 0.2390867472 0.4592621326 0.2957351506 -0.0566401072 0.1898523420 0.3221963942 0.0292245708 0.0021221840 -0.0317311659 0.2308055907 0.1325752884 0.0199787412 -0.1018995419 -0.0927021950 0.3991214037 -0.1101094782 -0.0352747031 0.2841527462 0.0647155121 -0.0866016895 0.3826175034 -0.0916376784 -0.0814575180 0.1888849735 0.2019208074 -0.0737771466 -0.0780813694 0.5352246165 0.2967408001 -0.0924009532 0.1826879531 0.1470777839 -0.0349456333 -0.0352032036 0.1399594396 0.3006930351 0.2152389437 0.1137166694 0.5459029675 0.3222007155 -0.0455471128 0.4830827713 0.0044648256 -0.0849276558 0.1510410309 0.2018264383 0.1687371582 0.6047628522 -0.1175084263 0.1416259557 0.0668461174 0.2879424691 0.1752615571 0.6647211313 -0.1547683179 0.2193030417 -0.2352357656 0.1360126883 -0.1737784147 0.1000531614 0.2711704671 0.2790937424 -0.0944191441 0.4907969832 0.8594323397 0.2941244245 -0.2312135994 0.2534946203 -0.1681930125 0.0999710560 0.1485284716 -0.0089141745 0.4808787704 0.2645393312 -0.1025337875 -0.0107311280 0.0009054691 0.2644132972 -0.0369891115 0.1876685619 -0.1809611171 -0.0697569624 0.2306716889 -0.3351274729 -0.1244224906 0.2143404931 -0.1099980250 0.2988970578 -0.0032697816 -0.0889253765 0.5302066803 0.2082138658 0.3556657732 0.3815936148 0.4283479452 0.4812459946 0.2473857552 0.2348493040 -0.1551116109 -0.0980716199 -0.0169854406 0.0236451048 0.0072884653 0.0000570831 0.2577545643 0.1154922992 -0.0349314325 0.4888717234 0.5025367737 0.0889034793 0.1238069981 -0.2005347610 0.0787779838 -0.1489232630 -0.0945742652 0.1758736223 0.5647963881 0.2112421244 -0.1122301891 -0.1676668078 0.5473822355 0.0426826179 0.0365197025 -0.1173295900 -0.0387576148 0.4288702905 0.3373810053 -0.1705545038 0.7547013760 0.1761899292 0.4018956721 -0.0450575873 -0.1612990648 -0.1153834909 0.3798916042 0.3290911913 -0.0891012698 0.4721794724 -0.0402452834 -0.0510508940 -0.0829317123 0.1561894417 0.2926581204 0.2256765813 -0.1096140072 -0.0928947330 0.3245974779 0.0154337203 0.0318784043 0.4308262169 0.2380866855 -0.1848448068 -0.0233695358 0.0890891403 0.2086662948 0.1222797781 0.0725162029 -0.0935691670 0.4440660775 0.0516807958 0.3420646191 0.0639179200 -0.1137681454 -0.1423794776 -0.2232352346 -0.1667654514 0.3311723173 0.0941988379 -0.2377881557 0.0207525380 -0.0220598802 0.3589524627 0.6224331260 -0.1073806286 -0.0085454453 0.1308949590 0.3797965646 0.1659470201 0.1959609389 -0.2496360838 -0.0466005579 -0.0945820287 0.6233584881 -0.1079354510 0.3606456220 -0.1228182912 -0.1678297222 0.0483134426 0.1056918353 0.0820046514 0.2452046573 0.2238706648 -0.0494836941 0.1551106274 0.3097011447 0.7389039993 -0.0094697326 0.2908202410 0.1989731640 -0.0023464095 0.1554735899 -0.1159499437 0.5056916475 0.0591384843 -0.1534500420 0.0907201394 -0.1594964266 0.4776207209 0.1276074350 0.1503319591 -0.1140055954 0.0167726278 0.1258428991 -0.0749374405 0.0957322568 0.2395043075 0.5122224092 0.2455503643 -0.1054107249 0.3237945139 0.1845252514 0.1498859972 -0.1317590624 -0.1188674718 0.1993991584 0.4283943474 -0.0462670699 -0.1120263636 0.1710293144 0.0038956748 0.1799832284 0.1037719101 0.1709223390 0.5344098806 0.3648581207 0.0393684171 0.3585165143 0.4717990756 0.2368990481 0.2880993485 0.3037475944 -0.0675460249 0.2886316180 0.0177673846 0.3951110840 -0.0841843262 -0.1157121956 0.2599000335 0.1707959324 0.2801230550 0.1871340722 -0.1700798571 0.2816739976 0.0100212293 -0.2717013955 -0.1733286679 -0.0091747250 0.0492560603 -0.0812976211 -0.1443220377 0.0951016098 -0.1153569371 0.5291417241 0.1847577244 0.0964763090 -0.1435017735 0.1819814742 0.0810334310 0.4566354752 0.3393256664 -0.0810749680 -0.2027627677 0.0122135356 -0.0851427987 -0.0085107256 -0.0115411431 0.0132495649 0.6034532785 -0.1773150414 0.3850876391 -0.0746828616 -0.0834845304 0.1892512739 0.2682020664 0.2790493667 -0.1679483950 -0.1473923773 -0.1147002578 0.0592603050 -0.0447546206
09f6fb56fba94662bb22210fa02c66c0__17.77_34.33 0.0384113640 0.2688134015 0.1922924966 0.0580224097 -0.0977812707 0.3171451092 0.7337312698 0.5559167266 0.3695375025 0.0270182937 0.2560360432 -0.0394224823 0.0345850028 0.1581746638 -0.0537642762 -0.1187709644 0.4126003087 0.5603873730 -0.0596481524 -0.1610670388 0.2554462254 0.3717003763 -0.0974842012 0.3089405000 -0.1080196947 0.0012606564 0.2679834366 0.2747312188 0.0287225507 0.5824182630 0.8149811625 0.1374070793 0.4194439352 0.0142910536 -0.1758037210 0.4341163933 0.3973682821 0.0913149938 0.0690957159 0.2131696492 -0.0812177360 0.0573033169 0.3134756386 0.7481457591 0.1390610635 0.6768532991 0.1615521610 0.2443047166 -0.1972636729 -0.2220734507 -0.1217881963 0.3226181567 0.0491942763 0.0288835280 0.4237065017 0.1751833558 0.5008805990 0.0462546200 0.4118875563 -0.0238079708 0.3333237767 -0.1208483055 -0.0227460284 -0.0258563347 0.5431567430 -0.1211059615 -0.0869635567 0.5074653029 0.5001954436 0.2103924602 -0.1745196730 -0.0958095565 -0.2112244070 0.2112216651 0.0079530217 -0.2667519748 0.1621507853 -0.2268148065 0.4588350058 -0.0851549432 -0.0691074654 0.0368981883 0.3844781220 -0.0250160042 -0.0203164984 0.3248085082 0.3227891624 -0.1481113583 0.2979201972 -0.1714543998 -0.1765424758 0.1642747819 0.5688231587 -0.1190697029 -0.0815092027 0.5921121836 0.0583778247 -0.0650248751 -0.0953101367 0.2935186625 -0.1007234752 0.0051263655 -0.0711634383 -0.1967339516 0.0672200173 -0.0330186188 0.7191386223 -0.1191278249 -0.0566899106 -0.0930620730 -0.1331881136 -0.2043560296 -0.0519541875 0.6358528137 0.2841258049 0.7042870522 -0.0741971731 0.0616951846 0.0151000740 -0.0306646209 0.1842307597 0.7636810541 0.1989755780 0.3696839213 0.4613048434 0.7948390245 -0.1221386269 -0.0575189553 -0.1157657281 0.4975112975 0.3491959870 0.2526766360 0.2312956005 -0.2244646996 -0.0437651128 0.2191098928 -0.1871670932 0.2614806890 -0.0273776222 0.8049328327 -0.0427804217 0.0994924977 -0.0804999471 0.2120963335 -0.0442547575 0.1358972043 0.5648577213 -0.0409782939 -0.0498176441 0.3113691807 0.2707913220 0.1176803932 -0.1720003188 -0.0187770855 0.0219893903 -0.1042648032 0.2468426079 0.4182808697 0.5348220468 0.2330505103 0.1749261171 0.0244335029 0.1484541744 0.2167745233 0.0116531290 -0.0199838430 -0.0954933390 0.3156852126 -0.1042457670 0.3596386909 0.2620703280 0.2346529812 0.0813539401 -0.1282583177 -0.0502099469 0.4089525342 -0.1823377311 -0.0613664947 -0.1926907152 0.0354130566 -0.0100304186 -0.0002251919 -0.0147019792 0.2292524427 -0.0877242833 -0.0573384315 -0.0578762554 0.2654896975 0.0647309497 -0.0314572677 0.3767421842 0.1375309676 0.1252943277 0.0622113943 -0.1974353939 -0.0916593522 0.3605542779 -0.0908857062 0.2460188419 -0.0446483605 -0.1754850000 0.1634124219 0.0774873346 0.1038686559 -0.0716692433 0.1502923369 0.3798343837 -0.0233143419 -0.1361298710 0.1530825049 -0.0816361532 -0.0007403274 0.3674985468 0.1480787396 -0.0740186498 -0.1519128978 0.1490378976 -0.2693298757 -0.0032355245 -0.0475239679 0.2061605006 -0.0740258545 0.1964504421 0.4072752297 0.5273749828 -0.1551531702 -0.0078959381 0.4227543175 0.0187119283 -0.0640084818 0.3857783973 0.2134958208 -0.1672838181 -0.0492627695 0.4533088207 -0.0718577281 -0.1052702367 0.0575656444 0.3667823672 -0.0839541703 -0.1265105158 0.1707371175 0.5846401453 0.3347190619 -0.0335426107 -0.0552482866 -0.0691438317 0.3824695349 -0.0116919689 0.4822044075 0.2256343663 0.2353545874 0.0450928397 -0.0494192578 0.5161341429 0.2363283187 0.1617419571 -0.0005015451 -0.1028070003 0.2522637844 -0.0974231809 -0.1101803854 0.6716921329 -0.1274015307 0.4095521271 0.3493575752 0.4778821766 -0.0003854216 0.4641743898 0.3188083768 0.4894180000 0.0949526578 -0.1796172261 -0.0373589173 0.0077362591 0.3379648030 -0.1981115192 0.7684869170 -0.0002072275 -0.1169091091 -0.0149713242 0.2851652503 0.4956513643 -0.0039182566 0.0432973355 0.0192744546 -0.0078809597 -0.0496474952 0.4159779251 -0.0359506346 0.4386540353 -0.0906258225 0.3277705312 0.0776984170 -0.0047863512 0.0325910412 0.2408920825 0.0377291255 0.3445886075 0.4477386773 0.1783904582 0.7357652783 0.3746147454 0.0528134219 0.1855989546 0.1024722755 -0.0436764322 -0.2021408528 -0.0667586252 0.0173511617 0.1918564886 0.2841863036 0.3366670609 -0.0517910160 0.0346330553 0.5305722356 0.0307131968 -0.0084665231 -0.0458975323 0.1354453117 0.1286809146 -0.0149578247 -0.0884411708 -0.1095997617 0.4194127023 -0.1535585076 -0.0121243708 0.1776381135 0.1207557917 -0.1650935858 0.2568992078 -0.1079442501 -0.0732905120 0.1912419498 0.2384834439 -0.0756411552 -0.1117316410 0.4204536080 0.1431803107 -0.1097891703 0.1136875451 0.1034095660 0.0627947897 -0.0450725853 0.1529102921 0.2198919058 0.1824769825 0.1245421991 0.6264044046 0.1637181044 0.0870387554 0.3362720609 -0.0303547923 -0.0976084769 0.0000991840 0.0755939633 0.0137060750 0.6854220629 -0.1076190397 0.0508338846 0.0111680888 0.4142197073 0.1929964572 0.7034434676 -0.1518867612 0.1976246238 -0.2535027862 0.1745666713 -0.1224178970 -0.1175538227 0.1423559040 0.3364607096 -0.1005160362 0.3401424885 0.8391008973 0.1770246178 -0.2432630360 0.2556543946 -0.1252919734 0.0528729558 0.1321453452 0.0046527092 0.5813149810 0.3571092188 -0.0980795249 0.0365786739 0.0003912896 0.2594788074 -0.0557755381 0.2153033912 -0.1715828925 -0.1033742949 0.3492501676 -0.3204701543 -0.1056459695 0.2585174143 -0.0931540281 0.3053221405 -0.0780810341 -0.0815644562 0.6103684902 0.1994277239 0.3229016662 0.5354494452 0.3542450368 0.3868855536 0.1376865059 0.1884902418 -0.1302227676 0.0025555952 -0.1553349793 0.0215590075 0.0740014240 -0.0049928869 0.3584859073 -0.0566880777 -0.0525545627 0.2907175720 0.5911567211 0.0245927479 0.0740258396 -0.2276401818 0.1245092675 -0.1346373558 0.0956069902 0.1373551786 0.4260853529 0.3884197474 -0.0922184810 -0.1423032880 0.3294403255 -0.0871180370 -0.1010046303 -0.1146233007 -0.0372500569 0.5959029794 0.4492974579 -0.1763318926 0.7724174857 0.2287149727 0.3258676231 -0.0400344692 -0.1991527230 -0.1001862884 0.5356658697 0.4157257378 -0.0980611965 0.5933251977 -0.0281364135 0.0730117634 -0.1003812030 0.2128946781 0.4034633040 0.2242834717 -0.0894583985 -0.1055493504 0.2501314580 -0.0195054114 0.0382434353 0.5867719650 0.2065732330 -0.1844437420 0.0588572733 0.1388189942 -0.0697384477 0.1034801230 0.1944726855 -0.1047774106 0.4026567340 -0.0073414678 0.2535113096 -0.0042846985 -0.1217130274 -0.1456825137 -0.2269351035 -0.1348218769 0.4864501655 0.0920867622 -0.2332301885 -0.0393269025 0.0761541724 0.4130900502 0.7281575799 -0.0899806023 -0.0484557375 0.0816742480 0.3158575892 0.3543770015 0.1447964758 -0.2681522667 -0.0813524947 -0.0881654546 0.8574889898 -0.0297329873 0.3221643865 -0.1174533665 -0.0242835023 0.0146506559 -0.0106958989 0.1361772120 0.4359972179 0.0777890161 0.0179138090 0.0515466146 0.1837403178 0.5727378726 0.0027289875 0.4682291448 0.0163160618 -0.0227270313 0.0004746760 -0.1189848632 0.6252408028 0.3316249847 -0.1741624177 -0.0089129843 -0.1454689801 0.3776967227 0.0281519685 0.2293507010 -0.1132573187 0.0004851883 -0.1166155562 0.0703897923 -0.0398077630 0.1492147446 0.4653435349 0.2758030891 -0.0912847668 0.2148727328 0.1448820382 0.0776546746 -0.1421019733 -0.1534442455 0.1854591817 0.4593587816 -0.0510509089 -0.1068385169 0.2569554746 -0.0885779858 0.3606694341 0.1068897769 -0.0080145188 0.3779106140 0.3989305496 -0.1669710279 0.5543373823 0.3325822949 0.1133146510 0.2457308620 0.4505814314 0.0099188434 0.1460151821 -0.0205177367 0.2935492694 -0.0915940553 -0.0969207659 0.1995623708 0.0234267581 0.3327085674 0.0345594026 0.0063183643 0.3411071002 -0.0799079314 -0.2408311367 -0.1434511691 0.0188266840 -0.0032686177 -0.0777781457 -0.1405053288 -0.0038362369 -0.1114772707 0.5466329455 0.1302163452 0.1322305501 -0.1341633350 0.2260356694 0.0630254596 0.3606449068 0.3010630012 -0.0903801024 -0.2065057456 -0.0146346465 -0.0540795140 -0.0275824703 -0.0370585397 0.0210554246 0.6622247696 -0.2016510218 0.3012548685 -0.0617278256 -0.0635740086 0.1279549450 0.2456341237 0.4520947039 -0.1828324944 -0.1605263352 -0.0974140465 0.0446265228 -0.0078437254
09f6fb56fba94662bb22210fa02c66c0__52.36_72.45 0.0398031175 0.2631197274 0.2917023003 -0.0233318787 -0.0231069252 0.2765134573 0.8813689947 0.4872689843 0.3116895854 0.1072599366 0.2263007015 -0.0381439924 0.0645887181 0.1965378523 -0.0605005175 -0.1541948766 0.4958058596 0.5150577426 -0.0562975481 -0.1840103567 0.3456336558 0.3856341541 -0.0909160972 0.2719668448 -0.1122614816 -0.0389927737 0.2371123880 0.1557231843 0.1232244819 0.4420495629 0.9572322369 0.1454802901 0.4004274309 -0.0255867392 -0.2125824988 0.5520784855 0.5740327239 0.0318259597 -0.0032986854 0.2406180650 -0.0386218876 0.0857823938 0.3109582663 0.8164557815 0.2424825132 0.7135435343 0.2053905129 0.2705239356 -0.2021356821 -0.2312495708 -0.1396929473 0.2343952209 0.0410317481 0.0910174027 0.4128854573 0.2096281946 0.7359752059 0.0122363921 0.3690069914 -0.0500251241 0.3686141670 -0.1650413871 -0.0279191602 0.0486887023 0.4653664529 0.0784021541 -0.0854238644 0.4316252172 0.4937170446 0.2579487562 -0.1782822460 -0.1257166117 -0.2098680884 0.1089192852 0.0084652565 -0.2925479412 0.1679673046 -0.2403831780 0.5168100595 -0.0945717618 -0.0420355275 0.0574617721 0.4346797168 0.0338985249 -0.0753773823 0.3519732952 0.3028315306 -0.1597111076 0.4067350626 -0.1937249005 -0.2088111341 0.3069871068 0.6458269358 -0.1130708829 -0.0825032294 0.6488400698 0.0184249822 -0.0729424208 -0.1157050282 0.2387244999 -0.0997866988 -0.0210889839 0.0026410513 -0.2058947980 0.0402292013 -0.0534460135 0.6514037251 -0.1332086772 -0.0385183394 -0.1118030995 -0.1437995434 -0.2277576625 -0.1105884612 0.7809596658 0.3454791009 0.6738246083 -0.2191229761 0.1050552800 -0.0457368642 -0.0009802229 0.2220543921 0.6466340423 0.2560724020 0.4285442233 0.5767321587 0.6813991666 -0.3031262457 -0.0416053645 -0.1308917552 0.4887180328 0.4820959866 0.2120792866 0.3089221418 -0.2310544848 -0.1340339631 0.2742246389 -0.1946663260 0.2871916592 0.0144573245 0.7948020697 -0.0038618417 0.1150235608 -0.0961890593 0.1921365261 -0.0480614901 0.1272860020 0.5703065991 -0.1453749835 -0.1211065948 0.3042789996 0.2675311565 0.1781176329 -0.1828570366 -0.0119353794 0.0575577468 -0.1195349619 0.2125853747 0.3775967062 0.4512088299 0.2579090297 0.1651466936 0.1511862725 0.1888664961 0.4421392381 0.1105286330 0.0095271440 -0.0938366503 0.3001810610 -0.1020695493 0.3324052691 0.2596231699 0.2676278055 0.1494478583 -0.1421131343 -0.0484541915 0.6104853153 -0.0598396137 -0.0738878623 -0.2089617997 0.0115601243 0.0074757459 -0.0888983533 -0.0203948934 0.3257699013 -0.0970319510 0.0217490792 -0.0511241108 0.3982024193 0.0454867929 -0.0184351727 0.3937777579 0.1370357275 0.2932338119 0.0755091235 -0.2123180777 -0.0080468887 0.1538683474 -0.1210223585 0.1215465218 -0.0708436370 -0.1830262095 0.1613901407 0.0947678015 0.1620231420 -0.0761680081 0.0814753324 0.4842101038 0.0174643248 -0.1436263621 0.1718915999 -0.0971251503 -0.0195761919 0.3401532471 0.1611315608 -0.0832762644 -0.1727984846 0.0779244453 -0.2230768800 0.0166826025 -0.0939824209 0.2073341608 -0.1013369411 0.1188361421 0.4941243231 0.6813098192 -0.1494615227 -0.0321766697 0.5516995192 0.0897096917 0.0799034759 0.3414672911 0.1484146118 -0.1669051498 -0.0248629805 0.5797524452 -0.0766219348 -0.1028612256 0.1101313010 0.4297645986 -0.1069380790 -0.1473821998 0.1781079024 0.5790174603 0.4606592357 -0.0235624071 -0.1220412701 -0.0266326424 0.3871714473 -0.0459028929 0.6726613045 0.2595727146 0.2732911110 0.1128196418 0.1072806269 0.4042025208 0.1520840079 0.1804456711 -0.0042088032 -0.1020935997 0.3275536895 -0.1254357845 -0.1141903698 0.7558791041 -0.1140362397 0.3737808764 0.2535419166 0.5639173388 -0.0242251083 0.5297428966 0.3307354450 0.4660005569 0.0276562739 -0.1936804503 -0.0204669833 -0.1405682117 0.2957006693 -0.2105045021 0.8152897954 0.0010005004 -0.0478711277 -0.0284318738 0.2371708900 0.6753644943 0.0002960693 0.0469222292 -0.0044451468 -0.0037680825 -0.0344893523 0.4933300018 -0.1036650091 0.3115847409 -0.1168256626 0.4477669597 0.2386182845 -0.0006780513 0.0370538123 0.2112531364 0.0038126400 0.2871128321 0.3858992159 0.2034558803 0.5970377922 0.4826593399 0.0945619792 0.2212013304 0.0083804112 0.0244035702 -0.2380476296 -0.0676844642 -0.0180675313 0.1126014739 0.2911370397 0.3607328534 -0.0510897823 0.1443926096 0.5210063457 0.0220579989 0.0040891394 -0.0235840045 0.2343484759 0.1368009299 0.0395208225 -0.1009022966 -0.1072338820 0.2620174289 -0.1558732986 -0.1714062691 0.2994180024 0.1343640536 -0.0296389498 0.2826992571 -0.1007992849 -0.0799498260 0.2369567901 0.2928245962 -0.0916442722 -0.0953002349 0.6295982599 0.2443121374 -0.1087592840 0.1816554666 0.0782356039 0.0810291395 -0.0469988883 0.1773646921 0.2508712113 0.1603793949 0.1970361173 0.6521499157 0.2510357201 0.1593053192 0.4510646760 -0.0140242968 -0.0745331943 0.0828991309 0.0875045061 0.1120715886 0.7462339401 -0.1318236887 0.1448927224 0.0307711381 0.4226146042 0.1893909723 0.6149966717 -0.1859979630 0.3315853179 -0.2863295674 0.2362643331 -0.1653752625 -0.0332038589 0.2323159873 0.3926774263 -0.0998044759 0.4284696579 0.8302489519 0.2764775157 -0.2857529819 0.2555869520 -0.1619542241 -0.0295148082 0.1230837479 0.0037771922 0.6952686310 0.3051294386 -0.0822768211 0.0312792249 -0.0247761905 0.3817321360 -0.0506275035 0.2596162856 -0.1791670024 -0.1095879748 0.3171083331 -0.3749283552 -0.1189633906 0.2916572690 -0.1192587912 0.4192761481 -0.0208318904 -0.0828739256 0.7977588177 0.2136020958 0.3241616488 0.4785436988 0.5458866954 0.2968976200 0.1787843108 0.1743266582 -0.1560404152 -0.0169763379 -0.1019681394 0.0877906457 -0.0670876428 -0.0018926389 0.3970008194 -0.0846852660 -0.0506152511 0.3448221385 0.5671933889 0.1259720027 0.1626893878 -0.2273511440 0.1804144830 -0.1414530724 0.0114947949 0.1152466834 0.4689945579 0.3633575737 -0.1196224019 -0.1595252901 0.4610247910 -0.0044061504 -0.0341139063 -0.1250488907 0.0023011696 0.5268293023 0.5334740877 -0.1840679795 0.9423738122 0.2595100403 0.4580348432 -0.0230620839 -0.2280505598 -0.1391969770 0.5673686862 0.2894629836 -0.1127376556 0.6367301941 -0.0321138985 0.0990797058 -0.1050831527 0.1951442957 0.4707778096 0.3154180050 -0.0814271048 -0.1097318828 0.2603814900 0.0034545837 0.0518878847 0.6336916685 0.1743143946 -0.2213508338 0.0631984025 0.1631189436 -0.1294558495 0.1432919055 0.1654690653 -0.1212766618 0.3747157753 0.0082784938 0.3308823109 0.0442074575 -0.1026565880 -0.1540637910 -0.2428739965 -0.1609406024 0.5479727983 0.0898977667 -0.2624575794 0.0035142992 0.1170114651 0.3896011710 0.6398803592 -0.0777209550 -0.0247679763 0.1130428761 0.3602370918 0.3663476110 0.2632683218 -0.2809576988 -0.0686783195 -0.0957522169 0.8495352268 -0.0920290127 0.3555095792 -0.1502444148 -0.0613559447 0.0686743408 -0.0300120376 0.0459641442 0.3579603136 0.0440960377 -0.0674668476 0.1162884086 0.2580645084 0.7020279169 0.0770006850 0.4416499734 0.0262886696 -0.0251439102 -0.0585963093 -0.1138441786 0.7450177073 0.2984087169 -0.1764637530 0.0980428979 -0.1666441709 0.3702548146 0.0536391735 0.2585272789 -0.1332644075 0.0297066979 -0.0044790450 0.0663790628 -0.0854423493 0.0978327394 0.6475144625 0.2359481305 -0.0973579586 0.1253392696 0.2035506666 0.1368081719 -0.1411109418 -0.1343344599 0.2717021108 0.5478078127 -0.0513344072 -0.0989359990 0.2663784623 -0.0448492058 0.2484020442 0.0924675316 0.1048981622 0.5158896446 0.4423780143 -0.1555244476 0.5276048183 0.4497038126 0.2442765832 0.3218871951 0.4873695374 0.0040148590 0.3255534172 -0.1241196692 0.2171833515 -0.1083259359 -0.1074946672 0.2131318003 -0.0515216887 0.4752557576 0.1246627346 -0.0707628801 0.3680106997 -0.0600865409 -0.2664154470 -0.1585015208 0.0349567309 0.0043059019 -0.1085622013 -0.1565152854 0.0011316054 -0.1506203860 0.4712931514 0.1715045273 0.0743681639 -0.1847304851 0.3295550048 0.0735788420 0.5376477838 0.2311648279 -0.1097877473 -0.2250029445 -0.0342028663 -0.0662996694 -0.0293568708 -0.0161230117 -0.0217253864 0.6455819607 -0.1993438452 0.4461179674 -0.0622582361 -0.0872610360 0.1438204944 0.2394748330 0.4460219443 -0.2105915546 -0.1772646606 -0.1079930067 0.0666475594 -0.0320914388
09fac9724c46ab7f07e15e171c1f665f__5.69_58.44 0.0242374334 0.1868045330 0.2342634052 0.1028297171 -0.0410074666 0.2950148880 0.6425741315 0.4312498569 0.3087631762 0.1516327709 0.2375261039 -0.0348336995 0.0382617675 0.1200341880 -0.0772995353 -0.1284338981 0.3329783082 0.3909359574 -0.0893248320 -0.1540382951 0.2178731263 0.3242009282 -0.1116723940 0.2719765902 -0.1078978255 0.0334318690 0.2293099016 0.2953368425 0.1098762602 0.4778754115 0.6108605266 0.1239543483 0.3490366638 -0.0173728522 -0.1877387464 0.3669143021 0.3603320420 0.0912386850 0.0747691914 0.1773129702 0.0273136310 0.0525909513 0.2708796561 0.5877002478 0.2426202297 0.5521669388 0.2848769724 0.2259295434 -0.2058406770 -0.2261080742 -0.1333385557 0.2637289762 0.0169702768 0.0889443830 0.3823712468 0.2005416900 0.4833772480 0.0685281008 0.3058047891 -0.0431746803 0.2477657348 -0.1167214066 0.0063238209 0.1155521199 0.4711506963 0.0706641749 -0.0898710489 0.5029483438 0.4150189161 0.2537540197 -0.1696930230 -0.1052488387 -0.1868313849 0.3349723816 -0.0121352039 -0.2526453137 0.1826094091 -0.2375243008 0.4307475984 -0.0758188590 -0.0309407152 0.0477212071 0.3762003779 0.0643502548 0.0172148235 0.4184765518 0.2595570683 -0.1339845061 0.3770473897 -0.1955555379 -0.1886576414 0.3120627999 0.4414553344 -0.1098243669 -0.0851734951 0.5323135853 -0.0452824831 -0.0724841058 -0.1099829301 0.2052229941 -0.0915548056 0.0278903767 -0.0336732529 -0.1806434691 0.1073946655 -0.0161388088 0.5408852696 -0.1100202203 -0.0870217681 -0.0679033697 -0.1592188776 -0.2166957408 -0.0009696092 0.5011065602 0.2715499103 0.5517855287 -0.0243097637 0.0802169666 0.1350430548 -0.0140359644 0.1522206068 0.5480979681 0.2010749429 0.3364651501 0.4152735174 0.6732597947 -0.0285122022 -0.0229921881 -0.1280121803 0.3735991418 0.3108920455 0.2487547547 0.1911425740 -0.1993605345 -0.0095835179 0.1775087267 -0.2072557807 0.2665915191 0.0511155874 0.6538833380 0.0318731517 0.0758735165 -0.0995976105 0.2463192642 -0.0561571494 0.1893241107 0.3683635890 -0.0061051766 0.0347499289 0.2103610784 0.2232463211 0.1097405180 -0.1577898860 -0.0261877272 0.0368346497 -0.1375106275 0.2590617836 0.3233348727 0.3927381039 0.1634611487 0.1365529597 0.1133400574 0.1797598302 0.3336924016 0.1238869578 -0.0108464779 -0.0938623622 0.3779882491 -0.0910779834 0.3178261817 0.2191201448 0.1554015130 0.1189113855 -0.1414631456 0.0511933602 0.4550682306 -0.0704878122 -0.0638733655 -0.1978473365 0.0019123476 0.0341890566 0.1378399581 0.0287448857 0.2267687917 0.0933334082 0.0785628557 -0.0649494231 0.2641500831 0.0457283892 -0.0254116580 0.2711301744 0.1480771154 0.2311646938 0.0434410423 -0.1804615259 -0.0377178565 0.3526016474 -0.0944576636 0.3194454312 -0.0136618000 -0.1751481444 0.2219219655 0.0914419964 0.0934512541 -0.0646427125 0.2637332678 0.3112081587 0.0154923722 -0.1210873500 0.1326456815 -0.0861622244 -0.0335216485 0.2913578451 0.1705127507 -0.0722282156 -0.1420625001 0.1729459018 -0.0839073807 0.0187806375 -0.0087776911 0.1910360903 0.0640791506 0.1727278680 0.3102332354 0.4683633745 -0.1453273445 -0.0386394858 0.4446832240 0.0988574401 0.0049341456 0.3092566431 0.2166342884 -0.1751916856 -0.0066598468 0.4068411291 -0.0747531280 -0.0990231484 0.1215755492 0.3895765245 -0.0936359316 -0.1573738903 0.1134844944 0.5143622756 0.3075786829 -0.0193454679 -0.0136851929 0.0470641963 0.3508947492 0.0541963205 0.4243966043 0.1662422419 0.2086859494 0.1003094316 0.0903738290 0.5091614723 0.2324848622 0.1813282818 0.0707540661 -0.0869696140 0.2859891653 -0.1108861268 -0.0845492110 0.5126647949 -0.1325409710 0.2953650951 0.2906390727 0.4042873979 0.0063494788 0.5559955239 0.2795976996 0.4236817658 0.2083910555 -0.1568568349 -0.0172641706 0.1474329680 0.2444466949 -0.1892414093 0.5415011644 -0.0433764756 0.1144952998 0.0125597296 0.3964516819 0.4703147411 0.0288354419 0.0016183131 0.0994779021 0.0458175987 -0.0324364379 0.3339684308 -0.0074196188 0.4592902660 -0.1152597144 0.3529168069 0.1817986518 -0.0113223717 0.0206935871 0.2577742636 0.0693919286 0.3589550555 0.3982336223 0.1146837994 0.5572167635 0.3272520006 0.0822448656 0.1796972156 0.2360259444 -0.0192523859 -0.1767784357 -0.0544766635 0.0418041795 0.2157247663 0.4107019007 0.2655017078 -0.0599856563 0.1511068344 0.3486541212 0.0285057761 0.0018359402 -0.0358370095 0.1730152071 0.0999202728 0.0688967109 -0.0901041031 -0.1051541418 0.4814344049 -0.1224335209 0.0217194427 0.2612196505 0.1054158211 -0.0803128332 0.3314458132 -0.0867966264 -0.0930651352 0.1537200958 0.1860619038 -0.0755947307 -0.0919521675 0.4608581066 0.2496507317 -0.0940640271 0.1796808392 0.1676725745 0.0237523708 -0.0433696508 0.1767619997 0.2238530815 0.2334163934 0.1670054197 0.5423319936 0.2634478807 0.0677930266 0.3683814406 0.0882038251 -0.1046908721 0.1206394359 0.1696875393 0.1262376457 0.5152553916 -0.1099322438 0.1049563736 0.0593333989 0.2749682963 0.1488770097 0.6233887672 -0.1503733993 0.2298931032 -0.2492430508 0.1613940299 -0.1491039693 0.0818041265 0.2105470151 0.2593805790 -0.1054548472 0.3782862723 0.7053287029 0.2110515535 -0.2373957783 0.2368280143 -0.1382023394 0.1751016974 0.1421540231 -0.0083903978 0.5032113194 0.2619298995 -0.0972669646 0.0186795332 0.1103794351 0.2473900616 -0.0553580262 0.1909550130 -0.1837544143 -0.0806558877 0.2783063650 -0.3235715628 -0.1205359846 0.2673503757 -0.1022676304 0.2681426108 -0.0141026517 -0.0924089253 0.5173165202 0.1977255493 0.3411997259 0.3790457249 0.3655934036 0.4214047790 0.2048463970 0.2747457027 -0.1295671910 -0.0191283263 0.0132872183 0.0547237396 0.1550669670 -0.0142191052 0.2746869624 0.0927455649 -0.0440722443 0.3780666888 0.5017138720 0.0545603335 0.1478454471 -0.2163413614 0.0973238572 -0.1512672752 0.0401606932 0.1780447513 0.4235670567 0.2565891445 -0.0946468189 -0.1455692649 0.4274459481 0.0392843261 0.0228324905 -0.1160379648 0.0366322771 0.4563382268 0.3686685860 -0.1882913560 0.6586828828 0.1651104838 0.3282720447 -0.0573523417 -0.1758634299 -0.1134125441 0.4262397587 0.3855154216 -0.0993133709 0.4430623949 -0.0349546596 0.0488806516 -0.0838002190 0.1518430263 0.3058492541 0.1900241077 -0.0921401680 -0.1017372236 0.2484443337 0.0396995693 0.1006590500 0.4636075199 0.2438441962 -0.1769914925 0.0366527773 0.1158471927 0.2048905492 0.0872299597 0.1453403234 -0.0952326953 0.3593908846 0.0610755160 0.2761729360 0.1068025604 -0.1132043302 -0.1620263010 -0.2331307083 -0.1537217051 0.3528449237 0.1117601916 -0.2359823883 0.0764083415 0.0651289597 0.3447903693 0.5917669535 -0.0975953341 0.0340963006 0.1124921367 0.2785582244 0.2428569645 0.2133424282 -0.2598951757 -0.0570374317 -0.0984954461 0.5764729977 0.0097108651 0.3745898604 -0.1228509247 -0.0587843992 0.0848093182 0.0974592417 0.1661279351 0.3392151892 0.1978684217 0.0924443230 0.1363559812 0.2442823350 0.5680024028 0.0716863126 0.3521792293 0.1717395484 -0.0098634921 0.1517045796 -0.1119240820 0.4672762752 0.1801536530 -0.1682668477 0.1307112426 -0.1415593624 0.3618577421 0.1352618784 0.1771798432 -0.1113332212 0.0068703918 0.1031772569 0.0172362551 0.1103750020 0.2062022835 0.4000319541 0.2633374035 -0.1051082239 0.3280916810 0.1445746422 0.1125392914 -0.1378733069 -0.1288028955 0.1814654022 0.3492244482 -0.0379609764 -0.1253041476 0.2231689543 -0.0121483570 0.2997079492 0.1222681478 0.2385033965 0.4197537601 0.3125332296 0.0290523767 0.4655002952 0.3550846279 0.2348239124 0.2054890245 0.3755623102 -0.0286551826 0.2415481508 0.0920543224 0.3639942110 -0.0884744599 -0.1232710332 0.2406006455 0.1665794551 0.3614627719 0.1465921253 -0.0240176264 0.2935378850 0.0055546230 -0.2535131872 -0.1551845521 0.0224279128 0.0450348891 -0.0842280462 -0.1225243807 0.0918180272 -0.1211009622 0.5411207080 0.1786178797 0.1673417985 -0.1427232474 0.2090505213 0.0626282394 0.3893358111 0.3279159963 -0.0819911361 -0.2103331983 0.0101533830 -0.0701648965 -0.0031178908 0.0160293765 0.0353543945 0.5771840215 -0.1901454479 0.3080045283 -0.0740034431 -0.0820371360 0.1732623428 0.2646689415 0.3365840018 -0.1641807109 -0.1492634714 -0.1017641351 0.0477988124 -0.0292775631
0a71d8ac7cff364d310200ffd2752b91__91.90_108.18 0.0297352988 0.1874290854 0.2047991455 0.0502629951 -0.0306854695 0.2412636578 0.6177486181 0.4848728478 0.3209026456 0.0714956895 0.2189036757 -0.0273796730 0.0404800586 0.1463921666 -0.0558823720 -0.1269620657 0.3773336112 0.4182426333 -0.0533681512 -0.1520178467 0.2769584656 0.3268859386 -0.0989066288 0.2510967255 -0.1063352600 -0.0132383034 0.2475611866 0.2191613913 0.0863558799 0.4784322977 0.7549458146 0.1049297750 0.2912305892 -0.0084283631 -0.1714246422 0.4391356409 0.4501660466 0.0520799235 0.0374206267 0.1720634550 -0.0724609867 0.0278070159 0.2824839950 0.6153513789 0.2259356380 0.5209075212 0.2304822803 0.1668816060 -0.1908533573 -0.2074356973 -0.1291849315 0.2573715150 0.0180847291 0.0570348203 0.4282648861 0.2015360296 0.5747014880 0.0349773243 0.3225686252 -0.0408658423 0.2947884500 -0.1146542653 0.0003491732 0.0413877927 0.4889511466 0.0447567031 -0.0779720545 0.4581618905 0.3594934046 0.2058460563 -0.1758479774 -0.0983061194 -0.1925303638 0.2262063622 -0.0128821209 -0.2464607209 0.1991619766 -0.2271839827 0.5035265684 -0.0774061307 -0.0160015896 0.0023386274 0.4297529161 0.0383557864 -0.0520983227 0.3205838203 0.2285235077 -0.1249904111 0.3232214451 -0.1734475791 -0.1720227152 0.2862868905 0.5116443634 -0.1093089953 -0.0697547719 0.6204863787 -0.0448783562 -0.0660595298 -0.0985326692 0.1963772178 -0.0916543603 -0.0202723108 0.0105395755 -0.1834386885 0.0103332251 -0.0082742544 0.5899612308 -0.1075028032 -0.0643822029 -0.0750528574 -0.1379897147 -0.2086137980 -0.0266392883 0.5526464581 0.3174791038 0.6229913235 -0.0469015352 0.1034790799 0.0168032311 -0.0028525800 0.1850382984 0.5869308114 0.2076837122 0.3106520176 0.4071801305 0.6968808174 -0.0976101384 -0.0363804698 -0.1179115400 0.3702985644 0.3603448272 0.2086032331 0.2398984283 -0.1955506802 -0.0381539688 0.2158376873 -0.1903661788 0.2938728034 -0.0122465212 0.7338568568 -0.0223278478 0.0992187411 -0.0893380195 0.2119127363 -0.0559544004 0.1541649103 0.4344663322 -0.0468524247 -0.0031464566 0.2329630256 0.2376318723 0.1023934111 -0.1537039429 -0.0406516381 -0.0034037833 -0.1029943451 0.2319792509 0.3440735340 0.4186390936 0.2080254853 0.1690158993 0.0597502664 0.2036547810 0.3177100122 0.0188290607 -0.0010886732 -0.0891030058 0.3071890175 -0.0685562938 0.3633532524 0.2352983654 0.1967641264 0.1096606627 -0.1316115856 0.0039314618 0.4068746567 -0.0559188463 -0.0667432472 -0.1925344765 0.0098067503 0.0162437484 0.0415329114 -0.0231674109 0.2046523392 -0.0104964152 -0.0138258860 -0.0554597452 0.2703292966 0.0506484956 -0.0312870704 0.3391521573 0.1127133071 0.2148796022 0.0518208817 -0.1902074218 -0.0066343378 0.2750897110 -0.0907973126 0.1635950506 -0.0173130091 -0.1574961394 0.1411548257 0.0695940182 0.1132288948 -0.0649975836 0.1581815332 0.3608909547 -0.0010789484 -0.1246230528 0.1099418998 -0.0791090801 -0.0406145342 0.2842921615 0.1326886266 -0.0708477870 -0.1372187585 0.1162908450 -0.1983098239 -0.0032173153 -0.0371446908 0.1842371225 -0.0503250621 0.1544815451 0.3829622269 0.4735248387 -0.1519204527 -0.0525132008 0.4504657984 0.0793195143 0.0329370797 0.3142961264 0.1839716882 -0.1577961743 -0.0453872010 0.4091908336 -0.0675558820 -0.0982358754 0.1171329767 0.3722234070 -0.0865410864 -0.1391790211 0.1277057528 0.5726370811 0.3372210860 -0.0104805622 -0.0360293724 -0.0098438021 0.3735959828 0.0019184947 0.4864391983 0.2059724629 0.2544855475 0.0514597110 0.0550763346 0.4747351408 0.2276283950 0.2051866204 0.0671857148 -0.0892739519 0.2939602137 -0.1030832008 -0.0949396789 0.5617586374 -0.1180707291 0.2745589018 0.2477255762 0.4146116674 0.0018267937 0.5491685271 0.3211827278 0.4686355591 0.0654651672 -0.1623496860 -0.0187033452 0.0565998293 0.2573559284 -0.1937863380 0.6502478123 -0.0416816063 0.0230750386 -0.0036699725 0.2948848903 0.5363729000 0.0107663339 0.0021333294 0.0190651007 -0.0024953184 -0.0288203992 0.3848462999 -0.0326908827 0.4327588677 -0.1084564030 0.3029329181 0.1593324393 -0.0137862023 0.0293483678 0.2576687336 0.0049797436 0.3027542531 0.3409434259 0.1327109039 0.5753783584 0.3562280536 0.0731900409 0.1753184199 0.1497071087 0.0167504884 -0.1788487434 -0.0576419830 0.0079053715 0.1822559386 0.3622015715 0.3136046231 -0.0337859727 0.1221194863 0.3902080357 0.0158918202 -0.0050426647 -0.0176039264 0.1784835756 0.1156942546 0.0097726900 -0.0784899220 -0.0908540115 0.3510664105 -0.1281938702 -0.0155112147 0.2244572788 0.0724677965 -0.0462336428 0.3106026947 -0.0878575966 -0.0848795697 0.1652875543 0.2367987633 -0.0733038634 -0.0910812095 0.4463151097 0.1719273031 -0.0958559439 0.2062375844 0.1704220772 -0.0006807148 -0.0420083515 0.1940591633 0.2136428058 0.2462635189 0.1187527105 0.4730590284 0.2353661507 0.0939916596 0.3501186073 0.0323417559 -0.0810447484 0.0483602919 0.0995602012 0.1072250977 0.6180381179 -0.0950025767 0.0938001275 0.0317904763 0.3106070757 0.1493964642 0.6726023555 -0.1507442743 0.2139162123 -0.2322711498 0.1602906585 -0.1358101070 0.0052391053 0.1967906803 0.3164381683 -0.0877521411 0.3345003724 0.6982275248 0.2036873102 -0.2351469249 0.2070514113 -0.1214639619 0.0238805078 0.1155059338 -0.0009972500 0.4917613268 0.2768843472 -0.0870056152 0.0027375659 0.0462165847 0.3080742657 -0.0448176451 0.1867387146 -0.1733999997 -0.0785029456 0.2482618541 -0.3199898601 -0.0960636586 0.2827026248 -0.1092583537 0.3134196997 -0.0310933646 -0.0812753141 0.6070249081 0.2214172632 0.3677628934 0.4084503949 0.4257242382 0.3983291090 0.1906728595 0.2762906849 -0.1330522150 -0.0475186333 -0.1245009899 0.0499482602 0.0277428813 -0.0069067604 0.3203496039 -0.0071553886 -0.0416249447 0.2960565388 0.5680876970 0.1054228693 0.0779446661 -0.2083349228 0.1103993431 -0.1376241148 0.0046078265 0.1248340830 0.4092256427 0.2773817182 -0.0866505653 -0.1332543641 0.3540225029 -0.0355766565 -0.0571079105 -0.1055812836 -0.0466988608 0.4341454506 0.4491240680 -0.1743217558 0.6831961870 0.1882507354 0.3439645469 -0.0491234511 -0.1809288859 -0.1052136719 0.4155690670 0.3435686529 -0.0880127922 0.4743484855 -0.0251621380 0.0589594468 -0.0864166841 0.1683857739 0.3353261948 0.2330472916 -0.0960247368 -0.0857755765 0.2461542487 0.0036349902 0.1026210189 0.4661088884 0.1790126115 -0.1877032369 0.0561697036 0.1151979268 0.0325152129 0.1153181419 0.1524860263 -0.0833706707 0.3455606103 0.0356654711 0.2460799068 0.0531518608 -0.1068152040 -0.1242517605 -0.2196118087 -0.1238883063 0.4140544832 0.0597476140 -0.2188177854 0.0242199879 0.0935674608 0.3077804744 0.5797518492 -0.0927820802 0.0376891978 0.0817317441 0.2878138125 0.2898298502 0.2692779005 -0.2349053621 -0.0616250671 -0.0854586884 0.6780649424 -0.0616045594 0.4021497667 -0.1153082475 -0.1010378152 0.0456544086 0.0261901319 0.1336130053 0.2961664498 0.1113681421 -0.0087454338 0.0751279294 0.1774158329 0.5348168612 0.0375997871 0.3969683349 0.0924397260 -0.0091992822 0.0510914028 -0.1082004458 0.5559349060 0.1996715963 -0.1632504016 0.0351082534 -0.1340079904 0.3467314243 0.1502725035 0.1791045368 -0.1139314473 0.0080269082 0.0370073356 0.0211753063 -0.0184156280 0.1535084695 0.5008483529 0.2760347128 -0.0880838335 0.2178705484 0.1579859257 0.0893850029 -0.1227984354 -0.1309672594 0.2109918445 0.4337069988 -0.0295934677 -0.1122677326 0.1930355132 -0.0626195818 0.2539151609 0.0917799100 0.1075172275 0.3886308670 0.3334257007 -0.1008904576 0.5010575056 0.3713001907 0.1609227359 0.2503980994 0.3558671474 -0.0149599258 0.2186372280 0.0572691187 0.2638441920 -0.0933398381 -0.1111933812 0.2426540405 0.0478171781 0.3125214875 0.0798242837 -0.0903109536 0.2663287520 -0.0118326386 -0.2495823652 -0.1427901089 0.0195219796 0.0608743913 -0.0720832124 -0.1189171597 0.0527770631 -0.1235736236 0.4344017208 0.1943859458 0.1544968486 -0.1176987588 0.2504068315 0.0791689679 0.3792031407 0.2687398493 -0.0846076757 -0.2018042356 -0.0016677608 -0.0639946163 -0.0256574303 -0.0499362648 0.0191759448 0.6437354684 -0.1826452464 0.3409124017 -0.0597353056 -0.0719142631 0.1168988124 0.2007921636 0.3188676238 -0.1609980017 -0.1503899395 -0.0920794457 0.0536152050 -0.0258597322
0a740dab8fd0e4301edf3057b5c27c27__2221.63_2287.29 0.0301777329 0.1634817272 0.3144635856 0.0459594503 0.0271003339 0.2641440034 0.7156385183 0.2933338881 0.2102538198 0.2424313724 0.1907534152 -0.0305037647 0.0679397732 0.1382197738 -0.0703650564 -0.1450429261 0.3542553484 0.3004429936 -0.0913920254 -0.1599468142 0.2569801509 0.3127643466 -0.0924754143 0.2074034512 -0.0894619450 0.0245654434 0.1710543782 0.1920164078 0.2002930045 0.3053211272 0.6139233112 0.1187789738 0.3265683353 -0.0491648950 -0.2042975277 0.3881696165 0.4422042370 0.0421904735 0.0201795027 0.1874802113 0.1070546582 0.0957171097 0.2329623550 0.5780800581 0.3147111237 0.5535353422 0.3029307425 0.2596939206 -0.1887388378 -0.2167262584 -0.1294275373 0.1647796482 0.0036959667 0.1584969014 0.3034563363 0.2080622017 0.5936086774 0.0383613408 0.2247259617 -0.0630827546 0.2325278372 -0.1297425479 -0.0092426036 0.1983174980 0.3290906250 0.2314895838 -0.0737639517 0.3903950751 0.3902612031 0.2963439226 -0.1509366781 -0.1128595099 -0.1672259718 0.2372406125 -0.0153660215 -0.2388466895 0.1497909278 -0.2198462635 0.3944115043 -0.0698707625 -0.0097472183 0.0896150619 0.3461448550 0.1264282465 0.0093395468 0.4328359067 0.2326621711 -0.1357984692 0.4450377226 -0.1796217114 -0.1910041422 0.3968630135 0.4311921000 -0.0809003711 -0.0908276662 0.4786125124 -0.0547839478 -0.0784739256 -0.1290823966 0.1306037903 -0.0886688828 0.0205261186 0.0198898837 -0.1782095134 0.1154188141 -0.0392035507 0.3918073177 -0.1133933291 -0.0706889704 -0.0648563132 -0.1534208655 -0.2131078988 -0.0423570499 0.5504683256 0.2819193900 0.4289382994 -0.1466016322 0.1030019373 0.1106004342 -0.0071395957 0.1526688486 0.3626806736 0.2350405455 0.3662930131 0.4830167592 0.4754576087 -0.1737742275 0.0046628350 -0.1154523268 0.3425275683 0.3705138266 0.1950790733 0.2227163315 -0.1893984824 -0.0781822950 0.1948486418 -0.1976541877 0.2352707535 0.1234663054 0.5237326026 0.0875757784 0.0800216496 -0.1171107590 0.2127566040 -0.0615874268 0.1727657318 0.3172215223 -0.0875197873 -0.0253427438 0.1683193892 0.1765954494 0.1729193181 -0.1470347494 -0.0016946443 0.0937614292 -0.1361187100 0.1947440356 0.2397297025 0.2651713490 0.1487777531 0.1040401757 0.2319790721 0.1777925789 0.5051093698 0.2348468602 0.0232947618 -0.0848618597 0.3420501351 -0.0732194036 0.2473722100 0.1686182320 0.1612158716 0.1746064574 -0.1413516700 0.0674649030 0.6195744276 0.0265906621 -0.0708005801 -0.1792842895 -0.0180724207 0.0561806858 0.0746396333 0.0437813103 0.3079419136 0.1135007963 0.1881429702 -0.0546402112 0.3566815257 0.0322571844 -0.0059942384 0.2241047770 0.1508054882 0.3533917069 0.0429407135 -0.1684354842 0.0339514837 0.1628328860 -0.1074532419 0.2350946814 -0.0349726267 -0.1569616497 0.2311048210 0.1037221849 0.1124395281 -0.0571762510 0.2083678246 0.3489098847 0.0697645396 -0.1165939122 0.1541639864 -0.0843707547 -0.0371451937 0.2224882096 0.1724468917 -0.0694361329 -0.1625576317 0.1172134876 0.0015101553 0.0520518497 -0.0466058850 0.1672457457 0.0710515380 0.0885986313 0.3092792630 0.5518459082 -0.1292238533 -0.0369632468 0.5010274053 0.1622494906 0.1110627875 0.2170552164 0.1368301064 -0.1549131274 0.0216594711 0.4751921594 -0.0773265734 -0.0920756012 0.1489048749 0.4065535367 -0.1120840013 -0.1647491753 0.1049859673 0.4138580859 0.3710645735 -0.0144576114 -0.0678256154 0.0901766941 0.2978899181 0.0292347800 0.5197331905 0.1708058566 0.1999497563 0.1713255346 0.2300851047 0.3500173092 0.1341273636 0.1701500863 0.0504975244 -0.0931515619 0.3223467767 -0.1093851700 -0.0775510594 0.4924178421 -0.1170101985 0.2536654770 0.1899691373 0.4403854311 -0.0143226860 0.5434379578 0.2485557050 0.3330172300 0.1778580546 -0.1480807215 -0.0032128342 0.0264275745 0.1774525344 -0.1868445873 0.4864080548 -0.0277478788 0.2088707983 -0.0072448486 0.3394187987 0.5512331724 0.0257046744 0.0120193232 0.0991965681 0.0686745048 -0.0200944170 0.3482240736 -0.0511318110 0.3037430048 -0.1386892796 0.4432475269 0.3146909177 0.0023672380 0.0170966480 0.1935288608 0.0524701029 0.2966314554 0.3339039683 0.1089539453 0.3625006378 0.3732151091 0.1031261235 0.1932478547 0.1524025202 0.0362431295 -0.1876210719 -0.0497384667 0.0065900432 0.1236267984 0.3856711686 0.2312993109 -0.0527642332 0.2304553986 0.2930772901 0.0242313743 0.0114402883 -0.0038949652 0.2296620756 0.0903014839 0.1259493381 -0.0906171873 -0.0989868641 0.3372173309 -0.1009957790 -0.1205288619 0.3602034152 0.1077889502 0.0348904319 0.3140119910 -0.0711894110 -0.0937259719 0.1592925191 0.2019872069 -0.0716857687 -0.0838348418 0.6137046218 0.3498920202 -0.0788409710 0.2093604356 0.1176993027 0.0604474023 -0.0419517830 0.1655121297 0.2192237377 0.1799625158 0.2471859604 0.5320531726 0.3059414625 0.1206518188 0.4297582507 0.1146322116 -0.0713372529 0.2082555592 0.1912961453 0.2147276551 0.4738496840 -0.1182755083 0.1770236939 0.0767335519 0.2377325147 0.1423158050 0.4508262277 -0.1652176082 0.3285050392 -0.2367639989 0.1871065646 -0.1703593433 0.1834074259 0.2619511485 0.2490819991 -0.0967784598 0.4268510044 0.6220739484 0.2744273245 -0.2396996468 0.2258764952 -0.1571225971 0.1495800465 0.1208694056 -0.0107936570 0.5502464771 0.1812350154 -0.0734744966 0.0075937053 0.0971563160 0.3039394319 -0.0445055775 0.2067416012 -0.1754615456 -0.0772404522 0.2365876734 -0.3274025023 -0.1169706583 0.2387230694 -0.1086912230 0.3157230318 0.0434582680 -0.0966546983 0.5809918642 0.1660300940 0.2782895863 0.2673648000 0.4592381120 0.2969071269 0.2224108130 0.2081721425 -0.1351083368 -0.0084143486 0.1177845001 0.1110469252 0.0749046803 -0.0120038204 0.2424402237 0.1032448635 -0.0399195626 0.4077920020 0.4011344016 0.1195100918 0.2607810497 -0.1931938529 0.1390075535 -0.1469995826 -0.0182122346 0.1708829999 0.3990197182 0.1970366985 -0.1093506515 -0.1443154067 0.5213779211 0.1348820329 0.1083057895 -0.1139062196 0.1099613160 0.3425177932 0.3693214953 -0.1779555082 0.7446627021 0.1708647460 0.3975266218 -0.0410073027 -0.1833778322 -0.1301207393 0.4183892310 0.2408415079 -0.1095018089 0.4233411252 -0.0362533890 0.0574253798 -0.0775978118 0.1302734911 0.3150312304 0.2188147455 -0.0660826489 -0.0977933109 0.2207322717 0.0653724968 0.0835656151 0.4667484462 0.2148592472 -0.1904266924 0.0467035398 0.1143334135 0.1847702116 0.1106644571 0.1074802503 -0.0917692482 0.2949868739 0.0762792751 0.3173410296 0.1548418999 -0.1009992734 -0.1681043357 -0.2397082001 -0.1599730253 0.3384908438 0.1285334080 -0.2427970916 0.1174799055 0.0948679596 0.3073773980 0.4536422491 -0.0824916214 0.0281778481 0.1460234523 0.2860289514 0.2212736458 0.2768521309 -0.2371666878 -0.0431821495 -0.0911632404 0.4770621359 0.0120638385 0.3256695271 -0.1428414732 -0.0514089800 0.1356291026 0.0836574286 0.0821024328 0.2471127659 0.1719618142 0.0485083833 0.2125503719 0.3156252503 0.6312128901 0.1338503659 0.2708502114 0.1944378018 -0.0098192282 0.1112737656 -0.0953035653 0.4815796912 0.1295309216 -0.1534108520 0.2444134653 -0.1483175159 0.3254183829 0.1316622645 0.1770110875 -0.1129203290 0.0317159258 0.2055495679 0.0191143677 0.1199568957 0.1610752791 0.4681349099 0.1853639036 -0.0968536288 0.2435874939 0.1649779677 0.1466472298 -0.1207371652 -0.0904590487 0.2176674157 0.3516277075 -0.0192024466 -0.1175902858 0.2364453226 0.0399588309 0.2029685080 0.1055033356 0.3627602160 0.5145429373 0.3091112971 0.0768340901 0.3637386858 0.4161701798 0.3592514992 0.2164182663 0.3925792575 -0.0182121713 0.3730650544 -0.0210920908 0.2948340178 -0.0855223984 -0.1249170080 0.2163828015 0.1193862036 0.4773429334 0.2320627272 -0.0661255941 0.3055328727 0.0374722891 -0.2606592774 -0.1446614116 0.0355697274 0.0273357127 -0.0936309099 -0.1200100407 0.0921766236 -0.1317161173 0.4526828825 0.1806474477 0.0915896967 -0.1713104397 0.2670769691 0.0509760529 0.5096933842 0.2586615384 -0.0817232504 -0.2053631544 -0.0208222009 -0.0624232702 0.0095725358 0.0654403716 -0.0104726851 0.4530313015 -0.1704938561 0.3867720664 -0.0662272424 -0.0777191520 0.1885268986 0.2479622662 0.3023183942 -0.1664294899 -0.1465227306 -0.0986508653 0.0582030788 -0.0495965853
